1054 300
我 -0.02010671 0.2307134 -0.19240178 0.060778834 0.05419966 0.09557745 -0.027186573 -0.041640032 -0.057020172 -0.1492216 0.11483725 -0.110783875 -0.05693643 0.11407809 -0.03979046 -0.02011196 -0.12174733 -0.0060141715 -0.047108494 0.016623896 0.07222865 -0.0719141 0.03439266 -0.030702122 -0.061123002 0.0448959 -0.033212118 -0.035552785 9.114005e-05 0.18295822 -0.21713056 0.04763683 -0.08219264 -0.06398389 -0.052635122 -0.10839773 -0.1726066 -0.091171056 0.098090835 -0.13812195 0.025410935 -0.28816223 0.10650925 -0.15947233 0.10713596 0.053344827 -0.15184505 -0.08121574 -0.24341993 -0.08042509 -0.0100842705 -0.0018756955 0.18226412 0.121653385 -0.13168505 -0.02878655 -0.08327894 0.066838734 0.14394076 -0.06902744 -0.07654722 -0.0077885156 0.047942035 -0.07372043 0.05909549 0.20130822 0.22715311 0.005278492 0.087760985 -0.021441473 0.23288643 0.051346015 -0.08313807 -0.09469413 -0.048066832 -0.04870028 0.10710352 0.075020306 0.08448541 0.021650793 -0.03208268 0.09059619 -0.06687545 0.072910585 -0.025919842 -0.12409667 -0.003806643 -0.032438725 -0.069117315 -0.08376288 0.028301701 0.027479606 -0.041187022 -0.038677253 -0.11087336 -0.10504534 0.0030301886 0.040787384 0.109375544 0.065756686 0.11756119 -0.1554845 0.12920588 -0.20938952 0.00045900352 0.04115351 -0.058456507 -0.16938962 0.052649036 0.013437971 -0.09895606 -0.066363886 -0.021772817 0.041074786 -0.12175392 0.0014576432 0.13545024 -0.15403943 -0.00644289 0.17390479 -0.089436695 0.01003726 -0.09790089 -0.07379076 0.18019141 0.11736253 -0.07701496 -0.3839454 -0.07065365 0.18010856 -0.02586786 0.0054938383 -0.3393446 0.05480169 0.04074202 -0.08640416 0.0049854657 0.044074304 -0.11753349 0.03197253 -0.026502332 -0.100880116 0.015752757 -0.19339292 -0.09975951 -0.08742283 -0.16385046 0.030078374 0.020965511 0.155038 0.09222097 -0.0019227691 0.213401 -0.095122024 -0.060746748 -0.049151346 0.00032112008 -0.0062947916 -0.21669589 0.055359464 0.1507911 0.021209398 -0.021292683 0.2204696 -0.11502742 -0.06733868 -0.15905988 0.010294981 -0.10731395 -0.09046438 -0.19294466 -0.04173261 -0.0005505612 -0.11118628 0.082059376 -0.09510923 0.028817084 -0.10089715 0.08607132 0.035119653 0.08120727 0.0713866 -0.2047398 -0.025997145 -0.13476674 -0.101471245 -0.099679254 0.030311724 -0.043109696 0.031940054 0.22243245 0.055318866 0.14906959 0.17323914 -0.21051529 0.094757706 -0.20592599 0.112293534 -0.12125409 0.083507024 0.057880867 -0.114882536 0.10529745 0.08264732 0.11237171 -0.14900786 -0.13755068 0.25544977 -0.03965202 -0.008573359 0.12045354 0.100166716 -0.11453163 -0.060434952 0.14891249 0.1739352 0.12725337 -0.028283285 0.11753527 0.11505619 0.13254395 0.08421963 -0.10696227 0.068128936 -0.13604644 0.12226717 0.070630156 -0.12916023 -0.072335884 -0.18781188 -0.2326061 -0.036722507 0.058507532 -0.12011939 0.122758016 -0.007368851 0.09463463 -0.041689795 -0.079889014 -0.09923731 0.023539485 0.061393235 0.1820861 -0.10217652 -0.03379589 0.14249624 -0.18926284 0.22518903 -0.029709166 -0.10746937 0.09770812 0.1710042 -0.12649374 0.22721839 0.21213408 -0.059717458 -0.12593964 0.15029414 -0.13891755 -0.04597187 0.14804853 -0.23144604 -0.0902024 -0.16510327 -0.19311947 0.06999049 0.0020847206 0.059622373 -0.058988854 0.1167016 -0.12297665 0.109541066 0.29553673 0.08315882 0.09108705 -0.037630707 0.06725633 0.1118382 0.23688474 0.015821518 0.0073973574 0.016162196 -0.007260669 0.19675133 0.16180971 -0.20651194 0.18243398 -0.15824567 0.053946182 -0.07367917 -0.13204145 0.08291702 0.16550843 -0.07393126 -0.16829763 -0.005398479 -0.11368055 0.21845326 -0.15927054 0.016535694
的 0.027761443 0.2278387 -0.15032938 0.03698201 0.020584587 0.06033297 -0.05980863 -0.07814524 -0.088015385 -0.16623564 0.13633105 -0.19583447 -0.0908645 0.13789584 -0.0070078825 0.0012582574 -0.16277806 0.044085715 -0.094172165 0.09614845 0.059350744 -0.05735994 0.09483236 0.026553571 -0.096331246 0.022935884 -0.05234622 -0.032130048 0.017062709 0.18142374 -0.24427122 0.029663563 -0.07858985 -0.07185835 -0.040895317 -0.14420171 -0.14140946 -0.16781428 0.09224787 -0.16493252 0.09829052 -0.34429 0.07732929 -0.18795766 0.11021068 0.0227066 -0.19348401 -0.12208664 -0.30437613 -0.031752862 0.025404947 0.052295193 0.20438753 0.13852242 -0.15494524 -0.0007810061 -0.09205385 0.113835014 0.15815853 -0.1361951 -0.14152208 0.021548301 0.03107238 -0.09543603 0.07334951 0.18882138 0.15779376 -0.007382381 0.041789975 -0.03242126 0.25022915 0.046840668 -0.043064456 -0.1160686 -0.025171885 -0.064918004 0.09497998 0.12861566 0.09064516 0.08693235 -0.08353353 0.14113382 -0.020737216 0.021944731 -0.026506806 -0.13942899 -0.043564983 -0.0830158 -0.08350848 -0.046735123 -0.0057740263 0.046464957 -0.049522948 -0.03462487 -0.0723644 -0.1365652 0.028578615 -0.008171859 0.106400914 0.06660778 0.08333153 -0.18237142 0.1555414 -0.22384416 -0.035680156 0.023054762 -0.11228353 -0.20791036 0.06846 0.00019357045 -0.10620988 -0.08324472 -0.05863573 0.030150061 -0.124448866 -0.029001705 0.13471752 -0.24041784 -0.018888125 0.24039663 -0.1327649 0.04136 -0.05922377 -0.09297529 0.1779046 0.13282242 -0.12641777 -0.39413288 -0.092151925 0.17406969 -0.03891613 0.0011706408 -0.32896313 0.025710193 -0.012552113 -0.07521525 -0.07427518 0.061108746 -0.20059144 0.05201132 -0.041153926 -0.04263951 0.07009069 -0.27194804 -0.12604782 -0.10268348 -0.17971297 0.033063564 0.03159717 0.16991822 0.14747414 0.027941821 0.21780275 -0.12700658 -0.06136026 -0.058944993 0.009531176 -0.02464507 -0.20225932 0.045107406 0.1557333 -0.041797854 -0.03765005 0.19525285 -0.20915188 -0.05400619 -0.09966477 -0.030274583 -0.031185478 -0.09003741 -0.24279217 -0.09595355 0.029528718 -0.12241812 0.01992407 -0.056193776 0.030421037 -0.12765399 0.07968199 -0.028409872 0.032748345 0.09548661 -0.1766896 -0.0658237 -0.12987997 -0.13924891 -0.098557405 0.02357235 -0.08612032 -0.00039333577 0.21201092 0.050543472 0.17608541 0.18995006 -0.30177307 0.106453404 -0.23059729 0.110379554 -0.10842905 0.17337063 0.09251823 -0.031065186 0.080299 0.05141019 0.14631575 -0.11166528 -0.11312128 0.28518617 -0.029676672 -0.007331457 0.15900655 0.062508 -0.1522747 -0.0927849 0.124266624 0.17550653 0.24220452 -0.010290329 0.2298926 0.18764205 0.13431683 0.0744095 -0.12685508 0.0972332 -0.12776645 0.08523371 0.08297205 -0.18902288 -0.09182664 -0.24470156 -0.28925693 -0.0038557383 0.062923886 -0.13183905 0.12534934 0.011416809 0.10521844 -0.05930156 -0.019932164 -0.13474934 0.07642199 0.0683232 0.21433072 -0.08693788 0.053581975 0.1132022 -0.20245425 0.27590942 -0.026607452 -0.1341025 0.115778804 0.13357213 -0.18428308 0.24904314 0.16442136 -0.08813752 -0.16599314 0.14839998 -0.1392553 -0.022456838 0.15231247 -0.24585965 -0.07752535 -0.1381414 -0.21016987 0.112917736 -0.03327933 0.06298015 -0.027747007 0.11390055 -0.106817044 0.06102192 0.33362353 0.104585186 0.1982289 0.056049924 0.08218444 0.09107603 0.23581204 -0.0008806471 0.02532101 0.10950398 -0.031951588 0.19098881 0.2117425 -0.19208749 0.21111159 -0.19563681 -0.016197354 -0.0119219255 -0.11100447 0.10518033 0.13407844 -0.13798401 -0.21852635 -0.02460927 -0.11980994 0.24839392 -0.15137267 0.03591222
你 0.027221449 0.21796034 -0.14477076 0.034738652 0.024667231 0.068329595 -0.051949583 -0.07022973 -0.08532452 -0.15089287 0.12929454 -0.18651555 -0.08824646 0.13245447 -0.0035976125 0.0065568844 -0.15610377 0.042565867 -0.089580774 0.08483067 0.0620592 -0.055800576 0.089542024 0.024973169 -0.08727779 0.0264557 -0.046629902 -0.023291059 0.009011446 0.17691846 -0.23135479 0.03194655 -0.06877261 -0.072093464 -0.03398799 -0.13559708 -0.14307389 -0.15013485 0.08992813 -0.15630463 0.09377464 -0.32682973 0.07160865 -0.17535897 0.109276965 0.027474472 -0.18388826 -0.10777089 -0.2893507 -0.030233419 0.025648952 0.045132667 0.19700956 0.1356861 -0.14175346 0.001011796 -0.095779344 0.10282574 0.14948852 -0.11851496 -0.13170928 0.0146913435 0.026912209 -0.09287664 0.06634005 0.17911716 0.16199821 -0.00744367 0.04245482 -0.028805822 0.24289349 0.04392447 -0.039323132 -0.11606711 -0.030333355 -0.05480718 0.09362175 0.114146926 0.082552604 0.08195306 -0.073788084 0.13311711 -0.019864699 0.028169576 -0.024740044 -0.12999794 -0.040975682 -0.070820145 -0.08013869 -0.050166935 0.0022306517 0.046468478 -0.046475783 -0.03209309 -0.07215983 -0.134488 0.033506908 -0.00032301515 0.10493143 0.06269319 0.081178375 -0.17331736 0.14129947 -0.21445455 -0.03336059 0.02226213 -0.10663714 -0.19823372 0.062140103 -0.0052445116 -0.10029292 -0.07269292 -0.058089547 0.0257841 -0.1138692 -0.02538061 0.12885559 -0.22814657 -0.017917905 0.22494201 -0.1245454 0.040627226 -0.058175348 -0.081955865 0.1711894 0.12614852 -0.119844556 -0.37448066 -0.09226071 0.17065504 -0.04140182 -0.0092903795 -0.3206979 0.024958346 -0.016955862 -0.07226404 -0.07351797 0.058313314 -0.18346667 0.04329382 -0.04204342 -0.04514137 0.06903867 -0.2614634 -0.12366268 -0.0969431 -0.16936725 0.033282656 0.028846497 0.16187975 0.13805711 0.0208124 0.21164708 -0.12059974 -0.05732609 -0.055233967 0.0049161897 -0.016831096 -0.19248162 0.048048522 0.15012366 -0.03987328 -0.036523692 0.18627931 -0.19719611 -0.05871953 -0.09591267 -0.026884874 -0.034110792 -0.08413878 -0.22698519 -0.09349623 0.025662668 -0.111214556 0.019612659 -0.05558863 0.027610881 -0.11671618 0.076361135 -0.026444225 0.03443399 0.089494616 -0.17496955 -0.06448475 -0.1238013 -0.1323059 -0.09458612 0.020169957 -0.07989983 0.0020164978 0.19844232 0.047628343 0.1703477 0.19035709 -0.28467548 0.10044126 -0.21558797 0.11494498 -0.101836294 0.15465978 0.08648404 -0.03794436 0.077662155 0.0591111 0.14021443 -0.11548026 -0.1153094 0.2708342 -0.033649236 -0.0024373725 0.15135051 0.05820841 -0.1496911 -0.08075091 0.11926825 0.16543071 0.22499129 -0.012401209 0.2126727 0.17127644 0.12522082 0.075077064 -0.117558554 0.09476551 -0.11904748 0.07517457 0.08441683 -0.17872497 -0.09183597 -0.24208653 -0.27491987 -0.0030608356 0.056071695 -0.1303602 0.11607222 0.011673754 0.10187182 -0.055266324 -0.030544022 -0.12745595 0.07128905 0.06162788 0.20897609 -0.083972976 0.051655315 0.114728846 -0.19362237 0.26556838 -0.03208118 -0.12663093 0.09924592 0.12456552 -0.17647061 0.24404347 0.15698834 -0.0849838 -0.15702106 0.14083165 -0.13039811 -0.021519436 0.14108558 -0.2334405 -0.078924224 -0.13361575 -0.2041692 0.10475035 -0.022788772 0.06326353 -0.024786118 0.09649488 -0.103780136 0.060925413 0.318638 0.09909274 0.19356735 0.047820825 0.08096363 0.08585646 0.22541864 -0.0004449817 0.019508388 0.09526203 -0.027885305 0.19086371 0.19961344 -0.18733504 0.20950393 -0.19160257 -0.014131527 -0.021329517 -0.10306323 0.09683613 0.12475522 -0.13774174 -0.20837516 -0.0221087 -0.11600339 0.23641998 -0.14481987 0.030512722
了 0.011044518 0.22100048 -0.14883915 0.040558632 0.028082723 0.07507949 -0.076815225 -0.057528425 -0.07587213 -0.1405622 0.11130036 -0.16961603 -0.08242427 0.1275782 -0.02169334 0.014819982 -0.15735279 0.034213398 -0.08904218 0.07017441 0.057166625 -0.06459748 0.0837846 0.030772729 -0.083777234 0.0026395835 -0.051774282 -0.02147049 0.022133514 0.16924794 -0.21335389 0.052912306 -0.07435299 -0.075985074 -0.057875697 -0.13405012 -0.12996969 -0.15692325 0.08357532 -0.1611674 0.082882024 -0.33073562 0.07370925 -0.1911093 0.10393899 0.02753827 -0.18106075 -0.117536046 -0.2912208 -0.023197664 0.014242762 0.049279317 0.20964465 0.1312062 -0.15743884 0.005594438 -0.09459777 0.11383016 0.1370829 -0.13119924 -0.14834082 0.019785471 0.043145053 -0.08544232 0.068959475 0.18455093 0.15955359 0.0025639436 0.038493454 -0.033655737 0.2118484 0.040570144 -0.051285636 -0.11669541 -0.032031585 -0.042621475 0.09184657 0.12863629 0.09794142 0.08839443 -0.07135177 0.12613854 -0.018391488 0.0218534 -0.0209719 -0.1183031 -0.017537044 -0.07658887 -0.08605004 -0.050148495 -0.0036521556 0.057685994 -0.056403633 -0.017625641 -0.10478687 -0.11966291 0.03193845 -0.0069112065 0.111932084 0.030999463 0.06501792 -0.17873293 0.14448458 -0.20928438 -0.050650798 0.039368596 -0.11868874 -0.19751464 0.066231176 -0.02850249 -0.083097264 -0.07745459 -0.0584765 0.031083705 -0.1196819 -0.021027876 0.112952605 -0.23668791 -0.012266271 0.21717809 -0.123694934 0.036770847 -0.05409463 -0.091815144 0.17746967 0.116612054 -0.112600505 -0.3501997 -0.10340616 0.16020718 -0.042673975 0.010629864 -0.2846633 0.007116533 -0.007941089 -0.07523556 -0.09060923 0.03963113 -0.16126572 0.06430895 -0.050123606 -0.03524747 0.06891161 -0.2677957 -0.12510866 -0.114138365 -0.16307548 0.026719548 0.03607593 0.14674528 0.16079177 0.024129745 0.21752034 -0.13919684 -0.06161713 -0.05147873 -0.016419243 -0.022969602 -0.19657597 0.07049399 0.14773582 -0.025708534 -0.02037279 0.18750803 -0.1653644 -0.0519686 -0.090079166 -0.022528727 -0.02816813 -0.08875127 -0.2109117 -0.06477795 0.016017273 -0.11301909 0.0057985373 -0.05050664 0.048442166 -0.112615734 0.06923666 -0.049449407 0.023798741 0.088945456 -0.16254103 -0.06742689 -0.11149721 -0.12868606 -0.089441895 0.018547993 -0.098734885 0.0036576712 0.18547447 0.03423022 0.14204584 0.17932278 -0.27786273 0.111285366 -0.20464636 0.09603649 -0.1199017 0.17711298 0.10476406 -0.042165734 0.06818294 0.07234116 0.1222468 -0.10894446 -0.12621494 0.25055215 -0.004125077 0.0064956383 0.13922064 0.042979915 -0.15532327 -0.08577913 0.11925184 0.15646285 0.24821736 0.0026864363 0.20478652 0.186819 0.13288967 0.056236435 -0.12637547 0.09774753 -0.102980174 0.061444953 0.05916153 -0.15763786 -0.0812709 -0.24280518 -0.28522816 -0.025133159 0.03974105 -0.1232041 0.11188527 0.017850885 0.09443912 -0.0526447 -0.018119719 -0.1134991 0.06278829 0.05737006 0.19551612 -0.07101186 0.06491035 0.105882265 -0.17197694 0.24468337 -0.034624264 -0.117136285 0.090413965 0.12749563 -0.19294712 0.22508204 0.13163067 -0.07863906 -0.16766702 0.13593416 -0.117476836 -0.0067418558 0.14342476 -0.23304395 -0.09115076 -0.13258713 -0.19812596 0.0931657 -0.026528815 0.08565706 -0.03124896 0.08883768 -0.09644246 0.06459009 0.3268652 0.10159604 0.18146189 0.038309965 0.067764774 0.086930275 0.22343649 0.0041410485 0.027211607 0.11230748 -0.034626383 0.19679666 0.19847804 -0.18506414 0.2062961 -0.19421934 -0.0004885069 -0.023518555 -0.10281411 0.10970134 0.11194632 -0.1356998 -0.20866318 -0.011870178 -0.12775226 0.21667705 -0.12133093 0.03636475
捂脸 0.02656749 0.18945624 -0.13760386 0.073037796 0.089479476 0.06659639 -0.11694459 -0.058572367 -0.015040581 -0.088016264 0.08786613 -0.15226991 -0.046354923 0.14541635 -0.061538827 0.075080305 -0.12618922 0.097850285 -0.12742177 0.03748464 0.08238474 -0.098565176 0.0710653 0.072006054 0.012148072 -0.052795656 -0.047257014 0.04041324 0.046761688 0.17919071 -0.14519387 0.09455699 -0.080868065 -0.08755426 -0.08490346 -0.12729011 -0.109202646 -0.16883643 0.08523975 -0.11848008 0.03589196 -0.3132365 0.029029 -0.21062867 0.16754615 -0.065092325 -0.22209744 -0.13985543 -0.24041007 0.0029264144 0.072078206 0.10981196 0.19990875 0.16524374 -0.18712683 -0.016549485 -0.05972351 0.13967347 0.16549532 -0.13097692 -0.18515067 0.10554716 0.05524419 -0.0820735 0.1076903 0.13414077 0.06725913 0.0068865255 0.050822195 -0.0017450602 0.11261501 0.0033641856 -0.03552192 -0.14705564 -0.04394418 -0.061221644 0.0988656 0.13747819 0.08970305 0.07210288 -0.03212985 0.07801676 0.008046419 0.033781786 -0.07726365 -0.040984727 0.0060977642 -0.12365989 -0.12488504 0.0018548667 -0.040107664 0.0489369 -0.031177375 -0.017222013 -0.1270604 -0.13302952 -0.011862705 0.005877588 0.04365462 -0.0415369 -0.002047703 -0.2034759 0.14170615 -0.14650287 -0.094421305 0.053415526 -0.15640984 -0.22172853 0.040929392 -0.08760003 -0.079898275 -0.053948477 0.002507801 0.03858394 -0.094739296 -0.015580969 0.09370932 -0.22362126 -0.028926082 0.22464457 -0.1858562 0.054925222 0.005151642 -0.09682959 0.10119263 0.1426199 -0.084555395 -0.28124824 -0.1630244 0.09915134 -0.0361467 0.054897495 -0.15188761 -0.07627484 0.012367272 -0.021826316 -0.16571026 -0.025859838 -0.08867706 0.10902518 -0.084222265 -0.033785455 0.072188824 -0.17171985 -0.08346637 -0.13624851 -0.14627735 0.03970353 0.02552223 0.09642649 0.1559346 0.08373266 0.25885388 -0.19034885 -0.07496115 -0.041997407 -0.0038805201 -0.07953957 -0.20265505 0.122629955 0.11588405 0.013130217 0.015872724 0.19497018 -0.17155758 -0.03061483 -0.00097047735 0.02914766 0.0269551 -0.10963048 -0.21253271 -0.047405533 -0.019392738 -0.15499368 -0.043349188 -0.0031467061 0.058543812 -0.17918615 -0.039659787 -0.12488658 -0.08025696 0.032028005 -0.11959306 -0.08235574 -0.053161513 -0.16147625 -0.03646585 -0.055343598 -0.13333932 -0.05135142 0.1766753 -0.038563576 0.120531656 0.16349564 -0.25588942 0.03136259 -0.14957492 0.04422541 -0.041772235 0.22866 0.09433498 -0.0072208256 0.06900357 0.13575621 0.092394434 -0.087311834 -0.09143604 0.11856214 0.04758307 0.011521914 0.15683788 -0.044479184 -0.20494537 -0.103654526 0.07191788 0.09957358 0.25413528 0.08329787 0.19786286 0.25358304 0.09874051 0.07368517 -0.18782839 0.10503075 -0.019976338 0.04624916 -0.007834487 -0.17903802 0.011237551 -0.1769881 -0.3196366 -0.040769782 -0.027925149 -0.05327916 0.09191385 -0.014590152 0.11535349 0.013465492 0.06028437 -0.10680469 0.09506501 0.009850011 0.21207564 -0.016775964 0.113480896 0.08464875 -0.13846838 0.21389338 -0.058426265 -0.12591384 0.034235116 0.09573917 -0.23214786 0.1833327 0.023031278 -0.032114755 -0.14439294 0.14846057 -0.1212713 0.026246538 0.0826536 -0.14442655 -0.09366513 -0.10853993 -0.121923745 0.08525757 0.019823357 0.12035685 -0.042189818 -0.024032297 -0.10017421 0.06393811 0.309056 0.17460428 0.16530769 0.055421565 0.0896051 0.055500716 0.18683024 -0.0008672139 0.041042905 0.1654572 0.0025726382 0.2202305 0.17014027 -0.22888602 0.24010016 -0.110194884 -0.057195555 0.027965607 -0.067459665 0.053291738 0.044712678 -0.09219313 -0.18963529 -0.024237381 -0.15127397 0.15497898 -0.09283648 0.070886925
吃 0.017717563 0.2276719 -0.14679942 0.038809612 0.034947235 0.07612926 -0.07228154 -0.063848495 -0.08014965 -0.14031908 0.1096787 -0.1749317 -0.07989121 0.13304558 -0.015911244 0.018040301 -0.15772936 0.039154142 -0.0887423 0.076467864 0.062097292 -0.06315313 0.0958069 0.03350115 -0.08506285 0.0041002505 -0.05167841 -0.015878202 0.023251457 0.16995995 -0.2196144 0.048648365 -0.070523694 -0.07687758 -0.051848933 -0.13622461 -0.12846258 -0.1534551 0.08676395 -0.16433437 0.09038486 -0.3269795 0.06703288 -0.19549224 0.11012362 0.0226522 -0.17968163 -0.11918089 -0.29436707 -0.0224866 0.017598374 0.06181556 0.20829378 0.12998568 -0.15082845 0.008007689 -0.092745416 0.11280673 0.13908055 -0.13175286 -0.15122417 0.020804804 0.03823587 -0.08696122 0.06932935 0.18940626 0.15856788 -0.0011872416 0.035722297 -0.03211814 0.21120477 0.037109766 -0.043812577 -0.124583766 -0.026776837 -0.043856956 0.09703387 0.13148451 0.0964811 0.090835646 -0.06941304 0.12670253 -0.02146566 0.02059319 -0.028965626 -0.11590616 -0.025306081 -0.07680786 -0.08789683 -0.039674208 -0.0019839094 0.058168888 -0.054322395 -0.018338816 -0.09765335 -0.12624028 0.029027443 -0.0048817913 0.10715364 0.03465635 0.06084788 -0.18144575 0.1407738 -0.20849493 -0.05305845 0.039016396 -0.117503606 -0.1989354 0.06969328 -0.021236809 -0.086105466 -0.07125667 -0.058371674 0.03051089 -0.1117815 -0.028810315 0.12089761 -0.24263111 -0.021174973 0.22888175 -0.12410039 0.041289806 -0.04710977 -0.09475155 0.17281274 0.12137139 -0.118621655 -0.3534705 -0.110631555 0.17432576 -0.037714496 0.0006169552 -0.28406915 0.0033136352 -0.009519492 -0.072312534 -0.09845715 0.044055983 -0.1683299 0.06263935 -0.05075203 -0.030219316 0.074241824 -0.27427748 -0.123780094 -0.111601226 -0.16541302 0.033619355 0.033239674 0.14765865 0.15661795 0.024160655 0.2178399 -0.13544112 -0.063435465 -0.05124825 -0.013172689 -0.022024706 -0.19655533 0.065610886 0.1493754 -0.032963727 -0.019561525 0.17851004 -0.17470123 -0.055569284 -0.087186284 -0.027446453 -0.021713056 -0.09217439 -0.22234717 -0.07557809 0.025662117 -0.1143885 0.0037746602 -0.04713718 0.04389302 -0.11627584 0.06486203 -0.049691744 0.02058569 0.08446345 -0.16381608 -0.06632912 -0.122514576 -0.126338 -0.08721977 0.020448625 -0.097997606 -0.0018614564 0.18516503 0.030366564 0.1436756 0.18169487 -0.28330556 0.10926028 -0.20388564 0.09533629 -0.11194541 0.1771446 0.10125638 -0.034051403 0.07206873 0.06784643 0.12259499 -0.111608684 -0.12150076 0.25120535 -0.011597531 0.0075677563 0.14455198 0.03808814 -0.15997061 -0.08843484 0.12007469 0.16097634 0.25478524 0.00049273693 0.2090543 0.18955863 0.1410807 0.05957976 -0.13024749 0.097846895 -0.109198295 0.059210982 0.06426653 -0.1648368 -0.08284206 -0.24943948 -0.28681943 -0.015906228 0.039653175 -0.12882681 0.11281338 0.016613962 0.10351179 -0.047735542 -0.013903973 -0.11916526 0.06580719 0.051998656 0.20507444 -0.06975805 0.065032616 0.10036004 -0.1803685 0.25508505 -0.03865931 -0.124915615 0.094306536 0.12493207 -0.1940028 0.23264223 0.13125516 -0.07365445 -0.16294567 0.14332977 -0.12119808 -0.007675421 0.14674567 -0.23124686 -0.0830626 -0.1328289 -0.20842789 0.09528124 -0.022968084 0.08095261 -0.028096797 0.08264524 -0.09450799 0.06334794 0.3287984 0.10728617 0.18746087 0.044421576 0.07329102 0.085810654 0.2193556 0.0027537216 0.032722317 0.11801795 -0.031956192 0.19921769 0.20072347 -0.18240581 0.21411379 -0.19502333 -0.0063807913 -0.019607533 -0.10189484 0.11187715 0.11473134 -0.14280386 -0.21060456 -0.008928753 -0.12845416 0.2146138 -0.12398775 0.04144332
翻 -0.013867477 0.21681803 -0.1692609 0.055803146 0.034477726 0.07729047 -0.030341277 -0.04284931 -0.056572895 -0.13289441 0.11671534 -0.09012884 -0.06227893 0.10083294 -0.040546216 -0.025435427 -0.11566542 -0.006053713 -0.036784366 0.014941314 0.06642876 -0.056072015 0.021856222 -0.037588347 -0.054628227 0.042140882 -0.03499339 -0.05322657 -0.006488245 0.16352457 -0.2030823 0.057003014 -0.075053476 -0.0688221 -0.05834397 -0.10035474 -0.15982588 -0.08408204 0.09639291 -0.12206631 0.018089624 -0.26945046 0.106971666 -0.15738764 0.08509081 0.05829984 -0.12757541 -0.08257215 -0.2232029 -0.082361266 -0.008607706 -0.011064826 0.17982683 0.115850404 -0.120218724 -0.03705641 -0.07864827 0.06530208 0.13618541 -0.05710078 -0.07356736 -0.026069336 0.05692089 -0.06650013 0.061608262 0.1846955 0.20428245 0.006835392 0.08598519 -0.012176327 0.20037416 0.054173153 -0.081739366 -0.07576647 -0.05025611 -0.039369192 0.10489449 0.077411786 0.071517564 0.018046003 -0.04496499 0.07986125 -0.05670197 0.06344284 -0.029040938 -0.116957225 -0.004493556 -0.026392872 -0.06849162 -0.08507298 0.024351649 0.031140666 -0.029975563 -0.047125943 -0.1153255 -0.09179336 -0.0029884535 0.03526609 0.09604449 0.052110933 0.10650159 -0.14504413 0.12912993 -0.18145669 0.004304156 0.02500158 -0.05437018 -0.15817496 0.051869243 0.018338444 -0.08471818 -0.060713556 -0.015836282 0.03556305 -0.10413468 -0.00042267793 0.11806211 -0.14009112 -0.0042948634 0.1584926 -0.08692456 0.013809181 -0.0865244 -0.058184773 0.1519349 0.09145737 -0.07509526 -0.3458741 -0.0571028 0.16378516 -0.032686457 0.0026793838 -0.30451587 0.04815582 0.03506836 -0.07748678 0.00027950443 0.026749399 -0.10992167 0.034485426 -0.021526046 -0.0879235 0.029303277 -0.18322603 -0.101560384 -0.07381881 -0.15009181 0.03736686 0.028268274 0.14431302 0.09012621 -0.0013414223 0.19168475 -0.08628321 -0.060662143 -0.05393897 0.0058508073 -0.008169143 -0.19270669 0.05376481 0.12990803 0.02693128 -0.028432997 0.19951193 -0.114396654 -0.06352995 -0.1355539 0.0077590127 -0.08975461 -0.06905941 -0.17599085 -0.04040218 -0.009468975 -0.10473168 0.06297059 -0.10047573 0.019983431 -0.0935737 0.081263795 0.022413978 0.07828496 0.0687802 -0.17046931 -0.03393833 -0.1230768 -0.0835935 -0.092934206 0.02167774 -0.041365918 0.015064107 0.21056172 0.058782917 0.14184658 0.14050643 -0.19362532 0.07878921 -0.18720505 0.09207992 -0.10210886 0.094804525 0.048424598 -0.10727275 0.09443666 0.081142046 0.10178547 -0.1426999 -0.13419944 0.22240861 -0.028160598 -0.018084276 0.10643222 0.08022248 -0.121478416 -0.070137255 0.12916625 0.14922078 0.12819602 -0.032643672 0.1148062 0.11110475 0.11006492 0.072990045 -0.089004144 0.065823324 -0.11979217 0.094668865 0.063031115 -0.10533131 -0.04616313 -0.17456186 -0.21115854 -0.043011084 0.050905064 -0.10146964 0.10102167 0.0032817936 0.0725527 -0.031697344 -0.06352469 -0.07734798 0.014209078 0.04777321 0.17703475 -0.09748482 -0.014459303 0.12176064 -0.18252312 0.20054072 -0.026015999 -0.08936603 0.078177616 0.15334663 -0.11979329 0.18745254 0.17687736 -0.049215537 -0.11660324 0.12100877 -0.118726246 -0.03740209 0.13839017 -0.2182709 -0.091092594 -0.15758234 -0.15167363 0.057358652 -0.001941994 0.06019629 -0.047794778 0.10310841 -0.12079024 0.10235348 0.26088095 0.08135843 0.07627924 -0.03300448 0.05149403 0.10576204 0.20831214 0.0048956187 -0.003889862 0.031142574 -0.001026948 0.18441123 0.14838518 -0.18928349 0.16652018 -0.14284424 0.05160735 -0.06381096 -0.11949977 0.07565797 0.15008822 -0.06641356 -0.15014325 -0.0013663227 -0.10239964 0.18959485 -0.143733 0.020694315
吗 0.0022934417 0.23358712 -0.15707384 0.05079955 0.025486441 0.06907851 -0.06639969 -0.056033075 -0.07197823 -0.14682421 0.11458828 -0.15177879 -0.07695335 0.12252807 -0.028678896 -0.0030855131 -0.1495675 0.029732637 -0.085474044 0.061775446 0.058100846 -0.06271091 0.07474181 0.0143499365 -0.07563357 0.012642861 -0.04767563 -0.028156456 0.012974528 0.17358854 -0.22562727 0.061587885 -0.079069845 -0.07687066 -0.06563067 -0.12811914 -0.14804348 -0.15196921 0.0890861 -0.16062556 0.078254975 -0.33046496 0.081405535 -0.19228046 0.09562937 0.032503966 -0.17466138 -0.123038545 -0.28824487 -0.046077143 0.01138713 0.036694247 0.21235363 0.13530307 -0.14805585 -0.0042767073 -0.0879749 0.103472866 0.14564665 -0.12142656 -0.13705783 0.003228268 0.050116803 -0.08214285 0.07372515 0.19263585 0.16693251 0.011423096 0.05952217 -0.02909681 0.21800575 0.045070577 -0.064318314 -0.11309327 -0.038239457 -0.04384936 0.10388 0.121791996 0.0955617 0.07499951 -0.069101155 0.12281537 -0.024413334 0.030759608 -0.031845395 -0.121545754 -0.014013126 -0.0715394 -0.08350631 -0.058602877 0.004077813 0.04660138 -0.04377489 -0.032015283 -0.10798491 -0.113644585 0.02268369 -0.0013275521 0.10342152 0.035568006 0.0774501 -0.17844915 0.15159877 -0.21255644 -0.042154443 0.03290783 -0.1093355 -0.20255867 0.06710615 -0.017119963 -0.0848821 -0.07870066 -0.04499635 0.03744358 -0.1094826 -0.022422478 0.12002516 -0.22378442 -0.011158703 0.21387556 -0.11953146 0.03924051 -0.057037864 -0.092318535 0.1702405 0.1152884 -0.110678814 -0.36693764 -0.09339061 0.16947435 -0.042323515 0.008442657 -0.29477412 0.019349042 0.0021207987 -0.07761095 -0.07076679 0.03429279 -0.16412227 0.06204104 -0.039103597 -0.049230665 0.063160606 -0.2528758 -0.11816004 -0.10334684 -0.16784826 0.0425749 0.035620376 0.15500733 0.1523328 0.018992292 0.21555004 -0.13624232 -0.06588889 -0.054122474 -0.004568804 -0.023314994 -0.20641507 0.06458494 0.14849865 -0.016431576 -0.02037633 0.19482839 -0.16874602 -0.060078543 -0.09932567 -0.014681282 -0.038681258 -0.08800118 -0.21772288 -0.070696615 0.012590774 -0.12073026 0.010299753 -0.06396312 0.039687753 -0.116651066 0.07480971 -0.037734155 0.03734632 0.095041305 -0.1636748 -0.0689039 -0.12667166 -0.119023144 -0.095977664 0.016618868 -0.08593177 -6.5860295e-05 0.20432933 0.043197244 0.15142031 0.17254692 -0.27118814 0.1032255 -0.21140514 0.09171837 -0.11320694 0.16891609 0.09358067 -0.05402453 0.08086023 0.07043508 0.12646352 -0.1221867 -0.12834753 0.24885555 -0.010147655 -0.006231941 0.14260064 0.05363576 -0.15114237 -0.09544993 0.121026136 0.16546984 0.23246513 -0.00036919603 0.19822653 0.18069507 0.13464598 0.068744324 -0.118593894 0.09796163 -0.115975335 0.070209235 0.06763098 -0.1505356 -0.066161074 -0.23304771 -0.27855596 -0.029368633 0.053712167 -0.11940054 0.11071955 0.005122971 0.08847836 -0.047455635 -0.027481725 -0.1104636 0.05270112 0.049806908 0.2064551 -0.07995242 0.054118406 0.10794015 -0.18197298 0.25068566 -0.035050824 -0.12494039 0.092142545 0.14146563 -0.17876866 0.22167228 0.14618579 -0.0680794 -0.16435982 0.13225232 -0.12256915 -0.016719164 0.14883453 -0.239706 -0.09373689 -0.14344047 -0.1897024 0.08838806 -0.025240423 0.08400593 -0.0398655 0.09481 -0.11166722 0.075342864 0.32159543 0.104476295 0.1659105 0.031234784 0.068909466 0.09671465 0.22033043 -0.004387262 0.020080721 0.10435603 -0.017052144 0.19799879 0.19642408 -0.18981308 0.20124598 -0.1808848 0.009162837 -0.026313448 -0.10599217 0.1064783 0.1317555 -0.12799034 -0.1996252 -0.011304106 -0.12393284 0.21323405 -0.13558033 0.04466119
看 0.008739772 0.2321669 -0.15474236 0.0459925 0.02822635 0.06858363 -0.0564462 -0.05792559 -0.07792027 -0.14932752 0.11470125 -0.15411936 -0.08230361 0.11956997 -0.020885644 -0.003561364 -0.14858244 0.02345428 -0.07953144 0.062163632 0.056381986 -0.06529753 0.08213151 0.013468899 -0.086277395 0.017160522 -0.047653116 -0.031509977 0.020511016 0.16707891 -0.22718148 0.04970034 -0.07648351 -0.0777162 -0.057538807 -0.12992834 -0.14072128 -0.15085472 0.08834969 -0.15980835 0.08646285 -0.32698694 0.08356421 -0.18300374 0.094522566 0.039483916 -0.1696821 -0.12441445 -0.2905631 -0.03855584 0.008675326 0.038012754 0.20878954 0.1309217 -0.14305943 0.00065145787 -0.088598765 0.10397167 0.13496608 -0.12372479 -0.13651262 0.0067387945 0.04536245 -0.079841934 0.06974501 0.19274591 0.16783592 0.008758579 0.04889095 -0.028409693 0.21957533 0.04416349 -0.05690722 -0.10610036 -0.027935237 -0.045842525 0.09328576 0.121563256 0.08965656 0.07862242 -0.06792848 0.1221008 -0.028683987 0.026153821 -0.03389902 -0.124847904 -0.021200618 -0.0702301 -0.08142969 -0.053896993 0.0035953866 0.045175496 -0.051980715 -0.023857076 -0.09866821 -0.11340272 0.022769958 -0.0046042353 0.10731664 0.040849235 0.07304865 -0.17285177 0.14865091 -0.21493915 -0.04124129 0.03533182 -0.102747634 -0.19109647 0.069832005 -0.015510865 -0.08642008 -0.07957949 -0.047960386 0.03593579 -0.113485344 -0.017363405 0.11865204 -0.22339304 -0.010272111 0.21785074 -0.11779461 0.0364177 -0.055223804 -0.08899751 0.1763903 0.11277229 -0.11529445 -0.365267 -0.0946122 0.17780818 -0.03870787 0.0039785113 -0.29817745 0.017377805 -0.0014579517 -0.07715067 -0.07114027 0.04255556 -0.1670367 0.05323758 -0.04173332 -0.04113063 0.05879419 -0.25963193 -0.12209156 -0.09792905 -0.16859548 0.040791724 0.033926126 0.15306865 0.15048817 0.014547534 0.208224 -0.12742177 -0.060728297 -0.058674242 -0.007360017 -0.022155352 -0.19782689 0.054479808 0.1492026 -0.021253206 -0.02619849 0.1828724 -0.17114313 -0.05545472 -0.10647863 -0.021102233 -0.039198052 -0.087652385 -0.21260594 -0.0718052 0.021339562 -0.1123942 0.015723439 -0.061779134 0.039895926 -0.11231322 0.07939992 -0.030469311 0.037139546 0.09544625 -0.16970201 -0.06054473 -0.1274264 -0.116003744 -0.09722729 0.02490258 -0.08691814 0.004013569 0.19714184 0.041700426 0.15046164 0.17021042 -0.27277216 0.10686832 -0.21224514 0.099388696 -0.112243935 0.16820076 0.09266663 -0.05058301 0.07924799 0.06284337 0.1269984 -0.1124227 -0.1287331 0.2522333 -0.019574597 -0.0030816726 0.13673028 0.057538476 -0.14329672 -0.09111148 0.12314586 0.16687551 0.23385355 -0.0037858686 0.19173484 0.17685492 0.13428567 0.06700375 -0.11546898 0.0925675 -0.1195024 0.06854263 0.069150895 -0.15436918 -0.07490795 -0.2405441 -0.2685931 -0.02319353 0.059642393 -0.12746464 0.11666962 0.0122174155 0.08962209 -0.04899334 -0.028241629 -0.11149013 0.053931292 0.055794373 0.20414205 -0.08088501 0.048044596 0.10597681 -0.1813839 0.250348 -0.028766854 -0.11955944 0.0963336 0.1404638 -0.1713557 0.22643891 0.150974 -0.07627541 -0.15990232 0.13366592 -0.119342685 -0.021464137 0.14922148 -0.24224404 -0.08476514 -0.14721403 -0.2011067 0.08845146 -0.02992424 0.079962745 -0.04016267 0.10136053 -0.10729887 0.06500826 0.31870407 0.091894895 0.16823667 0.029018292 0.0638551 0.09390925 0.22076438 0.0027833998 0.02548008 0.10350033 -0.026152015 0.19281672 0.19435705 -0.18292482 0.1976548 -0.18392816 0.0096704755 -0.021732006 -0.10716018 0.1086448 0.12854335 -0.13345534 -0.20098193 -0.010712426 -0.11877081 0.21308395 -0.13662986 0.03240561
是 0.015293292 0.23702762 -0.159691 0.045495756 0.03096715 0.06765557 -0.053307176 -0.06955658 -0.07772585 -0.15979433 0.13244918 -0.1745115 -0.087896235 0.12826476 -0.013831789 -0.003781504 -0.15555693 0.026874263 -0.08538666 0.07289183 0.060475472 -0.063554764 0.07779387 0.013052783 -0.096474946 0.030751074 -0.047302846 -0.031253766 0.011583602 0.18228267 -0.23720583 0.039753407 -0.0814248 -0.08183289 -0.047795556 -0.13775863 -0.1456522 -0.15353386 0.096933186 -0.15907586 0.08988208 -0.34618193 0.09035142 -0.17934358 0.10375189 0.041827127 -0.18640089 -0.11611632 -0.29687378 -0.041042503 0.0071351505 0.040084444 0.21037713 0.13505813 -0.14591564 0.00020904084 -0.09367375 0.110184945 0.14819507 -0.12341754 -0.13362853 0.006318327 0.041494355 -0.088318184 0.0677484 0.19419746 0.17986612 0.003938718 0.052315403 -0.030766452 0.24604934 0.047439676 -0.057829585 -0.1111176 -0.037164766 -0.059182916 0.09554556 0.122507855 0.089065954 0.07629266 -0.07542316 0.13416488 -0.02681439 0.034891784 -0.03423419 -0.13642597 -0.030862171 -0.06931239 -0.084911816 -0.06414915 0.0019192273 0.03716027 -0.0526946 -0.03260651 -0.08911224 -0.12771846 0.023341784 0.0006613305 0.11094513 0.056181993 0.085349515 -0.17406759 0.15695657 -0.22654611 -0.033876013 0.03650254 -0.10354092 -0.20550863 0.06805088 -0.013030488 -0.10041903 -0.0751451 -0.05461849 0.033735618 -0.115673624 -0.019578256 0.13430463 -0.23006968 -0.008604935 0.2260109 -0.124301895 0.034420658 -0.061946534 -0.09014679 0.17869332 0.11916041 -0.11577881 -0.39347675 -0.091714606 0.18324994 -0.04688101 2.1532547e-05 -0.32898965 0.030284708 -0.0044785147 -0.07788305 -0.060283817 0.055608306 -0.17947908 0.045831908 -0.046605688 -0.05271685 0.054415874 -0.25904477 -0.12283997 -0.09649546 -0.18125443 0.034579374 0.030375496 0.167146 0.147835 0.018322013 0.22317146 -0.12712874 -0.061789654 -0.061190747 0.0028616148 -0.017328346 -0.20808512 0.04658529 0.15793498 -0.022001809 -0.035189614 0.203959 -0.18933469 -0.06054308 -0.11459711 -0.02090602 -0.05052665 -0.08837068 -0.2295251 -0.08626947 0.019145358 -0.11377041 0.02358965 -0.06405368 0.033223387 -0.11268682 0.08594926 -0.022334361 0.044138633 0.10095902 -0.1798203 -0.06512307 -0.13473576 -0.13351057 -0.10240075 0.029055502 -0.08222558 -0.0011735752 0.21014832 0.050211515 0.17573616 0.18533543 -0.2839799 0.10484262 -0.22568464 0.11668453 -0.11340001 0.16311805 0.08460788 -0.051279005 0.08275991 0.06141112 0.13327847 -0.12562639 -0.12215782 0.27662408 -0.031191176 -0.010070228 0.14535135 0.06700278 -0.14355928 -0.08968165 0.12743011 0.17938136 0.22116981 -0.011566064 0.19924083 0.17633805 0.13461591 0.08171527 -0.11649307 0.10162224 -0.12696345 0.081072725 0.07597051 -0.16943398 -0.08569596 -0.24238785 -0.27339122 -0.012737879 0.062969714 -0.13754088 0.11861405 0.007634622 0.10126318 -0.05360162 -0.028906437 -0.12394716 0.06347452 0.06433486 0.21262042 -0.099305406 0.04034501 0.11366952 -0.19517322 0.2708503 -0.02722066 -0.12062211 0.1055538 0.13974838 -0.17736503 0.24292174 0.16995585 -0.08287197 -0.16100264 0.14072767 -0.13067703 -0.025193192 0.15576129 -0.24312301 -0.08456149 -0.15143542 -0.20724761 0.10166914 -0.02651456 0.074917786 -0.0356581 0.11025617 -0.112084314 0.06861972 0.32861406 0.09736354 0.17555417 0.036343373 0.07161421 0.09709254 0.2292121 0.0031361082 0.020058725 0.09649857 -0.028613882 0.20553547 0.20159 -0.1943551 0.215277 -0.19526793 -4.0494855e-05 -0.025996653 -0.11288891 0.10292371 0.1465084 -0.12930976 -0.2092603 -0.022131128 -0.1178906 0.24442722 -0.15676236 0.03336916
不 0.0042969338 0.2418851 -0.16563724 0.045212537 0.024522197 0.07508792 -0.06200312 -0.056139994 -0.0849559 -0.16231644 0.1229087 -0.16762802 -0.077846296 0.13574952 -0.028000953 -0.0057184193 -0.15943621 0.024994649 -0.08471609 0.069479845 0.059991915 -0.06897187 0.081059955 0.014813321 -0.08760987 0.013159922 -0.050574902 -0.030547291 0.016928846 0.17558174 -0.23787314 0.051032655 -0.08346878 -0.0755964 -0.06020247 -0.13275279 -0.1562536 -0.15467936 0.09378998 -0.17028731 0.08441973 -0.3459349 0.09125921 -0.19619094 0.10717149 0.035692617 -0.18479007 -0.121625 -0.30633172 -0.047714304 0.010554969 0.034729835 0.21776819 0.14364022 -0.15797353 -0.0078496775 -0.09675901 0.10870894 0.15511984 -0.13076395 -0.1389004 0.0071148043 0.042995553 -0.086189486 0.074532375 0.20194869 0.1840368 0.009025932 0.053437967 -0.033244744 0.24216251 0.04975213 -0.059580274 -0.11280154 -0.037950527 -0.051834267 0.103504084 0.12283119 0.09047058 0.08282563 -0.06654767 0.13087592 -0.027242186 0.03172337 -0.022458253 -0.13554527 -0.022072645 -0.0713209 -0.08674467 -0.058299694 0.0037500644 0.047600668 -0.051842906 -0.028736481 -0.10802931 -0.12926172 0.026141027 -0.002981143 0.118771896 0.05044156 0.0896117 -0.1868584 0.15334715 -0.22979687 -0.03557915 0.037605833 -0.1046633 -0.2071727 0.07139508 -0.008533554 -0.0926822 -0.08180915 -0.050899528 0.0418267 -0.123849355 -0.021899277 0.12319692 -0.23165728 -0.00889813 0.2234304 -0.12282014 0.038992397 -0.07345472 -0.10018283 0.19121495 0.12066033 -0.11908431 -0.3902169 -0.10095778 0.18302739 -0.0369453 0.0015364191 -0.32618886 0.019481456 0.0023343703 -0.08773922 -0.065573454 0.04625297 -0.17669733 0.058064558 -0.04318813 -0.047441795 0.06437606 -0.26941612 -0.12838796 -0.11130241 -0.18058996 0.03825645 0.030472646 0.16805117 0.15402392 0.017052384 0.2291382 -0.13634397 -0.06969334 -0.05464872 -0.009466765 -0.015729053 -0.21225867 0.059970055 0.1642424 -0.0219781 -0.024227487 0.20364362 -0.18182212 -0.059076976 -0.115248635 -0.020263622 -0.052410718 -0.09620953 -0.23129842 -0.07353056 0.018577168 -0.1185253 0.025032677 -0.06380418 0.043354206 -0.116599 0.08273524 -0.034615993 0.043064065 0.09695488 -0.17652744 -0.057281144 -0.13782091 -0.12885368 -0.10935389 0.02384737 -0.08560339 0.006999106 0.21437457 0.049864754 0.16634639 0.18330383 -0.28719217 0.1179917 -0.22065355 0.1056106 -0.1226089 0.16604614 0.10182366 -0.062511995 0.08058824 0.06973761 0.13817744 -0.122332506 -0.13436437 0.2762335 -0.021262845 7.438459e-05 0.14539878 0.06691402 -0.15379715 -0.09274077 0.13236758 0.17455208 0.23965855 -0.005575529 0.20350976 0.17779581 0.13804235 0.07473527 -0.12327962 0.09398521 -0.12667526 0.08283642 0.0773214 -0.16058429 -0.08024197 -0.24886458 -0.29281905 -0.018495293 0.062995754 -0.13510291 0.12537448 0.005967926 0.10170981 -0.056200262 -0.030295102 -0.11974564 0.057049733 0.058688864 0.21294867 -0.08505865 0.041753773 0.12166572 -0.19361833 0.2646406 -0.028296074 -0.13094816 0.104858905 0.15147315 -0.18688588 0.23839176 0.1625777 -0.08254015 -0.17658249 0.1512217 -0.13259846 -0.020905048 0.15972999 -0.25307155 -0.09435785 -0.14834422 -0.20714325 0.101440005 -0.025326783 0.08030124 -0.043035615 0.1125136 -0.11156567 0.0715028 0.33875725 0.100455955 0.17692614 0.030669708 0.07515671 0.10076473 0.23999223 0.0009833213 0.022544334 0.10019232 -0.027149018 0.2010462 0.20922163 -0.1995439 0.21069553 -0.1995561 0.0074491613 -0.03122104 -0.117603235 0.116310544 0.13351694 -0.13101175 -0.21480873 -0.011252718 -0.12740247 0.23608524 -0.14318821 0.034885146
呲牙 -0.0050284723 0.20724685 -0.12819968 0.06429944 0.024762845 0.049830906 -0.05859324 -0.034473345 -0.061318908 -0.13249594 0.10205532 -0.1180022 -0.042524602 0.076717116 -0.028848417 -0.009664443 -0.1426157 0.0066047325 -0.07026474 0.008550561 0.02631335 -0.07070864 0.050109793 0.04332048 -0.10732419 -0.026972182 -0.04690411 -0.036857285 0.052289527 0.1265334 -0.19364935 0.050075453 -0.10263236 -0.04435656 -0.10125157 -0.096128285 -0.090268396 -0.1485108 0.048289075 -0.16484167 0.075302646 -0.32930627 0.07862392 -0.1708849 0.05375902 0.050571106 -0.15687388 -0.13781634 -0.27091753 -0.032526154 -0.050296426 0.025974905 0.19350357 0.09779486 -0.13870198 0.016099537 -0.07661008 0.12171183 0.10273882 -0.13237128 -0.14527838 0.016717507 0.04348672 -0.05662062 0.07597487 0.17478919 0.14435841 0.048555233 0.035833646 -0.029824734 0.17868815 0.051779535 -0.057472754 -0.10123529 -0.00065983227 -0.043898165 0.08680657 0.1262475 0.10066067 0.083725534 -0.049344026 0.09274806 -0.0122044 -0.01743427 -0.03485599 -0.12718494 0.011963054 -0.05874888 -0.08044768 -0.05250561 -0.012756171 0.023525357 -0.07647558 -0.0019333415 -0.123430334 -0.07098892 0.027478129 -0.022451986 0.105965 0.0091515975 0.05450318 -0.17670207 0.16116264 -0.17577238 -0.0439616 0.06602806 -0.08903642 -0.1374393 0.068332784 -0.05216763 -0.064891905 -0.09920489 -0.046243556 0.048337582 -0.11460513 0.022186143 0.093856655 -0.21985494 -5.019264e-05 0.19208397 -0.10762142 0.015492191 -0.043499 -0.08395337 0.18403976 0.08315044 -0.104113914 -0.3065227 -0.104361005 0.14976847 -0.03665472 0.055784836 -0.23129292 0.0074690757 0.002272861 -0.07353552 -0.05414331 0.022953266 -0.13019426 0.06884043 -0.05007958 -0.0075189825 0.020011758 -0.23878916 -0.09224364 -0.09343644 -0.14707732 0.02721172 0.04506244 0.1312236 0.16851231 0.031364862 0.18672144 -0.1381143 -0.04036421 -0.06685745 -0.03650738 -0.008648865 -0.1556626 0.062482074 0.14912169 0.01409953 0.011664308 0.17862414 -0.10092104 -0.016645335 -0.11270465 -0.0032419183 -0.054906856 -0.09047079 -0.13613698 -0.01903431 0.01099933 -0.09673987 -0.019966675 -0.03642617 0.051654175 -0.08925318 0.0732884 -0.061584204 0.015595367 0.09175249 -0.119480565 -0.07402162 -0.10352733 -0.13588184 -0.1064538 0.027391968 -0.1072182 -0.0021692265 0.14985989 0.037275728 0.094601125 0.13929744 -0.24265203 0.110071264 -0.19111037 0.05070703 -0.1256004 0.18726212 0.1294702 -0.049318086 0.040745646 0.049037054 0.07932752 -0.07268525 -0.123741895 0.18903953 -0.0040504336 0.0010124311 0.08426954 0.048239525 -0.08762798 -0.07579629 0.116035506 0.15598659 0.22352628 0.0015968023 0.12822658 0.17096101 0.14864726 0.050654255 -0.104696795 0.10509104 -0.08509076 0.047014963 0.03629331 -0.08692285 -0.062054012 -0.20359021 -0.2245007 -0.021023367 0.07289986 -0.10560288 0.10770916 0.009637226 0.05647038 -0.04832536 -0.017093273 -0.07414233 0.034931697 0.037180603 0.16990608 -0.07610882 0.05352142 0.08147994 -0.12677652 0.19045727 -0.024368897 -0.0964592 0.07228058 0.1351671 -0.17786983 0.1446296 0.09396442 -0.054935995 -0.16856019 0.099374555 -0.0765672 -0.017602453 0.1365271 -0.22226113 -0.09704938 -0.11922753 -0.15085825 0.05084164 -0.052788217 0.0943461 -0.03869883 0.1105323 -0.07493874 0.055074137 0.28898945 0.052589696 0.14562006 -0.005236684 0.039915767 0.06622315 0.19492695 0.007924504 0.031508423 0.10466732 -0.059533373 0.15545931 0.17207162 -0.13855039 0.1625965 -0.17884162 0.029967353 -0.028296258 -0.0884666 0.12351998 0.12431755 -0.10504103 -0.16952002 0.0044000777 -0.112335265 0.16376197 -0.09018308 0.043686483
泣不成声 -0.024346404 0.22115313 -0.14855409 0.052149765 0.009917888 0.059718773 -0.06505232 -0.046684038 -0.05598877 -0.15641531 0.08432453 -0.1377085 -0.053180803 0.096701376 -0.049996514 -0.007966274 -0.12114224 0.007667437 -0.07518315 0.032763094 0.055605985 -0.06344459 0.07279899 -0.011798264 -0.05783535 0.0051833033 -0.028786847 -0.027010076 -0.0034729736 0.1356712 -0.18391028 0.04411262 -0.07332155 -0.071710244 -0.07249298 -0.11822933 -0.14927045 -0.11857398 0.054790627 -0.14423057 0.071248606 -0.32244256 0.07174371 -0.17951529 0.07295364 0.033589557 -0.14075482 -0.11058144 -0.23689912 -0.068418294 0.013697292 0.0005585 0.18833046 0.13053936 -0.13498822 -0.012400432 -0.0691052 0.079360925 0.1248995 -0.10943004 -0.10315312 -0.015547776 0.050515685 -0.053606395 0.04751267 0.20124699 0.17830476 0.023034392 0.06657304 -0.023227304 0.2268598 0.033591516 -0.08444243 -0.09632532 -0.03050878 -0.02879593 0.09906121 0.09318551 0.073776804 0.062279634 -0.037967134 0.12144623 -0.025741443 0.034411196 -0.011119202 -0.09473233 -0.012050617 -0.06419176 -0.06040222 -0.052546974 0.019574458 0.033814073 -0.03757893 -0.038399376 -0.11999637 -0.089285165 0.03210094 0.0063721775 0.10494808 0.032019533 0.08948907 -0.16609804 0.14349233 -0.19451006 -0.014096625 0.030881304 -0.09273703 -0.1986257 0.05942848 7.737158e-05 -0.063878454 -0.09131902 -0.053555556 0.042310324 -0.10882698 -0.02402146 0.10657197 -0.19673347 0.012081547 0.1716185 -0.09387527 0.015852747 -0.06736038 -0.10168124 0.15992631 0.0779213 -0.10356989 -0.34639353 -0.060795046 0.14102443 -0.023619113 0.007954193 -0.286857 0.036019634 0.025553772 -0.0755919 -0.029756531 0.030640123 -0.14666602 0.032803558 -0.05116254 -0.06246858 0.069430426 -0.20452915 -0.109031424 -0.09183695 -0.14884838 0.033999626 0.014938252 0.13635415 0.13308781 0.0064697615 0.20926705 -0.13354437 -0.06725687 -0.035015494 -0.0054362123 -0.011815808 -0.20556468 0.0513877 0.11993273 -0.012703848 -0.005150909 0.19991326 -0.14410946 -0.062932685 -0.10753987 -0.0120137045 -0.0721176 -0.07575599 -0.19108409 -0.0465291 -0.016731277 -0.11138668 0.03194852 -0.075895816 0.035087332 -0.089449264 0.060630105 -0.033200376 0.052421805 0.10319945 -0.14382872 -0.044558 -0.11946388 -0.099090055 -0.09564128 0.0022643555 -0.07054425 0.010782961 0.19950293 0.0518244 0.12867205 0.1545951 -0.23052037 0.11742999 -0.19133079 0.07245916 -0.103192545 0.13683604 0.07084003 -0.055470735 0.079743795 0.06875784 0.12782738 -0.12058127 -0.12766866 0.2352386 -0.016595509 0.0019217089 0.13292193 0.06584614 -0.1315743 -0.07333479 0.13303295 0.1524081 0.18601824 -0.0019540282 0.165944 0.13324192 0.11427279 0.043463834 -0.11709677 0.09159791 -0.120351955 0.094329245 0.04544841 -0.10815255 -0.07688873 -0.20010613 -0.26952237 -0.0412464 0.052868504 -0.10575795 0.09714314 -0.018987555 0.09776329 -0.032009415 -0.032572445 -0.090330616 0.030563878 0.064975396 0.18473451 -0.0551584 0.023485111 0.115815915 -0.1647086 0.21821354 -0.024779836 -0.122382015 0.11065016 0.13260964 -0.13905609 0.20462783 0.14999278 -0.056724712 -0.15318696 0.111302905 -0.12479143 -0.012446404 0.14351143 -0.23164298 -0.09966716 -0.12661248 -0.16565417 0.0915117 -0.006422498 0.067558475 -0.04528898 0.10721387 -0.1140992 0.07032438 0.302958 0.09633149 0.13707085 -0.0029974405 0.05439205 0.10442529 0.21770905 -0.022615455 0.027799437 0.09509147 -0.013964792 0.17085646 0.17956768 -0.19942503 0.14834632 -0.15095367 0.026997752 -0.034046475 -0.10749414 0.09548918 0.10890191 -0.108985975 -0.17878054 -0.011484255 -0.09263178 0.19273867 -0.121928364 0.021095265
减肥 0.01170284 0.23660024 -0.16892774 0.04366771 0.023887606 0.074444935 -0.0586023 -0.059082102 -0.0825985 -0.1592236 0.12527631 -0.17624028 -0.08397963 0.13214771 -0.022577511 0.0040066903 -0.16575447 0.02966668 -0.08312146 0.066354 0.06378683 -0.07078033 0.087137625 0.019478112 -0.09470721 0.01231645 -0.052805416 -0.032778677 0.016662817 0.17748119 -0.2410945 0.05742062 -0.080232866 -0.078957684 -0.056669936 -0.13981798 -0.14280847 -0.1597692 0.09419915 -0.1733924 0.085422486 -0.3485573 0.0884947 -0.19493474 0.10040963 0.040041924 -0.18739806 -0.12681864 -0.3070044 -0.040594008 0.007872548 0.038478598 0.21765195 0.14162205 -0.15098418 -0.00065584894 -0.096836194 0.11395656 0.14566049 -0.13135757 -0.14167915 0.0026338983 0.039956037 -0.08629094 0.074554965 0.1938807 0.17908148 0.009090075 0.048375897 -0.029683886 0.24136028 0.039038487 -0.05795612 -0.111539885 -0.032620743 -0.052345496 0.10505662 0.12368233 0.09750818 0.09319774 -0.075819865 0.13069163 -0.024407003 0.028249828 -0.031570718 -0.13497299 -0.025361713 -0.073292315 -0.085033946 -0.056139756 -0.0016142839 0.046513777 -0.050057657 -0.025254438 -0.10555949 -0.1219995 0.034382354 -0.006387631 0.11454173 0.04663757 0.08099926 -0.18295139 0.15639175 -0.23071861 -0.04351983 0.036957007 -0.11466055 -0.20892818 0.075255 -0.011322099 -0.09795516 -0.08205669 -0.054976158 0.03530542 -0.1203655 -0.0152133 0.12704727 -0.24091424 -0.012369717 0.23169751 -0.12716399 0.036837664 -0.071116164 -0.09275281 0.19042532 0.11272475 -0.12022328 -0.385123 -0.098765865 0.18348141 -0.041631524 -0.0033594994 -0.31928363 0.021416223 -0.0096891625 -0.085074656 -0.07649825 0.049944166 -0.17705359 0.05558421 -0.04988584 -0.038971685 0.06730433 -0.27600008 -0.12402427 -0.10947069 -0.17899013 0.036271382 0.03745449 0.16377224 0.1616094 0.010944206 0.22471769 -0.13640973 -0.062169045 -0.06781108 -0.006939141 -0.017250665 -0.20544523 0.05777408 0.16753033 -0.024683334 -0.02879526 0.20154348 -0.17967008 -0.05776362 -0.10691545 -0.019820115 -0.036949806 -0.08799777 -0.23070598 -0.07891911 0.022989225 -0.1213477 0.017236387 -0.05731761 0.03940132 -0.11502766 0.08871869 -0.037408188 0.038290817 0.10163149 -0.18006738 -0.07045152 -0.1359459 -0.12708156 -0.10590775 0.024271011 -0.08489251 0.0014960178 0.20497756 0.04584588 0.16031724 0.18519357 -0.29582945 0.11300654 -0.22641931 0.10880923 -0.11939927 0.16872132 0.098990664 -0.057780676 0.08220649 0.06754683 0.13634004 -0.12214196 -0.13509768 0.2729571 -0.026635902 -0.0037343178 0.14693575 0.061511986 -0.15843113 -0.09097349 0.13242726 0.17739287 0.24540311 -0.014685982 0.20585139 0.1848641 0.14488412 0.07383364 -0.12766138 0.10154739 -0.12199363 0.0688478 0.06899019 -0.16766694 -0.082973644 -0.2562433 -0.29164058 -0.015486244 0.06850377 -0.13662158 0.12459502 0.018630592 0.10529982 -0.05788331 -0.03214433 -0.122336574 0.062447123 0.05570355 0.21454598 -0.09024957 0.047402035 0.11764014 -0.19307476 0.26319957 -0.030160926 -0.12403401 0.102694444 0.14454615 -0.19361815 0.24104275 0.15365146 -0.08397548 -0.17681661 0.1416174 -0.12150283 -0.01830451 0.15749702 -0.25937882 -0.093507916 -0.151984 -0.20921619 0.09970389 -0.03176393 0.08288583 -0.036291216 0.11068636 -0.10523181 0.06541897 0.34144443 0.1003166 0.18847957 0.031133765 0.07030074 0.10097993 0.23441541 0.006241577 0.0255923 0.104181975 -0.030001376 0.20909391 0.20696595 -0.19637534 0.20655395 -0.2038472 0.005427801 -0.027998647 -0.110104516 0.113104 0.13694236 -0.1402486 -0.21641706 -0.009165964 -0.13055286 0.23257796 -0.14615472 0.03708913
视频 0.023438266 0.2479824 -0.16034022 0.030061578 0.025939912 0.084237196 -0.07103975 -0.078104824 -0.09499688 -0.14577286 0.11007555 -0.19679463 -0.0970543 0.14103957 -0.0023167315 0.015908428 -0.17157038 0.050752588 -0.087007865 0.10106594 0.067501925 -0.04878464 0.11077561 0.03426009 -0.09349551 0.022713063 -0.04661521 -0.028052323 0.013083899 0.18489051 -0.24876688 0.03863548 -0.0620704 -0.087756045 -0.036452837 -0.14580828 -0.14897712 -0.15779766 0.100511596 -0.1736957 0.09905211 -0.33720422 0.06831447 -0.19858271 0.11081618 0.03631688 -0.18169816 -0.11648279 -0.31143913 -0.034330126 0.017889049 0.061943807 0.21508802 0.13080654 -0.15309139 0.0139578665 -0.11697431 0.102454 0.1416706 -0.1232365 -0.15994824 0.01658992 0.031527698 -0.09031461 0.06580911 0.20040934 0.17734836 -0.012035606 0.034852374 -0.026259162 0.23031622 0.04351054 -0.04555728 -0.13702597 -0.028202642 -0.040379953 0.11088634 0.13753358 0.1073746 0.0833494 -0.09432108 0.13321185 -0.022373239 0.03174519 -0.0252243 -0.12791969 -0.038990065 -0.07192245 -0.08158981 -0.053681213 0.003794462 0.07308217 -0.04997104 -0.024362626 -0.09371823 -0.1346141 0.03234208 0.008985955 0.116366 0.043680154 0.07726364 -0.18181677 0.13866712 -0.21910052 -0.050828755 0.035739828 -0.12183553 -0.216532 0.07497633 -0.015710033 -0.08826716 -0.06628622 -0.072210416 0.012631704 -0.12042749 -0.03631029 0.13613935 -0.2631379 -0.025710491 0.24305817 -0.12281028 0.041659594 -0.04732325 -0.08037893 0.1913544 0.13977729 -0.13577291 -0.37297007 -0.10462693 0.19332829 -0.044132307 -0.011412016 -0.31992167 0.023407055 -0.0127544375 -0.07943879 -0.09433489 0.05073424 -0.17364731 0.06440688 -0.049647707 -0.04091538 0.07769815 -0.30247456 -0.13978125 -0.10913433 -0.17494708 0.03458452 0.031943787 0.15137543 0.15518822 0.011488568 0.22450934 -0.11865684 -0.06994418 -0.0488689 -0.015850253 -0.015905226 -0.20953745 0.06228997 0.15486982 -0.039468747 -0.027286954 0.18052362 -0.17695278 -0.06786912 -0.09319474 -0.031215904 -0.019610886 -0.089190096 -0.23845911 -0.079962604 0.023772787 -0.111342534 0.017137311 -0.0575736 0.036437906 -0.11514487 0.074300446 -0.030253857 0.038510937 0.08657842 -0.17598309 -0.07529452 -0.129986 -0.13022424 -0.0876336 0.026784033 -0.09585081 0.006806368 0.18968543 0.03756442 0.15786433 0.20132309 -0.30071303 0.11648016 -0.21334122 0.11796767 -0.12729311 0.17122011 0.09874946 -0.030706178 0.07991102 0.0722419 0.12351034 -0.12724239 -0.13762872 0.2826548 -0.018317966 0.0076184208 0.15452641 0.043564245 -0.17549106 -0.08561222 0.12782757 0.17850207 0.26196447 -0.018580027 0.23183773 0.19078185 0.15577787 0.06768644 -0.12103741 0.09155153 -0.11804945 0.061191466 0.081899315 -0.17876557 -0.098202676 -0.27300018 -0.28887677 -0.022944491 0.04016037 -0.13947555 0.11239146 0.02833958 0.1116652 -0.06031513 -0.03484962 -0.12357985 0.07417537 0.053736523 0.20010088 -0.07869504 0.07470829 0.10556899 -0.20494188 0.27582482 -0.042182382 -0.1300856 0.10460946 0.12346741 -0.19241634 0.2603002 0.16386998 -0.07621805 -0.16111684 0.14718427 -0.12831786 -0.0036242364 0.16070634 -0.24766377 -0.090798765 -0.13686521 -0.22907498 0.097170234 -0.033342108 0.08707514 -0.024508957 0.08476065 -0.09766999 0.077436544 0.3458845 0.11600698 0.19817129 0.05229043 0.093743406 0.09327608 0.23430347 0.01112884 0.025395846 0.10754085 -0.03170835 0.21253434 0.20221244 -0.18776211 0.23201434 -0.21980081 -0.0056098253 -0.021839947 -0.10261687 0.115440056 0.12781863 -0.15740906 -0.21752067 -0.010690452 -0.13759808 0.23140256 -0.1415048 0.039269738
就 0.0049218126 0.24428843 -0.1753388 0.04397932 0.03532985 0.08547642 -0.064327516 -0.06033152 -0.081188925 -0.150977 0.112023056 -0.16315581 -0.087266766 0.13510853 -0.023955466 0.0035323745 -0.15986426 0.02823788 -0.07949612 0.06715861 0.06871405 -0.069353044 0.08591741 0.011320526 -0.08443358 0.017133549 -0.047643565 -0.029473823 0.009985805 0.18229213 -0.23932081 0.05299691 -0.07034526 -0.08076229 -0.05050516 -0.13253945 -0.15346146 -0.14571048 0.091668755 -0.16990303 0.07540648 -0.33072895 0.089952424 -0.19063495 0.10726547 0.03588482 -0.17599425 -0.11537993 -0.29925743 -0.047788747 0.0059054494 0.039544854 0.21164115 0.13392927 -0.1500708 0.00027697565 -0.104120634 0.09457952 0.1474618 -0.12296988 -0.1316205 0.007140895 0.041698292 -0.08749864 0.0671299 0.20540486 0.19000682 0.0035864422 0.052626327 -0.024936462 0.23416443 0.03876914 -0.059120584 -0.1231995 -0.035221603 -0.04095402 0.10778095 0.11905338 0.105892345 0.07672461 -0.07098126 0.12553902 -0.03167912 0.040039167 -0.025615651 -0.12963377 -0.021322904 -0.06663577 -0.08523702 -0.0581227 0.011043055 0.0489147 -0.05431569 -0.022286657 -0.10596361 -0.12230671 0.026691621 0.008629242 0.11372499 0.047945037 0.087915115 -0.17467415 0.14347452 -0.22633657 -0.041578904 0.04052323 -0.10976952 -0.20499343 0.070836596 -0.008152126 -0.09048948 -0.07366577 -0.054371137 0.036739927 -0.1222338 -0.019569004 0.12892945 -0.2324746 -0.015086278 0.22761998 -0.11267642 0.03312386 -0.071174584 -0.09087417 0.19158608 0.12660629 -0.11023451 -0.38402364 -0.09852638 0.18690607 -0.042380676 -0.0045354106 -0.3218831 0.025453588 0.0062418208 -0.08842331 -0.066838756 0.05187623 -0.16265155 0.05408808 -0.04164093 -0.053615004 0.05942193 -0.27102536 -0.121932596 -0.10501409 -0.17650744 0.033876587 0.032105014 0.15938205 0.14791329 0.0074557797 0.22278886 -0.12294021 -0.06709423 -0.05840638 -0.010849737 -0.014835804 -0.21278505 0.060948838 0.16041973 -0.017987084 -0.021656105 0.1938413 -0.16401525 -0.062050004 -0.11696159 -0.017435828 -0.046357274 -0.089965016 -0.2253427 -0.070677064 0.019803833 -0.11439519 0.03338714 -0.062094714 0.040100835 -0.110333554 0.08288567 -0.023091372 0.05212317 0.09295344 -0.18803622 -0.05999045 -0.1386929 -0.12128542 -0.101225615 0.029702412 -0.07994026 0.013036968 0.21024702 0.038159814 0.15302889 0.19079697 -0.27963522 0.11618727 -0.2215243 0.111509986 -0.12261895 0.15698272 0.09254418 -0.06127949 0.08644504 0.07406742 0.12983482 -0.127051 -0.14009279 0.271174 -0.024210326 0.0054718954 0.1456013 0.06908509 -0.15412287 -0.083043694 0.13478753 0.18409336 0.23411255 -0.01833416 0.19484897 0.17519788 0.14846489 0.075023614 -0.11945584 0.09417076 -0.12260465 0.0732538 0.07289223 -0.16351917 -0.089370854 -0.2504375 -0.27856338 -0.025201611 0.05714781 -0.133297 0.11968586 0.011256707 0.102111064 -0.053030744 -0.049202837 -0.11826405 0.061859637 0.058144547 0.20746578 -0.08828058 0.044826105 0.12318804 -0.18819259 0.2597803 -0.03016045 -0.125473 0.105689496 0.14701158 -0.17736907 0.24879183 0.1725677 -0.076672316 -0.16095845 0.14749955 -0.12875643 -0.020637706 0.15640427 -0.25475788 -0.09784088 -0.14932443 -0.22094071 0.09970914 -0.021522196 0.080509536 -0.041363813 0.09971691 -0.10643299 0.08056389 0.3345651 0.10082502 0.1687268 0.022792632 0.07412404 0.09566836 0.23860042 0.007863357 0.024418186 0.08658124 -0.023217332 0.20561633 0.20060547 -0.20008445 0.20688607 -0.2026627 0.01572249 -0.040216036 -0.11951552 0.10786329 0.13566956 -0.13409333 -0.20609933 -0.0051613124 -0.12879926 0.22744462 -0.14603633 0.035915058
戒指 0.009111552 0.22219041 -0.15343097 0.039472427 0.021098368 0.069893554 -0.060154375 -0.06225136 -0.074935 -0.14770947 0.119206056 -0.1706737 -0.07851324 0.1303553 -0.020121392 0.009070688 -0.15847282 0.035679698 -0.08786879 0.073772915 0.054729708 -0.064709336 0.08561929 0.025409635 -0.085755356 0.0137143005 -0.048849527 -0.024935033 0.020337036 0.17339346 -0.22461435 0.051295273 -0.08006911 -0.081911914 -0.054294024 -0.1368914 -0.1408302 -0.16211055 0.08742913 -0.16255392 0.095163405 -0.34078133 0.07529558 -0.18816544 0.10238728 0.03028477 -0.18013863 -0.12700559 -0.29502508 -0.03368306 0.020160347 0.043608297 0.20882705 0.13450016 -0.14415371 0.000394941 -0.09244592 0.104115404 0.14757954 -0.13219668 -0.14436689 0.013167457 0.039471343 -0.08501259 0.0666216 0.18707386 0.16289137 0.007882424 0.04310707 -0.028797671 0.22469102 0.046493202 -0.05162409 -0.111271925 -0.03653536 -0.052172974 0.092231005 0.1211195 0.08786358 0.09045651 -0.07415521 0.13240898 -0.018989237 0.01837241 -0.031100333 -0.12344691 -0.019856181 -0.08214526 -0.08234268 -0.047707107 0.0017275207 0.051860355 -0.048473455 -0.024003057 -0.0953111 -0.12067934 0.032653607 -0.009215416 0.10833159 0.043831345 0.0717885 -0.1724042 0.14730904 -0.21466583 -0.04196986 0.033277202 -0.11559709 -0.20267719 0.0674636 -0.022000413 -0.09372937 -0.084322244 -0.048622265 0.033170335 -0.110202596 -0.019687911 0.12080389 -0.23292343 -0.01049267 0.22517811 -0.12545866 0.04540416 -0.054231152 -0.09620248 0.17611447 0.11160698 -0.115730606 -0.36640015 -0.0989032 0.16402748 -0.040672213 0.0010552937 -0.2933343 0.012418892 -0.007710602 -0.07936499 -0.08202016 0.044766605 -0.1722406 0.052759025 -0.04868254 -0.03932232 0.066886604 -0.26130766 -0.12149574 -0.10934582 -0.1706949 0.03749102 0.03262681 0.15418062 0.15715921 0.024067013 0.21749428 -0.13842757 -0.05827304 -0.057610832 -0.0031315328 -0.02638479 -0.19493428 0.057260074 0.15711623 -0.027902624 -0.02627866 0.1905135 -0.18813793 -0.05403015 -0.09209626 -0.021013338 -0.027248258 -0.08756352 -0.22577383 -0.07390982 0.022960117 -0.11964643 0.0077528935 -0.05662443 0.034340955 -0.11810059 0.073490106 -0.04010757 0.028542928 0.09799942 -0.16593775 -0.066805124 -0.11738093 -0.13189681 -0.09889274 0.02204777 -0.09037661 -0.00014709122 0.19194216 0.04095191 0.16136041 0.18092358 -0.28260034 0.11079665 -0.21645786 0.10239077 -0.11106561 0.17449595 0.0933277 -0.043971494 0.074817345 0.06441664 0.1372621 -0.10826941 -0.12050582 0.25594094 -0.015938502 -0.0026077456 0.14559095 0.055873837 -0.14981796 -0.089616366 0.1194305 0.16243412 0.24287035 -0.0008477881 0.20593649 0.18246005 0.1311606 0.06378157 -0.11941999 0.096173786 -0.11429939 0.07012228 0.07299556 -0.16485618 -0.07995353 -0.2453982 -0.2829667 -0.017882269 0.054254826 -0.12829894 0.112321 0.014795385 0.09703743 -0.051686376 -0.019294543 -0.11502225 0.060161173 0.058588795 0.2065428 -0.07935976 0.057764217 0.10317524 -0.17713806 0.25348583 -0.029007953 -0.12229119 0.0945338 0.13310738 -0.18187658 0.22744356 0.14037456 -0.081179745 -0.17283818 0.14078934 -0.11817736 -0.014108566 0.1491485 -0.23758575 -0.089730665 -0.13416156 -0.20265642 0.10053707 -0.024517871 0.081293024 -0.040557534 0.10281648 -0.10464966 0.06327748 0.32446828 0.09675489 0.18601127 0.04538879 0.06665015 0.09028452 0.21719685 0.0039031757 0.024239505 0.11359113 -0.023668105 0.19744614 0.19810906 -0.18427368 0.20369302 -0.18992665 -0.008324523 -0.01637965 -0.10160602 0.111917585 0.12062912 -0.13455658 -0.21292809 -0.016043032 -0.11944539 0.22734162 -0.13580705 0.031019086
都 0.010375261 0.23016469 -0.15435492 0.042094104 0.019203844 0.0705652 -0.06312749 -0.05841923 -0.082689136 -0.15091275 0.12077207 -0.1659396 -0.0828773 0.1284592 -0.01788045 -0.0008218477 -0.15908124 0.029043654 -0.08548655 0.07236717 0.055772 -0.06412023 0.081020825 0.017232228 -0.09236674 0.0129264835 -0.047032338 -0.028810026 0.0208926 0.17097372 -0.22628471 0.04826648 -0.07693312 -0.073941804 -0.055626396 -0.13403614 -0.13943878 -0.15623833 0.08599317 -0.16176012 0.08963036 -0.33947384 0.085077785 -0.18947287 0.098527744 0.035342027 -0.17935272 -0.12311213 -0.29762903 -0.034562953 0.009508259 0.03950253 0.21097063 0.13450153 -0.14967069 0.0018375511 -0.09652274 0.10728328 0.14210254 -0.127703 -0.1391757 0.004683819 0.043410394 -0.0872972 0.06954901 0.1880319 0.17106497 0.00571479 0.04295535 -0.034958094 0.22550128 0.043870643 -0.050233748 -0.109621935 -0.034139708 -0.046695635 0.091849506 0.1264449 0.09344815 0.08948278 -0.073558256 0.13122955 -0.021865517 0.022924865 -0.025291352 -0.13069947 -0.021160208 -0.07393501 -0.08361263 -0.055570662 0.00040595164 0.048818924 -0.05148729 -0.021394735 -0.0999871 -0.11766683 0.030581826 -0.0061328365 0.11275554 0.045441855 0.076379426 -0.17623703 0.15238772 -0.21927184 -0.042133685 0.036940813 -0.10813497 -0.19796139 0.070963256 -0.015993748 -0.08975565 -0.079942755 -0.052454744 0.034585916 -0.115627795 -0.016414912 0.12277901 -0.2336531 -0.008403799 0.22170919 -0.12418779 0.040319648 -0.062327977 -0.09602335 0.18294962 0.112885855 -0.11300643 -0.37176216 -0.09537944 0.17365132 -0.04099593 0.0016309009 -0.30451557 0.01594191 -0.008528929 -0.08127635 -0.07510503 0.044242725 -0.17449786 0.05498729 -0.045709938 -0.037686057 0.066327766 -0.26690778 -0.12678291 -0.10345643 -0.17540626 0.03950306 0.035578765 0.16116843 0.15658005 0.019586187 0.2138113 -0.13223405 -0.061385844 -0.060195796 -0.006463631 -0.023097876 -0.19965507 0.059515893 0.15603995 -0.02713746 -0.026974237 0.19025612 -0.17787758 -0.05472873 -0.10257177 -0.025019504 -0.035000112 -0.08747823 -0.2196272 -0.074009545 0.02342441 -0.11653985 0.014301885 -0.05983559 0.03782575 -0.1117725 0.08333796 -0.038634684 0.03742067 0.09721326 -0.17052342 -0.0656633 -0.1266786 -0.12762372 -0.10106331 0.027626796 -0.08594096 0.0036249633 0.19503675 0.04088519 0.15587083 0.1776691 -0.28335467 0.1097736 -0.21814787 0.10588517 -0.11645083 0.1729594 0.10193179 -0.05318967 0.07601526 0.06319614 0.13421291 -0.11311629 -0.12941612 0.26398924 -0.017330626 0.0006816016 0.13910471 0.061454475 -0.15279528 -0.08921336 0.12061354 0.16700879 0.24489507 -0.00735657 0.20457518 0.18136817 0.13629505 0.06799787 -0.12233825 0.09618235 -0.11520827 0.06880236 0.07296541 -0.16048327 -0.08283221 -0.24590695 -0.27759302 -0.020258948 0.060654193 -0.1307323 0.11912951 0.015404829 0.09322717 -0.05478278 -0.024857173 -0.115391485 0.061535344 0.057787772 0.20818079 -0.082447216 0.05575082 0.10572009 -0.18309605 0.25699934 -0.027770193 -0.12192539 0.09408312 0.1350388 -0.1827603 0.22710559 0.14898862 -0.08228434 -0.17353517 0.13738175 -0.11917998 -0.019721732 0.15392756 -0.24461764 -0.08823246 -0.140536 -0.20053503 0.09612589 -0.02928342 0.08149128 -0.036002073 0.10734552 -0.10226129 0.063200936 0.32639372 0.097242184 0.18251616 0.03570854 0.0681277 0.092332184 0.22504 0.003464459 0.021643732 0.10800417 -0.031559896 0.19719763 0.19955069 -0.18624353 0.20548175 -0.19278657 0.0021276313 -0.023052538 -0.10324308 0.111762546 0.1287747 -0.13546237 -0.20715177 -0.011225135 -0.12210387 0.22882196 -0.13743006 0.03260827
呀 0.013590904 0.21580666 -0.14833795 0.042820152 0.020980742 0.052420557 -0.056582604 -0.064426966 -0.06908515 -0.14169228 0.11511765 -0.15463126 -0.07661331 0.121921435 -0.019905875 -0.0074673137 -0.15038075 0.021199604 -0.069567524 0.05976603 0.04928126 -0.05809382 0.0801981 0.0135063315 -0.08888391 0.021688549 -0.047671005 -0.036016975 0.020771313 0.1605979 -0.21605016 0.041980255 -0.082659476 -0.07346573 -0.050884366 -0.122696854 -0.12607789 -0.1530053 0.0835677 -0.15047133 0.08253177 -0.32424074 0.07918754 -0.16855827 0.08852619 0.03796518 -0.161842 -0.117379196 -0.2738947 -0.039493755 0.006707608 0.026377797 0.19724615 0.115883574 -0.13917896 0.0005126007 -0.082088254 0.10122255 0.13140172 -0.11642598 -0.13182062 0.007884768 0.04207425 -0.07585298 0.06116169 0.17448105 0.160429 0.010918676 0.046079647 -0.0261684 0.21254514 0.04620551 -0.053504325 -0.10208688 -0.0379824 -0.052651674 0.089882374 0.118172266 0.084718555 0.07670557 -0.07725973 0.12624206 -0.02523085 0.026656283 -0.025610866 -0.12516135 -0.02779341 -0.066195466 -0.073697805 -0.05723574 -0.0023683943 0.040286742 -0.04633814 -0.02622754 -0.08904885 -0.10220132 0.028624881 -0.005012406 0.099824816 0.04439761 0.0759728 -0.1591235 0.14914383 -0.20950745 -0.02844943 0.03132211 -0.10240467 -0.19048522 0.06582275 -0.012453024 -0.087346606 -0.077570066 -0.044940546 0.03228098 -0.115682386 -0.011082204 0.11083051 -0.21954124 -0.010170626 0.20735058 -0.12253096 0.030802015 -0.06254002 -0.0840993 0.16984244 0.10260986 -0.10422083 -0.35568288 -0.07894151 0.16562137 -0.042203534 0.006864358 -0.28493023 0.019883871 0.0019098474 -0.07421797 -0.05897918 0.046968378 -0.15897541 0.058036868 -0.04445764 -0.04106131 0.05127088 -0.24186598 -0.10961369 -0.08986635 -0.16797118 0.031166058 0.036723424 0.15512069 0.14694525 0.017937778 0.19863923 -0.12963153 -0.059482194 -0.057187166 0.0008776595 -0.026787251 -0.18828523 0.047704965 0.15157878 -0.017720269 -0.028506545 0.18071978 -0.16845523 -0.04715985 -0.106029645 -0.018554429 -0.041787013 -0.080583535 -0.20269667 -0.07149051 0.017381022 -0.1117476 0.015402009 -0.059155185 0.034282204 -0.10301109 0.080258384 -0.038484197 0.031883698 0.09731095 -0.15412436 -0.070485525 -0.11548859 -0.12497245 -0.08876543 0.023817312 -0.07907944 -0.00074843393 0.18478498 0.0404141 0.15433788 0.15766908 -0.26193458 0.097852185 -0.20489524 0.09800723 -0.11034251 0.1639114 0.083657645 -0.043427486 0.07207045 0.06128195 0.12129974 -0.11225621 -0.11489049 0.24864364 -0.013421845 -0.005872148 0.12681812 0.062352333 -0.13891965 -0.086763866 0.11109163 0.16342275 0.21486688 -0.008933434 0.18897177 0.16440003 0.13036235 0.0655212 -0.105033554 0.08988289 -0.10839101 0.07307142 0.0606586 -0.1528137 -0.075290345 -0.2185294 -0.25470144 -0.025240978 0.06277448 -0.12662216 0.11269421 0.011767272 0.0885048 -0.042827312 -0.02468212 -0.10617304 0.054820858 0.059700582 0.19045982 -0.08582858 0.051968846 0.093642406 -0.16690852 0.23732977 -0.021961812 -0.10493427 0.09524845 0.12578207 -0.16955456 0.20916525 0.14396423 -0.07687591 -0.15851435 0.12233534 -0.11576575 -0.028825812 0.14791876 -0.22717421 -0.08347289 -0.13127291 -0.18201455 0.08629902 -0.034872346 0.080638595 -0.038566105 0.104826875 -0.09518656 0.059529573 0.29692686 0.09604718 0.16415626 0.027677396 0.05794518 0.0887418 0.20887259 0.006219103 0.024419429 0.1002627 -0.025346149 0.18181302 0.1834339 -0.1787597 0.19336683 -0.18446061 0.0037328706 -0.024114754 -0.09964185 0.101709776 0.13072374 -0.11956279 -0.19679259 -0.01217557 -0.11629258 0.21744345 -0.13212079 0.031244831
求翻 -0.043451097 0.26350313 -0.20217885 0.084137455 0.039172214 0.07964679 -0.045841083 -0.028178228 -0.038762946 -0.13652885 0.08808392 -0.06675542 -0.061354484 0.10593266 -0.059703372 -0.027011389 -0.1211797 -0.013924618 -0.048001807 -0.015078435 0.058631502 -0.09191252 0.053774122 -0.028157666 -0.06339955 0.016009795 -0.036939934 -0.037093893 0.025895651 0.15784213 -0.20364323 0.07667101 -0.08555935 -0.06372475 -0.085635066 -0.1067558 -0.14567024 -0.11086087 0.06215551 -0.15972094 0.044875257 -0.3214048 0.11113917 -0.15896095 0.07565704 0.06631588 -0.13236712 -0.13234806 -0.25490502 -0.089217454 -0.040194176 0.008618888 0.21401496 0.10882899 -0.11728194 -0.007832103 -0.07550159 0.082040735 0.11452976 -0.104795486 -0.09634075 -0.01626619 0.060255133 -0.0634021 0.057801496 0.20181865 0.2228254 0.054342683 0.084892645 -0.0039442154 0.20817743 0.030843288 -0.10473035 -0.096237436 -0.036164284 -0.042069163 0.10569154 0.09833421 0.1114784 0.05182852 -0.05115531 0.08774423 -0.04395368 0.06314745 -0.05392032 -0.119745836 0.020332456 -0.04068594 -0.070340216 -0.07991942 0.038856186 0.024204021 -0.059628494 -0.010197216 -0.1515382 -0.059012774 0.00310597 0.0073511004 0.09699632 0.029521452 0.08127506 -0.15358092 0.1488422 -0.22918265 -0.026937673 0.073248774 -0.0757639 -0.18619788 0.056474626 -0.032125186 -0.06870627 -0.073621295 -0.018515157 0.06382202 -0.1114565 0.018147413 0.11440292 -0.18203957 0.003254443 0.18199939 -0.08047496 0.024777258 -0.07629548 -0.0894567 0.19210258 0.08465584 -0.07728307 -0.3678667 -0.08399182 0.18395059 -0.04750639 0.019465523 -0.27611482 0.04002137 0.046878543 -0.10852208 -0.010783387 0.031638976 -0.101955764 0.050750036 -0.033867784 -0.07361031 0.0032432019 -0.2043542 -0.0795842 -0.08479091 -0.179805 0.03742444 0.024190318 0.14390732 0.13936763 -0.029324483 0.20899342 -0.12806763 -0.06803187 -0.054579202 -0.019389827 -0.0025487689 -0.22772364 0.06466511 0.16153118 0.032354474 0.011733436 0.21227413 -0.08605246 -0.067045815 -0.1565626 0.02514682 -0.08546115 -0.083766505 -0.18203324 -0.013460571 -0.0036169796 -0.12306282 0.048935097 -0.076014265 0.058689736 -0.08129286 0.08032734 -0.004551414 0.065656945 0.099904016 -0.18085155 -0.03740068 -0.14364383 -0.08921886 -0.13013735 0.043243177 -0.06579795 0.01843398 0.2107423 0.02354377 0.10569251 0.15644231 -0.21521145 0.12066547 -0.21361427 0.090151116 -0.13918413 0.12865406 0.092768535 -0.11441508 0.090276495 0.092827745 0.10888267 -0.1371076 -0.1636753 0.21431072 -0.021973561 0.0042508217 0.10648435 0.11775758 -0.1224379 -0.066678904 0.14005002 0.2117641 0.19087769 -0.019755669 0.109790295 0.13763782 0.15173474 0.090458766 -0.093079865 0.086100064 -0.11596851 0.08073852 0.043138385 -0.1076066 -0.062695414 -0.19301182 -0.23849304 -0.05445306 0.08106434 -0.11564367 0.12393672 -0.0002713107 0.07715344 -0.023544665 -0.078593485 -0.07356577 0.026508719 0.04328183 0.18180035 -0.08552473 -0.0014755077 0.112472035 -0.14050381 0.20842394 -0.011718569 -0.1063046 0.097556904 0.1682048 -0.12509114 0.22346745 0.19348529 -0.05295396 -0.14384218 0.122885406 -0.10799729 -0.05093669 0.16196091 -0.26485106 -0.103919804 -0.18099678 -0.20278952 0.06848649 -0.004680049 0.11653699 -0.08158291 0.10951825 -0.12113555 0.10630453 0.30531663 0.0663669 0.086573064 -0.03964142 0.045492105 0.097603254 0.22450799 0.016076706 0.018733067 0.06398744 -0.000347064 0.19904308 0.15840217 -0.21427092 0.16327386 -0.1673319 0.07104721 -0.060779173 -0.11126967 0.110934965 0.1643653 -0.08906727 -0.16337654 -0.002969494 -0.123435356 0.18360578 -0.1379309 0.022485381
瘦 0.005559266 0.20231038 -0.14577346 0.041149247 0.014273044 0.062303692 -0.062753886 -0.04756082 -0.06872408 -0.12532757 0.111326315 -0.14543395 -0.07679105 0.11405665 -0.021331996 0.006399804 -0.15197888 0.017245794 -0.069437586 0.047543067 0.041657347 -0.06330616 0.06650889 0.021666132 -0.088059075 0.005205652 -0.04990542 -0.024367742 0.02046355 0.14737816 -0.19339612 0.05504062 -0.07496086 -0.07576107 -0.059313264 -0.11826294 -0.11584042 -0.1442054 0.073279716 -0.14233828 0.074131206 -0.31375393 0.080948815 -0.17026825 0.08061478 0.038944967 -0.1665353 -0.11055747 -0.26580817 -0.026481481 -0.0019550184 0.019597178 0.19716829 0.114377625 -0.1402036 0.009175983 -0.08705766 0.10355038 0.121868275 -0.116633736 -0.1281735 -0.004052543 0.044183373 -0.072689734 0.053183958 0.16660282 0.1588237 0.015863886 0.034210354 -0.03727326 0.20063739 0.035147678 -0.049758393 -0.09310752 -0.035851274 -0.036568988 0.0841928 0.11745334 0.08815915 0.077494524 -0.066034354 0.12591942 -0.024252318 0.016563999 -0.018122008 -0.1156446 -0.009983989 -0.06411233 -0.06819158 -0.06243751 0.0077750916 0.045839597 -0.055859987 -0.009084338 -0.10037526 -0.09900196 0.03480727 -0.011671318 0.108780704 0.025652105 0.06474945 -0.15394045 0.1423067 -0.19999012 -0.03511738 0.040502623 -0.10672157 -0.18310572 0.05930256 -0.026907552 -0.07822008 -0.07094881 -0.051214192 0.036392935 -0.10884992 -0.010400779 0.10618582 -0.21372974 0.0018150456 0.19598907 -0.11384772 0.036169697 -0.062424503 -0.08946549 0.17111105 0.086900964 -0.09080015 -0.32521352 -0.08706504 0.153543 -0.03763611 0.0072104265 -0.26476762 0.0023052949 -0.0050403746 -0.0781219 -0.07216943 0.032727662 -0.14625728 0.05636194 -0.049446627 -0.0302863 0.059307557 -0.24224477 -0.11610102 -0.101454794 -0.15632765 0.025297 0.03502934 0.14125319 0.15486407 0.018892204 0.19745316 -0.12974969 -0.049659807 -0.05692856 -0.015107512 -0.017990373 -0.18196888 0.06456766 0.14361148 -0.014215832 -0.018857148 0.17705959 -0.15221535 -0.050128274 -0.09210027 -0.022362223 -0.04098974 -0.07584748 -0.18557355 -0.05765256 0.017818773 -0.10247934 0.014526315 -0.055059377 0.0446113 -0.0880599 0.08200542 -0.04429757 0.03241126 0.09612182 -0.1536318 -0.0648512 -0.108481355 -0.11972465 -0.09578372 0.032513227 -0.08475271 0.007830765 0.16834335 0.031217575 0.13788088 0.1542692 -0.24737199 0.10899106 -0.1867027 0.09392221 -0.115301356 0.15950604 0.09220622 -0.05909928 0.058728002 0.062209006 0.114070065 -0.10144667 -0.1161309 0.2342098 -0.007811973 0.0021386396 0.114348784 0.050547022 -0.13312653 -0.07604388 0.109797366 0.14336847 0.22412188 -0.005916037 0.16661982 0.15737109 0.119314276 0.049282264 -0.10715331 0.09167996 -0.096005455 0.05615423 0.0553612 -0.13368699 -0.07859279 -0.21772513 -0.2544249 -0.031670973 0.053386774 -0.12176714 0.10667121 0.023582255 0.076504365 -0.046789005 -0.018403027 -0.095036484 0.04390365 0.049670372 0.18482925 -0.07694545 0.05637014 0.091385655 -0.1542668 0.2161657 -0.020840883 -0.098903835 0.07780144 0.1206771 -0.17047752 0.19744124 0.12312411 -0.075008176 -0.16222998 0.116555594 -0.10091859 -0.010747888 0.1351934 -0.2160802 -0.087006524 -0.121015996 -0.17748481 0.08148555 -0.02334531 0.08165064 -0.031012801 0.098963745 -0.083279654 0.056732565 0.29353914 0.08322156 0.16098884 0.021533413 0.053565923 0.08504005 0.19554187 0.013042812 0.011280501 0.10246971 -0.03827426 0.18682136 0.18142773 -0.17132258 0.19093397 -0.18100752 0.012650191 -0.030786416 -0.09596598 0.11434467 0.10837686 -0.11902819 -0.18891008 -0.009370136 -0.1145481 0.2087192 -0.111055486 0.025572916
有 0.009120849 0.24748547 -0.16954097 0.043954704 0.025463343 0.0714274 -0.0679062 -0.072302334 -0.08978681 -0.15327631 0.13953981 -0.1838929 -0.09223158 0.13741481 -0.021025646 0.0039346195 -0.17179564 0.030554228 -0.099785835 0.08184493 0.06411892 -0.07144214 0.08514708 0.020651517 -0.0985671 0.012900584 -0.050470795 -0.025829038 0.017028423 0.18936764 -0.24136034 0.057193898 -0.07799701 -0.08476025 -0.054173376 -0.14481951 -0.14614668 -0.17337312 0.09395276 -0.18057244 0.095316365 -0.3630463 0.08935391 -0.2053863 0.10331994 0.03857612 -0.2016854 -0.13659948 -0.31744814 -0.038802397 0.0061971038 0.046552874 0.23325653 0.13879992 -0.16035213 0.007596614 -0.10389701 0.119371064 0.15159997 -0.13963881 -0.15366973 0.004534916 0.049203284 -0.09228297 0.074725196 0.19792615 0.17990263 0.006935329 0.044456262 -0.039122187 0.24870202 0.045526218 -0.058944862 -0.12151825 -0.030774623 -0.05412409 0.09902115 0.13798879 0.10872263 0.090085536 -0.08107365 0.1439006 -0.027174149 0.021682583 -0.028991492 -0.1430328 -0.018899122 -0.074553065 -0.09397249 -0.058960285 -0.0022708725 0.04596744 -0.049704015 -0.022236463 -0.10300883 -0.12438131 0.028645499 0.0008826272 0.11895069 0.040390298 0.076184705 -0.18494478 0.16538157 -0.22976018 -0.047132533 0.036809858 -0.119168036 -0.22117339 0.068651885 -0.015750948 -0.100902125 -0.08087585 -0.056735452 0.034911644 -0.12224453 -0.028498307 0.13392542 -0.24729773 -0.01125632 0.23956753 -0.12634091 0.04369823 -0.06482782 -0.098302625 0.18978961 0.1247005 -0.12085127 -0.40066132 -0.09971732 0.19260328 -0.04652431 0.005223378 -0.32426718 0.016759355 -0.011329496 -0.0868569 -0.0734711 0.051732633 -0.18996081 0.060519163 -0.046981737 -0.03818389 0.0656541 -0.28516632 -0.12906106 -0.10512051 -0.18313026 0.044756953 0.04278546 0.17728767 0.16658765 0.020123448 0.23863016 -0.14467834 -0.066625185 -0.06734403 -0.0056591188 -0.023469718 -0.2182134 0.06690299 0.16455933 -0.029942062 -0.030480549 0.20357656 -0.19371505 -0.06414285 -0.10018041 -0.031014938 -0.037022393 -0.09539193 -0.23849976 -0.08597574 0.023999237 -0.12263093 0.016628472 -0.058959194 0.044064086 -0.120498836 0.08586138 -0.04056431 0.041073333 0.104710974 -0.18556985 -0.069446616 -0.13815537 -0.13831887 -0.10674923 0.025257448 -0.08854708 0.0019739915 0.20741421 0.045521636 0.16567107 0.19189061 -0.29917473 0.11625372 -0.23398334 0.105194874 -0.12845771 0.18458429 0.108156905 -0.056161676 0.08203374 0.064004116 0.13807526 -0.121880054 -0.13063651 0.28346357 -0.026964253 -9.372086e-05 0.14894184 0.064609595 -0.1671624 -0.09898136 0.13241455 0.1839855 0.25728062 -0.007915448 0.2197122 0.1948652 0.14896995 0.071195275 -0.12801416 0.09997058 -0.12267101 0.06885814 0.082601994 -0.17581442 -0.087587394 -0.2599289 -0.29346043 -0.0189235 0.06651066 -0.14103046 0.121460386 0.016818158 0.099307835 -0.06469186 -0.02171472 -0.12137561 0.06385182 0.059245598 0.22005822 -0.09469288 0.060617108 0.11726693 -0.20021127 0.2777935 -0.035299987 -0.12792853 0.10392823 0.14762057 -0.19934513 0.24421346 0.15989073 -0.08646591 -0.1840797 0.1411085 -0.12212286 -0.018279297 0.15801623 -0.258618 -0.09290836 -0.14965834 -0.21796677 0.10687805 -0.029907119 0.09193772 -0.03701193 0.10828674 -0.110781915 0.06294103 0.3493429 0.1082411 0.18728395 0.0386656 0.06947976 0.10108961 0.2407901 -1.9940271e-05 0.015810607 0.11775689 -0.03077446 0.21188122 0.21672964 -0.20309801 0.22008695 -0.20759535 0.0020554077 -0.028165318 -0.1077382 0.11577343 0.14271733 -0.145077 -0.22350822 -0.016369376 -0.13262217 0.24385755 -0.14890112 0.044845838
啊 -0.002182023 0.23722248 -0.17569777 0.050257366 0.029378012 0.073862374 -0.066462785 -0.046767965 -0.073453724 -0.15208735 0.11994441 -0.1400917 -0.07712771 0.12170917 -0.038557123 -0.002760722 -0.16243176 0.006482996 -0.07218031 0.0491248 0.0547632 -0.065153114 0.07341072 0.0084624775 -0.088082984 0.012313453 -0.056108512 -0.045770627 0.023451004 0.15976104 -0.21732189 0.06623593 -0.08124315 -0.08987358 -0.08249137 -0.13716082 -0.13967027 -0.15088278 0.08473373 -0.17052405 0.084184736 -0.3506131 0.102310866 -0.19717756 0.09235847 0.05319603 -0.17644857 -0.1340732 -0.2963427 -0.045715418 0.00062101136 0.023174653 0.2238587 0.13222961 -0.15067503 0.0005213057 -0.086691044 0.112340026 0.13856426 -0.12661125 -0.13734764 -0.011766786 0.053358134 -0.079239845 0.07684716 0.19901076 0.17577684 0.021671643 0.05307084 -0.027454207 0.21286118 0.051319044 -0.064110845 -0.09913825 -0.041197155 -0.042892877 0.101499416 0.12857878 0.08905277 0.085884996 -0.071055256 0.122456245 -0.02170044 0.023149585 -0.031030748 -0.13173608 -0.014736926 -0.06628666 -0.07983118 -0.06914538 0.004408066 0.048065092 -0.04738733 -0.009111971 -0.1268483 -0.108095795 0.027648468 -0.013363266 0.11319689 0.036696214 0.07157959 -0.17604023 0.15730408 -0.21690562 -0.042922884 0.040206406 -0.10808081 -0.19869004 0.073216684 -0.026993547 -0.09267199 -0.08670564 -0.04471902 0.043275774 -0.11802439 -0.0028551386 0.118306175 -0.22389027 0.0026702757 0.21474303 -0.11406203 0.028391609 -0.07222117 -0.0969483 0.189478 0.092247516 -0.11248749 -0.38106173 -0.095690005 0.18100196 -0.040778067 0.011395815 -0.2918002 0.018129732 0.0016294415 -0.088210076 -0.06640126 0.031183265 -0.16811068 0.06264017 -0.05105369 -0.041435964 0.0506456 -0.26448983 -0.13196437 -0.108512186 -0.17234764 0.04220749 0.033066053 0.15186284 0.16890739 0.013183967 0.2200761 -0.13672863 -0.061863292 -0.063150145 -0.019637564 -0.016901748 -0.20730197 0.06685541 0.15506783 -0.002037656 -0.023562254 0.20121868 -0.1602438 -0.057044785 -0.11278101 -0.023267163 -0.05185311 -0.08834912 -0.20293649 -0.06266501 0.008977574 -0.11142568 0.010234407 -0.06358552 0.049558368 -0.10270662 0.08714452 -0.03532262 0.03890064 0.10567614 -0.16073297 -0.05885034 -0.12678203 -0.11758594 -0.11299851 0.026952539 -0.096410505 -0.00023759424 0.20013177 0.049391806 0.15155411 0.1587569 -0.28141022 0.11555038 -0.21490663 0.100630976 -0.1256206 0.17310886 0.09515254 -0.06003791 0.07904996 0.0654844 0.1255112 -0.12118137 -0.14224266 0.25900954 -0.013438361 -0.003358809 0.13028537 0.061410062 -0.15309156 -0.09339436 0.13146326 0.16548851 0.24451856 -0.006412409 0.18484515 0.18084294 0.14094873 0.068178326 -0.11533611 0.09847353 -0.11603637 0.066636905 0.065009415 -0.14126536 -0.071545735 -0.24025647 -0.28271106 -0.0336247 0.06349549 -0.12887803 0.11263532 0.019677253 0.091947556 -0.05509995 -0.026495038 -0.09915539 0.046999976 0.05842478 0.20225084 -0.07943575 0.04721192 0.10528105 -0.18135369 0.2514257 -0.025868682 -0.11730063 0.09068601 0.1482743 -0.18376455 0.21907921 0.15100025 -0.07899714 -0.17377165 0.13129565 -0.10313891 -0.019023415 0.15919162 -0.25778437 -0.09234402 -0.15786737 -0.19848016 0.088547066 -0.03415652 0.098338254 -0.050114863 0.11207993 -0.111711696 0.07859239 0.33002242 0.089779206 0.15919952 0.016457768 0.04892547 0.102121234 0.21905161 0.0063506467 0.022397107 0.114340276 -0.024558045 0.20502143 0.19717218 -0.19535996 0.19560698 -0.18630457 0.02292525 -0.03041139 -0.112039514 0.12027754 0.12941168 -0.13083084 -0.20964387 -0.005449583 -0.123778045 0.22043455 -0.13625897 0.030998984
泪奔 0.025075432 0.18715125 -0.1613678 0.029910918 0.017890414 0.096408136 -0.100987084 -0.020770976 -0.103304915 -0.1388756 0.0817993 -0.14665192 -0.068602785 0.087024346 -0.0017271495 0.021329831 -0.13744077 0.0012274014 -0.06037168 0.09390949 0.08266249 -0.017809736 0.054656647 -0.00029816866 -0.07463592 0.040690728 -0.08501276 -0.044509426 0.0070025916 0.18405056 -0.22465445 0.077637315 -0.05663994 -0.06768829 -0.05048825 -0.124608755 -0.12825264 -0.14925583 0.116140634 -0.153629 0.08104287 -0.28215754 0.07746073 -0.21523328 0.12681843 -0.0019090263 -0.14002717 -0.108636394 -0.32333815 -0.06624539 0.030237176 0.07068314 0.20354037 0.13575746 -0.12623452 -0.020067386 -0.095092386 0.08123327 0.17328423 -0.10892061 -0.17069182 -0.018024463 0.017801752 -0.098791555 0.087245874 0.18518047 0.16362445 0.006528643 0.064217456 -0.013427622 0.17508301 0.08344053 -0.06808327 -0.10148444 -0.059397742 -0.061414286 0.11829518 0.15067716 0.10986072 0.10259202 -0.09050047 0.11319337 0.019146966 -0.003196519 -0.012437147 -0.093894005 -0.007828533 -0.064152226 -0.09137404 -0.02134834 -0.01803959 0.077440135 -0.076801844 -0.026187025 -0.12094894 -0.16062686 0.029846633 -0.03273137 0.10219182 0.013537891 0.101113945 -0.19779639 0.14954315 -0.20122646 -0.020535484 0.04215012 -0.13557425 -0.22328758 0.07213784 0.00649524 -0.05586514 -0.07632612 -0.0075214817 0.026316222 -0.10644847 -0.057461515 0.085034885 -0.22019123 -0.022768926 0.19391882 -0.110431634 0.046821706 -0.04909428 -0.06488496 0.16183391 0.116089135 -0.07878676 -0.38298708 -0.059036158 0.12480044 -0.06592908 0.028041324 -0.30395266 0.037865225 0.0095290905 -0.06024954 -0.10904946 0.02768256 -0.18543972 0.078850806 -0.03805551 -0.07242834 0.03787286 -0.27610037 -0.13728973 -0.12936087 -0.18611944 0.001578025 0.049791135 0.14218417 0.1358882 0.04858337 0.17951347 -0.10037647 -0.029986192 -0.033265177 -0.037099574 -0.014840277 -0.21216261 0.09474986 0.12145068 -0.009407122 -0.010638845 0.17338286 -0.17778373 -0.061565388 -0.057009667 -0.008133867 -0.005259307 -0.048043083 -0.23003258 -0.032543775 0.036149625 -0.07976868 0.017611576 -0.069188714 0.07174368 -0.10118338 0.069690354 -0.058884025 0.038871538 0.06896087 -0.12875286 -0.029546259 -0.0768061 -0.07968815 -0.13335708 0.050339814 -0.09721 -0.027707173 0.22349778 0.060341563 0.13177529 0.20522909 -0.26299864 0.104940794 -0.21519029 0.08021128 -0.08310717 0.15496138 0.090664454 -0.054264948 0.09413277 0.040980432 0.0950063 -0.118286595 -0.098410316 0.21231398 0.0011801145 -0.02034233 0.16609208 0.07278202 -0.19163331 -0.103168875 0.12577821 0.1319789 0.27173468 -0.010246015 0.22856504 0.21029101 0.124466285 0.032936633 -0.10905378 0.10359601 -0.07270821 0.07607048 0.035119582 -0.17999375 -0.0681939 -0.2560575 -0.31390673 -0.028320562 0.05760716 -0.097434625 0.09599009 0.011852977 0.06770841 -0.047424793 -0.006521394 -0.07611536 0.06272798 0.063662894 0.19923642 -0.09487379 0.05988423 0.10700272 -0.19292657 0.22189198 0.022804707 -0.10756599 0.10730829 0.119339146 -0.21865726 0.25299785 0.10317916 -0.07728272 -0.14060234 0.1761512 -0.12360731 -0.01361366 0.1477255 -0.25448325 -0.11838675 -0.17390336 -0.21948703 0.09169808 0.009899711 0.04263281 -0.05121278 0.06986044 -0.11202042 0.099521026 0.3482354 0.09142785 0.18629032 0.06865158 0.046151336 0.10977868 0.24306819 -0.0020666632 0.0163838 0.112204365 0.020480739 0.21150582 0.19634551 -0.2019242 0.16813907 -0.1611846 0.032350525 0.0075107864 -0.12176184 0.07280169 0.10564771 -0.100457296 -0.21284859 0.01237364 -0.106891274 0.23194855 -0.116002284 0.017244913
完 0.033590045 0.2506503 -0.1634435 0.0134320315 0.02077297 0.093995884 -0.074971996 -0.07760103 -0.0983058 -0.13445719 0.086757496 -0.19861846 -0.10283526 0.15031366 0.010828341 0.0144935595 -0.18095657 0.062090125 -0.08043006 0.11474521 0.06478459 -0.033010826 0.12871629 0.04360756 -0.0944209 0.02765878 -0.048993476 -0.02201215 0.022361623 0.1812483 -0.25235 0.031628378 -0.05302634 -0.08436688 -0.020125436 -0.14835489 -0.1388981 -0.16300346 0.09186791 -0.17653918 0.10598027 -0.32967174 0.062205296 -0.20220754 0.122707374 0.029472556 -0.16374847 -0.10328528 -0.30161527 -0.039554965 0.021966157 0.06970084 0.20879517 0.10986401 -0.15382615 0.030299244 -0.12269911 0.09598459 0.12835017 -0.11603027 -0.16110006 0.020815643 0.018938186 -0.08141766 0.06291779 0.20762971 0.18484695 -0.023437094 0.018180171 -0.022060066 0.22853614 0.04248481 -0.03544507 -0.15061274 -0.028361047 -0.022033332 0.11910741 0.14227594 0.12459123 0.084372886 -0.10729487 0.119847275 -0.028179452 0.046284936 -0.014402187 -0.11580727 -0.03120933 -0.06278553 -0.067818575 -0.053389687 0.013739083 0.088757426 -0.04800156 -0.03340807 -0.09188713 -0.12303849 0.026217742 0.020380754 0.1196644 0.03180428 0.07763746 -0.17461668 0.11625201 -0.20623828 -0.055013813 0.04191105 -0.1288817 -0.20465875 0.084015496 -0.01658952 -0.07336011 -0.04136904 -0.086389594 -0.00021373326 -0.12051676 -0.041536923 0.1386618 -0.27498132 -0.018232016 0.25097588 -0.102340005 0.051263906 -0.02789009 -0.0652417 0.19824246 0.15141693 -0.13915491 -0.34373018 -0.105684906 0.20216694 -0.04497906 -0.019736042 -0.30867013 0.021671861 -0.022263918 -0.07991736 -0.10207095 0.0531045 -0.15477091 0.06433653 -0.03780771 -0.034307934 0.081977494 -0.30651063 -0.13981436 -0.09458881 -0.1668201 0.03796544 0.028610252 0.13132592 0.14511432 -0.004261329 0.21980189 -0.09915713 -0.05926839 -0.03424665 -0.023087705 -0.009028649 -0.21243861 0.06033414 0.13438515 -0.043941606 -0.033312373 0.16445157 -0.15178324 -0.06296554 -0.08086436 -0.029999124 -0.01651547 -0.08949369 -0.23486987 -0.085415736 0.033825316 -0.10152567 0.022210963 -0.045555346 0.043646198 -0.09869642 0.05907726 -0.02623358 0.04763709 0.0685615 -0.18058074 -0.071922906 -0.13686672 -0.11283588 -0.07463495 0.024231495 -0.10022393 0.012459696 0.16235359 0.024403341 0.14065462 0.20842062 -0.2852924 0.12393153 -0.18455121 0.11697665 -0.13154663 0.15940154 0.091543436 -0.016482837 0.08036981 0.07304139 0.1060136 -0.1358516 -0.13789505 0.28019562 -0.025471976 0.019891145 0.1608987 0.037818026 -0.17291942 -0.07673221 0.13102406 0.17646262 0.24663287 -0.02239897 0.22377254 0.18605296 0.17226073 0.066203766 -0.117934346 0.08094888 -0.10877497 0.04376581 0.08334411 -0.17795107 -0.10901917 -0.277091 -0.2637866 -0.020000895 0.01863926 -0.14072238 0.108427174 0.031905107 0.10535246 -0.051949065 -0.04094288 -0.11861491 0.07890305 0.04793094 0.18421859 -0.07150048 0.084831506 0.08659661 -0.20596384 0.26908413 -0.05831148 -0.12016141 0.10898532 0.1067978 -0.18713728 0.26027107 0.16569515 -0.07661536 -0.14068925 0.15486813 -0.11926108 0.00639202 0.16534139 -0.23772305 -0.083540246 -0.11645312 -0.2345724 0.0900699 -0.034243863 0.07363504 -0.026573278 0.059873216 -0.084439516 0.07937879 0.32503062 0.1262416 0.19617432 0.059965838 0.10874194 0.09650451 0.22216426 0.02239173 0.024950376 0.10272003 -0.031310096 0.2023727 0.1853852 -0.17082798 0.2352896 -0.22899054 -0.0054408484 -0.016315212 -0.09680761 0.11497178 0.12850192 -0.1681994 -0.21612991 0.0042479513 -0.14727949 0.21812138 -0.13667859 0.03741358
还 -0.0015874294 0.23999965 -0.16493943 0.052959777 0.010777635 0.072937034 -0.06698897 -0.05713644 -0.08637956 -0.1576173 0.12069414 -0.16591226 -0.0814052 0.13704158 -0.029007573 -0.009919498 -0.15809673 0.03139065 -0.08838396 0.0662279 0.05678324 -0.06009297 0.082853995 0.01639467 -0.08058276 0.015182322 -0.048479103 -0.031455714 0.010771499 0.17460786 -0.24630143 0.058894675 -0.08766365 -0.0808117 -0.0740127 -0.13706927 -0.16001773 -0.15810162 0.08310144 -0.17220703 0.09312165 -0.35277423 0.0870452 -0.20485893 0.094500646 0.037783235 -0.18439755 -0.124440216 -0.31403726 -0.046140727 0.018116876 0.029639432 0.23278 0.14883493 -0.15708798 -0.0051467605 -0.09827967 0.11024138 0.15494198 -0.1354212 -0.14764725 -0.000978838 0.05586446 -0.080152586 0.07340169 0.20603089 0.17174524 0.009841891 0.054015413 -0.03378641 0.24415115 0.049850643 -0.07229111 -0.11507975 -0.040054586 -0.040720243 0.10643315 0.13163395 0.099510826 0.088515356 -0.07947274 0.14099093 -0.018241664 0.021856545 -0.01957268 -0.1321631 -0.017659463 -0.08299503 -0.08356245 -0.06518752 0.0045444337 0.058134615 -0.048415367 -0.02964139 -0.11245807 -0.12364787 0.031473942 -0.016821409 0.1180059 0.057508625 0.09225719 -0.1932729 0.15893054 -0.24360406 -0.03862771 0.022157604 -0.11780094 -0.22265904 0.0726082 -0.004836983 -0.08421213 -0.096506745 -0.057942446 0.0445368 -0.12600872 -0.022078246 0.119669564 -0.242076 -0.011742495 0.23714137 -0.12688561 0.046215653 -0.065856025 -0.109683566 0.19391656 0.12520243 -0.124484986 -0.3970368 -0.096198656 0.17080109 -0.03702234 0.0038016608 -0.3226776 0.022449123 -0.0058525843 -0.0906543 -0.0830599 0.050021317 -0.18076149 0.068662845 -0.043171205 -0.048917916 0.08208613 -0.27641654 -0.13749954 -0.112356246 -0.17895748 0.04254044 0.040811088 0.17309313 0.1668401 0.017054733 0.22666612 -0.14189845 -0.076791875 -0.053916343 -0.010902608 -0.016464356 -0.21975763 0.063811295 0.16119742 -0.0256926 -0.021083781 0.2103043 -0.18773878 -0.06518018 -0.115760796 -0.019880705 -0.041408848 -0.09836611 -0.23582679 -0.08195185 0.018967694 -0.12925453 0.012258671 -0.062425535 0.04502321 -0.122522436 0.09850069 -0.040984552 0.040946834 0.10898226 -0.18013772 -0.070105635 -0.14004107 -0.13658836 -0.114234105 0.019358741 -0.090669125 0.007781011 0.22368945 0.056819692 0.1674738 0.1848447 -0.29942346 0.1215687 -0.229942 0.09532879 -0.12257951 0.18941356 0.10682131 -0.05231286 0.07751215 0.06392639 0.14292012 -0.12736766 -0.13855498 0.28536135 -0.010508275 -0.0067860456 0.15787846 0.060833193 -0.16400103 -0.10101919 0.13065936 0.175754 0.26332313 -0.0032009082 0.22050093 0.18612027 0.1322673 0.06318651 -0.12814702 0.103419974 -0.13010675 0.0816831 0.08085765 -0.15705799 -0.077520765 -0.2595896 -0.3107573 -0.033163976 0.06873306 -0.12980469 0.1263591 0.0014057765 0.10113816 -0.06603924 -0.02761269 -0.12109198 0.0626211 0.065741085 0.2141355 -0.07829661 0.06135175 0.12409151 -0.20161787 0.2702644 -0.03517127 -0.14161012 0.10801596 0.15586576 -0.18530479 0.23953708 0.15664673 -0.08377907 -0.18926455 0.1423395 -0.12697586 -0.014780074 0.15917008 -0.25667703 -0.096073516 -0.15121487 -0.20632377 0.10293178 -0.035792556 0.085211605 -0.037221164 0.11905514 -0.123919636 0.07957237 0.34597102 0.10082462 0.18483107 0.03695628 0.07517296 0.10035141 0.23282307 -0.012631261 0.024222445 0.11777318 -0.029604068 0.20036893 0.21873143 -0.20098607 0.20654492 -0.2072829 0.007103668 -0.031633027 -0.12018359 0.12096383 0.13065073 -0.14633135 -0.22122595 -0.017786197 -0.12550092 0.23218386 -0.13486354 0.04384435
送心 -0.031309463 0.29921302 -0.12513182 0.025868924 -0.009567016 0.09604329 -0.03929877 -0.12390703 -0.030309957 -0.08066655 0.18011022 -0.06291312 -0.12148988 0.16254136 0.0042841714 -0.09491233 -0.13912092 0.043354403 -0.031738672 0.033147525 0.043613106 -0.042888522 0.06378227 -0.05888313 -0.031349923 0.08223517 -0.10327225 -0.12946053 0.005443307 0.1565553 -0.27510455 0.04762099 -0.09663279 -0.012441429 -0.13197866 -0.14453368 -0.16501257 -0.06622184 0.13220298 -0.06345672 -0.040874526 -0.24358884 0.08424853 -0.2626292 0.08088032 0.101492316 -0.10905948 -0.046904832 -0.18982872 -0.09912834 0.012757487 0.016687829 0.26482704 0.033551283 -0.15865396 -0.06339659 -0.047314085 0.16781108 0.215775 -0.035472054 -0.05458997 0.011767907 0.13250384 -0.08426747 0.12732263 0.1642475 0.2090901 -0.0043425774 0.06612198 0.028050045 0.16550505 0.11856409 -0.07730902 -0.040743206 0.0014371715 -0.12210425 0.07430518 0.18664241 0.09388352 -0.025387777 -0.14935705 0.03396091 -0.053932853 0.08157227 -0.0008331776 -0.21237119 -0.035047166 0.029819908 -0.046834033 -0.1864371 0.030341154 0.11150709 0.014146847 -0.04153349 -0.08972931 -0.028323138 -0.041314855 0.06935377 0.034139253 0.07868795 0.10261729 -0.19373713 0.22225977 -0.17368644 0.032585513 0.030630818 -0.0069501637 -0.15036805 0.08282252 -0.0010462252 -0.126502 -0.09458213 -0.0100106085 -0.026381657 -0.14871542 -0.040005796 0.14029966 -0.10555599 -0.0974416 0.22803946 -0.12405299 0.0009273207 -0.065198846 -0.05181536 0.12620667 0.08521652 -0.09011229 -0.26863694 -0.08841476 0.27352393 -0.1180843 0.05501217 -0.2613359 9.036173e-05 0.0375066 -0.08108928 0.025620973 0.006969759 -0.07529329 0.07608033 0.04992653 -0.06817047 0.061466265 -0.21744393 -0.1421849 -0.0030605972 -0.11195906 0.037497386 0.09437097 0.20233443 0.046873506 -0.011935005 0.24750106 -0.03090299 -0.109930746 -0.04142782 0.007925006 -0.065739624 -0.2061418 0.1510402 0.20096873 -0.015749298 -0.057882514 0.21822177 -0.102119096 -0.018019805 -0.14780648 0.0018267031 -0.10852426 -0.027916776 -0.24367838 0.0053976504 0.035795167 -0.10126587 0.099339664 -0.16923988 0.029797982 -0.09647111 0.15319036 0.06429365 0.078584656 0.025516462 -0.13536729 -0.066028334 -0.067256056 -0.04442544 -0.043264333 0.039896123 -0.066742145 -0.01675114 0.22617023 0.11493983 0.18460387 0.06479857 -0.28288996 0.020649763 -0.18448639 0.025153305 -0.18977666 0.12563577 0.14877506 -0.16796918 0.05592876 0.12869519 0.080913216 -0.19361138 -0.22215454 0.2624257 0.012515029 -0.088405125 0.055378083 0.13453558 -0.20551258 -0.15178558 0.19427274 0.23725268 0.15046002 -0.063900635 0.18553117 0.05981855 0.099026315 0.061885145 -0.007878371 -9.667056e-06 -0.16882809 0.07325958 0.11359914 -0.06875594 -0.03244137 -0.14513466 -0.2538475 -0.09333442 -0.029601049 -0.047697198 0.17319506 0.06025206 0.026678778 0.006100452 -0.041872334 -0.016421333 0.063455135 0.101642445 0.13211471 -0.11772275 -0.04191718 0.09760538 -0.18939073 0.23959596 -0.078516826 -0.014459539 0.057772744 0.2104765 -0.112399906 0.2081438 0.22463597 -0.0006885572 -0.18602288 0.08705384 -0.1526762 -0.11873177 0.09732374 -0.24624968 -0.027770145 -0.23100379 -0.09032732 0.048580877 0.0011683672 0.13548754 0.0066303653 0.13638265 -0.1574335 0.13472149 0.23318025 0.13949291 0.047691558 -0.031405874 0.06500122 0.021384452 0.27711758 0.023118878 -0.0128537975 0.05133978 -0.06677252 0.1786512 0.19243239 -0.22416647 0.21764815 -0.17709582 0.022848543 -0.08572161 -0.048438948 0.1209546 0.2058752 -0.047010943 -0.20705017 -0.03423264 -0.18550909 0.16747104 -0.12579206 0.106405534
看看 0.020665865 0.23401931 -0.14788304 0.04502574 0.026789268 0.059474085 -0.057927854 -0.050080072 -0.082024604 -0.14125605 0.111806765 -0.14739117 -0.084968105 0.112855524 -0.012928644 -0.0023119703 -0.15133359 0.02461177 -0.09343229 0.054052316 0.05097635 -0.06414364 0.093468666 0.008024939 -0.091005765 0.011560755 -0.051125295 -0.033192318 0.024157608 0.17747732 -0.22815791 0.055834886 -0.07955485 -0.08434166 -0.06950327 -0.13179709 -0.14881082 -0.15878613 0.08411279 -0.15749557 0.08448971 -0.32292324 0.081882976 -0.18047753 0.102695554 0.046425544 -0.17812236 -0.11951396 -0.2881342 -0.036766924 0.026969977 0.023431672 0.20220263 0.12518452 -0.15137622 0.0077832704 -0.07541041 0.089714766 0.1365157 -0.13513884 -0.14285068 0.0041113016 0.046963464 -0.084731646 0.07078991 0.1873924 0.15602857 0.001976717 0.056612488 -0.020271743 0.22823608 0.048444245 -0.04804918 -0.09341772 -0.027686287 -0.055122904 0.08794081 0.120920874 0.08062754 0.07012789 -0.059649035 0.118835516 -0.023182662 0.01517481 -0.0219534 -0.12255342 -0.023010671 -0.066316165 -0.08161018 -0.052944444 0.0039215386 0.053998835 -0.038156886 -0.015998784 -0.10096794 -0.122692876 0.017766127 0.0029024894 0.09752563 0.048670147 0.06366916 -0.17490254 0.14287338 -0.2255203 -0.042398207 0.02472261 -0.09295885 -0.19338366 0.06505376 -0.018297458 -0.0987863 -0.09259574 -0.04669802 0.03641717 -0.11771449 -0.028477784 0.12578347 -0.21012293 -0.016327105 0.22616361 -0.11698264 0.025315136 -0.04962658 -0.07933611 0.16142486 0.10202209 -0.12440204 -0.35760325 -0.09004947 0.16194269 -0.037011348 0.0060734586 -0.29437605 0.005396832 -0.010781866 -0.07431294 -0.0805445 0.054604422 -0.18506202 0.03957092 -0.04944359 -0.028786287 0.069024004 -0.25880954 -0.120225035 -0.100981034 -0.16460817 0.038157858 0.04543528 0.14622118 0.15282558 0.012625517 0.21112616 -0.11872702 -0.05802994 -0.06201231 -0.017502226 -0.02613914 -0.194939 0.0477739 0.1504719 -0.024031358 -0.03646946 0.17381646 -0.18907325 -0.04467697 -0.11598302 -0.02180584 -0.04392294 -0.09501692 -0.21777153 -0.070618294 0.013499087 -0.11584674 0.0063069905 -0.06889241 0.03285289 -0.11411211 0.07250594 -0.023473907 0.045589704 0.091386974 -0.17458914 -0.05851282 -0.11520074 -0.110157326 -0.103260145 0.026570663 -0.102306515 0.014242785 0.20280099 0.052765653 0.1542987 0.16915432 -0.2838539 0.10536552 -0.2026807 0.10098449 -0.10921639 0.17863454 0.08348667 -0.039632138 0.081185676 0.05768514 0.13734913 -0.112414256 -0.13549301 0.2621255 -0.03008708 0.006934149 0.13813388 0.05919153 -0.13833311 -0.08998834 0.118286654 0.16821417 0.23175795 0.009821982 0.19594416 0.17913473 0.11560331 0.06322915 -0.1237381 0.09259893 -0.12427736 0.08053653 0.05789565 -0.16215883 -0.08361322 -0.23907495 -0.26924604 -0.022930162 0.057721734 -0.11711234 0.12039627 0.010775511 0.07953546 -0.055043995 -0.025022546 -0.11349859 0.04965409 0.06967183 0.20215808 -0.07500984 0.039900508 0.12391943 -0.17280902 0.24930263 -0.02707338 -0.120131806 0.102191664 0.14442629 -0.172288 0.23717389 0.1584632 -0.09296019 -0.15908693 0.12779167 -0.1292185 -0.023873473 0.14139242 -0.24966496 -0.08919805 -0.14788413 -0.21109936 0.08017215 -0.029082982 0.07657374 -0.043259412 0.11067331 -0.104980215 0.066004366 0.31612316 0.081270956 0.17758931 0.02585143 0.051611688 0.07986746 0.20769337 0.006676263 0.024380133 0.09908697 -0.033811484 0.1775992 0.19841845 -0.1772588 0.19254209 -0.18708494 0.0019828838 -0.012842075 -0.11800433 0.1134425 0.12100699 -0.13843799 -0.21684258 -0.0133017665 -0.1244387 0.2160779 -0.14484902 0.029559959
