881 300
捂脸 -0.08122894 -0.018892298 -0.06640927 -0.110329084 -0.016371982 -0.097201645 -0.07856175 0.09424069 0.011628832 0.06441415 -0.0043203877 0.07092987 -0.012805613 0.11858824 -0.1575489 0.019498037 0.039706275 0.036504712 0.043116868 -0.07757706 0.12234969 0.08274076 0.021715852 -0.18154514 -0.08317647 -0.068206534 -0.20690572 -0.0523982 0.011965959 -0.046796333 0.017433556 0.05407116 0.08567264 -0.17862234 0.02777157 -0.04974689 -0.18588309 -0.089085095 -0.070716925 0.05204821 0.09947384 -0.13130903 -0.058847506 -0.04725602 -0.16935362 -0.041872382 -0.18450545 0.05281049 -0.0388658 0.003949266 0.014554016 0.021947684 -0.16947979 -0.039358392 0.041842308 0.05114464 0.081390634 -0.17604434 0.07160211 0.054850567 -0.18463217 0.107932754 -0.0017836386 0.05164257 -0.0075308555 -0.03926874 0.033678573 0.118144356 -0.024588045 -0.109060936 -0.06885327 0.001778118 0.14457455 0.051683158 -3.5266763e-05 -0.044939697 0.096618176 0.032034688 0.06189521 0.067850456 0.033465456 0.26691112 -0.0862888 0.07908015 0.07941539 -0.14043286 -0.030806191 -0.043728564 0.012570518 -0.15791327 0.12141945 0.06127605 0.1499125 -0.13020487 0.123841114 0.00385697 0.060830127 -0.13654387 -0.047847923 0.024283927 0.088854 -0.08307602 0.013494308 0.08696856 0.018825572 -0.024099123 0.09454091 -0.053798083 -0.043342713 -0.12269014 0.027154729 0.19216584 -0.01635816 0.054281875 -0.12746282 -0.07111748 -0.10335282 -0.10388264 -0.025925683 -0.17570296 0.08900501 0.14219204 -0.059866842 -0.06776932 0.07857333 -0.010448434 0.06407086 0.07850658 -0.06844833 0.098227926 -0.07958092 -0.032115147 -0.00045458652 0.04426948 0.019235807 -0.12308836 0.10395072 -0.06908924 -0.086549625 -0.16023737 0.0929932 0.14313167 0.024086546 0.029751781 0.1532415 0.09950128 -0.029436877 0.20712265 -0.049759984 0.039995026 -0.0271352 0.092508614 -0.05257343 0.0063256924 0.021508828 0.05672034 -0.07838971 0.13664539 -0.10796913 -0.020863917 0.028244603 -0.14933136 0.09621605 -0.053252105 -0.13597777 0.10205068 -0.09629379 0.07310533 0.036660388 0.025265032 0.10807485 -0.11293322 0.24398547 -0.09216815 0.04994123 0.11793285 0.0024715192 0.115948565 -0.1063083 0.04413435 -0.06877214 0.01790482 0.10711944 -0.00024705875 -0.005769424 0.070538804 -0.056799244 -0.0020675613 0.03971136 0.059022438 0.029878918 -0.10905572 0.023297701 0.08814348 0.114281975 0.107735254 0.003930036 -0.1034335 -0.0142129315 -0.11464637 -0.20775644 -0.036430735 -0.030454546 0.14535964 0.09273815 0.09998449 0.049644448 -0.032375 0.07445772 -0.070556544 0.018667394 0.1804536 -0.15978202 0.20377326 -0.077197105 -0.035831407 -0.09453658 0.10941529 -0.14350319 0.19119352 -0.011359287 0.093623795 -0.05496037 -0.11855561 -0.14886943 0.17860955 -0.015384839 0.053523097 -0.027175106 -0.1634447 0.080102205 0.22841705 -0.16875374 -0.01666968 0.059441794 -0.22940671 -0.13323289 -0.05044482 -0.115512095 -0.020928418 -0.079830684 0.040407207 0.1182537 0.09580936 0.005429351 0.10222565 0.07651284 -0.12461273 0.13277496 0.07628164 -0.13635989 -0.010148655 -0.020999659 -0.1424257 0.017519666 -0.07539758 0.054954976 0.09394262 -0.1079322 0.02020689 -0.058237907 0.079917505 0.13708156 -0.11980202 0.113581456 0.10504764 0.02743673 -0.112079225 0.039743714 -0.18840635 0.16417655 -0.18061578 -0.08246283 -0.07087449 -0.12318989 -0.12954007 0.05500865 -0.099105895 0.18744123 -0.030936083 0.03087848 0.04418371 -0.10045391 -0.06641988 0.12513784 -0.051909026 -0.25819194 -0.016359724 0.17579761 0.013989954 0.062915914 0.20213585 -0.11403602 -0.016116938 0.12532388 0.12656221 -0.018113071 0.102503575 -0.14698324 0.049203083
吃 -0.12131428 -0.0214896 -0.09686588 -0.1540866 -0.013289772 -0.13949507 -0.12427673 0.13130449 -0.0007516122 0.0817284 -0.020327998 0.106358394 -0.026759325 0.16338505 -0.2193637 0.01616153 0.04197301 0.044429667 0.071583785 -0.12674455 0.17219438 0.11397494 0.016938213 -0.27824944 -0.12649304 -0.10642476 -0.306136 -0.08095476 0.032921586 -0.06670257 0.016603505 0.07503697 0.12856552 -0.26293916 0.025010595 -0.0688694 -0.28576237 -0.12783645 -0.10616952 0.0874378 0.15237473 -0.1823405 -0.10726711 -0.06097548 -0.25434822 -0.061868872 -0.27165338 0.07334929 -0.05806491 0.021536853 0.010899188 0.029901493 -0.24500857 -0.058820534 0.05295973 0.06393695 0.12085742 -0.28622708 0.1220757 0.08120196 -0.2868748 0.16290447 0.01904744 0.06915995 0.0012480825 -0.04806336 0.060350746 0.19384247 -0.05043552 -0.1750568 -0.08603916 -0.0034893104 0.22881332 0.08981297 -7.3492185e-05 -0.0636315 0.13475582 0.05627512 0.10381574 0.09494778 0.046840936 0.4128106 -0.11035221 0.1136025 0.12541665 -0.22521949 -0.037980564 -0.06388278 0.015226994 -0.22611944 0.19005276 0.09162597 0.22457123 -0.19225861 0.18616451 0.02579197 0.08435959 -0.20750275 -0.0663198 0.0197536 0.14547616 -0.12933289 0.030026002 0.11146562 0.01570132 -0.033537906 0.16253246 -0.06222972 -0.06395131 -0.1839451 0.059025306 0.2869911 -0.04014332 0.07405355 -0.20933789 -0.09636042 -0.15615344 -0.17778839 -0.029271161 -0.25999913 0.13620403 0.21953143 -0.08440459 -0.08450659 0.12882116 -0.011471846 0.115102656 0.13116443 -0.097043194 0.14517497 -0.12765355 -0.030962562 -0.009670699 0.054878853 0.019733183 -0.18668875 0.16083527 -0.093873754 -0.13019612 -0.22167188 0.13833961 0.20486268 0.05319257 0.05563568 0.23151597 0.15404291 -0.06149206 0.3225226 -0.08336139 0.0478959 -0.02567447 0.13497093 -0.072526164 0.020043526 0.04855831 0.10147388 -0.124315314 0.20845196 -0.14533639 -0.035273943 0.04358116 -0.2286178 0.14664048 -0.06535134 -0.18548246 0.16783103 -0.13780944 0.1175851 0.059142523 0.043811172 0.15157187 -0.14645341 0.35571602 -0.12724079 0.0736606 0.1824658 -0.003415126 0.17295754 -0.16182792 0.05123394 -0.09555233 0.049044713 0.18231042 0.013726696 -0.0056047845 0.12186043 -0.09056629 -0.0054781064 0.04925589 0.07667137 0.05629387 -0.17932874 0.046016246 0.12654161 0.16345401 0.1700936 0.01302911 -0.1437107 -0.010755824 -0.18737389 -0.31344816 -0.04944141 -0.029525122 0.20881198 0.15805867 0.15579799 0.07547732 -0.04271033 0.12522623 -0.09638399 0.042809885 0.2698908 -0.24277258 0.30436522 -0.10840303 -0.06698287 -0.13447581 0.17948522 -0.22046424 0.30553636 -0.0101942 0.1452408 -0.07313625 -0.17442752 -0.22783208 0.269726 -0.017373981 0.08436751 -0.05028159 -0.2380807 0.12701418 0.3347031 -0.25514704 -0.013393112 0.103040665 -0.3569323 -0.21013495 -0.067576304 -0.17123736 -0.047511697 -0.11926875 0.05985975 0.1590108 0.1357818 0.01883011 0.14802837 0.09961364 -0.18289691 0.19774266 0.10497092 -0.20054328 -0.020932976 -0.031952746 -0.21333817 0.0038756207 -0.10375241 0.10867441 0.122366436 -0.17702654 0.015541659 -0.09121371 0.11723975 0.21698278 -0.19541484 0.18580823 0.13845676 0.038213637 -0.17822544 0.060909107 -0.277695 0.24936403 -0.26887122 -0.12393864 -0.08610603 -0.19128124 -0.20537935 0.06315548 -0.13891573 0.26938277 -0.025449622 0.055395313 0.060977403 -0.14310753 -0.10953042 0.19742262 -0.074587956 -0.387257 -0.03412913 0.2768116 0.023153186 0.090078644 0.30203792 -0.17380024 -0.031359706 0.18652484 0.18574573 -0.014917349 0.16928823 -0.2366614 0.084583476
看 -0.1200767 -0.021658836 -0.093692176 -0.15195583 -0.015244053 -0.1348552 -0.122169785 0.12600754 -0.00017553954 0.07755655 -0.019076444 0.102390744 -0.022975989 0.15688576 -0.21733841 0.016616236 0.04390152 0.040322974 0.07035868 -0.12528549 0.17212653 0.11042153 0.017271625 -0.27379754 -0.12658285 -0.103014596 -0.3025934 -0.08457747 0.03129559 -0.06466219 0.012386274 0.074606426 0.12727599 -0.25967792 0.023030635 -0.06948444 -0.28414887 -0.12885527 -0.10538536 0.08451708 0.14820182 -0.17952836 -0.10648315 -0.05912037 -0.2491305 -0.06259403 -0.26717418 0.071516775 -0.057578087 0.025686774 0.010762295 0.033347607 -0.24143103 -0.057500333 0.051311407 0.06126372 0.11719539 -0.28521147 0.11950212 0.07930424 -0.28433385 0.15808885 0.021157743 0.071253136 8.0909114e-05 -0.04727783 0.06244699 0.1901152 -0.047900632 -0.17214593 -0.08894198 -0.0038248745 0.22719523 0.08683912 0.0018271614 -0.063912414 0.13485509 0.055614825 0.103812754 0.090950064 0.04249426 0.4052253 -0.11040351 0.11337014 0.123247966 -0.2198472 -0.035146587 -0.06298873 0.01600848 -0.22007091 0.18538044 0.089704074 0.21667889 -0.18886575 0.18596146 0.024812702 0.08265438 -0.20500255 -0.06643184 0.019096626 0.14450455 -0.12314979 0.026447054 0.10806602 0.013914478 -0.03493725 0.15776406 -0.06016856 -0.06255699 -0.18278112 0.058569845 0.28260624 -0.042847812 0.071397 -0.20573297 -0.09177273 -0.1524202 -0.17254467 -0.027721377 -0.25611106 0.13211772 0.21307196 -0.083115734 -0.08107881 0.1300829 -0.011077395 0.111218475 0.12945703 -0.09437847 0.14145215 -0.1266371 -0.030887222 -0.010775013 0.05240484 0.021623738 -0.18010692 0.15822689 -0.09163018 -0.12824547 -0.22257172 0.13852155 0.20381568 0.04941158 0.05299356 0.22748111 0.15239634 -0.061198242 0.3207832 -0.07903459 0.048542496 -0.026971534 0.13499977 -0.0705541 0.017188316 0.05189901 0.097464904 -0.12305303 0.2062796 -0.14665174 -0.036673285 0.047304768 -0.22260047 0.14076565 -0.062000126 -0.18152533 0.16104385 -0.13765967 0.11491281 0.054117914 0.043355055 0.14956701 -0.14405347 0.34952512 -0.12481888 0.0673873 0.1786139 -0.0052463603 0.16915241 -0.16073969 0.049881347 -0.09445113 0.046428252 0.182319 0.013864667 -0.003073286 0.1172951 -0.09071806 -0.0007421479 0.04823392 0.07047606 0.05876923 -0.17774443 0.04648972 0.12198333 0.15921128 0.16547556 0.016791705 -0.13645652 -0.012816051 -0.18290186 -0.3113934 -0.047475744 -0.026994053 0.20410137 0.15776782 0.1571887 0.07686491 -0.041261137 0.12560089 -0.09560856 0.042253487 0.26580805 -0.23807007 0.29741138 -0.1056478 -0.067854054 -0.12943177 0.17760576 -0.21451947 0.29934326 -0.006801294 0.14047891 -0.07195219 -0.17072624 -0.22377737 0.26539063 -0.018090656 0.081015095 -0.048030365 -0.2319084 0.12746212 0.32809 -0.25109157 -0.013595004 0.10071211 -0.35223198 -0.20427956 -0.06736487 -0.17232217 -0.04746368 -0.11526649 0.061331954 0.15522987 0.13475032 0.018283922 0.14540988 0.09758856 -0.17872825 0.19147234 0.10457018 -0.19835888 -0.019119091 -0.029992137 -0.20663759 0.004530096 -0.10153224 0.10504312 0.12217089 -0.17416486 0.015050818 -0.091262996 0.11711702 0.21231246 -0.19109851 0.17753164 0.13674113 0.04032771 -0.17396519 0.05973821 -0.27340588 0.24199711 -0.26132149 -0.12180377 -0.08317393 -0.19139697 -0.20006238 0.06112225 -0.13832803 0.26436213 -0.026219599 0.055407654 0.060952377 -0.14169319 -0.10800946 0.19349165 -0.07106689 -0.38016102 -0.030253183 0.2724592 0.023141634 0.09249989 0.29712552 -0.16976516 -0.0310924 0.18216152 0.18411133 -0.017235888 0.16568418 -0.23637526 0.07891567
翻 -0.08976126 -0.015020003 -0.07897392 -0.11253475 -0.012478155 -0.09820027 -0.08533963 0.097165324 -0.00035823576 0.0617273 -0.013563756 0.07553769 -0.017975286 0.11543479 -0.15905696 0.014786911 0.029520392 0.024797203 0.049608827 -0.09903825 0.12942308 0.077614814 0.013260511 -0.2076295 -0.10297271 -0.072997026 -0.22696745 -0.06579239 0.023093468 -0.044425953 0.011270534 0.05991126 0.10092432 -0.19507208 0.018598327 -0.052292306 -0.212787 -0.101789065 -0.08409466 0.068544865 0.113312244 -0.12910837 -0.087615535 -0.042874392 -0.19222571 -0.04589445 -0.20580934 0.056918252 -0.049343407 0.024878796 0.010001343 0.02515316 -0.17651343 -0.04353188 0.037197616 0.04668872 0.08739104 -0.22247298 0.09094899 0.06228379 -0.21688947 0.12296005 0.018834146 0.05063707 0.0031307307 -0.028266847 0.047993578 0.14584985 -0.039918773 -0.12867717 -0.06285479 -0.0076245847 0.17369099 0.066694245 -0.0018850174 -0.04463936 0.0960175 0.039765313 0.080832206 0.065323845 0.03147309 0.30477 -0.076624595 0.0866008 0.09710511 -0.17198774 -0.027767813 -0.048398327 0.0158445 -0.16627213 0.14050294 0.06538636 0.16343272 -0.14169809 0.14057969 0.020154387 0.06290239 -0.15911983 -0.04717171 0.013200567 0.109973855 -0.096375905 0.016315809 0.07896101 0.014616847 -0.026786981 0.12167989 -0.040710658 -0.04499532 -0.13691525 0.044059712 0.21749792 -0.038325597 0.051367857 -0.15238008 -0.06399979 -0.11571268 -0.13471058 -0.024815172 -0.195227 0.099108756 0.1507233 -0.05971428 -0.05665407 0.0965912 -0.011594233 0.08625248 0.09990482 -0.07355844 0.11227901 -0.091846675 -0.02234742 -0.012386643 0.042767905 0.021154804 -0.13673475 0.12044668 -0.074519984 -0.09602423 -0.16764995 0.11205856 0.15330759 0.03603306 0.041682314 0.17047194 0.122372195 -0.04773394 0.249144 -0.059984386 0.033696625 -0.014972754 0.10886523 -0.056938715 0.01534168 0.043345787 0.07451906 -0.090038866 0.15685962 -0.11227357 -0.030258784 0.04015782 -0.1661415 0.10518006 -0.04688917 -0.13506469 0.12191157 -0.10043144 0.0855386 0.044448473 0.031168211 0.11473383 -0.10958828 0.2601638 -0.09488167 0.049652927 0.13459028 -0.0045373105 0.123715766 -0.12772492 0.03927828 -0.0758475 0.03608379 0.14103976 0.013803703 -0.00046441765 0.09406059 -0.066110454 -0.0017060492 0.033489842 0.055495247 0.04320371 -0.1408086 0.03744518 0.08841292 0.12649985 0.11952068 0.0187018 -0.10116061 -0.0074237613 -0.14717187 -0.24101122 -0.03505353 -0.017176043 0.15326963 0.11696116 0.124869555 0.05918006 -0.023813395 0.09986645 -0.07303327 0.030312771 0.20299092 -0.17807494 0.22615916 -0.080827944 -0.05140949 -0.09505975 0.13534139 -0.1643077 0.23017338 -0.0069446843 0.101485446 -0.06279287 -0.1310368 -0.17159888 0.20774518 -0.013636502 0.057316795 -0.042829342 -0.1773973 0.09598737 0.25601703 -0.1901653 -0.011200257 0.080083124 -0.26662058 -0.15734948 -0.057086665 -0.13332906 -0.044338256 -0.086167544 0.049019065 0.117070235 0.10483923 0.020262511 0.10883015 0.07692333 -0.13822979 0.14240184 0.07833735 -0.15651093 -0.009238735 -0.01982326 -0.16456808 -0.0022333954 -0.07292467 0.08387726 0.090488166 -0.13936208 0.009190932 -0.06849222 0.0885877 0.16721748 -0.14749193 0.1326518 0.101268694 0.031674396 -0.13292077 0.048118 -0.20423616 0.18306582 -0.19254008 -0.09209798 -0.06125938 -0.14982009 -0.15240896 0.038226876 -0.10555705 0.19789216 -0.01483996 0.042266212 0.04811862 -0.11087876 -0.07752805 0.14261402 -0.05927374 -0.28481287 -0.018835062 0.205087 0.016990492 0.076373555 0.22490801 -0.12920809 -0.02388955 0.14099751 0.14217128 -0.015594027 0.12256336 -0.1828931 0.057985052
泣不成声 -0.08572106 -0.013307315 -0.0631323 -0.10915149 -0.011536513 -0.09658718 -0.08317205 0.08470414 -0.0052282233 0.049911983 -0.009582995 0.07133183 -0.020825895 0.10933088 -0.15138757 0.010124179 0.024838703 0.032141086 0.051991787 -0.0889845 0.11846373 0.072525784 0.01258696 -0.19059539 -0.08737126 -0.07498287 -0.21112897 -0.061341725 0.02392317 -0.04052149 0.008979246 0.051417876 0.0870797 -0.18113129 0.014652079 -0.044730067 -0.19894646 -0.09270161 -0.0681167 0.06389223 0.105071425 -0.11753699 -0.073411085 -0.040232535 -0.16947491 -0.039876763 -0.18985495 0.048703074 -0.04157756 0.021291915 0.010615761 0.026040267 -0.17132673 -0.03929825 0.035889357 0.044800624 0.078980476 -0.19550742 0.08609894 0.059507173 -0.19532864 0.10827017 0.018006273 0.04663891 4.9493436e-05 -0.03215926 0.043951504 0.1365795 -0.037777126 -0.11857071 -0.05891728 0.00066251715 0.15311128 0.058986016 -0.005062861 -0.045821454 0.09342461 0.04304912 0.06869903 0.059932083 0.024174998 0.28202456 -0.07331222 0.07210864 0.087615624 -0.1537896 -0.02443761 -0.048821446 0.010640621 -0.15294404 0.13061364 0.059212632 0.15290634 -0.1328282 0.1290893 0.017544625 0.05332884 -0.14316505 -0.0491313 0.011985141 0.10141518 -0.08675199 0.016173655 0.07485688 0.015306247 -0.022074405 0.11401747 -0.04543247 -0.044280954 -0.13076933 0.04245685 0.18817778 -0.03157052 0.047988154 -0.14292859 -0.06587064 -0.10423615 -0.121581934 -0.018832441 -0.17866606 0.08862014 0.15023358 -0.06076403 -0.049851894 0.08715722 -0.004186053 0.079118185 0.08746389 -0.06499138 0.10186436 -0.09017922 -0.019766893 -0.011291337 0.037015382 0.01679024 -0.13135836 0.109251946 -0.0650691 -0.08681327 -0.15119515 0.09815403 0.14152798 0.030603327 0.04064046 0.15706351 0.11027801 -0.041641623 0.22418718 -0.050655156 0.03308245 -0.018753361 0.08971151 -0.05030045 0.014325698 0.038969718 0.06811807 -0.088927984 0.14187972 -0.0981289 -0.028769478 0.030680357 -0.15527952 0.09987833 -0.04421124 -0.13062677 0.11737801 -0.09601446 0.078222156 0.037034463 0.029808376 0.10670127 -0.10027365 0.24039058 -0.08450466 0.04811355 0.12741613 -0.0029526385 0.119196005 -0.11405069 0.031599864 -0.06976131 0.033930436 0.12933823 0.011405885 -0.0014879777 0.07876412 -0.06740591 -0.0012687114 0.03221277 0.052646086 0.037571013 -0.12833981 0.028397758 0.080462106 0.11044632 0.11328503 0.01226862 -0.096579075 -0.01077893 -0.13501824 -0.21742852 -0.029238764 -0.02103171 0.14101891 0.10724262 0.11068024 0.048831053 -0.025049211 0.08652002 -0.06523404 0.027260534 0.18030827 -0.16484532 0.20444182 -0.07678748 -0.044935144 -0.08467416 0.12202579 -0.15131167 0.20972554 -0.002000871 0.094652966 -0.055127908 -0.11356015 -0.15417987 0.18529633 -0.014275005 0.062253647 -0.03418683 -0.15893295 0.09199178 0.23045248 -0.17151755 -0.006252726 0.06879153 -0.24056327 -0.14376482 -0.047288336 -0.121159196 -0.031699456 -0.07826526 0.046225347 0.10573108 0.09071249 0.0133327115 0.09743577 0.06994633 -0.12929007 0.13177076 0.06908978 -0.14104602 -0.0116928425 -0.01898574 -0.1395116 0.0013801225 -0.06601265 0.072722554 0.08451969 -0.12029592 0.009502436 -0.06356704 0.07796492 0.14775014 -0.13010707 0.124573775 0.09627669 0.028685179 -0.121438496 0.040733516 -0.18750359 0.16333373 -0.18282042 -0.08292118 -0.052348215 -0.13608977 -0.14048132 0.03626244 -0.09650614 0.18218613 -0.020149603 0.042389575 0.04184392 -0.10115783 -0.07538079 0.13176093 -0.044774547 -0.26422474 -0.025391819 0.18440847 0.014793209 0.0629597 0.20880799 -0.11948603 -0.022437813 0.13028447 0.12815033 -0.01165288 0.1120416 -0.16887222 0.055885777
呲牙 -0.08283214 -0.0097202165 -0.06411117 -0.09331655 -0.004454267 -0.0843365 -0.079296865 0.08002067 -0.004495459 0.040395964 -0.010312407 0.0597537 -0.0185567 0.099245034 -0.14276506 0.009288898 0.027197171 0.025871193 0.04781649 -0.07983469 0.11546337 0.06692252 0.009114383 -0.1778353 -0.08180978 -0.06635988 -0.19807564 -0.05169405 0.023379456 -0.03911665 0.013192813 0.04490258 0.084393606 -0.15918963 0.011726367 -0.04288994 -0.18835495 -0.08006906 -0.071651526 0.05923502 0.09800656 -0.112497605 -0.067531735 -0.039914533 -0.15938243 -0.044250373 -0.17373855 0.048660044 -0.039032567 0.016497176 0.003723317 0.021730965 -0.15715513 -0.03692344 0.027646475 0.035785828 0.07425323 -0.18511449 0.08089756 0.057020303 -0.18439746 0.10322873 0.01506386 0.041279506 -0.000476756 -0.025810665 0.042448368 0.11981231 -0.027310407 -0.11060607 -0.05340686 0.002733209 0.14912285 0.056587562 0.0019818866 -0.043801133 0.083294414 0.037897088 0.07019808 0.059075054 0.027910497 0.26042238 -0.068736255 0.07224954 0.080984086 -0.14650159 -0.019241726 -0.04694196 0.0050439327 -0.13335586 0.11865959 0.047943804 0.139291 -0.122829705 0.117908 0.013573923 0.04705195 -0.13555633 -0.040853728 0.01753923 0.08699775 -0.07558758 0.019902987 0.067180425 0.008767869 -0.02714026 0.10599344 -0.038266603 -0.0407489 -0.11427974 0.043869402 0.17745659 -0.030597534 0.04609491 -0.13636978 -0.054202307 -0.09335401 -0.11749087 -0.013260883 -0.16019203 0.088408604 0.13637573 -0.048262578 -0.04826499 0.0813944 -0.002452979 0.07478824 0.08459505 -0.056736726 0.08407677 -0.08786219 -0.022274908 -0.011689898 0.033457223 0.022083329 -0.12045554 0.10236264 -0.056950595 -0.08091247 -0.13721594 0.08476148 0.1252704 0.038304076 0.04127018 0.14729929 0.101626895 -0.03865592 0.20100506 -0.04464544 0.02670831 -0.010611147 0.088472225 -0.041200805 0.005717558 0.037314393 0.062637754 -0.08519183 0.132114 -0.08761567 -0.021384312 0.028568653 -0.14060847 0.09525914 -0.042581614 -0.11259864 0.107355416 -0.086132765 0.07325168 0.038694452 0.03110513 0.09498777 -0.09494591 0.22089508 -0.077059545 0.046254545 0.11451775 -0.006738932 0.10727081 -0.10507558 0.034537416 -0.061545264 0.032400895 0.120209165 0.011402754 -0.0024441658 0.07843989 -0.05983893 0.0023898643 0.032409545 0.049682084 0.04018501 -0.115758434 0.025303392 0.07432872 0.106141016 0.10637997 0.012111905 -0.08483786 -0.01295115 -0.12463295 -0.1998282 -0.024717003 -0.013981473 0.13029647 0.09954674 0.09802465 0.049654134 -0.026220042 0.081300385 -0.057733078 0.026126191 0.17051703 -0.15192185 0.18617046 -0.06972485 -0.03608099 -0.08776645 0.11229638 -0.13534448 0.18521865 -0.006992965 0.08986074 -0.042743284 -0.1090865 -0.15086114 0.1690766 -0.00913855 0.054129846 -0.034626253 -0.15226471 0.08601026 0.21409355 -0.16235478 -0.011349686 0.064172655 -0.22224793 -0.13613328 -0.044183888 -0.11428814 -0.02894521 -0.08002345 0.035072695 0.1031114 0.08932453 0.012466621 0.089784525 0.0660398 -0.11095877 0.12681584 0.06503122 -0.12905659 -0.01859369 -0.0204067 -0.13239689 -0.00044080734 -0.060628682 0.06686488 0.07375411 -0.11207388 0.014160823 -0.060816843 0.08006851 0.137323 -0.1266426 0.12249641 0.09385528 0.029396918 -0.10918054 0.042630985 -0.17765225 0.15867364 -0.17283672 -0.083169155 -0.053480737 -0.12641884 -0.13151391 0.04050592 -0.09100434 0.1706762 -0.019763142 0.041576687 0.04299379 -0.09225805 -0.06835904 0.12730153 -0.050612796 -0.2473068 -0.016135208 0.17156647 0.01970792 0.056853622 0.19254364 -0.110233575 -0.020416772 0.11660569 0.12093042 -0.0078047323 0.10389626 -0.1515685 0.051658846
减肥 -0.13368325 -0.022403285 -0.10700084 -0.16742481 -0.016184928 -0.14833406 -0.13516372 0.13917373 -0.0009124466 0.08721407 -0.024720207 0.11326464 -0.02806076 0.17618135 -0.24191791 0.019300276 0.046950076 0.04932842 0.07385057 -0.1362638 0.19052194 0.12149687 0.018801682 -0.30387926 -0.14126445 -0.11321103 -0.33202526 -0.09415482 0.033584256 -0.07039985 0.014830795 0.08176979 0.14286338 -0.28485096 0.027672041 -0.075487256 -0.31381932 -0.14495365 -0.1162958 0.095618114 0.166791 -0.19589873 -0.11760879 -0.06377968 -0.2759599 -0.06698072 -0.29588705 0.08043301 -0.06466101 0.027344089 0.012887761 0.033974975 -0.26856634 -0.06276905 0.056730818 0.06770386 0.12759624 -0.31518525 0.1302189 0.09251438 -0.3150713 0.17578876 0.02402844 0.078870244 0.0015675947 -0.052113507 0.06699079 0.2109873 -0.053371046 -0.18886147 -0.096137956 -0.004136168 0.25107175 0.09689412 -0.0013205432 -0.072879605 0.14756125 0.06428556 0.112529635 0.10294767 0.045005184 0.44923937 -0.12249755 0.124373995 0.13612631 -0.24363022 -0.041974843 -0.072423264 0.016805071 -0.24482565 0.20504689 0.0958533 0.23946442 -0.20744616 0.20671098 0.023734806 0.09062812 -0.22512257 -0.073864475 0.020086462 0.15640393 -0.13661164 0.02959447 0.12447602 0.020427505 -0.03781531 0.17346027 -0.066769615 -0.07063304 -0.1999916 0.06730872 0.3080779 -0.047097296 0.07898687 -0.22680528 -0.1033514 -0.16767265 -0.19257574 -0.03374227 -0.28114966 0.14563085 0.23443554 -0.09255598 -0.09142374 0.14189786 -0.012061051 0.12180116 0.13922872 -0.10542696 0.15703964 -0.13940012 -0.03434616 -0.010448192 0.059451472 0.028748931 -0.20111923 0.17193896 -0.10275228 -0.14396738 -0.24638468 0.1545957 0.22380346 0.054340508 0.058405567 0.25422612 0.16995214 -0.066137165 0.35410315 -0.08603124 0.052598868 -0.02695674 0.14800876 -0.07677054 0.017963236 0.052473277 0.10555734 -0.1385692 0.22947419 -0.16133371 -0.0410766 0.053068757 -0.24485509 0.15644808 -0.07155902 -0.19908732 0.17679016 -0.15152018 0.12283225 0.062084895 0.051397026 0.1682646 -0.16162273 0.3871921 -0.14006722 0.07898438 0.1998037 -0.0048593455 0.19066234 -0.17895883 0.05742288 -0.10366542 0.0535078 0.20098643 0.011273919 -0.006584263 0.12999399 -0.09942487 -0.0031485455 0.05511994 0.08201441 0.06398538 -0.1964001 0.049594704 0.13288428 0.17650373 0.18192331 0.017852183 -0.15211497 -0.014697394 -0.2041639 -0.34654891 -0.054373883 -0.033278845 0.22433765 0.17016041 0.17289928 0.084499 -0.04269374 0.1375859 -0.10592576 0.045351967 0.29382518 -0.26419884 0.33083943 -0.11707283 -0.0743507 -0.14296609 0.19783345 -0.23835947 0.33033094 -0.008744937 0.15769152 -0.0831663 -0.19100393 -0.2483587 0.29379594 -0.020551044 0.09301165 -0.054374523 -0.25914872 0.13857643 0.36496302 -0.27981174 -0.012885555 0.10910128 -0.39048606 -0.22620675 -0.07708642 -0.19018188 -0.052838102 -0.13118522 0.06951204 0.17303668 0.14762741 0.019644327 0.16353175 0.107919574 -0.19850826 0.21359262 0.114530735 -0.22145832 -0.02234262 -0.037333757 -0.22819808 0.006930641 -0.11308484 0.11537278 0.13791914 -0.19194476 0.021240678 -0.10165063 0.1267537 0.23973474 -0.21315636 0.19708245 0.15289265 0.04866756 -0.18938303 0.06751434 -0.301686 0.26998603 -0.2844665 -0.13635623 -0.08863194 -0.21207114 -0.22283165 0.06696144 -0.15397751 0.2964675 -0.02614724 0.06488308 0.0704557 -0.15627888 -0.118394665 0.21512905 -0.0810817 -0.41732782 -0.034117177 0.30231118 0.023333702 0.10242659 0.32658058 -0.18582937 -0.03309807 0.20222007 0.2039075 -0.016577449 0.17904353 -0.26081124 0.09111929
视频 -0.12356805 -0.01959368 -0.095828764 -0.15560338 -0.013701195 -0.13818689 -0.12500577 0.12791944 -0.0026665654 0.08254812 -0.020163272 0.108791694 -0.026349032 0.16603169 -0.2229221 0.015317962 0.044669595 0.04392999 0.07161673 -0.12810248 0.17496443 0.11302103 0.01935731 -0.27942225 -0.12941885 -0.10827903 -0.31184334 -0.080760755 0.031983435 -0.068098016 0.01861628 0.07840786 0.1340975 -0.26616803 0.02519393 -0.070996694 -0.29020116 -0.1304875 -0.10712153 0.083399944 0.1543222 -0.18098608 -0.110239096 -0.058821093 -0.257433 -0.06294729 -0.27349448 0.072350375 -0.061211284 0.025717448 0.013290388 0.03165665 -0.24754225 -0.057464488 0.0525152 0.062079873 0.121620156 -0.28932947 0.12107144 0.08038599 -0.28981745 0.1625511 0.018915284 0.069926344 -0.00024492393 -0.046771206 0.060130246 0.19534838 -0.04789377 -0.1751222 -0.08563865 -0.0075035673 0.23286788 0.09121828 0.0026174237 -0.06568595 0.13337511 0.057617746 0.10706136 0.09604007 0.049177174 0.418102 -0.11163367 0.11710595 0.12805897 -0.22548258 -0.038561996 -0.06598753 0.01754901 -0.2275933 0.19174676 0.092681736 0.22529079 -0.19240326 0.18892008 0.02424205 0.0848377 -0.2130535 -0.06754777 0.021385046 0.14441048 -0.13247772 0.02933536 0.1131407 0.012651444 -0.035558395 0.16701344 -0.06272012 -0.06101071 -0.18473978 0.060730677 0.28703207 -0.040461667 0.07184172 -0.2119815 -0.09308237 -0.15730862 -0.18133022 -0.027154356 -0.26454264 0.1375382 0.22072926 -0.08314436 -0.08491048 0.13102412 -0.0114803035 0.11789034 0.13084587 -0.096994996 0.14845966 -0.12787007 -0.03096468 -0.013003747 0.056719292 0.021566087 -0.18434887 0.16404659 -0.097043745 -0.13361868 -0.22268705 0.1400716 0.20958199 0.051269602 0.05756701 0.23201434 0.15428206 -0.06398403 0.32830465 -0.08554454 0.04803452 -0.026936345 0.13719137 -0.074030705 0.017671373 0.051716354 0.10288124 -0.12380041 0.21305463 -0.14637816 -0.036181673 0.04455502 -0.22898696 0.14626619 -0.064022444 -0.18762979 0.16957732 -0.14093375 0.11914311 0.058252376 0.046311654 0.15221104 -0.14871825 0.3586265 -0.1317735 0.07155661 0.18474725 -0.0039376817 0.17644066 -0.16464654 0.054513093 -0.09790018 0.05000699 0.18749271 0.018257348 -0.0035435178 0.124131724 -0.09389881 -0.001859038 0.05024098 0.07580373 0.059350103 -0.18144631 0.04493304 0.12662737 0.1663917 0.17136778 0.016121635 -0.14390951 -0.013759899 -0.18885238 -0.31598222 -0.052599184 -0.026267117 0.21075785 0.15968712 0.15956305 0.07712771 -0.040873837 0.12776262 -0.097417444 0.043809988 0.2750201 -0.24573064 0.3081309 -0.10979253 -0.06647944 -0.1331055 0.18102057 -0.21990687 0.30822968 -0.010703832 0.14307016 -0.075972505 -0.17548184 -0.22982252 0.27277094 -0.021105636 0.08148936 -0.050454006 -0.23783733 0.12669703 0.33506054 -0.2580785 -0.013421593 0.10415209 -0.36371943 -0.21402852 -0.07190173 -0.1748049 -0.050941303 -0.12193315 0.062753774 0.15877537 0.14064714 0.02253773 0.1491228 0.10081345 -0.18588081 0.19780536 0.10442301 -0.20300686 -0.018529627 -0.033853333 -0.21537991 0.0035767052 -0.10605878 0.11039238 0.12341872 -0.18284354 0.013676033 -0.093475044 0.11898936 0.21697092 -0.19577648 0.1872962 0.14078552 0.03940057 -0.1785446 0.061222944 -0.27723533 0.25071058 -0.27182156 -0.124355495 -0.08360397 -0.19474591 -0.20673852 0.06176796 -0.1421863 0.27218616 -0.026475135 0.0591595 0.061744947 -0.14794908 -0.112240165 0.20083247 -0.07272389 -0.38873914 -0.035017263 0.28126833 0.02351978 0.09101039 0.30485672 -0.17455615 -0.031542554 0.18686599 0.19039577 -0.016957374 0.17021693 -0.23872428 0.08418332
戒指 -0.12095036 -0.018233156 -0.101131134 -0.15657906 -0.012971957 -0.14212118 -0.12647896 0.13062556 0.0028878883 0.07956761 -0.01971494 0.105671585 -0.02381318 0.1653168 -0.22396047 0.016883716 0.043983635 0.045001168 0.07350895 -0.12484866 0.17798881 0.112180635 0.019119315 -0.27834168 -0.12943995 -0.1034695 -0.30996355 -0.08593816 0.030459272 -0.06439129 0.01676886 0.07474749 0.1283722 -0.26511082 0.027734732 -0.07029063 -0.29376674 -0.13269709 -0.107914016 0.08959943 0.1547364 -0.18451539 -0.10441645 -0.056546357 -0.25870794 -0.06293694 -0.27449578 0.07446473 -0.058190882 0.026138095 0.013176538 0.033120386 -0.250085 -0.057404637 0.052530132 0.065456465 0.11741221 -0.28798348 0.118763134 0.08321529 -0.2869987 0.1631039 0.018208636 0.071198575 -0.0026029323 -0.049655728 0.06249982 0.18913497 -0.048576042 -0.17408168 -0.09005848 -0.0026545215 0.23202927 0.089838944 0.0007079192 -0.064719744 0.13462277 0.057514932 0.10502321 0.09551137 0.044998385 0.41470623 -0.114907876 0.11451015 0.12695508 -0.22212584 -0.035238918 -0.06903018 0.018568797 -0.22665654 0.18884347 0.08985305 0.22114968 -0.19466951 0.19301851 0.021215279 0.08527576 -0.20613655 -0.065996714 0.0236239 0.14454122 -0.12793016 0.026161032 0.11331077 0.015780034 -0.03471545 0.15906104 -0.06655149 -0.06229387 -0.18502681 0.0569299 0.2870847 -0.04321616 0.07526824 -0.20861642 -0.0926932 -0.1552862 -0.17422159 -0.03037196 -0.2626296 0.13616884 0.21529436 -0.08547078 -0.08663291 0.13198774 -0.01268393 0.11122064 0.12944496 -0.095686495 0.1446345 -0.12890503 -0.035928704 -0.013330748 0.056670748 0.022224614 -0.18461128 0.16041198 -0.09403874 -0.13284452 -0.22721806 0.14336836 0.20968658 0.04821894 0.054506782 0.23462208 0.15600795 -0.06167904 0.3254121 -0.07893282 0.049753945 -0.029308664 0.13549721 -0.070628546 0.016030706 0.05122728 0.096633755 -0.12547885 0.21047215 -0.14892617 -0.03593713 0.049877223 -0.2307475 0.1469669 -0.064201 -0.18478794 0.16395111 -0.13999957 0.11903932 0.05829209 0.04192329 0.15468945 -0.15156186 0.35893363 -0.12575282 0.07282224 0.1844646 -0.0018821326 0.17414327 -0.16636363 0.053661205 -0.09611613 0.044063006 0.18426774 0.009324145 -0.004347342 0.11999828 -0.09297016 -0.0046405946 0.05031149 0.07200839 0.05958208 -0.18304256 0.043693803 0.12565869 0.16208827 0.16567014 0.017448822 -0.14222166 -0.010392459 -0.18769294 -0.31994018 -0.047272317 -0.03155617 0.21108603 0.15911649 0.15911162 0.07991844 -0.040309694 0.12699866 -0.10037009 0.040597443 0.27142832 -0.24045563 0.30307385 -0.10994096 -0.065717235 -0.13315219 0.17870428 -0.21766652 0.30606985 -0.007637901 0.14290927 -0.07675408 -0.17873658 -0.22676733 0.27123845 -0.020691779 0.08584116 -0.049158227 -0.24208176 0.12897553 0.34006444 -0.25345594 -0.012798531 0.098704495 -0.36068457 -0.20714715 -0.07174163 -0.1759133 -0.04695094 -0.12104945 0.06435496 0.16228417 0.13661478 0.018590907 0.15077205 0.10050888 -0.18418022 0.19595863 0.1085937 -0.20325284 -0.01639337 -0.03208208 -0.21097997 0.0029279843 -0.0999908 0.10155274 0.12906551 -0.1759509 0.018377472 -0.09531411 0.11771205 0.22097431 -0.1940891 0.184078 0.14442573 0.0382879 -0.18046586 0.057501797 -0.2803257 0.25130144 -0.26577628 -0.1233783 -0.08360366 -0.19390117 -0.20573895 0.064723566 -0.14240867 0.27196378 -0.028511593 0.056976944 0.061808184 -0.14625989 -0.1075049 0.1977378 -0.07434444 -0.38955295 -0.030855896 0.27675432 0.024612935 0.09552215 0.30233473 -0.17321602 -0.029375575 0.18746604 0.18973511 -0.017405044 0.16657312 -0.2406432 0.082884654
瘦 -0.09126131 -0.012303259 -0.0742446 -0.11434018 -0.013223852 -0.10349938 -0.089915 0.094419494 0.0017257135 0.05826621 -0.015603756 0.07838152 -0.016055597 0.120868124 -0.16443175 0.015466491 0.032226175 0.035665207 0.050504662 -0.09247296 0.12806162 0.08134882 0.012061117 -0.20465326 -0.09745966 -0.07784072 -0.22490646 -0.064015955 0.021982726 -0.045171693 0.010086908 0.056569327 0.097069666 -0.19524668 0.018831484 -0.050846957 -0.2138684 -0.09822516 -0.07891885 0.064397156 0.11383524 -0.13013926 -0.08074709 -0.04397564 -0.18917932 -0.044923484 -0.20324767 0.054081917 -0.043116875 0.016181972 0.0058903727 0.025467383 -0.18000394 -0.041375373 0.034861967 0.04913415 0.08914427 -0.2127121 0.09045169 0.06128703 -0.21363753 0.12229995 0.018192532 0.053952914 -0.002534312 -0.033934027 0.046580825 0.14315248 -0.037215114 -0.12936758 -0.064709775 -7.592028e-05 0.1710472 0.062863536 -0.00048150728 -0.050420932 0.09931016 0.045733213 0.07551577 0.0683818 0.03176704 0.30643436 -0.08145334 0.0854314 0.09102185 -0.16867575 -0.027124606 -0.04829003 0.011366439 -0.16452219 0.13755347 0.061831154 0.16271415 -0.14210327 0.1386399 0.017102879 0.06239419 -0.1545434 -0.04794693 0.013853372 0.10568261 -0.09273086 0.022093488 0.08293891 0.011955827 -0.02386019 0.12001361 -0.04515225 -0.045599807 -0.13798277 0.042193163 0.21201938 -0.030789457 0.050804526 -0.15244886 -0.06717759 -0.11234571 -0.13236426 -0.02426521 -0.19334432 0.09718115 0.160242 -0.061582398 -0.061174333 0.09796081 -0.006494752 0.084740706 0.09470622 -0.072199166 0.10935884 -0.095437616 -0.021987962 -0.010392902 0.03996131 0.018458713 -0.13790905 0.11510711 -0.06748704 -0.09838068 -0.16376433 0.103161156 0.15113519 0.03804947 0.041477926 0.17007348 0.116538785 -0.043761585 0.24032117 -0.058341973 0.034310922 -0.016917434 0.10165653 -0.054397557 0.0086815795 0.034733757 0.073325634 -0.09463835 0.15636553 -0.10738572 -0.024978293 0.033572838 -0.1684432 0.10476847 -0.049624603 -0.13591187 0.120563 -0.10111013 0.08332451 0.04401163 0.03134871 0.11455698 -0.11181863 0.262888 -0.09479107 0.05560105 0.13296735 -0.004182838 0.12953554 -0.12320869 0.037106205 -0.07004617 0.03727818 0.13324597 0.006821705 -0.0018754143 0.08689889 -0.071239196 0.0014151881 0.039129853 0.052551553 0.041219473 -0.13313173 0.0315987 0.08949767 0.11902788 0.12513672 0.01298598 -0.10743156 -0.012282003 -0.13879104 -0.23593412 -0.036538 -0.021100134 0.15412964 0.11731386 0.1207327 0.057414003 -0.028732685 0.093464896 -0.07192856 0.03025067 0.19709526 -0.17752992 0.22181404 -0.08011583 -0.050673194 -0.09642959 0.13169347 -0.16268142 0.22297795 -0.004656179 0.104566395 -0.054822445 -0.12771702 -0.16810007 0.20094661 -0.012756204 0.06196753 -0.041987564 -0.17727844 0.09662564 0.24830525 -0.18854302 -0.0111315325 0.07618907 -0.26561147 -0.15481956 -0.051139142 -0.1330437 -0.037767198 -0.08806444 0.0434901 0.11499228 0.10033094 0.014760796 0.11134488 0.07584447 -0.13698748 0.14335492 0.07538127 -0.14890172 -0.015103532 -0.025879052 -0.15538524 0.0047448766 -0.07335667 0.07640426 0.092238694 -0.13099714 0.014812455 -0.06647038 0.087118685 0.16323467 -0.14607364 0.13716866 0.1054362 0.03187091 -0.1281247 0.044354387 -0.20305963 0.18317512 -0.19471955 -0.0934229 -0.061298124 -0.14031173 -0.15228158 0.046635836 -0.104809776 0.20007168 -0.021326138 0.04325032 0.046062056 -0.10976421 -0.08143791 0.14267853 -0.054601025 -0.28524223 -0.024589127 0.20513915 0.019109951 0.070442505 0.22226797 -0.12640195 -0.022065995 0.1380982 0.1404476 -0.01316894 0.121453375 -0.17555699 0.061254248
求翻 -0.07354704 -0.011757004 -0.056916866 -0.087086 -0.009822184 -0.07650349 -0.06794577 0.07267303 -0.0061478917 0.043522052 -0.013907638 0.059040003 -0.018061645 0.08683301 -0.12622069 0.007764939 0.022939032 0.020287804 0.039296154 -0.077973194 0.10212611 0.059452087 0.013026709 -0.16230482 -0.08006396 -0.058048543 -0.1767036 -0.056252155 0.014744938 -0.03701872 0.006360127 0.046139948 0.075075716 -0.15176907 0.014322875 -0.038623374 -0.16644113 -0.0767923 -0.06062819 0.051638316 0.088537395 -0.1022086 -0.06421221 -0.03746964 -0.15029164 -0.036440305 -0.15749592 0.04098868 -0.03639461 0.013444563 0.008058027 0.017480968 -0.14373276 -0.034066916 0.032114245 0.029627636 0.072033145 -0.16850957 0.06983292 0.050789237 -0.16545548 0.093622245 0.013505853 0.037925314 0.00092115585 -0.0227151 0.038897343 0.11177278 -0.032335054 -0.09910552 -0.04961259 -0.005349211 0.13613968 0.05002779 -0.0057244883 -0.039603706 0.075281136 0.03479219 0.058162242 0.05488019 0.02189944 0.23329103 -0.065133706 0.062792145 0.07764188 -0.13334046 -0.020116149 -0.040581368 0.009882027 -0.1225387 0.11027173 0.050666783 0.124742314 -0.11341823 0.11146376 0.0075128092 0.04756231 -0.11687051 -0.03804967 0.011550611 0.08162401 -0.07623229 0.019550495 0.06382634 0.016521342 -0.019409614 0.09575153 -0.032314263 -0.040087774 -0.10816016 0.035438716 0.16200513 -0.024286304 0.04324869 -0.119200006 -0.053158656 -0.092986226 -0.10401157 -0.017750295 -0.15009288 0.0760711 0.117010854 -0.044780567 -0.04444941 0.075006776 -0.0040063267 0.06200716 0.07868869 -0.060439117 0.08468784 -0.07228329 -0.017600752 -0.0057921926 0.03518168 0.016411707 -0.10665674 0.09334629 -0.053081434 -0.07330463 -0.13010597 0.085810184 0.12314955 0.029704452 0.034466963 0.13300857 0.09367489 -0.038674608 0.19229656 -0.04782993 0.025383662 -0.01131006 0.078089386 -0.04313551 0.012610005 0.031138685 0.055452593 -0.06967014 0.12486811 -0.089769594 -0.026001213 0.027859207 -0.12448437 0.08052508 -0.035558086 -0.10592436 0.09644178 -0.07908233 0.06721495 0.035068143 0.024340536 0.08870155 -0.0858567 0.19773377 -0.06943548 0.036329202 0.10635112 -0.002309055 0.09658752 -0.09625507 0.033961985 -0.05619555 0.02293434 0.106512584 0.008995601 -0.0017338998 0.066015214 -0.05706932 -0.0014758062 0.021750268 0.04067157 0.031627372 -0.111123204 0.026916904 0.06557943 0.09864217 0.09362074 0.0090844305 -0.08069933 -0.0048146844 -0.11044516 -0.18217643 -0.029121296 -0.016392328 0.11779758 0.08922181 0.09317727 0.03864276 -0.017208725 0.074053004 -0.061400663 0.019563366 0.15659758 -0.13705008 0.17647754 -0.06695317 -0.038193334 -0.0757498 0.106758244 -0.13014098 0.17474815 -0.0059268586 0.07981523 -0.046795 -0.10007377 -0.12964731 0.15695284 -0.010643721 0.0497273 -0.031150892 -0.13273819 0.07310329 0.1981885 -0.14927375 -0.009358743 0.060123406 -0.20308073 -0.117039956 -0.043732345 -0.105150215 -0.03447406 -0.0695877 0.040213652 0.08983373 0.08029887 0.0144468155 0.08570692 0.058500975 -0.11494471 0.11256426 0.06413654 -0.121588655 -0.005706646 -0.0123938555 -0.12543489 0.00027319728 -0.059710607 0.061060917 0.07552163 -0.10458854 0.012034071 -0.056807254 0.07030235 0.12839396 -0.11562893 0.103867784 0.08333603 0.026347589 -0.10570592 0.037844587 -0.15935723 0.14243796 -0.14875907 -0.074103564 -0.048835304 -0.11390085 -0.12200896 0.03523115 -0.08105375 0.1581185 -0.01715321 0.03953155 0.03529035 -0.081328 -0.063128896 0.11283583 -0.046314783 -0.22240666 -0.017488254 0.15711641 0.013964933 0.05790557 0.17766237 -0.09993263 -0.017175807 0.110624224 0.104132056 -0.0121135125 0.098252036 -0.14147928 0.048836403
完 -0.0940841 -0.019393608 -0.07828694 -0.120735385 -0.011825945 -0.1083217 -0.096787706 0.1024377 -0.0012630852 0.06706639 -0.017740792 0.08421024 -0.020772833 0.13333227 -0.17275763 0.009581126 0.035425466 0.03206564 0.05470694 -0.1024695 0.14144167 0.09227192 0.013811098 -0.21853696 -0.0985782 -0.08241998 -0.2442472 -0.059606846 0.027523512 -0.055107333 0.01630734 0.059355773 0.10762662 -0.21192224 0.020206064 -0.055497248 -0.22824791 -0.100531794 -0.088298 0.06363126 0.12150976 -0.14541028 -0.08869976 -0.04503771 -0.203658 -0.053329498 -0.21592897 0.06048792 -0.046819825 0.019133134 0.012814433 0.02413373 -0.19454691 -0.04464184 0.045294274 0.049458053 0.09618043 -0.23044442 0.09468799 0.06138874 -0.22582938 0.13235256 0.0127664115 0.051642932 0.0031210394 -0.037796248 0.045545053 0.15096621 -0.038979538 -0.14075556 -0.068359956 -0.0085087875 0.18452306 0.07157668 0.005354922 -0.052245893 0.104637824 0.042010188 0.08450494 0.0775389 0.041869674 0.33216852 -0.086507425 0.09218184 0.096529655 -0.17914468 -0.03355108 -0.051111564 0.015382584 -0.18097635 0.15347512 0.073777124 0.18136248 -0.14951624 0.14753965 0.021534542 0.065075435 -0.16906697 -0.05512998 0.017427353 0.11668624 -0.105764575 0.024865622 0.09022515 0.008186651 -0.028038476 0.13251093 -0.051266413 -0.047569185 -0.1427552 0.047865648 0.23090254 -0.033261675 0.061203606 -0.17072943 -0.07168014 -0.12606242 -0.1412197 -0.019848755 -0.20871681 0.108140446 0.1759838 -0.064668804 -0.06740647 0.100693405 -0.01083274 0.09489442 0.106422946 -0.07621761 0.11769893 -0.09940073 -0.02914994 -0.0102677755 0.044217706 0.01265043 -0.14375727 0.13118969 -0.07511074 -0.105991654 -0.17639065 0.10813076 0.16303769 0.04336121 0.0446158 0.18132359 0.122216664 -0.050811753 0.26114535 -0.06961538 0.03591106 -0.017870808 0.11243938 -0.057765663 0.017985234 0.04238552 0.078148626 -0.09687207 0.16806887 -0.11475688 -0.02907971 0.03329876 -0.17989668 0.11749501 -0.05002058 -0.14486821 0.13319814 -0.11067099 0.09451473 0.04805257 0.03547696 0.12201948 -0.11731766 0.28651413 -0.104602315 0.058456715 0.1464783 -0.00535243 0.13576698 -0.12951192 0.042988405 -0.07451727 0.043212224 0.14692928 0.0171378 -0.0044407127 0.09881152 -0.07441445 -0.0017494695 0.041446142 0.061210964 0.04722615 -0.13909836 0.03646321 0.1008928 0.1339021 0.13705046 0.010947899 -0.11536253 -0.012415265 -0.14980339 -0.24993601 -0.038511336 -0.021445232 0.16886196 0.123915814 0.12445398 0.057883594 -0.033356514 0.09994102 -0.074194126 0.033408426 0.214754 -0.19224474 0.2441511 -0.08877184 -0.047752075 -0.10682315 0.13906884 -0.17566854 0.24390614 -0.007031543 0.11350379 -0.06406004 -0.14117308 -0.18142125 0.21574406 -0.016968956 0.063341126 -0.039710436 -0.19197536 0.097045876 0.26577967 -0.2050732 -0.0081585385 0.0829361 -0.28774086 -0.16911 -0.053949088 -0.13678059 -0.04368384 -0.09531211 0.0504131 0.12584387 0.11185636 0.017828798 0.11763427 0.07500708 -0.14257625 0.158415 0.081915855 -0.15959477 -0.015437106 -0.028740225 -0.17200771 0.0001167122 -0.0810525 0.088380225 0.09909778 -0.14287362 0.008712768 -0.074750856 0.09284672 0.17409025 -0.15415996 0.14930026 0.111802824 0.03100429 -0.14292185 0.048920006 -0.22171916 0.1996881 -0.21608636 -0.09995329 -0.0687119 -0.14983797 -0.16049638 0.045136742 -0.1124477 0.21124265 -0.020431496 0.04419763 0.047995348 -0.11494668 -0.089377046 0.15761559 -0.05945442 -0.30724084 -0.02688907 0.22474614 0.020850495 0.070751876 0.24113192 -0.1366298 -0.027487813 0.14687368 0.15017472 -0.013348881 0.13709445 -0.19133705 0.071068116
泪奔 -0.08248685 -0.01884694 -0.07254556 -0.11420758 -0.010620137 -0.10099282 -0.08260024 0.09148473 -0.0014186358 0.060351465 -0.02114008 0.07594003 -0.019269606 0.11249005 -0.15783776 0.014946838 0.034660645 0.024802908 0.05500792 -0.09211987 0.1256515 0.07749636 0.016417561 -0.19719088 -0.094343655 -0.07334772 -0.21770369 -0.06284318 0.019010706 -0.045388583 0.0063872 0.05301123 0.084963486 -0.18546478 0.013646024 -0.049488477 -0.2085023 -0.09366695 -0.08119974 0.06284047 0.1106083 -0.1327394 -0.07826032 -0.037555777 -0.1865448 -0.041233063 -0.19708282 0.047074012 -0.0452811 0.013238257 0.014139406 0.018357057 -0.17671432 -0.039949104 0.033780918 0.050879285 0.08342244 -0.20425163 0.09000987 0.062297408 -0.20771036 0.11328004 0.014195488 0.049728792 -0.0045159524 -0.034990806 0.041312817 0.13486885 -0.0337865 -0.12745157 -0.06848075 0.00013202471 0.16150966 0.06910595 -0.0034343004 -0.04755308 0.09310868 0.039275683 0.08009442 0.07007334 0.03078056 0.29548585 -0.07777542 0.08147819 0.08896689 -0.15915303 -0.030854076 -0.048449725 0.014064757 -0.16545732 0.13847193 0.064928204 0.15502205 -0.13652185 0.13007697 0.019359976 0.055420484 -0.14510259 -0.044354897 0.019032065 0.101762705 -0.09544462 0.014951244 0.07858175 0.008401228 -0.021702833 0.110463895 -0.04780937 -0.043532748 -0.13307025 0.0374574 0.19609036 -0.034537558 0.053051762 -0.14642319 -0.06720996 -0.10658366 -0.12788004 -0.027036414 -0.18965179 0.09612537 0.15286507 -0.05561274 -0.06398987 0.089636765 -0.009331933 0.08605446 0.09099082 -0.07078583 0.10944028 -0.08895935 -0.025993925 -0.007306073 0.04531132 0.011859765 -0.12973954 0.11477571 -0.06371285 -0.093357906 -0.15696388 0.10033711 0.15315637 0.034858577 0.03671102 0.1662374 0.10545875 -0.047155466 0.23584302 -0.057588845 0.036929194 -0.023737388 0.100014016 -0.050303698 0.012487314 0.03863971 0.06750204 -0.084521644 0.15075172 -0.109427154 -0.021803232 0.037101503 -0.16169295 0.10492989 -0.045488294 -0.12542418 0.12186785 -0.10051869 0.08773901 0.04269051 0.027058434 0.110018544 -0.10203416 0.25212708 -0.093353555 0.055608407 0.12870461 0.000527072 0.124477305 -0.116706364 0.03810605 -0.073471 0.03367578 0.13065195 0.010579528 -0.0016171774 0.083046794 -0.06145138 -0.0071958387 0.036973067 0.054267175 0.0370619 -0.13140297 0.027753731 0.088031255 0.116050124 0.11629935 0.016753789 -0.09960057 -0.0030214638 -0.13555862 -0.22069192 -0.036882427 -0.020623878 0.14725576 0.11510477 0.11349687 0.061606534 -0.022803986 0.08979504 -0.06716148 0.029685847 0.19478016 -0.17765662 0.22050087 -0.07276808 -0.052202825 -0.09040911 0.13072047 -0.15908317 0.21998566 -0.008555637 0.09922769 -0.05451947 -0.12457993 -0.15946552 0.19422361 -0.014541191 0.059244934 -0.038816325 -0.16486284 0.0907776 0.23754746 -0.18631501 -0.0066161184 0.069740824 -0.25649336 -0.15205783 -0.053869847 -0.12503295 -0.033504315 -0.091306396 0.039147522 0.1186338 0.10282339 0.01070528 0.11007511 0.07278285 -0.13024223 0.14114761 0.076921344 -0.14574172 -0.00707875 -0.023410223 -0.15444045 -0.0016916321 -0.07586753 0.07068894 0.0945243 -0.12949538 0.010359919 -0.062470462 0.079070225 0.15544409 -0.13587041 0.12687925 0.10151842 0.029127585 -0.12850611 0.038470834 -0.19702494 0.17279322 -0.19245653 -0.0911446 -0.05390102 -0.13411419 -0.15013786 0.04039379 -0.098793894 0.19802359 -0.018294409 0.04488202 0.042407915 -0.1061147 -0.07584453 0.14571826 -0.04830906 -0.27660525 -0.018048998 0.20037633 0.011910563 0.06443897 0.21385135 -0.12519561 -0.027077645 0.13795318 0.14004037 -0.013525749 0.121518046 -0.16839679 0.061209816
看看 -0.08894361 -0.015049845 -0.07000538 -0.1099547 -0.00903128 -0.096385725 -0.088167764 0.09612434 -0.0021584812 0.054468814 -0.010316405 0.072652645 -0.015151017 0.11329864 -0.1534678 0.0105820885 0.027869817 0.0317259 0.053662635 -0.09198534 0.12576783 0.081116386 0.015760045 -0.1958897 -0.09264636 -0.076622054 -0.21618183 -0.061803624 0.02405739 -0.04829257 0.0066557657 0.055524826 0.09536741 -0.18887542 0.017467521 -0.051522233 -0.21022734 -0.09589176 -0.080608904 0.06384598 0.10765833 -0.12941727 -0.07928818 -0.044486027 -0.1785249 -0.04551739 -0.19384639 0.054989822 -0.040764634 0.02022032 0.008472833 0.021408938 -0.17456198 -0.04007826 0.038069274 0.043786548 0.086973816 -0.21081233 0.08389428 0.059318956 -0.20604858 0.11625208 0.016270569 0.050737973 -0.0006645536 -0.035620105 0.046032954 0.13546146 -0.03832731 -0.12776512 -0.06514329 -0.003750817 0.1613721 0.065790206 0.0011923301 -0.043138213 0.097438864 0.038784593 0.07836141 0.069695584 0.03413196 0.29420844 -0.081793554 0.08194133 0.08975012 -0.15929444 -0.023449605 -0.047908425 0.011550358 -0.15864538 0.13173358 0.06803366 0.15494816 -0.13545269 0.13712978 0.018964903 0.06208675 -0.14398374 -0.047930144 0.011986796 0.10620611 -0.088524856 0.020576147 0.07802654 0.008533054 -0.02434889 0.117627636 -0.045115136 -0.04732812 -0.13501668 0.040578797 0.20684004 -0.030495033 0.04688952 -0.14521638 -0.06994763 -0.1106409 -0.12554531 -0.018276937 -0.18323536 0.09496735 0.15411185 -0.06005094 -0.056355853 0.0960306 -0.00836496 0.08458621 0.096862696 -0.06577805 0.103090495 -0.09197895 -0.020724714 -0.009324828 0.037969936 0.01627294 -0.12983146 0.1137633 -0.06442206 -0.097417004 -0.16131525 0.09616398 0.1439029 0.032924715 0.03873091 0.16504496 0.11232932 -0.04379856 0.2322884 -0.060130127 0.031216446 -0.019806195 0.096766196 -0.05087779 0.009904867 0.036097437 0.067899905 -0.090029255 0.1473384 -0.10530065 -0.028419245 0.034754176 -0.1646814 0.09976061 -0.044513796 -0.13165735 0.11926688 -0.10084525 0.07982021 0.040371194 0.028519671 0.10963509 -0.102659374 0.24955745 -0.09134539 0.047314722 0.12848197 -0.003823295 0.12236751 -0.11399172 0.038405854 -0.06921754 0.0378038 0.13423543 0.008263874 -0.0035431616 0.08637001 -0.069586605 -0.00047208768 0.03408619 0.0477205 0.03966912 -0.13169299 0.033089228 0.089988954 0.11495041 0.119392194 0.014188576 -0.098006904 -0.0076616523 -0.1328438 -0.22822696 -0.035110366 -0.021578012 0.14551502 0.116299935 0.11636817 0.057757102 -0.030085417 0.0893949 -0.0652128 0.0316559 0.19175641 -0.17075677 0.21383755 -0.075597316 -0.050363947 -0.09690002 0.13168868 -0.15804206 0.21657151 -0.0017976557 0.104933955 -0.05433091 -0.126678 -0.16462126 0.18957075 -0.010352483 0.059260312 -0.03630634 -0.16745017 0.09237969 0.24178524 -0.17960687 -0.009930271 0.07167361 -0.25829592 -0.14690815 -0.05254557 -0.12433364 -0.032916173 -0.08265308 0.04689686 0.114802286 0.095405556 0.014087014 0.10335397 0.06989548 -0.13041663 0.13914146 0.07594908 -0.14268208 -0.011120528 -0.025265332 -0.15045518 0.002377579 -0.071632445 0.07766824 0.08509579 -0.1263083 0.010332887 -0.06946386 0.08514146 0.15668014 -0.14053105 0.12941553 0.09679898 0.02698992 -0.12706585 0.04358524 -0.1968802 0.17396076 -0.18881823 -0.09153212 -0.058406092 -0.14074938 -0.14779074 0.041467663 -0.100218706 0.19277863 -0.01758897 0.037098 0.045877688 -0.10234691 -0.07975261 0.14036125 -0.050703373 -0.27831733 -0.019653205 0.19679973 0.018758548 0.06528163 0.2116003 -0.12633309 -0.02301759 0.12996776 0.13143335 -0.012686234 0.12210081 -0.17091787 0.055711348
流泪 -0.06570741 0.006840923 -0.08710496 -0.10216082 -0.017199524 -0.06844844 -0.04720444 0.05195873 -0.009335927 0.05329343 0.006476409 0.08634274 -0.0119699715 0.081960574 -0.106011644 0.0136098815 0.03716888 -0.009290159 0.035512116 -0.09362925 0.09347366 0.03477512 -0.010576708 -0.17314768 -0.09667975 -0.04893403 -0.17301975 -0.07585571 0.03728934 -0.032701947 0.033505663 0.043206196 0.10823536 -0.1684861 0.02094002 -0.07074246 -0.15109473 -0.103724174 -0.07116871 0.048227955 0.10978045 -0.09923265 -0.0927063 -0.0031672034 -0.17048506 -0.038486682 -0.18103948 0.055308904 -0.05477292 0.053196438 0.013057815 0.0020288867 -0.12472731 -0.03317941 0.022058079 0.034573473 0.06786006 -0.20021509 0.07846888 0.031415116 -0.17439736 0.12261556 0.015200303 0.019989679 -0.007937084 0.004899869 0.04430667 0.11480907 -0.026800985 -0.11976957 -0.040361386 -0.021373758 0.16353641 0.04934096 -0.026976155 -0.017247628 0.054304406 0.005634056 0.076821834 0.0437558 0.017053725 0.23683345 -0.037003525 0.07457394 0.0967937 -0.14292192 0.0020333051 -0.05376576 0.027831852 -0.1472272 0.12522349 0.078711115 0.14479516 -0.09602685 0.10817952 0.031963807 0.063779324 -0.1504301 -0.023747891 0.007885362 0.083602615 -0.09232142 0.0068258564 0.060389537 0.028727043 -0.024969665 0.085049555 -0.0053125164 -0.02124779 -0.119670875 0.01584985 0.19099921 -0.051326253 0.026249385 -0.09449649 -0.025428811 -0.106732115 -0.13891982 -0.016845595 -0.18100695 0.07531007 0.09001193 -0.03613717 -0.044765025 0.05972298 -0.012903113 0.09080713 0.10365496 -0.07523911 0.105848216 -0.04357996 -0.035390243 -0.03721155 0.0322176 0.020004185 -0.083370276 0.08416124 -0.089843124 -0.07864991 -0.1542387 0.11215748 0.1441987 0.027050655 0.052838463 0.14546578 0.120873794 -0.03576895 0.22074673 -0.0639584 0.0026533213 0.008140398 0.104502946 -0.03887029 0.02498693 0.05925345 0.055460732 -0.037490755 0.1399979 -0.07066164 -0.04810253 0.054941013 -0.15489317 0.088120945 -0.035806604 -0.10240377 0.10428091 -0.09543673 0.07919708 0.025579998 0.032636635 0.071951106 -0.06661583 0.20302238 -0.0657592 0.025550915 0.085511625 -0.019537298 0.0684775 -0.10691967 0.047524743 -0.074426346 0.0024187714 0.10773555 0.036696523 0.014396451 0.09539947 -0.043341745 -0.014424541 0.02251778 0.017109955 0.059820015 -0.13097109 0.058702976 0.078297995 0.1293015 0.06585518 0.039783977 -0.072365396 0.021565454 -0.1371498 -0.20872122 -0.04736737 0.0130947335 0.09345383 0.09735192 0.12762928 0.03950509 0.017216956 0.07679375 -0.07810811 0.0012897239 0.17567863 -0.14088939 0.17173365 -0.05534401 -0.044591885 -0.07739731 0.109294504 -0.103641525 0.19220552 -0.02232976 0.047943965 -0.058368556 -0.11534863 -0.12175483 0.18473943 -0.031991232 0.041707784 -0.033323787 -0.13678151 0.085332 0.22336316 -0.15050761 0.0013753321 0.0848382 -0.23089725 -0.12563288 -0.054685026 -0.1014407 -0.05884505 -0.06135408 0.06812808 0.10406999 0.11342755 0.041001923 0.07830743 0.07138142 -0.1269594 0.11031485 0.0765063 -0.14319898 0.0048773894 -0.006008693 -0.15010534 -0.024373997 -0.05616251 0.07415196 0.05818513 -0.1431731 0.006933699 -0.048249036 0.06959607 0.12851632 -0.12891741 0.07975871 0.056089412 0.02840429 -0.10294789 0.06019073 -0.16906856 0.15884201 -0.12413993 -0.06611308 -0.046239004 -0.15237448 -0.109910764 0.0013032395 -0.087324984 0.13036808 0.0100715235 0.015164696 0.032377504 -0.08851035 -0.051352736 0.09883674 -0.053560197 -0.2144398 0.009032117 0.16308263 0.036491685 0.082363434 0.15446517 -0.1018146 -0.026645692 0.097473405 0.12577444 -0.021262327 0.089373946 -0.12585455 0.045666676
拍 -0.08400049 -0.014015892 -0.06447837 -0.10415531 -0.0073597566 -0.09288834 -0.083951876 0.08981337 -0.00015341208 0.055222444 -0.012969653 0.07434102 -0.020213224 0.113847256 -0.1494098 0.0077598356 0.028485183 0.030461991 0.046429932 -0.087094694 0.118144356 0.07866009 0.01431392 -0.1885187 -0.08594676 -0.0740479 -0.20746645 -0.05225865 0.020274235 -0.0468734 0.014170891 0.054173656 0.091275595 -0.17793302 0.014562567 -0.04824696 -0.19570565 -0.08775507 -0.07156023 0.05364231 0.10487014 -0.1245872 -0.07478492 -0.0429394 -0.17257972 -0.043453965 -0.18523274 0.050734397 -0.042603448 0.013540786 0.006698438 0.020956604 -0.1681981 -0.04210362 0.03540275 0.038785916 0.080552995 -0.1945189 0.0837728 0.051365294 -0.19683833 0.113001816 0.013499729 0.047007363 0.0011836105 -0.030739821 0.038526338 0.13479368 -0.03274174 -0.11728712 -0.057218056 -0.005229409 0.15590538 0.059655476 0.0035663806 -0.042336848 0.091772154 0.038536184 0.0733873 0.06591507 0.03534128 0.28401676 -0.07253601 0.07717946 0.08598621 -0.15303743 -0.024775863 -0.04159202 0.011892366 -0.15575033 0.12729923 0.060538784 0.15543407 -0.13060349 0.12552793 0.014773611 0.059749372 -0.1427126 -0.047060385 0.010774151 0.098802865 -0.09137731 0.02192815 0.07391958 0.006512684 -0.026362043 0.11308583 -0.044633385 -0.039063253 -0.12400736 0.04064504 0.19423802 -0.028704062 0.051381174 -0.14649391 -0.06204924 -0.102170415 -0.124472484 -0.020446915 -0.17709002 0.091980845 0.14819895 -0.05808642 -0.060575686 0.087204605 -0.008103188 0.08198311 0.08976509 -0.061997157 0.10110034 -0.08842774 -0.024213716 -0.011137303 0.03539592 0.011118474 -0.12583174 0.11050562 -0.06576398 -0.08824272 -0.14878002 0.09365845 0.14168085 0.03713561 0.037634563 0.15764509 0.106201485 -0.042137776 0.22213264 -0.05930493 0.034754176 -0.018977592 0.0934761 -0.051743973 0.012153455 0.036144767 0.06993115 -0.08103868 0.14402342 -0.1011226 -0.023268275 0.031099727 -0.15425678 0.09607227 -0.041175738 -0.12535903 0.11458742 -0.09202393 0.08002238 0.04235834 0.028798923 0.10119378 -0.09715943 0.24436076 -0.09015335 0.048473727 0.12257186 -0.0011860318 0.11824109 -0.10836558 0.037410118 -0.06541107 0.03631636 0.12552394 0.015130181 -0.0031859507 0.08710957 -0.06187219 -0.00366635 0.03333265 0.04861138 0.038696624 -0.11871916 0.029372014 0.08568433 0.11294636 0.11783537 0.010425973 -0.09739548 -0.01147627 -0.12625983 -0.21086088 -0.032170717 -0.019443272 0.14050318 0.10999753 0.103190504 0.05093823 -0.027610173 0.08657958 -0.064810984 0.027792845 0.18188572 -0.16253534 0.20424564 -0.07461752 -0.04224305 -0.08792436 0.11980215 -0.14794548 0.20594086 -0.0040903916 0.093858585 -0.04998086 -0.11524646 -0.15545928 0.18142036 -0.012629881 0.052282345 -0.03244216 -0.16089894 0.083329156 0.22110426 -0.17299291 -0.010193573 0.07140034 -0.24226825 -0.14662555 -0.04679306 -0.11723093 -0.037614916 -0.07993047 0.040350758 0.106296085 0.092979416 0.016242944 0.1004261 0.06646492 -0.12427781 0.13424672 0.06923172 -0.13715197 -0.015869077 -0.021028658 -0.14611836 1.7087184e-05 -0.073311366 0.07749553 0.08142653 -0.12417871 0.007091315 -0.06352409 0.08005111 0.14510699 -0.12977882 0.12613907 0.09461903 0.0225769 -0.11865048 0.039092664 -0.18625808 0.16624565 -0.18576801 -0.08339296 -0.059599977 -0.13049848 -0.13971902 0.03969782 -0.094370924 0.17813775 -0.018206583 0.03615222 0.038470034 -0.09842621 -0.076444104 0.1371528 -0.048884563 -0.26206127 -0.022476954 0.18923901 0.014068272 0.063023694 0.20277306 -0.11816998 -0.018290296 0.123779275 0.12728988 -0.0130631095 0.113669276 -0.15821888 0.060750306
送心 -0.078155205 -0.015029744 -0.07251673 -0.09574055 -0.0071326955 -0.06959387 -0.064497545 0.08491286 -0.0034176242 0.05479883 -0.019105693 0.047096647 -0.006019674 0.09065538 -0.12917459 0.0099011855 0.024760194 0.017524628 0.037293304 -0.08142315 0.109146535 0.049141943 0.017538356 -0.16309118 -0.084204875 -0.057243954 -0.17615132 -0.055727832 0.011298138 -0.04621652 0.01897945 0.051222526 0.09558701 -0.15435202 0.02440678 -0.049514797 -0.17405312 -0.08198419 -0.06411945 0.06625028 0.097061574 -0.094879515 -0.084066674 -0.03804713 -0.16665195 -0.04742901 -0.1587555 0.052938618 -0.03720915 0.015267384 0.0023574103 0.023011805 -0.13566874 -0.03048374 0.03227614 0.036677253 0.06943083 -0.18836239 0.07441207 0.04893725 -0.18056007 0.095480464 0.010311616 0.036974106 0.0085558565 -0.02041017 0.037012745 0.112408966 -0.04100077 -0.10966146 -0.040442493 -0.008506147 0.15195915 0.061118122 -0.0098576965 -0.025168324 0.0876555 0.029311802 0.07748419 0.05501176 0.015509455 0.25370464 -0.070536375 0.078413226 0.0818073 -0.13373508 -0.019122612 -0.041707728 0.0068309526 -0.13972606 0.12395359 0.046111394 0.1256814 -0.110376716 0.11120227 0.020467222 0.058510166 -0.12713611 -0.049532376 0.01015602 0.088813715 -0.08666733 0.0092285 0.053525016 0.012448847 -0.01861792 0.09824259 -0.027569635 -0.03643559 -0.10081249 0.04120064 0.18702286 -0.029251345 0.0376517 -0.121027395 -0.05019631 -0.0978914 -0.111831225 -0.02103343 -0.15635027 0.088418655 0.11450442 -0.036481723 -0.032961015 0.089042954 -0.01571439 0.08138225 0.08745844 -0.06526631 0.092757255 -0.06462499 -0.017946918 -0.02153749 0.042580552 0.015688261 -0.098439716 0.093248114 -0.066490084 -0.07751639 -0.12410208 0.09705038 0.13313062 0.027484227 0.03885103 0.1337143 0.100862116 -0.04846054 0.20458679 -0.038150188 0.018597752 -0.004680039 0.08571153 -0.047001634 0.018720858 0.040985093 0.061103467 -0.061695118 0.121380694 -0.097447895 -0.01700305 0.039877996 -0.1210597 0.08993827 -0.035217855 -0.12305586 0.09721798 -0.08446898 0.08255691 0.044317096 0.028791126 0.10022409 -0.0855136 0.2115979 -0.082320094 0.038892128 0.107024096 0.001928416 0.11125036 -0.10935403 0.03342209 -0.071511455 0.027982257 0.12288401 0.018246217 0.009046524 0.0834577 -0.06960985 -0.01277905 0.020839905 0.050854903 0.026966158 -0.12751521 0.023629066 0.082842655 0.10772098 0.096134834 0.02703275 -0.09053006 0.0024356926 -0.110843204 -0.20407355 -0.019669611 -0.017577136 0.11866508 0.09651362 0.10708339 0.045667067 -0.022141092 0.08491322 -0.057358872 0.019919772 0.16449136 -0.14410765 0.17595823 -0.0645064 -0.04773391 -0.07938708 0.12259637 -0.12599938 0.1895964 -0.003161961 0.08276024 -0.054591846 -0.09911192 -0.13799629 0.17421836 0.0001788009 0.042739682 -0.04517317 -0.144817 0.08640243 0.20645073 -0.14371392 -0.00075457746 0.055768605 -0.21464927 -0.11935775 -0.054483335 -0.11802548 -0.026219152 -0.07096363 0.03987951 0.08292375 0.086829044 0.024237357 0.08720332 0.0539446 -0.110479 0.12277536 0.055100333 -0.13613714 0.0072272695 -0.014797223 -0.13321793 -0.01107205 -0.06251872 0.077455215 0.072331004 -0.12751856 0.0011122299 -0.065444626 0.07977472 0.13857423 -0.12437116 0.09799372 0.079657406 0.02337663 -0.11900557 0.04718277 -0.1653662 0.15574236 -0.1591168 -0.08482355 -0.053029153 -0.13106975 -0.1327682 0.024936913 -0.0830265 0.15829019 -0.012987982 0.03332484 0.04798982 -0.086577706 -0.058604885 0.10874992 -0.05586675 -0.23190224 -0.030565524 0.17256358 0.012174265 0.067559645 0.18559065 -0.11709817 -0.024182754 0.116402425 0.10789078 -0.0112593835 0.10779383 -0.16043495 0.050876424
姐 -0.09598919 -0.014769689 -0.07629618 -0.120525725 -0.010753109 -0.107317574 -0.09457195 0.0984652 -0.00072177604 0.06161906 -0.015660997 0.08263159 -0.017989842 0.12481004 -0.1694541 0.014076402 0.033298884 0.032719422 0.05368835 -0.09834966 0.13613051 0.0837051 0.015713494 -0.21634072 -0.100530334 -0.07975979 -0.23599198 -0.06768418 0.025464665 -0.051152762 0.011512487 0.059330646 0.10150255 -0.20357397 0.017520502 -0.051566463 -0.22480655 -0.10238568 -0.08397524 0.066116795 0.11916715 -0.13865803 -0.08126739 -0.044385623 -0.1948806 -0.049758125 -0.21055792 0.054749668 -0.047223806 0.016869264 0.010115827 0.024441214 -0.18893883 -0.042532925 0.037658524 0.04783465 0.09327365 -0.22328176 0.09504473 0.06532867 -0.22193265 0.12549436 0.0181648 0.05386828 0.0007702904 -0.03393894 0.046873625 0.14849377 -0.036996163 -0.13415495 -0.067178905 -0.0051751533 0.17922843 0.06818349 -0.0009911848 -0.052413516 0.1044662 0.04555654 0.07927344 0.07291726 0.03310494 0.31970128 -0.084332086 0.08992013 0.09806805 -0.17543085 -0.028172713 -0.051968083 0.013872601 -0.17264767 0.14675812 0.067793414 0.16936542 -0.1490339 0.14596726 0.017809475 0.06426873 -0.16104665 -0.053295124 0.016825376 0.11315601 -0.09693385 0.022234429 0.08658255 0.013485781 -0.025970459 0.124058545 -0.04845533 -0.05126003 -0.14401878 0.047500696 0.21930522 -0.034096744 0.056246575 -0.160579 -0.07013203 -0.121406004 -0.1377521 -0.02344299 -0.20079027 0.1010715 0.16611485 -0.062455513 -0.063434765 0.10243062 -0.009521196 0.08830268 0.10042333 -0.07425372 0.111523286 -0.0981414 -0.023542974 -0.010354808 0.043087486 0.020688059 -0.14403562 0.124480546 -0.070876755 -0.10202445 -0.17232636 0.10855708 0.1603616 0.039862633 0.043636605 0.1799363 0.11940491 -0.049478985 0.2516584 -0.060511407 0.035730906 -0.020224595 0.10558411 -0.055159677 0.014139312 0.039015092 0.07624814 -0.09646075 0.1626523 -0.11371853 -0.027998334 0.036353953 -0.17507407 0.110987835 -0.048819996 -0.14170733 0.12594943 -0.10617145 0.089493364 0.04328222 0.033352908 0.11666738 -0.11567157 0.2755106 -0.09805131 0.055859584 0.14061734 -0.0036544008 0.1354779 -0.12720862 0.03931686 -0.07332577 0.037931524 0.14083314 0.007970213 -0.002392853 0.092314236 -0.07201011 0.00018678918 0.03606299 0.056235097 0.04353306 -0.13995488 0.03331315 0.09465819 0.12676258 0.12971783 0.01238074 -0.10741878 -0.010146884 -0.14677349 -0.24375142 -0.038296845 -0.022005497 0.15920761 0.120956734 0.12366083 0.05899208 -0.030602196 0.09852903 -0.07724763 0.03255594 0.20871758 -0.18582802 0.23252746 -0.08377667 -0.053915747 -0.099518925 0.13965982 -0.16924793 0.23540564 -0.007051132 0.11089673 -0.058357142 -0.13385375 -0.17543593 0.20885122 -0.012686411 0.06508744 -0.040842302 -0.18451837 0.09767872 0.26002017 -0.198235 -0.011706875 0.077171244 -0.2773752 -0.16142672 -0.053403996 -0.13664375 -0.03756083 -0.092251 0.047157146 0.12197754 0.106068276 0.016361276 0.116449304 0.07828273 -0.14397727 0.15069872 0.079926796 -0.15652555 -0.0152538335 -0.0256313 -0.16113383 0.004308387 -0.08000265 0.08308615 0.0973402 -0.13634902 0.013983799 -0.072945155 0.091205426 0.16836528 -0.15055764 0.14145559 0.108311385 0.03143601 -0.13509437 0.0472697 -0.2154203 0.19035661 -0.20182791 -0.09675121 -0.06295555 -0.15162869 -0.15777354 0.045664284 -0.108134046 0.2105235 -0.02176068 0.045877084 0.04796545 -0.113119036 -0.082122244 0.15085742 -0.05763045 -0.2965389 -0.024989987 0.21358022 0.019869797 0.0712811 0.23316684 -0.13173732 -0.024486518 0.14243674 0.14448859 -0.012234634 0.12931499 -0.18548457 0.065454915
想 -0.09254207 -0.014752117 -0.073309906 -0.11586888 -0.011324852 -0.10263821 -0.090794206 0.094096996 -0.0016347055 0.059307262 -0.014967074 0.079304695 -0.019363161 0.12088522 -0.1654824 0.014010084 0.032555994 0.031133955 0.05373225 -0.09693131 0.12872998 0.081646904 0.0137045 -0.20967135 -0.09603457 -0.07922593 -0.2303614 -0.06158908 0.022280833 -0.04955697 0.01175301 0.05628009 0.09652291 -0.19769642 0.015309054 -0.049887303 -0.21555616 -0.098410405 -0.08019682 0.06568052 0.11533567 -0.13582163 -0.08181959 -0.04502599 -0.19141296 -0.046473574 -0.20449711 0.053678922 -0.04578887 0.017880052 0.009744848 0.022396153 -0.18404084 -0.044918556 0.038454417 0.045392584 0.088853344 -0.2146509 0.09038753 0.06281308 -0.21797772 0.12110704 0.01609332 0.05391754 0.00012532175 -0.034849152 0.044493463 0.1451512 -0.03511024 -0.12913679 -0.06726833 -0.0019329671 0.1738502 0.06493034 -0.0006720555 -0.047182657 0.10140999 0.042000916 0.081052504 0.0691887 0.03148565 0.30944383 -0.08254031 0.08773033 0.09402595 -0.16733676 -0.028142719 -0.047893584 0.01141047 -0.1692757 0.14159745 0.068768285 0.16683492 -0.14431506 0.14305161 0.018922133 0.06482277 -0.15545678 -0.0502231 0.015132573 0.10808889 -0.09760432 0.02209944 0.08176994 0.012181152 -0.024426823 0.1235065 -0.048108473 -0.048284512 -0.1396513 0.045637447 0.21353878 -0.032994065 0.053974956 -0.15664496 -0.07074641 -0.11709404 -0.13413884 -0.021645552 -0.19294658 0.10159995 0.1626858 -0.061595466 -0.06311599 0.09616456 -0.0072323456 0.083356954 0.09906442 -0.07283074 0.107559875 -0.09275591 -0.025508305 -0.007418723 0.043211166 0.0165896 -0.13951385 0.12144902 -0.069809265 -0.09948364 -0.16733043 0.10400173 0.15476339 0.03651829 0.04330831 0.17436089 0.11462672 -0.046058156 0.24296843 -0.059745003 0.036475874 -0.018965451 0.10279638 -0.052820727 0.013287711 0.036060244 0.07623862 -0.0915393 0.15587938 -0.11215343 -0.026090965 0.033914387 -0.17023933 0.110154375 -0.047552075 -0.13854784 0.12585679 -0.10260698 0.08769837 0.041718375 0.032694362 0.11334431 -0.10938836 0.26442298 -0.09613322 0.054709237 0.13526657 -0.0035138566 0.12940913 -0.1253988 0.037429616 -0.07265909 0.034854356 0.13987055 0.012125248 -0.004906756 0.08853416 -0.067681625 -0.003696844 0.034575816 0.05677866 0.045083147 -0.13536295 0.032114517 0.0957768 0.12441967 0.12377602 0.011728172 -0.10499048 -0.0078950785 -0.13960998 -0.2365422 -0.038869467 -0.020768521 0.15532309 0.11730157 0.117976084 0.0578473 -0.028311634 0.093557484 -0.07234826 0.03249168 0.20314571 -0.18399413 0.22667645 -0.079484515 -0.05210393 -0.10075012 0.13424847 -0.16286471 0.22778614 -0.008191765 0.10885812 -0.05509091 -0.13077152 -0.17026056 0.20249061 -0.014630547 0.06442026 -0.039554734 -0.17767374 0.095371604 0.2532481 -0.19140097 -0.008307348 0.07621799 -0.26901394 -0.15752575 -0.053036608 -0.13096869 -0.03547551 -0.08985446 0.048210677 0.11830021 0.10315062 0.015986474 0.11098316 0.073341444 -0.13572042 0.14509772 0.07837541 -0.15409847 -0.012882902 -0.023878006 -0.15990986 0.0028838054 -0.07538418 0.080311365 0.09457692 -0.13254264 0.011160068 -0.067660384 0.090081826 0.16382572 -0.147137 0.1383954 0.106149144 0.03070775 -0.13325587 0.047484063 -0.20923258 0.18764566 -0.19626829 -0.09379296 -0.06180792 -0.14731243 -0.15348339 0.044095762 -0.10485543 0.20215446 -0.018091626 0.04206152 0.048672292 -0.1068815 -0.08351309 0.14947672 -0.053694025 -0.28693825 -0.025370723 0.20838314 0.017183786 0.06760287 0.22594294 -0.1307763 -0.02524039 0.13989511 0.14055686 -0.011935583 0.12682071 -0.18044703 0.061522104
买 -0.10500541 -0.017418565 -0.0871586 -0.13721094 -0.012898048 -0.12011493 -0.107412234 0.11461563 -0.0041505923 0.07320185 -0.018198133 0.09481744 -0.019941438 0.14480744 -0.1945018 0.013461997 0.042280916 0.040229082 0.06533902 -0.110766456 0.15549281 0.09941606 0.016302358 -0.24882197 -0.11406126 -0.09331893 -0.26961878 -0.07448798 0.026478766 -0.056767054 0.012003496 0.069583446 0.11577833 -0.23325722 0.020435354 -0.06252446 -0.25471273 -0.11903308 -0.09718669 0.07912025 0.13467248 -0.15842688 -0.093201526 -0.054710176 -0.22618029 -0.053702638 -0.24260962 0.06385925 -0.050596755 0.02326845 0.0130786775 0.02857409 -0.21474616 -0.05185013 0.042776387 0.05748381 0.10602047 -0.25623262 0.10681527 0.07485211 -0.25640184 0.14472425 0.018525302 0.0657265 0.0009345656 -0.04371394 0.054824274 0.1708532 -0.04135429 -0.15152566 -0.07705151 -0.004228923 0.20100954 0.07539441 0.001366389 -0.057202686 0.122927755 0.050823536 0.09183584 0.08220582 0.039775975 0.36673334 -0.09694525 0.104720086 0.109399855 -0.19705252 -0.032089673 -0.060886182 0.0137341125 -0.20098333 0.16523975 0.08020166 0.1940366 -0.1694551 0.16678268 0.023345238 0.074905895 -0.18748899 -0.060364217 0.0151293455 0.12833655 -0.11297397 0.02371838 0.09790761 0.012354816 -0.029362727 0.14331113 -0.055830255 -0.060081966 -0.1622766 0.056267552 0.25380093 -0.038818944 0.06579586 -0.18507203 -0.08084275 -0.137603 -0.15835138 -0.0265361 -0.22848435 0.11597412 0.19426027 -0.07458624 -0.07113501 0.11481309 -0.009702277 0.09892367 0.11600447 -0.08427423 0.12596872 -0.11187702 -0.030864267 -0.012734312 0.04770674 0.022593662 -0.16647883 0.14126877 -0.08271747 -0.11784902 -0.20116812 0.124046944 0.18256481 0.045148067 0.049429208 0.20772538 0.13415931 -0.055838987 0.2878895 -0.07216678 0.043793857 -0.021119202 0.1209256 -0.061290037 0.015986662 0.04694385 0.086646475 -0.11155922 0.183507 -0.13232225 -0.030024793 0.045055494 -0.20024544 0.12616764 -0.058853626 -0.16290535 0.14428577 -0.123162284 0.10082331 0.052092433 0.041150067 0.13485801 -0.13200492 0.31391007 -0.113404274 0.061766714 0.16029525 -0.0031587721 0.15310907 -0.14504516 0.046384573 -0.08595402 0.042824093 0.16495506 0.009520014 -0.0053101014 0.107524194 -0.07975498 -0.0035893202 0.042075947 0.06896345 0.052477974 -0.16116048 0.03983889 0.11358112 0.14748971 0.14986616 0.017585712 -0.12709866 -0.008403795 -0.1668922 -0.28333655 -0.045178633 -0.026749652 0.18477298 0.13862957 0.1393259 0.0704981 -0.0337326 0.11053106 -0.08752519 0.034859903 0.23868637 -0.21653688 0.2709941 -0.09725088 -0.06107117 -0.11725271 0.15820274 -0.19209667 0.26940313 -0.0073412294 0.129327 -0.0638802 -0.15511422 -0.20216654 0.23698007 -0.015205848 0.075754434 -0.04496605 -0.21324109 0.11128377 0.29592642 -0.2260115 -0.012965857 0.09263601 -0.3161256 -0.18429938 -0.06263716 -0.15279022 -0.044135194 -0.107384875 0.05522174 0.14136188 0.12224299 0.016773898 0.13216266 0.090261586 -0.16298732 0.1768801 0.09598867 -0.1781716 -0.016480703 -0.025818912 -0.18793562 0.005155627 -0.08903792 0.0953386 0.11131364 -0.16101734 0.016162906 -0.08032188 0.1060859 0.19244158 -0.17389373 0.16146587 0.121765144 0.037577957 -0.15447149 0.05619459 -0.2469195 0.2215548 -0.23554872 -0.111602135 -0.074923135 -0.17328133 -0.17996423 0.05334586 -0.12252794 0.2384928 -0.024646088 0.050514355 0.055374164 -0.13092123 -0.097788244 0.17234498 -0.06559491 -0.34068206 -0.028858857 0.24463402 0.022272315 0.08059258 0.2666053 -0.15398198 -0.026575554 0.16413613 0.16301925 -0.013473156 0.14909571 -0.20965336 0.07312071
玫瑰 -0.06491232 -0.0064201485 -0.07709305 -0.11870151 -0.045985673 -0.07162309 -0.083980486 0.055201154 -0.021888984 0.019699877 -0.034721803 0.066830695 0.0077918055 0.09906833 -0.15071337 0.026456371 -0.0038214067 0.043694723 0.040498335 -0.06597829 0.13066941 0.05269533 0.02614236 -0.19631222 -0.11372536 -0.09577655 -0.17493258 -0.07786546 0.04276169 -0.036961764 -0.016978752 0.036629263 0.11630325 -0.17934412 0.048068482 -0.03998254 -0.17307292 -0.11281902 -0.09505627 0.06927837 0.065419555 -0.089278325 -0.08958335 -0.02117517 -0.17821084 -0.01643742 -0.16847803 0.032289404 -0.048438735 -0.008625046 -0.02987595 -0.008737292 -0.14289242 -0.040337145 0.019920392 0.047404844 0.060850725 -0.15271792 0.07034173 0.017714052 -0.1767654 0.0998627 0.046985146 0.06911642 -0.025820406 -0.006530562 0.06523443 0.13179757 -0.032915775 -0.09164621 -0.039119825 0.02715514 0.1370752 0.04998973 -0.018753199 -0.056324206 0.080617554 0.06125796 0.053950485 0.04627294 0.016189095 0.24646486 -0.07427837 0.08522228 0.06338554 -0.110180035 -0.019964965 -0.06573953 -0.014065175 -0.12598918 0.14176747 0.009997702 0.13853157 -0.15218009 0.11780357 0.00016906318 0.018667912 -0.12851922 -0.021005448 0.006328409 0.080297664 -0.08572855 0.026463073 0.081362166 -0.0051697353 -0.03842237 0.06975838 -0.025076313 -0.006390327 -0.11786611 0.05640116 0.2028525 -0.04592759 0.02218057 -0.14759693 -0.024525877 -0.11767959 -0.0953631 -0.041847777 -0.14497802 0.06986834 0.11595857 -0.028415348 -0.0373053 0.09476567 0.022120273 0.04717172 0.044025216 -0.08458329 0.07766708 -0.10556181 -0.025612516 -0.02513473 0.04441215 0.016463099 -0.12884584 0.055479895 -0.034546643 -0.10550093 -0.11933899 0.091980696 0.1355604 0.039371748 0.030900648 0.14076066 0.09902947 -0.05398226 0.178093 -0.070229106 0.031274255 -0.029604563 0.05888341 -0.0568373 -0.023929993 0.059816647 0.07007401 -0.057747405 0.14231649 -0.08588102 -0.01922009 0.043616317 -0.13948064 0.07021077 -0.05495833 -0.13365819 0.09936786 -0.106612265 0.07701878 0.0056280256 0.007861969 0.080400884 -0.106374905 0.20705073 -0.08285193 0.040738944 0.08582205 -0.02982414 0.106927246 -0.107970335 0.044077523 -0.03842441 0.021665184 0.11227303 -0.013836101 0.015470638 0.09177796 -0.0788596 0.03818952 0.03422956 0.04294926 0.04168356 -0.09644925 -0.008865843 0.062298726 0.09423989 0.116548724 0.010267528 -0.10739741 -0.033598434 -0.1314024 -0.20044066 -0.010527597 0.007264152 0.14421804 0.06804092 0.13190928 0.026242323 -0.01651456 0.09827555 -0.064526334 0.033212002 0.17935392 -0.12775329 0.15373248 -0.06279011 -0.04019452 -0.048375733 0.134493 -0.12947078 0.20274976 0.013763988 0.07245368 -0.04432546 -0.109722085 -0.17764078 0.19459452 -0.028862521 0.037803985 -0.058600277 -0.1674583 0.10473857 0.22539364 -0.17157502 -0.028835962 0.040921807 -0.24799281 -0.13439156 -0.04259871 -0.14771184 -0.044662453 -0.06435974 0.030365925 0.08224345 0.09524994 0.013437714 0.113538966 0.09358269 -0.13456024 0.15356621 0.085879795 -0.09935897 -0.008637312 -0.016753064 -0.15019467 -0.020784507 -0.08251105 0.0886231 0.107579 -0.09738803 0.014548349 -0.053039603 0.07436536 0.13049158 -0.1443487 0.12612505 0.05323655 0.050580025 -0.12524626 0.05511219 -0.18350828 0.14760682 -0.16239251 -0.08690192 -0.02907102 -0.1180236 -0.121180356 0.06794837 -0.076861 0.16571142 -0.012652239 0.07953728 0.013207658 -0.11602531 -0.041100945 0.09660614 -0.018901 -0.24156044 -0.04537002 0.1993006 0.009100487 0.060784563 0.1590518 -0.08525198 -0.0060563893 0.12420462 0.12105665 -0.03856509 0.089392744 -0.11488967 0.06118305
没有 -0.109093405 -0.017165817 -0.089198865 -0.13936688 -0.012389029 -0.12529618 -0.11146758 0.11741851 -0.0029936642 0.07216353 -0.01833186 0.09825656 -0.021098135 0.1483517 -0.20006678 0.015110706 0.03853967 0.0370928 0.062108487 -0.114334635 0.16137138 0.10054364 0.01901251 -0.2556262 -0.118283905 -0.09602489 -0.2815679 -0.07891285 0.02779055 -0.060939774 0.0148898745 0.0690341 0.11756948 -0.2401782 0.019559257 -0.06292524 -0.2650453 -0.12025329 -0.09857083 0.07738142 0.14094657 -0.16493693 -0.098594695 -0.053303853 -0.22985478 -0.05563399 -0.24876742 0.06538232 -0.05317887 0.021276558 0.011703736 0.029339986 -0.22631885 -0.054334782 0.047984026 0.05817242 0.10910124 -0.2639543 0.11037348 0.07687884 -0.26182663 0.15027885 0.02159072 0.06383826 0.0010674897 -0.04171683 0.05793482 0.17872669 -0.04476092 -0.16042545 -0.07917821 -0.0068343044 0.21145271 0.0777822 0.0010356758 -0.058553036 0.12607215 0.05115969 0.0939887 0.08340651 0.038174618 0.37873164 -0.09992761 0.106250234 0.11434595 -0.20666644 -0.035065386 -0.06156404 0.014080551 -0.20319562 0.17030528 0.08343486 0.20306578 -0.17516123 0.1730843 0.021744493 0.07963013 -0.19183734 -0.06320931 0.01840833 0.13545547 -0.11347482 0.024223741 0.10274542 0.016573228 -0.031368062 0.14436108 -0.058012612 -0.057342656 -0.17079288 0.05241404 0.26092649 -0.04107956 0.066292875 -0.18820806 -0.08523013 -0.14181112 -0.16319415 -0.025869425 -0.23934272 0.12213711 0.19704162 -0.07661633 -0.07498057 0.12128039 -0.007479563 0.10264019 0.11936731 -0.08962559 0.13309576 -0.11661443 -0.02946686 -0.012966066 0.05033379 0.023611428 -0.16664015 0.1472018 -0.085313804 -0.11786551 -0.20849402 0.1304674 0.18872477 0.045573987 0.050288055 0.21331401 0.14283732 -0.056719124 0.29518023 -0.07337438 0.04396224 -0.021413896 0.12553331 -0.06633979 0.015782835 0.04987734 0.09080677 -0.11275563 0.19434942 -0.13597848 -0.031071 0.043873552 -0.20849726 0.13244213 -0.057445593 -0.16826475 0.15242888 -0.12853628 0.10602485 0.049749073 0.04056541 0.13798544 -0.13556713 0.32440102 -0.117465846 0.06287668 0.167487 -0.0037223557 0.15787855 -0.14853078 0.049431186 -0.08776356 0.044434234 0.16773987 0.011951551 -0.0021206264 0.109236985 -0.08277613 -0.0036690712 0.043845635 0.06578415 0.05480131 -0.1662579 0.040222697 0.11266349 0.15092859 0.15409838 0.015172706 -0.12994297 -0.0094338935 -0.1742632 -0.29023936 -0.04349789 -0.024865793 0.1870987 0.14687476 0.14729337 0.070305206 -0.033373073 0.11425607 -0.091933586 0.039340388 0.24827635 -0.22025155 0.27781114 -0.09806606 -0.06097007 -0.11875793 0.166397 -0.20029405 0.2757726 -0.0038150598 0.13058476 -0.06820815 -0.15984645 -0.20632003 0.24912617 -0.015970543 0.07694653 -0.044999655 -0.21911703 0.11714549 0.30729425 -0.23621598 -0.010044032 0.09528358 -0.32799488 -0.18933472 -0.06581332 -0.16091718 -0.046050757 -0.11066368 0.056264274 0.14287214 0.12566757 0.01991109 0.13480249 0.09247131 -0.1659051 0.17952612 0.0970745 -0.18792352 -0.017193178 -0.02726503 -0.19147308 0.0026384885 -0.09407829 0.097477645 0.11615823 -0.16631159 0.014940341 -0.08582499 0.10696791 0.19832528 -0.18094832 0.16565491 0.12531665 0.038673643 -0.16109495 0.05422995 -0.25557485 0.2270712 -0.24202214 -0.11119388 -0.07627095 -0.17971794 -0.18822008 0.054718684 -0.12879913 0.246085 -0.025199296 0.054294698 0.056419097 -0.13462164 -0.10003965 0.1792528 -0.06280799 -0.35053232 -0.026426341 0.2516122 0.022203015 0.08720171 0.27496973 -0.1572518 -0.02773115 0.1690037 0.1699885 -0.014389931 0.15013267 -0.22044958 0.07644683
去 -0.092035696 -0.015225494 -0.0706435 -0.116876945 -0.010378103 -0.105359696 -0.09113386 0.09941994 0.0006170376 0.06302992 -0.016686723 0.08137518 -0.020160072 0.12357256 -0.16491984 0.009659625 0.034243215 0.03404597 0.0521554 -0.09499252 0.12984811 0.086599536 0.013443082 -0.20935312 -0.09623542 -0.07956415 -0.23213665 -0.059420597 0.02556353 -0.048956513 0.010884285 0.0570952 0.09742834 -0.1999711 0.01624833 -0.053412437 -0.21608077 -0.097159274 -0.082602866 0.064240694 0.115221076 -0.1382903 -0.080774404 -0.04518166 -0.19210805 -0.0489258 -0.20542826 0.0558536 -0.045059774 0.017360121 0.011097418 0.022918772 -0.18558103 -0.045572363 0.040149882 0.04524761 0.09091728 -0.21683674 0.09062376 0.06241303 -0.21706644 0.121756606 0.01273131 0.051335733 0.00083844055 -0.037150204 0.043169476 0.14713377 -0.035172578 -0.13204111 -0.0677176 -0.0056302045 0.17387308 0.066915154 0.0034219383 -0.04740006 0.10333273 0.042845145 0.07994777 0.0729614 0.037039023 0.3106643 -0.082024775 0.08841507 0.09379039 -0.16793501 -0.027731024 -0.04984234 0.012879117 -0.17135173 0.1403507 0.06862692 0.16974853 -0.1425593 0.14093277 0.018792676 0.06569127 -0.1581879 -0.05038625 0.0147306295 0.10820269 -0.09829375 0.021643998 0.0841627 0.01172938 -0.026534136 0.12481777 -0.048319418 -0.048716635 -0.13688639 0.046008486 0.2157558 -0.02917448 0.054147348 -0.15772976 -0.070836134 -0.11557173 -0.13479741 -0.021590002 -0.1940637 0.10361662 0.1650659 -0.065560415 -0.06306387 0.09739549 -0.010082267 0.08572516 0.096798636 -0.07213077 0.11071542 -0.09346483 -0.024666682 -0.008646519 0.041258965 0.015623106 -0.140806 0.12005769 -0.07069514 -0.10070393 -0.16975003 0.10452119 0.15766937 0.03749904 0.03988149 0.17370465 0.11749397 -0.047280397 0.246956 -0.061376363 0.03872519 -0.018721262 0.10411268 -0.05602398 0.015520208 0.037774432 0.075076975 -0.09154281 0.15847972 -0.1107044 -0.026518257 0.03320633 -0.17289867 0.10976845 -0.04651449 -0.14148127 0.12560694 -0.104596004 0.08647919 0.044713844 0.035445295 0.1150621 -0.11178345 0.26820323 -0.09686983 0.054733988 0.1366864 -0.0026507694 0.13201995 -0.12232244 0.04139385 -0.072206266 0.034813527 0.13984592 0.012676036 -0.004833763 0.09070034 -0.069184504 -0.0014197325 0.036845673 0.05661135 0.044671662 -0.13248238 0.032268126 0.09640799 0.124879606 0.12839648 0.012394231 -0.1055867 -0.011182636 -0.14060508 -0.2359744 -0.038468823 -0.020871844 0.15845668 0.120165676 0.116734885 0.057489578 -0.03236557 0.09647948 -0.072659284 0.030493047 0.20184529 -0.18412437 0.22755045 -0.08038003 -0.049692754 -0.099265486 0.13564041 -0.16423643 0.22988164 -0.004663986 0.10946153 -0.05832394 -0.13325267 -0.17117356 0.20313472 -0.0133977765 0.06412344 -0.037877183 -0.18123776 0.09340916 0.25097978 -0.19052514 -0.0110832965 0.07742228 -0.2714861 -0.15827945 -0.05129195 -0.12871936 -0.039202232 -0.08913375 0.047148094 0.118276685 0.10193812 0.016749343 0.11280906 0.07406144 -0.13646536 0.14802757 0.07801141 -0.15060024 -0.014913752 -0.025153287 -0.16059385 0.0029657139 -0.07628423 0.08322629 0.09564841 -0.13458984 0.013194902 -0.0704944 0.08823978 0.16336416 -0.14474125 0.1386783 0.10360958 0.028134871 -0.13288543 0.045845423 -0.20844181 0.18582475 -0.20060255 -0.09236663 -0.06316749 -0.144609 -0.15487954 0.045701582 -0.106982596 0.2040599 -0.01947162 0.04353044 0.048219368 -0.11110802 -0.08524064 0.1506705 -0.054512974 -0.29238653 -0.025785489 0.20766172 0.016895527 0.06967337 0.2283491 -0.13104703 -0.023011552 0.1378386 0.14055668 -0.014410129 0.12773718 -0.1793585 0.06428389
鼓掌 -0.102981314 0.005694986 -0.10651645 -0.13343085 -0.03835979 -0.117327765 -0.080267414 0.07193814 -0.0059867846 0.032378316 -0.041084357 0.09139024 -0.0114193745 0.13480492 -0.19263256 0.03452627 0.021558587 0.048815593 0.062168725 -0.09933708 0.14439307 0.07119784 0.008208212 -0.22983289 -0.12211501 -0.08254587 -0.24236362 -0.08969678 0.04023964 -0.04571576 0.020289013 0.035452154 0.12682228 -0.20937833 0.041652698 -0.053238336 -0.23149614 -0.12416848 -0.072243996 0.079812445 0.13107474 -0.13319008 -0.08981422 -0.027552642 -0.21124372 -0.06763595 -0.22500601 0.07519602 -0.05874828 0.008607943 -0.016047735 0.023333758 -0.19241078 -0.029206147 0.02445975 0.076929994 0.08159316 -0.20379888 0.11810923 0.053142503 -0.24042258 0.14160194 0.014049414 0.044711582 -0.015080275 -0.04318994 0.052980058 0.16603327 -0.034069374 -0.13467519 -0.06000247 0.009799199 0.16522676 0.07244762 -0.0059442646 -0.05699323 0.11827111 0.07816422 0.09390804 0.09244767 0.01195362 0.32879773 -0.099826045 0.07215386 0.07090232 -0.17507325 -0.030867621 -0.072104774 0.009439477 -0.152888 0.14646964 0.037828814 0.1799585 -0.14369106 0.15793712 0.0029263617 0.043641783 -0.14525686 -0.03412191 0.015183204 0.108389996 -0.10688035 0.04349786 0.08232108 0.0372841 -0.028680436 0.11631654 -0.06216305 -0.03998311 -0.17123306 0.035520278 0.21958621 -0.050672956 0.04794901 -0.17294487 -0.06313004 -0.111070596 -0.14455813 -0.028344002 -0.2215911 0.12023136 0.15626521 -0.0372506 -0.06338354 0.08256043 -0.0011996663 0.07726284 0.06803008 -0.09593922 0.13606867 -0.11280093 -0.049473573 -0.018443938 0.030003078 0.031820837 -0.16718206 0.09575588 -0.049336296 -0.117851034 -0.14996967 0.09031641 0.1694004 0.01735062 0.051602464 0.17022344 0.13838147 -0.03805903 0.2685658 -0.04829485 0.02521704 -0.021936402 0.11999619 -0.0757263 -0.023507426 0.03439191 0.08646414 -0.11899312 0.15299328 -0.111194044 -0.038157232 0.06365536 -0.18067005 0.10004325 -0.042929135 -0.15954624 0.13507767 -0.0939434 0.09088078 0.059092056 0.034034282 0.14118543 -0.14828724 0.25898314 -0.093207 0.078593194 0.14126955 0.0009739803 0.12150518 -0.15296862 0.050974194 -0.053776313 0.054371234 0.12733422 0.012218253 -0.011515798 0.08727361 -0.081721716 0.021245588 0.055017736 0.06693132 0.045586992 -0.12960756 0.02332484 0.07743229 0.11852932 0.1415521 0.007570546 -0.10615159 -0.017983967 -0.14655843 -0.27204904 -0.01718305 -0.02498512 0.16073243 0.10186815 0.13891387 0.04214198 -0.02625948 0.102573015 -0.08685563 0.053590514 0.21009514 -0.2012428 0.21755174 -0.06331496 -0.063273706 -0.08660085 0.150679 -0.18190902 0.23759918 -0.016203089 0.12301655 -0.057955604 -0.15162194 -0.20328371 0.23317057 -0.031722564 0.08023331 -0.06460177 -0.17986831 0.11800243 0.27556336 -0.19935921 -0.014925834 0.078801826 -0.2897558 -0.1486438 -0.04189232 -0.16889714 -0.036622852 -0.09596898 0.03686674 0.12791832 0.12369027 0.016027095 0.13256805 0.08154833 -0.16793898 0.14555486 0.080825314 -0.15038873 -0.0029287 -0.021534849 -0.16223985 -0.015618616 -0.06065094 0.083266355 0.11079271 -0.12370373 0.027476165 -0.067729756 0.10385155 0.17062882 -0.15251999 0.14246355 0.115772024 0.056855686 -0.14081126 0.04266636 -0.20890553 0.20297156 -0.1886768 -0.09293823 -0.057497725 -0.13226275 -0.16862983 0.07363127 -0.11005055 0.22265011 -0.041932832 0.0778197 0.032895748 -0.11667847 -0.08991802 0.1446476 -0.03727993 -0.29549512 -0.01584543 0.22279224 0.0139174815 0.08385616 0.22851354 -0.1287839 -0.044325296 0.15204564 0.16842392 -0.01058073 0.12950781 -0.16721518 0.07532202
取关 -0.07012371 -0.012007593 -0.059453215 -0.08796731 -0.008793079 -0.07778305 -0.071578704 0.07089792 -0.0056656855 0.046907246 -0.011291097 0.06234342 -0.015598088 0.08821448 -0.12429395 0.009961156 0.021952726 0.020509942 0.04030837 -0.07816508 0.09953075 0.06448718 0.010784365 -0.16180082 -0.08277136 -0.058824174 -0.17980248 -0.056854572 0.014705105 -0.036537047 0.007373815 0.04761293 0.07498359 -0.15545046 0.014021065 -0.04237258 -0.17043282 -0.078562096 -0.060785763 0.053877164 0.08771938 -0.105928 -0.061932232 -0.036939688 -0.150489 -0.03786095 -0.16238289 0.0408997 -0.03681048 0.016620174 0.010723866 0.018379446 -0.14285086 -0.03344027 0.03394923 0.03144691 0.071140654 -0.1690366 0.07369938 0.0523584 -0.16644545 0.09606511 0.015544732 0.0370467 0.0034851125 -0.026076404 0.037395593 0.114135176 -0.02942472 -0.0982586 -0.05030433 -0.008709294 0.13770603 0.05121003 -0.00548788 -0.040896073 0.075866245 0.033518627 0.057776615 0.052098252 0.025971109 0.23589517 -0.06303391 0.06422708 0.07956783 -0.13540128 -0.022029392 -0.037906658 0.012218854 -0.12574776 0.109206356 0.049160637 0.124782145 -0.11132456 0.11363241 0.007068118 0.047847882 -0.118357256 -0.041821744 0.01443768 0.08318771 -0.07770606 0.018142214 0.066071935 0.017467957 -0.017110642 0.09385761 -0.035411578 -0.04261178 -0.11150096 0.032420225 0.16821407 -0.02566941 0.040750615 -0.11736926 -0.056713507 -0.09073901 -0.10142807 -0.018268136 -0.14915182 0.077659905 0.12086348 -0.0447355 -0.047607232 0.07832057 -0.0034962061 0.06649248 0.08155094 -0.06234587 0.08343944 -0.07145072 -0.01806792 -0.0060438784 0.036885668 0.0135632055 -0.10506745 0.09495963 -0.055165026 -0.075791925 -0.12975186 0.08658465 0.12545636 0.031449705 0.032408852 0.13762556 0.09399742 -0.03609838 0.19583446 -0.050109494 0.029267523 -0.011835348 0.08002772 -0.04622178 0.012605714 0.03449386 0.058946367 -0.07185002 0.12471058 -0.09006145 -0.02532233 0.027513606 -0.12574586 0.08236861 -0.033307415 -0.10923113 0.09740775 -0.07916211 0.06919666 0.03765049 0.025874574 0.089976914 -0.08573115 0.20353296 -0.07036092 0.035186023 0.1080213 -0.0044530756 0.10078194 -0.098266095 0.03231809 -0.058677487 0.024649996 0.10609827 0.010631657 -0.0007869255 0.07054912 -0.05584048 0.0017033904 0.023514455 0.043447625 0.034209285 -0.1134399 0.030468661 0.0672378 0.1019797 0.09395285 0.012960192 -0.08410671 -0.003265879 -0.11178452 -0.18469751 -0.028204532 -0.016451238 0.11831489 0.09118728 0.09465193 0.04016738 -0.017322073 0.074414484 -0.06319683 0.019651875 0.1557099 -0.14061002 0.17988074 -0.068641715 -0.04107237 -0.07468203 0.10562285 -0.13081029 0.17621376 -0.0065523754 0.08068346 -0.04488133 -0.09851197 -0.12844032 0.15818956 -0.011630961 0.0502099 -0.032325335 -0.13399522 0.072470784 0.20144416 -0.15011983 -0.008002722 0.06099784 -0.20588738 -0.11901472 -0.043196853 -0.10339021 -0.030829681 -0.07026615 0.039691687 0.09041219 0.079244554 0.012981593 0.086366214 0.060536273 -0.114686735 0.11231117 0.06419849 -0.12098166 -0.0056499043 -0.016917309 -0.12728807 0.00035904525 -0.061683252 0.060133748 0.07671563 -0.10494423 0.009485899 -0.056275792 0.070815675 0.13194773 -0.113664374 0.10705238 0.084117025 0.022646926 -0.10755066 0.037297487 -0.16271152 0.14506102 -0.15359811 -0.07284414 -0.048324395 -0.118489146 -0.1225522 0.031965367 -0.08364774 0.15769787 -0.019593734 0.040439967 0.0337978 -0.08178588 -0.06167275 0.115020834 -0.048694484 -0.22821365 -0.018290386 0.15975493 0.011219285 0.060561802 0.17811881 -0.10148024 -0.018307667 0.11151123 0.105599344 -0.013402869 0.09865766 -0.14388344 0.04576783
好 -0.102696665 -0.016095987 -0.080429845 -0.12815645 -0.014236373 -0.11465631 -0.10168396 0.105965205 0.00062295946 0.064908676 -0.016309693 0.087227836 -0.019093726 0.13456161 -0.18462853 0.013922477 0.037908647 0.037209973 0.060726438 -0.10649899 0.14623459 0.08980904 0.014404852 -0.23152843 -0.10962189 -0.08791898 -0.2564158 -0.07017499 0.025341861 -0.05410297 0.011368093 0.061658278 0.10988595 -0.21869236 0.020350747 -0.05598215 -0.23979212 -0.11152053 -0.08984845 0.07319334 0.12691921 -0.15192302 -0.09134974 -0.048690442 -0.21146992 -0.05221856 -0.22838752 0.0611081 -0.049607307 0.02140661 0.007407494 0.026834797 -0.20273611 -0.047791198 0.042804763 0.051481154 0.098508045 -0.24206997 0.10029009 0.06776764 -0.24116886 0.13577957 0.02076236 0.059567235 -9.680978e-05 -0.038946938 0.052363932 0.15894058 -0.043650378 -0.14344698 -0.07407701 -0.0040015443 0.1902169 0.074449405 -0.0023435033 -0.05497698 0.11476016 0.045939397 0.08576749 0.075668514 0.036328413 0.3449757 -0.093240075 0.09613748 0.10379761 -0.18773738 -0.033387877 -0.056380205 0.013028206 -0.18467775 0.15837945 0.074693516 0.185515 -0.16157803 0.1595601 0.017912926 0.06933635 -0.17148009 -0.05499321 0.016317632 0.122297965 -0.10466829 0.023122884 0.09227697 0.013835255 -0.027622227 0.13440055 -0.051407114 -0.054417096 -0.15401182 0.04906079 0.2387079 -0.03602844 0.061018243 -0.17612892 -0.076914504 -0.13247438 -0.1457424 -0.02612815 -0.21442261 0.111093566 0.17816232 -0.0704625 -0.06927943 0.1086394 -0.009568131 0.09453481 0.105427995 -0.080233335 0.123446964 -0.10732066 -0.026341796 -0.012038511 0.04644703 0.021954482 -0.15365955 0.1329775 -0.08027958 -0.10975662 -0.1875392 0.11588425 0.17135848 0.04274208 0.046134118 0.19079877 0.13097459 -0.050448664 0.27263376 -0.06739339 0.039371524 -0.020091018 0.11429783 -0.0602111 0.014244953 0.04313237 0.0811046 -0.103821844 0.1755033 -0.12423506 -0.032156702 0.038694598 -0.18704276 0.12063454 -0.052519694 -0.1524731 0.13864999 -0.11606144 0.09804629 0.047219582 0.0373175 0.1292886 -0.12530568 0.29614785 -0.1064347 0.060290895 0.15087123 -0.005639292 0.14631395 -0.13822813 0.043379378 -0.081229724 0.038300194 0.15385532 0.0069379197 -0.000957183 0.100321874 -0.077702485 -0.0003154592 0.038763873 0.059928805 0.049256194 -0.15208359 0.035834074 0.10377586 0.13498943 0.14045942 0.014702785 -0.118640825 -0.008044127 -0.1585631 -0.26593837 -0.041592598 -0.023172975 0.17274554 0.1326017 0.13582218 0.06276553 -0.03397936 0.105891354 -0.081422456 0.03470323 0.2230762 -0.20170893 0.2535177 -0.08986607 -0.05595924 -0.107989736 0.15225407 -0.18207859 0.25529462 -0.0055038254 0.11882551 -0.0650102 -0.14611667 -0.19026971 0.22696441 -0.014794891 0.07170788 -0.044349894 -0.19733705 0.10945658 0.28338182 -0.21388166 -0.009325827 0.083687685 -0.29854956 -0.17532188 -0.058414243 -0.14885922 -0.04084696 -0.098185636 0.051206864 0.13045685 0.115377784 0.016108872 0.122886345 0.083151534 -0.15274383 0.16465324 0.08664256 -0.1694365 -0.0136010265 -0.02678056 -0.1758022 0.0017409864 -0.084771246 0.08989508 0.10733899 -0.14995556 0.012979109 -0.078355074 0.09657921 0.18087888 -0.16422313 0.15312824 0.11746789 0.03683863 -0.1467461 0.05100262 -0.23232637 0.20545015 -0.22022824 -0.10502433 -0.0707676 -0.16433834 -0.1711745 0.05157715 -0.11607436 0.22747497 -0.020860186 0.0482939 0.05218052 -0.1214911 -0.09054239 0.16454035 -0.06084553 -0.3221894 -0.025051836 0.23025577 0.02023928 0.07806679 0.25061268 -0.14343217 -0.025071926 0.1567312 0.1562617 -0.014149512 0.13677725 -0.2004656 0.068086624
姐姐 -0.09668076 -0.016905738 -0.07923879 -0.123732455 -0.011226154 -0.10871008 -0.09611504 0.101879254 -0.00055406993 0.062312014 -0.014612205 0.08143935 -0.0191996 0.12642373 -0.17576975 0.012812068 0.03296906 0.031417135 0.05661026 -0.10211343 0.13809419 0.08548933 0.016375981 -0.22264591 -0.10618588 -0.08121485 -0.24272905 -0.0682956 0.02658951 -0.049910624 0.012578936 0.060935203 0.1040626 -0.20839526 0.020441115 -0.0565877 -0.23072049 -0.106233865 -0.084387556 0.06972244 0.12192779 -0.14109366 -0.086804405 -0.046520725 -0.20187174 -0.04934896 -0.21764793 0.058810532 -0.048848737 0.01908953 0.010730543 0.0275316 -0.19226414 -0.045271106 0.038902815 0.049133092 0.09427621 -0.2308552 0.09651039 0.06569793 -0.2307389 0.13051149 0.019759892 0.0547075 0.0016438767 -0.036357287 0.04883506 0.15306588 -0.0410797 -0.13781717 -0.06801858 -0.0048883394 0.18477304 0.07082735 0.000433139 -0.050840084 0.1073083 0.043873683 0.08370289 0.07247927 0.03325254 0.32823762 -0.08772594 0.09129195 0.10081197 -0.17969939 -0.031027872 -0.05132969 0.015208789 -0.17782547 0.15081884 0.06920604 0.17593941 -0.15139738 0.15074624 0.0175629 0.06742506 -0.16697848 -0.051540546 0.013905162 0.11483844 -0.1020039 0.023007898 0.08669155 0.014775168 -0.025701256 0.12967695 -0.04805752 -0.052096397 -0.14506154 0.049123473 0.22880034 -0.03430906 0.055476636 -0.1661822 -0.072082646 -0.124103874 -0.13936779 -0.025120256 -0.20590815 0.104132645 0.17109305 -0.065414466 -0.064005546 0.10411534 -0.010127153 0.09077114 0.10140144 -0.07797282 0.11462706 -0.10038046 -0.024053715 -0.009828306 0.04543257 0.020628301 -0.14710146 0.12554674 -0.075695604 -0.10458317 -0.17943037 0.11393658 0.16572548 0.03833152 0.044992633 0.18450719 0.1253726 -0.05090797 0.26074633 -0.064106554 0.038319323 -0.019458748 0.11033219 -0.05656852 0.01275073 0.04039413 0.077487804 -0.10002845 0.16691236 -0.11772997 -0.02988039 0.03843355 -0.1783586 0.11441575 -0.052543823 -0.14450163 0.12902912 -0.10991847 0.09221638 0.04619848 0.035756595 0.12146858 -0.117223576 0.27978197 -0.10081564 0.055295553 0.14347817 -0.0033226502 0.1375647 -0.13302165 0.04165188 -0.07625097 0.038644664 0.14573032 0.008134946 -0.0031101892 0.0957141 -0.07436891 3.717327e-05 0.039423972 0.057944942 0.046295527 -0.14671598 0.03709789 0.09971604 0.12989438 0.13198228 0.01311839 -0.11210989 -0.0108610885 -0.15168457 -0.2547862 -0.038215604 -0.02189231 0.1632986 0.12580551 0.12988071 0.060356073 -0.032022182 0.101571344 -0.07901447 0.034148324 0.21630628 -0.19064824 0.23872365 -0.087475225 -0.056249153 -0.10487588 0.14234039 -0.17266957 0.24338979 -0.0038117887 0.11367355 -0.061594933 -0.13796574 -0.1829371 0.21498053 -0.014105011 0.06653764 -0.040861513 -0.19081298 0.1029247 0.2685501 -0.20207052 -0.01149526 0.08161511 -0.28532147 -0.16495188 -0.057736356 -0.14091916 -0.041157894 -0.095520265 0.05147671 0.12502475 0.107750565 0.015370955 0.119158305 0.08074968 -0.1475951 0.15493679 0.082398295 -0.16190684 -0.013415846 -0.023928242 -0.16840182 0.0024020104 -0.08007047 0.086197525 0.09967235 -0.14423981 0.014552757 -0.07440845 0.09319247 0.17490874 -0.15638596 0.14604016 0.110885456 0.03201509 -0.13882099 0.047727853 -0.21950726 0.19790164 -0.20803057 -0.09941713 -0.065106355 -0.15501909 -0.16205586 0.048822567 -0.11250559 0.21427898 -0.019863704 0.045308635 0.051236432 -0.117075466 -0.08512037 0.1529142 -0.058048088 -0.30374572 -0.02276616 0.2205138 0.020624515 0.075189866 0.23877896 -0.13706237 -0.024102688 0.14737375 0.1477997 -0.01491334 0.13321705 -0.19005507 0.06636284
胖 -0.10236205 -0.015460148 -0.08255274 -0.12776235 -0.011499824 -0.114440955 -0.10302265 0.10627672 0.00073528144 0.06634688 -0.016719308 0.08603212 -0.020580662 0.13361362 -0.1842266 0.015698377 0.034474704 0.03656888 0.059669424 -0.1060414 0.1465056 0.09226575 0.015132734 -0.23382142 -0.10642905 -0.08627531 -0.2544581 -0.072031684 0.026965259 -0.052716605 0.012359326 0.060982123 0.1093087 -0.21745442 0.02071071 -0.057016764 -0.24140227 -0.11058892 -0.08862552 0.07377469 0.12615189 -0.1492957 -0.0904947 -0.04924364 -0.21257743 -0.05245024 -0.2248786 0.059391342 -0.050090026 0.0213871 0.008937404 0.027626703 -0.20564297 -0.046504043 0.042128585 0.052625425 0.09963532 -0.23917967 0.10207364 0.06930793 -0.2411124 0.13368638 0.02005324 0.060393948 -0.001507859 -0.039623074 0.05332928 0.16072227 -0.03978683 -0.14500661 -0.07352277 -0.0018995433 0.19289313 0.07348899 -0.00040358058 -0.05327334 0.111982815 0.04559052 0.08827998 0.07636983 0.034665786 0.3420558 -0.091244996 0.09534462 0.105409876 -0.18912071 -0.030167025 -0.054152668 0.014251104 -0.18590638 0.15699284 0.07166096 0.18522328 -0.15914784 0.15716481 0.01770274 0.069349885 -0.17451213 -0.05690121 0.015467755 0.119394824 -0.1066343 0.022968844 0.09216397 0.012482888 -0.028186994 0.13290313 -0.050002173 -0.055049293 -0.15413283 0.050868947 0.23898134 -0.036882006 0.06257893 -0.17270444 -0.07880147 -0.12994668 -0.1471331 -0.023953317 -0.21736284 0.110456236 0.17946513 -0.06957718 -0.067768 0.10968478 -0.008505757 0.09212018 0.106266394 -0.07952691 0.11992235 -0.10539783 -0.027253402 -0.011105942 0.043798372 0.021857852 -0.15382013 0.13155165 -0.0767049 -0.10949178 -0.18659106 0.118165985 0.17258401 0.04266453 0.04800718 0.19374159 0.12778567 -0.05010787 0.26957002 -0.06694396 0.039026342 -0.02011854 0.11415019 -0.05848575 0.015113867 0.04257937 0.082613766 -0.105071396 0.17380351 -0.12409528 -0.028778644 0.039129194 -0.18887447 0.11871136 -0.05270665 -0.15254414 0.13603173 -0.1150241 0.09671135 0.047301356 0.036437426 0.12774245 -0.12509838 0.29654714 -0.10565692 0.060965385 0.1528275 -0.0037592612 0.14561567 -0.13876802 0.043985482 -0.0808146 0.037587687 0.15340224 0.010642139 -0.0038136682 0.10044818 -0.07684205 -0.0022471698 0.041666765 0.06144063 0.048317496 -0.15020336 0.036175665 0.10550531 0.13416886 0.13830486 0.015295745 -0.11785055 -0.011415496 -0.15463588 -0.26483804 -0.03956741 -0.024018558 0.173666 0.13030155 0.13446172 0.06504563 -0.034058556 0.10683482 -0.082093954 0.03351715 0.22446388 -0.19963974 0.25234956 -0.08959683 -0.05843535 -0.10880281 0.15036246 -0.18313324 0.2514712 -0.006538232 0.118256055 -0.060935263 -0.14317217 -0.18923822 0.22585207 -0.014698854 0.0690472 -0.04349601 -0.19881268 0.10861174 0.28125224 -0.21094556 -0.0128767295 0.08503273 -0.29847336 -0.17453694 -0.056624614 -0.14734563 -0.040431134 -0.100038365 0.050237536 0.132848 0.1147634 0.01702695 0.1234196 0.083248764 -0.15139617 0.16405936 0.08725576 -0.1685572 -0.016610313 -0.025160493 -0.17392705 0.0045175795 -0.08336658 0.088214606 0.102946244 -0.14881419 0.015334081 -0.07633086 0.09805169 0.18087132 -0.16352311 0.15216988 0.118178144 0.03448287 -0.1470097 0.05048981 -0.23138747 0.20554407 -0.21992671 -0.10251765 -0.068573944 -0.16356964 -0.16866137 0.050563768 -0.11742596 0.2252028 -0.02140716 0.04933072 0.052125435 -0.11989214 -0.08853625 0.16429326 -0.061174158 -0.32119983 -0.024741948 0.22969033 0.01950276 0.07792926 0.24973239 -0.14257008 -0.0261624 0.15536925 0.15621375 -0.014758613 0.14007671 -0.19867587 0.069739714
