220 300
拍 -0.0014478895 0.00013353227 0.000581451 -0.0009563049 0.00066078146 -0.0004029567 -0.00056771585 0.0014429294 0.0012721693 -0.00026215336 0.00046129926 0.0005391227 -0.00084410043 0.0018224962 -0.0009062373 -0.0014212698 -2.44181e-06 0.0009766091 -0.0006649898 -0.000665394 -0.0004809308 0.0009317051 0.0018209793 -0.001052203 -0.0004844863 -0.0011973478 0.000327523 0.0021184878 -0.0011700244 -0.0019711962 0.0003287011 0.0018832393 0.0013340722 4.862438e-05 -0.00166746 0.00064985943 -0.0014918641 -0.0012228098 0.00075615925 -0.0013499544 0.00075158756 -0.0020029193 -0.0010641846 -0.0018102778 -0.00031850106 -5.366178e-05 -0.0011934711 0.0005979699 -0.0010490835 -0.0012894309 -0.0018030605 0.0012060514 -0.0012451856 -0.0009911495 -2.8144505e-05 -0.0021313597 -0.00093030254 0.00024539753 0.0011002109 -0.0009521731 -0.0018542368 0.0020134184 0.000503536 -0.00018368317 0.0012458877 -0.00011826162 -0.0010835008 0.0018369003 2.3481645e-05 0.00042873583 0.00018402218 -0.0006532864 -0.00053727295 -0.0014020603 0.0015749478 0.0011770356 0.0018845114 -0.00020143119 0.0014863181 0.00083667063 0.0008564022 0.0026551823 0.00041278708 -0.0014174075 0.0005134957 -0.00060219207 -0.00015364819 0.0010543118 -0.00040640566 -0.0011711303 -0.0010673417 -0.0010624586 0.0016046546 -0.0023341419 0.0003003434 -0.0009973801 0.0009911888 0.000103164195 -0.0017927479 -0.0012119971 0.00068634487 -0.00045830614 0.001636313 -0.0012644763 -0.0012636166 -0.0010296939 0.0011679244 -0.0010737043 0.0018151666 0.00014151954 5.3345928e-05 -0.0012630611 -0.0011768187 0.00088830566 -0.0007970706 0.00018108431 0.0012957306 -0.0012146997 -0.0017536156 -9.877076e-05 -0.00079300185 -0.00039957807 -0.0009629939 -0.0021834716 -0.00035308517 -0.00029312508 0.0016242488 -0.00011477842 0.0012844164 0.0017132693 -0.001534809 -0.0016574551 -0.0019755648 -0.0016183358 -0.0007429334 -0.00039707028 0.0010027781 -0.0012350605 0.0011707477 0.00046318103 0.00013077169 0.0013606106 0.001517046 0.00041461468 0.00044297497 0.0013391704 0.0007225068 0.00032596863 -0.00031080682 0.00056933606 -0.001915684 0.0007991445 -0.00205283 -0.00038151545 0.0019974464 0.0004833813 0.0008997847 0.00070960197 -0.0012242784 0.0004843448 0.0013877354 0.00061852863 -0.0010684442 0.0010923519 -0.0010323734 0.0008628139 0.0010359054 -0.00058994937 0.0017365307 -0.0012354966 -0.0007214254 0.0008881255 0.0022046708 -0.0023259965 -0.0007305187 -0.0008850646 0.0006923137 0.0014139425 5.925872e-05 0.00058275746 -0.0015522284 0.0013287027 0.0009829605 0.0015393259 0.00034998398 0.002156831 0.00017099123 -0.0006831485 -0.00020304571 -0.0022460914 -0.00033911288 0.0015860703 -0.0015120698 -0.00053645414 0.0003561239 0.0006491868 -3.6492896e-05 -0.00052059477 -0.0011883852 -4.673457e-05 0.00082907034 0.0015243781 -0.00092851574 -0.0012583098 0.0015494968 -0.001112475 -0.0006450116 -0.00036918183 -5.1731295e-05 -0.001104912 -0.0003644368 -0.0008330421 0.00045255167 -4.249501e-05 -0.00036958157 0.0012370431 0.00070624106 0.00074996636 -0.00053399144 0.00017828077 0.0017354501 -0.0014073183 0.001360758 0.00053103064 -0.00053002546 -0.00019960794 0.0015073882 -0.00049612654 0.001712253 3.1987925e-06 -0.00019227916 -0.00069131516 -0.00039122056 -0.00045871656 -0.0004199068 0.00030428183 -0.0020698465 -0.0006696371 -0.0012909966 -0.0020215504 -1.4078464e-05 -0.00073738233 -0.00047673457 0.000512803 0.001145258 0.00011435263 0.0004101131 -0.0021706733 1.6864908e-05 -0.00070750504 -0.0014720217 -0.0012498708 0.0021245286 -0.0023479662 -0.00097139954 -0.0018849516 0.0016185917 -0.0005380684 -0.0011896254 -0.001533447 7.0761e-06 0.0006294154 2.1681935e-06 0.0004815627 0.00053283345 0.00036314203 -0.0012287659 0.00033983833 -0.0019750516 -0.0006441458 -0.0012427124 -0.0023215844 -0.0003989241 -0.0013302384 -0.001280809 -0.0015447253 -0.00029023332 0.00024231689 -0.0010554763 -0.0010374621 -0.0011784539 -0.0004524576 -0.00013552878 -0.00064613007 0.0016612523 -1.5946767e-05 -0.0011136581 0.0005819953 0.0007706161 -0.0014915338 0.0006064729 -0.00014093246 -0.0014907671 0.0008092679 -0.0002379817 0.0008854076 -0.0004823959 -0.00069305196 0.0005894482 0.0021395006
看 -0.0002946912 -0.0010222951 0.0015598128 -0.00094608753 -0.0010136449 -0.0009610234 -0.001638264 -0.0012832457 0.0011362282 -0.00075725635 0.00065700174 -0.0010256951 0.0013515865 -0.0010218763 -0.0016681189 -1.3635265e-06 0.0015524402 -0.0013734305 0.0011948701 -0.000671491 0.00053857866 0.0011462126 -0.0010019467 -0.0017902836 0.0008692969 0.00010583727 -0.002067427 -0.0004766317 0.00046306988 -0.0014643465 -0.0013496797 0.0003423342 0.0008533611 -0.0013910347 -0.00045824793 -0.0009997586 -0.0003949688 7.499853e-05 0.00059282454 -0.00013047639 -0.001561151 -0.0019225396 -0.0010898716 -0.0013146802 -0.00031103333 -0.0012736291 -0.0012816343 6.336067e-05 0.0008882214 0.00125496 -0.0014255425 0.0018667792 -0.0008448792 -0.0010390191 0.00030751518 -0.000144172 -0.0001739752 -0.00079005706 0.000769897 -0.0016561055 -0.0013946901 -0.0006833564 -0.0002961428 0.0011932704 0.00044143683 -0.002013562 0.0013948221 0.0013510861 0.00043267568 -0.00078978675 -0.0013025728 0.000980395 0.001553504 0.000113316615 0.001360884 -0.0002162902 0.0016949974 0.0004230138 0.0011018262 -0.0012286623 -0.001021715 0.0006490961 -0.0016973184 0.00027184153 -0.0004188952 0.000771489 0.0011901829 0.0015134434 -0.00087560236 0.0004224863 0.0008269774 0.0013746794 0.00043132063 -0.002200415 0.000875413 0.0013032346 -0.0005554799 -0.0013030649 -0.0005704275 7.290418e-05 0.001603678 0.0014421026 -0.0008381844 -0.0014069746 -0.0015445129 -0.0008127282 -0.0011059693 0.00058800785 0.0010378672 -0.0009315678 -0.00032956403 0.0013355088 -0.00064162415 -0.00030994925 -0.0010370434 -9.4413066e-05 0.00014051422 0.00067967863 0.00027904313 -0.0012234946 0.00044204152 0.0010498284 -0.00052167603 -0.0004101958 0.0011945004 -0.00045626902 -0.0005577201 0.00096437277 -0.000609317 -0.0013696584 -0.0016499631 8.480706e-05 0.00073026767 -0.0017361755 -0.0012234594 0.0011898819 0.0009478916 0.00027147165 0.00061468943 -0.0017904147 0.0010567417 0.0013219236 0.0006418857 -0.0005644 5.6871308e-05 -8.3853796e-05 9.5545875e-05 0.001579552 0.00039975127 0.001058736 -0.0017872655 0.0009686814 -0.0007739619 0.0003136498 0.0017317254 0.00046721232 -0.0009949423 6.641765e-05 -0.0013991073 -0.0004331013 0.0016530043 0.00062206486 -0.0013036289 0.0008006157 -0.0012097346 -0.0010658499 -0.001490954 0.0013415084 -0.0014830496 -0.00067914394 -2.4476565e-05 0.00056405866 0.0015269952 -0.00014706208 -0.0016752699 -0.000510163 -0.0016026695 -0.0007717773 -9.249751e-05 -0.0013343173 0.00010347706 -0.00097067334 0.0012413395 0.0016926446 0.00065313035 -0.00068556616 -0.00022740582 0.0011067482 0.00029674967 -0.0014125714 0.0016529828 0.00031057096 0.0013836483 -0.0008078057 -0.00092753046 0.0008101236 -0.00041230975 0.0012571377 -0.0014461876 0.0013681132 -0.00047430568 0.00067879667 0.0009671784 0.00071321503 0.0015539294 4.1740594e-05 0.00039841316 -0.0018331088 0.0015121405 -0.0003947768 0.0017047189 0.0014660954 -0.00057673524 0.00028858817 0.0007056029 -0.00044320853 -0.00036715542 0.0010574172 0.000430621 0.000369754 8.536758e-05 -8.2887214e-05 0.0016252195 0.00059638737 -0.00094470277 0.0005370159 -0.0003201811 -0.0011516578 0.0019180473 0.00091614516 0.0017634131 -0.0009789511 -0.00084587873 -0.001137483 -4.7838912e-05 -0.00073423056 0.0007083274 0.0010246965 -0.0012850586 0.001252049 0.0010927588 -0.00066897494 -0.00054705737 0.0017442692 -0.00065837515 -0.0005628989 0.00042725095 0.00045670336 -0.00086754473 0.0009870547 0.00052659947 -0.0010340782 0.0015981602 -0.00059839606 0.0006957986 -0.001233734 -0.00071913656 -0.00049241405 0.0014882385 -0.0013260965 0.0011234772 0.0018622063 -0.001426723 4.718557e-06 -0.0009551371 0.00031004514 0.0003935912 -0.00059082935 0.00095657783 -0.0012446202 -0.0007736565 -0.0021099977 -0.00086089084 -0.0013188319 -0.00052963826 0.0006397923 0.0017223123 -0.00041876 -0.00084280793 -0.0010970929 -0.0009805657 -0.00023526637 0.0005254589 -0.00069753313 0.00040946275 -0.0005750585 -0.0021727677 0.00016996155 0.0017955095 -0.00038341913 0.001157948 0.0014504576 -0.000363318 -0.0006882016 7.433084e-05 0.0009881136 6.037456e-05 0.0016010706 -0.0011971942 -0.0011449461
小 -0.00020181912 -0.0013914667 0.0008704628 -0.0005717653 0.0012698025 -0.0015101713 0.00016552683 -0.001467019 0.0015945261 0.00077963714 0.0017258987 0.00071526424 0.0015402779 -0.0003914209 -8.3922285e-05 -0.00045321826 0.00031442524 0.00062413985 -0.00088211073 -0.0008202484 -0.00029627516 -3.6195863e-05 0.0019053669 -0.0012346305 -0.00032309952 -0.00037080163 0.0010824535 0.0014598664 -0.0015129315 -0.0017902342 0.0013500213 0.00030235303 -0.0007356167 0.0012799724 0.0008874873 0.0010890004 -0.0018175783 -0.00041925695 -0.001775039 0.0017273325 0.0012097774 -0.00095147564 0.0003455964 0.00030842904 -0.0013850329 0.0013816196 0.0009763124 -0.0011419419 0.0010472481 -0.0014925014 0.0008757285 0.0017311455 0.00047780058 0.00039471927 0.00069633493 0.0005803864 -0.0011875011 -0.001259474 0.0008046072 -0.00045993947 -0.0009466244 0.0018058249 0.00026457122 -0.0008539327 0.0021124205 0.00051549694 0.0013721164 0.0003456369 -0.0011872936 0.0006218253 -2.9097697e-05 0.0005480842 -0.00028158195 0.00080271054 0.00090146903 0.0012935554 0.00016995457 -0.0015523395 5.5524004e-05 -0.00070287735 0.001597181 0.0014793893 0.0006153398 -0.00014265932 -0.0015808046 0.0002479558 -0.0006111279 -0.0006374524 -0.0013805156 0.0009278602 0.00020065822 -0.0013355132 0.0016333637 0.00070222694 -0.0007929048 0.0009641025 -0.00036668382 -0.0004135006 0.00096438226 -0.00045268537 0.0011238451 0.0011610328 0.00038093075 -2.2260045e-05 -0.00016360794 0.00166076 -0.00042653398 0.00030359032 -0.0012427677 0.00059281936 0.00042254408 -0.0003977568 0.0010331105 0.0015226908 0.001356674 0.00021746241 3.5001736e-05 -0.00031940007 -0.001747069 -4.1449122e-05 -0.00030486446 0.0011784454 0.0005028281 0.0006462989 -0.0014201584 0.0010335644 -0.00015123552 9.370032e-05 0.0011892848 0.00072558515 -0.0015127491 0.00021183446 -0.00010349511 -0.0010495397 0.00021808877 -0.0011002832 -0.00048067464 -0.0012612611 -0.0011436819 -1.4392268e-05 -2.7590808e-05 0.0011728314 0.0008934376 -0.0012648897 -0.00077390793 -0.00060374517 0.0005712227 0.0004787176 -0.00025854356 -0.00028350728 -0.0017608824 -0.00053333456 -0.00084960734 -0.0006901892 -0.00015425772 -0.0007006445 0.0015697032 0.00042641218 0.0010584765 -0.00084945315 0.0017282717 -0.0016009604 -0.00048819627 -0.00039858892 0.0001387906 0.00094126613 9.692033e-05 0.00111781 0.0005297404 0.0003804052 7.3704075e-05 0.00068913936 -0.0010107465 -0.0010248335 -0.0017138439 0.00022694757 0.00079371856 0.0006854149 0.00078114285 -0.0008493961 -0.0018463463 -0.00027006416 0.00156549 0.0005070249 -0.0014953135 0.0015257472 0.001391439 7.146411e-05 -0.00068012904 -0.0009942052 0.0009399035 0.0011483635 -0.0013789367 0.0016261452 0.00036759494 -0.0009833028 0.0013069845 -0.0014116024 0.00021826306 0.00045280994 0.00052820955 0.00010587805 -0.0016823759 -0.0013596937 0.0018223393 0.0007547336 0.0011530601 0.0011265829 -0.00030928824 -0.001584711 -0.0009833376 0.0016294888 0.00043344506 0.0011879525 -0.000461632 -0.0005698324 0.0011259858 0.000873515 -0.0018644888 0.0013342734 -0.00045438117 -0.00023159239 0.0011030486 -0.00010964716 -0.0014400925 -9.4405244e-05 0.001934866 0.0006109615 0.0003026694 -0.0013915285 -0.001445951 0.0019339161 -0.0008299925 -0.00075179397 -0.0007731547 0.0014167402 -0.0017363272 -0.0015727377 -3.9248793e-05 0.00041049952 -0.0007977735 -0.0016221654 0.00063291524 0.0018078609 0.0004136801 -0.001351084 -0.0005871333 -0.0016239516 0.00085968385 0.0011514202 0.0014479939 0.0016757923 0.00091998157 0.0004558333 -0.0008256373 2.3865064e-06 -0.0002477615 -0.0009411129 0.0009933528 8.2274295e-05 0.0014009408 0.0003508204 0.0011585214 -5.3205845e-06 0.0012956946 0.0011282788 2.6182948e-05 0.00020960787 -0.00024031334 -0.00039698958 0.0006486117 -0.0018771766 -0.00083500077 0.0011892663 -0.00090215734 -8.521457e-05 -0.00025578614 -0.001169158 0.00048961036 -0.0016693796 0.0007613683 -7.041097e-05 -0.0001089871 2.8608729e-05 -0.00080141134 -0.001300241 -0.00031069983 0.0005850682 -0.0009316795 0.0015686325 -0.0016340838 0.0006007272 -0.0008250724 -0.0009482873 -0.000724196 -0.0012327923 -0.00072878983 -0.00091148325 -0.0016677723 -0.00026357564
泣不成声 7.32176e-05 3.15366e-05 0.00037356117 -0.0016425678 -0.00069603854 -0.0024249982 -0.00054773386 -0.000920311 -0.0005657306 -0.0013569167 0.0017303434 -0.000848986 -0.00094620464 0.0010873965 -0.0011776371 -0.001142879 -0.0007635782 0.0016820589 0.00097074755 -1.9301831e-05 -9.4161194e-05 -0.00017336871 -9.244918e-05 -0.00095104816 0.00090277777 -0.0015239298 -0.0014081978 -0.0003925732 0.0014058347 1.346624e-06 -4.6954934e-05 -0.0007116345 0.00066922326 -0.0012968833 -0.00033695443 0.0012329171 -0.00051080785 -0.0014285101 0.0007751909 0.0016430992 0.00030682117 0.0011841482 -0.0010180454 -6.200876e-05 0.00051295955 0.0010293451 -0.0020424118 -0.0002550172 0.0006869259 0.0015787425 0.00048578763 0.0018080644 -0.0016189341 -7.270754e-05 0.0015371479 0.0009447726 -0.0016875286 0.00041275937 0.0006712838 0.0013949482 0.0009678597 -1.664367e-05 0.00049412483 -0.0010937095 0.0011194305 -0.0018368905 0.0003878856 0.0013340156 -0.0008895027 -0.00075056474 0.0009118088 0.0013373174 -0.001121153 -0.000411592 -0.001256336 -0.00028781028 0.00080077886 0.0012205904 -0.0014282963 -0.0007574111 -0.0015881856 0.0013257152 -0.0007193538 -0.0015333381 -0.0001068133 4.9479946e-05 8.514002e-06 -0.0015670351 -0.00021151364 -0.0005796485 0.0014690979 -0.00092678523 0.001616077 -0.0017356304 -0.0003561368 0.0011077701 -0.0008935458 -0.0002967471 -0.0015113583 -0.00014830792 0.00064502016 0.00051494973 -0.00020325808 0.00016659767 0.0015658173 0.0004398033 0.0012706013 -0.0018016691 9.229551e-05 -0.0013786001 0.0003543069 -0.00130794 -0.00092025165 -0.00036319543 0.000425936 -0.0009802689 0.0007567677 0.00015744439 0.0005656148 -0.0002598862 -0.0010065279 0.0017651367 -0.0016897819 0.0012271202 -0.0014105247 0.0015348449 0.0010146901 -0.00034080274 5.2962812e-05 0.0015403834 -0.0013900978 0.00050713005 -0.0015554774 -0.00058958295 -0.0006354051 -0.0016866233 0.00043022094 -0.0012575539 0.000942867 -0.00027511496 0.0017179484 0.0010090237 -0.0010939098 0.0009667584 0.00024084578 0.000829029 0.0009632258 0.001078775 0.0016083138 -0.00017651761 -0.0003615933 -0.00075271743 -0.0009360435 0.0011710475 0.001447181 -0.0007562357 -0.00079674006 -0.00022619472 0.0010333979 -0.001088927 0.00088862696 -0.0005476204 0.00079702836 -0.00049990794 -0.002149009 0.0019803757 -0.0010231114 0.00020938333 -0.0003074585 0.000108724205 0.0018154752 -0.00016882783 0.0014237954 -0.0004139466 0.000364004 0.00021135986 0.00026223646 0.0018105932 -4.1786465e-05 -0.0006576973 -0.0016977319 0.00023410929 0.0011491474 0.0013547237 0.00036240247 -0.00011119001 -0.0012832797 -0.00036992528 -2.4853467e-05 0.00095182756 -0.00081338454 -0.0014485933 -0.0008461997 -0.0014727459 -0.0010492484 0.0002918034 -4.368986e-05 -0.0006180638 -0.0014177371 -0.0019105738 -0.0010471909 0.0013978834 -0.0010333773 0.0005658482 -0.0006656709 0.00020038016 -0.0017673668 0.0005504268 -0.00048029752 -7.516809e-05 -0.0009042204 -0.0010176941 0.0003478543 -0.00046520817 -0.0012005122 0.000700992 0.0015441237 0.00032120082 -0.0008347992 0.001184604 0.0006603162 -0.0014376382 -0.0008266705 0.0013727992 0.0006004673 0.0003430537 0.00062959094 0.0017461462 0.00018175461 -0.00039149795 0.0015832726 0.0012019855 0.0007352564 0.0014496066 -0.001487915 0.0007793673 -0.0009083192 -0.00010086452 -0.00050010177 0.00116322 0.001042433 0.0015183692 -0.00019666688 -0.0011546536 0.00034042608 -0.0016828087 0.0006791014 -0.0013507335 -0.00038364963 -0.0007473954 -0.00082486315 0.0002763649 0.00055123377 0.000574163 -0.0005048545 0.0011283305 -0.0002938168 0.0004321616 0.0011464291 -0.00043191088 0.0004961223 -0.00017956612 0.00010029696 0.0010972568 0.00027518207 0.0005317712 0.0008545776 9.815389e-05 -0.00035060762 -0.00012973534 -0.0015311574 -0.0019370699 -0.00031449608 0.0012342709 -0.0012801798 0.00015961018 -0.00080127077 -0.0010756142 -0.0010187281 -0.0019158295 0.0002855436 6.4503234e-05 -0.0016928077 -0.0009467132 -0.00090647367 0.0012942782 -0.0012103439 -0.0014362872 -0.0011967015 -0.00035665635 -0.0010292156 0.0014987066 -0.0011514612 -0.000615531 0.00089707336 0.0004019545 0.0004915634 0.00032664632 -0.0015407446 0.00090692274
女朋友 -0.0006441734 -0.0006988154 0.00072037935 0.0006826187 -0.0006002168 -0.0017764588 0.0008593468 0.0005615162 0.00020022418 0.00096085825 0.00041879024 0.001313427 -0.0006176969 0.0010170414 0.0005482398 -0.00011259753 -0.0009626323 0.00071630976 -0.0003371811 0.0011609456 -0.001384375 0.0013499806 0.0013095847 -0.000730084 0.00044238122 -0.0016317854 -0.0017189846 0.0017295297 0.00065942475 -0.0010853674 -0.0012504897 0.00015221468 0.0012137688 0.00055177836 -0.00032443966 0.0005108238 -0.0006657901 0.00011604408 -0.0004685066 0.0016741753 -0.0005741293 -0.0008160751 -0.000601702 0.0005656161 -0.0012733801 -0.0013696069 0.00080529414 1.5810738e-05 0.0002692419 -0.001756968 0.0008292081 0.00050589925 0.0009828088 -0.0010425686 -0.00092709716 -0.00084548956 -0.0009781894 -0.001309063 0.0006564572 0.0012961898 -0.0018774867 0.0013733252 0.00010278031 0.0012238484 0.00062762556 -0.0005486727 -0.0011453622 -0.0009339763 0.0015141173 0.00032686116 0.0009280283 0.00067510334 0.0005709849 0.00090194173 -0.0011185936 0.00089362497 -0.0007275825 0.0011928445 -0.00018760457 -0.0017542411 0.0013742016 0.0004010668 -0.0016161822 0.0008119891 -0.0012818616 -0.00023825091 0.0008579308 0.0010368414 -0.00034694202 0.00047198395 0.0012134623 -0.0015518471 0.00010661484 -0.0020101336 0.00073672994 -0.0011869209 -7.33714e-05 -0.0006726563 -0.0016542197 -0.0008083343 -0.0010150335 0.001607813 0.0017209798 -0.00011589393 -0.0007390598 0.00091976643 -0.0011147646 -0.0011857928 0.0012044705 0.0015300093 -0.0017593313 -0.0012828731 -0.00035704926 -0.00034819258 0.00066410797 -0.00049189676 0.00029658285 0.0009796706 -8.1067765e-06 0.00034012715 0.0002266721 0.0013686048 -0.0004314565 -0.0008313016 -0.0003477507 -0.001106861 -0.00090174994 0.00093810505 0.0007870564 0.00050935516 -0.0011911326 -0.0016946686 0.00096711563 -0.000833712 -0.00012343081 -0.000759576 -0.0008487577 -0.0012306166 -0.00066250976 4.3178634e-06 -0.00033564278 0.0021218152 0.0018788208 0.00093329436 0.0011057728 -0.0013920247 0.0016105528 0.0004541742 -0.0008577977 0.0002690038 -0.0010995622 0.0020289142 0.00030108233 -0.0005904324 0.0020984947 -0.0011605266 0.000861292 0.00083624467 0.0007988446 0.0014946109 0.0012660591 0.00021253338 -0.0011588972 0.0009004618 -0.0019286828 0.0013399527 -0.0014615502 -0.00018396621 -0.00069301785 -0.0009670101 0.001610823 0.0006182283 0.0017832441 -0.0023655675 0.000288966 0.0009045029 0.0009443096 0.0012990264 -0.0018847466 -0.0010481651 -0.00087992876 -0.0016861595 -0.00070017873 -0.00051740784 -0.0015389465 0.00091707014 -0.00096270395 -0.000993546 0.0002680935 -0.00077862234 0.0008570486 -0.00067826186 0.0013813521 -0.0015138424 5.506857e-05 -2.6672406e-05 -0.00034641701 0.0010811897 0.0010827616 -0.001285273 -0.00012840281 0.00051840494 0.0012484322 -0.0011233072 -0.000784898 0.0013714719 0.0007000147 -0.001300996 -0.00083276373 -0.00016838436 0.001346447 0.00060036324 0.000496642 8.7773595e-05 -0.00043700976 0.00070757355 -0.00083960366 0.0017446955 -0.0019547523 -0.0003270411 -0.00049232924 0.0016082652 -0.0010242746 -0.0015020984 0.0016487056 -0.0010199883 0.0021597622 -0.0001304599 -0.0002621086 -0.0019354204 0.0012793437 0.00035059874 0.00022085039 -0.0014057647 0.00027610626 0.0006269104 -0.00196734 -0.002169557 -0.001647135 0.00019444464 -0.0018217607 0.00047593136 -0.0011166085 0.001609051 0.0001680696 -0.0016173022 0.00033473718 -0.00023141984 -0.0014452521 0.00074969605 0.0014377985 0.0012743457 -0.00091472315 -0.002101644 0.0005701361 0.0008885892 0.0010351266 0.0016453167 -0.0011523959 -0.0015067245 -0.0007994878 -0.000773366 -0.00067343365 1.8084322e-05 -0.0013174233 0.00096605485 -0.001338866 -0.00038851952 -0.0012208748 0.00027461952 0.0012570889 0.0003507888 0.000522167 -0.00012587936 0.00010053403 9.11903e-05 0.00012268173 0.0010334471 -8.984627e-06 0.0008546817 -0.0007836813 -0.00039359726 -0.002078996 0.00069796824 -7.322096e-05 -0.00091099116 -0.0017389619 -0.00040664693 0.00078970287 -0.00010211562 -0.0007977759 0.0018219929 4.5238532e-05 0.0007669874 0.0008928402 -0.0016643959 0.0012605354 -0.00069912354 -0.0015054648 -0.001008258
想 -0.0009287613 0.0010514249 -0.0006502601 -0.0010909382 -0.0012099921 -0.0011202228 0.00061381323 -0.0016359653 -0.000116330484 -0.0004280332 1.2527888e-05 0.0009652335 -0.00040391783 0.0002375888 -0.0010067609 0.0011222474 0.00010403859 -0.00013394585 0.0007933395 -0.0012820265 -0.0007083009 -0.0008841383 0.0009963053 -0.0016658999 0.00058320357 -0.0012150691 -0.0018986001 0.00084564416 -0.0015448894 -0.0018181603 0.0008921323 -0.00016184853 0.0002099287 -0.0017011485 -0.0015131345 0.0018804326 -0.00048459988 -0.00048304757 0.0006000605 0.00012946258 0.0010393402 -0.0005808254 -0.001580837 -0.0008761941 -0.00080827664 0.00049648614 -0.0013182415 -0.00080077635 -0.00062497106 -0.0008679482 0.0004879761 -0.0013104236 -0.0010085677 -0.0016570616 7.835259e-05 -0.0012282482 -0.001002615 0.0016375283 -0.0009331782 0.00073497597 -0.0017738561 -2.402802e-06 0.0005190676 0.00071497454 0.0006835051 -0.00044658806 -0.001653647 0.0009327181 0.00096983067 0.0013104116 -0.0008656715 0.001238581 0.0012930126 -0.0013113715 -0.0009393847 0.0011438307 0.00014749932 0.00010870647 0.0016126725 -0.0004946056 -0.0011306654 0.0007152801 -0.0008843404 0.0008449478 3.2242065e-07 0.00090686843 -0.00012197766 0.0016403429 -0.0013230514 -0.0007552609 0.0008095632 0.0010748487 0.0005792495 -0.0017688316 0.0018637656 0.00048624488 0.0012659963 0.0006631211 -0.0008317589 0.00027401024 5.824939e-05 -0.0012158452 0.001374803 -0.001514223 -9.537978e-06 0.0011338681 0.0013755155 -0.0018419365 -1.9267905e-05 -0.0011716743 0.00045247306 -0.0004735942 -0.00047607225 -0.000957417 -0.0004673259 -0.0004904316 -0.00030906772 -0.00057800964 8.650063e-05 0.0014788207 0.0005741408 0.0004982535 0.0009540831 -0.0016954542 -0.0006705842 0.0014537933 -0.0008267528 0.000552063 -0.0005040624 -0.0012506056 0.0011522233 -0.0013167708 0.00081175315 0.0013329623 -0.0011754978 -0.0012558752 0.0015559569 0.00066133554 -0.001160692 0.0010920808 -0.0005543605 0.00038697396 -0.0005708163 0.0013160483 0.0010531076 -0.00040152282 0.00022649823 -0.0009502134 0.0007896586 0.0010284005 6.902925e-05 -0.00026573107 0.0004818444 -0.00019182242 -0.0011600645 0.0010082895 0.001626299 -0.00033475348 -0.0017501512 0.0017643721 -0.001061592 -0.0003788753 0.0013295802 0.00076315686 -0.0010618323 0.001954446 0.0008110285 0.00096883485 -0.00096822146 -0.0009834974 -0.00025797437 0.0012413647 -0.0011052525 -0.0012773838 0.0011230352 -0.0011472199 -0.0009488742 0.0002567772 -0.001623234 -0.0010106936 -0.0006509105 -0.001025077 0.001418545 0.0016170252 -0.0014436904 -0.00064227416 0.00075144914 -0.0013440492 -0.0014220998 0.00010961378 0.0010435275 -0.00019553748 -0.0013905191 0.0015148442 0.0015800194 -0.00092907564 -0.0009679382 2.398157e-07 0.0003548348 0.0011663518 0.0004918104 -0.0014971782 0.00034810032 -0.00017949527 -0.0013494884 -0.0012915935 -0.00011887684 0.0009953637 -0.0016924586 0.0005700559 0.0011437787 0.0010083306 -0.0015726743 0.00015903956 0.0011477089 -0.0008485406 -0.00110117 0.00020297972 0.0007327358 -0.00040969043 -0.0016162149 0.0011723533 0.0010172486 0.00047620368 0.00037768277 0.00041917842 -0.0002908372 0.0013018262 -0.00097356545 -0.00048753887 0.00015696716 0.0018239111 -0.00076523854 0.0011473101 -0.0007571107 -0.00028614473 -0.0017942024 -0.0010841584 -0.0009796015 0.0012551737 -0.00011910378 0.0014152878 -0.0010988008 0.000564195 0.0010742029 -0.00018730917 -0.0011654679 0.0010230052 -0.001558814 0.0001571937 -0.0015235267 0.0010697873 0.00035470622 -0.001160318 7.5704906e-05 0.0002320856 -0.00021891753 0.0012612344 0.0010092921 -0.0010739835 0.0019418884 0.0016406125 0.000785852 -0.001485956 0.001526625 0.0014574539 -0.0003330484 -0.00057733967 0.0011975449 -0.0019108565 0.0016368307 0.0005228306 -0.0009981414 6.992196e-05 -0.0009608363 -0.00012565522 -0.0009742034 0.00010322054 -0.000115165065 0.00032152256 -0.0007388655 0.0014789319 0.0007873491 -0.0013785593 0.0015456866 0.001400427 0.00017035665 -0.0014542019 0.0015062492 -0.00050124107 -0.0016625798 9.499407e-05 -0.0008700164 -0.0014041786 0.00091344764 0.000112055655 0.0007693872 0.0014774419 -0.0015413014 0.00074206444
呲牙 -0.00092125253 -0.00037748803 -0.00075801875 0.0006254628 0.0015157759 0.00020451368 -0.00042698893 -0.00013143076 -0.0012400051 -0.00073401956 0.0010883082 -0.0012529314 -0.00080712343 -0.0007860111 -0.0015767209 -0.00033344553 0.0009787 -0.00077041634 0.0005187224 0.00083876896 0.0015568229 0.0008974567 -0.0007570686 -0.0010148862 -0.00018273876 0.00031581795 -0.0015960105 0.0011417529 0.0015228832 -0.00021910555 0.0011694115 -0.00092666596 0.00015941619 0.0016112429 -0.0014636699 -0.00041439245 -0.001694007 3.5591933e-05 -0.0012685091 0.0012471378 0.0005419246 -8.68793e-05 0.0004127424 -0.001573663 0.0006803689 -0.0013292773 -0.0015069027 0.0009941452 0.00018364085 -0.00014445065 -0.00034653876 0.0012160292 -0.0011620736 -0.0009707057 -0.000491591 -0.0012236852 0.0001776222 -0.0010200981 0.0011599642 0.0013188068 -0.0011516573 0.00048655597 -0.0009868378 -0.0016335957 0.00055650907 0.00078982033 0.0012493383 -0.00025182046 0.0012804272 -0.0012172979 -0.0005236309 0.0014821737 0.0016608487 -0.00010812469 0.001522986 -0.000121320896 7.1026593e-06 -7.657758e-05 0.0018165259 -0.00033635294 0.0001333791 0.00018357016 -0.00094214984 -0.00022711614 0.0006785256 -0.0011093448 0.001301822 -0.0005921998 -0.0012366659 0.0013946582 -0.00010926714 -0.0016973054 -0.00033394326 -0.0012714777 7.723839e-05 -0.00027700324 -0.0014368873 -0.0013444604 -0.0003356933 0.0012170317 -0.00094379287 0.0015471582 -0.0002848898 -0.00035023844 -0.00050839485 -0.0010928506 0.0015266839 0.00047083324 7.974693e-05 0.0005986602 0.0014225428 -0.0002358872 -0.0012950978 0.0001128949 -0.00091723964 0.0005868377 0.00054012425 -0.0015136995 0.0014080182 0.0008444202 0.0012482709 0.00044477292 0.0009712842 0.00011144293 -0.0005635016 0.00065121776 0.0011294406 0.0012489341 0.00090370124 -0.0012179868 -0.00076368934 -0.00025254762 -0.0009301247 -0.00023571483 0.00134493 -0.00047275753 0.0015519997 -0.0002605026 0.00050505914 0.00038987515 -0.00076361396 5.3269716e-05 0.0013032709 0.0016773117 0.0007497244 0.0012058709 0.0002520346 -0.0007677006 0.0013626707 -0.0003639715 5.9703663e-05 0.0018353395 0.0013177097 -0.0009356348 0.0019104759 -0.0004110756 -0.0015424732 0.0010909203 0.0015170518 0.0010956904 -0.00016982804 0.00091567344 0.0009561227 -0.0011440271 -0.00019815637 0.0009330996 -0.00029667182 -0.0004709307 0.0008757918 0.0014371049 -1.0687732e-05 -0.0003555015 -0.00091215456 3.9205726e-05 -0.00030621377 0.00017285012 -0.0008594518 6.4778455e-05 -0.0008832853 0.00020232127 -0.0010528971 -0.00017322334 0.0012834532 0.0015384734 0.00020008939 0.0016896218 0.0004278057 0.0013668039 0.0014134368 0.0011065712 0.0012456629 -0.00020598262 -0.0006546103 -0.0008510045 0.0014839118 -0.0003551184 0.0002925026 0.0014179798 -0.0009180516 -0.0012044829 -0.00035951062 0.0016662704 0.00065524655 0.00023561972 2.1205198e-05 -0.00068087777 0.00032403084 -0.0007923218 0.0002630118 0.00083687284 0.00035963228 6.2348576e-05 -0.0005418884 3.711925e-05 -0.00055161177 0.0014118472 -0.0012380498 -0.00035422036 0.0005287587 -0.0012418557 -0.00042389074 0.000577757 0.0010729176 -0.00041801218 -0.0013274441 -1.1729594e-05 0.0017354361 0.00080538314 -0.00021031623 -0.0013284973 0.0016741669 0.0009298798 -0.0008488402 0.00024680162 0.0006163337 0.0014530529 -0.0018297747 0.00017537788 -0.00076449505 0.0004620243 -0.0018137827 -0.00065290503 0.0012721992 0.0014558742 -0.000158472 -0.0011304814 0.0015273184 0.0012876713 0.0013356309 0.0006932301 -0.0005959422 -0.0015349194 -0.00010150247 -0.00077730854 -0.00065454555 0.000517988 0.00017301133 -0.0014900196 -0.00022171186 0.00067727227 -0.0011515282 0.0014896963 -0.0008832172 -0.00032699213 0.0012390275 0.0012258443 0.0010941138 0.0012614907 0.00083803316 -0.0017137992 0.00041602104 -0.002018615 -0.0018723258 -0.00072398904 -0.0007794348 -0.00083489204 0.00076977414 -0.0013672026 0.00085482723 -0.00035528597 0.0009942809 0.0016936265 -0.0007726409 -5.8990104e-06 0.0011556599 -0.0016321247 -0.0016203222 0.000903991 -0.00070569926 0.0015138752 -0.00045379173 0.0013973591 -0.0010554917 -0.000815445 0.00014770159 0.00077086664 0.0008112004 -0.0001670832 0.00015577863 9.703243e-05
没有 0.0011021156 0.0009261127 -0.00023972103 0.0010745074 0.0010916062 -0.0013612624 -9.731078e-05 5.0617196e-05 -0.00090510695 -0.0006253214 -0.00020300226 0.0011734538 0.0015884957 0.0017037374 0.0008529038 -0.0009680641 -0.0011629268 -0.0012230858 -0.0013962953 0.0013337787 0.0012702548 0.00018696074 0.0020432675 -0.0013643559 0.0013428626 -0.00059373694 -0.0016209764 0.00087217276 -0.001049083 -0.0017329992 0.0006559645 0.0008147576 -0.0010528206 9.675611e-05 -0.0017605505 0.0013744583 -0.00063330197 0.0006896232 -0.00011768135 -0.00088816107 0.0005948901 -0.001004735 -0.00026065035 0.0005624154 0.0010780027 0.000725211 -0.0010210352 -0.0010074774 0.0017879998 -0.0012975475 0.0008798952 0.0006551814 -0.0016994014 -0.0014244824 0.0011521836 9.3185496e-05 3.562882e-05 0.00048729527 -0.00013900975 0.0007324668 0.0011322412 0.0016464082 0.00035640202 -0.0010206951 0.001664362 -0.00066123053 0.00042626038 0.0018413878 -0.00080653816 -0.0013555633 0.0016737398 -0.0014735252 -0.00013385822 -0.0013567097 0.0012331085 0.001246378 0.0020517707 -2.8510854e-05 -0.001207975 -0.0014459626 -0.00051653304 0.0018511359 0.00016115437 0.00034117553 -0.0011756822 -0.00034732473 -0.0015357943 0.000121186255 -0.0018138306 0.0008081568 -0.00034481904 0.0015079051 0.0007440801 -0.0016294895 0.0009890491 0.00030459504 0.0015247919 -0.00092660316 -0.0016805606 0.000673956 0.0019417761 0.0016266097 -0.00042950007 0.0006179524 0.0012469931 0.00021013865 -0.0010957556 -0.0013843923 0.0010499159 -0.00067340175 -0.0017304627 -0.00017282016 -0.0008413348 -0.0004346043 0.0018198979 -0.0010291814 0.0008228164 -0.00091800035 3.1528136e-05 -0.0010386177 -0.00019317 0.00049850764 -0.00014274065 0.00088137906 0.0013881497 0.0013939659 -0.00091904757 0.0005762864 -0.0012413276 0.00015440056 -0.00032825884 0.00036117012 -0.0010848027 -0.0005701051 0.0003637164 0.0015577613 0.0005969914 0.00044026593 0.0009779058 -0.0019313905 0.0016247259 -0.00019315306 0.0005693017 9.17652e-06 0.0010532344 0.0005505683 0.00019783984 -0.0013094269 -0.00021664436 -0.00013376118 0.00088071177 0.00015214362 -0.0010889051 0.00067810196 0.0021057562 0.00033810388 0.00071261474 0.0012710233 -0.0010228578 0.0016247266 -0.0004662705 -0.0005102453 0.00035515448 0.0012444559 -0.001022951 0.0011378797 -0.0016881515 0.00069488114 -0.0010636323 -0.00040484528 -0.0009188 5.8330592e-05 0.00045788393 -0.0018855447 -0.0008098366 0.0008629394 -0.00023579359 0.0006807553 0.0010207188 0.0014948644 -0.0002875938 0.00018494319 -7.1982635e-05 0.00033677736 0.000553315 -0.000276233 0.0007891599 -0.0017964764 -0.00081361743 -0.0011000858 0.0010918832 -0.00064147584 -0.0015595548 -0.0013048137 0.00069739454 0.0010479257 -0.0011378552 -0.0017827837 0.0005462985 -0.0010887388 4.6865363e-05 0.0013231022 0.0010000323 -0.0013186566 0.001861923 0.00020255844 -0.0005178128 0.0012184359 -0.0009778251 -0.0018029582 0.0013286567 0.0014380518 0.0011899299 0.0018102423 0.0002327424 0.0017143374 0.00076686277 0.0020901407 -0.001244707 -0.0013363905 0.001731504 0.00045840617 0.0006137193 -9.041616e-05 0.0016603135 0.0015358469 0.00035044792 0.0002468794 0.0015039212 -0.0018389579 -0.00013757421 0.00039306862 -0.0018969865 0.0015046521 0.0004228766 -0.00039325954 0.00042576125 -0.0017760248 -0.00047190324 -0.0005380525 -0.0010554494 -0.0016835115 -0.0017811919 0.00050449633 0.0019337104 -0.0013399303 0.0011625782 0.000913621 -0.00011507313 0.0002884793 -0.001524961 -0.0005774076 0.0015214509 0.00045277923 -0.0009999166 -0.0006093153 -0.0009081008 0.0014267808 -0.0012749003 -0.0011689194 -0.00016311323 -0.0002240556 -0.0002962675 -0.0016394 0.0005566112 -0.0017482575 -0.00010112168 -0.00042008597 -0.0014408024 -0.0016988375 0.00034561288 -0.001797024 0.0002778953 -0.0005831106 -0.0009830479 -0.0010427166 -6.266466e-06 -0.0011000981 -0.00036231783 -0.0018575648 0.0013421634 -0.00078580686 -0.0017531833 -0.0010167237 0.0001736313 0.0014492399 -0.00019251333 3.6636888e-05 0.00018796363 0.00042409834 0.0005282576 3.0041161e-05 -0.00037614882 0.00031177892 -0.00025870136 -0.0008288198 0.0011204161 -0.0012260028 -0.0010600603 0.0014637418
安排 0.0003122241 0.0015385094 -0.0012720485 -9.4978e-06 -0.00015203701 0.00019230112 0.0013874815 0.0011289881 3.2352244e-05 -0.00013033926 -0.0016102878 -0.00060446886 -7.527102e-05 0.0014149504 0.001128812 -0.0013862669 9.8211945e-05 0.00047303014 -3.899305e-05 0.0010655645 -0.0011495674 0.0011220784 0.0017175511 -8.808633e-05 0.0006327113 0.00029991 -0.0013681503 0.0012252957 -0.0008808742 -0.00081662583 0.0016419076 -0.0010253846 -0.0014418162 0.000700517 -0.0010260652 -0.00038267914 -0.00038636386 -0.00018112245 0.0003409464 -0.00018131458 -0.0008480621 -0.00023621286 -0.0014395257 -0.0015059739 -0.00094919093 0.0016893068 -0.0014595476 -9.2148795e-05 -0.0003954176 -0.00079996925 -0.00053808646 0.001346622 -0.0003762418 0.0006782499 0.0005684309 -0.0010875019 -0.0010575119 -0.00058809837 -0.0009997047 -0.001280664 -0.0015596522 0.0017671469 -0.0011153782 -0.00089613214 0.0012653664 -0.0013798033 -0.00089415757 0.0006367004 0.001327976 0.000955065 -0.0014296466 0.00030165774 -0.0013801417 -0.0010726213 0.00096235494 0.00017018538 6.847127e-05 -0.0015585131 0.00083365594 0.00041075546 0.00028032679 0.0019523727 0.0003338494 -0.00026246655 -0.00033307847 0.0008510968 -0.00076213357 0.0014258773 -0.0010196153 0.0012523928 -0.0004167858 -0.0013168954 0.0013974857 0.0007905855 0.0007367853 -0.0014782499 -0.0007821145 -0.0015134234 -0.0017025933 0.00085468264 -0.0008948444 0.00017515697 0.00093461736 -0.00064906396 6.934098e-05 0.00061946234 0.0017196118 -0.0009575558 -0.000983073 0.00069676054 0.0011556228 -0.00029688596 0.0014215687 0.0012752707 -0.0010051791 -0.0013803194 -0.00039392858 0.00015514836 -0.0013990504 -0.0016686472 0.0015008172 0.00059390004 -0.0008842942 -0.0010221566 -0.0016764136 0.0003840748 0.00080402783 0.001085076 0.0015602126 -0.00059434347 0.0006981447 0.0012715677 0.0014009259 0.00068154704 0.00022566224 -0.00045770043 -0.0006146625 -0.0013133982 0.00077303615 -5.645584e-05 -0.00071981986 0.00040608732 0.0008665363 0.00048155457 0.0015167015 0.00093562633 0.0008233979 -0.0016069267 0.0015303462 -0.00015560062 -0.0017115137 3.1055864e-05 0.0009281868 0.00028864524 0.0010498636 -0.0006804723 -0.0007307672 -0.00023454778 -0.0013711312 0.0015254802 0.0012853859 0.00031593128 -0.00056137255 -0.0009709816 -0.0010121788 0.00024888344 -0.0009148088 -0.0005646463 -0.0014311188 0.00088338926 -0.0009623068 0.00085493765 0.00023205945 -0.00020533733 -0.00025660018 -0.001303179 -0.0003775008 0.00048240236 -0.0003736156 -0.001204614 0.0005452908 -0.0017251871 0.00077666866 -0.00040156915 -0.00013180483 0.00037826688 -0.00037517594 0.0010258893 0.00089247833 -0.00087405764 0.0004717643 -0.0012093461 0.00031297468 0.0007273784 0.0012387068 -0.0010415751 -0.0013687374 1.9591324e-05 0.0007898175 -0.00059462024 -0.000583808 0.001619725 -0.0017404235 0.00021372718 0.0013708988 -0.001339792 -0.0007151219 0.00026266545 0.0006726658 0.0009488939 0.0006939856 -0.00022056274 0.0008275683 -0.00025160654 0.0010449566 -0.0014457568 0.0016405582 -0.0011961755 0.0013805511 -0.0006780956 0.0013448488 0.0015028347 -0.0015272256 0.001283803 -0.0014800626 -0.00029346216 0.0004956763 0.00019137525 -0.000944698 0.00012924944 0.0010937324 2.1320153e-05 6.0327966e-07 0.0015306635 -0.0005488608 -0.0006471405 0.0006797856 0.0006971669 -0.0007032016 -0.0017668752 -0.00045250866 -0.0010269053 0.0011138879 0.00082895556 -0.0003176056 0.0011713679 0.0006611575 -0.0011182242 0.0012992031 0.001027104 -0.0015288957 0.0012583213 -4.1539886e-05 0.00086728553 0.0010729204 -0.0009654018 -0.0006564707 0.0010523942 0.0009738603 0.00025402807 0.00041605553 -0.0009570838 -0.0015070552 0.0011393676 0.0009072789 -0.0016974943 0.0011633894 -0.00076976424 0.00016737122 -8.347248e-07 -0.001282426 -0.001040275 0.0012954148 -0.0016614733 -6.903833e-05 -0.00061671116 0.0016037156 -0.0015868904 -0.00027381312 -0.0002725042 -0.0010623409 -0.0011718194 -0.0011218135 -0.0011553318 -0.0005964145 0.0014127211 0.00016067455 0.00078232604 0.00037073268 0.00057567406 7.2019146e-05 0.0011194821 -0.001832982 0.0010109589 -0.000211429 0.0006524424 0.0017068576 0.0016931836 0.00080306 -0.0007183719
害羞 -0.00018346366 -0.0004772569 0.0011070118 0.0003786266 0.001622253 -0.0018864429 0.0009297014 0.0010806943 0.0005581052 0.0008003322 2.8741562e-05 0.0004268865 0.0006301461 -0.0001174679 -0.0012547101 0.0005354801 -0.00029262956 0.0008312515 -0.0014086035 -2.2920847e-05 -0.00036853022 0.0014743917 -0.0011483914 0.0013784138 -0.0011490474 -0.0009429273 0.00017817749 -0.0012839133 0.0001961457 -0.0003492081 0.0011474377 0.0016368346 0.0001367708 0.0015798414 0.00067060016 -4.761109e-05 0.0013550227 -0.0003596275 0.0015673968 0.0004092584 -0.00097539474 0.0009958114 0.0001462132 9.6304706e-05 0.0014824681 0.0006896924 -0.0018454284 -0.0008136959 0.00088789436 -0.0008960627 0.0001435881 0.0017151888 -0.00028849972 -0.00092120416 0.0014077403 0.00082072575 -0.0002084306 -0.001492917 0.0015985983 0.0011534177 -0.0006477925 -0.0010420774 0.0010141568 -0.00044985823 0.0014371641 -0.0002298954 0.000857146 -0.00018782582 2.2365846e-05 -0.0007749852 -0.0014074566 0.00047567376 -8.829857e-05 -0.0010365903 -0.0001316056 0.0010150763 0.000433786 0.0003720062 -0.001228999 -0.0016542173 5.8418473e-06 0.0012359745 -0.0016812065 0.00028084457 0.0015973982 -0.0015336899 -3.5896403e-05 -0.001550387 -0.0010386603 -0.0010348911 -0.0003463552 -0.00042074642 -0.00091209327 -0.0010804182 -0.00034156712 -0.00045466726 0.0015126377 -0.0005528568 0.0007059557 0.0005295431 -0.00039068662 0.00044572202 0.0018469183 0.00088379235 0.00080207933 0.0014883887 -0.0015139247 0.00065646495 0.000855233 -0.0009259444 0.0005198898 -0.00031425085 0.00023929791 0.0008138849 0.00043817938 0.001321384 -0.00034088435 -0.00020365197 0.0002504959 -0.00054570806 0.0010209281 -0.00073641527 0.0010448308 -0.0005261147 -2.896602e-05 0.00013515055 0.001406088 -0.0010040442 -9.0089125e-05 -0.0009349294 0.0004728968 0.0009847182 -0.00083279976 0.00017684452 -0.00042251358 -0.00056834513 -0.001512691 0.00016595094 0.0005895221 -0.00031748667 0.0011736987 -0.001375141 -0.00042298433 -0.00054967025 0.0003098254 -0.0007496207 0.00086006534 -0.0010008696 -0.0011118706 -0.0016046375 -0.0011636434 0.0017766559 -0.00013307421 -0.0009809664 -0.0010262363 -0.0016648808 -2.434479e-05 0.0006656557 -0.00052181224 0.00026834174 -0.00080466596 -0.0005682566 0.0012874199 0.001064377 -0.0017822522 0.00038359515 0.00062942965 0.0010733342 -0.00079715805 0.0015468074 -0.0005337152 -0.00054171466 -0.00062712806 -0.001940748 -0.0011875866 0.0014220417 0.00020330813 -1.113562e-05 -0.0013924898 -0.0012186938 0.0013679109 0.00017913071 0.0007514566 0.0011303058 0.0007355868 0.0018290082 0.00016646527 -0.0017553717 0.0014908329 -0.00076820643 0.0013729413 0.0006060416 0.00047025108 0.0012633024 0.00058049406 -0.001027204 -0.0005382313 0.00070074946 -0.0006228024 -0.00035230926 -0.0016212822 -0.00047158834 -0.0003510641 0.0009968411 -0.00039776412 -0.00096094905 0.0009365916 0.00016835649 -0.00066420645 0.0013354087 0.0006574706 -0.0001445769 -0.0014689976 0.001632232 -0.000797589 8.254333e-05 -0.00017577957 0.00086258916 -0.001033792 -0.0004391877 1.8134557e-05 0.0010381729 -0.0013179864 4.6153815e-05 0.001698146 -0.00027874814 0.0009869719 0.00039816977 -0.0013715482 -0.0014046968 0.00025496498 -0.0011371206 2.8118552e-06 0.0010930819 0.00025892598 0.0012471696 -0.0002914704 -0.0006829515 -0.0008922831 -0.00067357905 -0.00084118324 0.0005287011 0.0013908735 -0.0009496527 0.0011992969 -0.0010369705 0.00017445303 0.00011379523 0.00047458027 -0.00033149053 -0.0015541482 0.0007919072 -0.00026215886 -0.0005116959 -0.00041999773 0.00018113 -0.0011924106 0.0008259833 0.0013951687 0.0007275271 0.0011116602 -0.00048374184 -0.00038566027 0.0005352102 0.0006415223 -0.0017018658 0.00043408564 0.0006177489 -0.00041723737 0.0014010923 0.0016480654 -0.0012077806 -0.000917836 -0.0012175499 0.0003029801 -0.0010964769 -0.0015465455 -0.0007029204 -0.0013459919 -0.00055009755 0.0003810367 -0.0010266583 -0.0016049205 -0.0012532909 -0.0014435174 0.00033995425 0.00019519818 0.0012648565 0.00021477726 0.0005469847 -0.0002872552 0.0014643525 0.00072616036 -9.93046e-05 0.0008821325 0.0013264862 -0.00015628236 -0.0015492423 -0.0016606278 0.0014956834
可爱 -0.0016755488 0.0015007604 -0.0012007124 0.0008011733 -0.00013581227 0.0004064592 0.0009817651 0.0010554013 0.00015385938 -0.00061675964 0.0010768595 0.00012969211 -0.0004988692 -0.0014870536 -0.00024737226 0.00081660907 -0.0004187234 -0.0010303492 -0.0009060534 -0.00093526713 -0.00030504848 -0.0003547525 -9.088613e-05 -0.001905028 -0.0013833276 -0.00031255904 -0.0016685335 0.0015447646 -0.001575023 -0.0014893117 5.5449265e-05 -0.0011576981 -0.0007955207 0.00073985633 0.0013594953 0.0010961111 0.0007852768 -0.0008792554 -0.0015880284 0.00034676655 -0.00069988775 -0.0015367983 -0.0013101727 4.6550227e-05 -0.0015287766 0.00090969907 0.00080734136 0.0013051863 0.00028469771 0.0013247876 0.0006731064 0.0018465623 -0.00032431277 -0.0009289648 0.00041715673 -0.0005886387 -0.001510021 -0.00013145234 -0.0016431467 0.0012991681 -0.00075798994 0.0007419369 -0.0012777924 0.00022393232 0.00097179326 -0.0005112059 -0.0012331257 -0.0010684202 -0.00036245093 -0.00052806764 0.00040019306 -0.0013838271 -0.0005813274 0.00053409016 -0.0011071343 0.0011428186 0.0016001438 -0.0015372997 3.5664078e-05 0.00036824026 0.0011835372 0.0008281654 -0.0012413413 -0.0016014952 -0.0006543868 0.00031585817 0.0015495785 -0.0007091131 -0.0015073646 -4.127731e-05 -0.001390621 0.0009044195 0.00026289147 -0.00084555725 0.0012099629 0.0014829279 0.00087478344 0.0005422214 -0.0009153024 0.0005656446 -0.0008489021 -0.0014663946 9.522844e-05 -0.0016028542 -0.0016646876 -0.0003074439 -0.0004787574 0.0014320231 0.0015746581 0.0014292508 0.0004275967 -0.0015822895 -0.0015406257 -0.0014452137 0.00029655447 -0.00017974417 -0.0015860806 0.0009778182 -0.00075795763 -0.0005072358 0.0014156686 7.7918514e-05 0.00032073108 -0.0010326608 0.00014004801 0.0005583767 -3.6798287e-05 -0.0011898748 0.0016034549 0.0010230968 0.0015204906 -0.0005439496 0.00036024244 0.0003404375 5.8063426e-05 -0.0017478194 -0.00017408862 -0.0016522434 0.0016897476 -0.0008871109 -0.0006930951 0.00038331046 0.0006977353 0.0011743072 0.00071510137 0.0016317812 0.0012236984 0.0013513388 0.0007739328 0.00032518336 0.00033136734 -0.00015032043 -0.0001005517 -0.0013087371 0.0018283824 -0.0013942407 0.00026010783 0.00052525953 0.0004090245 -0.0008366109 0.0008997482 -0.0012721204 -0.00022148788 0.00029442812 0.000763846 0.0011897791 0.00064309675 0.00032640027 -0.0010633552 -0.00043169726 0.00040339606 8.8060595e-05 0.00089650304 0.00058663986 0.0010893759 -0.0009320539 -2.4446237e-05 0.0005266679 0.00013361257 -0.0004655785 -0.000985455 -0.00079406047 -0.0015194983 -0.00038440485 -0.00030602564 0.001215913 -0.0017618192 0.00061045744 -0.0007151095 -0.00096804136 0.0012836403 -0.0013668683 0.0012632004 0.0008439374 0.0010313627 0.0001892619 -0.0013304079 0.0010555951 0.0012316783 -0.0016235985 -0.0010812784 0.00037916956 -0.0004200299 -0.0011975556 0.0001877945 0.0009112458 -0.0003855282 -0.0015550739 0.001482619 0.0009494168 0.00068137486 0.0011060989 -0.00038773826 0.001308273 -0.0015815118 0.0009139477 0.0012475518 0.001471403 0.00097036647 -0.0003000434 -0.0005107071 -0.00084179774 0.0013862504 0.0011279562 0.00078405865 -0.0007941755 -0.0011396257 -0.0005581734 -0.00057037215 0.0008239276 0.00072120095 0.0016077186 -0.0012170424 -0.0013884741 0.0013609629 0.0016420869 -0.0010816499 -0.0003113483 -0.0015413506 0.0012376254 -0.00077706564 0.00023155195 -0.00021407258 -0.0006354629 -0.001104574 -0.0013925703 -0.00074782904 -0.0007338996 0.00045313282 -0.0005214942 -0.00013812077 0.00033419832 0.00093242334 0.00034741126 0.0009966597 0.00023787456 -0.0001297921 0.0007020575 -0.0014679082 -0.0009094363 1.50898995e-05 0.0006049298 0.001414241 0.00043543943 -0.001115326 0.0006459821 -0.001563532 0.0008417217 -0.001588011 -0.0014437981 -0.0008377571 0.0006327256 0.00020388453 -0.0007130648 -9.6624804e-05 -0.0013227372 0.00055138476 -0.0016542652 -5.4148764e-05 0.0012831511 0.001525198 0.0016190634 0.00029395672 0.00059654296 0.001444592 0.00040373602 -0.00021867642 -0.0010695353 0.0010594536 0.0013733049 -0.00066562544 -0.0007381421 -0.0016845686 -0.0018344204 0.00089018774 0.0016181864 -0.00045337144 -0.00060604466 2.6893842e-05 -0.0007168883
微笑 -0.00041232814 0.00031285614 0.0016025597 -0.0005640675 0.0010314586 8.013821e-05 0.00067496585 0.0009687995 0.0002993965 0.00027562192 0.00043900227 -0.0010966414 -8.4832995e-05 0.0018683191 0.0012204029 0.0010574474 0.0011765533 0.0011168206 0.0012278022 -0.0009137643 0.0013535387 0.00052419293 0.0019367569 0.000107193235 0.0015202601 -0.00073652697 0.0008250274 0.0019180248 -0.0011719037 0.00064729067 -0.00021191547 -0.0010867948 -0.0002905166 -0.0006266942 0.0004743941 0.00079251436 0.00039102795 -0.00057238113 -0.0015292064 -0.00012178829 0.0014028007 -0.0017907685 -0.0019975924 -0.001571619 0.0006893725 1.5242196e-05 -0.0014288626 -0.001258842 0.000435822 -0.0001652049 0.00010288745 0.001649744 -0.0002500652 0.0009624916 -0.00055960345 -0.0016005767 0.00051446626 0.0009781998 -0.0017117363 0.0002902922 -0.00088057976 -0.0013261081 0.00024246909 -0.0006248901 -0.00015618125 -0.00071603735 0.0011632052 0.0013275866 -0.0017861179 0.00037338087 0.00021341212 -0.00052435277 0.000942585 0.00073848566 -0.0012081914 -0.0011527332 0.00036493005 -0.0002389323 0.0007887566 -0.00094150595 0.0017514947 0.0013860115 0.00042584416 0.00051554595 0.00018723168 0.00013267 -0.0017078613 5.7317146e-05 -0.0005460251 0.0010266328 -0.000968654 0.000672355 -0.00025121166 -0.0014623178 0.0007251277 0.0010838693 0.0015291289 0.00032433638 -0.00081668474 0.00038918605 -0.0012510626 -0.00072020607 0.0017873186 0.000562343 -7.5212796e-05 -0.000596848 0.0010945066 0.0003356676 0.00025728397 0.000856646 -5.6680925e-05 -0.0012466039 0.0016460167 0.00032845957 0.00045981337 0.0007851998 0.001400868 0.0013001893 -0.00180367 0.0013356822 -0.0017577464 3.937623e-05 -0.00036501887 -0.0008027764 0.0015130211 -0.0009979757 -0.0008620353 -0.00083795784 1.1384692e-05 0.00030281662 0.00018866602 0.000575771 -0.0017909934 -0.0007581448 0.00088074215 -0.0010297218 0.0013037765 -0.0003018934 -0.0006148117 -0.0009484082 -0.0016521086 -0.000569825 0.0018260047 -0.0011239783 0.0005332309 -0.00081748096 0.0009032625 -0.0010223846 0.0015294477 0.0002930852 -0.0014759488 -0.000791549 0.00047939934 -0.00061821594 0.0016091083 0.0001726357 -0.001441623 0.0014963289 -0.0012692147 -0.00043292122 0.00048714335 -0.0009497607 0.0014781025 -5.4949618e-05 -0.0010579539 -0.0005509234 5.071483e-05 -0.0014710062 -0.0012445161 0.0007628245 -0.0009201134 -0.00011472522 0.0013801493 -0.0015052347 -0.0007553498 0.001587299 -0.00084420457 0.0015164185 -0.0011448886 0.001659104 -0.0012327279 0.0013790622 0.0016957959 -0.0012816725 -0.0012592565 0.00050221145 0.00071649987 -0.00014291874 -0.0009418895 -0.001886028 0.00011558179 0.00030209517 0.001197564 -0.0013846 0.0014377693 -0.00079192483 -0.00013056493 0.0010444879 -7.0910784e-05 -0.0017046939 -0.0014754129 0.0014426969 0.0011942027 -0.00074361986 -0.00030554895 -0.001391551 -0.00029758323 0.00023791971 -0.0017578865 -0.0012517675 -0.0014002348 0.0010881948 -0.0013252695 0.0018848531 0.0008280954 -0.0005520351 -0.0001549051 0.0020332802 0.00046195896 0.0007392296 0.0015742695 -0.00016888446 -0.00035531915 0.0009996591 0.0014997626 0.00085918634 -0.000535041 0.0007491681 0.00058278005 -0.000728821 0.00072050415 1.6471346e-05 0.0010253859 -0.0016234104 -0.00011263676 6.352969e-05 -0.00080216426 -0.0011556732 -0.0005500487 0.0010532504 0.0012365617 -4.0958653e-06 -0.00057605834 -4.75551e-05 -0.00060435524 0.00074292504 -0.0011490381 -0.00048747897 0.0006975366 0.0008207785 0.00070962455 -0.00061165856 0.0010450707 9.897079e-06 -0.00022744782 -0.0002100328 0.0007950522 -7.599831e-05 8.0224796e-05 0.0011600385 0.0008484861 0.0018227997 0.00089327974 -0.0012798681 0.00022053033 0.00010472092 -0.0004093611 6.7224486e-05 -0.0009411484 -0.0011343466 -0.0013931197 0.00067974895 -0.001203212 -0.0012390858 0.00043621036 0.00058757304 -0.001145589 0.0010747584 0.00046418817 0.001015897 0.00026730594 0.0017282953 -0.0016913837 -0.0017039184 0.0016062629 0.0012149825 -0.0014594237 0.0014162418 0.0018078462 -0.0002794585 0.00015339488 -0.00083920907 0.0006749878 0.00069941755 0.00049939554 -7.2882496e-05 0.0018830992 0.0007382712 -0.00033570203 -0.00031840254
老婆 -0.0007762505 -0.00072427053 0.00026925773 0.0007955799 -0.0005563161 -0.00067665614 0.0008524989 -0.0011995 0.0014329171 0.0012710786 -0.0010953861 0.00075286644 -0.00055532745 -0.0012916875 -0.0011648197 0.00078255794 -0.0009943754 0.0011598303 0.0016390849 2.510906e-05 -0.00052878784 0.0004696737 0.0010275731 0.00071855314 -0.0010760744 0.0013087143 -0.0011649425 0.0013376216 -0.00063997385 0.00051865017 0.00038095302 0.0015108184 -0.0007798407 0.0010400417 0.00067464204 0.00075159327 -0.0007900576 -0.00090858433 0.0009342523 0.0011963735 -0.0017114204 0.0006329193 0.00032440046 -0.0013018011 0.000104383114 0.00078940945 0.0004732032 0.00034404607 0.00020642791 0.0008204394 -0.00024137726 4.0629453e-05 0.00086822757 0.001452217 -0.0014666832 -0.0005258375 -0.0001447 -0.0013897162 0.0011937576 0.0012334434 0.00039884917 -0.0004402035 -0.00066676765 0.00024267977 7.9952784e-05 -0.0017539317 -0.00045111362 0.0008166467 0.00015118976 -0.00015492925 0.00068681396 0.00048298953 -0.0009220284 0.00012081859 0.0007545576 5.9196704e-05 -0.0007084382 0.0015954052 0.00084987184 -0.00066026987 -0.0013970904 0.0016983731 -0.0018829159 0.0005070345 1.0710766e-05 -0.0015397909 0.00073469646 -0.0007226217 -0.00093348144 0.0015122944 0.00024274974 -0.0015229372 0.00082578335 -0.0006601419 -0.00042969533 0.00032620647 -0.0003876382 -0.0010359624 -0.0011711343 0.0014538893 -0.0009464418 -0.0002345573 0.001205523 0.0011862064 -0.00032439906 -0.0013952729 -0.00017449529 -0.000333871 0.00093360397 -0.0006736762 0.00014485001 0.00067285 -0.0007254221 -0.00084689347 0.0015504514 0.00037755037 0.00068346196 -0.0008305883 -0.0014370753 0.00063706643 0.0004978472 -0.00028304782 -0.0011500542 -0.0016948434 -0.0013679428 -0.00024983106 0.0012636234 6.555179e-05 3.652273e-05 0.0017947563 -0.0009921615 0.0014776782 0.0005688923 -0.00042419098 0.00050753145 0.0015244505 0.0018681558 -0.0015077366 -0.001528447 -4.613995e-05 0.0008465937 0.0019787562 -0.001236902 7.401558e-05 -0.00032452814 -0.0015532733 -0.0001329967 -0.0016044093 -4.045572e-05 -0.00119095 0.00024152086 -0.00029696134 0.0009779546 0.0009837941 -0.0012975046 0.00049457315 0.0009418775 2.4613471e-05 0.00034642898 0.00063188974 -0.0007106904 0.0014322458 9.188494e-05 -0.0012825138 0.00087151956 -0.00089181744 0.0001187967 0.00022617631 0.0015804811 -0.0009211442 0.000489094 0.0008421344 0.0016285456 0.00053611415 -5.5100772e-05 -0.0014096887 0.0013002913 -7.711466e-05 -0.00052295317 -0.0005807949 -0.0012670569 0.0004549746 -0.00057277555 -0.0015513739 -0.0015114374 0.0017147083 -0.0017828881 -0.00086942234 0.0017408174 0.00045869406 -6.530702e-05 -0.0015395655 0.0013675828 -0.00042125216 -0.0013043379 -0.0005607272 -0.0010478729 0.0007095686 -0.0014167906 0.0012286649 -0.0008747206 -0.00074024557 0.001363372 -0.0010157061 0.0003989899 0.001001024 0.0013028608 -7.7761855e-05 0.0006035636 0.00011990662 0.0016288612 0.0017866669 -0.0011292641 0.001819705 0.0005857717 0.0017782903 0.0013988566 -0.0008946367 -0.00052463514 0.0011364484 -0.00091195334 0.00090054027 -0.0004201843 -0.0014757799 -0.00051616185 0.0012338165 0.0011072037 0.0009780192 -5.4670436e-05 0.0010085227 -0.0005237462 -0.00052742753 -0.0009621154 0.0014408091 0.00024572058 -0.0016144902 0.00094094797 -0.0015970464 0.0007035824 -0.00050251733 0.00091258675 0.0015897927 -0.001770243 0.0018312758 -0.0012688225 -0.0007038615 -0.0010007701 -0.0011331205 -0.00015139469 -0.0006477721 2.7250599e-05 -0.0010033989 -0.00087888073 0.0005532123 -0.00038700245 0.00079295 -0.0008974848 -7.98433e-05 -0.00062907493 -0.0009083773 5.505741e-05 0.0013984956 0.0009181254 -0.00022207286 -0.0014889272 -0.0012051093 0.0011808533 0.00051250553 -0.0015038103 0.0006139098 0.00068224216 -0.0017474982 -0.0014312582 -0.0014776649 0.0008120092 -0.0013297062 0.0013999734 0.0012524395 0.00032183106 -0.00024289713 0.00042460783 0.00080581475 -0.0017125148 0.00049599167 0.0015346761 0.00016012257 0.0012943285 -0.0012895934 -0.0002610605 0.0005270448 -0.0015543547 0.0018571407 -0.001510744 -0.0012660105 0.0012377418 0.00068319065 0.001447254 -0.00071649096 -0.0005896213 5.1550585e-05
看看 -0.0011704011 0.00017300797 -0.00033240902 6.3095074e-05 0.0005378636 0.0007180798 -6.378682e-05 0.0015719518 -0.00075925054 -0.0015168829 0.001505967 -0.001426742 0.0012368055 -0.00085555884 0.0008434077 -0.00024578872 -0.0014063983 0.00040103882 0.0016516829 -0.0009414643 0.0005305032 0.00043495456 0.0015162647 0.00014528597 -8.901491e-05 -0.00041306845 0.00093670655 -0.0007188408 0.0011845604 -0.00092564785 -0.001400196 0.0011373914 0.001547094 -0.00040154913 0.00016743239 -0.0008713338 -0.0015622516 -0.0017023663 -0.0015284091 0.0009447816 -0.00028969816 0.00035019545 -0.0012764642 -0.0011347993 0.00097158185 -0.00070615904 -0.00064304564 0.0011578306 0.0007603318 0.0012732767 -0.0005036949 -0.0004902667 5.4612097e-05 -6.1163715e-05 0.000519961 7.644981e-05 0.001246725 -0.001407053 -0.0013700764 0.0005962552 0.0003248698 -9.3219296e-07 0.00048313802 -0.0005266277 -0.0010966056 -0.0016231324 0.0010120432 -0.0010534966 -0.0009959234 -0.0015260655 -0.0009411587 9.940482e-05 -0.0010457422 0.0015538762 2.9561224e-05 0.0013085989 0.00018690193 -0.000839336 0.0016151018 0.0014470036 0.00081116747 0.0001649074 -0.0015449835 -0.00027191493 0.00033957537 0.00079254596 0.00151975 -0.0010042944 -0.00058324815 0.0014496603 -0.0009319368 0.0014899818 -0.0009389894 3.2321033e-05 0.0015247124 0.001400442 0.00085518946 0.0015695309 0.00026780585 -0.00024484002 0.0006893659 0.00061328884 0.00035728517 -0.00016957782 -0.0006052745 0.00021303007 0.00092656264 -0.0010799019 -0.0005395726 -0.0013854051 -0.0016942326 0.0006096872 0.00018678994 -0.0016586408 0.0015856466 -0.0016938817 0.00015592495 3.9373186e-05 0.0010210864 0.00094884005 -0.00046146262 -0.00057894737 -0.00020962421 0.0005175866 0.0005007267 -0.0005226352 0.0016869568 0.0013891173 0.0007123092 -0.0003018257 -0.0011650649 0.0005244092 -0.0006069946 -0.00059408793 -0.00030635743 0.00096856826 -0.0003584695 0.00064649055 -0.0012007034 -0.0005520069 -0.0015518503 -0.0011261884 -0.00134074 -0.00026091855 -8.734344e-05 0.0010238641 0.00043985786 0.0005425982 -0.001013613 -0.0012886379 -0.0007437743 -0.00048643583 -0.00053254806 -0.0010356678 -0.0005138724 -0.0010266898 -0.000865132 -0.0008863441 -0.0002765134 -0.00080328877 0.00050267985 -0.0014517793 -0.001674909 0.00043522177 -0.0005277232 0.0010908599 -0.0013781211 -0.0012532787 0.00032301285 -0.0011663376 5.2430627e-05 0.0008530676 -0.0009640691 -0.00028866756 -0.0012840946 -0.0012830083 -0.00064073503 -0.00062845 0.0014994158 0.0012606845 -0.00091746746 0.0011105968 0.00093979517 -0.0003503203 -0.00034786182 0.00029911508 -0.0016632306 0.0004160562 -0.00014854755 -0.0017810143 -0.0013833919 -0.0012607181 -0.00038722352 0.00010006174 -0.00034610022 -3.5743087e-05 0.0011328633 0.0010681743 0.0004238852 0.0002677032 -0.0012155481 9.698045e-05 -0.00096731214 -0.00083447545 0.0012892714 0.0009259265 0.0003896179 -0.00027215495 -0.0010886596 0.0011789191 0.00093125104 -0.0006235252 0.0010659192 -0.0010467824 0.00095088594 -0.00052711775 -0.0014874069 0.0017543613 -0.00063620054 0.0002720032 0.0014461193 0.0012732244 -0.0010375782 -0.000982054 -0.0009561678 -0.0016151267 0.0014003767 -0.0002352629 0.0001655861 0.0011251591 0.00030171569 0.0017506179 0.0008516777 -0.0011676993 -0.0010393156 -0.0006913291 0.0006345115 -0.0012096534 -0.00036054675 0.0013060897 0.00095018034 0.00092242844 0.0013674663 0.0002915688 0.0006459061 -0.0010890685 -0.00016311558 -0.00042406612 0.0001004943 0.0008387714 0.0007577185 0.0008134009 -0.0006654912 -0.0008130052 -0.000121804616 0.0004667713 0.00039370207 -0.0015636982 0.00041696735 -0.00049924344 -0.00041297925 0.00047243753 0.00017407136 -0.0009907156 -0.000283119 -0.00031919946 -0.0007272274 -3.7638147e-05 0.0008644415 0.00075814046 -0.0015619241 -0.00036645567 -0.0016978043 0.00034401318 -0.0017804591 -0.0012491735 -0.0011786867 -0.00023638754 0.00033582698 -0.00037650866 -0.0013506629 0.00077534706 -0.0002591918 -0.0010472855 0.0004948148 0.00048249468 -0.0018675975 0.001694017 -0.00025577366 0.0007414331 -1.450791e-05 -0.0014555057 -0.0014058438 -0.00045062235 -0.00075652654 -0.00044259612 -0.00036020466 0.0014030501 0.0001481305 -0.0012967555
捂脸 -0.0002840842 -0.0007578033 -6.0144306e-05 -0.0017103562 -0.0008703213 -0.0019371992 0.00088284333 0.00065360987 0.0013442033 0.0013508796 0.0015883476 0.00088163826 -0.00011638859 0.0011752562 -0.001892195 0.0009071292 0.001882898 0.0009938404 -0.0013393884 0.0004937546 0.0006970577 0.001583808 0.001692861 -0.00016403315 -0.0007942228 -9.2661605e-05 -0.0019566908 0.00081283157 -0.0009302402 -0.0011957962 0.00060337194 0.0016364497 0.00086036377 -0.0015624225 0.00088817335 0.0007156267 0.0007104449 -0.0004977122 -0.0008695545 -0.0010281695 6.2823405e-05 -0.0014997853 0.000650921 -0.0019630576 -0.00051497656 -0.0002666324 -0.0007320401 0.00062410376 -0.0010816827 -0.00157298 0.0013111588 0.00093277777 -0.0009705567 0.00014627857 0.0010137996 0.0008564626 0.00064287917 0.0014944053 -0.0012587847 -0.00032726448 -0.000783134 -0.0005569892 -0.0016557574 -0.00023359226 -0.000340888 -0.0016436185 -0.0014395008 -0.0007390306 0.00092422223 0.00042407113 -0.0014422708 0.0007663314 -0.0011161718 -0.0013741149 -5.8828053e-05 -0.0010866044 0.0017635499 -0.0008558041 0.0001160332 0.0006746691 0.0005546147 -0.00035967422 -0.0019290859 0.00016906735 -0.00013905448 0.00051255553 -0.0008121866 -0.00018638444 1.7810948e-05 -0.0014156004 -0.00031295605 0.0012883163 0.0011474914 -0.0009813426 0.0017845883 -0.0012279478 0.001735318 -0.00025168332 -0.0014702934 0.0016456565 -0.00013224156 0.0004634188 -2.7525994e-07 0.0013633913 0.0009136658 -0.00039962292 -0.0013796366 -0.0016394698 -8.883702e-06 -0.0007892931 -0.00094545516 0.0003662906 0.0014017296 0.00068112474 0.00095342397 -0.0004160309 -0.000578073 0.0007136051 -4.0661027e-05 -0.00085880957 0.00012104423 -0.0010556458 -0.0012082636 -0.0016225877 -0.0012673166 -0.0012318392 -0.0013061943 -0.0017411375 -0.0013714693 0.00096545357 0.00070672174 -0.0012803138 0.0009393063 0.0015592594 0.0010064861 9.066474e-05 0.0013167987 -0.0015381936 0.00070292375 -0.0018281951 0.00030366087 0.0020658525 -0.0012569336 -0.00037358512 0.00015866119 0.0006281302 0.0014220922 -0.0005229234 0.00058317336 0.0010275804 -0.0009777846 0.0012484968 -0.0015949127 -0.000939504 -0.0009738833 -0.0017437922 0.0011105292 0.0005800038 -0.0010998062 0.00034925493 -0.00081300776 -0.00043036896 -0.0008825723 -0.000998793 -0.0019928564 -0.0005561448 -0.0009404516 -0.0011939366 0.0003497777 -0.00042352497 0.0011797652 -0.0015088047 0.0013433672 -0.002047221 0.0009036392 -0.0006661884 -0.00094977167 0.00067897193 -1.9022333e-05 0.001505885 -0.0013926824 -0.0017696194 -0.0015753679 -0.0001430661 -0.00046210596 -0.00083596207 0.00035690912 -0.000868039 0.0016736067 0.0008388386 -0.00036717107 0.001274836 -0.0011953968 -7.3091804e-05 0.0011024527 0.00081534026 -0.0014843193 -0.000711742 -0.0016188863 0.00062807 -5.4601802e-05 -0.0015094668 -0.0017141355 0.0007875592 -0.0014610598 -0.00034457797 -0.0008143431 -0.0005189029 -0.0013377055 -0.00065301836 -0.0015472422 0.001670373 -0.0005916774 0.0011522803 -0.0012401798 0.0016745889 -0.0006035051 -0.000597217 0.00017250094 -0.0007697317 -0.0008476758 0.00031060644 -0.000876474 -0.00086540874 -2.4907391e-05 0.0010111899 0.00030714364 0.00018711596 0.00065714313 -0.0016640127 -0.0007465057 0.0012621633 -0.0005355335 -0.0014017288 -0.00094904046 -0.0002180436 -0.00024548362 -0.0009816508 -0.0012188026 0.00096352724 0.00015450288 2.4040917e-05 0.0011168253 0.0017640474 -0.0003971286 -7.6420445e-05 0.0016486525 -0.0011199353 9.198162e-05 0.0001378231 -0.0011473137 0.00060733827 0.0009723102 -0.0016765837 0.0017988419 -0.00087581266 -0.0013350255 0.0014182107 0.0006962197 0.00074049784 0.00091032067 0.00048955745 -0.0002083499 0.0009194555 -0.0014024398 0.0015117452 0.0002602945 0.0015016035 0.00075645105 -0.0017118203 -0.0012728277 -0.0011456382 -0.0007765541 -0.0013547208 0.00023319146 0.0002525156 0.0015099896 -0.001643304 0.0015183032 -0.001719964 -0.0007564221 0.0009551395 -0.001991118 -0.00019450016 -0.00010439257 -0.0010526452 -0.000964596 0.0003794306 -0.0008324226 0.0002534765 0.00079207396 0.0009400324 -3.8421083e-05 -0.00047467503 0.00043429562 0.00039940685 -0.0010723245 -0.00062583736 0.0011555867 0.00017530471
快 0.00040889936 0.00049629767 -0.00015327234 -0.0018277077 0.0015635288 -0.0019559755 -0.00086762157 -0.00056582555 0.0018584118 -0.0013011151 -0.00030161435 -0.000446553 -0.00073345716 -0.00050653453 -0.0010982386 -0.0010924897 -0.0010137828 -0.0012254915 -0.0016833693 0.0010961336 -0.0014720472 -0.0006906897 0.0011658876 -0.0006872158 -0.00097137544 0.0006015812 -0.0016381126 0.0006022074 -0.0003228527 -0.0015377146 0.0014190795 -0.00112813 2.8431967e-05 0.000700392 0.0013097463 0.0014652304 -0.0014316554 -0.00032300816 -0.0013810169 -0.0013824528 -0.0015647057 -0.0010656908 0.0004311582 -0.0014147373 0.00045596756 0.0009955748 -0.0016219727 -0.0010633762 2.849954e-05 0.0008240746 5.135965e-05 -0.0008381714 0.00082984153 -0.0014209931 0.0014091902 -0.00040933277 -0.0005093545 -0.0011534783 -0.00020493988 4.271527e-05 0.0009891884 0.00031890767 0.0005652148 0.00029862637 0.00071767194 -0.0018751316 0.0010578942 -0.0006632452 0.0014671164 0.0014253355 -0.001458892 -0.0007824474 -0.0002887335 0.00075584796 0.0010335613 0.00083030475 0.0007224194 -0.0016963645 0.0018307342 0.00153502 -0.00039072524 0.002114379 -0.000359071 0.00084208196 -0.00012603716 -0.0010677943 0.00024248757 0.0005170856 0.00056742894 -0.0010554002 0.00051875704 0.0012484532 -0.0011167862 -0.00015987776 0.0003132415 0.00013130346 -0.0011567133 -0.0010591694 0.0013713159 -0.00016635166 0.0009091817 0.0003367218 0.0019967146 -0.0002181225 -0.0014507486 0.0015552744 0.0009545966 -0.001231924 0.0005478176 -0.0013496845 0.00038269314 0.0004460213 0.0010798961 -0.0012158948 0.0013158732 -0.0007981146 6.46298e-05 -0.0005243468 0.0005558126 0.0014586905 -3.8301016e-05 0.0011263076 -0.00026700165 -0.0016009674 0.00028807708 -0.00016773966 0.0016277387 -0.0014637206 -0.00023338464 -0.00050903345 0.0012161158 -3.7823531e-06 -0.00083776336 -0.00027117247 -0.0014996437 8.179043e-05 -0.00012264847 0.00019624796 0.00064180495 -0.00061466865 -0.001134941 -0.0011281912 -0.0010696744 0.0006277533 0.00086638925 0.0006780907 0.0008036206 0.0014635329 -0.00093828124 0.00034657822 -0.0017564287 0.00033152124 -0.0013980218 -0.0006251832 -0.001268828 -0.000926909 -0.0010105101 6.810797e-05 -0.0012219064 -0.00097208755 0.0011003785 -0.0013496905 0.0007231719 -0.0009282506 0.0007106207 0.0017165245 -0.0011886988 0.0005713851 0.00030113652 4.0405437e-05 0.00011474974 -0.00055207254 0.0011416574 -0.00014761441 -0.00015758483 0.0006821726 0.00075722265 -0.00095803867 0.00040107008 0.0009031567 -0.0009865317 -0.0006651655 -0.0013914284 0.0005502933 0.0008252446 -0.00018550358 -0.0012257685 -0.0014191045 0.0010983957 0.00040677423 -0.0010715643 -0.0013281056 -0.00012226435 -0.00016749406 0.0005725639 0.0015883843 0.0013107607 -8.022885e-05 -0.00067797577 -0.0011966912 0.0004587453 0.000512275 0.0013230683 0.0015441 0.00050080835 -8.632488e-05 -0.0009497967 -2.0843112e-05 0.0015530526 -0.0014302923 0.0010241352 0.00034955444 7.912987e-05 0.0002959467 0.0013934968 -0.00041790883 0.00080833805 0.0016581068 -0.0012147622 0.00017228167 -0.0013475955 -0.0015113438 0.000523028 -0.0011702296 0.00024386484 0.00017145088 0.001994208 0.0013577156 0.00013809455 -0.0008709533 -0.0015585873 0.0005304461 0.0012256965 0.0013086185 0.0007106449 -0.0010403744 -0.00024288814 0.00012234983 5.163155e-06 -0.0014352584 0.001181905 -0.000833644 0.0011818616 0.0016035727 0.00064243906 0.0004292847 0.0007173022 -0.001965997 0.0012789435 -0.00031004532 0.0007328788 0.0001712117 0.00022935684 -0.00058017846 0.00012716248 -0.00025821032 0.0005426017 0.0013040573 0.0003130624 0.0009542036 0.0012912235 0.0005345771 0.0007925987 0.00076887355 -0.00029097783 -0.00067142636 0.0012588317 -0.0013437826 -0.0013179515 -0.0014019015 -0.0010529775 -0.0017350939 -0.00046277372 0.000124525 -0.00043473224 0.0013711196 0.0018196288 -0.0017341225 0.001641607 0.0004256602 -0.00073027343 0.0018470302 -0.00031523395 -0.0010094864 -0.00011923808 -0.00063259184 0.00025802682 0.0011615278 -0.00028814608 0.001045809 -0.0012452663 0.00087864447 -0.0006838018 -0.001061952 0.0017936999 -0.0014393085 0.0013554731 -0.00026822442 0.00077834213 0.0013025684
宝贝 -0.00022794075 -0.00018928725 -0.00093892094 -0.000837912 0.00079380104 -0.0009447056 0.0007024976 -0.0015298751 0.00036037635 0.00076913246 -0.001122059 0.0002840399 0.00033544927 -0.00014986983 -0.0010630224 -0.0012866087 0.0015413342 0.0012485425 0.00086835976 0.00011598011 0.00019101272 0.0012539238 -0.00046098308 -0.0016520189 -0.0014866721 0.0013938175 -0.0012676595 -0.0009313657 0.0015066976 0.001028336 -0.00030888987 0.0005770282 0.0015923672 -0.0008877532 0.0015205612 -0.00042510676 -0.0010179068 -0.0010617934 0.0012006086 -0.00030616668 -0.0009283792 -0.00047890798 -0.0015485457 0.00012542568 -0.0007316582 0.0013899793 -0.0002460818 0.0006212978 -0.00039458356 -0.001403937 -0.0008366315 -0.0012748763 0.0010353039 0.0009369604 0.0007725016 0.00028713598 -0.00025886114 0.00028549097 -0.0013436446 -0.00047312048 -0.00055629306 9.082224e-05 0.0006782838 0.0013024241 0.000824808 -0.001760126 -0.0004989314 -0.0014433655 0.0006993414 -0.00035064766 0.0015660409 0.0011721917 -0.000364543 0.001457739 0.0005063512 0.0012675421 -0.0013973251 -0.00036831805 -0.0005556642 0.00035479013 0.0012449068 -0.00092808186 -0.00058027 -0.0011260405 -0.0004138679 0.00017349947 -0.0017189512 0.00012679058 -0.0011207631 0.00020596727 -0.00082498486 0.00077546004 0.0009206483 4.9663246e-05 0.00046980454 0.0008261366 -0.0010130944 0.000308238 -0.00038757283 0.0013083083 -0.001544276 0.0017129222 0.0017624215 -0.0013595999 -0.001322342 0.0005036367 0.0001934702 -0.00096279354 0.0009335751 0.0014813426 -0.00039567566 0.00071243726 0.00038337123 -0.0011482866 -0.0012236198 -0.0015075225 0.00011200885 -0.0016299452 -0.00070005923 -0.0014793923 -0.0006328705 0.00042246716 -0.00015538016 -0.0017783839 0.0012548694 -0.0008562042 0.0012566921 -0.0011519874 0.0014239543 0.0017626756 -0.00043655632 -0.00048122174 -0.0010592721 -0.0014034909 0.00048485922 -0.001124381 0.0010389317 0.00084229035 -0.0006772015 0.0012164311 -0.0014241259 0.0009977792 0.0014292822 -0.0007366472 0.0006865277 -0.00049745484 -0.00039573843 -0.0006011947 0.0014597379 -0.00019549452 0.00043639445 -0.00110556 0.00041792233 0.0016481712 -0.00024995246 -0.00019975967 0.00011407919 0.0009936823 -0.0009867572 -0.00045789618 0.0005947544 -0.00051989435 -6.5838416e-05 0.00093344087 0.00073600834 -0.001347982 -0.0004912097 0.0003100219 -0.00051131955 -0.0013533486 0.00079465815 -0.0007108721 0.00027775357 0.0010455966 -0.0010587738 0.0007330846 -0.00011484054 0.00068980857 -0.0013671746 -0.0011455165 0.0002639907 -0.0005341134 0.00039506934 -0.0005552143 0.001355503 0.00055589864 -0.00070783694 0.0015167549 -0.0013067898 0.000114069575 0.0012333256 0.0005644039 -0.0010372783 0.00067809905 0.0014513423 0.0013305176 0.00064349896 0.0010366307 0.0004154429 0.0005927678 0.0008468915 -0.0010998558 -0.0014878178 0.0008526948 0.00021040913 -0.00031850013 -0.0016083654 -0.0015395915 -0.0009210103 0.0005349677 -0.00079013046 -0.0009511918 -0.00031942283 0.0008948017 0.000941631 0.0012250147 -0.00049250235 0.00055116747 0.00080687867 0.00081142515 -2.4004763e-05 -0.0013053671 0.00041148628 -0.0004429529 -8.87976e-05 0.0005164972 -0.0005446942 0.00091833045 0.0012173671 -0.0001283544 0.001540119 -0.0013494582 -0.0012420807 -0.0012570404 -0.0017967287 -3.9535807e-06 0.0007352398 -0.0009917711 -0.0003898803 -0.0016278226 0.0011942664 -0.0016582019 0.0012504599 -0.000731028 7.1337236e-05 -0.000756814 0.0011257943 0.001381495 0.00089586165 0.0015269803 -0.00020145909 -0.0006067425 -0.0012824782 0.00032894438 -0.000747199 0.00023309396 -0.0005214829 0.00027016588 0.0012269705 0.00096841546 -0.0005310339 0.0015632124 0.0017298074 -0.0011343184 0.00071730115 -0.0013568455 -0.0015627833 -0.00048774196 -0.0016254048 -0.0004670909 -0.000819741 0.0013095555 0.0005900428 -0.0016267729 -0.0011165023 -0.0005301013 -0.0011603842 -0.00037323582 0.0010165353 -0.000740946 0.001701016 0.001880245 0.0002782538 -0.0014386076 -0.0007776781 -0.00038330283 -0.0007660649 -0.00048478303 0.000622341 5.2437103e-05 0.0014261344 -0.00011524057 0.0011634601 -0.00028439244 6.994671e-05 0.0009987487 0.0012643331 -0.0005764221 0.0007624033 -0.00092413014
灵机一动 0.0009153925 0.00068230875 -0.0015774058 0.0012614863 7.396087e-06 -0.0021353862 -0.0014879823 0.0005616855 -0.0012687523 -0.00018454759 -0.00022935889 0.0013779388 1.5192535e-05 0.0002569165 -0.0011068765 0.00027032717 0.00046933125 0.00076646643 -0.0016011208 0.00077475834 -0.0006000337 0.00015444488 -0.00020916165 -0.0011175093 -0.0010274642 -0.00093944 -0.00065324083 0.00067650364 -0.0002593446 -0.00056475605 -4.2450456e-06 0.0017424803 -0.0013725762 -0.000104635845 -0.0009494849 0.00062889763 9.3532864e-05 -0.0013172377 -0.00038327617 0.0014580272 0.00050869415 -0.00017841368 0.0011359788 0.0011735338 -0.0015438612 -0.0015557313 0.00043923056 0.001062733 0.00078782474 -0.0013120899 -0.00093725603 0.000666305 0.00081622 0.00012373821 0.0005385757 -0.00033574805 -2.5175748e-05 -0.0002822959 -0.0010998298 -0.000868108 -6.418987e-05 0.0014967885 -0.0015830524 -0.00012040243 -0.0010660592 -0.0018876182 0.0010977985 0.0013147222 -0.0009928279 0.00019987598 0.0008618243 -0.0013138533 0.00086696865 -0.00029574116 0.00049672346 0.00079033856 -0.00025160992 -0.0015312391 0.000104808096 -0.0016076498 -0.001080821 -0.0012623091 -0.0019655272 0.0014299022 0.0014205856 -0.00068725867 -0.0016770804 -0.0011800354 0.0013593842 0.0012818536 2.4344938e-06 -0.00088450446 0.0012777988 0.00037407386 0.0016172748 -0.0011319794 0.00029212647 -0.00015564631 -0.001771292 -0.0014649098 0.0007286519 0.0016317038 0.0010918442 -0.00026673143 -0.00045728288 -0.0006944198 0.0015648261 0.00083024433 -0.0008597898 0.0013095705 -0.0005773099 1.6378006e-05 0.0013238699 0.00059250626 0.00089810585 0.00081035204 0.00034640185 -0.0013215049 -0.00061486464 0.00013164402 0.00041785327 -0.00016831147 -0.00013432777 0.0005759716 -0.0013099203 -0.00041680783 0.0006784625 -0.0014399351 0.0012481887 0.0007079123 0.00061575434 0.0008039556 -0.00068844453 -6.5066226e-05 0.00080167025 -0.000505793 -0.00021411417 -0.0010705019 0.0012203546 -0.0015549008 -0.0010271224 0.0008427779 0.0015923586 0.0016369649 0.001538278 0.0014993821 0.0002370883 0.00021598811 -0.0011555646 0.00031750996 0.00030164994 0.0011806483 -0.0012635685 0.00022453978 -0.0013002986 0.0015061385 -0.0012728521 -0.00030301296 -0.0012133123 6.020838e-05 -0.0009995676 -0.0014020676 0.0014850951 -0.0010920465 7.0321876e-05 0.00077406445 -0.0007310919 0.0015999877 -0.00025867758 -2.3995195e-05 0.0013921491 -0.0011179197 0.00042574375 -0.001096728 -0.0015636141 -0.0010341293 0.00074496714 0.0019287611 -0.00023374037 0.0011857828 0.0011423643 0.0011408115 0.00040711605 -0.0013024551 -0.00031247697 -8.321016e-05 -0.00024982556 0.0011243114 -6.907576e-05 0.0008437414 0.0010285908 -0.0009991887 -0.0015477443 -0.0015590366 -0.0016940462 -0.00040992783 0.0007714273 0.001415567 -0.0006928201 0.0014509228 0.0005041671 -0.0013202723 -0.0003959902 0.0015962438 0.0009900741 -0.00024647888 0.00048380104 0.00076066994 -0.0010946798 -0.0011206237 9.7721146e-05 -0.0014696466 -0.0001597103 0.0013225594 0.00081114407 -0.00078947557 -0.00037455282 0.00030209537 -0.00038813025 0.0013247658 -0.00014642075 0.0007721191 0.00035743954 -0.00037008803 -0.00021338642 -0.001009483 -0.0008301368 0.0012229572 -0.0005096488 -0.0016108291 -0.0003125825 -0.0011586376 -0.0008835215 -0.00068458036 -0.0004190343 -0.0013135311 0.0009344103 0.00010136611 0.0008604999 -0.0016909887 0.0012351598 -0.0009793872 0.0002219421 0.0004782177 -0.0013137345 0.001370863 0.000586086 -0.00021515223 -0.0010220589 0.0013856319 0.00020280223 -0.0007606631 -0.0006233786 -0.0013280695 0.0005247346 0.0015811127 0.0015553595 -0.0012267837 1.3259957e-05 0.0011696479 0.0011272631 0.0013746301 -0.0012663676 -0.0011001402 0.001405993 -0.0016322765 0.001712297 0.0010512534 -0.0017209474 -0.0007429681 0.0002821043 -0.00070909335 -0.0003397716 3.5337132e-05 0.0006129114 -1.2862951e-05 0.0017405364 0.000973395 0.0012620632 0.00036665789 0.0015609358 0.00072025566 -0.0015074152 0.00018930058 0.0011746774 -0.0010087625 -0.0016719863 -0.0009462746 0.00037525874 -0.00032380165 -0.00017125481 0.001278572 0.0007670019 -0.0008113528 -0.0007293999 0.0008998838 0.0014308862 0.0011082564 0.0008074325 0.00095629785
抠鼻 -0.0003724141 -0.0007240139 -0.00038954968 -0.0014562939 0.0008433404 -0.0018726237 -0.0012089858 -0.0016249369 -0.00090161327 0.0013484352 -0.0012026854 -0.00082392705 0.00061461 0.00091242115 0.0011146651 0.0012809446 -0.0010922485 0.000663099 -0.0010663264 0.0005621755 -0.0010413238 0.00062166917 0.0006502086 -0.00092204986 0.0005237918 6.8606896e-06 -0.0013877406 -0.0002303846 -0.0013169057 -0.001923841 -0.0013054614 6.2487525e-05 0.0008760107 0.00039950435 -0.0008080771 0.0018774266 -0.0011002983 -0.00027546645 -0.0011495723 -0.0014578039 -0.0005936383 0.00022805322 -0.0007455105 0.00057347474 0.00074753846 0.000830996 -0.0015107722 0.00062863907 -0.00018773545 0.00018671501 0.0012797473 -0.0004199763 -0.00024662816 0.0010057505 0.00019450099 0.0007090288 0.00062107097 0.0006337522 -0.0014105293 -0.0011495344 0.00078253396 -0.0009910329 0.00057444983 0.00041001374 0.0002591315 -0.0013548512 0.0013909212 0.00010294834 -0.00057519117 0.00068661803 0.0011915824 9.701187e-05 0.0017024428 2.3059001e-05 -0.0006131233 0.00043295362 -0.0007617566 -0.0010717821 -0.00016398661 0.0007662082 0.0012770711 0.0007042678 0.0011876377 -0.0014453646 -0.001365518 0.0006405634 -0.00050119846 -0.00026761796 0.00094499503 0.0015985849 0.00015257811 0.00015313522 0.0016300103 0.00038326206 0.0015688079 -0.0014553075 0.0011272794 -0.00065726857 -0.0012834343 -0.0010274971 0.0007300607 -0.0006806132 0.0016770439 -0.00089898746 0.0003844385 0.00064279797 -0.000360257 0.0010426239 0.001387115 -0.00036999217 4.512842e-05 -0.00039054875 -5.1122275e-05 -3.2757624e-05 0.0017263938 0.0007972529 -0.00074038014 0.0002657639 0.00025942127 0.0008976528 0.0014385202 0.0003973387 0.00019707096 -0.00047669877 -0.0010343778 0.0004819126 0.0009599021 -8.232776e-05 -0.000632231 -0.00094219606 -0.001670682 -0.0017124147 0.0015627275 -0.00079892995 0.0009828388 0.0016140694 0.0007487131 0.000350437 0.00093818665 0.00027910553 -0.0011485897 0.0019105575 -0.0005931832 -0.0007756306 0.0014775669 -2.429869e-05 0.0014551985 -0.0006387917 -0.0003380538 0.0008244296 0.00054379465 0.00083881017 -0.00035593056 -0.0001631727 -0.00051051396 -0.00039108103 -0.00034472908 0.0015220079 -0.00064464833 -0.00016937235 -0.0012310368 0.00043736584 -0.00029371426 0.0006441536 0.0011559995 0.00057686714 -0.0007095082 0.0015762111 0.0012217448 -0.0009897862 0.001419527 -0.0016661206 4.5574383e-05 0.00072056503 -0.00012432534 -6.3609987e-06 -0.0009869746 0.0011454874 -0.0007323775 -0.0005327297 0.0006661523 -0.0008059165 0.0011576291 0.000550081 -0.000812381 8.703623e-05 -0.0011325702 -0.0014494393 0.0011424368 -0.00066860893 0.0005578637 -0.0008060719 0.0015277064 0.0011209584 -0.0014356936 -0.0006723971 0.0004825714 -0.00047959868 0.0013054141 -0.0009599755 -0.0010105276 -0.00050011143 -0.0006205837 0.00018634094 0.0013937196 0.0014271293 -0.00039291196 -0.0005691452 0.0006826484 -0.0011117497 0.00053111545 0.0013190467 4.500655e-05 0.0003635797 -0.0011954436 0.0014721238 9.023455e-05 0.00076971453 0.0005746968 0.00063716824 0.00095266127 0.0017453333 -0.0014633735 0.00027949022 -0.001582676 -0.0009054849 0.00084112666 0.001682314 -0.00035465634 -0.0009946561 -0.00050371524 -0.0013245381 -0.00037955446 -0.00047064296 0.0009384155 0.00072888075 -0.00033918893 0.00077590335 -0.0019072909 0.0012746505 0.0009276663 -0.0007813235 -0.0009813952 -0.0013329736 0.00051102904 4.224918e-05 -0.0014791797 -0.0013862366 0.00084028294 -0.00045792648 0.00018309736 -0.0015123342 -0.0009464349 -0.00039093223 0.00036750257 -0.0017400999 0.0014565638 -0.00025176583 -0.00016142795 0.0009361776 -5.189438e-05 0.000334855 0.001156968 -0.0017736399 0.001072098 0.00093742367 -0.00071439403 -0.0012533548 0.0010504097 -0.0006890745 -0.0005152331 7.285696e-05 -0.00041609496 0.0010964165 -0.00016807173 -0.0012528629 -0.00025437298 0.0011622163 -0.0015588972 0.0012146863 0.0015353272 0.00096241524 -0.0012662326 -0.00028169458 0.0015614962 0.0006206076 0.00014303232 0.0011138949 0.0014911115 -0.0013717242 0.0013350913 0.001310028 -0.0007297039 0.00084177474 -0.00027334425 0.00024842264 -7.9162906e-05 -0.0004924758 0.00095489924 0.0017385
艾特 -0.00068011106 0.00030596752 -0.0005932662 -0.0015133244 0.00035978213 0.00062031305 -0.00031835682 0.0010191195 -0.00048448038 -0.00077846827 -0.0011732304 7.212694e-05 0.00016593207 -0.00035343476 0.00078274886 -0.0015390272 -0.0014349489 0.00086663436 0.00043535948 2.2230004e-05 -0.0005605148 0.0008737998 0.00072802795 0.00034906913 0.0014760611 -0.0012123019 0.000772644 0.0015200297 0.0010286396 0.0009030024 3.7138707e-05 0.00041692157 -0.00029149547 0.001620238 -0.00021838842 -0.00058863795 -0.0017203154 -0.0014345193 -0.0007026443 0.0012053598 -0.00018395272 -0.0006899154 -0.00142646 -0.0001156981 0.0004798615 -0.00094245817 -0.0005315842 -0.0007211947 -0.0012479029 -0.00082111696 0.0014012546 -0.0012792341 -0.0011713711 -0.0014526563 0.000701779 0.0003068567 -0.0010283522 0.0006682204 0.0009191308 0.00043531877 0.00055209664 0.001869869 0.0014648144 -0.0010927167 0.0017124758 -0.0012916747 0.0014482341 -0.0001754513 0.00017994418 0.0008643891 0.0011328623 -0.0014665266 -0.0003739474 0.0006943423 0.00084032054 0.0013686621 -0.0012396445 0.0010481596 -3.8879127e-05 -0.0017039102 0.0007795141 -0.0007858297 -0.0013767272 -0.0012641171 5.3516032e-06 -0.0010153059 -1.41657265e-05 -7.972313e-05 -0.0017928154 -0.00019590132 -1.4012344e-06 -0.0005437856 -0.0011368182 -0.00213128 0.0014905479 -0.0011385899 0.00027084968 -0.00075688213 -0.0010744496 -0.0014918525 -0.00023455043 -0.00022371502 0.0016021945 -0.0012118106 0.00072292757 -0.0002596545 0.0018624995 0.00065548666 -0.00029120463 -0.0005026907 -0.00093266845 0.0004875426 -5.977562e-05 9.133441e-05 0.00067564094 -0.0002601644 -0.0010431316 0.0015719936 -0.0016951853 0.0012346889 -0.0006193571 -0.001435518 0.0011723813 -0.0004997774 -0.00013555287 6.4198095e-05 0.0009588234 0.00023338625 -0.00071953767 0.0007271002 0.00038921664 0.00029523784 0.0013404078 -0.0016568798 0.0009899582 0.0015903194 0.0008310906 0.0013679598 0.001281611 0.00042184212 -0.0011429704 0.0014112787 0.0008501775 -0.00067089754 0.0011007717 -0.0012988481 -0.0013376048 0.0009525225 -0.0012760347 0.0012454218 0.00027386626 0.0019576307 0.0006230936 6.111978e-05 0.0013436798 0.001158196 -0.0014371652 -5.0848517e-05 -0.00095592905 0.00087240007 -0.0005083993 0.00016547565 -0.0014116417 -0.0015793686 -0.0017195869 -0.0009907192 -0.000740811 -0.00058207405 -0.00155213 -0.0014652939 0.0010319141 -0.00092714163 0.0010028303 -0.0008751253 0.00096544524 -0.0012662299 0.0011477977 8.1268925e-05 0.00030143696 -0.0009163562 -0.0006369594 0.0008946792 -0.0014890026 -0.00055197603 0.0009737842 -0.0005795201 -0.0012100011 -0.0011180305 0.0014570904 -0.00095081003 0.0013304056 0.0012010542 0.000935843 -0.00075300835 0.00026436397 0.000507388 0.0014122064 -0.001114803 0.0012365716 -0.0013033483 -0.0007870938 0.00058374106 -0.0001572768 -0.0017041037 0.00091469 -0.00063150446 0.00013942554 -0.0013125964 0.001299081 2.0217532e-05 -0.00055181293 0.00097682 2.9821704e-05 0.0014930425 0.0015905587 -0.0009030373 0.0011216438 -0.0002884401 -0.0007347353 0.0011827155 0.0010574776 -0.0006806739 0.00029549765 -0.0015280591 -0.0015712185 -0.0006632195 0.002038036 -0.0007511653 -0.0009580714 0.00052187545 5.1282794e-05 0.001838748 -0.00025676578 0.0009103319 0.00053270144 0.00028729212 0.000399508 -0.0017230228 0.00012882442 -2.7696931e-05 0.0003917398 -0.0014650071 0.00095718796 0.0017124021 0.00099932 -0.0009286857 0.00013482523 0.00034041013 0.0016128345 -0.000584032 -0.0011419667 0.0015033338 -0.000551726 -0.001453461 -0.000785619 -0.0011418164 0.00011893123 -0.0012352578 0.001449201 -0.0015130087 0.0014897953 -0.001195644 0.00095211435 -0.0007883388 -0.0011029262 8.84451e-05 -0.0007159562 0.00037909852 -0.0015550274 0.00092506205 -0.00041927432 0.001242874 0.00065637083 -0.0010689705 -0.00012980733 -0.0017891498 -0.001459575 -0.00047861654 0.0014290039 -0.0015751532 0.000753102 -0.00033327128 -0.0014003358 0.0011608285 -0.00065583485 -0.0013933429 -0.0017676917 -0.00037218022 0.0002502792 -0.0014957216 -0.0005290917 0.001242584 -0.0018648437 -0.00085752166 -0.0011846138 -0.0014641347 -0.0012930518 0.00053857476 -0.000102029146 0.0011585933
吖 0.00073272444 -0.0005450707 -0.00065360026 -0.0011592956 -0.0011599608 -0.0011312829 -0.0004505873 -0.001561342 -8.928747e-05 0.0013646072 0.001332252 -0.0007506388 -0.0013458817 -0.00096922956 0.00083460903 0.000634023 -0.00058084505 -0.00018250916 0.00021849624 -0.0010212426 -0.00028361598 -0.0013948627 -0.0014570302 0.0007564474 4.5212273e-05 0.00039566396 -0.0010140955 -0.00043407368 0.0011810053 0.00031373545 0.0008496128 0.0006278443 0.001444733 -0.0016710919 -0.00079953525 0.0007035611 -0.0014190092 0.0009491177 0.00044554577 0.00039121817 -0.00061098294 0.0004993354 -0.0015567701 0.00048536016 -1.1104933e-05 -0.00037836903 -0.0010862065 0.0014940486 -0.0006326948 0.0015713607 0.00074890297 -0.00025109475 -0.0008628431 1.845977e-05 0.0010565578 0.00072125177 0.0004473483 0.00010911103 -0.00027902436 -0.0005990437 -0.001575434 -0.0012158896 -0.0015445896 -0.00040398602 0.0014662192 0.0012260558 0.0010512588 -0.0001392335 -0.0005106853 0.00020049792 0.0010607898 0.0014184327 0.0010333045 0.001226214 0.00031784986 -0.0011125769 -0.0015421711 -0.0013818543 0.0011584922 -0.0003160959 -0.0013520283 0.0016033287 -0.00023277628 0.00010946851 0.0010269628 -0.0011351577 -0.0017334583 -0.0010141002 0.0013546057 -0.00024616395 -0.0016117 0.001624688 -0.0013832813 0.0009956667 -0.00047420702 0.00045246162 -0.0007075986 -0.0014146267 -0.00064278516 0.0005483545 -0.0005156739 0.0013562882 -0.001422502 -0.00094518217 -4.3316628e-05 0.0013789763 -0.00037922038 -0.00093310414 0.0011355599 -0.0003508712 -0.00049125793 0.00028106273 0.001627987 0.00019438445 -0.0005688619 -0.00016913838 4.6280573e-05 0.00037734653 0.0012474193 0.0014652063 -0.001268209 -0.0007277204 -0.001226682 -0.0016055603 -0.001372899 -0.0014440406 0.0001229932 0.001583373 1.58719e-05 -0.0006655437 0.0013331611 -0.0010959139 -0.0002644742 -0.0014099499 0.00061246613 0.00049088214 0.00044441328 0.00011879084 -0.0014166784 -0.0016755994 0.0001319997 0.0015979244 0.0007368196 0.00020457203 0.00035863626 0.0007119039 -0.00016790834 0.0012595201 0.0011766213 -0.0010196439 -0.0014843281 0.00035753657 -0.00047926418 0.0007233917 0.0015975923 0.0006297714 0.00014704459 0.00029124442 -0.00068917195 -0.0001369087 0.0016849844 0.0009276187 -0.00061262195 -0.00059272366 -0.001721087 -0.0002257243 0.0005992802 -0.0011881037 -9.908042e-05 -0.0007546481 -0.0010978726 -0.0005595079 -0.0012323331 0.00017380915 -0.0008250085 0.00025802763 -0.0010111501 0.0015373499 -0.001690208 0.00059254013 -0.0018128066 0.00012927958 0.00067681534 0.00012546676 -0.00017019408 -0.00029859395 -0.0015957031 0.000286401 -0.00019957598 -0.000543964 -0.00050256425 0.0011250604 -0.0008336838 -0.0015031232 0.0009110038 0.001352513 -0.0016960066 -0.00077541126 -0.0013956696 -0.0011266931 -0.0017313432 0.0015694522 -0.0005802475 0.0003126921 0.00097049837 0.0003300599 0.00028141824 -0.0012986904 -0.00011414485 -0.0018137981 0.0008705195 0.0013256829 -0.0005623102 0.0018871772 0.00044564047 8.2193445e-05 8.369544e-05 -0.0006781563 0.0008821831 -0.0006396303 -0.0014931306 -0.001163677 0.00035692885 0.0012676726 -0.00041634563 -0.00094293506 0.0016575772 0.00041121367 0.00077980914 -0.0014298907 -0.0014550139 7.9997175e-05 0.00041682948 -0.000415119 0.00044553704 -0.0009574239 -0.00049259554 0.0014833412 0.0012092456 -0.0007415212 -0.00012575653 -0.0015193403 0.00018740332 0.00078578526 0.0012520778 0.0016229402 -0.00013429907 -0.0012906925 0.0007860949 -0.0004923369 0.0007373284 -0.00026996352 0.00038889577 0.0010188777 -0.0012804209 0.00029366088 -0.00051155634 -0.00018602764 0.0006234314 -0.0014127617 -0.0006599709 -0.00013071869 -0.00047019395 -0.00014421174 0.0014945463 0.0009999297 -0.00017986895 0.0007550374 -0.0003534326 0.001381962 -0.0009575594 0.00094635284 0.0010453862 0.0007416104 -0.00032795867 -0.00037394627 -0.00022000226 0.00040857866 0.00064645405 0.0007230543 -0.0012964234 -0.0011901562 0.0010515645 0.00075506634 -0.0011821747 0.0013647786 -0.0011583274 0.0005302021 0.0013624117 -0.001624402 -0.0008565101 -0.00094832643 -0.00068105053 -0.0012772646 -0.00013752635 0.00019552273 3.4287614e-06 -0.00041503555 -0.000791067 -0.0002504018
泪奔 0.001346161 -0.0015980423 -0.0004081796 -0.0017587055 -0.0008547924 -0.0018362948 0.001151021 0.00031422963 -0.00046352245 0.00022656088 -0.001573397 -4.8120197e-05 -0.0001988169 -0.0007583028 -0.001203718 0.00068729 0.0015502216 -0.001158623 0.0012081009 -0.00079951383 -1.5722502e-05 -0.0006090269 0.0013263961 -0.0007812062 -0.00074115716 -0.0002352868 -0.0006159677 -0.00050988334 -0.0006599592 -0.00035406073 -0.0014204907 0.00017500849 -0.0011117371 0.00029961998 -0.0016791071 -0.00048630364 -0.00071352365 -0.0008506714 -0.0015107665 0.000661747 0.0010267923 -0.0016263686 -0.0016170125 0.0005281077 -0.0014560329 0.0011552981 -0.0017076789 -0.0018783354 -0.00027720112 -0.0017586034 0.0011758328 -0.00059479516 -0.00075736834 0.00027151007 -0.0012144523 0.001408935 -0.0007016104 -0.0003313523 0.0014981035 0.0010106947 -0.0018472015 -0.00014292334 2.5441565e-05 -0.0006856573 -0.0007753373 -0.0006300023 -0.0012554562 -0.000400407 -0.00033793744 -0.001430574 -0.0013385399 0.00067148206 -4.9304716e-05 0.0013086239 -0.00059038115 -0.0005912254 -0.0005264022 -0.00032627184 0.0018266569 0.0003117131 0.00026367762 0.001542289 -0.00026315844 -5.515769e-05 0.00011966827 -0.00017754946 -0.0013294874 5.9889644e-06 0.00035580108 -0.0015925491 0.0015192343 -0.00022153535 7.3502e-05 -0.00086653687 -0.0008668339 0.0014056519 -0.00092536694 0.00046465275 0.00048653068 0.0012702153 -0.0010763545 -0.0009776168 -0.0010041668 -0.0004976296 -0.0010010066 0.00076602417 -0.0003043784 -0.0012741147 0.00046617282 -0.00016835995 -0.0013258745 -0.0018601167 -0.0014949974 -0.00027474936 0.0006272722 -0.00056325423 0.0015144385 -0.0012519093 -0.0018019303 -0.0013869965 0.00020503644 -0.0001630372 0.0013368238 -0.001780871 -0.00037354304 -0.00036729328 0.0018356191 -0.00056507235 -0.0011748326 0.001084725 -5.473877e-05 -0.0009023679 0.0003113701 0.0013584205 -0.001175133 0.00092982093 0.00067302334 0.0011367244 -0.00033327035 0.00092531403 9.484516e-05 0.0018159603 0.0005390866 -0.0003898892 0.00082899054 -0.0011837464 -0.0011612476 0.00087786996 -0.00017145403 0.0010861708 -0.0015270452 0.0011185897 0.00018929601 -7.245846e-05 0.0014896605 -0.0015085147 0.0011741983 0.00023850537 -4.225065e-05 0.0016074082 0.0013154448 -0.00057351583 0.00071941054 -0.00018428772 0.00091081235 0.0018650411 -0.0016719828 0.0011734312 0.0004901653 -0.00076463027 0.00029491185 0.0012455123 -0.00040500675 -0.0012945574 0.0014891219 -0.0009488271 -0.00036337806 0.000735067 0.000323321 0.00084520254 -0.0019590608 0.0005084598 -0.00043476027 0.00056484505 0.00026382657 -0.00023550255 0.0010236482 -0.0014724872 0.0005516979 0.0001290665 -0.00076993986 -0.0010628606 -0.0011382871 -0.0006415379 -0.00032485768 -0.0007835013 0.0008895844 0.00058011804 0.0016154895 -0.001174737 0.0011238075 -0.0005622393 -4.5020086e-05 -0.0007531442 0.0014293933 -0.00016513947 0.0015809768 0.0010943066 -0.0010030542 0.0007007938 0.00028308635 0.00049716013 -0.0014815428 0.0019738064 0.00086248474 -0.0013286425 0.0009336877 0.0015485368 -0.000672394 0.0010730195 -0.0009807869 -0.00074267056 0.00048250606 0.00037522303 0.0007513877 0.00038366474 0.0005280995 -0.00045989672 -0.0006506192 0.0006215471 0.00047930473 -0.00018873595 -0.0015582779 0.00049673393 -0.0015100203 -0.0010508323 -0.001132678 -0.0012023884 -0.0009856253 0.0006275902 -0.0018328972 -0.0016019918 0.0011203475 0.0019631067 -0.00065989123 0.0008315158 0.0011886598 -0.00037496863 0.0008604564 -0.0001976927 -0.000555648 0.0018844127 0.00021821882 -0.0017559137 -0.0009672692 -0.001377921 -0.0015345976 0.0012201088 -0.00040637027 -0.00019669528 0.0014135196 -0.00036638783 4.291621e-05 1.3564173e-05 -0.00021285622 0.00089239795 0.0002194847 -0.00048988446 -0.0011402202 -0.00061874295 -0.0005771258 -0.0015720282 -0.0018562274 0.0013527444 0.0011637359 -0.0017538154 -0.0008058668 0.00029999256 0.0018156689 -0.00019884849 0.0018049834 -0.00027373992 -0.0016042284 0.00023767873 0.0018068472 0.0004832513 -0.0017424584 0.0011805252 0.0011872321 -0.001426915 -0.0012555656 -0.00023069652 -0.000927016 -0.0019496795 0.0014172986 0.0016294065 0.0002971866 0.0012920506 0.00093081663 0.0016091908
爱 0.0016186739 -0.0010700255 0.00093193183 -0.0010970446 -0.0016305111 -0.00022610195 -0.0011962804 0.0009233885 0.00075658783 -0.0016192677 0.0015076165 -0.00094112766 -0.0004989229 0.0002065621 0.0012022288 -2.0506437e-05 0.0010488862 0.0011919739 -3.778739e-05 -0.0005177939 -7.0147405e-05 -0.0009802956 -4.310863e-05 -0.001320131 -0.0016702508 0.0004783238 -0.0002445396 -0.00022202882 -0.00046940005 -0.0018694618 -0.0013290609 0.00012848174 -0.0003938385 0.00024579203 -0.0014522288 0.0010476477 -0.0007206406 -0.0015060479 0.00020418143 -0.00025084734 -0.0013737049 -0.0014824113 9.812443e-05 -0.0008861185 0.0014194056 0.0009554681 -2.1325974e-05 0.0008865577 -0.00054043485 -0.00013710021 0.00024154232 0.0008391324 -0.0014984792 0.0010967263 -0.0015686029 -0.00038028735 -0.0007217979 -0.00043377816 -0.00082840683 7.355906e-05 0.0007305003 -0.00059029885 0.0011898582 0.00043931731 0.0013163588 7.4670534e-05 0.0014210396 -0.0006940806 -0.00043088052 0.0015069821 -0.0008628069 0.001298089 0.0014853178 -0.0009720998 0.0016239621 6.335141e-05 0.0017561959 0.00013697086 -5.6430996e-05 0.00018215475 0.00016094671 7.567725e-05 -0.00042021746 -0.0012170105 0.0007181273 -0.0008973016 0.00080444 0.0012655973 0.0010444145 3.871079e-05 0.0016755883 -0.0010227662 -0.0007687492 -0.000944977 0.0012299388 0.0016198845 -0.00036196588 0.0015815871 0.0007654341 0.0011236401 0.0010162476 0.0016585471 0.00091927673 0.0007593474 0.0001906382 -0.0007489158 -0.0009249712 -0.00046444658 0.0009121608 0.0014590347 0.001447546 0.0015222997 -0.0016248248 0.0011996473 0.0016996291 -0.0010714148 -0.0013167091 -0.0007458404 0.0011476912 0.00091171806 0.0009933915 -0.00011080265 0.0007738445 0.0007853678 0.00016848302 -0.00034320273 -0.00036005734 -0.00018158532 -0.0011707314 0.001007893 -0.00031502696 -0.00096543133 0.0014534343 -0.0010048731 0.0003932989 -0.0009012098 -0.0005364882 0.00090199494 0.0012411058 -0.00079129543 0.00038187893 -0.0013527753 -0.0009143933 0.00081947 0.00090658496 0.0010887448 0.00019574359 0.0008186835 0.00076590327 0.0008868901 -0.0011370913 -0.00094292837 -0.00010116175 -0.0009043528 0.0008367811 0.0001901095 0.00091821305 -0.0011949898 0.00054168055 -3.499863e-06 0.00062621455 -0.0010778868 0.0009951397 0.0006161347 -0.0013506275 0.0001516645 -0.0017839813 0.0013827006 -0.0009880656 0.0010530008 0.0015150956 -0.001374128 -0.0013537279 -0.0009553921 0.0013549072 0.0013313874 -0.000495735 0.0007832382 -0.00089907093 0.00040979453 -0.00089537166 0.0004782414 0.0007977281 0.0001806171 -0.001037151 0.0015567987 6.076962e-05 -0.0011805373 -0.0014042868 0.0011796553 0.0007093154 0.0003669888 0.0002874329 0.0011704729 0.00044460956 0.0007455791 -0.00011124269 0.0013017231 0.00024198482 -9.717033e-05 0.00039086698 -0.0010664078 0.0007087543 -0.00071709434 -0.00074168463 0.0011276497 -0.0014507395 -0.00010119206 -0.0013008704 0.0004240183 -0.0015373015 -0.00049485505 0.0016952499 0.0017368236 -0.0002434689 -0.000494658 9.811341e-06 0.0013880407 -0.0011949103 0.0002782208 0.00045486493 -0.0012457167 0.0004354138 0.0010183252 0.0011132582 -0.00014504099 0.0016954273 -0.0007556182 -0.00095930713 -0.0011232696 0.0013882868 -0.00102015 -0.0013414404 -0.0012321651 0.00022918193 0.00068311294 -0.00040045235 -0.00026913872 -9.2798255e-05 -0.00076521444 -0.0013076486 -0.00066427956 0.00023045877 0.001098622 -0.0005724263 -0.00030346803 -0.001058055 -0.00015711662 0.0016393088 0.0010955441 0.0010159083 0.0009589198 -0.00040209264 -0.0004890308 -0.00035411638 -0.0016245145 0.0002499303 0.0015041876 0.0016124668 0.00046336648 -0.0007309507 -0.00092547724 0.00019127609 0.00046263557 -0.0013539289 -0.001743932 0.00053321023 0.0012373466 0.00014853658 -0.0009030794 -0.0004245963 -0.00019643713 -0.001171049 -0.0016020101 0.0011426733 0.00028475415 -5.1814997e-05 -0.0007054584 -0.0010403438 0.0014300649 0.00029055876 0.0012185463 0.0013297494 0.0005966232 -0.00084020064 -0.00066135486 0.0009861646 -0.0011982103 0.00047191896 -0.0009236455 -0.0007351638 -0.00086510915 0.00053001137 -0.00037195339 -2.4301919e-05 0.001546925 -0.0014200535 0.0007979333 0.00087239966 0.0015551493
爱心 -0.00035916982 -0.0013247816 -0.0016962717 -0.0011353542 -9.901253e-05 -0.0012407522 -0.00088616094 0.0003379496 0.001988152 -0.00037708302 0.001360452 -0.00044009904 0.00059883005 -0.0011717973 5.4890792e-05 0.00087937224 0.00086385343 0.000720913 0.00090392184 0.0014705462 0.0014193327 0.0016392518 -0.0006420573 -0.00077169616 -6.637919e-05 -0.0016281853 -0.00041745912 0.0010860834 0.0011763407 -0.00095824705 -0.0010882353 0.0004910571 -0.0012791494 -0.0012643345 0.00094806054 -0.00017866938 0.0011538774 -0.0012284165 0.001105392 0.0013259221 0.00011512984 -0.00011934297 0.0006114548 -0.0010451118 -0.0013341367 6.1302167e-06 -0.00095968676 -0.00051170145 0.00168501 -0.0007550857 0.00071857584 0.0006559115 -0.0013333077 0.001263141 -0.0006511248 -0.001104825 -0.000843825 0.0016444167 -4.6485504e-05 0.00034808434 -0.0013031933 -0.00046748656 -0.0011686919 0.0008364788 0.0010153475 -0.0018316207 0.0004847021 -0.00035827712 -0.0017932889 0.0012792508 0.0015598213 -0.0019698094 0.0007683753 -1.1289094e-05 0.0010738123 0.0011170522 -0.001139712 0.0014951522 3.5731984e-05 0.00019598073 -0.00022307102 0.00049677194 -0.0020874941 -0.00029970863 2.2904437e-06 -0.001569723 0.0012279354 0.0013576982 -0.0011528399 -0.00025981624 0.001256209 0.0016092926 0.00036723242 -0.0024899181 -0.0006664077 -0.001640142 -0.00010855549 -0.0014008535 -0.0011496303 -0.0007644775 -0.00084915274 0.0017535478 0.0022613013 -0.0013484171 -0.00030412897 0.001819984 0.0004770819 -0.0013885923 0.0012743338 -0.00034065504 -0.0014345709 0.0010510003 -0.001251411 -0.0017182522 0.00023633914 -0.001111887 -0.0011841322 -3.9347582e-05 0.0009813404 -0.0014431365 0.0010993867 0.0013682334 0.0014064519 -0.002030111 0.0010730616 0.0014539494 -0.0007972708 -0.000993145 0.00047154233 -0.00088023 -0.00084438757 0.00025376884 -0.001043925 0.00091376394 -2.2011473e-05 0.00076620356 -0.00028006447 -0.001762923 0.0015769447 -0.0012263305 -0.0012096157 0.000846264 -0.0011760296 0.0009464988 0.0009671112 -0.00018456567 -0.00013310372 0.0004620174 -0.0011792794 -0.0007823695 0.0011414972 0.0011376606 -0.00017393987 -0.0016698599 -0.0004587065 0.0011671677 0.00044395975 0.001552966 -0.001645097 0.00165505 -0.0009524108 0.001054168 0.00035358116 -0.000420661 -0.0019454736 -0.00080496754 -0.0019069233 0.0011811665 0.0010762409 -0.0005633199 -0.0002842011 0.0011449553 -0.0012155811 -0.002260254 -0.0006595635 0.0004032293 -0.00023789502 0.0007830818 -0.0012967238 0.0009890827 0.000108462744 -0.0010516053 0.0013037355 -0.00055199827 0.0017327721 0.0013534814 -0.00037933665 -0.000345785 -0.0012509971 0.00079381483 0.00016928834 0.0010288226 -0.0011322163 0.0012462432 -0.0006603682 -0.0013158502 -0.0018249274 -0.00016724049 -3.607372e-05 0.0013423335 -0.0018281078 -0.00062619423 0.0010978805 -0.0014023798 -0.0010169417 0.00016831655 -0.001028678 -0.0016677353 0.0003189212 -0.0017307984 0.0011568369 0.0017970175 -0.00021462176 0.0022276244 -0.00021649564 -0.0012732415 -0.0012573954 0.0018325986 -0.00025347507 -0.0008068609 -0.00023353542 -0.0009234395 -0.00094552356 0.0003596967 -6.0513958e-05 -0.0014397107 -0.00050747284 0.0004895358 -0.00037540513 0.0007263022 -0.00024935743 0.00038771474 0.0007109843 0.0013156687 -0.0005053888 0.00069274317 -0.0019351047 -0.001441226 0.0004641281 -0.0009921278 -0.0005109235 -0.0013828218 0.00097150146 0.0009904878 -0.0002542612 -0.0011465395 0.0016792567 -0.0014877178 -0.0015858576 -0.00028036238 -0.0011410164 0.0015172656 -0.00028983218 -0.0020878636 0.001816931 -0.00049536285 -0.0009285822 -0.00090445264 -0.0016735817 -0.00068903604 0.0009618043 0.0006546655 -0.001244186 -8.749922e-05 0.0011282698 -0.0010754466 -0.00056336814 -0.00028879056 -0.0003768969 0.00046619086 0.0012029294 -0.0014408018 -0.0016614675 0.0014429024 -0.0003429907 -0.0016022922 -0.0006263014 -0.0012465094 0.00056453823 0.00077004917 0.0014375674 0.0012142202 0.00050154486 0.00022271366 0.0006508094 -0.0015797346 0.00017842691 -0.0013875343 0.001305613 0.001176883 0.0011595839 0.0014617598 0.00073472736 0.0003325306 0.001747921 0.0014600725 0.0009773836 0.001219169 0.00020438948 0.000401657
