320 300
我 -0.010451814 0.014125703 -0.005790605 0.009072737 -0.003915681 -0.0073031154 -0.016930701 0.0019501916 -0.0004994321 -0.0334871 0.000829993 -0.017831141 0.0041916724 -0.0008048167 -0.004719307 0.00012409968 0.00076192705 -0.015290444 -0.0056525203 -0.004572255 0.0063004512 0.0059149186 0.010867349 -0.005472627 -0.013261963 0.0026554414 -0.005332875 0.0035869756 -0.011427519 0.0008935368 -0.006531115 -0.008128328 -0.0038924841 0.004949868 -0.013334577 -0.008541257 -0.014787968 -0.008038133 0.0066990117 -0.019765643 0.0054387334 -0.013459249 0.0030774307 -0.019739887 0.01250094 -0.0032834355 -0.0036947571 -0.008864274 -0.022075962 -0.0042233467 0.012756088 -0.004767105 0.02831359 0.009572906 -0.0044372655 -0.004834564 -0.0023101927 0.006077074 0.019123238 -0.015523428 -0.022615021 0.0031088348 0.00218359 -0.016423259 0.0067958296 0.0053414674 0.004637411 0.008302619 0.022734754 -0.012913176 0.03420439 0.007848171 -0.004504797 -0.010164234 0.0016135934 0.0037187245 0.0033719842 0.0024695955 -0.0046959803 0.005682505 0.004116045 0.012805002 -0.0066433214 0.0072362004 0.023129936 -0.010028837 0.010381376 0.0112514235 -0.012537823 0.0073920856 -0.01138784 0.0040750075 -0.01569267 0.0014299466 -0.012836934 -0.018443592 -0.006897249 0.005852878 0.01536721 -0.0021910768 0.012134289 -0.011215953 0.0064138486 -0.019952457 -0.003186215 0.0071192947 0.0009335892 -0.0065017105 -0.0010604018 0.009942072 -0.0035005738 -0.0010789497 -0.011802924 -0.01176152 -0.019502759 -0.013180963 0.0060235965 -0.006336348 -0.008870695 0.006160343 -0.017732644 -0.01844427 0.009303364 -0.008422288 0.019118024 0.020244526 -0.0119856065 -0.036659494 -0.004729226 0.0013266818 0.02890131 0.009570091 -0.017938633 0.0104754595 0.00974851 -0.00058390317 0.014612848 -0.008597051 -0.020260332 0.0026395796 -0.013629434 -0.010265064 0.0029328342 -0.01311278 0.00070529716 -0.027905993 -0.0051160087 0.005011847 0.0117167765 0.024211973 -0.006969882 0.012819585 0.009426908 -0.009498543 0.0006209324 -0.0036141768 -0.013767181 -0.010627713 -0.027325222 0.010770891 0.007043967 -0.006720938 -0.0026653693 0.012355587 -0.011747523 -0.011879159 -0.000991082 -0.0032372535 -0.017216925 0.0008141654 -0.021519577 -0.010226212 0.0039404957 -0.0026734155 0.0016282267 0.0012481194 0.014716303 0.00032578508 0.0022810213 0.011391235 -0.0059128786 -0.015737556 -0.00877075 0.015741587 0.00412757 -0.03332386 -0.023425926 0.012892096 0.0016666094 0.013814596 0.03962331 -0.0041004745 -0.0029683379 0.006850696 -0.019756531 -2.5605827e-06 -0.028535167 -0.0026109142 0.0027800521 0.004649995 0.015489951 0.0057800184 0.007782279 -0.0019664918 0.017088557 -0.009279756 -0.0016956656 0.020512544 -0.007412557 -0.009088584 0.018804988 0.010927415 -0.00040761504 -0.015727555 0.026415596 0.008777679 0.027750632 -0.00050341623 0.0257893 0.032916047 0.015524557 0.009909551 -0.005548306 -0.0017869555 -0.023280729 0.011745451 -0.0010425355 -0.0070536584 0.0054777656 -0.0200166 -0.015729718 0.014415767 -0.0009482555 -0.018866763 0.0033843794 0.009402712 -0.010816671 4.7529637e-05 -0.0101035535 -0.007888385 0.008214561 0.008833937 0.017101116 -0.0022732038 0.00884555 0.0117729 -0.02460878 0.009940616 0.004961785 -0.010241903 0.003944456 0.01707215 -0.0026023057 0.015372621 0.027424563 0.0029336393 -0.013915692 0.019463047 -0.02513577 -0.0036526755 0.016629906 -0.0089767985 0.01096492 -0.023948852 -0.025122 0.011170964 -0.012021529 0.015618233 -0.017725065 0.020266842 -0.009392895 0.012619933 0.024189653 0.021300122 0.00073249586 -0.00054083695 0.0108984625 0.015460001 0.021299439 -0.010170969 0.009779418 0.00964688 0.0077043744 0.01096729 0.015789585 -0.015123342 -0.0056041465 -0.0074920673 -0.003144619 0.0077900547 -0.0035644902 -0.00065006263 0.025883576 -0.0092038 -0.013322183 -0.014494418 -0.03504819 0.027985526 -0.0059722024 0.0067122555
拍 -0.006102025 0.014126089 -0.0032792382 0.0063581397 -0.0020209108 -0.006499506 -0.017151454 0.00030474842 -0.0003309158 -0.027706964 -0.0004891255 -0.014149723 0.0016763982 -0.0022158935 -0.0036789416 -0.00039853182 -0.0010127886 -0.012728368 -0.0058475304 -0.0016511157 0.007250051 0.006476108 0.010416649 -0.0041801706 -0.01058135 0.0021461658 -0.0027922168 0.0011280768 -0.009976635 0.0012729376 -0.0057220994 -0.008025801 -0.00083421177 0.002642032 -0.010055372 -0.0068601994 -0.012080253 -0.004776961 0.006239897 -0.019071417 0.0045662923 -0.009579225 0.0033026496 -0.016253512 0.009362576 -0.0018031804 -0.0017721603 -0.008150056 -0.018621994 -0.00204539 0.011174135 -0.0023428565 0.024871614 0.009635708 -0.0023579113 -0.0052347183 -0.0031350427 0.0046722624 0.0166185 -0.012530484 -0.020365112 0.0016694464 0.003048344 -0.014547786 0.0041192225 0.0046003745 0.0032188082 0.0065398365 0.018430475 -0.009383161 0.026647253 0.004614214 -0.0020901174 -0.009773793 0.0024816075 0.0045739166 0.0038196547 0.0035948264 -0.0021093793 0.004711166 0.0019188744 0.012066805 -0.00552235 0.006273087 0.018749038 -0.008736991 0.00654646 0.007600289 -0.012641894 0.0063092583 -0.009204186 0.003473545 -0.0117578795 0.0015421339 -0.0109431585 -0.015085465 -0.0068671675 0.0045847986 0.010085676 -0.0015375733 0.01014116 -0.007890701 0.004720179 -0.016927551 -0.0031181292 0.0051547918 0.00075272296 -0.0068473136 -4.3513875e-05 0.006994253 -0.0026141794 0.0006303743 -0.01076996 -0.0119265895 -0.017428245 -0.012717066 0.005920815 -0.0075864634 -0.008556871 0.0063108425 -0.015529342 -0.016549125 0.008651755 -0.006685398 0.016034063 0.017025603 -0.011032878 -0.030433074 -0.0056162057 -0.0005088634 0.023421105 0.0059790905 -0.013255303 0.007988948 0.008682975 0.0006557921 0.011869466 -0.00802176 -0.015816644 0.0026939034 -0.012474429 -0.0078763105 0.0012577325 -0.011537446 -0.000322662 -0.02371622 -0.0046792086 0.0033414096 0.009539833 0.019928379 -0.0036299792 0.007993155 0.0073335012 -0.00837861 -0.0008113333 -0.0033141356 -0.012741244 -0.007373102 -0.023002014 0.009765221 0.0043903748 -0.0059620226 -0.0011256192 0.008336068 -0.009906214 -0.011315257 -0.000600552 -0.004213612 -0.012297875 0.0014692703 -0.019843852 -0.006528377 0.0036617382 -0.0011098037 0.0014759667 0.0014227667 0.0102675725 -0.00063982967 0.002073485 0.008892678 -0.0039761285 -0.0131126465 -0.005992173 0.015060496 0.004100038 -0.028617825 -0.019849822 0.012628404 0.002298092 0.011322734 0.035620347 -0.004149402 -0.0034016485 0.0054435795 -0.018842595 -0.001137736 -0.025963914 -0.001992652 0.0020736242 0.005582482 0.014603818 0.007559367 0.0047933436 -0.0020521206 0.014709728 -0.0068506957 -0.003131542 0.016317574 -0.0066957423 -0.008542553 0.013369785 0.0076843803 -0.0028709476 -0.013363144 0.020997329 0.006917661 0.026271954 -0.0022013383 0.023103556 0.028980045 0.012796561 0.008672371 -0.0018226022 -0.002086189 -0.01909528 0.0074996674 -0.0015187758 -0.0057019293 0.0070272926 -0.017380698 -0.013472404 0.011845126 -0.0021608134 -0.014278917 0.002903407 0.009612683 -0.008647103 0.0004403949 -0.009034878 -0.00830428 0.00769379 0.005235109 0.014057534 -0.0024935093 0.010495416 0.008513057 -0.020657497 0.0082272785 0.0049698767 -0.009542238 0.0051085 0.012426628 -0.00015711026 0.014713361 0.023343341 0.0027839337 -0.009044044 0.01363665 -0.022586403 -0.00087691 0.013747664 -0.008539501 0.0091186585 -0.019193694 -0.020888582 0.008429495 -0.0108435685 0.014179624 -0.013005812 0.015213468 -0.0072232676 0.0106073 0.021645194 0.016830405 -0.000622428 0.0014317197 0.010564459 0.011839721 0.01761594 -0.008701256 0.007925452 0.0093037095 0.0066997875 0.0109867845 0.013905973 -0.013392554 -0.0047240444 -0.0076595405 -0.0020160405 0.0057529476 -0.0035797323 0.0001241218 0.02090915 -0.008680573 -0.009762069 -0.012413518 -0.030744048 0.02383002 -0.0046209604 0.0044892067
的 -0.008792125 0.015810415 -0.007177848 0.0088535305 -0.0051071965 -0.009551287 -0.019686325 -0.0005501546 1.1441056e-05 -0.03356171 0.0008927574 -0.017864343 0.0017471092 -0.0007316838 -0.005953067 0.00073765474 -4.251204e-06 -0.015021541 -0.0057836617 -0.0030951344 0.0072606057 0.006612212 0.0112700015 -0.0050160135 -0.014733633 0.001863404 -0.0049150353 0.0009135105 -0.010438255 0.0013066375 -0.007414001 -0.009078443 -0.0031813544 0.004299276 -0.011958123 -0.009977778 -0.011945277 -0.008067068 0.0064817136 -0.020356983 0.0057149623 -0.0150621645 0.005427163 -0.018552484 0.011489709 -0.0032957713 -0.0033973046 -0.009899539 -0.020524267 -0.0031705447 0.013079365 -0.0045945514 0.027108358 0.010610371 -0.005532619 -0.006766019 -0.0019689626 0.0076542012 0.019029245 -0.018827466 -0.022920538 0.002677222 0.0007232698 -0.01765463 0.006895189 0.0052706427 0.0031640977 0.008575949 0.022978162 -0.012595044 0.03496825 0.006233566 -0.0022427158 -0.009432561 0.0045350213 0.003492461 0.0035430877 0.0029569606 -0.0023293537 0.0045662066 0.00177355 0.014880686 -0.006971533 0.007292714 0.020723736 -0.009287436 0.0074361158 0.008316084 -0.013193506 0.010116615 -0.009757463 0.0034614133 -0.015692426 0.0008531294 -0.013895603 -0.017823 -0.008479778 0.0034785978 0.013637475 -0.00037831636 0.010490508 -0.0112674525 0.008059528 -0.018435987 -0.0035107536 0.008253133 0.0015157697 -0.007727397 -0.0015505941 0.011476814 -0.0042181085 -0.0019179824 -0.011328015 -0.012123318 -0.02089739 -0.012830439 0.0071398923 -0.008239558 -0.00833278 0.008632526 -0.019019613 -0.018491209 0.008725005 -0.0074183373 0.018525213 0.020235986 -0.012446131 -0.03801554 -0.0050360044 0.00074449053 0.029187819 0.009965089 -0.017698433 0.01054963 0.010526592 -0.001617264 0.015213695 -0.008383769 -0.021336751 0.0018355895 -0.015262473 -0.009624549 0.0026121219 -0.012744009 0.0026260365 -0.026769588 -0.0062487004 0.0037103044 0.011249177 0.024136217 -0.005596006 0.011704754 0.010386458 -0.009527671 -0.00051449303 -0.005706412 -0.01224147 -0.01001118 -0.027714806 0.009013391 0.0059618945 -0.0069047543 -0.0025459595 0.01309597 -0.014638859 -0.011265878 -0.0008414194 -0.0049287924 -0.014790257 0.0034417026 -0.023996344 -0.010058648 0.005590731 -0.0040575983 0.0015727429 0.0022097633 0.012323854 0.0003193679 0.0006481015 0.011074147 -0.004486793 -0.015637463 -0.009178812 0.015491684 0.002618248 -0.034035925 -0.025567451 0.014784585 0.0011444335 0.013445866 0.042638797 -0.0056850407 -0.0036940488 0.0050822953 -0.020797517 0.0012919691 -0.030729411 -0.0033582926 0.0033454446 0.0072551765 0.014109414 0.007855713 0.0077615115 -0.0030405032 0.01860501 -0.007909744 -0.0016956496 0.02152257 -0.009366578 -0.009690025 0.01938529 0.010606622 0.00027249922 -0.015297507 0.027307766 0.01005829 0.029277703 -0.0021206674 0.0257145 0.03565289 0.015539476 0.011549548 -0.0056220978 -0.0011840338 -0.023829784 0.012539528 -0.0023033274 -0.007683092 0.007601331 -0.018358206 -0.015333149 0.015325102 -0.0009087096 -0.017203992 0.004477242 0.010983909 -0.011975821 0.0020100798 -0.0090649575 -0.009023355 0.008629384 0.0078000557 0.018392876 -0.0031590548 0.009483436 0.010719773 -0.02429768 0.010416738 0.0060428367 -0.011703499 0.00703597 0.014132923 -0.0008672281 0.016308513 0.027675841 0.000591807 -0.01113174 0.01942199 -0.02681479 -0.0019859876 0.018194944 -0.01083532 0.010233203 -0.02117819 -0.025385855 0.011790798 -0.014065678 0.0149549255 -0.015943391 0.020407757 -0.008577157 0.012441011 0.024079226 0.020978073 0.00048094185 0.0009018746 0.012490807 0.016837854 0.020551946 -0.009653962 0.00885762 0.012732676 0.0082375575 0.010552979 0.016991675 -0.015329283 -0.004686506 -0.008472309 -0.0028176168 0.008831065 -0.004693452 -0.00031560956 0.025789605 -0.010249002 -0.011755821 -0.016427305 -0.03570001 0.030086424 -0.008099097 0.0074077053
你 -0.0052034566 0.0125918975 -0.0030316184 0.0072544445 -0.004380278 -0.0066806907 -0.013147508 0.0012233286 -3.2201748e-05 -0.025329772 0.00094970566 -0.012857189 0.0007003877 -0.0015614858 -0.0028997674 -0.0010157814 0.00026613954 -0.012502103 -0.0055126958 -0.0042065764 0.005197787 0.0046300795 0.0100025255 -0.0039348123 -0.008790682 0.0025903215 -0.00466712 0.002054002 -0.0072158603 -0.00018308964 -0.005553755 -0.0067294384 -0.0006071958 0.0042388826 -0.008892007 -0.00640401 -0.010838204 -0.0044224397 0.0036688023 -0.015580078 0.0056696828 -0.011885089 0.0020573346 -0.012917457 0.008045869 -0.0019757545 -0.0020618103 -0.0065987506 -0.017920882 -0.0016626635 0.009590906 -0.0044199554 0.02215399 0.009261816 -0.0018109025 -0.0033613553 0.00012514731 0.0065797744 0.013935201 -0.011738891 -0.017905766 0.0013592871 0.00019346773 -0.01380834 0.0056058452 0.0022990694 0.0034270145 0.008805159 0.01751176 -0.009189626 0.026547726 0.005748753 -0.0013217862 -0.008927026 0.0030816884 0.0036338267 0.0028549104 0.0016909649 -0.002069576 0.006302885 0.0012650944 0.009968459 -0.0029134224 0.005518279 0.015701268 -0.006554808 0.005821093 0.008571199 -0.008928822 0.005795783 -0.0062498986 0.0036640964 -0.011738007 0.0010979781 -0.010610392 -0.013515869 -0.0044352943 0.0015817275 0.00999418 -0.00035034714 0.0074551874 -0.009078383 0.006108509 -0.0151044335 -0.0015470022 0.007203448 0.0008483258 -0.0053866096 -0.0021081383 0.0062448042 -0.0017115627 -0.0009769669 -0.008574181 -0.009349822 -0.01629671 -0.009754827 0.0036817323 -0.005211329 -0.008064092 0.0047345734 -0.015617568 -0.013416546 0.008451988 -0.0049193185 0.015274733 0.015984975 -0.0103240125 -0.028618256 -0.004441141 8.292054e-05 0.019586595 0.0071544987 -0.013606337 0.0067744306 0.0068166866 -0.0002720495 0.009761431 -0.006541256 -0.01635795 0.0005595238 -0.010959345 -0.0074896426 0.002497556 -0.010181647 0.00022233407 -0.01914552 -0.004141597 0.002663792 0.008364685 0.01948996 -0.003861964 0.009029278 0.007412223 -0.007469197 -0.00010511847 -0.0024256133 -0.010744586 -0.006014092 -0.020220874 0.009651143 0.0054984647 -0.0060262033 -0.0028699785 0.010111657 -0.011732143 -0.010470985 0.0017298842 -0.0021615922 -0.012060561 0.0031727585 -0.016356176 -0.008087458 0.0051839477 -0.0018957764 -0.0012743182 0.00084987545 0.011146912 0.0012762953 -4.794463e-05 0.0062399153 -0.0048415503 -0.009867897 -0.0059428583 0.0112369945 0.0035192773 -0.025557745 -0.020303322 0.010015702 -0.00014786275 0.009405684 0.032805577 -0.0020135655 -0.0018023223 0.0054314053 -0.015758758 -0.0003591483 -0.022709373 -0.0024122652 0.0027688153 0.00436061 0.012365218 0.0062896595 0.004788741 0.00037410166 0.014536756 -0.006821187 -0.0031508654 0.014036951 -0.0075105047 -0.0073575214 0.014165811 0.008364429 -0.002423596 -0.011342903 0.020842567 0.007313947 0.023620902 -0.0006428944 0.021373114 0.026503934 0.009722206 0.00994779 -0.0016809689 -0.00053037435 -0.01653796 0.0074808467 -0.00034302313 -0.005799723 0.0050650407 -0.015857914 -0.012615808 0.011797985 -0.0005088579 -0.012940007 0.003363792 0.007972342 -0.009242489 0.0011192187 -0.008429837 -0.0052312105 0.00818824 0.005768905 0.015133684 -0.0022052883 0.008926773 0.008816323 -0.018823063 0.0072506876 0.0037833368 -0.008826839 0.0029816367 0.010609147 -0.001363829 0.013019337 0.019671962 -0.00011173793 -0.010091664 0.013252314 -0.019955559 -0.0031975333 0.011802065 -0.008097016 0.008242728 -0.017480863 -0.017875161 0.008649966 -0.0084318975 0.013136511 -0.011657684 0.013043451 -0.00874469 0.009116197 0.019381532 0.014507164 0.002027208 -0.00024496857 0.008301304 0.011496335 0.017315246 -0.008956557 0.005749969 0.008983513 0.007087679 0.0076709175 0.0129204225 -0.013041179 -0.003186962 -0.006897292 -0.0025406114 0.0050073396 -0.0015213806 -0.0008321883 0.018435065 -0.0092326 -0.00846763 -0.013137034 -0.02597196 0.021461444 -0.0044191773 0.0037090112
给 -0.00406889 0.00824594 -0.0046411017 0.003452355 -0.0021188266 -0.006457367 -0.012335672 0.0020087054 -0.0006316445 -0.021019883 -0.0009950257 -0.009630502 0.0005741052 -0.00015344248 -0.0014397842 -6.678977e-05 -0.002103474 -0.011442676 -0.002813835 -0.0022449123 0.004337136 0.0037941562 0.005948939 -0.00536105 -0.008073796 1.828038e-05 -0.0026941167 0.0015588102 -0.005723453 0.00048524505 -0.0028653594 -0.0033819037 -0.0012520518 0.0039710053 -0.007413028 -0.0038661107 -0.009488991 -0.0040484937 0.005713187 -0.013181959 0.0037910382 -0.009604015 0.0013518889 -0.0116304755 0.007563657 -0.0019441346 -0.002346221 -0.00641259 -0.015201859 -0.00032989652 0.00940312 -0.0026900973 0.019061623 0.0065591563 -0.003070174 -0.0017480444 -0.0010418708 0.004484321 0.010677999 -0.01166298 -0.013835537 0.000825282 0.0013415525 -0.01080947 0.0034957528 0.001660574 0.0036781586 0.004866169 0.015681427 -0.0061102742 0.021890143 0.0054589547 -0.003161312 -0.005119208 0.0031013563 0.0023116563 0.0014215733 0.000302935 -0.002584103 0.005364123 0.00062666653 0.0068306453 -0.0035762417 0.0055450243 0.012834996 -0.007198762 0.0038271584 0.0076335175 -0.008381421 0.0039764917 -0.0052655754 0.0028175935 -0.0098893475 -0.0007364402 -0.010756641 -0.012397239 -0.0031154568 0.0023480477 0.010104732 -0.002620806 0.0059486325 -0.0047453814 0.002336513 -0.01198946 -0.0015360141 0.0065729385 0.0013335631 -0.003553095 0.00061319704 0.007519435 -0.0010868023 1.5656008e-06 -0.006271942 -0.0067016506 -0.012392291 -0.00899861 0.0024527807 -0.002992331 -0.006749703 0.0034212917 -0.012957378 -0.010193612 0.0071779503 -0.005657726 0.011313566 0.012610287 -0.009178077 -0.021495324 -0.0018204264 -0.001406835 0.018972894 0.005259859 -0.01147669 0.0051945094 0.0046156673 -0.001335094 0.007906474 -0.0048998725 -0.014591917 0.0016913567 -0.009849062 -0.0064297207 0.0012877235 -0.0076652546 0.0015865105 -0.017096685 -0.0016938141 0.004281578 0.008315433 0.016875485 -0.0035663832 0.0075786514 0.0057861605 -0.0073165097 -0.0009633686 -0.0040797614 -0.0096676685 -0.006709295 -0.018543823 0.0059142103 0.006059562 -0.0034597332 -0.0009679829 0.005750264 -0.009752572 -0.0078001353 -0.0008058948 -0.004075256 -0.009480437 0.002768677 -0.013869613 -0.007065234 0.003325868 -0.0019955847 -0.0016186148 0.00019903267 0.0092635015 0.0019559937 0.0019432887 0.0074387304 -0.003274543 -0.008551988 -0.0051593627 0.009456631 0.0019711994 -0.021210404 -0.015893357 0.010110234 -0.00085016096 0.009373694 0.025332848 -0.0033071602 -0.0031852173 0.0039347624 -0.0121208485 -0.00097562664 -0.019780025 -0.0028774189 0.0005055185 0.0024403534 0.010016178 0.0050285305 0.005020107 -6.0952894e-05 0.012732604 -0.0045109564 -0.0028773048 0.012753046 -0.005137001 -0.0050811353 0.009766149 0.0044556255 -0.00064605236 -0.008437568 0.01778371 0.003975442 0.020120578 -9.9510195e-05 0.016879262 0.022386089 0.0096531 0.0053425953 -0.0017206233 -0.00046965922 -0.015334627 0.0069388333 -0.0019563977 -0.004615385 0.0027413412 -0.010965307 -0.008073505 0.010072093 -0.0007058843 -0.011412702 0.0029027446 0.007880631 -0.0078449575 0.00086508784 -0.0048562163 -0.0055426597 0.0065527884 0.003613448 0.01199832 -8.923568e-05 0.0061892197 0.0054760925 -0.015186176 0.005178645 0.0010630536 -0.007706797 0.0021027988 0.0082690185 -0.0018469219 0.009113922 0.018486457 0.00050717307 -0.00854029 0.010702396 -0.015431891 4.5423825e-05 0.010737055 -0.0047259494 0.007034219 -0.013155188 -0.01585492 0.006920735 -0.00849586 0.010551876 -0.010308337 0.013074805 -0.007557686 0.008648785 0.016877102 0.012009177 0.00022581228 0.00041404527 0.008294581 0.008173921 0.013293185 -0.008221923 0.0060187257 0.0059428858 0.004606276 0.007670921 0.008596119 -0.008113408 -0.0030295746 -0.0060215928 -0.0023141874 0.0063170246 -0.0030502041 -0.001248698 0.015541982 -0.004859992 -0.008877883 -0.0092349695 -0.023866689 0.019234732 -0.00541185 0.004868126
了 -0.006034526 0.010432902 -0.002106463 0.0039396556 -0.002708529 -0.004840909 -0.01336209 0.00032721952 -0.0005360106 -0.022207374 0.0004419656 -0.010860516 0.000409428 -0.00050908036 -0.0038520924 0.00049736997 -0.0005703981 -0.010928024 -0.005490143 -0.0013537798 0.0061853603 0.0027228366 0.005798796 -0.0032640314 -0.0088138245 0.0013589016 -0.0033807233 0.00082503865 -0.007041981 0.00096949196 -0.00252796 -0.0037561045 -0.0020218452 0.0030835299 -0.0064377883 -0.006175411 -0.0073048905 -0.004402656 0.0034349717 -0.0144261755 0.003421552 -0.009902923 0.002897884 -0.010671177 0.007673785 -0.0013903993 -0.00058289774 -0.005939549 -0.013863728 -0.0009746267 0.008724366 -0.0023479061 0.019096926 0.0072110463 -0.0028089657 -0.0041252887 -0.0012830048 0.005846167 0.010788821 -0.011575501 -0.014430364 0.0024745578 0.0027234938 -0.01196464 0.0037334645 0.0031745764 0.004473537 0.0054347967 0.014798125 -0.0065667406 0.020777496 0.0041875155 -0.0031505525 -0.0056362827 0.00018056948 0.0038479576 0.00083362096 0.00030097013 -0.002270102 0.0041171922 0.0014052443 0.008623 -0.0030188104 0.0055901306 0.015228128 -0.0072989617 0.004953161 0.0077252802 -0.009790449 0.005324395 -0.0062141027 0.0036836932 -0.01059733 -0.0009907613 -0.010403956 -0.010997784 -0.0049194954 0.0014206778 0.009689577 -0.0006715904 0.006120258 -0.006203086 0.0028295822 -0.013280273 -0.003279419 0.004410391 0.0008365804 -0.0053201285 -0.001067171 0.0052288338 -0.0019688727 -0.0005721094 -0.009126021 -0.008199872 -0.014311555 -0.0077137663 0.002499918 -0.0051016193 -0.0054514003 0.0031917698 -0.0106869675 -0.011198572 0.00620036 -0.0031406118 0.013362711 0.013157917 -0.00790718 -0.023925286 -0.003041118 -0.0013522964 0.01601115 0.0060496437 -0.0108254235 0.007322149 0.0059379432 -0.0022315294 0.009345459 -0.0038897698 -0.014043147 0.0016801665 -0.008125383 -0.0065720384 0.003531047 -0.008145541 0.0013529242 -0.017601369 -0.003078436 0.0028826627 0.006642902 0.016228082 -0.0026732436 0.006489917 0.0061737387 -0.0074703055 -0.0011216117 -0.0017082348 -0.0102697015 -0.0068602012 -0.017732307 0.0066446313 0.0038836198 -0.0059351074 -0.0030334543 0.008468771 -0.00700942 -0.0076807835 -0.0010240736 -0.0027355542 -0.008960386 0.0015981471 -0.01420999 -0.0065141767 0.0015079043 -0.0017187954 -0.0010212288 0.0015752399 0.009167401 -0.0006399948 2.911365e-05 0.0061030034 -0.003843757 -0.008953684 -0.0055158683 0.009718332 0.0041764835 -0.020196287 -0.014574973 0.0074655926 -0.0007027373 0.008166187 0.02739281 -0.0023303516 -0.00398506 0.0036995588 -0.013287583 0.0017692853 -0.019938236 -0.0012545871 0.0005403417 0.0048258863 0.011250291 0.005778308 0.0053163217 0.00016019975 0.0124759795 -0.0061733 -0.0027688993 0.014318475 -0.0035434042 -0.004737006 0.011465321 0.00570805 -0.00077605085 -0.00891515 0.015962614 0.0057321056 0.01974324 -0.0007998302 0.018467262 0.022915369 0.009099532 0.005977738 -0.0025033576 7.483176e-05 -0.014084725 0.005952883 -0.001672131 -0.0058080736 0.0036990307 -0.013846166 -0.009678558 0.009266701 -0.0022147158 -0.011279351 0.0009548634 0.008197308 -0.008365284 -0.0004289797 -0.007301554 -0.006512305 0.006579519 0.0059054648 0.010074335 -0.00062682544 0.0074508763 0.0068724207 -0.013516461 0.0058464804 0.0017673245 -0.0055477037 0.0032144198 0.010858222 -0.002753331 0.010617842 0.018080374 -8.706041e-05 -0.0074647046 0.010909509 -0.015116733 -0.001295318 0.012020005 -0.0072349124 0.005367852 -0.015126219 -0.014501665 0.007435397 -0.008619021 0.011670261 -0.011083168 0.010824349 -0.0064212126 0.008642682 0.016555868 0.013738088 0.00016277708 0.0007780177 0.0062531983 0.0095334435 0.014404172 -0.0073535745 0.006645966 0.008670747 0.0044488423 0.007421623 0.009920477 -0.0100186635 -0.0053429687 -0.006453853 -0.0015122026 0.0038657417 -0.0034533779 -0.0017798461 0.016883178 -0.007207048 -0.009645776 -0.009390745 -0.02386462 0.018433133 -0.0044092643 0.004422257
这个 -0.004105915 0.006011153 -0.0022785782 0.005009425 -0.0032596153 -0.002736457 -0.007586087 0.00084064784 0.00023962227 -0.016279418 0.00032976578 -0.0073577273 0.0029882651 -0.001028719 -0.0020737648 -1.751137e-05 0.0006132737 -0.0063926326 -0.0042733056 -0.0012458663 0.0021642959 0.0030179657 0.005084905 -0.002071812 -0.006144938 0.0017521413 -0.0015857193 0.0016653019 -0.0049001127 0.00034203578 -0.0043061427 -0.003486672 -0.0010005622 0.0025231335 -0.005741781 -0.005163678 -0.00596563 -0.0029940167 0.0036741623 -0.009571862 0.001427046 -0.006420826 0.0026325244 -0.008976948 0.006300429 -0.0013440109 -0.00012669015 -0.0040170923 -0.011509857 -0.00017927265 0.007034976 -0.0008521756 0.012388529 0.0035759704 -0.0021393588 -0.0018574721 -0.0005621472 0.004049595 0.009414547 -0.008856839 -0.011796185 -0.0005865043 0.00050436833 -0.0066158525 0.004039034 0.002037507 0.0016987051 0.0055929287 0.009864133 -0.004776022 0.016660362 0.0028032823 -0.00015327305 -0.0036951362 0.0024230278 0.0014178958 0.0014792231 0.0024907296 -0.0026425913 0.0027477245 0.0009303481 0.006997036 -0.004330558 0.0017506164 0.009096396 -0.004877447 0.0044790367 0.002944568 -0.007108939 0.004110283 -0.005743996 0.0012045779 -0.0058965413 0.001596996 -0.0056447317 -0.007141595 -0.0031858655 0.0027643535 0.00492029 0.00066701276 0.0038271167 -0.0033130643 0.0023641794 -0.008669942 -0.00011423831 0.0044386955 0.0024512163 -0.0026501818 0.00028910898 0.005575738 -0.00086415024 0.0009873192 -0.0050645587 -0.005998089 -0.009873399 -0.00717947 0.002685869 -0.0027506528 -0.004677732 0.0036697478 -0.008219776 -0.00952999 0.0037021306 -0.0026311772 0.0078728 0.010378809 -0.0067171436 -0.015559673 -0.0028179227 -0.0014046147 0.011095326 0.0046139667 -0.008859876 0.004114805 0.0059844544 0.000728734 0.008166578 -0.0036000065 -0.010731205 0.0006410044 -0.0075100227 -0.0034263202 0.0007252836 -0.0056501217 0.0010007616 -0.010941518 -0.0031076549 0.0017800517 0.0042169783 0.012279319 -0.0029128913 0.005231613 0.005568226 -0.004249887 0.0013151555 -0.0014836162 -0.006884413 -0.0037961542 -0.013275674 0.005178216 0.0036714894 -0.00478721 -0.0016506015 0.005516495 -0.0059631057 -0.0065134373 -0.0012000304 -0.0023884478 -0.008032252 -0.0005667181 -0.009983452 -0.0032949208 0.0014709865 -0.0016350928 -0.00042926968 0.00084857637 0.00571221 1.5544927e-05 0.0018460904 0.00487843 -0.0023496333 -0.0052032326 -0.0050341194 0.009072969 0.0012129722 -0.01377313 -0.012775884 0.0066460473 -0.00097089855 0.0068957177 0.020360433 -0.003139386 -0.003264513 0.002932734 -0.010422455 -0.0010562942 -0.014145614 -0.00043415456 0.002019159 0.003718327 0.008310597 0.0018878734 0.0033265431 -0.0023194363 0.007712066 -0.0023909404 -0.002448376 0.010212425 -0.0044978335 -0.00493776 0.0074154567 0.0058358884 9.35128e-05 -0.007955899 0.011932767 0.005357644 0.01321181 6.6350665e-05 0.012351044 0.016943319 0.006220389 0.004656656 -0.0027941763 -0.0017391209 -0.011733285 0.004413481 -0.0018372119 -0.004651971 0.0016674042 -0.008256387 -0.005101158 0.007956975 -0.00072186167 -0.009146669 0.0013852862 0.0052266866 -0.0049476586 -0.0012459251 -0.0037035698 -0.002538703 0.0041479897 0.0045991424 0.008311988 -0.0023747461 0.0053202086 0.00561095 -0.0105466675 0.0032177293 0.0012048655 -0.0040689497 0.0028579177 0.005939275 -0.0009038817 0.008650782 0.0139787765 0.0021441248 -0.006366031 0.007973257 -0.012726927 0.0004946548 0.006618588 -0.0043686237 0.004397691 -0.010851682 -0.012587192 0.0058909096 -0.0059726904 0.0070516323 -0.008810336 0.009979743 -0.0046554813 0.0038882028 0.0106735295 0.0105560245 0.0017481298 0.0009078177 0.0039861603 0.008531706 0.010019155 -0.0038863285 0.0041426714 0.006206627 0.004309759 0.0050080135 0.007293442 -0.007824606 -0.0039138384 -0.00477507 -0.00067499647 0.0044330475 -0.0007895672 0.00053516054 0.011364627 -0.005575788 -0.004660751 -0.00654262 -0.015577134 0.014582115 -0.0047491854 0.00457112
看 -0.002584718 0.0074633285 -0.0014658209 0.0031795853 -0.00089158595 -0.0022557157 -0.007031069 0.00089316635 -0.0009357473 -0.013001753 -0.00053094584 -0.005904248 0.00086047343 -0.0021031843 -0.0018001619 -0.0012566372 0.00075009716 -0.0072665988 -0.0013793499 -0.003114154 0.004699603 0.0012189096 0.0042351163 -0.0026377803 -0.0037812921 0.0022820192 -0.0030231785 0.0014635664 -0.0024979669 -0.00062469614 -0.0037375926 -0.0046548094 -0.0022340335 0.00048565297 -0.005061383 -0.0026222274 -0.0068489104 -0.004298766 0.002943219 -0.0072791977 0.004061598 -0.0040816567 0.001956674 -0.0070271255 0.003810387 -0.0007669192 -0.00073040085 -0.0049153026 -0.009432776 0.00025085377 0.006642683 -0.00238642 0.011711823 0.0052025304 -0.0025438776 -0.0029375718 -0.000871081 0.0033824767 0.0067243464 -0.0062132482 -0.009027753 0.0022211706 0.0022671057 -0.005802125 0.0015589234 0.002838724 0.0010935618 0.0038595044 0.009790354 -0.0037930917 0.012352762 0.0018072007 -0.0014647179 -0.002523913 0.0027351596 0.0018140742 0.00055659906 0.00035255848 -0.0023135575 0.0011163801 0.00283011 0.006507978 -0.0030066718 0.003290721 0.007510388 -0.0027848613 0.002316109 0.0031818268 -0.0046552187 0.005023915 -0.002530311 0.0009570685 -0.007586453 0.00017782782 -0.0045455215 -0.0056509734 -0.0033855138 0.0013846911 0.0059431023 -0.0024061245 0.0050446144 -0.004009587 0.0031984753 -0.008112466 -0.0006848073 0.0028048218 -0.0009034534 -0.0020028707 0.0005135464 0.0054141455 0.00025833925 -0.0006613208 -0.004253825 -0.0053118984 -0.009002202 -0.0050315666 0.001612495 -0.0029114382 -0.0029953667 0.004029696 -0.008995818 -0.006233973 0.003998829 -0.0012937363 0.00859084 0.009212529 -0.005165249 -0.015571942 -0.0033146883 0.0014546863 0.011898752 0.004364653 -0.0082484605 0.0021252667 0.0042652893 0.00013229653 0.004035416 -0.0046484396 -0.008254203 0.0012927942 -0.005268233 -0.0046180505 0.00076342456 -0.004466775 -0.0010367087 -0.009153003 -0.00090621406 0.0024743502 0.0054937447 0.009629571 -0.0020405229 0.0053637554 0.0038068355 -0.0042205546 4.606687e-05 -0.0031438605 -0.004594412 -0.004506699 -0.01095917 0.005180229 0.0013680479 -0.003067681 -0.0007817392 0.0044396995 -0.0063511804 -0.004219601 -0.000108835666 -0.002080852 -0.0068108183 0.0018217568 -0.008617281 -0.0043830797 0.0027497578 -0.0007459324 0.001618254 -0.0004946677 0.005604626 -0.001205222 0.001184404 0.0046578087 -0.0028383578 -0.0050441935 -0.004778531 0.006634841 0.0019030893 -0.012366746 -0.00929495 0.0051105306 -0.00037692688 0.0051590744 0.018036408 -0.002146286 -0.001895915 0.001414414 -0.009352514 -0.001435806 -0.012217093 -0.0012526672 0.0027451317 0.0039159246 0.007047938 0.0022778215 0.002140733 0.00073901133 0.0076626698 -0.0020493774 -0.001766629 0.0077778236 -0.0041093333 -0.0037038345 0.0077635725 0.0027834126 -0.00027457645 -0.007713412 0.011354431 0.0022714124 0.012887287 0.00091441756 0.009244106 0.014167647 0.005459118 0.002915113 -0.00079345825 -0.0017305552 -0.010680091 0.0033821184 0.00015134126 -0.0016491737 0.0022893008 -0.009325513 -0.007255355 0.005500001 0.0013024295 -0.006826008 0.0026593304 0.003291293 -0.005378871 0.0006712011 -0.005280119 -0.004177534 0.0027597507 0.0036367173 0.008870954 -0.0023677617 0.0049450463 0.0038504107 -0.011017825 0.004284579 0.0014073525 -0.004153098 0.0031512633 0.007309199 0.00081897585 0.007831357 0.010396536 0.0008336151 -0.0033802132 0.0076348977 -0.011739264 -0.0006910661 0.005825272 -0.003723439 0.0040415046 -0.010728131 -0.011089467 0.004185124 -0.0064965514 0.005719681 -0.0059630913 0.007547417 -0.00529327 0.0037426637 0.011100566 0.0072318483 0.0011859471 8.192091e-05 0.0050782086 0.0067141606 0.010011351 -0.004828539 0.0036081963 0.005661904 0.0029741293 0.0060670204 0.007823804 -0.007279009 -0.0033720494 -0.002047006 -3.1777603e-05 0.0033776425 -0.0029004945 -0.00037775878 0.009339045 -0.0052164225 -0.0063875676 -0.006190259 -0.014042002 0.010203518 -0.0016229748 0.0012627797
是 -0.003789063 0.009517757 -0.001991301 0.0038147478 -0.0010395661 -0.0037870766 -0.010894004 0.00065371074 0.00081478903 -0.017644381 -0.0014466887 -0.008980359 0.00083707564 -0.0023380623 -0.0018197427 -0.00016098355 -0.000265831 -0.010010655 -0.0045537455 -0.0022459829 0.0055480152 0.004248726 0.0046350756 -0.0036569068 -0.007829753 0.0023398076 -0.0024451723 0.0012871422 -0.00603414 -0.0006540506 -0.002931217 -0.00529662 -0.002625029 0.0010988958 -0.0063906773 -0.005509923 -0.0052187294 -0.0038611023 0.004255938 -0.009535116 0.0045374106 -0.0076245186 0.003938705 -0.00979721 0.006136611 -0.00030312614 -0.002611161 -0.0032374302 -0.012120728 -0.0016511783 0.0050119725 -0.001491965 0.015394645 0.005568545 -0.0026163398 -0.0018719401 -0.00055989844 0.0046517896 0.008439262 -0.009576848 -0.01103745 0.00055394304 0.0014369757 -0.008000967 0.0019073195 0.0035586155 0.0031596217 0.0046664206 0.012386264 -0.0050328923 0.018745638 0.0024766626 -0.0029947273 -0.0056011225 0.0004729643 0.0013099775 0.001286597 0.0027744498 -0.0017476657 0.0034875548 0.002129514 0.00858208 -0.0017790776 0.0038753063 0.010007624 -0.004710794 0.0040105847 0.005126439 -0.007120422 0.0031424875 -0.00565852 0.0009373339 -0.009210364 -0.00026792468 -0.007164852 -0.010313636 -0.0054183714 0.0016268042 0.008196375 -0.0011556483 0.006041577 -0.004759898 0.0044080936 -0.011658155 -0.0030566999 0.0061423797 0.0014136273 -0.005325442 0.00037671652 0.003993799 -0.0007859041 0.0008510271 -0.0074196183 -0.0071359146 -0.009735233 -0.008556877 0.0045889234 -0.004075258 -0.0040157745 0.0032043834 -0.010431509 -0.010759507 0.0054533225 -0.004897295 0.009313178 0.008845383 -0.0051847873 -0.020387782 -0.0034101524 0.0003166344 0.013313941 0.0046607787 -0.010088988 0.006241688 0.0044617443 -0.00032674574 0.0070779454 -0.0037045176 -0.011857991 0.0002758152 -0.008158878 -0.0050895563 0.0010109084 -0.0045639323 0.0004328642 -0.013344699 -0.0038372444 0.0010051313 0.004534449 0.013192114 -0.0017979796 0.0068344343 0.00630706 -0.0045638643 -0.00034389537 -0.0020180529 -0.0074431067 -0.0033642421 -0.015393356 0.004078551 0.0023671936 -0.0026300158 -0.0018301136 0.00728652 -0.007957861 -0.0059633837 -0.0009737993 -0.0025447423 -0.009687966 0.0017061927 -0.0133792525 -0.0064210156 0.0018994549 0.00015928558 -0.00055950345 0.0018190279 0.0077885077 0.0019952813 0.002245876 0.005998911 -0.0017795049 -0.00593036 -0.0033109728 0.00904925 0.00033906056 -0.017665787 -0.013383096 0.008915225 -0.00039596038 0.004883327 0.022342844 -0.00081470946 -0.0006810005 0.0037980196 -0.011497653 -0.0010644991 -0.015192358 -0.00056605984 0.0021355855 0.0031269528 0.006976331 0.004568262 0.0029027697 -0.0022002168 0.00802196 -0.0058309026 0.00014426553 0.011572443 -0.0046073957 -0.004597015 0.00970452 0.004567486 0.00041110456 -0.009245976 0.013749955 0.0047637103 0.015125942 0.00040896883 0.013209117 0.01837528 0.0064043156 0.0073297345 -0.0026695186 0.00055151107 -0.011701232 0.006286204 -0.0026781652 -0.002190453 0.004129707 -0.010852681 -0.0066686063 0.009129822 -0.00013626028 -0.009486672 0.001426557 0.0041948324 -0.004703189 0.00022894771 -0.0038059598 -0.005558481 0.0062093586 0.0040262477 0.010305801 -0.0025196676 0.004922695 0.004539944 -0.011929395 0.006232781 0.0030041148 -0.0042261905 0.004516524 0.008358477 -0.0015171162 0.009689013 0.015500465 0.00092029566 -0.0052967803 0.009302142 -0.01444288 -0.00047619376 0.010664005 -0.0039471025 0.006015475 -0.013278046 -0.013348157 0.0070930696 -0.006598746 0.007476084 -0.007867676 0.009809089 -0.0059493766 0.006666264 0.013426346 0.0098670665 -0.00025284014 0.0014038425 0.0053913216 0.008196993 0.010127519 -0.0061672074 0.0047991085 0.0063705225 0.0033034766 0.0066625015 0.008586876 -0.008893897 -0.0026936727 -0.005715367 -0.0023315425 0.004422183 -0.0028580609 -0.00013126794 0.0142870955 -0.004290472 -0.007637546 -0.008981275 -0.017649163 0.016307095 -0.0045634564 0.0039380654
小 -0.0038310795 0.0065648565 -0.0024419338 0.0022467992 -0.0014063921 -0.002353219 -0.006380229 -0.0007000329 -0.0007461643 -0.010870105 -0.0008167858 -0.0051520313 0.0004388881 -0.0010117312 -0.0033585923 -0.0012464775 -0.0012067702 -0.006146548 -0.0012476734 -0.0027807846 0.0034072457 0.003139141 0.0033291504 -0.0010005637 -0.003235523 0.0014782317 -0.0016166031 -0.00023400434 -0.0028231964 -0.0006012696 -0.0017490532 -0.002384502 -0.0020077203 0.0013080701 -0.0029654864 -0.0045466437 -0.005575169 -0.0037900626 0.0013679297 -0.006160869 0.0023066842 -0.003982886 0.0017979203 -0.008007423 0.005444487 -0.0019410318 -0.0022946107 -0.001954424 -0.006902892 -0.0010146297 0.004780451 -0.002095677 0.008081659 0.00497796 -0.0015379641 -0.00030395525 -0.0017129461 0.00088013447 0.0058598164 -0.006896723 -0.00924497 0.0017140295 0.002348314 -0.0051667327 0.003264431 0.0010356542 0.0020315119 0.0030879744 0.009381456 -0.003389099 0.010136981 0.0005145877 0.0006022663 -0.0017699344 0.002395552 0.0019860803 0.0014232524 0.001185279 -0.0010096136 0.001123828 0.0015220273 0.004112001 -0.0016027001 0.003569627 0.0069895005 -0.0032555107 0.0029010696 0.0025592805 -0.0036917494 0.003332544 -0.0019862624 0.0008149474 -0.005994618 0.0009028567 -0.0049675833 -0.0063333986 -0.0039007647 0.002101849 0.0054129753 -0.0013922566 0.0046122875 -0.003605952 0.0022317092 -0.005186351 -0.00066773465 0.0016358381 0.0005044083 -0.0037096608 -0.0016997337 0.004331442 9.9033474e-05 -0.0013337566 -0.0050682863 -0.005037326 -0.007101087 -0.004386263 0.0025817745 -0.0036794257 -0.0037723165 0.002911784 -0.007554336 -0.0045420183 0.0039718873 -0.0037308082 0.0066807675 0.005440345 -0.005107255 -0.013010047 -0.0012893268 0.00095777155 0.009431377 0.004123455 -0.005449988 0.0035269952 0.0020955573 -0.00072323217 0.003900213 -0.0033415952 -0.007903065 0.0011849554 -0.0038813727 -0.0022797764 0.00079637725 -0.0047934772 0.0003949838 -0.010405962 -0.0013274142 0.00054199947 0.0027696714 0.009608915 -0.0010351341 0.0035368812 0.0022315898 -0.0026112935 0.0009768397 -0.0011369427 -0.0052645206 -0.0035255488 -0.009493355 0.0030102695 0.0022432564 -0.0022860589 -0.0024434184 0.0037546114 -0.0054659336 -0.005709278 0.0012359032 -0.0018852965 -0.0055659013 0.0007953399 -0.006287409 -0.0038817895 0.0004338353 0.00044217924 -0.0010452733 0.00024850108 0.004952956 0.00092219765 3.6510755e-05 0.0027679885 -0.0016420629 -0.0063372543 -0.0015066116 0.005051928 0.0023498784 -0.011891624 -0.009804938 0.006358762 0.0015777502 0.0045979368 0.013754183 -0.001267983 -0.0010315968 0.0033400806 -0.008070835 0.0011980078 -0.011745587 -0.0012807321 0.0019994308 0.0012582014 0.0054297806 0.0042229425 0.0033063993 -0.0017736315 0.0062630433 -0.0044409595 -0.0020788708 0.0075977826 -0.0015340192 -0.0024326004 0.0068441834 0.0043501426 5.6622805e-05 -0.00424263 0.009171029 0.0033086792 0.010515699 -0.0006751769 0.009855474 0.010716397 0.004934511 0.004981692 -0.001574784 -0.00035322565 -0.0084438985 0.004973828 -0.00044129317 -0.001564991 0.0017585807 -0.008008332 -0.003829724 0.0062731253 -0.00018486669 -0.007589724 -0.00050613313 0.0040577096 -0.004715821 0.0017275433 -0.004490467 -0.0015202728 0.0026936785 0.0023645235 0.007433144 0.00087550125 0.0041705268 0.0036154387 -0.007197905 0.0024434682 0.0024682512 -0.002194228 0.0033943537 0.004982375 -0.00033317893 0.004545979 0.0105735585 0.0019843343 -0.002761149 0.0057910513 -0.009353428 0.00037500908 0.0057912315 -0.003266704 0.0035778838 -0.006790861 -0.008178377 0.0053403294 -0.0057131173 0.006898036 -0.0064481036 0.005674431 -0.0028109113 0.004939101 0.009288368 0.006882045 0.0002591181 -0.00090154447 0.004192116 0.0061396062 0.008303799 -0.003916215 0.0012874355 0.0029539943 0.003474635 0.004011552 0.0037751328 -0.0070163314 -0.003619301 -0.0027347428 -0.00037726015 0.0010423478 -0.0006669871 -0.0010415147 0.009222341 -0.004018715 -0.0054891557 -0.0052866573 -0.013159606 0.010596284 -0.0027383568 0.001111323
一个 -0.0051301923 0.009069375 -0.003468176 0.004403062 -0.0009368105 -0.00528121 -0.008512211 0.0016374765 0.00062734605 -0.016900245 -0.00047805146 -0.0076703033 0.0017335323 0.00064549217 -0.0023714157 0.0013100454 -0.000980868 -0.0078032943 -0.0052309763 -0.0034972257 0.0048518553 0.0022661989 0.004882239 -0.0023174142 -0.006298181 0.0005527426 -0.0020122598 -0.00025731692 -0.0048771724 0.0016291135 -0.004138037 -0.004744471 -0.00028438852 0.0013519544 -0.00716406 -0.004270267 -0.0061909915 -0.003164274 0.0039666654 -0.011987269 0.0018429633 -0.005796572 0.0020832194 -0.010200011 0.0073265573 -0.000931349 -0.0016302748 -0.0035370495 -0.01128604 -0.003104124 0.0056517045 -0.0018032348 0.016325457 0.006620421 -0.0039464496 -0.003059228 9.061236e-05 0.0035590369 0.011246385 -0.00863928 -0.010513997 0.0010228286 0.00050568144 -0.007486504 0.0015464883 0.0017822015 0.0022410268 0.0054461844 0.012600665 -0.007881723 0.01677587 0.0027123478 -0.00273697 -0.0067032357 0.0018182041 0.0010642343 0.0028455763 0.0016202762 -0.002401858 0.0037027001 0.0019807983 0.007418276 -0.004474735 0.0019258582 0.011102205 -0.0043297075 0.005095247 0.0042940024 -0.007018461 0.0047560963 -0.004193996 0.0036034097 -0.008604818 -0.00049742364 -0.009336708 -0.008206475 -0.002898461 0.0024249493 0.006311254 -0.0012192278 0.0072335573 -0.0039149397 0.004763854 -0.01132956 -0.0024214634 0.005039393 0.0008304557 -0.0055575697 -0.0008427815 0.0039515053 -0.002233798 0.00015483257 -0.0072972197 -0.0062723756 -0.010048599 -0.0061167586 0.0032408945 -0.0042470177 -0.0050458633 0.0031949456 -0.011579 -0.011372081 0.005197138 -0.0027012455 0.010130165 0.009589818 -0.0051356927 -0.01885166 -0.0039126086 -0.0010672351 0.015093326 0.0040644547 -0.008249645 0.004392905 0.004115359 -0.00040245158 0.008662878 -0.004518395 -0.0121639725 0.00088629377 -0.0059143356 -0.004316191 0.00018120938 -0.0063572186 0.0020122519 -0.014614283 -0.002250659 0.0029648864 0.005626651 0.013538444 -0.003843194 0.005300574 0.00627856 -0.0043492094 4.6811452e-05 -0.0023746192 -0.007211256 -0.0065851794 -0.013339045 0.0056602606 0.0027212296 -0.005432694 -0.0013309565 0.0047900784 -0.0072455625 -0.006764208 0.001724204 -0.0021301268 -0.010054609 0.0024410374 -0.013560528 -0.0061485283 0.0018057469 -0.0011707166 0.0013298894 0.0003136673 0.0071460116 -0.0008176773 0.0014836886 0.0039962376 -0.0033668675 -0.00823111 -0.0029338298 0.008992095 0.001493627 -0.016915843 -0.012049686 0.008865217 0.0016601046 0.0075332 0.022314778 -0.0037144243 -0.003174753 0.0043550488 -0.010159237 -0.00080710434 -0.017506432 -0.0023582017 0.002212714 0.0028240925 0.00995663 0.0044101677 0.0043229107 -0.0011918157 0.0081210015 -0.004381581 -0.0014611228 0.011305139 -0.003249805 -0.0049344683 0.01026813 0.0062842197 -0.0004881029 -0.009127148 0.015365768 0.0058533982 0.014726538 0.00030177372 0.01321253 0.018177697 0.006951453 0.0062784883 -0.0008791317 -0.0003731029 -0.012313627 0.007280938 0.00028871326 -0.0050995345 0.0050671343 -0.010933951 -0.0086897155 0.008831519 0.00092154817 -0.009432236 0.0009977686 0.0063329944 -0.0041708564 0.00084419554 -0.0039397823 -0.003762405 0.0033182423 0.0032409828 0.0110536115 -0.0007673427 0.007146952 0.004678634 -0.013213511 0.0033670093 0.0033263683 -0.004666121 0.0020801055 0.009729442 -0.0007895021 0.0072798235 0.01381147 0.0013609092 -0.007519784 0.011192862 -0.014046923 -0.0022187284 0.009141052 -0.0068064732 0.006847647 -0.01364784 -0.014140108 0.005009167 -0.0063899416 0.007344613 -0.009070337 0.009461784 -0.0057811723 0.006195982 0.013296856 0.011147557 0.0012593606 0.00154891 0.0051835338 0.008312022 0.012085102 -0.0055766506 0.0048949625 0.0061934157 0.005145714 0.007565987 0.007175162 -0.008425275 -0.0046133427 -0.0036644149 -0.0019374074 0.0036000065 -0.0009229987 -0.0017341176 0.013190962 -0.005861108 -0.0076970267 -0.008417287 -0.019402 0.015471262 -0.0039613214 0.0023499187
泣不成声 -0.0044250106 0.006328921 -0.0007089271 0.0029659925 -0.0021316945 -0.0034975694 -0.007067253 0.00035166816 0.00088526873 -0.011161443 -0.0015550873 -0.0065969485 0.0021687802 -0.0016975395 -0.002103405 -0.000679735 0.0013875373 -0.005487862 -0.0029950808 -0.0015988945 0.0023950397 0.0019003246 0.005220537 -0.0030619449 -0.0031707028 -0.00025464932 0.00011356217 0.0006883482 -0.004876786 -0.0011131987 -0.0008089951 -0.0039563742 -0.0009331003 0.00018109127 -0.0045859995 -0.0032559738 -0.00466049 -0.0015046814 0.00068892544 -0.0067825126 0.0027201877 -0.006035005 -0.00013822671 -0.0072295163 0.002331692 -0.0012939424 0.00022322661 -0.0029158385 -0.005378812 -0.002492081 0.0056620855 -0.0024598322 0.0087443115 0.0032292786 -0.0022540314 -0.002021216 0.00045776617 0.0009691758 0.005506211 -0.006282604 -0.0062500564 -0.0004591689 0.0018801043 -0.0038073277 0.0010920024 0.0029269739 0.002602155 0.0035233633 0.007006207 -0.0033649127 0.011794963 0.0013817566 -0.0024128384 -0.0031857374 0.0015340624 0.0023551343 0.0011573685 0.0009928063 -0.001892917 0.0018944823 0.0025309986 0.0049077547 -0.0020330674 0.0019927204 0.008567746 -0.0013931537 0.0031571314 0.002214067 -0.0036805058 0.0034921987 -0.0023015197 0.0018190535 -0.0033775799 -0.0013219462 -0.0063159997 -0.004231144 -0.0012108139 0.002787861 0.0041405777 -0.0013406966 0.0038584636 -0.0041532116 0.002968704 -0.004802345 -1.8042303e-05 0.0030085118 0.00045118673 -0.003788565 -0.0004023995 0.0030446053 0.0006724889 -0.0013764927 -0.0052360496 -0.004741384 -0.0068481634 -0.0058138 0.0020644125 -0.00306979 -0.0018496601 0.0014488808 -0.0054585817 -0.007144533 0.0035893063 -0.0035841954 0.0056806975 0.0045830444 -0.004822614 -0.01154049 -0.0004380236 -0.0010315792 0.009999198 0.0030667547 -0.0054437267 0.0034945975 0.0047206017 0.00040629 0.0060578277 -0.0034272724 -0.006788143 -0.0011260273 -0.0062806853 -0.004436483 0.002741418 -0.0021368049 0.00018309944 -0.0082024615 -0.0011258725 0.0017336892 0.0029035027 0.007935626 -0.0025208616 0.0025211582 0.0040715635 -0.0041151703 9.893451e-05 1.1363874e-05 -0.0041828537 -0.0034798468 -0.009715698 0.002967811 0.0013425592 -0.0033972359 0.00017890813 0.004854437 -0.0031374232 -0.003597254 0.0016003823 -0.0015544607 -0.006611204 0.0021244013 -0.007402513 -0.0018973685 7.192981e-05 -0.0013709333 0.0012935122 -0.000724396 0.0038736458 0.0013413111 -0.0009910814 0.0021993378 -0.001107643 -0.0039516944 -0.0013529826 0.0060724854 0.0017483612 -0.010000072 -0.0067547723 0.003522117 0.0006358169 0.0041415393 0.013491055 -0.0015794878 -0.001654036 0.0012449872 -0.0056035705 0.00084384205 -0.009083001 -0.0023554857 0.0013857699 0.0017032897 0.0049286527 0.0034252924 0.0026642592 -0.00040309754 0.0065981816 -0.003143125 -0.0011022367 0.0067883767 -0.0025397923 -0.0024273584 0.005794849 0.0029610277 -0.00027618077 -0.0045565893 0.009655277 0.0026903306 0.0081918705 0.00016208814 0.009337629 0.009445173 0.004095853 0.0020281656 -0.0025381192 -0.00037122372 -0.00828762 0.004987645 -0.0023206202 -0.00062229944 0.0009573735 -0.0051985206 -0.0053080753 0.0032325943 -0.0012713686 -0.0053664437 0.0002368855 0.0019076387 -0.0025542125 0.0017632468 -0.002342879 -0.0022476956 0.002112633 0.004097809 0.0055576875 0.00089658675 0.0025154576 0.003630159 -0.007160709 0.002753402 0.0009455938 -0.003771734 0.0033611022 0.004000884 8.9317546e-05 0.004484024 0.008391244 0.0012489393 -0.004427615 0.0044430797 -0.0090247 0.00028648908 0.0054845335 -0.00377857 0.002257821 -0.005639201 -0.0065946304 0.004433209 -0.0025489768 0.0040587457 -0.0054881405 0.007302885 -0.0037773645 0.0025397495 0.008123264 0.008285783 0.0008418803 -0.0013283772 0.0031410393 0.0060098325 0.007807841 -0.0050074835 0.004105775 0.005031596 0.002786836 0.0033707225 0.005737025 -0.006604728 -0.0033565497 -0.0009751151 -0.0002296796 0.0022424068 -0.0004874968 -0.00054805033 0.0067992373 -0.0032603343 -0.004211701 -0.0047500385 -0.01042531 0.00869083 -0.0022609197 0.0014777204
女朋友 -0.0047292197 0.0090320725 -0.002177963 0.0053596324 -0.003208215 -0.0054889168 -0.01101026 0.0022526833 0.000106219646 -0.018183792 -0.0008638859 -0.010059425 0.00053536077 0.00062459515 -0.003769735 -0.0015531691 -0.00078203087 -0.00741874 -0.00545232 -0.0032177353 0.0055144154 0.003704522 0.006312203 -0.0049657645 -0.0072592497 0.0018294023 -0.0037833003 0.001957065 -0.004964782 0.0015129405 -0.003805094 -0.003873747 -0.0011321978 0.0019819622 -0.007407164 -0.0034090416 -0.005847199 -0.0047329334 0.0044786874 -0.011590675 0.003607302 -0.008572249 0.0025918826 -0.010294046 0.006527485 -0.0029530292 -0.0029770418 -0.0063902116 -0.011785742 -0.0032404328 0.006792582 -0.0038824894 0.014249352 0.004693565 -0.0017809874 -0.003473355 0.00039259245 0.004654544 0.009626689 -0.008747523 -0.01390729 0.0006600041 0.0003511521 -0.010419213 0.002533714 0.0032055753 0.0034595456 0.006612396 0.011321713 -0.0076696803 0.018661572 0.0020704353 -0.002499417 -0.0053650057 0.0015252383 0.0030600803 0.0011674685 0.000615842 -0.00045347618 0.00429209 0.0025521915 0.007039439 -0.0016441091 0.0036464662 0.012886612 -0.0058544134 0.0058747116 0.0044900277 -0.0073236194 0.0038984772 -0.006446959 0.0037588968 -0.0095572695 0.00013349766 -0.0072157173 -0.010122508 -0.005482476 0.0015959301 0.0073540714 4.652451e-05 0.0060435017 -0.0045312145 0.004645202 -0.012112976 -0.002505721 0.004128977 0.0006466212 -0.0056046704 -0.00022252067 0.006217234 -0.003246407 -0.0007837474 -0.0059122485 -0.0079583265 -0.009679106 -0.008511235 0.0038200186 -0.002412573 -0.006530582 0.004690015 -0.011174504 -0.010411768 0.0064839623 -0.0052252794 0.009677203 0.01184646 -0.006065219 -0.021963235 -0.0027286827 -2.1453956e-05 0.016640985 0.0055881115 -0.008147651 0.0062484415 0.004003944 -0.0007355114 0.007134437 -0.0049030506 -0.012951452 0.0013947925 -0.009159803 -0.005524562 0.0025293245 -0.0076060216 0.0009330726 -0.015477312 -0.0022966724 0.0023480821 0.004823341 0.014003224 -0.0033041583 0.0051618577 0.0060049742 -0.006348504 -0.00059583125 -0.004056345 -0.006123296 -0.0049764095 -0.015802173 0.004802033 0.005423373 -0.0024462987 -0.0023748402 0.0049377014 -0.008856114 -0.0070033483 0.0009041757 -0.0019213328 -0.008326691 0.0026028943 -0.012120483 -0.0052284556 0.0024763271 -0.00037613374 -0.0008851265 -0.0004409945 0.008007104 0.00077026256 -0.00043098122 0.00680577 -0.0015837551 -0.00725791 -0.0051256316 0.009854632 0.00350154 -0.017798426 -0.013972315 0.007678666 -0.0010726284 0.0053604385 0.024121188 -0.0019153231 -0.0019465738 0.0038986977 -0.012634499 0.0014715759 -0.01617181 -0.0032880919 0.0032216662 0.0048501734 0.00732285 0.002679337 0.0027250876 -0.00026267878 0.011141693 -0.0047729043 -0.00054827373 0.011866619 -0.0056285746 -0.0051609855 0.008833085 0.004940388 -0.0012095632 -0.009695766 0.016162371 0.00512675 0.018268669 -0.00019269787 0.015446036 0.019947154 0.008429927 0.0049957694 -0.0016732167 -0.0020948448 -0.014009209 0.0056627626 -0.00096053415 -0.004179592 0.004485346 -0.010137646 -0.0070880977 0.009815217 -0.0019150858 -0.010800309 0.0023100544 0.0054347455 -0.004565983 0.00022674871 -0.006062684 -0.005711826 0.004842001 0.0043104566 0.009654163 -0.002128556 0.006727964 0.005823645 -0.013968446 0.0053227106 0.0011388578 -0.0069946083 0.002653253 0.009158814 -0.0012520602 0.008502733 0.015696622 -0.0009058374 -0.0080291955 0.010669226 -0.01545726 -0.003086564 0.0101327235 -0.00588206 0.0071655074 -0.011692509 -0.01234831 0.005905171 -0.0062495265 0.009988085 -0.01040954 0.011968779 -0.003635575 0.007204344 0.012755528 0.011881466 0.0017532979 -0.00017817179 0.0074179918 0.010287061 0.012665053 -0.0060979235 0.0063039195 0.007966373 0.0054267473 0.007920692 0.009507446 -0.009565935 -0.00431596 -0.0063832942 -5.6950585e-06 0.0052071535 -0.002887935 0.0010472533 0.013923456 -0.005984145 -0.008297864 -0.0095417425 -0.021627532 0.015030949 -0.0021392405 0.0054780846
要 -0.004457847 0.0075002364 -0.0026005567 0.0047530783 -0.00016670286 -0.0024208117 -0.005955334 0.0019236667 -6.602906e-05 -0.013829782 0.0013950537 -0.0065549496 -9.113494e-05 -0.0015194304 -0.0035925533 -0.0016601153 0.00061267574 -0.0058387965 -0.0038055622 -0.0017739043 0.0026545762 0.002230932 0.0032827607 -0.0020113457 -0.005018388 -0.00061284605 -0.002870749 0.0012142699 -0.0038115296 -0.0011955131 -0.0037406627 -0.0023674823 0.00010584395 0.0015173126 -0.005996596 -0.0026131503 -0.005037151 -0.004029586 0.002677341 -0.008961937 0.003741139 -0.0039471374 0.0031406053 -0.006008129 0.005309673 -0.0011551547 -0.00020767638 -0.005022156 -0.01007892 9.104007e-05 0.0034748372 -9.831747e-05 0.01141809 0.005533387 -0.00039713783 -0.0026532402 -0.0016174461 0.004243739 0.007490735 -0.0071030953 -0.007899538 0.00096758234 0.00061154645 -0.0050584534 0.0028377164 0.0014480734 0.0014639228 0.0034175068 0.010133677 -0.0039653764 0.01485009 0.0016566499 -0.0027011235 -0.004721395 0.00039889466 0.0019247254 -0.00024819316 0.002393586 -0.0031676816 0.0011490955 0.0005256868 0.0068597314 -0.0031213649 0.0036377092 0.008370283 -0.0033635162 0.0051488075 0.0028674048 -0.0056788004 0.003471562 -0.004255149 0.00033103122 -0.0056911088 0.0008934536 -0.007248933 -0.0074926955 -0.003679716 0.0030463405 0.0049231756 -0.0011609897 0.0033499743 -0.0052340794 0.004275016 -0.007114789 -0.0026126248 0.0047934693 0.0010234956 -0.0016819147 -0.0020725806 0.0037969393 -0.00082681276 0.00076747173 -0.004178922 -0.0068402975 -0.00744597 -0.0044208043 0.003674246 -0.0014839153 -0.0044420054 0.0034698618 -0.0074873804 -0.0060376595 0.004431046 -0.0041656266 0.009039103 0.006970444 -0.0054161944 -0.015957177 -0.0030522991 0.001777313 0.009582358 0.0038330054 -0.007836464 0.0038532128 0.0029682019 0.00010510128 0.00570264 -0.0036445146 -0.007725834 0.00039972513 -0.0067153666 -0.0049443925 0.00027686937 -0.0059660883 0.0021309366 -0.010986175 -0.00066540035 0.0032538828 0.0027102989 0.00958319 -0.0036714948 0.0044264337 0.005587176 -0.0055673723 -0.0007963888 -0.0025941145 -0.0069124093 -0.003335734 -0.012439685 0.0034986816 0.0035460116 -0.0024648416 -0.0010544584 0.005058483 -0.0038581567 -0.0037946682 0.00088355166 -0.002560551 -0.0045884503 -0.00013898159 -0.0101756025 -0.0025951953 0.0018513276 0.0005144207 -0.00013183967 -0.0004263299 0.006785193 -0.00018118123 0.0019338916 0.0034632606 -0.00080847304 -0.00696221 -0.0024635012 0.0076891086 0.00016159208 -0.012548931 -0.011620563 0.0068106093 0.0017132541 0.0058757365 0.01825421 -0.0004349883 -0.00066564453 0.0021081597 -0.007672065 0.00011053684 -0.012692571 -0.0019974806 0.0006266048 0.0026282594 0.004976329 0.0039649005 0.0026783233 -6.0202503e-05 0.007179137 -0.0027907763 -0.00096318236 0.00756748 -0.004904281 -0.002961927 0.008776592 0.002493857 -0.00199474 -0.007426846 0.010689493 0.0038702006 0.013337967 0.0010595365 0.011605729 0.013626213 0.0071713887 0.0051072952 -0.0016491277 -0.0008476028 -0.009533155 0.004694282 0.0002511621 -0.0010231574 0.003377265 -0.006751095 -0.0049332143 0.005631086 0.0008513229 -0.0083939005 0.001264358 0.0029940053 -0.0034392043 0.00083707314 -0.004300131 -0.00210734 0.0019916901 0.001548169 0.007979454 -7.852326e-05 0.003491715 0.0046340255 -0.0081366785 0.002413495 0.0019397291 -0.0030031824 0.0015275993 0.0053273994 -0.0019156296 0.0068323137 0.011891677 0.0019795496 -0.00411865 0.007901649 -0.011900521 -0.0008438324 0.0066724857 -0.0054368675 0.002540239 -0.009598404 -0.01010502 0.0033521391 -0.0037872116 0.006294194 -0.0066996585 0.007641299 -0.004599201 0.003992786 0.011561973 0.010063045 0.001333603 0.00016140078 0.0036510653 0.007103145 0.0073659965 -0.003637727 0.00311812 0.0056577325 0.004221666 0.003625913 0.0072414447 -0.0072105112 -0.0028875254 -0.002133161 0.00049948465 0.003418153 -0.00012960637 0.000988948 0.009961265 -0.005545133 -0.005117713 -0.004500763 -0.013485838 0.012954684 -0.0031612476 0.002700968
来 -0.0050076405 0.0044936063 -0.0028760424 0.0026888347 -0.001119172 -0.0029385495 -0.0075388034 0.0007811709 -0.0012720844 -0.013578783 0.0010754633 -0.006681802 0.0027362953 0.0011120483 -0.00047662968 0.0013869011 0.00015557851 -0.006898198 -0.0015535424 -0.0020384386 0.0022712108 0.003975053 0.00315649 -0.0038775026 -0.005230914 -0.0007409638 -0.0017311827 -0.00046625454 -0.0031801264 -0.0014988251 -0.0015883074 -0.003570416 -0.00020349647 0.0022421994 -0.0049535017 -0.0026196197 -0.0054403218 -0.0032995278 0.0015321914 -0.0069912984 0.0010187252 -0.006412725 0.0010061774 -0.008745042 0.0038727578 -0.0024034495 0.00011764172 -0.004723771 -0.0074400054 -0.00026127973 0.004475862 -0.0016793263 0.011813683 0.005446237 -0.0019433748 -0.0034385407 0.0003226828 0.0023085861 0.0074474644 -0.0075732986 -0.00808252 0.002007832 1.5353173e-05 -0.005308232 0.0014053475 0.0026825385 0.0034103764 0.005208228 0.007845227 -0.004385134 0.013588413 0.0039036237 -0.0012803851 -0.0023418937 0.0012352855 0.003337299 0.0024391005 0.0025518087 -0.0021970456 0.0025978694 0.0016087537 0.0045463834 -0.0030064979 0.0042085187 0.008786841 -0.0041986317 0.0028609608 0.0039112354 -0.0038579262 0.0021659078 -0.0026417656 0.0009418646 -0.0054728966 -0.00028320463 -0.0060337097 -0.006235805 -0.004416266 5.867582e-05 0.0065439814 -0.0015501578 0.004400794 -0.0043348474 0.0028487698 -0.0068572736 -0.0018965588 0.00432565 0.0012355647 -0.0020655866 -0.0015575723 0.0026483438 -0.00048146534 -0.0002878673 -0.0059126145 -0.00405192 -0.006702134 -0.0055849985 0.0019480907 -0.00250271 -0.0023253318 0.0014306551 -0.008733743 -0.006659843 0.0021626535 -0.0032394652 0.0055311383 0.008352678 -0.005391771 -0.012238634 -0.0030468924 -0.0004941479 0.012198387 0.00491449 -0.006523844 0.0038201578 0.0035910266 -0.0015915462 0.0065401653 -0.003160344 -0.008820188 0.0007106661 -0.0041978364 -0.0029733358 0.0011872425 -0.0050389 0.0010252475 -0.008607743 -0.001869101 0.0014124853 0.0039956626 0.00866984 -0.0036366812 0.004669698 0.0034358504 -0.0032007126 -8.890783e-06 -0.0032520243 -0.005120789 -0.0028887547 -0.011192125 0.003627323 0.002659763 -0.0018344979 -0.0028231924 0.0053930595 -0.003953148 -0.0053297356 -0.0010833981 -0.001633374 -0.0049492437 0.0021547023 -0.009436946 -0.0020510186 0.0022217028 -0.0023818102 -0.00064916274 0.00015180874 0.004396335 0.0019352549 0.0005335626 0.0026357241 -0.0012833592 -0.0043186843 -0.004433053 0.0059990245 0.0028733332 -0.014082228 -0.009408594 0.004731427 0.0019041377 0.0042842883 0.016132275 -0.0029712466 -0.0032190979 0.0006077319 -0.009321664 0.0014691829 -0.009842669 -0.0015466127 0.0022418064 0.003162145 0.0064226747 0.0012458093 0.003918219 0.0003342201 0.008424905 -0.0048640086 -0.0011134763 0.0061993673 -0.0042893533 -0.004398945 0.006430405 0.0045306 -0.0006274238 -0.007564342 0.010905302 0.004238021 0.0128578255 -0.0003818825 0.010641303 0.013521771 0.006109853 0.003947553 -0.0026455864 -0.0009688094 -0.008484322 0.0041313334 -0.0011274084 -0.0031906196 0.0021289361 -0.0078240065 -0.0043356298 0.0071642604 -0.0015391483 -0.006531256 0.002435995 0.0045582913 -0.0026477005 0.00024865966 -0.00543356 -0.003855423 0.003759517 0.0024905286 0.007400226 -0.00038827208 0.0041311933 0.005468767 -0.0073981183 0.0035536797 0.00025099295 -0.003052435 0.0026440672 0.006796234 0.00067243533 0.005917057 0.00887164 -8.766091e-05 -0.005925019 0.008465251 -0.0101207355 -0.0023295977 0.0054079616 -0.0039159814 0.0043270197 -0.0101592075 -0.007850638 0.005177786 -0.005621725 0.007687816 -0.00706809 0.005633047 -0.0020570662 0.005998501 0.010121718 0.008680227 -8.3521e-05 -0.0011545017 0.00391183 0.006320092 0.006991141 -0.005678098 0.0033929094 0.0058395523 0.003193721 0.004360958 0.006397075 -0.006715417 -0.0008638253 -0.0020613635 -7.864534e-05 0.0026178893 -0.00021518092 -0.00034533872 0.0107045 -0.005458871 -0.0044478895 -0.006320793 -0.013784403 0.010851174 -0.003826848 0.0025826558
也 -0.0036218339 0.006226988 -0.0032099152 0.0017842057 -0.0021279997 -0.0032352458 -0.00771183 0.0004285389 0.001484858 -0.013012308 -0.00042636992 -0.0059531755 0.0013574349 -0.00037369944 -0.0005584736 0.0009600062 0.0006156882 -0.006689087 -0.0029117605 -0.0030160437 0.004761513 0.002858058 0.0057350667 -0.003122469 -0.0049518584 0.00078051793 -0.002525868 0.000594969 -0.005038 0.0010588102 -0.0026882486 -0.004860412 -0.0012397968 0.003503477 -0.0066745225 -0.0041227387 -0.0044161235 -0.0042774095 0.003600178 -0.010475298 0.0034797287 -0.005505858 0.0007307791 -0.008950201 0.006234827 -0.00063212955 -0.0013661716 -0.0038859777 -0.008270104 -0.0023928795 0.0070076347 -0.0026934692 0.01111623 0.005010197 -0.0014046453 -0.003691217 -0.0018371379 0.0013727312 0.007451953 -0.0073832297 -0.010353498 0.0019910005 -4.871696e-05 -0.008107643 0.0013128272 0.0019337556 0.0011531282 0.0033080773 0.00904269 -0.004048833 0.013110791 0.0036179484 -0.0019707803 -0.005071499 0.0018089936 0.00052273175 0.0013605284 -0.00049291906 -0.0032084556 0.0018644824 0.0026855634 0.006392326 -0.0029549904 0.0032413849 0.009430502 -0.0055022435 0.005020795 0.0042657005 -0.0065797428 0.0045550866 -0.0036356535 0.00026430923 -0.0051500215 0.0018027807 -0.0063249012 -0.0071750595 -0.0034771664 0.0024616946 0.0055792057 -0.0005909691 0.0046767285 -0.0043614204 0.0037811894 -0.006695071 -0.0022165172 0.0032347129 0.002517039 -0.001621128 0.0011209493 0.0043984274 0.00033971082 -0.0011934951 -0.006294177 -0.005973311 -0.008435645 -0.006441966 0.0016774683 -0.002149547 -0.002597347 0.002615239 -0.009298846 -0.009225266 0.0034215958 -0.0046997294 0.0066153603 0.006947414 -0.0056269355 -0.015347873 -0.0026924945 -0.0010731692 0.011760746 0.0040997895 -0.008400832 0.0033978925 0.0034836757 -0.00048172494 0.0062377756 -0.004582344 -0.007738511 0.0016837461 -0.0073615024 -0.0022308708 0.0029968815 -0.0055587105 0.0014783959 -0.012064752 -0.0035802524 0.003029768 0.005927806 0.0118375495 -0.0034943193 0.0053724125 0.0044480027 -0.0046499525 -0.0007811265 -0.00096688204 -0.007235529 -0.0038548105 -0.011154983 0.0043160915 0.0038211164 -0.0035183092 -0.00053665176 0.006510435 -0.006308115 -0.0048671295 0.00015416373 -0.0035211588 -0.0064757112 0.0009656984 -0.008078743 -0.0055738227 0.000785061 -0.0009510995 0.0009454417 0.0020129688 0.0074076885 0.0011597495 0.00014544665 0.0043894174 -0.0014922027 -0.00612875 -0.002133263 0.00631692 0.0015084477 -0.0119764935 -0.011744804 0.007410375 0.0010039635 0.0069631874 0.017701043 -0.0021270257 -0.002897224 0.004025248 -0.008133679 0.0013804242 -0.013521119 -0.0024623289 0.0013735722 0.0018696232 0.006692391 0.0031928755 0.004718836 -0.0018144604 0.006479317 -0.0037866686 -0.001563261 0.009505364 -0.002562851 -0.0042991163 0.0074220044 0.0051483936 -0.0014613488 -0.008027466 0.011487093 0.0036324605 0.0126485005 0.0005673688 0.010622496 0.015367665 0.0062472373 0.0053486926 -0.0031450447 -0.0015127311 -0.010741549 0.0039053767 -0.0017624253 -0.0023411603 0.00399019 -0.0065451367 -0.0070140148 0.007972576 1.0484049e-05 -0.0058881775 0.0017945194 0.0039323205 -0.0041806186 -0.0012288538 -0.0059018964 -0.0050854865 0.004171622 0.002608142 0.007143069 -0.0016698026 0.0039409227 0.0057688584 -0.011517749 0.0052741203 0.003533804 -0.0036575203 0.0011624465 0.0074075176 -0.0018847927 0.0053430237 0.012024047 -0.0008428525 -0.0057560736 0.009546094 -0.010120339 -0.0021200362 0.00883693 -0.002854642 0.0026487983 -0.0105370395 -0.008716052 0.006140522 -0.004940741 0.006097836 -0.00745326 0.0083013 -0.0042551826 0.0052610654 0.011890029 0.009557853 -0.0010190409 0.0016735205 0.0059451815 0.00614002 0.010067316 -0.0052922973 0.0031909216 0.006278545 0.003988082 0.005432461 0.005186767 -0.0062431316 -0.0022351474 -0.0027106458 0.00024980964 0.0015456732 -0.0029370235 0.00078025763 0.009380571 -0.0040671322 -0.007237316 -0.0060853846 -0.014965908 0.0135612115 -0.0043834406 0.0033304982
想 -0.004219325 0.0061623664 -0.0032916497 0.002441224 0.00011578968 -0.001997715 -0.005821433 -0.00035804757 -0.0013111688 -0.008757529 0.001593772 -0.004746595 0.0014316526 0.0008298908 -0.00023066465 0.0015258162 -0.0007485595 -0.005843683 -0.0023340883 -0.0014291195 0.003309904 0.003261066 0.003638696 -0.00039232688 -0.0031543002 -0.00080616976 -0.002575855 0.0013435968 -0.0013062233 -0.0006132142 -0.001043005 -0.0018524162 -0.0014558608 0.00088243524 -0.0018335466 -0.003918618 -0.0031035515 -0.0022064056 0.0024089357 -0.004648099 0.0011092639 -0.0041189143 -0.00014393547 -0.005949906 0.003526622 -0.00026534646 -0.0005131351 -0.0010446096 -0.0046160775 7.719682e-05 0.0033433395 -0.002455141 0.00894331 0.003357761 -0.0020531814 -0.0023041568 0.0005788681 0.0005113357 0.00503377 -0.0032883144 -0.0078115263 -0.0012166721 0.00025088596 -0.0055507342 0.0023361938 0.0003854831 0.0028688905 0.0037954345 0.0051287045 -0.0035952777 0.009874599 0.0031653366 0.0008287204 -0.0029315432 0.0025183484 0.0021351988 0.0011147141 5.8432728e-05 -0.001989256 0.0020103564 0.0016131094 0.005513256 -0.00047472902 0.0020009258 0.0053489325 -0.0020820275 0.0022788 0.0037495624 -0.003900074 0.0027880555 -0.0037145312 0.002657 -0.0043272558 0.0016659513 -0.0047874106 -0.005572555 -0.0020483732 4.513267e-05 0.0040107784 -0.0018337512 0.0037577269 -0.0029627958 0.0032679653 -0.005905616 -0.0020850287 0.0021457507 -0.00019911185 -0.003827485 -0.00047900947 0.003668418 -0.0015763256 0.0002269295 -0.0041908724 -0.0045788907 -0.0047478518 -0.004949841 0.002812961 -0.0018560031 -0.0032294076 0.0025426163 -0.0055791386 -0.006172367 0.0015183402 -0.0013141633 0.0048671123 0.006692944 -0.0036897701 -0.009101987 -0.0011989827 0.0013116532 0.007882913 0.0014582278 -0.00490738 0.0025295394 0.0011469575 -0.0012553161 0.0052024215 -0.0025660398 -0.005249449 -0.00061135576 -0.004632909 -0.0030854687 -2.338684e-05 -0.0033780977 0.001125055 -0.009100924 -0.0024025904 0.0019700225 0.0037204064 0.0086314855 -0.00041872234 0.0038052138 0.0044246344 -0.0029809405 -0.0007916895 -0.0006769621 -0.0028003182 -0.0028056793 -0.009045548 0.0045465864 0.0030518782 -0.0026734767 -0.00085353164 0.0044790497 -0.005473221 -0.004385635 -5.8997706e-05 -0.0014355879 -0.0057591298 -0.00088798447 -0.006402753 -0.0019399645 0.000562669 -0.0015991769 -0.00085830025 0.0021928158 0.0022506604 0.0011037487 0.0001427656 0.0014507122 -0.00040276276 -0.004907956 -0.0006745881 0.0062119844 0.00086997263 -0.00806037 -0.008228652 0.0043383646 -0.00059691165 0.0033479456 0.012591418 -0.0015545934 -0.0020368507 0.0030799648 -0.004651042 -0.000894245 -0.009935428 -0.00068698503 -0.00037418696 0.0020248464 0.0058438457 0.0011090785 0.002401289 0.0001860093 0.003987581 -0.003898957 -0.0018081141 0.0063856305 -0.0010265918 -0.00123203 0.0043954765 0.0038947093 -0.00022287363 -0.004665184 0.007030789 0.0031559407 0.009535061 3.4589168e-05 0.0067078094 0.010143185 0.0029479503 0.0038963552 -0.0012359946 -0.0015925876 -0.007307826 0.0039716936 -0.0016587977 -0.0012187416 0.0020657862 -0.0059564165 -0.0041608624 0.0043969257 -0.0006339102 -0.0064476836 0.0015307417 0.0013287235 -0.0032508345 0.0006518255 -0.0033382112 -0.002099576 0.0012451634 0.0027487027 0.0062117856 -0.0015904407 0.0024831963 0.0019526441 -0.0055192 0.0015455871 0.00043231994 -0.0028164545 0.0016522676 0.0060126767 -0.0008965236 0.00587908 0.0067262156 -0.00056805543 -0.0035275298 0.006425302 -0.008023643 -0.0011557187 0.004122799 -0.0029601054 0.0019530003 -0.007331369 -0.008095387 0.003571405 -0.0044339737 0.0064598755 -0.0036247608 0.006218408 -0.0041091046 0.003731333 0.008407254 0.0070332238 0.0011600775 -0.0016285639 0.0032666866 0.004146304 0.0074940207 -0.0032332262 0.0021053704 0.0026996783 0.0034233218 0.003385495 0.005392736 -0.0040968633 -0.0033806646 -0.0018794019 -0.0010749613 0.0030302252 0.00048103815 0.00023980411 0.0061186594 -0.0036592123 -0.0035454175 -0.005474176 -0.009255442 0.008823061 -0.0022143028 0.00085655856
不 -0.0032748855 0.007292829 -0.0012562544 0.0015053168 -0.0027620015 -0.004163409 -0.008259838 0.0018885786 -0.0015911297 -0.013999965 -0.0014377071 -0.0073858225 0.002072553 0.0008790565 -0.003320425 -0.0017745818 0.00054629514 -0.006591701 -0.0028544993 0.00017448708 0.0023915642 0.001362896 0.0055365977 -0.0015719493 -0.005445722 -0.000842138 -0.0017469315 0.0015832816 -0.0031474414 -0.0015446974 -0.00314363 -0.0031465534 -0.0019431555 0.002496453 -0.0044249315 -0.002090444 -0.006496503 -0.0029045835 0.0029831168 -0.008896954 0.0026955435 -0.005884516 0.0029717465 -0.007231308 0.0053080125 -0.0005608643 -0.0016902938 -0.0026269131 -0.010000428 -0.0022091307 0.0050263423 -0.0019529309 0.011653748 0.0050826604 -0.0030402343 -0.0037317255 -0.0008066252 0.0034247255 0.0078981565 -0.008025138 -0.010001749 0.0008190632 7.8724086e-05 -0.0067170127 0.0030044883 0.0021784955 0.0032319385 0.004392864 0.008696367 -0.0057942714 0.014231379 0.0028286253 0.00020000624 -0.0034295963 0.0004900049 0.001538756 0.0018241546 0.001253712 -0.00272299 0.0022612056 0.002529328 0.005433382 -0.0016457626 0.004152454 0.010427393 -0.0046303687 0.0018833005 0.0047185374 -0.0060378225 0.0047044586 -0.0037211862 0.0015808602 -0.0066365334 -0.0013627873 -0.0052588484 -0.008252337 -0.0042021936 0.0013012043 0.006004102 -0.00081915385 0.005513801 -0.0050102766 0.0017980001 -0.009276932 -0.0009033692 0.004560303 0.0019949758 -0.0039298763 2.2758493e-05 0.0044147214 -0.00019064652 0.00087329367 -0.004034274 -0.0038566994 -0.009312544 -0.006662313 0.00096583535 -0.003998569 -0.0030371253 0.001575956 -0.007736287 -0.0058100945 0.0023882613 -0.003247003 0.008648896 0.0074386876 -0.005802886 -0.013551569 -0.0037255236 0.0014320806 0.010618848 0.002224677 -0.0076309326 0.0023858787 0.00503055 -0.0018186386 0.006965715 -0.003947338 -0.009450887 0.0019709202 -0.00520272 -0.002502404 0.00015385743 -0.005138403 0.00027627376 -0.011866703 -0.0025612328 0.0011933375 0.0030859944 0.010490844 -0.0017864069 0.0040518944 0.004920423 -0.0035915666 -0.0016776567 -0.00014813282 -0.006792109 -0.0026519974 -0.010483022 0.004371345 0.0041120844 -0.002928227 -0.00037966244 0.0045571723 -0.006879625 -0.004628775 -0.0012481905 -0.001695621 -0.007844137 0.00092276937 -0.010728902 -0.0026280188 0.0027486198 0.00052897254 9.615218e-05 0.0005845812 0.0062887403 0.0008929727 -0.00097269256 0.0026640056 -0.0022152683 -0.006240571 -0.0015398175 0.007781628 4.5679786e-05 -0.012371546 -0.011334052 0.0049106446 -0.000367736 0.005412206 0.01729123 -0.0019259659 -0.00017710424 0.0011172084 -0.008305502 0.0013549855 -0.009958594 -0.0009428021 0.0010052975 0.0020298841 0.0071721785 0.0018249102 0.0017808909 0.00060121826 0.0073660477 -0.0026551823 -0.0012449032 0.0086264005 -0.002904012 -0.0024928167 0.0060164207 0.0037627993 0.00092178915 -0.0066176057 0.010006506 0.0033139416 0.012291353 0.00046743022 0.010347139 0.012976149 0.0054176156 0.0055728136 -0.00021029092 -0.0013900108 -0.009542712 0.005291098 -0.0002574996 -0.0016119968 0.0036432843 -0.008249114 -0.0069130356 0.00707124 -0.0003055755 -0.0075119254 0.0012518038 0.0025998254 -0.0048248456 0.00028488738 -0.0022935653 -0.0034325153 0.0023623456 0.0013296206 0.0063207867 -0.00024172227 0.003443414 0.0044828556 -0.008849671 0.0037189433 0.003037479 -0.005342803 0.0030955428 0.0070565916 -0.002140721 0.0062030535 0.011774271 0.00062248117 -0.00622382 0.008441151 -0.011198875 -0.0005497881 0.0075121666 -0.0033607606 0.0028619326 -0.008060547 -0.008987529 0.0050419336 -0.004710451 0.0068257707 -0.007174584 0.007902427 -0.0025127265 0.0037346398 0.010532668 0.0072815465 0.00031629874 0.00023478323 0.0050205975 0.0066122594 0.009727748 -0.0038001656 0.0032027492 0.005179902 0.0030582813 0.0032251047 0.007467708 -0.005966032 -0.0008257432 -0.004847846 -0.0007998232 0.0037311865 -0.001694916 0.0005794432 0.009789326 -0.00378037 -0.005571917 -0.005597978 -0.015742036 0.012670783 -0.0019446559 0.0012068239
吗 -0.0054101907 0.0066583497 -0.0009105402 0.0026627276 -0.0019559728 -0.0039050332 -0.008963612 0.0014537848 0.0014285777 -0.013922926 -0.0013897191 -0.00552193 0.0015544249 -0.0020021922 -0.0023693983 -0.0013415795 -0.0017624636 -0.005680027 -0.0044630524 -0.0018911823 0.0032302865 0.003830357 0.004303223 -0.001939952 -0.0049630282 0.0015399372 -0.0022658706 0.0007876547 -0.004289791 0.0005526434 -0.0015888708 -0.0021706566 -0.0024176491 0.001805547 -0.00648448 -0.003717855 -0.0063716876 -0.0047174846 0.0034509336 -0.009587711 0.0034271472 -0.006578303 0.0015589327 -0.009064287 0.0044648815 -0.0022388136 -0.0018192473 -0.0026946748 -0.009628996 -0.000116287 0.004532369 -0.001859369 0.012266793 0.0036124864 -0.0032326346 -0.0012639696 7.82431e-05 0.0029891345 0.007721954 -0.007169481 -0.008157152 -0.0005427465 0.0018156643 -0.008257242 0.0029068894 0.0019755596 0.0023224314 0.0049722637 0.010651936 -0.0055380464 0.013143696 0.002265208 -0.0018686921 -0.0047716885 -1.1861865e-05 0.0030303237 0.0030088522 0.0025457332 -0.0009848241 0.0011069145 0.00243492 0.0067696893 -0.00283509 0.0031729317 0.01017575 -0.0038014078 0.0039553284 0.004793699 -0.0038646022 0.0028306025 -0.0029828108 0.0022186255 -0.0050125965 -0.00095670385 -0.0056797154 -0.0062851044 -0.0014360171 0.0012306618 0.005148076 -0.0010568468 0.0059419265 -0.0044724816 0.0038861756 -0.008640459 -0.002444699 0.0039268415 -0.00081406714 -0.0033437454 6.0694506e-06 0.002648746 -0.0012104715 0.0004509311 -0.005852983 -0.0050686896 -0.00683248 -0.007320136 0.0033420892 -0.0030538153 -0.0032165037 0.0014642712 -0.008085094 -0.0076598315 0.00395164 -0.004391691 0.006634795 0.0066694743 -0.0044271788 -0.015834268 -0.0016298526 -0.00042488246 0.011014021 0.003404502 -0.00614975 0.0038913353 0.0035978514 -0.00045969686 0.004132009 -0.004396976 -0.00941481 0.0015671684 -0.0043962304 -0.0045756 0.00016854538 -0.0043599457 0.0009236343 -0.011680976 -0.00075970055 0.0023189762 0.0048263324 0.010068443 -0.0013544752 0.005397594 0.0030234114 -0.0055480404 0.00022566713 -0.0011164104 -0.005226125 -0.0034675465 -0.012041483 0.0052426793 0.0028781057 -0.003895785 -0.0019356377 0.005549806 -0.004800054 -0.005555036 0.00023251917 -0.0014844616 -0.0063279546 0.00090162153 -0.008699355 -0.005665217 0.0020684106 -0.0022070913 -0.0007701578 -0.00031043586 0.004727976 0.0005378601 0.00047137923 0.0039001594 -0.0005107595 -0.0057409112 -0.0018315278 0.0050357967 0.0011673226 -0.012042724 -0.009500871 0.006662265 -0.00029903036 0.00436292 0.018217852 -0.0018698741 -0.0006565529 0.00308566 -0.009870698 -0.00074513094 -0.012344848 -0.0016868262 0.0006486257 0.00097106287 0.0071581975 0.0033096438 0.0040161423 -0.00036670177 0.008074269 -0.0047541927 -0.00094563107 0.00856221 -0.0029199086 -0.0043768673 0.008251439 0.0023641244 0.0009573981 -0.008173942 0.009485566 0.003998615 0.011680748 0.0006573618 0.011496788 0.015251328 0.0074549243 0.006205219 -0.0013832647 0.0004801721 -0.0106068235 0.0045584985 -0.0006927201 -0.0013572966 0.004145072 -0.00630055 -0.0071260678 0.0060118637 -0.0008893599 -0.005471616 0.0010854646 0.0033756855 -0.005965777 -0.0007506718 -0.004927678 -0.004817755 0.002573457 0.001543575 0.008365507 -0.0015468189 0.00503111 0.0030759948 -0.008097307 0.004846337 0.00051120506 -0.00545156 0.0024983634 0.0070395973 -0.00061385025 0.0077822395 0.011102862 0.0020283682 -0.0054796687 0.0060783285 -0.010806048 -0.0013232651 0.007982101 -0.0052299914 0.0032723949 -0.008029105 -0.009866117 0.0030961207 -0.006270603 0.0052250577 -0.006171607 0.0065538604 -0.0028209977 0.0055772047 0.011134699 0.009445095 0.0013849405 0.001458561 0.004075756 0.0074793254 0.0077240276 -0.0057927063 0.00335705 0.004030581 0.0043925 0.006165268 0.0075373696 -0.005869244 -0.0015859866 -0.0022683016 0.00061787275 0.0017410775 -0.0010736198 0.00051029125 0.011668893 -0.0050200904 -0.0060728933 -0.006680347 -0.015968228 0.0117053185 -0.0043388214 0.0044904244
吧 -0.0039022486 0.003437357 -0.0030373456 0.0033054284 -0.00066562206 -0.0012304821 -0.0069543063 -0.00039149265 -0.00044815772 -0.011230657 -0.0009905661 -0.005156459 0.0005934603 -0.0011391032 -0.0032054302 0.0008606573 -0.001529995 -0.00392057 -0.002651251 -0.002672466 0.0036558842 0.00058235653 0.0035176673 -0.00096176204 -0.0052916664 -0.0006022119 -0.0015262605 0.0016064302 -0.0031684279 -0.0008713275 -0.00040844956 -0.0008681298 -0.0018331618 0.0007216413 -0.0022069332 -0.0030717864 -0.0032045615 -0.0012180209 0.0022993998 -0.008153758 0.0032246741 -0.0055153877 0.0022959618 -0.007471511 0.0051692976 -0.0028227854 -0.0006935489 -0.0034692844 -0.006390863 -0.0020204764 0.0050415075 -0.00030054408 0.008901955 0.004026358 -0.0020780696 -0.0011239832 0.0007336017 0.0010420682 0.007297582 -0.004571697 -0.006543715 0.0004334827 0.00022658079 -0.0038211648 0.0019082624 0.002567845 0.002060038 0.002076007 0.008122925 -0.0034855607 0.012186697 0.0025848437 0.0004583996 -0.0020402134 0.0005717308 -0.00024844534 0.0024835493 0.0004973121 0.00039762212 0.0028323715 0.0018348923 0.004119576 -0.0012445232 0.0029044717 0.0071361014 -0.0018832638 0.0016114907 0.0034628168 -0.005791367 0.0023871572 -0.0014457965 0.0007540772 -0.0055548754 0.00056647963 -0.0056778654 -0.006238468 -0.0019515357 0.0023876308 0.005554566 -0.00053533603 0.004269964 -0.0040092114 0.000785152 -0.007263776 -0.0014083541 0.0040673316 0.0014237537 -0.0014855549 -0.0006320459 0.0026393863 -0.0010131263 -0.0015380554 -0.003368181 -0.002381859 -0.004826084 -0.0043121134 0.0008441019 -0.003087894 -0.0026399596 0.0006624379 -0.0047659823 -0.006559522 0.0018463861 -0.003970551 0.0054815887 0.0053986763 -0.0035934187 -0.013350226 -0.00011429206 0.00022497507 0.0099945795 0.0032359734 -0.0045338254 0.0039858483 0.0040301727 -0.00023591689 0.0031106833 -0.0027323079 -0.007765065 -0.0005681833 -0.005632428 -0.003542077 -0.0003001597 -0.0041545155 0.0013587759 -0.0077274283 -0.0012550756 0.0024343203 0.0024234254 0.0068612727 -0.0030360618 0.0035535754 0.00359146 -0.0024936164 -0.00044892542 -0.00066457 -0.005176636 -0.0043768124 -0.008381758 0.0038644974 0.0025575177 -0.0027822407 0.0006380406 0.0049502244 -0.0031508345 -0.0031347403 0.0014646321 -0.0012458109 -0.0061241807 -5.6387238e-05 -0.007030251 -0.0017567992 0.0010379221 -0.0013045366 -0.0007816724 0.0021265845 0.004465376 -0.0007527057 0.0016567679 0.0044171275 -0.002695466 -0.0030840249 -0.0025144848 0.004120609 0.0029553887 -0.010050559 -0.008678951 0.004295954 -0.0004930616 0.004832671 0.014140635 0.00029657263 2.876668e-07 0.0029355136 -0.0077864826 0.0017404387 -0.010453821 -0.0002840867 0.0022095058 0.0031827004 0.005533475 0.0032813444 0.00092064636 0.00088678376 0.006364786 -0.003964153 -0.0013081247 0.0069136214 -0.0019116018 -0.0030127293 0.0070186676 0.001851364 -0.00076049316 -0.0051777926 0.010005503 0.0014873795 0.008936917 -0.0013067208 0.0067645363 0.012106266 0.003363556 0.0032325292 -0.0014824957 -0.0005998684 -0.007838503 0.0024176128 -0.0013457516 -0.0032043937 0.0017104408 -0.0077563776 -0.0039905296 0.0045468095 -0.000938386 -0.0068819677 0.00075789756 0.0036998491 -0.0028138477 0.0015958274 -0.0037938287 -0.0034616205 0.003698015 0.0012743756 0.0065822634 0.0008408954 0.0028017731 0.0029181011 -0.008852753 0.0035889817 0.0007315946 -0.0032305128 0.0029643248 0.0052456446 -0.0012892274 0.0064160065 0.008126439 0.0016560074 -0.0024543141 0.0061308905 -0.007890356 0.00060649373 0.005852802 -0.0042159003 0.0015762808 -0.0059461785 -0.009377635 0.0049471417 -0.0026713053 0.006686087 -0.006592108 0.005258816 -0.0046125334 0.0042227213 0.0062764436 0.006002975 -0.0014451346 3.4919238e-05 0.0043763877 0.0040990803 0.0076813265 -0.0023550093 0.001139571 0.0032263952 0.0027247258 0.0026072364 0.00387597 -0.006438535 -0.0007659888 -0.0014482049 -0.0010675989 0.003513963 0.00013216847 0.0014670363 0.007997645 -0.004452741 -0.002987964 -0.0059950976 -0.012648049 0.0077182236 -0.0022156336 0.0026464493
呲牙 -0.0007664393 0.004366548 0.00010072238 0.001893538 -0.00124791 -0.0029622908 -0.0057792338 -0.00015460799 -0.00074398227 -0.008014914 0.0012005268 -0.0053715897 0.002155541 -0.0013838008 0.00026351103 -0.0005858154 -0.001684263 -0.0036258504 -0.0022951618 -0.0016812653 0.0027030197 0.0018877572 0.001924104 6.595586e-05 -0.004314559 -0.0007981551 -0.000881427 -0.00043521108 -0.0023277856 -0.00012275734 -0.0031816184 -0.00357975 -0.0019294596 0.0018734677 -0.004048315 -0.00080691563 -0.002968883 -0.0020105278 0.0002843159 -0.0063461848 0.0011098667 -0.0031941598 0.001213322 -0.005657034 0.0015499254 -0.0010484786 -0.0021625021 -0.0030197916 -0.0056300173 -0.0021692903 0.0016019947 -0.0017112589 0.005966143 0.0018462485 -0.002782274 -0.0016267461 -0.0017968005 0.0011317511 0.0060332865 -0.00502432 -0.006336996 0.001691714 -8.554786e-05 -0.004034587 0.001639661 0.0018974931 0.00031229467 0.0034498407 0.0051599923 -0.0016978729 0.009138351 0.0011699535 0.0003118497 -0.0039480077 0.0024524056 -0.00019117369 0.0025438801 0.0011375892 0.00045636215 0.0016784286 0.0022303972 0.0023955493 0.00017592212 0.00040370092 0.005212072 -0.0040005757 0.0017033332 0.0025557391 -0.0046750684 0.0031776382 -0.004119482 -0.00024655834 -0.0051015397 -8.6992404e-05 -0.00429269 -0.0037157973 -0.0022526924 0.0025948815 0.004229174 -0.0010783417 0.0033130897 -0.0031823257 0.0031807406 -0.003396938 8.8580426e-05 0.0022813722 0.0005958717 -0.0008422914 8.072092e-06 0.0036758457 -0.0010428418 -0.0011966355 -0.004321784 -0.0034943111 -0.006156173 -0.003051848 0.0028163642 -0.0032627378 -0.0033196204 0.003372572 -0.005002505 -0.006034035 0.0025043609 -0.00040191092 0.0047474145 0.005280652 -0.004733164 -0.008387215 -0.0025421227 -0.0010415788 0.006212584 0.0038146141 -0.0046055173 0.0028738969 0.0024836173 0.00014276864 0.0038630494 -0.002429557 -0.0061805537 0.00060258125 -0.0039441427 -0.0017442345 0.0007641314 -0.004175196 0.0008595819 -0.0064014657 -0.00039864294 0.00051604724 0.0029499186 0.0065425322 -0.0011118882 0.0040976233 0.0033206465 -0.0018253416 0.0004589172 -0.002499983 -0.0031943938 -0.001393305 -0.005525834 0.0028117334 0.002508269 -0.0006437976 0.0009235974 0.0040655667 -0.0024017042 -0.0016447176 0.00052584405 0.00041378863 -0.004457856 0.00096726883 -0.004353994 -0.00095245615 0.00084635743 -1.9795223e-06 -0.001185292 0.0017371415 0.0021061637 -0.0009652033 -0.00075533736 0.0027469415 -0.0012540004 -0.0043429383 -0.0004260872 0.003319284 0.0013493793 -0.009904293 -0.00727338 0.0027112514 -0.0012490717 0.0020039245 0.01087431 -0.00036148322 -0.0027345738 0.0026099181 -0.0069138985 -0.0005148366 -0.008379332 -0.0020725236 0.0015282742 0.0030702387 0.0054003606 0.0021416494 0.0001480544 -0.00074314256 0.0036426971 -0.000833614 -0.00091726566 0.0049666055 -0.0032579456 -0.0018824966 0.003975948 0.0019157438 0.0008214405 -0.0035385238 0.007217213 0.0030367316 0.0068328953 -0.000991219 0.0053908178 0.009118504 0.0049113953 0.0022310372 -0.0011111869 0.00039261268 -0.0058529275 0.0021939843 -0.0019094754 -0.000722506 0.000611039 -0.0054744277 -0.0033191654 0.0051366105 0.0011306758 -0.0032137337 0.0004105392 0.0015902463 -0.0029021702 -0.0007073661 -0.00410117 -0.0022882614 0.0025438464 0.0013878302 0.0055457116 -0.0017024004 0.0041712043 0.003684425 -0.0072688307 0.0019547755 0.0005063724 -0.0025346356 0.0023787825 0.0040936107 -0.0019726462 0.0026194751 0.0052599995 0.001765124 -0.0025257333 0.0036521037 -0.008016114 0.000538342 0.003623236 -0.002564718 0.0009660347 -0.004548896 -0.0048569073 0.0031061978 -0.004180562 0.0036327287 -0.0032828161 0.0052129654 -0.001857214 0.0038646427 0.007100426 0.0041152667 0.0014115513 -0.0010876978 0.0037347905 0.002357101 0.0064009256 -0.003303441 0.0013422116 0.0020770926 0.00087406125 0.0021003867 0.004339104 -0.0034142148 -0.0025020975 -0.0034973365 -0.00018827598 0.0015132686 -0.0022912533 -0.0010443876 0.007272849 -0.0015314871 -0.0034026252 -0.003555818 -0.009964027 0.006881938 -0.0011558156 0.0025373264
啊 -0.0041380804 0.0062367027 -0.0038054 0.00288477 4.614547e-05 -0.0031374262 -0.008532593 0.0007274042 0.00028784142 -0.011964024 -0.00018129766 -0.005657005 0.0013933721 -0.0020270546 -0.0027279572 0.0012231815 -0.0011627625 -0.0074806614 -0.0025752087 -0.00070739427 0.0027564375 0.0026732383 0.005753718 -0.0026774104 -0.0068614674 0.0006981601 -0.0008219145 -0.00025475776 -0.0032682866 0.00020822533 -0.0007901673 -0.004640287 -0.0002152599 0.00027945987 -0.005686081 -0.004863611 -0.0052937297 -0.0012785023 0.0023960297 -0.008663215 0.0020128435 -0.0059457324 0.0033427277 -0.0078859 0.0031836994 -0.0014645488 -0.0008672306 -0.003441203 -0.009917889 -0.0028258036 0.006016643 -0.0004554648 0.009723065 0.0052897586 -0.0029639152 -0.0034766097 -0.00029116718 0.0019199348 0.007982657 -0.007301911 -0.0103792045 0.0006011399 0.0009681163 -0.006557376 0.0019306967 0.0025969392 0.0011688689 0.0048936508 0.0104773585 -0.003965036 0.012571029 0.0025721842 -0.0022922433 -0.0044010514 0.00013447973 0.0026491426 0.001441744 -0.0002915347 -0.0022765826 0.0032941462 -2.8298273e-06 0.0041093524 -0.0019827322 0.0020561728 0.0097384 -0.0050059557 0.004170793 0.0045629116 -0.0054249316 0.0030013144 -0.0032185721 0.0024743278 -0.0055748685 0.0018638702 -0.0074522556 -0.007800617 -0.0012822772 0.0021480927 0.0065645673 -0.0008084663 0.004996413 -0.0041835583 0.0029538735 -0.0068329237 -0.0011612934 0.0024852934 0.0014453582 -0.0033776246 -0.0015133815 0.004277889 -0.0025778906 0.0007684511 -0.0046724915 -0.004138062 -0.00933516 -0.0049517793 0.0027857437 -0.003609251 -0.004040011 0.0027321854 -0.0063826325 -0.0084876735 0.002576546 -0.0031949962 0.00788493 0.006094055 -0.0061723525 -0.015940912 -0.0026997454 0.00020438248 0.010520801 0.0023491618 -0.007884596 0.0031492214 0.0042349542 -4.6257017e-05 0.006974918 -0.0033240041 -0.008356306 0.0020512845 -0.0069893217 -0.004453436 0.001582251 -0.005300205 -8.383619e-05 -0.01194628 -0.000579276 0.0023040993 0.003949401 0.008518469 -0.0020608788 0.00524541 0.0041869367 -0.003293891 -0.0012161894 -0.0017146062 -0.006668405 -0.0050326516 -0.011211426 0.0029465407 0.0031693792 -0.0014652791 -0.001937226 0.00328531 -0.0035889412 -0.0050033987 0.0014103429 -0.0027596536 -0.0061652553 0.0014956743 -0.0091812955 -0.0048249736 0.0016600032 -0.0016610823 -0.0003665775 0.0020853127 0.005753844 0.0010831228 0.0001585023 0.005229571 -0.0033736129 -0.007276329 -0.0024485379 0.00814397 0.0018599028 -0.011768839 -0.0090760905 0.0050481264 0.00016373997 0.0057970765 0.016064163 -0.00052254205 -0.0031804764 0.0014626879 -0.009301871 0.0011051737 -0.011569115 -0.0011280488 0.0009881604 0.0019600196 0.0059786197 0.0027366362 0.004291406 -0.0018031184 0.00774577 -0.0024333692 -0.0009472568 0.009036853 -0.0035603193 -0.0017492377 0.0078082755 0.0037272405 -0.0006637326 -0.007567606 0.009511953 0.0020512938 0.012826789 -0.001023173 0.009377254 0.013739099 0.007096304 0.0048174006 -0.0024581652 -0.00033975477 -0.008039294 0.004033679 -0.001620285 -0.0016177997 0.0037369295 -0.006155641 -0.0070793536 0.0049216133 0.00032129174 -0.00617386 0.00026723588 0.0054375175 -0.0040876013 -0.0012182833 -0.005010047 -0.004153061 0.0044685598 0.0037263953 0.006916046 -0.0014570723 0.0040186425 0.004996275 -0.00973625 0.0050842636 0.0028413455 -0.0038692476 0.0034160877 0.007599406 -0.00090989884 0.007322166 0.010252052 8.392526e-05 -0.004927375 0.00870648 -0.008511435 -0.0026209876 0.007676534 -0.004565278 0.003907968 -0.008365129 -0.010797803 0.0044758697 -0.0064348704 0.0055982145 -0.007240937 0.007652215 -0.004016386 0.006115634 0.010289349 0.009315236 9.970513e-05 0.0014324049 0.004434744 0.007820401 0.008793363 -0.0043532993 0.0028707532 0.0056376997 0.003907778 0.0037667716 0.007054109 -0.0076438203 -0.0037869145 -0.0018639357 -0.0022289143 0.0035694498 -0.0010085917 0.0011965293 0.009006994 -0.005630376 -0.006231383 -0.0058060125 -0.015145709 0.0113561135 -0.0033241687 0.0017576262
没有 -0.003560033 0.0051075337 -0.0031958707 0.0015695969 -0.0015059189 -0.0014889025 -0.008463942 0.001560872 -0.001888599 -0.010526016 -0.0011503181 -0.0076817716 0.0021618688 -0.0008608857 -0.002184535 0.00040794097 0.0008014697 -0.007111108 -0.004006808 -0.0010795449 0.0024878117 0.0021901974 0.0040441593 -0.0006985866 -0.005934994 0.0011229166 -0.0006515693 0.0010260316 -0.0030630971 -0.00036207648 -0.0027574117 -0.0028854313 -0.00022635312 0.0022490665 -0.0028257591 -0.0039611943 -0.004171772 -0.0033395868 0.0013877221 -0.009355561 0.0011027155 -0.0064867036 0.0005672501 -0.005954374 0.0026326647 -0.001917047 -0.0014401713 -0.0043201656 -0.007769929 -0.0026153761 0.0033245287 -0.0018391779 0.010233741 0.0043188557 -0.00027949 -0.0022856325 -0.0023456323 0.0037320198 0.006414426 -0.0070307096 -0.0089260675 0.0016330121 0.000559625 -0.006963831 0.00075164094 0.0029552635 0.002805265 0.003228429 0.008785597 -0.0036550297 0.013888625 0.0025079183 -0.0022630012 -0.0051886924 0.0015123327 0.002845961 0.0023371058 0.0016303471 -0.0008475443 0.00068343175 0.0010463754 0.005587611 -0.0013680985 0.0007568414 0.0087916665 -0.004495856 0.00487144 0.005378602 -0.006386734 0.0035489365 -0.0037493603 0.0009827664 -0.0052979025 -3.8483875e-05 -0.0064004343 -0.0059467047 -0.0035275437 0.0031669063 0.006772874 -0.0011901741 0.0025714615 -0.0035277263 0.0009946404 -0.008168421 -0.0028786832 0.002767744 0.00040028078 -0.0024858662 -0.00057049777 0.003511805 -0.0001605882 -0.0017100167 -0.004135782 -0.0036103844 -0.0064620385 -0.0057477127 0.0037099484 -0.0010790479 -0.0037483019 0.0011809847 -0.0070633963 -0.005500611 0.0020925594 -0.004373341 0.0056229024 0.006915124 -0.0032157765 -0.013887821 -0.00078091613 -0.0014616165 0.009895699 0.0036801288 -0.0065019126 0.0032280658 0.0054019 -0.0008408564 0.0051131495 -0.0026595404 -0.0065020905 0.00053856696 -0.0046806997 -0.003911897 0.0019834049 -0.0045947116 0.00065212545 -0.011050515 -0.00088970934 0.0029503193 0.0029613243 0.009673762 -0.003521888 0.0033014505 0.0045260615 -0.0036912116 -0.0007460027 -0.0021941848 -0.006560135 -0.004401878 -0.008570913 0.0045851315 0.0022346138 -0.0024464605 -0.0007584085 0.0056834975 -0.0054177637 -0.0054582497 0.0006356545 -0.0030116613 -0.0069944845 -0.00013849311 -0.007940278 -0.002006102 0.0027416358 0.00056912354 0.0011819974 0.0006911144 0.006280565 -0.0011531083 0.000366621 0.004941918 -0.0026874659 -0.006954747 -0.0034883907 0.007288874 0.0014836405 -0.013372571 -0.009456068 0.0045119203 -0.00059360074 0.0038996153 0.015286279 -0.0031316478 -0.0030955696 0.0037181803 -0.0074110087 -0.0009115511 -0.0117352605 -0.0025335753 0.002620587 0.0010183388 0.0041789752 0.002869563 0.0031299156 -0.0021612684 0.007803236 -0.0037051167 -0.00025547016 0.007509437 -0.0026620126 -0.0033556928 0.008287377 0.0023076416 -0.0014943748 -0.006379164 0.008584068 0.0021589561 0.011945664 0.0005978292 0.011176291 0.01132465 0.0064958674 0.0055731935 -0.0017958 -0.002413123 -0.008026745 0.004140586 -0.0005612986 -0.0020350665 0.0039319936 -0.0074909735 -0.0063104085 0.004662733 0.0007893952 -0.006200718 -0.00016385745 0.002448577 -0.0032741171 -0.0008866782 -0.0039243065 -0.003445797 0.004226678 0.003020711 0.0069540283 -0.0023521732 0.0040284167 0.005571661 -0.0075942245 0.0041556186 0.00040660665 -0.005525213 0.0018206055 0.0054466873 -0.0011659241 0.00608867 0.008839094 -0.00049001956 -0.0057374663 0.0074796607 -0.009595602 -0.0015542732 0.0060328683 -0.0023624215 0.0043877624 -0.007010704 -0.009030632 0.002992095 -0.004270998 0.0071694246 -0.0076621207 0.006622656 -0.001815497 0.0034406153 0.009080463 0.009386562 0.0010257154 -0.00035705444 0.004503314 0.0077206725 0.006800861 -0.0032690768 0.004181304 0.0057900087 0.0039055697 0.0033973905 0.006872789 -0.00715568 -0.0015853565 -0.0034069163 -5.5761142e-05 0.0019747983 -0.0006075179 0.00036033976 0.0097817695 -0.0042743823 -0.0036211677 -0.006071973 -0.014350144 0.012190482 -0.0039623827 0.0012585769
呀 -0.00088334986 0.004233141 -0.0014801641 0.00081831217 -0.0001958941 -0.003447035 -0.005475146 -0.0007425995 0.0011584176 -0.008737038 -0.001772277 -0.004201883 0.002085993 -0.00014474642 -0.0017411957 -0.0014772431 -0.0010305606 -0.0054590413 -0.00039446782 -0.001758005 0.002705906 0.0014693884 0.0045798505 -0.002818257 -0.003592838 0.001584025 -0.0016134111 0.00025066573 -0.0016750486 0.00060660957 -0.0020393447 -0.0029825263 -0.0019983598 0.0016048484 -0.0015646657 -0.001446833 -0.0029012274 -0.0035414144 0.0031918376 -0.006057154 0.002798178 -0.0040574805 0.0007245241 -0.003452124 0.0030045793 -0.00014873165 -0.000296866 -0.0025808986 -0.006499382 -0.0017591744 0.0041004885 -0.00280515 0.0069145667 0.0009770774 -0.0016108806 -0.0010091903 0.0005828359 0.0011180138 0.0044806562 -0.0041007237 -0.0064524463 0.0016176639 0.00044859547 -0.0029867687 0.00033278746 0.0014173537 0.0023829795 0.0015896835 0.006290274 -0.002272605 0.008039664 0.0026635232 -0.000713849 -0.0039596236 -0.00034929064 0.00034492917 0.0011175856 0.0012331047 -0.0006998929 0.0027291412 0.00030644625 0.005218152 -0.0015338011 0.003017205 0.006772776 -0.0030547264 0.00087032566 0.002482107 -0.0029270547 0.002425646 -0.003371708 0.0005805575 -0.0035428102 -0.00024883848 -0.0032372854 -0.0036481866 -0.0018159844 0.0019126245 0.0026838111 7.9748905e-05 0.003514532 -0.0014577702 0.0016731742 -0.0065109157 0.0006160576 0.002068066 -0.00043940096 -0.0027082209 0.0011171505 0.004000174 -0.00034345785 -0.00041398432 -0.0024078372 -0.004278837 -0.006804074 -0.0034317267 0.00071349496 -0.0033152823 -0.003819563 0.0011732434 -0.0058015645 -0.0062103863 0.0007363267 -0.002145205 0.00594496 0.0056976555 -0.0020617263 -0.010787836 7.5056414e-05 9.893012e-06 0.0071187164 0.0028047825 -0.0048862677 0.002968036 0.0039722794 9.325714e-05 0.0043748235 -0.0007883946 -0.0052719633 0.0021585643 -0.004521407 -0.0030603244 -0.00017612847 -0.0016553839 0.0017992742 -0.0061223567 -0.0019290216 -0.00019699697 0.0038826324 0.007331323 -0.001400235 0.0031730325 0.0028278783 -0.0039726007 -0.0009416573 -0.0006650676 -0.0029799785 -0.0034814158 -0.0079200445 0.0017581851 0.003488205 -0.0009831712 -0.0010506137 0.0027519045 -0.0038025822 -0.0015673116 -0.00038890511 -0.0014945752 -0.0042577754 0.00029997597 -0.006132424 -0.0024999033 0.0016430487 -0.0019076997 -0.0004730674 -0.00028852333 0.0031317603 0.00043020598 -2.0442749e-05 0.0011114876 -0.0026562875 -0.0022513333 -0.0014611859 0.0034367659 0.0018544304 -0.009772599 -0.004828696 0.0027995675 0.0011587029 0.0040406063 0.0107679535 -0.00061650336 -0.000691809 0.0011411577 -0.0057343952 -0.0013168515 -0.0077967164 -0.0008360909 0.00015061372 0.0025750839 0.0033028645 0.0036033094 0.0012619057 0.0008712301 0.0043775854 -0.0038329766 0.0005606617 0.0056967298 -0.0013542238 -0.0013641592 0.0041504945 0.0030258012 -0.0015188644 -0.0048920927 0.0057661133 0.0034141273 0.0062148734 0.0005762071 0.008111373 0.009006749 0.005280122 0.0020628981 -0.00031887204 -0.0013869966 -0.004852315 0.0039857235 -0.0015155278 -0.0030993456 0.0007383013 -0.004023395 -0.0024916055 0.0025324875 0.0011397148 -0.006063628 0.0013395632 0.0012644262 -0.0018082123 0.0011214992 -0.0029128126 -0.0025696713 0.0022718986 0.0035935007 0.0039962796 -0.002268506 0.0036262514 0.0012868983 -0.0046581244 0.0014216125 0.0016804538 -0.0012922582 0.0030824507 0.0036587527 -0.0005434598 0.0040502734 0.008133616 0.00020510539 -0.0031656735 0.004894172 -0.007544449 -0.0021656663 0.005996496 -0.0018521093 0.001313731 -0.0051048268 -0.0060788137 0.00287402 -0.0047182594 0.005025734 -0.0048892843 0.005299496 -0.0015901135 0.0024734947 0.005079199 0.006498851 -0.00050573243 -0.00074521994 0.001640382 0.00486058 0.005894265 -0.002234284 0.0038629645 0.002945131 0.0038598327 0.0016185463 0.0038386222 -0.0046920683 -0.0013420148 -0.0037389295 -0.0005639774 0.0010786026 -0.00072976464 -0.00066412723 0.008239224 -0.0017418375 -0.004765496 -0.0027590175 -0.010287573 0.008085544 -0.001053266 0.0013858763
安排 -0.003878702 0.006389942 -0.0021701334 0.0017230681 -0.00052576227 -0.0022252102 -0.007032925 0.001300658 -0.0014419694 -0.011438027 0.001590017 -0.004202487 0.00061699015 -0.0011614694 -0.0011062043 -0.00041289898 -0.0009954763 -0.0052089924 -0.0015499766 -0.00036579414 0.0040618335 0.0022519059 0.0040440233 -0.0025261922 -0.005287583 0.002071298 -0.0032310637 -0.00057056925 -0.0049971603 -0.0012993971 -0.0013887031 -0.0016112964 -0.00080212066 0.00021632075 -0.005299286 -0.0032123958 -0.005812431 -0.001780895 0.0027699634 -0.007274245 0.0031081738 -0.003420828 0.0015061058 -0.0061788424 0.0046423785 -0.0025644812 -0.0023665298 -0.0013834886 -0.00865155 -0.0009304671 0.005722234 -0.0020869023 0.008544113 0.0025797333 -0.00020151772 -0.0007705281 0.0003667658 0.0015915524 0.0048647756 -0.0061201057 -0.008707265 0.0005049798 2.146186e-05 -0.0053177606 0.0011867367 0.0023062162 0.0009137817 0.0020104174 0.0062833033 -0.0038575565 0.011936477 0.00050877914 -0.0003618963 -0.004752315 0.00015653325 0.000859186 0.0009039588 0.0023994218 -0.0011151902 0.003061864 0.002675898 0.0035024325 -0.003342248 0.003473267 0.008715562 -0.0030903083 0.00123265 0.0016163895 -0.004674882 0.0037753019 -0.0034100465 -0.00010071201 -0.0034455126 0.000110988556 -0.005981162 -0.0061958777 -0.0022905245 -4.0887793e-05 0.0053473283 -0.0020221497 0.0024913587 -0.0033216223 0.0028829076 -0.0059756967 -0.0025293857 0.0031562492 0.0008753409 -0.0019917716 -0.00069802837 0.004549119 -0.00088844995 -0.00072135177 -0.0031658427 -0.0047908523 -0.0073263682 -0.0049304827 0.00075559976 -0.003125699 -0.002038753 0.002533479 -0.0068675447 -0.0069928085 0.0034010785 -0.003642026 0.0050446196 0.0051415428 -0.0035218126 -0.012783557 -0.0021990065 -0.0005531851 0.0101897335 0.002470821 -0.0040441416 0.0014963297 0.0026558228 0.000793878 0.003617133 -0.0010876943 -0.0070511075 0.0003623696 -0.0056476193 -0.0044708974 0.002463821 -0.0026657782 0.002230779 -0.0100743 -0.0020681964 0.0031987138 0.0032303925 0.0082103675 -0.0022000787 0.0049749957 0.003461864 -0.003412379 -0.0017739751 -0.0023320063 -0.004439758 -0.003826498 -0.010091766 0.0035480133 0.0032008542 -0.0033768949 -0.00018271437 0.0037496877 -0.0032330705 -0.0048081763 0.0005000912 -0.001352433 -0.004636261 0.0010932431 -0.009181755 -0.0029228965 0.0029507258 -0.00059566455 0.00051079626 0.0018480772 0.0045707016 -0.00111139 -0.001055082 0.0031244294 -0.0011626101 -0.0061620595 -0.0028664016 0.0052157133 0.0016430494 -0.010930349 -0.008457506 0.0038731382 -0.0009356944 0.0029515235 0.012550166 -0.0010915828 0.00020644409 0.0030223005 -0.0053361165 -0.000848712 -0.010029286 -0.00035416745 0.0025292402 0.00048593865 0.0036807603 0.0038297367 0.0016798209 -0.0012552002 0.0069961194 -0.0034040033 0.00069408026 0.0061206976 -0.0018868592 -0.0021428866 0.005567363 0.0018576697 -0.00049994653 -0.005205774 0.008123293 0.0027699315 0.008545508 -0.0020140235 0.008525835 0.011196636 0.0043264357 0.0023192468 -0.00016326127 -0.00048400485 -0.00783126 0.0045942096 0.00041542837 -0.0011123873 0.001686819 -0.0055448557 -0.005321989 0.0064104 0.0012009104 -0.0049348427 0.0013049672 0.00400786 -0.0041013835 -0.00052534713 -0.0033608957 -0.0042435806 0.0038974748 0.0033797307 0.005989657 0.0007871067 0.0048600677 0.0018664618 -0.006850018 0.0030711365 0.0011882719 -0.0035494955 0.0028802857 0.005665589 -0.0013727176 0.0056857336 0.0073461053 -0.0005377976 -0.003656818 0.005300815 -0.0070628547 -0.0019168796 0.005940726 -0.0018496797 0.0036243396 -0.006048944 -0.008623103 0.004831487 -0.004162799 0.0050615133 -0.0053958073 0.007481118 -0.0041822414 0.004075194 0.008615837 0.005746085 0.00025866032 -0.0011868903 0.0022402862 0.006585869 0.0081567755 -0.0026835909 0.0037401412 0.0053403825 0.0023596145 0.0046370453 0.005283091 -0.0065050954 -0.0023409233 -0.0033038163 -0.00089662016 0.0012415472 -0.0016812021 -0.00042066636 0.008196685 -0.002956901 -0.002758914 -0.0058038617 -0.0117446575 0.009386486 -0.0015184124 0.0029532162
