113 300
鼓掌 -0.0006684463 -0.00012902747 -0.00025906923 0.001000345 -0.0017102368 -0.00014400484 -0.002014343 0.00025620236 -0.0010811582 -0.00055643474 0.0013150779 6.768916e-05 -0.0017701203 0.00027907867 -0.0015758489 0.0008223381 -0.00045503775 -0.00019499002 0.00085345394 -0.002175687 -0.0019699405 6.84989e-05 -0.00097209704 0.00057768926 -0.0004795101 -0.00078516494 -0.0014081129 -0.00053131644 0.0017635206 0.0011669821 0.0012140619 0.00023631442 -0.00028852196 -0.0009154008 -0.0027123436 0.0005851113 0.00024291409 -0.0021159982 -0.0006971438 -0.000104551815 -0.00079317193 -0.0027324543 0.0015036513 -0.0006129123 -0.0009387032 0.0023434903 -0.0009459491 -0.00029870984 -0.00023055871 0.0016618569 -0.0025388973 -0.0017924801 0.001484225 0.0003020703 -0.0029353646 0.00074101484 -3.229155e-05 0.0012717585 -0.0019891418 -0.00068218674 0.00019980335 -0.0013407196 0.0020648248 -0.0005367486 -0.0009298748 0.0012738619 0.0032759057 0.0013861323 0.00026959475 -0.0013608544 0.0006020466 -0.00053000636 -0.0014479691 0.0021773712 -0.00045470623 0.0018384554 -0.00084942795 0.0026756444 0.0010455429 -0.0011472482 -0.0018724371 0.0025089225 0.0006851929 -0.0003823048 0.0014835466 0.00014551495 0.0019140114 6.638808e-05 0.00088831544 -0.0025968528 0.0006248713 0.0015999255 -0.0027414493 -0.0007807864 -0.0006659033 0.0014404935 0.00094672473 -0.00047008583 0.0018496468 -0.00086377707 -0.0002200269 -0.0013031723 0.00285736 -0.0010034391 0.0007204287 0.0011097449 -0.0017604987 -0.0005495783 -0.0011929427 -0.0025746217 0.0013564193 -2.7302885e-05 -0.0012393629 0.00083976804 -0.001473999 0.0020238208 -1.9291783e-05 -0.00043838462 0.0019738332 -0.0013955265 -0.0016104599 -0.000113480004 -0.0009795767 -0.0004915658 0.0026632966 -0.00064997544 0.00053901924 0.0005704112 -0.0010635606 0.00048406402 -0.0005635567 0.00085151155 0.0002944791 -0.0010088383 -0.00044818447 -0.0020086672 -0.0011098109 -0.0017619743 5.3602253e-05 0.0005294402 -0.0019522758 0.0023295106 -0.0009084498 -0.002437302 -0.0012289562 -0.0007348881 -0.0015480615 -0.0010379624 0.0014407528 0.0009297117 0.0007897854 0.0011777283 0.0013981449 -0.0015645066 -0.00012357361 -0.0005578986 -0.0007979289 0.00044065682 -0.0006250256 0.0015073802 -0.0005238818 0.00054227916 -0.00016274372 0.0029517284 0.0014394579 -0.0002383177 -0.001824743 0.0015946433 -0.0016408227 0.00054814597 0.0023599989 0.0021776196 -0.0011661504 0.00017091927 -7.6274277e-06 -0.0012940936 0.0005490204 0.0013432576 0.001265076 -0.00039139207 0.0019149133 0.0013975439 -0.0012256854 -0.0016388498 0.00080158305 -0.0023856605 -0.0025438028 0.0013726748 -0.00069288374 0.0006923749 -0.00016525183 -0.0024076672 0.0003554354 -9.4170915e-05 -0.00055290805 0.0018986607 -0.00020079045 -6.5855376e-05 -0.0009489684 0.0026183384 0.001865936 -0.00094219716 -0.0013365805 0.0018445358 -0.0010309692 0.00062544673 -0.00047244038 0.0020385429 0.0006950771 -0.0008144903 0.0005953286 -0.0011498559 -0.00037205382 -0.0001917472 -0.0007959786 -0.0014837031 0.0016918108 0.00058022095 -0.0011333909 0.00056645117 -0.0020544715 -0.0019584377 -0.0015133392 0.0011929143 0.0024176238 0.0006944976 -0.0010692709 0.0008753006 -0.0016593904 -1.2838677e-05 -0.0012156918 -0.0025873042 -0.00078512455 -0.0018498332 8.223489e-05 0.0014141041 -0.001903314 -0.0007343408 0.002713877 0.0020887242 -0.0016444039 -0.00023730104 -0.0017971485 0.00015391037 0.002966069 -0.00028531707 0.0008543692 -0.00079569407 0.0003566439 0.00068428786 -0.0018995515 0.0008281394 -0.0023087033 -0.002038489 -0.0013504165 0.0016917008 -0.0018771674 -0.0005199056 0.0001229768 0.0017082246 0.0014571866 -0.00031946012 -0.0015933993 -0.0003564767 -0.00088620995 -0.0008151322 -0.00023197733 0.0018677019 0.00011236635 0.0008727067 0.00048513396 0.00046117758 0.0019239361 -0.0024218282 0.00061307277 -0.0014328734 -0.0020624206 0.0003361873 -9.0010166e-05 0.0019175261 -0.0007746885 0.0018736946 -0.0027385685 0.002133993 0.0010577542 -0.0009061329 0.002063413 -0.0013344971 0.00150217 -0.002362437 -9.353582e-06 0.0017910516 -0.0004290731 -9.105205e-05 -0.00020557929 -0.00021431426 -0.00088891864 0.0012291002 0.0016762866 -0.0004811972
赞赞 0.00018179667 0.0028867638 0.0016535647 -0.00036985596 0.00056047516 -0.00061278726 -0.001498899 -0.0005577373 -0.0034654578 -0.002583132 -0.00030466568 -0.0023536806 0.0007297946 -0.0012833632 -0.0014749549 0.0033907008 -0.00060805376 -0.00040452677 -0.0014584684 -0.00038387426 0.00067960116 0.0016446781 0.00033855252 0.0019182777 -0.00079676684 0.0011418492 -0.0019761303 -0.0018579054 0.0015944352 0.0024178731 0.0005186974 -0.0014022228 0.0004866924 0.0019387018 -0.0035833274 0.0012878119 -0.00045179678 -0.0035173462 0.0012519939 -0.0019207976 0.001369249 -0.0029696436 -0.0013692178 -0.00037734807 4.491165e-05 2.3940867e-05 0.0009819194 -0.00036727433 -0.0018622775 0.0010493497 -0.0016988122 -0.0010524717 0.0018240168 0.0039627203 -0.0024616893 -0.0034895027 0.0007176979 -0.0005060208 -7.307094e-05 0.00035984596 0.002465266 -0.0015372579 0.0021999464 -0.0004513541 -0.00013356417 0.005352291 0.003977055 0.0019469983 0.0024992453 0.0009914923 -0.0006827487 -0.00026840367 -0.0016867659 0.0020636604 0.0031171013 0.00033952913 0.0014761487 0.0037668196 -0.00077696407 -0.0003702345 -0.00014861581 0.0031251176 0.0017052176 -8.360374e-05 -0.00048125954 -0.0021973578 -0.0018276669 0.0001948099 0.0010440074 -0.0027173657 0.0005848152 0.0011226151 -0.0026414539 -0.0055225403 0.0014656916 0.0016588466 -0.0029002165 -0.0022509075 6.684983e-05 0.001225597 0.0025693353 -0.003919834 0.0007182175 0.001177764 0.0013545158 8.140354e-05 -0.0016259017 -0.00049888704 -0.00019898837 -0.0008363382 -0.00060569216 0.0007087994 0.00047395838 0.0028736705 -7.669854e-05 0.0043922043 0.0018173151 -0.0015205942 0.0005760711 -6.0223225e-05 -0.0018488576 0.0017460502 -0.00031520292 -0.0016571083 0.002033501 0.0029952575 -0.0006553717 0.00035167657 -0.0010095426 0.0015281687 -0.00049345905 -0.0016930697 0.00041993568 0.0017470337 0.0026649581 -0.0015122714 0.0018236443 -0.003180404 -0.0005892209 -0.0019372033 -0.0016301095 -0.00023593774 -0.0010704211 -0.0027342658 0.0021094473 -0.0011180893 -0.0036721304 0.0026869471 0.0007821158 0.0019477018 -0.00343025 -0.001265648 0.0011195644 -0.0018729941 -0.00043752015 0.001454936 -0.00038914668 0.00012630169 -0.0018360965 0.0011146605 -0.0024651445 -0.0020651354 -0.00053189736 0.002264543 0.0014926534 0.00094599056 -0.0051917285 0.0014017392 0.00014861507 0.0016580886 0.0023784146 0.002869542 -0.00017877384 0.001801784 -0.0012838101 0.0002559761 -0.0004018443 -0.0019481917 -0.00088572135 3.1407017e-05 0.0030342664 -0.0012706243 -0.0024716225 -0.0003601061 -0.0010816046 -0.0032372023 -0.0007637002 0.00072378066 0.0017641733 2.511633e-05 0.002856949 -0.0008478686 0.0007475145 0.0006356415 -0.0014997345 0.00029646198 -0.0011214031 -0.0021915261 -0.0010177952 0.0028601377 0.0023200498 -0.00013460932 0.002358248 0.0009451324 0.0010607141 0.0026971758 -0.00045724856 0.0033961711 -0.0024882443 -0.001887871 0.0006206791 5.928515e-06 0.0010046917 -0.0006575802 0.00045037002 -6.144663e-05 0.0011068251 0.0020524499 -0.00022402493 0.0030718222 -0.0029724261 -0.0017070932 -0.0007543179 0.002452385 0.003967399 0.002338388 -0.00031516663 -0.0014004344 0.00015422389 -0.00074002304 -0.0021607354 -0.0032476583 -0.0016669432 -0.0019091466 0.0006531205 0.0012444188 -0.00014469397 -5.6111603e-05 0.00040679137 -7.467777e-05 0.0005995911 0.0005593288 -0.0024192445 0.001251658 0.0030157105 0.00028188946 0.0006185107 0.0023634413 -0.0009289001 -0.0010014102 -0.0028317694 0.004309305 -0.002214194 -0.000919726 -0.00064580364 0.0060428395 -0.002751156 0.0012771223 -0.0025532048 0.0016889172 0.0021271463 -0.0013981805 -0.00071024697 -0.0011674782 0.0016499953 0.00015981565 -0.0016903721 -0.0004275006 -0.0009193395 0.00013472617 -0.0026684725 0.0013659078 0.0028954654 -0.0008498791 0.0023522656 0.00044123 -0.00035102386 -0.0013333722 0.0010658868 -0.000357938 -6.104355e-05 0.0036823058 -0.0037627562 0.00015711592 -0.0003619628 0.00034659525 0.0011092807 0.0017631841 0.00043590623 -0.0014009627 0.002229603 0.0013556774 0.0013418733 -0.0016034093 0.0010854839 0.0008581985 -0.00061364344 0.0002441433 -0.0006896294 0.00018255318
了 -0.00037644655 0.0037893725 0.0037501939 0.00084952824 0.0005856633 0.00018066466 -0.0035760868 -0.0029952344 -0.0041659093 -0.007844256 0.0011163027 -0.0038783245 -0.0015645117 -0.0007945808 -0.0043180897 0.0041822693 0.0016439429 0.0013160771 -0.0014099092 -0.00022850612 9.030188e-05 -0.00074703526 -0.0012835262 0.0011734639 1.0918104e-05 -0.0007064831 -0.0024609934 -0.0042844834 0.0014938072 0.006639872 0.00026830635 -0.00039522187 0.0016606837 0.0021817898 -0.0029970522 0.0005327548 -0.0015365989 -0.003968293 0.0007403217 -0.004007158 -0.0006349186 -0.0055461437 -0.0005613399 0.0014468705 0.0013884229 0.0024053003 0.002488223 -0.0013660495 -0.0011945335 0.00047225502 -0.0020712216 0.00056286965 0.0019510731 0.0052238093 -0.003382743 -0.0041024387 0.0022007076 0.0014826767 -0.002886069 -0.002377212 0.0042304085 0.0018312874 0.0056253066 -0.0051357215 0.0014360853 0.0092565585 0.008137346 0.000728005 0.0033314636 0.0022375362 0.00068758085 -0.00017329984 -0.005423144 0.0027991082 0.0011303929 0.0036788515 -0.0012073391 0.0020744489 0.0005335103 -0.003099635 -0.003530639 0.0033368042 0.0031451515 0.0032151265 -0.000863219 -0.0025958144 -0.0007276705 0.002140942 -0.0010544115 -0.0031837511 -8.397665e-05 0.0020049047 -0.0062785936 -0.009141188 0.0003167598 0.001271263 -0.0028583973 -0.0037702501 0.001968722 0.0034288578 0.0020577698 -0.0055425116 0.002866999 -0.00092524 9.3690986e-05 -0.0015628545 -0.00051201077 -6.5571105e-05 -0.002690484 -0.003282746 0.0005293544 -0.00052649435 -0.001973964 0.0021386042 -0.002841351 0.0061548892 0.0016650384 -0.0023568885 0.00070612924 -0.004290891 0.00011590468 0.0012557289 0.0011458525 0.0016128286 0.004443712 0.004902645 -0.00032266232 -0.001311097 -0.004344351 0.0015004616 -0.0019815664 -0.000729195 -0.0006463312 0.0042336066 0.001443522 -0.0041636857 0.0029751095 -0.0021977543 -0.0022512157 -0.0010539369 -0.00081562914 0.0019087222 -0.0014730393 -0.0041524353 0.0013278589 2.4491275e-05 -0.0047154594 0.0020992605 -0.00020261247 0.002898299 -0.0021643583 0.00017475612 0.002982415 -0.0027158184 -0.0011381817 0.002380407 -0.0016866326 -0.0027236827 -0.002655262 -0.0006494995 -0.0039642006 -0.0049892277 -0.0010569784 0.0060477024 0.003339892 -0.00021084707 -0.008823134 0.003959705 -0.00015443245 0.000168969 0.0023674718 0.0020126963 -0.0047289813 0.00036598032 -0.0027275085 -0.0013915068 -2.292039e-05 -0.0025128147 -0.0013905258 0.0009892615 0.0025483964 0.00032226392 -0.0027020925 -0.002986519 0.002794015 -0.0024051864 -0.0032380014 -0.0018713023 0.00026261364 -0.0013582045 0.0058227363 -0.002459732 -0.00038447336 0.00064876955 -0.0029421686 0.0025906423 -0.004079786 -6.624711e-05 -0.00034941285 0.005827827 0.0049233604 0.0030196758 0.0016738349 0.0035063631 0.00021805167 0.0015199941 -0.0020487763 0.005304882 -0.0017061607 -0.0022399088 0.0036162562 -0.0025958011 5.4356267e-05 -0.00036509565 -0.0024989834 0.001460559 0.0012794845 0.00085447263 0.001873666 0.0043404135 -0.003697406 -0.0020226876 -0.0028869368 0.00345993 0.004804277 0.002506855 0.00018234283 -0.004504275 -0.00072263565 -0.0019197334 -0.002079654 -0.0034084318 -0.0035380037 -0.0027340355 0.0003817575 0.0010572626 -0.0030505792 -0.00094114867 0.0022196688 -2.9532908e-05 0.00012732558 -0.0003568758 -0.0037764474 0.0012751519 0.005680938 0.00023970504 0.0009964507 0.0025437705 -0.0021409297 -0.00040569596 -0.0024330546 0.0078003574 -0.0041775997 -0.0020796428 0.0021332423 0.0074448152 -0.0026505643 0.00040093006 -0.001507342 0.0012377171 0.006173384 -0.002938129 -0.0005437717 -0.0033318626 0.00279654 -0.002266259 -0.0015285279 0.0027007484 -0.0027976087 -0.0027489217 -0.0038372066 0.0039597047 0.0066560186 -0.003808194 0.00093755155 0.0015495848 -0.0019957332 -0.00031951268 0.004091368 0.0014502439 0.0038350064 0.005004294 -0.005216952 0.0020115264 0.00048659302 -0.0018273834 0.00011163538 -0.00010187359 0.0004221104 -0.0026203846 -0.00017287271 -0.0013745317 0.004289975 -0.0013960834 0.00270196 0.00087354047 -0.002655939 0.0002488356 0.0005624649 0.0019882165
的 0.00016396938 0.004030617 0.0011946431 0.0033431016 -0.00026428959 -0.0014682442 -0.0035324043 -0.004775088 -0.004354566 -0.008506726 0.0019195646 -0.0056344164 -0.001460716 -0.00063687604 -0.005401351 0.005168093 0.0028049399 0.0035610446 0.00070514344 -0.0007834173 -0.0020395305 0.001065344 0.0001473468 0.0017498859 -0.00091036403 -0.0010314164 -0.0025350694 -0.005563541 0.0021165197 0.008054543 -0.0026112394 -0.0032632786 0.0019358909 0.0020847477 -0.004945866 4.7015537e-06 -0.0019341344 -0.005604086 0.0017573121 -0.0029206853 -0.00074532116 -0.006527449 0.00037762226 0.00045401137 0.0013291655 0.0021411544 0.0010987393 -0.0021737881 -0.00030361043 -0.00076410535 -0.0028195393 -0.00011096694 5.023529e-06 0.0057526864 -0.00519054 -0.0054841693 0.0027048017 0.0008581041 -0.0016144733 -0.0037173557 0.004659871 0.0014186654 0.0036867545 -0.0054729683 0.0027841264 0.011485404 0.006454365 0.0006708961 0.003975824 0.00071656023 0.0030044739 -0.00054205884 -0.0041415193 0.0030912338 0.0048946687 0.002395654 0.00036381363 0.0045942687 0.0018832792 -0.0055024964 -0.004971445 0.005387022 0.001923735 0.0028521623 -0.0037605688 -0.0012296932 -0.0014719162 -0.00089431216 0.00040302973 -0.002051596 -5.3339667e-05 0.0006645978 -0.0069363583 -0.009046508 0.0023999652 0.00091515126 -0.00414801 -0.0036519202 0.00093098433 0.005013402 0.0030774255 -0.008233188 0.006554238 0.00073722145 0.0015019516 -0.0010211455 -0.00064145756 8.706705e-05 -0.0032813884 -0.0010241461 -0.00039409194 -0.0016502193 6.476182e-05 0.0031531034 -0.0023965368 0.007059317 0.004856746 -0.0032228353 0.0012131386 -0.0019589106 -0.0015341329 0.00078286073 0.0004304266 0.000294023 0.0033824944 0.0057019778 -0.00040337187 -0.0023469077 -0.0053193085 0.0041385065 0.0011051694 -0.0002736112 -0.0016176226 0.0046937526 0.0027863295 -0.003619349 0.0040595443 -0.004351174 -0.002335141 -0.0019306148 -0.0031869207 0.0026001749 -0.0043757777 -0.0050003547 0.0021256267 0.0007280443 -0.007043796 0.0016095854 0.00037883053 0.0020528305 -0.0034752956 0.0013392008 0.0043141977 -0.0014917318 -0.00029812218 0.00021812625 0.0014048422 -0.0029318696 -0.0030647893 -0.0021004209 -0.0052071754 -0.003918867 0.0005189522 0.0073240004 0.00078224123 0.000399153 -0.010153083 0.004176684 -0.00048725485 0.0011676743 0.0012192852 0.002575713 -0.0030752057 -0.0011033155 -0.00042860542 -0.001796418 -0.0020648858 -0.0021135295 -0.001390055 0.002464292 0.004245049 -0.0011333391 -0.0039170287 -0.0034711626 1.2518567e-05 -0.004910657 -0.0062380703 0.00027269442 0.0019327942 -0.0010388384 0.0070428657 -0.005003154 0.0016577401 1.1498626e-05 -0.0034990464 0.0022370552 -0.004570232 -0.00091145764 0.0015568939 0.007041927 0.0027745857 0.0028958947 0.0017057158 0.0012634585 -0.0003935924 0.003283173 -0.0003170787 0.006019792 -0.0051649017 -0.004760713 0.005906956 -0.0016509091 0.0014123158 -0.0011570062 -0.0010225341 0.0028095413 9.4993506e-05 0.00013202532 -0.00040274023 0.005192093 -0.0033954596 -0.00084084924 -0.0050450484 0.0035477385 0.0044002878 0.0059053707 0.0002959925 -0.004641843 0.0006749052 0.00042875233 -0.002850243 -0.0036189365 -0.0023870172 -0.0027274813 0.002948166 8.569427e-05 -0.003037898 0.0014523568 0.0048620286 0.00082787464 -0.0012504363 -0.001616474 -0.0023715214 -0.00025008095 0.005001837 0.00039795082 -0.0014259989 0.004223645 0.00034119608 -0.0030971111 -0.001118891 0.0067691905 -0.002201678 -0.0026005683 0.0020962676 0.009117906 -0.0024028907 0.0025335946 -0.0045053824 0.0016731576 0.007055029 -0.0034059815 0.00053061586 -0.0016748493 0.0010778495 -0.0025312956 -0.002378324 0.00038412394 -0.0021931375 -0.0003788426 -0.0031470754 0.0038481143 0.006314243 -0.0049609276 0.0013486578 0.0017399888 7.722522e-05 0.0013348848 0.0033161533 0.0033850637 0.0032911238 0.005812122 -0.0053000217 0.0015263163 0.0019571085 -0.0018604287 0.0033085395 0.0011160949 -8.8010296e-05 -0.0005757985 8.3619685e-05 0.00040935635 0.0046146084 -0.00069461024 0.006212581 -0.00054754846 -0.0019023458 0.001513517 -0.00047518333 0.00286483
赞赞赞 0.0006771581 0.0017505131 0.0013548561 -0.0006578355 -0.00070941506 -0.0011971227 -0.0010270996 -0.0017285799 -0.0026590643 -0.0015747556 -0.000292928 -0.0010450431 -7.9080586e-05 -0.0019371967 -0.0002932851 0.002009284 -0.00059880357 0.00057964085 -0.0005212184 -0.0006360692 0.0002760176 0.00079168443 -0.00044250075 0.00022908037 0.00067954813 -0.0015177472 -0.0015994009 -0.0014683316 0.00036333528 0.002070185 -0.00089414464 -0.0015037875 0.0005709045 0.0019007953 -0.0029242632 0.0007699406 -6.861717e-05 -0.00065709185 -0.0008146251 -0.00087981654 -0.00033093756 -0.00025029812 0.000106105086 0.0002643159 0.0011977395 0.0001005759 0.00034825702 0.0011795108 -0.0020449334 -0.00010278118 -0.0018246502 0.0011054154 -0.0008730078 0.0012144207 -0.002039344 -7.135893e-05 0.0021988389 0.0006790867 0.0005553957 -0.0015564517 0.0004149022 0.00045997225 0.0017926774 -0.0006750579 0.00022363105 0.0011270487 0.003404058 -0.0005666656 0.0017370243 -0.00092283584 -0.00065847964 0.0006964439 -0.0028646593 0.0006160914 0.0022877709 0.00060132507 -0.0011525096 0.0005427824 0.0013385463 -0.0002136918 -0.0005065857 -1.5328405e-06 0.0011639082 -0.0009428251 -0.0021849005 0.00015167824 -0.00057898805 -0.0009661722 8.4703286e-05 0.00027826763 -0.0012474053 -0.0011321901 -0.0016838746 -0.003915861 -0.0008722593 -0.0012454268 0.00078860705 -0.00032214337 0.00055050064 0.0012874291 -0.00042541002 -0.0012402113 0.00050684 0.0003924827 0.001092453 -0.0007254992 0.0013392605 -0.0009173072 -0.000534901 -0.00090184755 9.741714e-05 -0.00091912976 0.00034961276 -0.00011628512 -0.0013991777 0.0022324922 0.001794653 -0.00033746008 -0.00069871923 -0.0017958549 -0.0012508328 0.0015776125 -0.0012346318 -0.001330822 0.0017342753 -0.00034194763 -0.0010158467 -0.001179803 -0.001809901 0.002395127 0.0009839376 -0.0011095635 -0.0010356938 0.0023529772 0.0020013035 0.00041524958 0.00061228627 -0.0022663253 -0.0019926492 -0.0011680487 -0.0005027802 -0.0007679918 -0.00203605 -0.0019124362 -1.7459226e-05 -0.0003088933 -0.003067603 0.0018738495 0.0014879046 0.0021109646 0.00019721448 0.00039956192 0.0015546598 -0.0018347222 6.191418e-05 -0.0008496645 -0.00030385517 -0.0010117848 0.00078167 0.0006814296 -0.0012791893 -0.0015059875 -0.000988624 0.0027478922 0.00049721735 -0.0015991775 -0.0018513238 0.0010406353 -0.0010364609 0.00038953277 0.00038229438 0.0020000911 -0.0026350268 0.0010466238 -0.0005527676 -0.00046996676 -0.0016820963 0.00056248874 -6.46515e-05 -0.0002529976 0.0013488949 0.0013155127 -0.0016207694 -0.00056930707 0.0008492727 9.2486924e-05 -0.00070231984 -0.0015001512 0.00077057426 -0.00019873974 0.0012932096 -0.00059330644 0.00017403475 0.0017069026 -0.0020292685 -0.00035844636 0.00069437193 0.0011704502 -0.0005494557 0.0013245298 0.002043054 0.00046826777 0.00023513459 0.00037159774 0.0005433019 -0.0001734856 -0.0008251446 0.0008645956 0.00033810423 -7.08639e-06 0.002613265 0.0007213536 -0.00028752847 -0.0018154889 -0.00046217287 0.0017084708 0.0012958413 4.1571147e-05 0.00067651126 0.0020425257 -0.00208209 0.0007675729 -0.0015364091 0.0017042173 1.7095452e-05 0.0006577544 0.0016015519 2.8943468e-05 0.0007513512 0.00048584212 -0.0008005097 -0.0017534394 0.00024989524 -0.0019611584 -0.00055406644 -0.0013744766 -0.0018903321 0.0004916467 0.0011047487 0.0015938274 0.000794507 2.0195304e-05 0.00054643524 -0.0010806598 0.0020698814 -0.00079004915 0.00056020595 -0.00044834657 -0.0015785509 -0.0016299709 0.00075005565 0.003235266 -0.0023169501 0.0003528964 0.0014417026 0.003963149 -0.00067482475 -0.00022789619 0.0005075731 0.0004056703 0.00268227 0.00015586191 -0.0014171351 -0.00028604124 -8.68397e-05 0.0008040317 0.0012649136 -0.0007723415 -0.0009233993 -0.0015253513 0.00046016683 8.149113e-05 0.0029427032 -0.0014353346 -2.0896121e-05 0.00045539322 -2.0541274e-05 3.186214e-05 0.0012916002 0.00035300961 0.0014786194 0.0020496645 -0.00074683496 0.000494372 0.0015930083 0.00016115504 -1.24981325e-05 -0.0007262955 -0.00083518215 -0.00094313803 0.0008107836 0.0017266666 0.00034718713 0.0006956717 -8.136264e-05 0.0014514483 -0.00036323242 0.0006571688 -0.0014015946 0.001714064
加油 0.0011567749 0.0008197456 0.0019054841 0.0022291634 -0.00083558634 0.00068262685 -0.001089938 0.00011811001 -0.0032110617 -0.0019520917 -0.0013879292 -0.0025347401 0.0013231714 -0.0011421063 -0.0017613715 0.0030975349 -0.0005006838 0.0017295047 0.00083395257 -0.0022587406 0.0008471431 0.0016347367 -0.0005232338 7.623544e-05 5.116826e-05 -0.0007285657 0.00038410758 -0.001791638 -0.0004356735 0.0013911428 0.00073691545 -0.00015011232 0.00011211372 6.161278e-05 -0.001536652 0.0005173261 2.033513e-05 -0.0012751844 0.00062862487 -0.00045145056 0.0011326639 -0.003571041 -0.00066386326 -0.0008490511 0.0016285615 0.0019127124 0.0012005427 0.0003328406 -0.0001259306 -0.00180823 -0.0002586351 -0.0015319438 0.0014703803 0.0019680888 -0.0004578735 -0.003026229 -5.5729042e-06 -0.0006633525 -0.0013392913 0.0007964669 0.0027267805 -0.0005261629 0.0019605234 -0.002306667 0.0010558825 0.004541337 0.002713051 0.0016871918 0.0019315177 0.0018801008 0.00073567254 -0.00040386507 -0.0014598502 0.00083818403 0.0005012219 0.0019301978 0.0013660081 0.0013001608 6.646439e-06 -0.0029712939 -0.00038826707 0.0028740119 0.0013520841 -0.00040776393 6.1635306e-05 0.00026407748 -0.0014000079 0.0009498926 0.0010339835 -0.00066833466 0.0005057919 0.0017740363 -0.0015853649 -0.0021261335 -0.00015065195 0.0007250179 0.00027613743 -0.0022741202 0.0007285524 0.002560533 0.0021436934 -0.0041771648 0.0011960831 5.9352165e-05 0.0014401795 -0.0010999884 -2.4571536e-05 -0.0014156474 -0.0016739571 -0.0005405952 -0.0008294046 -0.0012577154 0.0012086001 0.00088849076 -0.00015555532 0.0030619635 5.2850755e-05 -0.0009085101 0.0005651818 -0.0022464183 0.00067902845 0.000706757 -0.0006415607 0.0009829509 0.0009627039 0.0010277937 0.001322116 -0.001325137 -0.0024960842 0.0013646173 -0.00018004476 -0.0012767467 0.00020560161 0.00214816 0.0014609104 -0.0027441818 0.0019876084 -0.0030040992 -0.0004540487 -0.0003794669 -0.0022359786 0.0019342725 -0.0020214254 -0.0017184587 0.00097123435 -0.00027831164 -0.003961586 0.0015832968 -0.0005238981 0.00036279394 -0.001114484 -4.7834477e-05 0.001104723 -0.0019437262 0.0011462879 -0.0006677979 -0.001312347 -0.0014062903 0.00013659267 -4.873756e-05 -0.0027005163 -0.002798865 0.0006103369 0.0010463881 -0.0003209417 0.0009420352 -0.0049782027 0.0015670185 -0.0012701802 0.00038654727 0.0011572466 0.0022578917 -0.0029553352 0.0008414795 -0.0013527502 -0.0012749394 -0.0018954693 0.00055069814 0.0011306616 -0.000511644 0.0008280216 -0.0009723773 0.0005341619 -0.0022101502 0.0015666444 -0.0026395814 -0.0032738054 -0.0015389231 0.00088682503 -0.0017632954 0.0010233624 -0.0012063844 0.0010354002 -0.0005420273 -0.0024197944 -0.0009725359 -0.0009141606 0.00076426344 0.0012411177 0.0015011104 0.0025245848 0.00073821686 0.00012780988 0.00020349649 0.0011577648 -0.00011660296 -0.0017492557 0.0006436325 -0.002914962 -0.0011375088 0.0010645053 -0.0009849404 -0.001014681 0.0006651678 -0.000460256 0.00047030297 -0.00070528407 -0.00060583116 -0.00036881168 -7.164789e-05 -0.0023506389 -0.0007216456 -0.0006618187 -0.0004667186 0.0033481729 0.0008695399 0.0012596907 -0.0006443702 0.0001991628 -0.0017779721 -0.0003827513 -0.0009346337 0.0006296192 -0.0005859723 0.0022238952 0.0009939614 -0.0021454527 0.0013648667 0.00041734157 0.0018029227 -0.00062933186 -0.002004876 -0.00059408013 0.00088361284 0.0039368314 0.000274421 0.0014915948 0.0015441595 -0.00054349867 -0.00090533827 -0.001977469 0.0021444499 -0.0019371402 -0.0005231901 -0.00058249803 0.0034973298 -0.0025599187 -0.0009827048 0.00016544174 0.00012342683 0.0029940102 -0.002012489 -0.0012372877 0.000504859 0.002310477 -0.0010908135 -0.00022043017 0.0006322666 -0.0020436896 -0.00020141732 -0.0005403252 0.0025582234 0.0017100174 -0.0012114786 0.0019875919 -0.00012547094 -0.0006704457 -0.00051145296 0.00019325022 0.0013599982 0.002143516 0.0029831596 -0.002313995 0.0009980687 0.00039778158 -0.0021489845 -0.00013333556 -0.0009365887 -0.0008892388 -0.00088883954 0.0016052583 0.0016265408 -4.6080426e-05 -0.00070176244 0.0006423036 0.00090842 -0.0019755694 0.00085904676 0.00073689845 0.0012363738
中国 0.0002168973 0.0015804624 0.0018232209 -0.00042171802 0.00060083694 0.0012816619 -0.0005846451 -0.0030825336 -0.00040257862 -0.0030592973 0.0009417918 -0.0033538963 -0.00013576803 0.0006478414 -0.0036469891 0.0010040472 0.0010761493 0.0018212337 0.00023343804 -0.0013344963 -0.0019896373 0.00020782453 -0.0014991299 -0.0013058723 0.00063229236 -0.001790085 -9.063911e-05 -0.0018392977 0.002457423 0.0014268532 -0.0014648882 0.0002514889 0.0016949855 -0.00046015784 -0.00056292885 0.0019575492 -0.0018066976 -0.002489507 0.00095592265 -0.002523427 -0.0017916582 -0.003424896 -0.0017885925 0.00019618902 0.00049836375 9.957049e-05 0.00092545146 -0.0011172217 8.541166e-05 0.0008609749 -0.0008083068 -0.0007472004 -0.0011227157 0.0024393562 -0.0031403396 -0.0022498893 0.00094083534 -0.00145798 6.457076e-06 0.00047748364 0.0036330852 0.0010410455 0.0023673715 -0.0031738593 -0.0009608096 0.0063064774 0.0048869667 0.00161193 0.0016050701 0.0018654406 0.0021271193 0.0010882232 -0.0013909898 0.00012135907 0.002189335 0.0006692943 -0.0005616061 0.0035387317 -0.0012456073 -0.0026749833 -0.0013029536 0.0035341657 0.0022345737 0.0017224866 7.738215e-05 0.00095446664 -0.0015354378 -0.0009945465 0.00077933323 -0.0020624904 -0.0016045781 0.00069619593 -0.0030814887 -0.0044157794 1.4535201e-05 0.0016104452 -0.0020090542 -0.0015222684 0.0016390044 6.544836e-05 0.0010895876 -0.0039915848 0.0039284825 0.0008248176 0.0014454599 -0.0018920731 -0.00091916247 -0.00077991834 -0.0028267687 -0.00083543855 -0.0011938852 0.0013064924 0.00035513545 0.0026491513 -0.0008104631 0.0031974332 0.0031742733 -4.24054e-05 -6.3981184e-05 -0.0024899673 0.00084011885 0.0010992984 0.0015720713 0.0012774981 0.00090380904 0.0030198065 -9.015114e-05 0.0001147689 -0.001492101 0.0019319111 -0.0009531499 -0.0014615805 0.0001414843 0.0020953268 -0.00018162295 -0.0014887808 0.0025217957 -0.0034736786 -0.002231747 -0.0018547389 -0.00075079256 0.0030641223 -0.0014435188 -0.0035144305 0.0018866758 -0.000857027 -0.0038760365 6.557408e-05 0.0010277746 0.0028587175 -0.0020403767 -0.0009078933 0.00085453846 0.00031918642 -0.00068028097 -0.00068308215 -0.00044735408 -0.0015440255 -0.00029580615 -0.001279129 -0.0029826409 -0.0009105225 0.0012274007 0.001995861 0.0022403025 0.0006241009 -0.0049488945 0.0011503103 -0.0012090851 0.00023204097 -0.00064914656 0.002505359 -0.0011592018 -0.00031775876 -0.0003118049 -0.0008931742 -0.00038056134 -0.001835675 -0.00057474786 -0.0007895257 0.0002522069 0.0014683947 -0.002074652 -0.0008485882 -0.00041141012 -0.0021843286 -0.0010083406 0.0008848536 0.0010197235 0.00025745164 0.002789723 -0.0024354928 0.0014568225 -0.00037278744 -0.0010374541 -0.0010979448 -0.0030356883 0.0008301219 -0.00034033813 0.0038347081 0.00281796 0.0027399582 -0.0011160595 0.0027939517 0.0009092907 0.002209222 -0.00086380745 0.0034890422 -0.0026479845 -0.00096505083 0.0020444877 -0.0024768028 -0.00048155192 -0.00055625266 -0.0008149037 -0.0010899729 0.00052769703 0.0016083842 0.00097549666 0.0017187648 -0.00314607 -0.0021353585 -0.0017052767 0.0026540875 0.0027630737 0.002561772 -6.215393e-05 -0.0012189585 -0.0010956177 -0.0013800294 -0.001782499 -0.0021402969 -0.00082932913 -0.0010965599 0.0018778022 0.0010025125 -0.00017429922 0.0001426579 0.0016692603 -0.0011188937 -0.0010008367 -0.002440442 -0.0015482453 0.0010781473 0.0036496748 0.0005845839 0.00088859675 -0.00016037279 0.00071352 -0.00053703075 0.00036783592 0.005083564 0.00014701394 -0.0029317946 0.0018000226 0.0037227473 -0.001547804 -7.737626e-05 -0.003045347 0.0009198822 0.00409709 -4.9366412e-05 0.0016883716 -0.0022180288 -0.00062419724 -0.0004503095 -0.00072739815 0.00078458415 -0.0015993014 -0.0022251054 -0.002687254 0.0019509004 0.0042248173 -0.0022652522 0.0011126286 0.0013796623 -0.0007257671 -0.0012324761 -5.7227473e-05 0.00041895083 0.0024364956 0.002953053 -0.0020465243 -0.00058531103 -0.00038452772 -0.0015091365 -0.00048042284 0.0013869932 2.1200154e-05 -0.0007897122 0.0008149704 0.0007385749 0.0017234917 0.0007521282 0.0029224844 5.9464342e-05 -0.0025393171 0.00097394036 0.00083905965 0.00030705452
玫瑰 -0.0017703306 0.0047031515 0.001931327 0.0030834088 0.00095745636 -0.00041137775 -0.0008765341 -0.001514414 -0.003367559 -0.0074429056 -0.0011871022 -0.001320788 0.0003865856 -0.0025500355 -0.00469144 0.0022013749 0.0032194403 0.00059833 -0.00027398166 -0.0019351643 -0.002614324 -0.00012617008 0.0007592579 -6.0330975e-05 -0.00080849393 -0.0007679674 -0.0013287811 -0.0044596395 0.0032833314 0.003887276 -0.001619503 0.00017030297 0.0013235055 0.0029942798 -0.0051351157 0.00070620154 -0.0019745987 -0.0044673625 0.0023065885 -0.0040968973 0.0011069399 -0.00568834 -0.0001306906 -0.0005026558 -0.0005745916 0.0029918763 0.00296225 -0.002633286 -0.002700802 -0.0011769721 -0.0041279257 0.0007501252 0.0019025202 0.0040758573 -0.0016990963 -0.002548041 0.0034606026 0.0016521596 -0.0036600023 -0.0026080995 0.0030650417 -0.00014727126 0.004892384 -0.0021455123 0.003032154 0.009171845 0.0065214294 0.003325476 0.0030856198 0.00055922236 -0.0005045476 0.0010627176 -0.005322782 0.0019724222 0.004348925 0.0024800866 -0.00018966637 0.0046750926 0.0014200908 -0.0022633632 -0.0027014744 0.0016176186 0.0011934646 0.0007102635 -0.0036325115 -0.0012796677 0.0017576065 0.0003280811 0.0004615576 -0.0032642502 -0.000706331 0.00037397334 -0.0042957915 -0.0069757532 0.00024193595 0.0026370771 -0.0034793064 -0.0043003145 0.00095535023 0.0022973062 0.0015600123 -0.0067229895 0.004795135 0.00030722687 -0.00083130074 0.001075641 0.0013512679 0.002362141 -0.00087990693 -0.0039499416 0.0012994852 -0.0019022359 0.0013031525 0.002774974 -0.001357373 0.005631945 0.001686907 -0.0022975542 -9.907942e-05 -0.003261815 -0.000642928 -0.00014280526 0.0022955309 -0.0015536323 0.0035829125 0.0037092126 -0.00082669966 -0.00029548656 -0.0053450936 0.0043757316 -0.00015022603 0.0005077075 0.00052374223 0.0025807093 0.0026803734 -0.0025000195 0.0035743094 -0.004262508 -0.00029577754 -0.0010260058 -0.0014364817 0.0035145099 -0.004213873 -0.004255245 0.0008023396 0.0005271711 -0.00591196 0.0031663605 9.421765e-05 0.0024757255 -0.0020749439 0.00021859643 0.002125595 -0.0021682372 1.1778829e-05 0.0009209154 -0.0018915422 -0.0026828602 -0.0024548636 -0.00092584227 -0.001966749 -0.003146905 0.00042561 0.0041129235 0.00331865 0.0008502177 -0.007643069 0.0034068346 -0.0012523107 -0.00084370765 0.0026761186 0.004178553 -0.001481225 -6.285609e-05 -0.0027578168 -0.0021134473 0.0009840961 -0.0009803161 0.00012835796 0.00038806314 0.0025300048 0.00059092103 -0.0015555139 -0.0015052344 -1.6157419e-06 -0.001989121 -0.0045479294 0.0008924312 0.000635761 -0.0010527597 0.0035370262 -0.0021876611 -0.00036955235 -0.00051720126 -0.0020782417 0.0010350177 -0.0037142602 -0.0028221023 -0.00049155304 0.005451685 0.004972627 0.0020706884 0.0016506702 0.0010016023 -0.0023048224 0.002601042 -0.0015029309 0.0015736881 -0.002316056 -0.003212934 0.001684719 -0.0015404883 0.0014880548 -0.0029064831 -0.00020271601 0.0020627007 0.001306736 0.00188592 -0.00030475677 0.004767731 -0.0016927276 9.2607545e-05 -0.0025031844 0.0013037443 0.0040307543 0.0038473022 0.0008824584 -0.001675724 0.0015469899 -0.0011588555 4.6816174e-05 -0.0036844276 -0.001199107 -0.003381149 0.002437606 -0.0003836353 -0.0018549864 0.00060296373 0.0038796961 0.0019880403 -0.0010018542 -0.0017256018 -0.002883504 0.00040424033 0.0034809106 -0.0018694573 0.001573942 0.0016665525 -0.0011926743 -0.0009876727 -0.0024475001 0.00791209 -0.0021638558 -0.004131504 0.0016108573 0.008098962 -0.0044698496 0.0004453356 -0.0009920432 -0.00018113962 0.006402788 -0.003365961 0.0016440838 -0.0035447958 0.0020349522 -0.0037940876 -0.0027978206 0.0022352503 -0.0034492523 -0.00032081042 -0.0041001174 0.00254398 0.005589789 -0.0048113195 -0.00044024357 0.00017039748 -0.0021492993 0.0016799208 0.0027368553 0.0029952317 0.004370808 0.004811182 -0.0044076648 0.00086849235 0.0003421365 -3.0382656e-05 0.00035916732 0.0020019754 0.0013203374 -0.00015169276 0.0026017714 0.0017831688 0.004994659 -0.001110889 0.005006049 0.0015229328 -0.0011010501 -0.0012441559 2.2578428e-05 0.0024827465
感谢 0.00084478426 0.0027522405 0.0022500637 0.0021522145 0.0008515886 0.00070510374 -0.0023388849 -0.0020616448 -0.0037730662 -0.002577071 -0.0010201122 -0.0037002913 0.0016895891 -0.0016270073 -0.0030707372 0.002357329 0.0026015656 -0.00045594166 -0.0003207877 0.00042875545 0.0005942366 0.0007065368 0.0014820177 -0.0013451361 -0.0007141194 -0.0012168352 -0.0017681438 -0.0035633757 0.0016105885 0.005204202 -0.0013656348 0.00034635904 0.0027482156 0.0020547055 -0.0026209685 0.0018795059 -0.0028574413 -0.0012939464 0.0010342769 -0.00192051 0.00053084345 -0.0014191298 0.00095762283 -0.0007214447 0.00063217065 0.0012111156 0.00017864 -0.0015045853 -0.00062602037 -0.001213054 -0.0025280204 -0.000106120635 5.855336e-05 0.0028824245 -0.0011019536 -0.0008446805 0.0017618835 -0.00024556989 0.00030201694 0.00054276764 0.0037937006 0.0007064362 0.0040187677 -0.0022067337 0.0013335057 0.0062185526 0.0041111098 0.0018067611 0.0015586606 0.001975058 0.0002458379 0.00095625344 -0.0020661359 0.0007499223 0.0009615854 0.001362331 0.00032377327 0.003262803 -0.00048356949 -0.003823579 -0.003269123 0.0037362268 0.0025182748 -0.00021721113 -0.0019630948 -0.00010386059 0.0014768364 0.0003515943 0.00063710526 -0.00087886833 -0.0015968006 0.000960407 -0.0039961315 -0.005552741 0.0023566529 0.0024889275 -0.0020245358 -0.0026516363 0.00078958424 0.0028337452 0.0011503412 -0.0037184062 0.0011929009 5.9615282e-05 0.0014827619 -0.0010906466 -0.0008113792 0.0005517283 -0.0027682886 -0.00061004364 0.0019726092 -0.0018623648 -0.0016074799 0.0021042435 -0.0001238757 0.0035679848 0.0036010144 -0.0019467637 -0.0008595359 -0.0021026 -0.002201153 0.001076468 -0.0012805321 0.00077783654 0.0036161086 0.003372718 0.00034003993 -0.0013309674 -0.001768429 0.0033582188 -0.0009412019 -0.0018761228 -0.0007841958 0.001327262 0.00054618024 -0.0017132661 0.0031151825 -0.0036831305 0.00054571737 -0.0016623958 0.00024323643 0.0024728205 -0.0024553782 -0.0034704197 -0.00020197143 -0.00030000412 -0.0017064514 0.001361092 0.0009306073 0.0016570247 -0.0026185496 7.3701456e-05 0.0023008734 0.00022242959 -0.00014174539 0.0006635113 -0.0017418852 -0.0013074277 -0.0010749218 -0.0015302042 -0.0007151553 -0.0039862674 -0.0002542721 0.00468339 0.0027459948 0.001079689 -0.0051781475 0.004211608 -0.00016165047 -0.00023101225 0.0016413347 0.0021409763 -0.0004296832 0.0017097949 -0.0016434321 -0.0004502836 -0.00094825396 -0.00039733105 0.0011638578 0.0019615162 0.0035353813 0.00011025354 -0.0014708178 0.00024632868 0.0018491052 -0.0023655477 -0.0025562153 0.0012461386 0.0021588702 -0.0013100221 0.0039340137 -0.0032227305 0.0008590508 0.00039376254 -0.0013787573 0.0008989475 -0.0027473713 -0.00035230574 0.0015557752 0.003493457 0.0016232866 0.002916707 0.0019957277 0.0028139632 -0.00075581286 0.0028455637 -0.00016599377 0.000986084 -0.0010214817 -0.0031385447 0.0015992608 -0.002902416 0.0009249842 -0.0018818068 -0.0028652826 0.0016499413 8.1494065e-05 -0.00013593174 0.0002671084 0.0018068975 -0.0037592752 0.0009689234 -0.0013250017 -0.00014250065 0.0040426436 0.0027436225 0.0015905203 -0.0029485172 -0.0006254675 0.0009723033 0.00047586148 -9.103213e-05 0.00020801285 -0.0014609934 0.0015032233 -0.0009861656 -0.0025284705 -0.0012504812 0.0006851542 0.00012333733 -0.0016462028 -0.0007268426 -0.0028918916 -0.0002728657 0.003578342 -0.000565055 3.5377696e-05 -0.0002573365 0.0009585449 -0.00042976724 -0.0022981728 0.005643599 -0.002122624 -0.0029614998 0.0021517847 0.004959876 -0.0010355528 0.00093035016 -0.0011637288 0.0022717293 0.0019046237 -0.0022534542 0.0011977296 3.2718883e-05 0.0025888344 -0.0032978873 0.0010042236 0.00092960603 -0.0025090068 -0.0012747332 -0.002146303 0.002500894 0.002641263 -0.0030310827 -0.0005062658 0.00048395965 -0.001521035 -0.0010495249 0.0020224096 0.0027098414 0.0033864821 0.0035743725 -0.0041006845 0.0015074153 -5.9266466e-05 0.00014371192 2.602356e-05 -0.0003335789 0.001195485 -0.0016364015 -0.0008947258 0.0008550621 0.0008024777 0.00033102446 0.0038645172 0.0012549193 -0.0018752611 -0.00011976033 0.0018144699 0.0020158403
武汉 0.00069131196 0.0012338529 0.00034126858 0.002539002 -0.00026371778 -0.0015520499 -0.0004898292 4.6253248e-05 -0.0009912428 -0.003406619 0.00018709485 -0.001179296 -0.0007234869 -0.001265512 -0.0016343773 0.0031317144 0.0025921706 0.0019005241 0.00024312048 -0.0022514446 0.00030195055 3.2693693e-05 0.00012982733 0.0004716072 0.00094990304 0.00017522216 -0.0011953684 -0.0011358416 0.0011213294 0.0040368936 -0.00066802144 -0.00025138355 0.00027901272 0.0022845431 -0.0034279965 0.0006343697 -0.001182683 -0.0030646184 0.0005530939 -0.0019945644 -9.8754484e-05 -0.0013630731 -0.00014687578 0.001507013 0.001650304 0.00019036846 0.0022716941 0.00029672886 0.00059464155 0.0009352562 -0.0022820556 -0.00072484737 -0.00054053613 0.004027814 -0.00086378277 -0.0031157597 0.0012120669 0.000676045 -0.0015051918 -0.0021087707 0.0020888038 -0.0010676679 0.0037089572 -0.0029007464 0.0010829126 0.005565167 0.0045937686 0.0018597074 0.00040113644 8.829068e-05 0.0010443989 -0.0011484651 -0.0012206897 -0.000100753525 0.0030284391 0.0029432822 -0.0013185616 0.001173297 -0.0007027742 -0.0035435292 -0.0012547107 0.0027955337 -0.00014592383 -0.00013611252 -0.00089467556 -0.00064252946 -0.00026437032 -0.001108941 0.0011520422 -0.0008767139 -0.0012875248 0.0018124103 -0.0044589154 -0.0031792421 0.0016465284 0.0009383926 -0.0017377153 -0.0013695435 0.0012291457 0.00089061225 0.0018653615 -0.0017445553 0.0021662144 0.0008948265 0.00065352075 0.00030760947 -0.0003504198 0.0018438934 -0.0012182794 -0.0018357304 -0.00028980605 -0.0016553181 0.0007905874 0.0008358154 -0.0024146566 0.001307074 0.0025710585 -0.002596378 0.0017011673 -0.0016987632 1.4730758e-06 0.0005087048 0.0004668618 0.0013999866 0.0027897072 0.00090985914 -0.0002115449 0.00083163986 -0.0026785566 0.0007486323 0.00038269366 -0.0013858526 -0.0011164638 0.0021388342 -0.00019045098 -0.0007864517 -0.00011951433 -0.00086416444 0.00024702094 -0.0016570523 -0.0010945487 0.00019801808 -0.0029824164 -0.0013767235 -0.00048466588 0.0016661246 -0.004207554 0.0007203719 0.0013902496 -0.00012451694 -0.0014306477 0.00044498616 0.002614425 -0.0023970127 5.4172193e-05 0.00215125 0.0011670169 -0.0009837026 -0.0008768916 0.00021038887 -0.0004618637 -0.0013349544 0.000951004 0.0033116555 0.00016207814 0.0012550193 -0.0027132502 0.0028116966 -0.00061742915 -0.0011386237 0.0013091174 0.0012623592 -0.0021215503 -0.0012472798 0.00033006485 -0.0010646972 0.0011022092 -0.0004096404 -0.0019527384 0.002009209 0.0030249 -0.0007116312 -8.5100735e-05 -0.0026000158 0.0014619043 -0.0022104369 -0.0024978863 -0.000568138 -0.00032515085 -0.0014094712 0.0024916152 -0.0016645209 0.00079953735 -0.00070367014 -0.0008317044 0.0018534636 -0.0012956243 0.00090733496 0.0018963605 0.002060677 0.0035366362 -0.00034670666 0.0013771193 0.0023083035 -0.0009974599 0.002158007 0.0004906353 0.003391376 -0.0026672762 -0.0008630493 0.0028244318 -0.0010314627 -0.0013734575 -0.0010506716 -6.007579e-06 -0.0009278424 0.0017914119 -0.001177758 0.001805136 0.0012065476 -0.0024220715 -0.00068666204 -0.002756882 0.0010876117 0.002121828 0.003674147 -6.412427e-06 -0.0010026981 -0.0008230088 -0.00026602665 0.00037004479 -0.0027687568 -0.0018713799 -0.0026581553 -0.00045982905 -0.0008111068 0.00033606877 0.00073019427 0.002415175 0.0014398198 0.0010238229 3.295649e-05 -0.0012301984 -2.0059784e-05 0.0035846569 2.001744e-05 -0.0010638341 6.2979416e-05 -0.00084136927 -0.0007778453 -0.0026581907 0.0038293325 -0.0030367384 -0.0007207252 0.0010423019 0.0058844048 -0.0026994261 0.0018651054 -0.0002650828 -0.00089477486 0.001717675 0.00024002757 -0.0012820598 -0.0021931524 0.002699332 -0.0031238708 -0.00023767512 0.0023341284 -0.00089358824 -0.0020958164 -0.0020764675 6.2202744e-06 0.004375853 -0.0017267352 0.0008179775 -0.0006838012 -0.0017132151 -0.00010034429 0.003032469 0.0011659942 0.0003605108 0.0036185537 -0.0034609137 0.00041218597 -0.00036569807 -0.0021542958 0.00244139 0.0018766712 0.0011653564 -0.001085991 0.0016577389 -0.0004182696 0.0025747688 -0.00040606048 0.0012785814 0.00050500396 -0.0026447854 -0.0013166196 -0.0001407522 0.0021564648
好消息 -0.0012072647 0.002429831 0.00090246205 0.001420352 -3.2454154e-05 -0.00084808643 8.0481725e-05 -0.0022981458 -0.0014184123 -0.0022659353 -0.001021315 -0.002797334 -0.0010431325 0.0004708992 -0.0021258008 0.0012080118 -0.00087740715 0.0011449204 0.00081208954 0.0005440045 -0.00078945374 0.0010075448 -0.0004024695 -0.0011838747 0.0011650876 -0.0013749097 -0.0012796293 -0.0013881094 -0.0007855186 0.003159545 0.00041022027 0.0008922695 0.0004980167 0.001524292 -5.0726656e-05 0.00050885906 -0.0024211132 -0.0010974176 -0.00089495274 -0.00023720633 -0.0003688065 -0.002708452 0.00026088147 0.0001649582 -0.00081151014 -0.0003611829 0.00033274278 -0.0008610208 -0.0006972751 -0.00169519 -0.0021619042 0.0009497331 -0.0005108848 0.002514539 -0.00014439231 -0.0028501346 0.0012627036 0.001524065 -0.0009745612 0.00034922545 0.00088965025 -6.114039e-05 0.0018830292 -0.0023982527 0.00017493486 0.002317275 0.0010641675 0.0020855456 0.0023431499 0.0016044104 -0.00121356 0.0004441074 0.00021027723 0.0014246712 0.0009266142 0.0013053977 0.0009257441 -0.00017916482 0.00024624655 -0.00018938193 -0.0005447711 0.0018287053 0.0014626663 0.0013846607 -0.0017287848 0.00071648473 -8.4339124e-05 -0.0011859902 -0.0008798114 -0.0014476341 0.0014531533 0.0013414741 -0.00070425693 -0.003780421 0.001585433 -4.9262588e-05 0.00047462498 -0.0008419756 0.0005906422 0.0003340598 -0.00024849977 -0.0022093095 0.00075145613 -0.0011766877 -0.0005995501 0.0004367298 -0.0008727294 2.6405416e-05 -0.0010874593 0.0002638919 0.0013048424 0.000365931 -0.0008253875 0.0011068537 -0.0004106896 0.0022952328 0.0023248869 -0.0015927032 -0.0012356709 -0.0021217496 -0.00021360882 0.0014191534 -0.00034788175 0.0011845334 0.00029791222 0.0020421622 -0.00015008006 -0.00039867152 -0.001791138 0.00066060637 0.00038948274 -0.0002025486 -0.00029236817 6.483886e-05 0.0021944037 -0.0013231636 0.00010618642 -0.00041201117 -0.0016613915 0.0005391889 -0.0010968241 1.5384778e-05 -0.000511515 -0.0023900818 0.00092876045 0.00024120181 -0.002379567 0.002347132 -0.0010071206 0.0021664363 -0.0022781987 -0.00036556151 0.0015888797 2.9847564e-05 -0.0017222457 0.0012298414 -0.00065874547 -0.0021710573 -0.0005455901 -0.00013925708 -0.00048811123 -0.0027433294 0.0009712679 0.002511936 -0.00038386244 -0.00030879513 -0.0013378441 0.00016997823 0.00011721646 -1.3830676e-05 0.000804237 0.0020963424 -0.0020589528 -0.0010065407 -0.0017015792 0.00054909865 -0.0018009673 -0.001478983 0.00026417096 0.00085283385 0.0022125528 0.001541494 -0.0012956322 -0.0021665976 0.0005517139 -0.00038263478 -0.0021294123 -0.0012202263 0.0010874607 -0.00187247 0.002807379 0.00026530438 -0.0006843678 -0.0014088905 -0.0018659814 0.0012518674 -0.002611895 -0.0014726897 0.0005854082 0.0010258742 0.0021774909 0.0021978847 0.00057851156 -0.0006262546 0.0010305163 0.00022737644 -0.0019053663 0.0017950238 -0.0027358204 -0.0024865118 0.00024894194 -0.0020765155 -0.0003813049 0.0009780183 -0.0013265013 -0.0008124228 0.0006865667 0.00010008119 -0.0008042538 -0.00026980106 -6.9408954e-05 -0.0007600829 -0.0026147778 0.0017615862 0.002178435 0.0009679275 0.0009421407 -0.0026974068 -0.0014831852 -0.00043280082 0.00046262893 -0.001489664 9.9078025e-05 0.00030170902 0.0009605155 -0.000275581 0.0005179159 0.00076505606 0.0020748524 0.00076554023 -6.6889865e-05 0.000769904 -0.000997803 -0.0001207484 0.001606765 0.0015982959 0.0010549772 0.0006743691 -0.0013206414 -0.00084559224 -0.0016952251 0.002994218 -0.0010811089 -0.0015306016 0.0008043904 0.0017582284 -0.0015939089 -0.0009102005 -0.0020830494 0.00061480707 0.0022988005 0.0009817239 0.0010165999 -0.0018574516 0.0015028699 0.0001682194 -0.0017498614 0.0003878153 -0.0006095724 -0.001432371 3.8973078e-05 -0.0002288018 0.0011018026 -0.0027978679 0.0014575712 0.0005335384 -0.0009864869 -0.00045781743 0.0014771423 0.000119728546 0.0024049864 -0.00035043043 -2.709287e-05 -0.00056143553 0.0014944493 -0.0014531745 0.0020615098 0.0019029584 -0.00094486313 -0.0019409367 -0.00072693016 -0.0013227382 0.00118241 0.0012006522 0.0022548023 -0.0010670419 0.0004990122 0.0014428737 0.0012227562 0.0022665323
终于 -0.0014661642 0.0008372534 -0.00021352024 0.0018758604 -0.00064942235 -0.0011344401 -0.00085337774 -0.0006028671 -0.0015683726 -0.0048888694 -0.00016263385 -0.0036133903 0.0008450313 -0.00221601 -0.0019411653 0.0026219531 0.0020502894 0.00097324717 0.0010153318 0.0006349598 0.00055842864 0.00072820095 -0.0010360847 -0.001191107 0.0014671915 -0.0009055505 -0.0019445855 -0.0031731303 0.002168583 0.0034881227 -0.0016019291 0.0006731715 0.0012869545 0.00081810914 -0.0025600141 0.00097180996 -0.0028267032 -0.0034868172 0.0019868384 -0.00023230643 -0.00032110378 -0.00086778036 -0.0011395131 0.0012472132 -0.0010001415 0.0025466718 0.0012669442 -0.0018064978 -2.7260738e-05 -0.001773711 -0.00069196406 -0.0012652051 -0.0011283425 0.003285354 -0.0020254764 -0.0029807033 0.00020071966 -0.001077272 -0.0005336372 -0.0020518515 0.0026938336 -0.0010413439 0.0036179908 -0.0029382035 0.00053781853 0.0063409912 0.005309342 -0.0004456474 0.0008805602 -0.00045009507 0.0011941561 -0.0008977562 -0.0034199702 0.0017660488 0.0010737667 -0.00011850292 0.001451116 0.0014794176 -9.930991e-05 -0.0028789542 -0.0008151931 0.0010083757 0.002173126 0.002550327 -0.0020825549 0.00062003656 0.0010720114 0.0008172083 -0.00025886233 -0.0015296359 -0.0007695306 0.001770825 -0.0038537758 -0.0041005397 -0.00028947173 0.00034727703 -0.00043125087 -0.0011667031 0.00050450984 0.0024270767 0.000924332 -0.0043190196 0.0011497104 0.0006798645 0.0018907381 -0.0014106103 -0.00036355312 1.0350184e-05 8.997492e-05 0.0003272999 -0.00086669665 0.00018030147 0.0004482573 0.0005221459 -0.0015410898 0.0019791257 0.002584227 -0.00059434073 -0.0010743353 -0.0008763256 -0.000107658896 0.0017871935 -0.00027890893 -0.00023548491 0.0031853996 0.0036119535 8.672659e-05 -0.00080547016 -0.0041950135 0.0023711827 -0.00022690331 -0.0021057648 -0.0011550694 0.00322863 0.0007136362 -0.0028537575 0.0013011727 -0.0034414101 0.00025781806 7.1679795e-05 0.00035741538 0.0014217144 -0.0024363475 -0.0013356713 0.00091611 0.0017237143 -0.0032763511 0.0014462605 -0.00084565574 0.0016727955 -0.0008561306 0.00020759921 0.0015647013 -0.0018155798 0.00019330907 0.0016562871 0.0007584556 -0.002366365 -0.0020963484 0.0007797035 -0.00058831787 -0.0028112265 0.00070872414 0.0041214447 0.0019544945 -0.00073667825 -0.002499386 0.0032829437 0.0003089582 6.231634e-05 0.0022352207 0.0022904077 -0.0031794955 -2.1714988e-05 -0.0023600536 0.0004987935 -3.041972e-06 -0.0023319204 -0.0015346741 0.00045437197 0.0018992155 -0.00085568323 -0.001914427 -0.0020488075 0.0018321394 -0.0023286783 -0.002248826 -0.0016586198 -0.00011924107 -0.0003617538 0.004122058 -0.0014933256 0.0015663347 -0.0008803929 -0.0023035125 0.0021952502 -0.0020623016 -0.0015793638 0.000116202864 0.003101548 0.0027877733 0.0018309428 4.1871812e-05 0.0010460495 -0.001452572 0.002906102 -0.00072583294 0.0031889286 -0.002646341 -0.0026388767 0.0012830708 -0.00273886 0.00020696988 -0.0016728326 -0.0026177296 0.0012022845 0.0018331655 0.0010014278 0.0014145599 0.00044771915 -0.003432761 -0.0015599324 -0.0024558571 0.0005086266 0.0012751867 0.0010952563 0.00012146043 -0.00087281765 0.00036166463 -0.0012633201 -0.0008269856 -0.0028057839 -0.0025680456 -0.00035978988 0.00025918309 -0.0010729618 -0.0007304135 0.00091358833 0.0018746429 0.001481191 -0.0003034168 -0.0022563406 -0.002918182 -0.00018405243 0.0015106407 0.0010555523 -2.6885602e-05 0.001772214 0.00089808577 -0.00081341754 -0.0027384155 0.002436343 -0.0020569377 -0.00077962404 0.000248429 0.0053942986 -0.0026539988 -9.168968e-05 -0.00091559143 0.0015171771 0.0029021346 -0.0016368342 0.0014692637 -0.00056791666 0.0021343892 -0.002575829 -0.0007579106 0.0007576167 0.00029900784 -0.00031386138 -0.0013972257 0.0020647277 0.0032732298 -0.00336152 -0.0005992779 0.0017797718 -0.0007001692 0.0013703168 0.0022454346 0.0019267384 0.0025620435 0.0007978763 -0.003983866 0.0025213992 -0.00082860206 0.00030740956 0.0022811994 0.0019544538 0.0014615826 -0.0021711353 0.0021499924 0.0004291969 0.0023906527 -0.0016406736 0.0031142798 -0.0012952461 -0.0021271748 -0.00065013586 0.0014406863 0.0012444224
比心 -0.00017932315 0.0024233586 0.0012005415 -0.001154816 -0.0014299704 0.0013187138 -0.00033029504 -0.0018720026 -0.0023014622 -0.0011688292 0.0016448587 -0.0025528744 -0.0016613288 -0.00020515425 -0.0006372032 2.8599206e-05 -0.00060421927 0.0012751856 0.0015755857 -0.00085306587 0.0005525288 0.00040602227 0.00034045335 0.00094576704 0.00016977737 -0.00014551656 -0.0019253971 -4.824552e-05 0.00012104444 0.0011637962 7.296572e-05 -0.0021878234 0.0014405228 -7.006866e-05 -0.0018756796 0.001368915 -0.0015392727 -0.0022655686 0.00019855535 0.00065381854 -0.0007125698 -0.0015851774 0.0006575598 -0.00019890901 -3.8527992e-07 0.0012759105 0.0015679018 3.3867444e-05 -0.0017020139 -0.00072587543 -0.0016186119 0.001404899 0.0019038197 0.0005477153 -0.0015529115 -0.0009440798 0.0021538467 0.0015791055 -0.001195322 -0.001698357 0.0025720992 -0.0016801233 0.0016775245 -0.0009766562 0.0016419089 0.0040279506 0.0017723395 0.0010265701 0.0003641792 0.00015549197 -5.1958837e-06 0.00026763888 -0.00038805904 -9.731259e-05 0.00060643256 0.002035663 -0.00042595467 0.00091248646 -0.0010894698 -0.0016891264 -0.0020929768 0.0014938866 0.0022199934 -0.00023948259 -0.00078238104 0.0013230541 -0.00016117282 -0.00019183672 0.0006606402 -0.0022022363 -0.00026622327 0.001982697 0.00022499594 -0.0033365185 0.0009774038 0.0018863305 -0.0015041986 -0.0017618644 -0.00062712334 0.0010624733 -0.0006335967 -0.0027692087 0.0006318632 0.00018928044 0.0013377869 0.0006535333 -0.0014868607 -0.0014131392 -0.0006985754 6.987304e-05 -0.0012842568 -0.00028941914 -0.00016539865 0.0016952745 -0.0014035046 -3.3551525e-05 0.0014153578 7.058679e-05 -1.0269684e-05 -0.0007829711 0.0012999967 0.0016840335 0.0013727306 -0.0016892524 0.0023080423 -0.00035434397 0.0001842873 0.0003347326 -0.0015254157 0.0019395293 -0.00042666454 -0.0008117333 0.00061473646 -0.000817088 0.00041739247 -3.4547367e-05 0.00036418386 9.981463e-05 -0.0013543861 -0.0012611025 -0.0015633035 0.0009007058 -0.0014594846 -0.0016266906 0.00031368525 -0.0007056265 -7.865151e-05 0.00015384452 -0.0014971207 0.00039940068 -0.0011890848 0.0011600591 0.002424964 -0.0013337334 0.00036670594 0.0010089237 -0.0011174312 -0.0013306959 -0.001965646 0.0012708129 -0.0017270896 -0.0023226992 0.0016782531 0.0008700515 0.0021035566 0.00066281087 -0.0026175843 0.0023750733 -0.0014505141 -0.00038135232 -7.549746e-05 0.00013702747 0.00049762934 9.01377e-05 4.253737e-05 -0.0014940215 -0.0018246609 -0.002031524 -0.0011083481 0.0019640173 0.0010907749 0.0016840652 -0.0010837052 0.0003838059 -7.2395155e-06 0.00038766715 -0.0017447615 0.00015347645 5.2901167e-05 0.00096313155 0.0019481701 -0.0023005167 0.0008165139 0.0010512349 0.00012317227 -0.00016914433 -0.0012750764 0.0008179618 0.0015150292 0.00026728146 0.002063445 0.0018805154 0.0011102126 0.0022576363 -0.0015687342 0.0007241634 -0.0014852983 0.002680717 -0.0015754339 -0.0023703661 0.0022625213 -0.0017025778 0.00030060884 0.00039404663 -0.00016194639 0.00074261136 -7.308642e-05 0.0012348236 0.0007481123 0.00033811355 -0.002388767 -0.0018981994 -0.001493968 0.0005110511 0.0018875704 -0.00014407822 -0.0002442556 -0.00025981697 -0.0017496893 -7.1689195e-05 0.0008175375 -0.0013745747 -0.0016809102 -0.002078097 -0.00093880313 -0.0018850723 -0.00030184764 2.9566785e-05 0.0024182936 0.0012879357 -0.0015568716 -0.0004574542 -3.7013524e-05 -0.00025521836 0.0018814094 0.0009662246 -0.0012700808 0.0013106139 -0.0015342638 -0.00039676 -0.0019746444 0.00311363 0.00030498326 -0.0003091201 -8.9936664e-05 0.0033451598 -0.0017876838 0.0016824346 -0.0022724594 0.0016548528 0.0018791857 0.0005821074 -0.00030446547 -0.0004986837 0.00094446837 -0.0019839718 0.0005422504 -0.0001913805 -0.0014499755 0.001243874 -0.0024766305 0.00037212126 0.0008391081 0.0003987868 0.0019402291 0.00040467974 -0.0018220659 -0.0013764607 0.0024443483 -0.0008016664 -0.000677247 0.00084415526 -0.0004812457 0.0020001184 0.00062157755 -0.0015910524 -0.0007213521 -0.00032791862 -0.0008303871 -0.000597418 -0.0005552041 0.0015176024 -0.0005725105 0.0005400657 0.0011604318 -0.00029742005 -0.0014355067 -0.0010590382 -3.1352116e-05 0.0021603792
赞 0.0003536644 0.0016081778 -0.00092126284 0.00068318093 -0.00033548495 -0.0016171966 0.0008076641 -0.0023413724 -0.0017244989 -0.0032422182 -0.0003632741 -0.00097061886 0.00042302493 7.641832e-05 -0.001213501 0.002247307 6.5762564e-05 0.0018950574 -0.0005717286 -0.0019183011 -0.0011433788 0.0005056324 -9.118638e-05 0.0011722416 0.0011693522 -0.0015124603 0.0009309619 -0.0017939458 0.0018594937 0.0016239601 -0.00013928872 -0.00092328904 0.0019625435 0.0015275321 -0.001817872 -0.00011418629 -0.002223982 -0.00091980095 0.001673003 -0.0012407255 0.001512491 -0.001961422 -0.001056527 -0.00022810415 -0.0011258831 0.0005105493 5.8798345e-05 0.00017505394 -0.0002156922 -0.0013873703 -0.0016138381 -0.0008939183 0.0016592818 0.0016064361 -0.0017651782 -0.00039823868 0.00024948025 -0.0008555635 -0.0005303724 0.0005596101 0.0003996093 0.0007651219 0.0022908193 -0.00046597095 2.0965274e-05 0.0020922632 0.0024265363 5.1017192e-05 -0.00012100652 0.00081509264 0.0016814444 -0.0015591306 -0.00089362374 0.0017387626 0.000305789 4.0264964e-05 0.0014761263 0.0013873329 0.0017419322 -0.00015326886 -0.001671584 0.002395647 0.0009001593 -0.0011077402 -0.0021343818 -0.0009042995 -6.553801e-05 0.0015308077 0.0001624503 -0.0023442614 -0.001010882 -0.00091333577 -0.0017459836 -0.0025604826 -0.0009785836 0.0018151352 0.00024457232 -0.0016448364 -0.000700411 0.00043465677 0.0016023812 3.1073814e-06 0.0024763583 0.0006943372 0.0011137286 0.0012418133 0.0007208995 -0.0012535915 0.0007436294 -0.0016868183 -1.3394623e-05 -0.0017555328 -0.0004068471 0.00046193736 0.00019617398 0.0010408658 0.00096173515 -0.0014077651 0.0011954515 -0.00022745895 -0.0010308085 0.0018387288 0.0008900767 0.0011135925 0.0018022152 0.0017973866 -9.668397e-05 0.00039044456 0.00027794825 0.0022286 -0.0008585487 8.7898276e-05 0.00015548838 0.0007799759 0.00030343994 0.0007174563 0.002011782 -0.0012628693 0.0005611411 -0.0020626262 -0.00026119832 0.0012034244 0.00026153386 -0.0006772469 0.00046230538 -0.00053077424 -0.0005647156 -0.000109784145 0.00028254205 -0.00058198604 -0.0009505967 -0.00019268216 0.0023100958 -0.0019689754 -0.001255475 0.00014035068 0.0010876579 -0.0002871689 0.000108393404 -0.00096236187 -0.0024686798 0.0005751559 -9.3644005e-05 0.0028587726 -0.0010457261 -0.0013029458 -0.0022503643 0.0017529374 0.00038671994 -0.0011320666 0.00041462312 0.00048646764 0.0005475107 0.0010670366 -0.0004743221 -0.0003291558 0.001339717 0.000889552 0.0013047055 0.00035627588 -0.00010559015 0.0004862352 -0.0011977026 -0.0016191261 0.0016397509 -0.0006966286 -0.0022590498 -0.0015056918 -0.0002319292 0.000924545 0.0012460042 -0.0022874551 -0.0006064508 0.00078083965 -0.00046078904 0.0015016904 0.0004120849 0.0006686619 0.0007894933 0.0025704526 0.0002530121 0.0003243674 0.0013621781 0.0018673498 0.0010766712 -0.00027882785 0.001317399 0.0022442075 -0.00030173478 0.00024634978 -0.00014924111 -0.0007392694 -0.0014722684 0.00010518147 -0.0007034969 0.00018868121 -0.0007771186 -0.001450503 -0.00022071534 -0.00015750377 -0.00019702347 1.0788781e-06 0.00022140284 0.00052662555 0.0022244058 0.0008322242 0.0012006016 -0.0013711425 -0.00018360067 -0.00037722473 -0.00041742055 -0.00045671122 0.0008018426 0.0007427309 0.0017223099 -0.0005942936 0.00088190555 0.0010155775 0.00074488635 -0.0008338959 0.0012719102 -0.0018298215 -0.0007784154 0.00037343634 0.002679281 -0.0013025807 -0.0011592031 0.0021206941 0.001227895 -0.0009479399 -0.0021890996 0.0027302806 -0.002107878 0.00069672416 0.00087003264 0.0014149069 -0.00045315037 0.0016503021 0.0003123571 0.0017000051 0.001803629 0.00014767323 0.00030099697 0.0005037234 -0.0005582403 -0.00022144786 -0.0018149783 -0.00018172796 0.0005069344 -0.0005009501 -0.002110527 -0.00032746812 0.00069531344 -0.002784789 0.001272548 0.0004091531 -8.849399e-05 0.0003626481 0.00010966959 0.00083095225 0.0010002387 0.00021681312 6.0359253e-06 0.000110212284 -0.0013392998 -0.00015439413 -0.0008776042 -0.00067788555 9.7056574e-05 -0.0020123536 -0.0012852625 0.0016500362 0.0008413922 0.001291407 0.0018525206 0.0004807965 0.00026967312 -0.0006837518 0.0001560543 0.0004804276
一起加油 0.00035786277 0.00011689156 0.0009726595 -0.00050757173 0.0011332191 0.0013171276 0.00024384147 -0.001959721 -0.0030917325 -0.0021359334 -8.184639e-05 -0.0014724288 0.0008587204 0.00044622703 -0.0013907651 0.0011370204 0.00041900843 0.00049749686 1.8911152e-05 0.00017129714 -0.0020061063 0.00042274385 6.6085035e-05 -0.0006616495 0.0005396081 0.0011539231 0.00082560827 -0.0031247875 0.00045962085 0.00132791 0.0007391714 -0.0017847783 0.00032754085 0.00032265036 -0.00015042411 -0.00036578075 -0.0017891224 -0.0022761908 0.0007715629 -0.00028467612 -0.0018056013 -0.0005305406 -0.0003736342 0.0016396524 0.0014980455 0.0012649394 0.0006487789 0.00068085664 -0.0012525702 0.00050584733 -0.002499032 0.00042332764 -1.4861814e-05 0.002779624 -0.0020977617 -0.0011199211 -0.00068676 0.0016211598 0.000688931 0.0001535517 0.00072979723 0.0009903732 0.0022335704 -0.0011248662 6.862858e-05 0.002279964 0.00272088 0.0019073433 0.0028012574 1.8257344e-05 0.0021017485 0.00021351055 -0.0031173811 -0.00031959993 0.0017441522 -0.00034156968 0.0018065774 0.0030965435 0.0017682796 -0.0015421195 -0.0024054819 0.00057630555 -0.00037151162 -0.00087358325 -0.0014496719 -0.0005302373 0.0015766947 0.0019097648 -0.0007346349 -0.002584919 0.0016325443 0.00019166853 -0.002775163 -0.0017200857 1.3825553e-05 0.00094216975 -0.00020013051 0.0002719128 0.0015703822 -0.00022023833 0.0009459781 -0.0012616023 0.0031988109 0.00073006813 0.0012366526 0.0010780544 0.00058933545 0.0013142154 -0.0024907866 -0.002264621 0.0012695885 -0.00076226186 6.4749725e-06 -0.00067264464 0.0009709312 0.003722104 0.0021845247 0.00018314355 0.0004991344 -0.0014594141 0.0008998051 0.0017489018 -0.00055513735 0.0011182623 0.0027362523 0.0033623287 0.00044759118 4.360154e-05 -0.0004661692 0.000500178 -0.00068471784 0.00089338276 0.00039244397 -0.0003956017 0.0023401612 -0.0005080026 0.0010482966 -0.0020807204 -0.00011355344 0.00053655927 -0.0010363223 0.000876772 -0.0017329154 -0.0019238193 0.0018403621 -3.208234e-05 -0.00068792986 0.0007153851 0.0007095549 0.0020969384 -0.0009216204 -0.00086666335 0.00020088558 -0.0006130366 -0.0004353483 -3.4012046e-05 3.8410686e-05 -0.0009763566 -0.0004425878 0.0006621395 -0.0029290558 -0.00045009493 -0.00069667364 0.0029885746 0.0012347833 -0.001342388 -0.0032461756 0.0032369355 0.0008998549 0.0016096684 0.0010491407 0.0011247045 -4.9562906e-05 0.00041018563 -0.00012059899 -0.0004771715 -0.00043311444 -0.0005780516 0.001067522 -0.00020968317 0.0028870576 0.0008509559 -0.0012278182 0.00059543597 -0.0010125035 -0.0022003877 -0.0031142086 0.0011896514 8.3987165e-05 -0.0018565254 0.0014913691 -0.0010181484 -5.086762e-05 -0.0011554129 -4.1163497e-05 0.0006942126 -0.0020272143 -0.0021440845 0.0012323966 0.0033636023 0.0016733676 0.0018912861 -0.00085529545 -5.6096473e-05 -0.00072956167 0.002430949 0.0009518227 0.00010537779 -0.0025269154 -0.0029157205 0.0014370802 -0.001369649 -0.0009381562 7.024061e-05 -0.0012678615 0.00047355882 -0.0010826064 0.0011410009 -0.0014687222 0.0009219638 -0.001907266 -0.0015409985 -0.0028711623 0.0006826508 0.0009192204 -0.00014668402 -0.0011971674 -0.0012518113 0.0015614219 -0.00055053417 0.0006903267 -0.002948278 -0.0015194518 -0.002387423 2.1195183e-05 -0.0014057709 0.00087467313 0.0013530108 0.0005379405 0.0013994644 -0.00021707872 -0.0007300759 -0.0012622161 0.00029749237 0.003745777 0.0010998996 -0.0014269694 0.0012107578 -0.0014306536 -0.0005794978 0.0008015411 0.0012620665 -0.001837446 -0.0009144461 0.00072236505 0.0031319961 -0.0014773053 -9.980722e-05 -0.0015981469 -0.00038034187 0.002662467 6.4310036e-05 0.0016030264 -0.00042889456 -4.5877125e-05 -0.00021417014 -0.0017201941 0.0005763092 -0.0013820145 -0.0018696256 -0.0023879479 0.0026938943 0.0017176742 -0.00066359236 -0.00017073183 0.0012282962 -0.0010346741 0.0017868016 0.0007896693 0.0006764236 0.0016606032 0.0025214432 -0.0029666864 0.00060059 -0.00019222655 -0.0023701638 0.0005858267 -0.0007078477 0.001356892 0.0005600821 0.0008006793 -0.00041089044 0.0011536321 0.0004685612 0.0016005957 0.0012643527 -0.00047821781 -0.0003397145 6.316288e-05 0.0022484416
胜利 0.00056406925 0.00091523875 0.00084009685 -0.00096930476 0.0009399068 3.817981e-05 -0.0022965851 -0.002396228 -0.0020242485 -0.0011452258 -0.0006501407 -0.00013933839 0.00045040646 -0.00047614978 -0.00204333 0.00080009905 6.7754416e-05 0.0006703838 0.0002859229 -0.00020486787 0.0006842335 -9.824982e-06 0.0017457897 -0.00027310537 0.0016585141 0.0012424965 -0.0017784876 -0.0005581833 0.0008726226 0.0026604147 -0.0017720445 -0.000552891 -0.0007563205 -0.0004391927 -0.0024907573 0.0012544326 -0.001610668 -0.0025598896 0.0015807934 8.858701e-05 -0.00026816948 -0.00027544724 -0.0007742342 -0.00025401733 -0.00078491226 -0.00068523287 -0.0010478316 -0.00093628495 -0.0018896856 -0.0013919565 -0.00022165243 0.0005050445 -0.0008315231 0.0032550413 -0.0022829613 -0.0012622974 0.002226179 -0.0011806099 -0.0010574757 0.00049869786 0.0011080741 -0.00013011665 0.0014790125 8.9019355e-05 -0.00096548395 0.002905354 0.0036611164 -0.001019569 -0.0004894073 0.0017907072 -0.0009711726 -9.138973e-05 -0.002335752 0.0021101455 0.0009240031 -0.0001982649 0.0002844145 0.0021275617 8.9525e-05 -0.0011965274 -0.0011746247 0.000718466 0.0024212755 0.0014331562 -0.0021661238 -9.9806144e-05 0.0010269461 -3.4697176e-05 -0.00031683926 -0.0014858565 -0.0009426109 0.0006387696 -0.0014840424 -0.0027996388 0.0019009163 0.0002904254 -0.0017674409 -0.001789201 0.0012646426 0.0027476598 0.0015632889 -0.0027190677 0.0003315553 0.00013151919 -0.0006227041 -0.001366373 0.0012762143 0.00094692287 -0.0023119836 -6.103069e-06 -1.9320829e-05 0.0011290953 0.0005858717 0.0005743808 0.0010092771 0.003396282 0.0002605754 -0.00054858363 -0.0008616644 0.00042079308 0.0012470705 -0.0010238811 0.00045703334 -0.0013382774 -0.00036311243 0.0022380417 -0.00073133205 -0.0018670898 -0.003356322 0.0017508783 -0.001237883 -0.0018909669 0.00028426026 0.0017604369 -0.00047528668 -0.0020044928 -0.00070209167 -0.0028826653 0.0010252914 -0.0009911673 -0.0020197742 0.0027105922 -0.001277554 -0.0008666378 0.0008111879 0.0008539974 -0.0034888422 0.0009511054 -0.0012192171 0.0023393703 -0.0021764876 -0.00044662785 0.0017135913 -0.0005289331 0.00044483956 -0.0010558789 0.00044902985 0.00019284457 -0.0018695856 0.0010799421 -0.0023168665 -0.002095976 0.00081677095 0.0016699701 0.001888228 -7.088591e-06 -0.003613415 0.002824285 -0.00055305514 0.0009374385 0.0004137949 0.0025490157 -0.0029022102 2.2042497e-05 -0.0016943937 -0.00074534473 -0.0009953021 -0.00013353277 -0.0019174411 -0.00048793884 0.0021689385 0.0004383654 -0.0011792476 -0.0020007566 -0.00045263921 -0.001079476 -0.0014329888 0.0013969743 0.0016851791 0.0009017839 0.0022289886 -0.0005459107 0.00029499902 0.0009672411 -0.0013490191 0.00080356654 -0.00041887813 -0.0011555857 0.0013624759 0.0021818073 0.0013750395 9.067404e-05 -0.0012877997 0.001334671 -0.0015121399 0.0025246637 0.0002837469 0.002490643 -0.0026707158 -0.002265436 0.0015412117 0.0007370356 0.00026324578 -0.0005152495 -0.001487863 0.0009035386 0.0017428602 0.0017540233 -0.00053569395 0.002461781 -0.0019871627 0.0012949094 -0.00096868206 0.0002041054 0.0033665972 0.0029527813 0.0015657432 -0.0022831722 0.0004501086 0.0007244985 0.00074565527 -0.00025310568 0.00048836035 -0.001983469 -4.203214e-05 -0.0007412905 -0.0021207763 0.00049526436 0.0023322455 0.0015432512 0.0012060748 0.0005834597 -0.0018124403 0.00039511395 0.0018044483 -0.0014340982 -0.00051682396 0.00078473554 -0.0018587419 0.00047984702 -0.000982793 0.0031578944 -0.0020481662 -0.0011154934 5.132414e-05 0.0031936762 0.0004341648 -0.0007360901 0.00028448843 -0.00056808774 0.0030955044 0.0002600761 0.0013015664 0.0004200975 -0.00010816096 0.00056810933 0.0007326367 0.0014091505 -0.0019829818 -0.00026930406 -0.0020821379 0.0023706914 0.001649602 -0.0030319253 0.0018039041 -0.00092332816 -0.001957851 0.0014201752 0.0012915465 0.0020410435 0.0013356981 0.0015860968 -0.0030765533 0.0006620607 0.00014661861 -0.00096617197 0.0019800144 -0.000334571 -5.3442203e-05 -0.00024240273 0.00018771453 -0.0005690119 0.0026337418 -0.0010815121 0.0027677289 -0.0010789345 -0.0011209995 0.0011410709 0.00061759393 0.0020271074
我 -0.0015252067 0.00080087304 0.0013365465 0.0025668945 0.0005900646 0.0008310222 -3.906755e-05 -0.0010176282 -0.002952477 -0.005324425 0.0014321229 -0.0037493152 0.0011385329 -0.00019671419 -0.0021643944 0.0029175177 0.0025195046 0.0019353945 0.0008546989 -0.0015528845 -0.0022359018 4.339247e-07 -0.00041268277 0.0009956452 0.00012987471 0.00032555175 -0.0019574317 -0.0009968732 -1.1958897e-05 0.0045847883 -0.0012371455 -0.0014613648 0.00016572824 0.0018630248 -0.0041008433 0.0006855081 -0.0032506804 -0.003357497 0.0011377991 -0.00078555214 -0.0009223143 -0.002955054 -0.0014316093 -0.0006762212 0.0019675659 0.001026025 1.9782374e-05 -0.0005076556 -0.0013447431 -0.0015720149 -0.0017529178 -0.0002551093 0.0008928805 0.0024534583 -0.002220134 -0.0018084495 0.0012082871 -0.00046730452 -0.00030953734 0.00011821299 0.0023733967 0.0016411624 0.0028981962 -0.0024134782 0.0019301005 0.007119883 0.004167848 -0.00026556643 0.0023969172 -0.00047621204 0.0018966714 0.001342239 -0.004172331 0.0009999191 0.00067152415 0.0012786482 3.5520668e-06 0.002046862 -0.0008092982 -0.0026135892 -0.0010314917 0.0015668916 0.00070051453 0.0016742613 -0.00021695487 -0.001319054 0.0015838065 0.0018127046 0.0006503086 -0.0030121813 -0.001698918 0.00058806315 -0.004396453 -0.00431761 0.0024867915 -0.00050493143 -0.0014091418 -3.067931e-05 0.002348728 0.0016566344 0.0032177442 -0.005103162 0.0027730442 -0.0008583513 0.0010213965 -0.0015933606 -0.0011582021 0.0011377768 -0.0015647153 -0.0011578077 -0.00015969796 -0.0006149013 -0.0002471709 0.0020838222 -0.0002458218 0.0037709195 0.002242103 -0.00057338516 0.00044350914 -0.0027592161 5.3070944e-05 0.00032008474 0.0006523322 -0.0010612595 0.0023758258 0.00368745 0.00025362242 -0.0010327104 -0.0025217924 0.0031413538 0.00091355667 0.00018492021 -0.0014788307 0.0033417207 0.0013374308 -0.0011909216 0.002176812 -0.002789536 -0.00052019494 -0.00023075787 -0.00090756634 0.00045409746 -0.002489735 -0.0036017448 -0.00019334302 -0.00091795647 -0.0032629957 0.0017058598 0.00095464825 0.001175537 -0.0030896284 0.0021292302 0.001860827 -0.00088857336 0.0009868854 0.0015702603 -0.0002447662 -0.002468388 -0.0017131354 -0.0001037772 -0.002338659 -0.0017635559 0.00031460787 0.0040481715 0.0024907067 -0.00034281382 -0.006315608 0.0036549738 -0.0023590035 -0.0013475392 0.0024117525 0.0009470594 -0.0029153426 0.00013255827 0.00037217574 -0.0017849708 0.0008832459 -0.001167158 0.00052223535 0.002252322 0.001002022 -0.0013261681 -0.0024904702 -0.0020432083 0.0007964984 -0.003053182 -0.0019442269 -0.001224597 0.0017811327 0.00020653465 0.0019331209 -0.0016983001 0.0018329954 0.0017263838 -0.00084280816 0.000613004 -0.0009977053 0.0002813694 0.0004507665 0.0019394064 0.0023569823 -0.00024756082 0.0013266836 0.00096218917 -0.0012689026 0.0005349168 0.00014449471 0.003205349 -0.0015674394 -0.0027234545 0.0035629892 -5.574012e-05 0.0008545122 -0.0008764958 -0.0008333881 0.001097085 -0.0012212751 0.0012847142 -0.0003469606 0.0010860323 -0.0014666709 -0.0018195786 -0.0033445163 0.0017737222 0.0024899906 0.0032940588 0.0010836374 -0.0022489075 -0.0012334423 -0.0012532242 -0.002237953 -0.0029038996 -0.0015783359 -0.00322466 0.0010042737 -0.001188482 -0.0012813515 -0.00035614584 0.0020006353 0.0013339734 -0.0011479036 0.00041873843 -0.0021759165 0.00010612049 0.0017237033 0.0013898059 -0.0017252475 0.0025120398 -0.00027394862 -0.0008526994 -0.002966918 0.0060677775 -0.0023796356 -0.0019490165 0.0012732291 0.006966036 -0.0033892477 0.0021768163 -0.0014425361 -0.0004714167 0.0029307792 -0.0004476946 0.0010565219 -0.0031583705 0.00018480093 -0.0016212473 7.997932e-05 0.0003492177 -0.0027347982 0.00025406596 -0.0023155939 0.002681133 0.0036514953 -0.0019015622 0.0008158799 -0.00018364219 -0.0007972263 -1.2467439e-05 0.002678093 0.0017422865 0.0028952926 0.00083974435 -0.0034334103 0.0010667646 0.0004739615 -0.00073485513 0.0015625543 0.001362656 -0.00046497153 -0.0007446491 0.0006852455 -0.00017589556 0.0031730384 0.00042890065 0.0023915581 0.0010774907 -0.00067266054 -0.0003837346 0.0010045659 0.0014757989
流泪 -0.0006780359 0.0036953818 0.0010145972 0.001415474 -0.00050280703 -0.0010050505 -0.00035856463 -0.00214614 -0.002467833 -0.0038139499 0.0020121268 -0.0008100051 -0.0018000539 -0.0007291865 -0.002402237 0.00084628584 0.0014859433 0.0010340072 0.0010696811 -0.001285961 -0.0007684156 0.00016109439 -0.00097242405 -0.0006186816 -0.00037081825 0.0010305914 -0.0013201085 -0.003734767 -0.00057102466 0.004513172 -0.0021806983 -3.5064706e-05 0.0011692374 -0.00041243495 -0.0021159905 0.001026149 -0.0022709384 -0.0013859485 0.0018247396 -0.00081341516 -0.0015808173 -0.0026231278 0.00080070226 0.00059154036 -0.000786309 0.0025588924 0.0024548506 -0.002001877 -0.0006888977 -0.001831736 -0.0028255011 -0.0013481101 0.0015335323 0.0028205975 -0.00081014424 -0.0027721946 -0.00020596241 -0.0017295905 -0.0019709563 0.00010606416 0.0023106837 -0.0015555412 0.003678932 -0.0020881724 0.00025861885 0.005944498 0.005402811 0.0019397915 0.0025516015 0.0022816178 -4.0110852e-05 -0.00044859547 -0.0037313555 0.002130579 -0.00014554377 0.0029495885 0.00082427624 0.0019940722 -0.00091857 -0.0025532795 -0.0029104766 0.00077682536 0.00064707646 0.002511623 -0.0025284404 -0.0012842555 0.00011026015 0.0019877192 -0.0012464107 -0.0023800384 0.00054048304 -0.00023575562 -0.0030853048 -0.0062355255 -0.0005248245 0.0007655675 -0.0025396033 -0.00054414425 0.00049818266 0.0001906602 0.0021729753 -0.0028067434 0.0033147673 4.324341e-07 0.0009789885 -0.001510011 -0.00052793 -0.0014504369 -0.0011400518 -0.000855478 0.0014452836 0.0012858834 9.1200694e-05 0.0015546791 0.00090490165 0.0037948224 0.0012440662 -0.0015753801 0.0004186611 -0.0020731378 -0.0003188117 0.0008727309 0.0014153196 0.0014518256 0.0014967014 0.00078834145 -0.00021982005 -0.00088570925 -0.0010948804 0.002606733 -0.0017799336 -0.002400393 -0.0007499282 0.0028273915 0.0010756415 -0.0020721087 0.0015817477 -0.0025555142 -0.0002696439 -0.00061173114 -0.0007218453 0.0004304421 -0.0014802599 -0.0034734278 0.0006015753 0.002065182 -0.0032159048 0.0026913208 0.001376256 0.0013867037 -0.0018513025 -0.0003310278 0.0010666954 -0.00011581974 -0.0004260002 -0.00084729976 0.0009127974 -0.001260446 -0.0011584653 -0.0013058693 -0.0014270177 -0.0006878118 -0.00072161754 0.00273455 0.0023329598 -0.0013743631 -0.0051282723 0.003642383 0.0001476122 0.0013851516 0.0017485173 0.0004783672 -0.0033913434 -0.00055403507 -0.0009402422 -0.0020601286 -0.0012784882 -0.0011905662 -8.257652e-05 0.0008248924 0.0024537775 -0.00017442215 -0.0014121879 -0.0029536756 -0.0010523618 -0.00027065963 -0.0021964088 0.0005910815 0.001998671 -0.002034862 0.003122827 -0.0030825601 0.0005659004 -0.0006734658 -0.00057430344 0.00073889893 -0.0022611045 0.0004238886 0.002009169 0.004136173 0.001023241 -0.00025101812 0.00177793 0.002500669 -0.0013875143 0.00025932252 -0.0013393325 0.0010744175 -0.0017538385 -0.0026960867 0.0019903288 -0.0013643409 -0.0009020375 -0.0015585657 -0.0025515077 0.0012249185 -0.000256705 -0.00090923446 -0.0011150008 0.0023793536 -0.0016298005 -3.7605882e-06 -0.00038868998 0.0028185868 0.0022460148 0.00032711905 0.00011208133 -0.0014517208 0.0013852073 -0.0011526843 0.0006216143 -0.0032460503 -0.00063819403 -0.002813249 -0.0008782152 -3.6381694e-05 -0.0024615712 0.0011278342 0.0014471876 0.0020564725 -0.0016919959 -0.0024745073 -5.6905894e-05 -0.0008944266 0.0039337026 -0.0007367096 -0.0014169114 0.0007014272 -9.277754e-05 0.0005757424 -0.0021513628 0.0031449366 -0.0010453868 -0.002902239 0.00063977035 0.005838403 -0.000567315 -0.0006738079 -0.0005535198 -5.2294716e-05 0.0038720372 -0.0025504767 -0.0013802535 -0.002419481 0.0023665628 -0.0021924484 0.0003471381 0.0022282205 -0.0021490797 -0.0017125851 -0.0022429463 0.0025139765 0.0019392001 -0.0019523567 -0.00088436424 -0.00012021805 -0.0022317169 0.00095051 0.0011859102 0.00045324682 0.000405293 0.0027446672 -0.0016597096 0.0027197008 -0.00052173267 -0.00075724855 0.0021415662 0.00019892264 0.0013187514 -0.00052197 0.000244766 -0.0005697843 0.003531576 -0.00040741364 0.0034921798 0.0011147871 -0.0010930717 -0.0009214972 -0.00063691527 0.0008141757
等到 -0.0011634018 0.00030213478 0.0015849106 0.0020698684 0.001343204 0.00106227 4.1886724e-06 0.00017329553 -0.0026545594 -0.004279891 9.088055e-06 -0.0025229084 -0.0016683334 -0.00042994882 -0.0032188343 0.00014362152 0.0021042072 0.00062603544 -0.0005225058 -0.0017700637 0.0003933461 -0.00096752535 0.0013064307 -0.0001568695 0.0010861773 -0.0008751139 -0.0025700799 -0.0005812458 0.0011787906 0.0031403145 0.00069349667 1.47134715e-05 -0.0004706049 0.0017509205 -0.0008091483 0.00043816565 -0.0021497132 -0.0033208677 0.0001312025 0.00026693544 -0.0011553575 -0.0023830654 -0.0009490034 0.0015202822 0.0014574443 0.00049162685 0.0020508019 -0.00072436733 -0.0012979199 -0.0005320614 -0.00068711874 0.0015247123 0.0015767368 0.0016824141 -0.0020144659 -0.0019059347 -0.00046652465 0.00085100066 -0.0001520594 -0.0006743835 0.0010101055 -0.0011049425 0.00086253905 -0.00083666894 0.0010203071 0.0034495078 0.003243249 0.0015132052 0.0030082685 0.0002738159 -0.0004504479 -0.0017109707 -0.0033303702 0.0010878263 0.002196962 0.0010896892 0.0011455625 0.0023233125 -0.00085910945 -0.00028440874 -0.00071032945 0.00052956655 -2.2239368e-05 0.0010955232 0.00066943356 -0.0019262524 1.441381e-05 0.00012810476 0.00053973094 -0.0012550864 -8.379995e-05 0.0020372977 -0.0024778778 -0.0032797619 0.00084076286 0.0008728736 -0.0018018237 -0.002733583 -0.0009575853 0.0005049637 0.0018689425 -0.0009976831 0.0017573743 0.0010962109 0.0007609143 -0.0012992589 0.0010836873 0.00033783572 -0.0016195198 -0.0007937843 0.0008729516 -0.0010161069 0.00045302042 0.0005624277 -0.0012081553 0.0006320888 0.00050749345 0.00039687334 0.0017998982 -0.0010748177 -0.00053371553 0.00040731346 -0.00069899065 0.00018652726 0.00010590769 0.0024170785 -0.0012052489 0.00039296583 -0.0025675204 0.0006846473 -0.0016686484 -4.229092e-05 0.001399868 0.0020591521 0.0021131092 0.00040177183 0.0012391699 -0.0016638595 -0.0019291465 0.0009382363 -0.0019428462 -1.6482743e-05 -6.478888e-05 -0.000108664004 0.00018517168 -0.00063899084 -0.0030449694 0.0014221349 -8.55405e-05 -0.00038199153 -0.0012814511 0.0014609871 0.00034089742 -0.0010171894 -0.00036813633 0.0002327137 0.0012308229 -0.0016473524 7.481055e-05 0.0011048289 -0.0007139406 -0.0019892047 0.0014056346 0.0019313864 -0.00050097116 -0.0013882782 -0.004386243 0.0030133345 0.0011015782 0.00150984 0.0021863047 0.0013105725 -0.0023335696 -0.0010755935 -0.0003561549 -0.0021934498 -0.00016328476 -0.00035576324 -0.0011922881 0.0014845668 0.0013390096 0.001079816 -0.0014619441 -0.0018184199 -0.0011965015 -0.0029654405 -0.0036124573 0.0008140675 0.000786119 -0.0017211788 0.003350976 -0.00022418376 -0.0009075727 7.0557675e-05 -0.0026801524 0.0016969565 -0.0003089522 -0.00038914618 -0.0010136547 0.0038516398 0.0016648707 0.0021785502 0.0008648346 0.0026331204 0.000534225 0.0011423258 -0.00027404068 0.0033751412 -0.00041934705 -0.002342068 0.0027367237 -0.0026160863 -0.0005172836 -0.0010299357 0.0006085011 0.00011748732 0.0009909517 -6.299554e-05 0.00022604708 0.0027117692 -0.0029269871 -0.0014406778 -0.0010467023 0.00124561 0.0035394044 0.00093568204 -0.0010398354 -0.0020392628 0.0005127334 0.0013725447 -0.0010518754 -0.002536126 0.00058479555 -0.0017566049 0.00048738864 -0.0003261319 -0.001770193 0.0007289674 0.00022296047 0.0006677199 0.0009486768 0.00040826088 -0.00039998125 0.0007177199 0.0020145536 0.0008102947 -0.00025461573 0.00077762414 -0.0018469116 -0.0016656785 -0.0005036127 0.004119688 -0.0023144705 -0.000589288 -0.0006842601 0.0035991736 0.00014406507 0.0015277688 -0.001021158 0.0005333025 0.0030396432 -0.0012891741 -0.00024075907 -0.0013238962 0.00017032537 -0.00095557707 -0.000981429 -0.00024026439 0.00026316973 -0.001901799 -0.0017817554 0.0015240691 0.0026077381 -0.0019337207 -0.00032355112 0.0017250465 0.00091916265 0.0005078713 0.0003653366 -0.0004988693 -5.0380033e-05 0.0019941397 -0.0009391146 -0.0005121473 0.0012167186 -0.00025367358 0.0020181425 -0.0010870129 0.0015065651 0.0006854348 0.0010749522 -0.00061640964 0.00036234717 0.0004583041 0.00086950837 0.00027057293 0.00085181196 -0.00024185106 -0.0012886478 -0.0006505214
这 0.0015807911 0.002350733 0.00014944214 0.002399335 -0.0012632536 0.00013695378 2.6160165e-05 -0.000247631 -0.000735671 -0.002984123 0.0018759989 -0.0011832974 0.0014149458 -0.00044198195 -0.0029510506 0.00029758745 0.0015369864 -0.0007743998 0.00067979103 0.00021963261 0.0003291738 -0.00074001687 0.0014741649 0.0005131243 -0.0013156774 -0.00069119723 -0.0019224928 -0.0020620828 0.0009261611 0.0028912155 -0.00024738783 -0.00030045546 0.0011658011 0.00037795503 -0.0011975185 0.0005822519 -0.0016757442 -0.0032129255 0.0023061456 -0.0010140017 -0.00050948217 -0.0025708715 -0.0016606898 -0.0013824436 -7.1891525e-05 0.002362971 0.00047158723 -0.0014730439 0.0008576868 0.0010293286 -0.0018106179 0.0013802308 0.0016492457 0.0020513143 -0.0017361544 0.000106722175 0.0011188531 -0.00058122753 -0.00027688703 -0.0011709885 0.0029506842 -0.0008013241 0.0022900132 -0.0014512577 0.000345136 0.0049176435 0.0043953564 -0.00097275886 0.00093043427 -0.0003707644 -0.0011571668 -0.0010834516 -0.001859786 0.0021985897 0.0009850188 0.0022552283 0.0003238895 0.00014392276 0.0010099874 -0.00086409395 -0.0018718806 0.0029016978 0.00029024022 -0.00038976583 0.00031712092 0.00047052652 -0.0005275385 -0.0008055274 0.0012546516 -0.001540939 -0.0004530306 0.00038986214 -0.0028413087 -0.0037070408 -0.0008652924 0.00025646345 -0.0007115453 -0.0011605234 3.946438e-05 0.002882962 0.001830025 -0.004074503 0.0032442403 -0.0014995809 -0.0011036735 0.0010135957 -0.001628429 -0.0008396125 -0.0012240381 -0.001992008 -0.0010847176 -8.03152e-05 -0.0014763077 -0.0001962027 -0.0013269614 0.0021490841 0.0027310743 -0.00011554493 0.0007172466 -0.0008789358 -0.00012249316 0.0011861506 0.0008912081 -0.00048783803 0.0017751185 0.0016199488 -0.0015533423 -0.000117176445 -0.0015356531 0.00094063993 0.0010499804 -0.0012639931 0.001047167 0.0007298446 0.0011567137 -0.0012562562 0.0020885277 -0.0013129866 0.0009721855 -0.0020737378 0.00026251425 0.0012923464 -0.00062751793 -0.001026113 0.00015301419 0.000845589 -0.0018517609 0.002646003 0.00066605 0.00012129232 -0.0017484654 0.0020532438 0.0008813929 -6.245196e-05 -0.0016179096 0.0015067187 -0.0005724075 -0.0012597354 -0.0020727192 -0.0009163085 -0.00030335717 -0.0022707954 -0.0007794376 0.00074789004 -0.00085521414 0.0012934362 -0.0015895049 0.0018092372 -0.001788607 -0.0007819933 -0.00019076267 -0.0005722987 -0.0010096033 -0.0014805732 -0.0022981567 -0.00097039156 -0.0007017611 -0.0011218535 0.0013665329 0.00030890625 0.0024484273 -0.000678192 -0.0005155588 0.00066261075 0.0016263522 -0.0024281403 -0.0027885349 -0.00042031746 0.0005970588 0.00020916737 0.003404041 -0.00084857224 0.00012414568 -0.0008282451 -0.002646566 0.0013800644 -0.0022275324 -0.0009938012 0.00046734748 0.002381229 0.0027161522 0.0011953379 -0.0011752694 -0.0002911023 0.000813002 2.6746362e-05 -4.483164e-06 0.0031295193 -0.0025226783 -0.00089898123 0.0016998338 -0.0013213614 -0.0009967348 -0.001422573 -0.0019897786 0.001036796 0.0002389422 -0.00028026584 1.3393217e-05 -0.00033106303 -0.0023084274 0.0009100488 -0.0027656986 -0.00040918504 0.0007701279 0.0018446044 -0.0014118903 -0.0016788386 -0.0002616425 0.0008254712 -0.0022704562 -0.002858107 -0.0003961701 -0.0021932942 0.0021818958 -0.0012735344 -0.0005870169 0.0008986801 0.0010818704 -0.0011568336 0.0014309878 8.772376e-05 0.0003514933 -0.0008385592 0.0029623401 -0.0011576406 0.00029382342 0.0012012802 -0.0021093942 -0.0010322516 -3.8319486e-05 0.0038525376 -0.0016636009 -0.0022083526 0.0013681954 0.0034994024 -0.002204742 0.0001417276 -0.0004091726 0.0017050941 0.0016928642 -0.0013221743 0.0013252837 -0.0020885787 -0.0008954911 -0.0014463388 -0.0016158554 0.0016026861 -0.0018980395 0.00032520774 -0.002758352 0.0014683056 0.0028875053 -0.0033946126 0.002029128 0.0020507597 -0.000893314 -0.0008906174 0.0011049443 7.632264e-05 1.5641126e-07 0.00052674644 -0.001799792 9.80694e-05 0.0009812991 -0.00251652 0.0014872237 0.0004953096 0.0017348372 -0.0019089776 0.0015438847 -0.00053768826 0.001531471 -7.725588e-06 0.002376624 -0.0005540329 0.0007726963 0.0005791909 -0.00040456056 -0.00070478
一天 -0.0013357415 -0.00018223116 0.0023144176 0.0008035046 0.00017321805 -0.0016089086 -0.001781337 -0.0015455186 -0.0020306902 -0.0035875656 0.00018374561 -0.0030056387 0.00022298947 -0.0009882085 -0.001184844 0.002692539 7.2895666e-05 0.00014789608 -0.0014560373 -3.5691228e-06 -0.0005209868 -0.0010222627 0.00083196047 0.0011956628 0.0016448124 0.001357114 -0.0021340898 -0.0019533783 0.0010851679 0.0017920131 0.00036917598 -0.00061217404 0.00080615276 0.0022960226 -0.00040597122 0.00023924594 -0.0011295519 -0.0014844672 0.0012286591 -0.0027045724 0.0001775467 -0.0004262709 -0.0004939658 0.0015092426 0.0009918372 0.0017657982 -0.000634008 -0.0019382191 0.0010070213 0.0014312129 0.00029920155 -0.0007440642 -0.0007640644 0.0034726313 -0.0023110113 -0.00019187942 0.001853122 0.0007100205 -0.00046903352 0.0005553661 0.0024673135 0.0017102793 0.0010663804 -0.002412933 0.0017742713 0.003810926 0.001361012 0.00015676637 0.0007453701 0.00012642237 -0.0007983902 -0.00057856657 -0.0032061825 0.0010011094 0.0007676019 0.00016296847 -0.0007893992 0.001445381 -0.00016123193 -0.0004973899 -0.0007062195 0.00049954926 2.3430395e-05 0.00092603994 -0.00029901433 -0.00078141806 0.0007034549 -2.3847702e-05 0.00043876606 -0.00040649352 0.0010056979 0.0012499228 -0.003275761 -0.0040998952 -0.0005428793 -6.0717637e-05 -0.00047849727 -4.5104694e-05 -0.001142085 0.0016516198 0.00273154 -0.003836902 0.00026417407 -0.0015981812 5.4238364e-05 -0.0013535682 0.0005862784 -0.00092955783 -0.0022967558 -0.0008904735 -0.0012876624 -0.0010114101 -0.0002121824 0.0013952496 -0.001554621 0.0034228838 0.00084179157 0.0007623427 0.0008231694 -0.00238911 -0.00010720816 1.5092159e-05 0.001559546 0.001247025 0.0013545015 0.0021697734 0.00080605276 0.0004419877 -0.0023569586 0.0016686326 -0.00045729216 -0.00067848683 -0.0016221763 -5.6702178e-05 0.0020934602 -0.0015884119 -0.0005393055 -0.0022846956 -0.0006329279 -0.0010238092 -0.00067027943 0.00015481992 -0.0026553168 -0.0010816916 0.0010574319 -0.0003519448 -0.003559841 -0.00072254305 0.00021941385 -0.00059297774 -0.0030089628 0.00056912267 0.002449591 -0.0019421573 0.0010174527 0.0011677954 0.0011195049 -0.0002634454 -0.00069782697 -0.00086424 -0.0026772348 -0.0027753604 0.00028842615 0.0014965864 0.00088881084 0.0011798638 -0.001895118 0.0006349082 0.00030925777 -0.0003035487 0.0021715318 0.00075079047 -0.0026812798 0.00047091092 -0.0022809154 -0.0015155429 0.00016131974 -0.0015883074 -0.0011532237 0.0021015208 0.0014654614 -0.0005001618 -0.0015875886 -0.0015323884 0.0008160048 0.00034101467 -0.002383338 -0.0014650563 0.00024993985 -0.0018537609 0.00059294 -0.0015940053 0.0010918628 0.0005755566 -0.0011207449 -0.00037641625 -0.002818393 0.00036113668 -0.0005464548 0.0021702966 0.00029023486 0.00013630555 0.0005349716 0.0024972544 -0.0013972113 0.001987464 0.0007787662 0.0002807738 -0.0014403289 0.00010883446 0.00088733423 -0.001900229 -0.00099608 -0.00019083873 -0.0008855215 0.00024478207 -1.2912507e-05 0.0013783025 0.0016214545 0.0020240722 -0.0028773095 -0.0019518139 -0.0024187246 0.002321154 0.0025716454 -0.00023074879 -6.827461e-05 -0.00039755533 -0.00010913616 -0.00023005661 -0.0016221423 -0.001124035 -0.00038037865 -0.0020029787 0.0014809648 0.0008931426 0.0008337957 0.0012436361 0.0006774316 -0.00043724585 -0.0017725728 0.00040316192 -0.0024597407 -0.00011521643 0.0023959768 0.0014098064 0.00082880165 0.0019577823 -0.00066634064 0.00028618233 -0.0013682678 0.0019599856 -0.00090814615 -0.0013356316 -0.00016800893 0.0030510246 -0.00076251914 -0.00030421367 -0.0020337154 0.0015343432 0.0008134234 -0.0011487402 0.0016752989 -0.0015784678 0.0008480809 -0.00042769872 -0.0017261337 0.0022876586 -0.0018270548 -0.0018265618 -0.0023154356 0.0015557341 0.0019096091 -0.0033793144 -0.0011617318 0.0013148566 -0.001531416 -0.00038802213 0.00081747945 0.0019441833 0.0019260726 0.0006663226 -0.0023908974 0.00031443674 0.0011436044 -0.0017592292 0.0021146922 0.00116322 0.0017416767 -0.0013201587 -0.00019076365 -0.0014178414 0.0017412642 -0.00014589095 0.0019218122 0.0010773571 -0.0011678308 -0.0012344925 0.0010433138 0.0019559476
黑龙江 -0.000657537 0.0017537969 0.00038267084 -0.00030784777 -0.00037631753 0.0013175493 0.001060955 -0.0014250469 -0.00029757238 -0.0024284797 0.0016241545 -0.0013852469 0.0007937449 -0.0009897641 -0.00030595783 0.0019679258 -0.0002910236 0.0017693429 5.940552e-05 0.00044841488 -0.00062183436 -0.00032950353 -0.00055295695 -0.0013205033 -0.0004900943 4.9682934e-05 -0.0011060019 -7.736998e-06 -0.0006356249 0.00065825554 -0.0017725114 -2.0697451e-05 -0.0004674483 0.0015249904 -0.002556703 -0.00088787597 -0.0008080035 -0.0010993618 -0.0005738665 0.000755809 -0.00012615854 -0.000739106 0.00017195327 -0.001226608 -0.00095113955 0.0012438062 -0.0012263516 -0.0017508192 -0.0018573714 0.00021906648 -0.00016316521 -0.0004278198 -0.0013794422 0.0014203562 -0.0019512005 -0.00052876346 -0.0004605874 -0.00012845488 0.0007080733 -0.0018352265 0.00025353825 0.00039652537 0.0010853375 -0.0008665563 -0.0011841918 0.0017452373 0.0031327622 0.001895528 -0.00027726564 0.0013721796 0.00018096008 0.00060543476 -0.0021597648 0.00038776099 -0.0010078101 0.0010359192 -0.0011413491 0.0015578734 -0.0013844097 -0.0017562244 0.00060407305 -0.00036786686 0.0019245215 0.0004446158 -0.001688779 0.0008725958 0.00023623892 0.00036020222 6.50545e-05 -0.0012903599 0.00149638 -0.00063194643 0.00019134504 -0.0021082563 -1.6641561e-05 -0.00040350502 -0.001974644 -0.0010260754 0.00036422667 0.0009682855 0.0009825848 -0.00048860797 0.002287799 -0.0010300913 5.385824e-05 -0.00039729345 0.0011057087 7.487119e-05 -0.0021362905 -0.0004014621 0.0005452358 1.1145737e-05 0.0016274516 1.8788523e-05 -0.0018201369 0.0012067262 0.0008513286 0.00010130473 -0.0008169374 0.00071630906 0.0011046756 -0.00025869734 0.0005541359 0.00090099656 -0.00012767168 0.001423757 0.0009427377 -0.00021712841 0.0004916132 0.0016081777 -0.0003613913 -0.0010286258 0.00063281663 0.0008218926 -0.00026437978 0.00037939876 0.0014630297 -0.00095381064 -0.00067180785 0.001056658 -0.00050572003 -0.00095261517 -0.0021259892 0.0003629336 -9.5116575e-06 0.00033633286 -0.002237014 0.0020542091 -0.001384381 0.0012499477 -0.0008017338 -0.00054986845 0.0020771662 -0.0010946471 -0.001213157 0.00019032396 -0.00017327435 0.00033649884 -0.0005354341 0.0007979584 0.00033343132 0.00055283034 -0.0010108631 0.0013021535 0.00045458227 -0.00031415102 -0.00026656993 -0.0004097662 1.9949983e-05 -0.0002763594 0.0016276021 -0.00043311095 -0.0013113105 -0.0008689189 -0.00044194266 -0.001489818 0.0005074475 -0.00081317744 0.0013665018 0.0017966479 -9.443682e-05 -0.0014035329 0.00052848953 0.00070697063 -0.0005626247 -0.00032691695 -0.0015030246 -2.4071114e-05 -0.0010315548 0.00069029187 0.0005370324 -0.001751686 0.00052262994 0.0001521411 -0.0015453921 -0.00090906373 0.00047423865 1.7894363e-05 0.0018294159 0.00023492223 -9.850771e-05 -0.0003303791 -6.2597166e-05 0.0011852122 0.0003892102 -0.00067127857 0.0006309056 -0.00023430142 -0.00046523428 -0.0015046379 0.00046278667 0.0008631039 -0.0010329755 -0.0015237727 -0.00042002747 -6.840833e-05 0.00016663832 0.0002550074 -0.0009984145 0.0014936473 0.0007366109 -0.0017646475 0.0005417761 0.0015795047 0.0013911395 3.8112707e-05 0.0017021957 0.00091212976 -0.0015980435 0.0008426892 -0.0018381594 -0.0008024228 -0.0019292161 0.00017717767 0.0013320138 -0.00035299384 0.0008112365 -0.0006566555 0.0009361786 0.000106124724 -0.001713204 0.0005151898 0.001114916 -0.0012820335 0.0015955651 -0.00025549487 -0.0007164021 -9.5014475e-05 -0.0012413025 -0.0003381922 -0.0019443376 0.00018666116 3.4734847e-05 -0.0022573583 -0.0013133812 0.0017751117 -0.0013592253 -0.00039101348 -0.00064482534 0.0015246238 -0.0004563338 -0.00038762926 -0.0012619443 -0.0014154034 0.0018729058 0.00065910385 -0.0007279382 0.0008368938 -4.9936312e-05 -0.0011883607 -0.0015637416 0.0010131478 0.0015307053 -0.0012295432 0.00097546575 0.0016322598 0.0002743592 0.0014793795 0.00069542776 -0.0005803303 0.00093445176 -0.0006655408 -0.00096075604 0.00078541256 0.0011712556 0.00033444984 -0.0011372748 -0.00021944458 0.0016439364 -0.00045251675 -9.954505e-05 0.0004898166 0.0019677337 0.0003027314 0.0010988625 0.00070822175 -0.0018165312 -0.00085147866 -0.00011314072 -0.00085572945
捂脸 0.00065873156 0.0015492019 -0.00028454638 0.0019089236 0.0018240589 -0.0003160922 -0.0021153232 -0.00028000493 -0.00025642334 -0.0013156765 0.0004358771 -0.0005682704 0.00074996724 0.00025554482 -0.0031178049 0.0020858578 0.0008209877 0.0012565516 -0.00049884577 -0.0013069372 -7.370374e-05 -0.00084136025 -0.00029975543 0.0011856606 0.0018856666 -0.0011043687 -0.0008304122 -0.00021802465 0.0015972531 0.0026444914 7.91619e-05 0.00048285487 0.00016376332 -0.00032787552 -0.003104006 3.7144924e-05 -0.001027618 -0.0014454038 0.0015690542 -0.00089797674 -0.00082456885 -0.0024413986 -0.00034403722 -0.0007700864 0.0018956389 -0.0010720394 -0.0012043128 -0.0014515073 -0.0011680757 -5.759659e-05 0.0006411255 0.0015158319 0.0014855886 0.0024265407 -0.0022970524 -0.00121702 0.0011792416 0.0013811081 0.00011219313 -0.0013781034 0.0003400153 0.001676911 0.0028429353 -0.001376342 0.002155559 0.0027187676 0.00087079965 0.0015588246 0.0026200057 0.0016433672 -0.00082142436 -0.0006358433 -0.0020040078 0.00029975374 0.0004063323 0.00034819244 0.0009010994 0.0030008734 -0.00020736402 -0.002679601 -0.00017470136 0.00014277697 0.001137064 0.0010500639 -0.0020612588 0.00072061026 0.0009954259 -0.0006527201 -0.001563421 -0.00042051525 -0.001492994 0.0010761002 -0.0010792867 -0.0032292076 -0.001168054 -0.00067604304 -0.0023177564 -0.0008622219 -0.00096300716 -0.00035339376 0.000120600045 -0.0036563808 0.0018856085 -0.00031280558 -0.00041021348 0.00071184314 -0.001780681 -0.0014715465 -0.0012243489 -0.0022196856 -0.00025107147 8.964322e-05 0.0011017197 0.0008549476 -0.00062368787 0.0021984803 0.0011602228 -0.00073938986 -0.0013392424 0.00038667975 -0.0020504934 0.000613695 0.00096500135 1.2065952e-05 0.00029506098 0.0029098613 3.339872e-05 -0.00022081516 -0.0027089226 0.0009875131 -0.00039223518 0.00081175694 0.00093632966 -0.00045021912 0.0010972444 -0.00094251893 4.291337e-05 -0.0027261418 0.00070388854 0.0009717446 -0.0021590807 0.0012780232 -0.0018608038 0.00019004752 0.001363986 -0.00010128217 -0.0029800276 0.0006386407 -0.00030027857 0.00025619374 -0.0012760824 0.0010959299 0.0024760084 -0.0004805298 -0.0013087785 0.00039610907 -0.0002522759 -0.002473449 -0.0019786714 0.0012052562 -0.0009811965 0.00017049436 0.0006821635 0.0030374671 -3.1583273e-05 0.0010159306 -0.0014178198 0.0026300247 -0.0013463041 -0.0012057382 -0.00031703952 0.0011245811 -0.0025332063 -0.0013848675 -0.0012105867 -0.0004432238 0.0007878206 -0.0018058978 -0.0011774547 -0.0008922428 -0.0004175186 -0.0007943032 -0.00010758036 -0.0013308779 0.0011246939 -0.0021417835 -0.0014461449 -0.00107562 -0.0008274306 -0.0016171746 0.0028628113 -0.0023954145 0.0009802215 0.00068224233 -0.0019776868 -0.0012672401 -0.0014875793 -0.0015552924 0.0014982158 0.0028932076 0.00088853756 0.0012148388 0.001384269 0.0017340967 -0.0012772044 0.0011393197 0.00024234086 -0.00017290378 0.00022681028 -0.0011197471 0.0014953829 -0.0023406127 -0.0015790062 -0.0014821062 -0.0004933866 0.00035535055 0.0009891562 0.0019369496 0.0010939445 0.0028745723 -0.0013933055 0.00037115664 -0.0019758728 0.000931799 0.0029803358 0.0019381575 -0.001071227 -0.001888072 0.0014867142 0.0009207561 -0.0014908148 -0.0016972432 -0.0019304665 -0.00011401261 0.00013306708 -0.0013370079 0.00084595405 0.0010306612 0.00271699 0.0008542882 0.0010869291 -0.0008654381 -0.00054955843 0.001352285 0.003444586 -0.00038376296 0.00040746218 0.0009177695 -0.0016427911 -0.0015014858 -0.0019671845 0.0026064408 -0.0025563247 -0.0009376465 -0.0007774348 0.0035362935 -0.0016384674 0.0012017079 -0.0016182774 0.0014691073 0.0013761665 0.0009237479 -0.00048684963 -0.0014872907 0.0019725824 -0.0010072335 0.00021772941 0.0021119097 -0.0016146989 -0.0017901703 -0.002154301 0.0013978712 0.0026915276 0.00016580081 0.0002986543 0.00026071252 -0.00036916762 -0.00038086512 5.1854302e-05 0.0013499765 0.0019705687 0.0021164203 -0.0014020586 0.002189932 -0.0002121009 -0.0020822072 0.0017913607 0.001378137 -0.000314657 0.0010929405 0.00044068048 -0.0009446195 0.00036955212 0.0010729743 0.0014744246 -5.997845e-05 -0.0021714447 0.00027573406 0.00025522985 0.001982586
泣不成声 -0.0016242795 0.0022221857 0.0018652474 0.0010995142 -0.00063902076 -0.0009265128 -0.0017418057 -0.000803561 -0.00024859083 -0.0027813537 -0.0011654664 -0.0023931628 0.0009590415 -0.0014854886 -0.0015885906 0.0005735328 0.0021317326 0.00021292658 -0.0008946366 -0.0007944967 -0.00055025745 4.4484324e-05 0.0015231528 -0.0009883414 0.0010275276 -0.0011187255 0.0009840872 -0.0011135767 -0.0009855356 0.000580355 0.0007665137 -0.0018571392 0.0004820435 -0.00058723125 -0.0019640275 -0.00010670348 -0.001286406 -0.0005143843 -0.000879279 -0.0009478646 0.00061248505 -0.002972473 -0.0016436017 -0.0011693222 -0.0009952962 0.0004830532 0.001548634 -0.00036762463 0.0011290271 -0.0015423886 0.0007508227 -0.0010997338 0.00020073354 0.0013468846 -0.0019078614 -0.0013589488 0.001716916 -0.00096341386 -0.00086166215 -0.0013564642 0.0021173137 -0.0007938155 0.002472704 0.0002933887 -0.0002807455 0.004239002 0.0031737012 0.0008356749 0.00073998974 0.0007148509 0.0014825166 -0.0006885761 -0.002675111 0.0006891086 0.0013031617 0.0016651762 2.5856674e-05 0.001191701 -0.00065015105 -0.0010410271 0.00048797458 0.0016069303 0.00060526753 0.0004470344 0.0009193713 0.0012986689 0.000344171 -0.00073162344 0.0006665413 -0.00016034515 0.0007094627 0.000914774 -0.00045889334 -0.0039050782 -0.0010621219 0.0015390462 0.00027821612 0.0006001742 9.2925446e-05 0.00017976911 0.0013148511 -0.002646648 0.0021368093 0.0011478014 0.0015075383 0.00020995493 -0.00025530852 -0.0011641349 -0.0007519731 -0.0007615077 0.0018431938 -0.0012380503 -0.0016292939 -0.00012841675 -0.000954531 0.00016290374 0.0010598697 -0.0012947201 0.0010208201 -0.0017890135 8.113739e-05 -0.001027371 0.0009839281 -0.0011421157 0.00069662643 -0.00024447957 -0.0009787141 -0.00017569623 -0.0002296593 -9.877532e-05 0.00096547557 -8.3913965e-06 -0.00027170716 0.0014977083 0.0020942127 -6.6319444e-05 0.0022622556 -0.0019181265 -0.0006449805 -0.0021008183 -0.00212605 -0.00067197345 0.0006640281 0.00052997767 -0.00010568042 0.00058990926 -0.0010695223 0.0009087836 -0.00047316044 0.00073267287 -0.001447558 -0.00071590964 0.0017796548 -0.0014244714 0.00011881853 0.0017808074 9.983412e-05 -0.0009842524 -0.0016745393 -0.0005475412 -0.0019484855 -0.0021380368 0.001183533 0.002578226 0.001628713 0.00015915034 -0.0009511295 0.0010960553 -0.001936319 0.0013274807 0.00046400318 0.0018792358 -0.002503946 -0.00046255573 0.0007078604 -0.0019466294 -0.00061296986 0.00058032916 -0.0014904353 -0.0005570773 0.0013166993 0.0007074529 0.00045229928 0.000100399346 0.0008492815 -0.0005934038 -0.00028348353 -0.0010729865 0.00063640805 -0.00033198207 0.0019157648 -0.0011330922 -2.8119195e-05 -0.00043268336 -1.2391806e-05 0.0011211828 -0.00057019864 -0.0014244637 0.00066009763 0.0013311434 0.0011089476 0.0016679857 0.0005945772 0.0008732684 0.00060512614 0.00029761673 -0.0005744345 0.0015670019 -0.00095499284 -0.00080489536 0.0012448868 -0.0007822634 8.80432e-05 0.00015538518 0.0006599721 0.00035027694 -0.0010377256 0.00089627824 0.001020031 -0.0003997821 -0.0017310046 -0.0018166779 -0.0020216787 0.00092913344 0.00033989505 0.0025808152 -0.0014006379 0.0005646321 -0.0011437598 0.00060176395 -0.0011460489 -0.002627768 -0.0016596658 -0.00058515026 -0.00030010677 -0.0015390285 0.00036882845 0.0015493085 0.0018315112 0.00071922224 -0.000928954 0.0011602086 -0.0008970634 0.0017636862 0.00074113056 0.00029211454 0.00019340885 0.00069960067 -0.00082820037 -0.00088315096 0.0008511219 0.0011510068 -8.6429885e-05 -0.0013467561 0.00013068343 0.0033280158 -0.0013108132 -0.001110464 -0.0017588997 0.0013745216 0.0015613359 -0.0012258482 -0.0007595646 0.00061577547 0.0014881098 0.00012506661 0.0011173063 -0.00062316575 -0.0009978582 0.00079216587 -0.0017666145 -0.0003613652 0.0020980453 0.00027636602 0.00090830855 -0.0011380399 -0.0006947479 0.001032328 0.0021343057 -0.00096045824 0.002205817 0.0022825103 -0.0011941184 0.00029969824 0.00088851 -0.0021583198 -0.000887703 0.0018761116 0.0005972699 -0.00061772234 0.0009783893 -0.00041176355 -7.903548e-05 -0.0001318781 0.0011832445 0.00029807165 0.0005310931 -0.0003890611 9.0206035e-05 -0.00013773346
