523 300
捂脸 0.06105032 0.08000612 -0.0707932 -0.08236452 0.07285375 -0.15260248 -0.033256195 0.045951515 0.20257571 0.025900876 0.073281355 0.0731234 0.011866001 0.03589322 -0.027750697 0.02976353 0.03394157 -0.12051854 -0.007831834 -0.06682121 0.020323087 -0.070082925 0.044679184 -0.06779481 -0.11419688 -0.09061017 -0.07315509 -0.13645956 0.06403187 -0.053856965 -0.06119689 -0.12791245 0.05237204 -0.17247511 -0.047844283 -0.07705433 0.02453391 -0.097327225 -0.14786023 0.048526067 -0.005074543 -0.1289429 0.018365199 -0.14365447 -0.013452932 0.09710511 -0.10648681 0.026517164 0.023086846 -0.11417948 -0.017236369 -0.043728642 -0.07782472 -0.003412778 0.025830466 -0.011686709 0.0135007575 -0.03704196 -0.012422809 0.030508792 0.0077321706 0.07125308 0.056439906 -0.03167874 -0.0040554106 -0.004895131 0.037428826 0.15941907 -0.025456535 -0.18413177 -0.05526559 -0.13769953 0.049316045 0.016584845 -0.012843433 0.14483896 -0.021150207 -0.023083342 0.052858025 -0.09150227 0.09130566 0.018407157 -0.09609542 -0.06878327 -0.059111286 0.03820625 -0.032734096 -0.07672323 -0.17473806 -0.10904735 0.10936065 0.013253012 0.08966352 -0.10340576 0.0519803 0.11815896 0.058198627 -0.0782609 -0.029634986 0.05230116 0.025479171 -0.036088154 -0.050695803 -0.046866115 0.10112239 0.060304478 -0.032682616 -0.03590521 -0.06266125 -0.10432148 -0.0058253724 0.10811251 0.0532934 -0.048513617 0.010945241 -0.056549605 0.12417002 -0.06928961 -0.027476508 0.023018844 0.005424086 0.17046674 0.007132436 0.050172646 0.020203795 0.025167534 -0.033340722 -0.08044154 -0.15787621 0.07409456 -0.007605558 0.03999 -0.007101941 0.026372124 -0.028843233 0.0022318626 0.1066037 0.064152814 -0.054950114 0.008931224 -0.15764092 0.17454207 0.030168707 0.09411085 0.17272772 0.021804903 -0.121287316 0.033100266 -0.008401855 0.0012019716 -0.07245204 -0.0050802617 -0.0746001 0.00500401 0.07152288 -0.0021498252 -0.011463262 -0.02814268 0.019436685 -0.12612148 0.07435215 -0.19455455 0.081347324 0.00045750558 -0.08536321 0.13167512 -0.044468798 0.1057104 -0.035728723 0.0078015025 0.0076499917 -0.05205548 -0.06483977 -0.1816121 0.054058284 0.04606437 -0.14780681 0.19582668 0.03926058 0.09010713 -0.16619988 -0.11550499 0.016387044 0.07229544 0.046796184 -0.07588042 0.15416323 -0.013739443 0.0072798505 0.027107429 0.017086426 -0.08164052 -0.013503249 0.01745764 0.08009657 -0.06524506 -0.07136595 -0.04184335 0.005179161 -0.112131305 -0.10241433 0.007477376 -0.12999617 0.19141135 0.051238384 0.07999809 0.14259394 0.033329673 0.03483452 0.16390003 0.015122399 0.1518034 -0.0845852 0.113812074 0.009716953 -0.0011109384 0.10755647 0.18223478 -0.081222035 0.082055874 0.03293119 0.07372036 0.04858382 0.033429842 0.1000681 0.105899364 -0.004593076 0.09646502 0.06721408 -0.12783036 0.09013855 0.18776587 -0.10744351 -0.034643132 -0.0715201 -0.07979365 -0.102965444 -0.06577264 -0.14130783 0.055123486 0.031204628 0.004615252 0.07912106 0.11956886 -0.12824064 0.0661843 0.052562274 0.018349444 -0.07603094 0.0055002887 -0.20752883 0.048250448 0.06378152 -0.120021224 -0.025259698 -0.039687566 -0.102583125 0.023400802 0.0069087828 -0.06808169 -0.016520169 -0.0037155307 0.04920239 -0.012922131 0.10228377 -0.04712716 0.0012898617 -0.10794908 0.032484706 -0.1904911 0.08292577 -0.074715436 -0.22473119 0.12461725 -0.0810476 -0.027094904 0.13011833 -0.053274058 0.11940854 -0.0027121939 -0.050657853 -0.024293495 -0.039291486 -0.011401164 0.048009593 0.013965748 -0.14759637 0.06646655 -0.049339037 0.06425212 -0.05883387 0.11446187 -0.10115323 -0.11554379 -0.020144729 0.007191053 -0.078605734 0.06629336 -0.05861716 0.13503823
腰 0.07972546 0.11065821 -0.09538704 -0.10624926 0.100204386 -0.19778804 -0.046155043 0.05938908 0.26624015 0.03090649 0.09035238 0.09335019 0.015411727 0.045076285 -0.031097868 0.0330157 0.036000066 -0.16153553 -0.0050773625 -0.09277715 0.023671772 -0.098909356 0.05539735 -0.08946536 -0.1501924 -0.11819354 -0.09276071 -0.17965104 0.0844225 -0.06975468 -0.08311169 -0.17361453 0.06532511 -0.22414286 -0.064750426 -0.10182744 0.032956377 -0.13058665 -0.19313343 0.06790295 -0.005372267 -0.16450441 0.018668702 -0.18527128 -0.016318832 0.13013375 -0.14335343 0.03186011 0.03688435 -0.14834113 -0.027111527 -0.060565982 -0.10133824 -0.0056991265 0.030171784 -0.017595163 0.0132414745 -0.05448263 -0.011736902 0.043266434 0.012688068 0.09609513 0.08036548 -0.043274857 -0.0009960176 -0.0027136123 0.053993467 0.21411036 -0.03877628 -0.24805166 -0.06900253 -0.18620296 0.070770904 0.026015721 -0.016752632 0.19354324 -0.032062616 -0.028375814 0.06835145 -0.1244986 0.118750624 0.02776194 -0.12351972 -0.09589311 -0.08045193 0.049044028 -0.0439712 -0.10114869 -0.23313631 -0.1431845 0.14829473 0.010650047 0.116091155 -0.13688122 0.06406063 0.16481175 0.070440985 -0.10481751 -0.03654391 0.06413519 0.032894183 -0.05120245 -0.06659605 -0.067355946 0.12969902 0.083236545 -0.03880423 -0.042997163 -0.079830885 -0.13576972 -0.004165979 0.14016375 0.067015715 -0.066663586 0.012641344 -0.0755734 0.17047854 -0.09380078 -0.037313532 0.03444663 0.005121031 0.23199208 0.013174962 0.07048539 0.030603984 0.03655254 -0.037794124 -0.10113384 -0.20506972 0.09504978 -0.0133614205 0.05737176 -0.011240865 0.03249847 -0.039075345 -0.00067635794 0.13725832 0.09040167 -0.07331497 0.017933836 -0.21023498 0.22750342 0.04281626 0.12897839 0.22936678 0.02687659 -0.16619305 0.04441862 -0.010144827 -0.0024228068 -0.095718525 -0.009618298 -0.09451928 0.012606125 0.10022003 0.0012006594 -0.021168793 -0.038548667 0.030964762 -0.16679382 0.10255886 -0.257679 0.10998065 0.004594262 -0.10801202 0.1805366 -0.06289757 0.1474098 -0.04979264 0.013372612 0.010790545 -0.06492526 -0.088426486 -0.2368118 0.06998129 0.064331606 -0.19178444 0.26185063 0.05341513 0.11543684 -0.22098598 -0.148491 0.028973991 0.098958716 0.062099032 -0.09700986 0.2046522 -0.016941944 0.0063937437 0.034208648 0.022645589 -0.11534277 -0.0140457945 0.02089017 0.104032464 -0.08785672 -0.0889578 -0.05308138 0.012089222 -0.15218802 -0.13350455 0.015761033 -0.16985165 0.24910045 0.07003123 0.10792673 0.19051869 0.046906024 0.04836846 0.21666448 0.027013522 0.19732468 -0.11498778 0.14940178 0.016576517 -0.0041885544 0.14774565 0.2450276 -0.11126672 0.11129256 0.04690031 0.09464877 0.06825883 0.04905331 0.13357604 0.13943042 -0.0057227425 0.12801218 0.0878337 -0.16847295 0.1252138 0.24599884 -0.14122435 -0.04200608 -0.09365831 -0.105247244 -0.13552204 -0.08373848 -0.18308637 0.071943656 0.038522966 0.0069302022 0.103479885 0.15008801 -0.17137063 0.086654276 0.066166826 0.02788966 -0.10213704 0.005391137 -0.27384213 0.06550273 0.083908044 -0.15685323 -0.03989633 -0.04866614 -0.13166149 0.02734594 0.007953537 -0.09267883 -0.024137411 -0.0064551877 0.06588307 -0.021036837 0.14222327 -0.06909104 0.0025841824 -0.1484106 0.036981836 -0.24814302 0.111973554 -0.098873846 -0.3014139 0.17187548 -0.10866707 -0.038133744 0.1648344 -0.069121204 0.15513499 0.001630813 -0.062469315 -0.03390737 -0.045490205 -0.014093051 0.06441786 0.022350622 -0.1960959 0.088130444 -0.06207134 0.08190058 -0.082769565 0.14880069 -0.13664967 -0.15311223 -0.026859974 0.007929353 -0.10019171 0.08929237 -0.08473967 0.18164879
哈哈哈哈 0.025150789 0.031992495 -0.023623683 -0.03132347 0.019968865 -0.060882784 -0.01102895 0.014937522 0.07405068 0.008992635 0.019200305 0.02497318 0.0021083362 0.009032206 -0.009256859 0.011189354 0.017896097 -0.04578147 -0.004918291 -0.017979022 0.0059155966 -0.016952053 0.01461295 -0.026502749 -0.04600193 -0.023795968 -0.026932362 -0.056513473 0.027871063 -0.024633486 -0.03216892 -0.048424847 0.013868506 -0.06176682 -0.01219301 -0.025971595 0.011614836 -0.043370664 -0.052564792 0.017599853 -0.0016748465 -0.048603516 -0.0013080868 -0.051872585 0.00388729 0.037667926 -0.032094028 0.013002839 0.013412756 -0.043801237 -0.011254727 -0.0074291117 -0.03327601 -0.006831717 0.010845094 -0.003166972 0.002689799 -0.02112933 0.008046321 0.006177591 -0.0037826644 0.023140179 0.029441686 -0.01542521 0.0033267743 0.002707128 0.013094568 0.06443577 -0.008642234 -0.07483234 -0.025394874 -0.060719173 0.023469219 0.006185221 0.00019925606 0.043574836 0.0022445568 -0.007956902 0.010486496 -0.02688064 0.024282817 0.0074806847 -0.042457294 -0.03424363 -0.019908452 0.009600356 -0.016514402 -0.019669548 -0.05504441 -0.04045842 0.04583362 0.0014929641 0.024928559 -0.031426355 0.019734394 0.052161753 0.029768225 -0.02865472 -0.014397582 0.008229553 0.013230862 -0.0065564606 -0.010888752 -0.0175068 0.04064993 0.0166925 -0.013320066 -0.0049715517 -0.026688883 -0.04392807 0.00090852636 0.04284265 0.014138111 -0.015773224 0.002279166 -0.013088448 0.044967283 -0.021146046 -0.010915853 0.011144597 0.0046706335 0.061390154 -0.0012441933 0.010984938 0.016583532 0.011885512 -0.010645257 -0.03514795 -0.06095012 0.032656208 -0.010061256 0.019031718 0.0013766953 0.007367174 -0.0073906397 -0.0029491226 0.038523577 0.025271581 -0.025048709 -0.00028130255 -0.055094786 0.07255942 0.005084087 0.03189287 0.0660938 0.017835433 -0.055930804 0.0151287075 -0.005653902 0.0052468283 -0.022463072 -0.0042085443 -0.022594867 0.006110319 0.02661631 -0.0039789784 -0.012875289 -0.0059650554 0.0043059294 -0.04119596 0.024455534 -0.075478725 0.03547364 0.0064447564 -0.029560175 0.045865282 -0.016488342 0.041509528 -0.013040446 0.005291414 0.0067595006 -0.019092375 -0.017650688 -0.07232244 0.013826464 0.017106686 -0.059002314 0.081824735 0.010301852 0.036548115 -0.061806504 -0.033224728 0.0062727816 0.022448722 0.016479904 -0.020565072 0.058028966 0.0042709205 0.0048155836 0.003942974 0.013755385 -0.026009358 0.0011004382 0.00737691 0.024517788 -0.017458212 -0.026811196 -0.0059098224 0.0010818426 -0.039453916 -0.04137049 0.009837777 -0.04519554 0.06352556 0.027967641 0.029677678 0.051478628 0.0050069815 0.010678212 0.049431022 0.013098329 0.050687466 -0.040653057 0.044516146 0.004362599 -0.004488685 0.041416664 0.07469146 -0.03757235 0.03918039 0.01809552 0.027322397 0.013231884 0.0102796415 0.037536588 0.039055027 0.008805221 0.0354335 0.027918642 -0.057439268 0.038939293 0.07253296 -0.039251354 -0.010604696 -0.02497747 -0.028089875 -0.045537896 -0.01273148 -0.05519067 0.015376262 0.016623309 0.0079699755 0.026537528 0.036431182 -0.048621625 0.02729388 0.013881932 0.00027616436 -0.029889513 0.003371115 -0.08051985 0.016146557 0.023274377 -0.036396462 -0.007109225 -0.017628834 -0.029051563 0.014488496 -0.0018350367 -0.021763276 -0.01612394 -0.010693026 0.020363947 -0.0116574615 0.036317 -0.027287675 0.00019749196 -0.029284373 -0.0001753968 -0.07373399 0.029914588 -0.022673117 -0.07358115 0.04904022 -0.02643216 -0.018989254 0.045394216 -0.022813903 0.04799069 0.0007188011 -0.016500836 -0.014526189 -0.018436268 -0.004774132 0.012100829 0.01620119 -0.051918764 0.027177306 -0.018803645 0.024811408 -0.025479283 0.044305336 -0.036981598 -0.049004752 -0.013492962 -0.0029421402 -0.027156537 0.03252736 -0.023847356 0.05068051
哈哈哈 0.0393876 0.05193169 -0.04232724 -0.048169985 0.042423572 -0.09335517 -0.02038001 0.026209699 0.121109076 0.015871316 0.042515136 0.039658867 0.008233804 0.021221787 -0.01489852 0.01543599 0.01853791 -0.07491193 -0.0005909878 -0.0403837 0.009975581 -0.040168162 0.024600958 -0.042102218 -0.06934018 -0.051419523 -0.04422668 -0.084789135 0.04204841 -0.031834017 -0.042570237 -0.07812868 0.02848189 -0.10000698 -0.027110077 -0.04622899 0.0161984 -0.06110496 -0.0887484 0.032963302 -0.0037093954 -0.07771072 0.0060371854 -0.086635314 -0.004514607 0.060228936 -0.06270558 0.0162607 0.017226672 -0.0692029 -0.015003538 -0.023363546 -0.04969622 -0.0042214114 0.013394482 -0.0076995366 0.0075530536 -0.027118692 -0.00043016637 0.016425414 0.0024669971 0.04134112 0.040178634 -0.021815866 -0.002383948 -0.0024554858 0.023034213 0.10240376 -0.017193984 -0.11690156 -0.034789868 -0.08832222 0.033212647 0.013645561 -0.0052374993 0.08441476 -0.0132535985 -0.015111878 0.029390994 -0.054854725 0.05044445 0.0144485785 -0.057985805 -0.045277942 -0.033468723 0.022411866 -0.021736506 -0.04429186 -0.10402146 -0.06318793 0.06993122 0.0050760643 0.051382177 -0.060653634 0.030968353 0.07467222 0.035843767 -0.04679784 -0.016937457 0.02690826 0.017879114 -0.018753957 -0.02880357 -0.031854153 0.060098957 0.03623589 -0.017457247 -0.018590195 -0.039451648 -0.06516568 -0.0029000433 0.06498255 0.0303868 -0.027750025 0.006325614 -0.03373774 0.07675933 -0.041163582 -0.018653335 0.01801205 0.004425598 0.103181735 0.0057530557 0.02871081 0.016654575 0.016053058 -0.019742098 -0.05010781 -0.093720555 0.046907727 -0.008424909 0.027359394 -0.003430184 0.015690366 -0.019274648 -0.002369896 0.06442913 0.04183404 -0.034000285 0.004969733 -0.097013645 0.108219974 0.019030226 0.058546532 0.10455319 0.016612135 -0.07994291 0.023441993 -0.0047802418 0.00064744934 -0.04014483 -0.006736254 -0.044822395 0.0062066247 0.04492632 0.0002720513 -0.013191217 -0.016935904 0.0116888685 -0.072213925 0.047574554 -0.116320655 0.052513205 0.0049660797 -0.050447572 0.083482064 -0.02668872 0.069440715 -0.022193722 0.0033772374 0.0035378372 -0.029602215 -0.037667017 -0.109803066 0.03246995 0.029286396 -0.08812898 0.12457251 0.023511946 0.05391309 -0.099331275 -0.06707638 0.013190099 0.04377151 0.026367292 -0.04183382 0.09051242 -0.003379148 0.003285059 0.013858993 0.01460042 -0.05125807 -0.005089762 0.011428354 0.047340985 -0.038825314 -0.04199469 -0.020632545 0.0028819838 -0.06929692 -0.063289225 0.009520139 -0.07728982 0.11053891 0.03600643 0.051010616 0.088312216 0.02008908 0.021996737 0.09531065 0.011547174 0.09209413 -0.0535417 0.068498656 0.009812868 -0.0015508654 0.06714792 0.11223548 -0.051221862 0.055116765 0.02309306 0.04509899 0.028586468 0.022166582 0.060261536 0.06277103 0.00085774576 0.058555473 0.041965947 -0.078517325 0.056245346 0.11291539 -0.06617681 -0.01952891 -0.04034238 -0.047874983 -0.06724988 -0.033573173 -0.08454554 0.032369945 0.017066864 0.0035906231 0.048035324 0.0698595 -0.07775607 0.039338533 0.027805364 0.010834772 -0.04807629 0.0021266083 -0.12721589 0.030827686 0.037698228 -0.06816119 -0.01875577 -0.02594365 -0.05687704 0.015698263 0.0026910673 -0.03913805 -0.012393804 -0.006524764 0.033265367 -0.012814301 0.064032875 -0.035381384 0.0015964863 -0.06521798 0.013831167 -0.116233855 0.05223898 -0.04377837 -0.13523145 0.080095164 -0.046743598 -0.021235446 0.0746072 -0.031472385 0.073371544 -0.00043467977 -0.029288333 -0.015532419 -0.021349376 -0.0060638953 0.026190156 0.015126788 -0.08936864 0.038560983 -0.029722834 0.037409354 -0.037732285 0.07057883 -0.06123096 -0.07557164 -0.012947077 0.00109897 -0.044031613 0.045417845 -0.039742626 0.08399937
贾玲 0.09224465 0.12712537 -0.11046746 -0.12176346 0.11431303 -0.22807008 -0.053729482 0.06609868 0.30481243 0.03472094 0.10498724 0.10563348 0.018045714 0.0517685 -0.03301539 0.041190337 0.04187613 -0.1847505 -0.004256377 -0.104428016 0.024227796 -0.11243876 0.06320223 -0.10295595 -0.16904029 -0.13824272 -0.10518378 -0.20985763 0.098321 -0.079766735 -0.096954964 -0.19955647 0.07553291 -0.25713426 -0.07742444 -0.117203765 0.037124813 -0.14879642 -0.22295505 0.07793536 -0.004396393 -0.1888724 0.021936648 -0.2129624 -0.017507624 0.14997116 -0.16328351 0.038370997 0.04332349 -0.17162235 -0.0310519 -0.070702955 -0.117557965 -0.00689808 0.03698696 -0.019699924 0.015734708 -0.060769733 -0.011323799 0.048345104 0.012003808 0.11044095 0.09114859 -0.047424085 -0.0016507069 -0.00066836533 0.062070858 0.24957256 -0.0435453 -0.28476548 -0.079143815 -0.21375723 0.0813281 0.031184148 -0.018965563 0.22522423 -0.03759498 -0.033631656 0.07981014 -0.14477424 0.13556826 0.031163087 -0.1397312 -0.10827028 -0.08996142 0.05541546 -0.050400846 -0.11635909 -0.26756006 -0.16320413 0.17328265 0.012800194 0.13366513 -0.15537916 0.07303339 0.18611602 0.08104706 -0.119377024 -0.03920776 0.072928734 0.037993945 -0.059291173 -0.075441204 -0.076759 0.1506202 0.09466105 -0.044396818 -0.048456423 -0.09106205 -0.1566316 -0.0040920246 0.16054136 0.074761026 -0.07792439 0.01627262 -0.08620426 0.19422348 -0.11003564 -0.043332342 0.039386332 0.0070033334 0.26383117 0.01522279 0.080377676 0.038981933 0.04528846 -0.04689713 -0.118374206 -0.23749432 0.11202584 -0.017830186 0.06458701 -0.013159954 0.034877 -0.04571428 0.0026772243 0.15843458 0.10299885 -0.08658158 0.021933824 -0.24164346 0.25977546 0.053297166 0.14700359 0.26135862 0.031705834 -0.19100021 0.0519587 -0.012614095 -0.004445909 -0.10696512 -0.012883527 -0.107946545 0.013013796 0.116322435 0.002435819 -0.024321241 -0.04674539 0.036902785 -0.19220805 0.116167665 -0.29358542 0.13074456 0.005786567 -0.12575445 0.20782357 -0.069239005 0.16672987 -0.057114214 0.013365425 0.009102793 -0.07524251 -0.10527636 -0.27150878 0.079632565 0.07409316 -0.22221334 0.30248082 0.06255293 0.1310055 -0.25173813 -0.16834201 0.03216415 0.109403685 0.070395835 -0.10976631 0.23172118 -0.018919585 0.0051374673 0.040226456 0.027734345 -0.13473079 -0.019065822 0.025487913 0.11673603 -0.10213461 -0.10303729 -0.062107604 0.013997683 -0.17363499 -0.15364657 0.018484391 -0.19385 0.2871144 0.081035025 0.12514432 0.22202678 0.052529417 0.055808496 0.25152296 0.030915309 0.22704548 -0.13028826 0.16910233 0.01896971 -0.005139674 0.16993617 0.28085285 -0.12786382 0.12870273 0.053097997 0.110917605 0.079646945 0.054382656 0.15259176 0.15782243 -0.0060177487 0.14517541 0.09882519 -0.19182187 0.14043725 0.28211692 -0.16477148 -0.0487798 -0.108871154 -0.122671805 -0.15692852 -0.097091064 -0.21301053 0.08166938 0.04641918 0.0076011275 0.1157316 0.17386682 -0.19572131 0.10027613 0.07472371 0.033483464 -0.115791045 0.0063314424 -0.31531438 0.071647964 0.09537517 -0.17828242 -0.044254284 -0.05834717 -0.15081193 0.03179448 0.006892723 -0.10649503 -0.028978327 -0.010000628 0.078280255 -0.025771374 0.16326626 -0.07998011 0.005483136 -0.16754633 0.045270804 -0.2866792 0.13202253 -0.1134085 -0.3441143 0.19634113 -0.123869635 -0.04424913 0.19005686 -0.078737274 0.17738411 0.00075311156 -0.07096943 -0.039633915 -0.052812938 -0.017447498 0.07618491 0.02672514 -0.22506821 0.101044826 -0.070534006 0.096345514 -0.09443244 0.17106256 -0.15476952 -0.17762662 -0.031003976 0.009723897 -0.1135687 0.10333608 -0.09791021 0.20759591
笑 0.06391815 0.082464434 -0.07194942 -0.082856074 0.07431266 -0.14940739 -0.036263023 0.045878142 0.19972233 0.02239639 0.07054811 0.071419016 0.012066117 0.035013355 -0.025056366 0.027550075 0.030802337 -0.12293238 -0.0020636388 -0.070035495 0.015763562 -0.07296667 0.040862404 -0.06824627 -0.11391001 -0.09209595 -0.07130885 -0.13727307 0.06605253 -0.05368426 -0.064910255 -0.13267024 0.050575823 -0.17160325 -0.04983327 -0.079318665 0.02591317 -0.09845208 -0.14667708 0.053614497 -0.0051297746 -0.12666719 0.015677502 -0.1418498 -0.011778155 0.09938554 -0.1084691 0.022787541 0.02930526 -0.113690495 -0.01975069 -0.043605737 -0.07669852 -0.0060136244 0.0233495 -0.011107691 0.009181761 -0.040547457 -0.0069988426 0.033360206 0.007336128 0.0722291 0.06140808 -0.032820642 -0.00392781 -0.002907583 0.041466236 0.16319802 -0.027548121 -0.1898952 -0.05185397 -0.14202869 0.055736244 0.020483045 -0.011823337 0.14870629 -0.022747952 -0.022806657 0.05293822 -0.09602012 0.092133544 0.021651974 -0.0920307 -0.07338863 -0.06070815 0.035882104 -0.03126867 -0.07673849 -0.1789946 -0.10734474 0.11459613 0.007789679 0.087985784 -0.103994034 0.04720182 0.124897815 0.055802133 -0.078322664 -0.025505057 0.04859766 0.025333572 -0.03675471 -0.04829929 -0.050381765 0.10030537 0.06190376 -0.028585834 -0.034928694 -0.063052654 -0.10368333 -0.002761996 0.107067846 0.050063297 -0.049025506 0.0102002965 -0.05761545 0.12759022 -0.07268145 -0.028595064 0.025773082 0.006802855 0.1741709 0.010896995 0.052283112 0.024707375 0.02746823 -0.03218233 -0.07713582 -0.15847416 0.07289899 -0.010928425 0.044548225 -0.009264283 0.02527451 -0.029246395 0.001722673 0.10506767 0.066835314 -0.0578696 0.012820961 -0.16052634 0.17309465 0.03288531 0.09719979 0.17582679 0.019994223 -0.12672226 0.03621614 -0.009933422 -0.0023426248 -0.071029805 -0.007137565 -0.07173204 0.008616641 0.07427571 0.00038568085 -0.01642335 -0.030898437 0.022608558 -0.12508863 0.07775964 -0.19582896 0.084913254 0.004045157 -0.08447963 0.13553773 -0.046500865 0.109635286 -0.038844313 0.009846844 0.00635615 -0.049035147 -0.06732251 -0.17883715 0.05075736 0.04585375 -0.14544398 0.20106287 0.03934196 0.08848291 -0.16868554 -0.11216448 0.019548818 0.074625894 0.048406426 -0.073940516 0.1552607 -0.011105571 0.0037902328 0.026858663 0.018394383 -0.08670536 -0.011420729 0.017016733 0.07813338 -0.06639574 -0.06847724 -0.03957328 0.011026488 -0.11556044 -0.10379771 0.012983676 -0.12939146 0.18850315 0.0531473 0.08108543 0.14555772 0.03348664 0.034856502 0.1656776 0.020373654 0.14914748 -0.08588478 0.11275176 0.013370324 -0.0046891626 0.111387946 0.18564288 -0.08354985 0.08629751 0.034533896 0.072518334 0.05123312 0.038239785 0.09878491 0.10578419 -0.0032853202 0.0981129 0.067846864 -0.1292215 0.09162861 0.18790261 -0.10985926 -0.030186588 -0.07120358 -0.07869143 -0.10484977 -0.06505269 -0.14095016 0.052406944 0.03168452 0.0060341475 0.07625381 0.117596544 -0.1297827 0.06568149 0.049325112 0.019495739 -0.07775944 0.0052125794 -0.20924075 0.04972242 0.063696265 -0.11780774 -0.027672878 -0.036898233 -0.10106418 0.020408558 0.004198981 -0.07078284 -0.019124113 -0.0060102525 0.05016467 -0.015362029 0.10858166 -0.05168027 4.4695476e-05 -0.10864338 0.02804609 -0.18959329 0.0859364 -0.07483816 -0.22532018 0.12814999 -0.083324246 -0.027822621 0.12594473 -0.052933685 0.11673923 -0.0012982624 -0.048307832 -0.027358016 -0.035778556 -0.013322536 0.04967457 0.016060067 -0.1492294 0.06821441 -0.047600567 0.063219845 -0.061113454 0.11433017 -0.10434844 -0.11957389 -0.021493796 0.0066118543 -0.07476398 0.06945464 -0.06338974 0.13542514
泪奔 0.047426194 0.057900548 -0.054266527 -0.061576594 0.053147446 -0.110458374 -0.023703955 0.033492863 0.14609241 0.017295646 0.047161646 0.051530533 0.0074056447 0.024007913 -0.017270053 0.020322787 0.021836152 -0.09119939 8.1585866e-05 -0.052312184 0.011986027 -0.054983303 0.031510856 -0.050336964 -0.08325067 -0.06588476 -0.050043713 -0.102061905 0.045761894 -0.037148684 -0.049408656 -0.09606962 0.032831218 -0.12321517 -0.039514594 -0.058435824 0.017036425 -0.07138993 -0.11022299 0.038665157 0.000513738 -0.09402594 0.0066644154 -0.1000439 -0.0109488955 0.07485598 -0.080366634 0.013912897 0.020725127 -0.086325034 -0.013035183 -0.034306902 -0.05743216 -0.003246143 0.014750021 -0.007264697 0.006701099 -0.030233929 -0.0033808793 0.02486427 0.0035446472 0.05067285 0.04513702 -0.024104532 -0.0039020583 -0.0013441449 0.028390117 0.11823276 -0.020857628 -0.14094657 -0.03992093 -0.1019954 0.039899286 0.01682806 -0.011399867 0.10651123 -0.019398369 -0.015921315 0.03947843 -0.069334164 0.06575792 0.018059094 -0.065333456 -0.05190089 -0.042558864 0.025817033 -0.02601337 -0.056236926 -0.12869862 -0.081178226 0.08590781 0.0054221777 0.06457979 -0.07604749 0.031405386 0.093751594 0.037406385 -0.056600027 -0.0171501 0.03755373 0.016629934 -0.030295221 -0.039124083 -0.03867041 0.0708641 0.04638549 -0.021913704 -0.025295481 -0.043240305 -0.07646216 -0.004519066 0.074600436 0.03317994 -0.037275318 0.00865173 -0.04154592 0.098078825 -0.053622093 -0.024728285 0.017270979 0.0040511047 0.1267123 0.0103519205 0.037393622 0.019158999 0.020452982 -0.0184909 -0.05733483 -0.115118176 0.05552424 -0.008719861 0.03041292 -0.005949242 0.019725842 -0.024381915 0.0009405219 0.07619099 0.051423438 -0.04159145 0.012308994 -0.115542114 0.12625408 0.02465836 0.070297465 0.12738015 0.013925769 -0.09354792 0.026473053 -0.0062456625 0.0004604555 -0.054377068 -0.005876984 -0.05243793 0.0057823807 0.058262687 -0.0014587529 -0.008665993 -0.020956088 0.017305234 -0.089598395 0.05754484 -0.1430428 0.06342821 0.0037931784 -0.057002217 0.10363756 -0.036238886 0.08358678 -0.026150612 0.0041094064 0.004344973 -0.03247817 -0.051373586 -0.13195121 0.04023384 0.033176202 -0.10728235 0.14658451 0.030542202 0.06557047 -0.12521988 -0.07941699 0.014429157 0.054939255 0.035275742 -0.054636832 0.113956474 -0.012303375 0.0028266374 0.019816594 0.01201122 -0.06730607 -0.010467238 0.010343885 0.05609916 -0.049865324 -0.046527147 -0.028927246 0.0101968255 -0.085793346 -0.071591124 0.0071300687 -0.09278715 0.13570504 0.041961085 0.060724497 0.10889785 0.028456867 0.024938628 0.122781344 0.014665569 0.1096343 -0.06533717 0.08384777 0.010310093 -0.006777966 0.08258942 0.13824745 -0.06207188 0.06556288 0.02408188 0.050721068 0.038102664 0.028219398 0.07552082 0.07707932 -0.0022456155 0.06944872 0.045879047 -0.09073585 0.07016914 0.1340366 -0.08113757 -0.021458808 -0.05439489 -0.060250897 -0.078096054 -0.04798597 -0.10319004 0.041674554 0.019266663 0.00066235237 0.05892737 0.08584981 -0.09598483 0.048802774 0.038214073 0.016084239 -0.05340652 0.0012070513 -0.15237665 0.038188912 0.0450049 -0.08772309 -0.023401655 -0.029914351 -0.07432592 0.017933132 0.003503255 -0.05153086 -0.009993601 -0.006051644 0.037010293 -0.012756156 0.0783826 -0.037463162 0.0019566887 -0.08215716 0.018363852 -0.13839015 0.06093033 -0.055651076 -0.16816957 0.09751735 -0.056618787 -0.02432169 0.089435235 -0.03693315 0.08838283 0.0010905693 -0.030405747 -0.020390222 -0.026111439 -0.007870176 0.0393795 0.014672084 -0.110180706 0.04941887 -0.032248486 0.04300268 -0.047840435 0.08011943 -0.07502424 -0.089570574 -0.012317535 0.0054927277 -0.05435968 0.052579544 -0.04586505 0.10154013
沈腾 0.088261664 0.11618539 -0.10211448 -0.11381645 0.107332654 -0.21396099 -0.04995462 0.06372068 0.28550544 0.032444667 0.099899106 0.10018213 0.015287753 0.048384618 -0.03362727 0.03917897 0.03950197 -0.17268337 -0.0063963733 -0.09938634 0.024411436 -0.105875246 0.058921237 -0.09923329 -0.16105445 -0.1310435 -0.09906786 -0.19544029 0.09150993 -0.07360682 -0.0922585 -0.18702333 0.06983375 -0.24185587 -0.07083232 -0.111597344 0.033223666 -0.13716036 -0.21135363 0.07320538 -0.0044367155 -0.17905913 0.019702999 -0.1981872 -0.018436272 0.14002803 -0.1534165 0.034826066 0.03815925 -0.16152473 -0.027063671 -0.06431388 -0.1121444 -0.0040795123 0.032211397 -0.018890444 0.013962469 -0.055210933 -0.013336052 0.04748073 0.013746843 0.10298327 0.08508557 -0.043047108 -0.0025463973 -0.0026911173 0.059089184 0.23168348 -0.03936865 -0.26676252 -0.073519446 -0.2002861 0.075785376 0.029111449 -0.019787554 0.21057317 -0.036025874 -0.030050024 0.0765851 -0.1354432 0.1294066 0.030231122 -0.1309194 -0.1002102 -0.083432965 0.049542364 -0.04587158 -0.10731165 -0.25388032 -0.15220745 0.16019167 0.011423541 0.12726489 -0.14457159 0.065810196 0.1752752 0.07774791 -0.11025859 -0.038244028 0.07174868 0.0384094 -0.054096192 -0.07335211 -0.07218411 0.14268756 0.08560311 -0.040566854 -0.04678062 -0.088321894 -0.14710647 -0.0033415135 0.15260948 0.06949967 -0.070284985 0.015771518 -0.08000025 0.18224363 -0.102117375 -0.041100193 0.037270606 0.005667285 0.24761653 0.013046129 0.0757513 0.0363612 0.0414335 -0.042632483 -0.11067223 -0.22334953 0.1056962 -0.016196078 0.060383666 -0.01432835 0.033003557 -0.043608572 0.0029721546 0.15048747 0.09720047 -0.078349344 0.01853311 -0.22776185 0.24232857 0.04868128 0.13643984 0.24786802 0.02894784 -0.1773077 0.04768031 -0.01288671 -0.0022084212 -0.10104402 -0.01230538 -0.10407721 0.0114158755 0.10777486 0.0028211693 -0.019972535 -0.043858342 0.03268605 -0.18098064 0.109139584 -0.27708572 0.12178773 0.007603068 -0.116516985 0.19319463 -0.06618535 0.15639253 -0.053327743 0.011205356 0.00872248 -0.06974278 -0.099203885 -0.25445735 0.07409435 0.06794069 -0.20880175 0.2836174 0.05581457 0.123414025 -0.23872207 -0.16000551 0.030297417 0.105911866 0.068508826 -0.10483172 0.2164748 -0.020573752 0.005893118 0.03773942 0.026836384 -0.12608276 -0.015469161 0.024178592 0.11222657 -0.09457869 -0.09584027 -0.05607426 0.0149388835 -0.16195546 -0.14424266 0.017536484 -0.1816562 0.26788792 0.077122584 0.116635084 0.20764172 0.04956366 0.0517877 0.23531547 0.028494157 0.21411504 -0.12108069 0.16025689 0.016950732 -0.006602125 0.1600102 0.26542398 -0.11917767 0.118730724 0.049610488 0.10456721 0.07501607 0.052590087 0.14423375 0.14809349 -0.006034132 0.13878167 0.09189476 -0.17915232 0.1337388 0.26419017 -0.15240057 -0.04404045 -0.100467436 -0.116169915 -0.14815049 -0.092247926 -0.20043191 0.07597648 0.04376265 0.0044620256 0.1084665 0.16409358 -0.18143374 0.092858516 0.07136864 0.029931435 -0.10891766 0.006260752 -0.2940242 0.06903359 0.08911376 -0.16684532 -0.04076811 -0.053393137 -0.14296894 0.03158763 0.007202968 -0.09999708 -0.023822663 -0.008911881 0.07295182 -0.022152489 0.15106106 -0.07432687 0.0027101396 -0.1586063 0.041540295 -0.26807117 0.120598905 -0.10504263 -0.3242202 0.18407749 -0.114985004 -0.04017499 0.17845778 -0.07338263 0.16761675 -0.000436329 -0.066424794 -0.037782412 -0.05001253 -0.017871425 0.07095777 0.023001676 -0.20929608 0.09514421 -0.06565852 0.08955352 -0.08711813 0.1608991 -0.14407636 -0.1669697 -0.0288028 0.007750481 -0.10769617 0.097497836 -0.09153252 0.19523984
死 0.049830724 0.063638195 -0.05666583 -0.06384679 0.057464134 -0.11639602 -0.025966022 0.032104157 0.15702584 0.01603774 0.052182715 0.05542741 0.009604115 0.02547768 -0.018345239 0.019597756 0.022919405 -0.095334046 -0.0023415145 -0.051977716 0.014010698 -0.057565756 0.030318731 -0.052527502 -0.0875379 -0.06784922 -0.05348625 -0.1080991 0.05145781 -0.041183993 -0.04841553 -0.103132576 0.038576063 -0.13096198 -0.037656765 -0.059648767 0.017780144 -0.07703722 -0.11594351 0.04076256 -0.0038739638 -0.097040586 0.011573465 -0.10925485 -0.010084614 0.075566076 -0.08225004 0.020870652 0.02106966 -0.08765891 -0.015622068 -0.033981297 -0.06110097 -0.0029473654 0.016859652 -0.010250108 0.00792023 -0.03069691 -0.005081196 0.026193453 0.0059844824 0.057283286 0.048720837 -0.024406206 -0.0008167861 -0.00039990374 0.03082315 0.12745032 -0.021978822 -0.14390251 -0.04167543 -0.107050985 0.042208374 0.01576349 -0.0103802895 0.11215911 -0.016813468 -0.015666824 0.03974706 -0.07374619 0.067468405 0.017505711 -0.07293674 -0.05561313 -0.04465331 0.028051257 -0.024525933 -0.057442255 -0.13797614 -0.08194952 0.08653235 0.0070955437 0.069331914 -0.07930282 0.035250746 0.09661731 0.042736728 -0.06214683 -0.018806146 0.038626194 0.021971257 -0.027537927 -0.039487798 -0.03698919 0.07511611 0.04522854 -0.023128329 -0.025336053 -0.048107866 -0.080563396 -0.003979698 0.0810393 0.037703 -0.039575182 0.0064605377 -0.043112338 0.10068521 -0.054803554 -0.023089461 0.020042451 0.0032416417 0.13651866 0.0056093135 0.040111817 0.018001383 0.022844972 -0.024424616 -0.061861597 -0.12168766 0.058419738 -0.010219801 0.034687325 -0.005378589 0.017775223 -0.024085356 -0.000253194 0.07931019 0.05244469 -0.044406213 0.009790771 -0.12279918 0.1330319 0.024987258 0.07461689 0.1342606 0.018500853 -0.097849995 0.025684934 -0.0059848507 -0.0019298951 -0.05657312 -0.005852754 -0.055219807 0.0053836186 0.058716625 0.0021095711 -0.010532158 -0.023957701 0.017883047 -0.0955184 0.059176568 -0.14906494 0.066635884 0.005598757 -0.06303161 0.10391277 -0.034711983 0.08535581 -0.02947568 0.0076859826 0.0048074787 -0.038297765 -0.0537494 -0.13934253 0.041251756 0.036754236 -0.11319332 0.15440005 0.030239228 0.067741916 -0.12976465 -0.08585391 0.0155442245 0.05754713 0.035018325 -0.057371806 0.11842601 -0.011207731 0.00443659 0.019469123 0.013732643 -0.06621521 -0.009169162 0.013780438 0.06157896 -0.052812967 -0.05280553 -0.03073543 0.006678578 -0.08848281 -0.08095565 0.009683576 -0.09963997 0.14546724 0.0423285 0.06535187 0.11375319 0.026441019 0.028667666 0.12598467 0.014528476 0.11420741 -0.06609792 0.089067236 0.011781925 -0.0021509205 0.08540601 0.14379127 -0.06609461 0.06587567 0.025793578 0.05687317 0.03912855 0.02855464 0.07863656 0.07945492 -0.0035070726 0.07371109 0.04941872 -0.0984221 0.073777266 0.14390297 -0.08482866 -0.025245417 -0.053568922 -0.061166137 -0.082186356 -0.04956859 -0.10701545 0.042115342 0.021820655 0.00544817 0.05916381 0.09006199 -0.097553685 0.050358765 0.03931728 0.016962916 -0.058565184 0.0030337002 -0.15987244 0.03735776 0.04802878 -0.089602545 -0.024012469 -0.030990556 -0.07677379 0.01815252 0.004828118 -0.054016773 -0.013174528 -0.003971383 0.03975183 -0.011569745 0.081891686 -0.038970795 0.0015797059 -0.08346759 0.021085376 -0.14678906 0.06707349 -0.058203515 -0.17310353 0.09973423 -0.06357786 -0.022523956 0.098312154 -0.04028999 0.089868724 0.0020254853 -0.037749372 -0.021512983 -0.028456021 -0.007452666 0.036451165 0.014293711 -0.11492662 0.05226717 -0.03483138 0.046982195 -0.04934876 0.08630519 -0.07920321 -0.0917071 -0.017469397 0.0021913066 -0.059751455 0.051738136 -0.04906913 0.10701737
泣不成声 0.06480786 0.0866523 -0.074856564 -0.08514984 0.07803389 -0.15936787 -0.03973678 0.04507552 0.20765635 0.02182993 0.075289905 0.071786396 0.010135647 0.03980815 -0.023158692 0.02411365 0.026696084 -0.12226619 -0.0019641768 -0.07322215 0.017378736 -0.0781621 0.04097516 -0.072237365 -0.11473517 -0.098051034 -0.07422411 -0.14522165 0.06982473 -0.05377857 -0.06668554 -0.1388987 0.05316745 -0.1779888 -0.05443219 -0.07847119 0.02489608 -0.104443245 -0.15223253 0.057967614 -0.00160939 -0.1277601 0.013372306 -0.14493546 -0.012172173 0.10634838 -0.116765186 0.024745973 0.031821102 -0.11419775 -0.020186396 -0.04557581 -0.08365389 -0.004701957 0.02635396 -0.011883398 0.009003819 -0.041711766 -0.0069961236 0.03714675 0.011527144 0.0743641 0.064667664 -0.033598468 -0.000983831 -0.0039153025 0.04475024 0.17287068 -0.031423755 -0.19745584 -0.051183138 -0.1429445 0.054209407 0.020694913 -0.016625598 0.15480961 -0.025119966 -0.018782439 0.05080476 -0.10274798 0.091950595 0.025037954 -0.094849 -0.07712867 -0.063935846 0.038178496 -0.033478044 -0.08447711 -0.1874009 -0.112526745 0.122554906 0.007363088 0.09583161 -0.108607955 0.047582384 0.1311791 0.054241087 -0.08292511 -0.029039877 0.050034847 0.028323466 -0.038551934 -0.054703616 -0.05206643 0.10646402 0.06498194 -0.027534485 -0.037959278 -0.06380774 -0.1122347 -0.0026032117 0.10866623 0.04973192 -0.052858464 0.012334717 -0.061070174 0.13663347 -0.07484741 -0.029900197 0.027607977 0.0026506525 0.18597357 0.008115949 0.0591688 0.02252558 0.033840187 -0.029464977 -0.08134883 -0.1619853 0.07752302 -0.014702018 0.046547 -0.013194407 0.023539575 -0.033106767 -0.0023670103 0.11002868 0.06872547 -0.056978896 0.014583334 -0.161181 0.17930388 0.033775534 0.10293482 0.1806856 0.022615973 -0.13030049 0.038061813 -0.0045820666 -0.0021002342 -0.0753114 -0.0120955715 -0.07636541 0.011268317 0.08175124 0.0007040245 -0.016741969 -0.03206278 0.026553057 -0.13544331 0.08185605 -0.20384161 0.09045463 0.005292613 -0.088225104 0.14484902 -0.050242126 0.11613868 -0.039270207 0.009419226 0.008216372 -0.05069076 -0.07007042 -0.18641861 0.056036483 0.051912926 -0.15105735 0.21085851 0.043297656 0.08964266 -0.17610599 -0.11572304 0.025051618 0.080149226 0.050017092 -0.07650016 0.15865053 -0.01458911 0.0021156606 0.031209277 0.018845767 -0.094969 -0.013972672 0.014154494 0.07848644 -0.06936795 -0.06950228 -0.044392105 0.007887498 -0.12394033 -0.10856059 0.013853185 -0.13473791 0.19905162 0.05533472 0.08828936 0.14884144 0.03932943 0.036340352 0.1726763 0.018127725 0.15505494 -0.08867412 0.11565997 0.0120989885 -0.0033725826 0.11909052 0.19448039 -0.088385954 0.08992583 0.037503928 0.072501734 0.05208334 0.042193063 0.10568656 0.11023455 -0.003210174 0.103346616 0.06913182 -0.13115902 0.100394726 0.1954162 -0.111776404 -0.02944022 -0.07693053 -0.08166994 -0.10936494 -0.06622693 -0.1460539 0.059988096 0.03271041 0.006468034 0.08104331 0.117995255 -0.13344039 0.064776294 0.05391066 0.02187502 -0.08087912 0.0016825778 -0.21782519 0.05067155 0.06626841 -0.11968153 -0.03249387 -0.035755742 -0.10482553 0.023649702 0.008849373 -0.07439586 -0.018901354 -0.0072771125 0.05274214 -0.014750166 0.11449222 -0.053467035 0.00415027 -0.11665716 0.029341906 -0.19647509 0.08671636 -0.0796899 -0.23787217 0.13705178 -0.087972715 -0.03075701 0.12922414 -0.056670688 0.120240666 -0.0021785218 -0.047197133 -0.027858477 -0.038651217 -0.014547062 0.049957283 0.020203928 -0.15672499 0.06517324 -0.052867424 0.06511377 -0.06583089 0.118724704 -0.10763928 -0.12255763 -0.019304704 0.0048449878 -0.07677113 0.069873296 -0.07023792 0.1435592
原来 0.05236961 0.07174107 -0.06368412 -0.06836103 0.06536762 -0.13148737 -0.032853983 0.039644953 0.17484218 0.02070471 0.06084909 0.06153272 0.008806632 0.03074076 -0.019778771 0.023541732 0.02551802 -0.10675583 -0.0034235434 -0.06021636 0.015481627 -0.06527676 0.037319362 -0.06097695 -0.09960142 -0.079893835 -0.06159938 -0.12039764 0.057570487 -0.0473919 -0.056309514 -0.11520877 0.04294448 -0.14556551 -0.044742264 -0.06761847 0.022711001 -0.08639307 -0.12818152 0.045267247 -0.0021777058 -0.108439416 0.011563554 -0.12284597 -0.011582551 0.08630844 -0.0930671 0.020733394 0.024150671 -0.09785547 -0.015728062 -0.04094211 -0.067030646 -0.0024444966 0.02032773 -0.012954711 0.010184699 -0.034273192 -0.006462871 0.029701538 0.008005634 0.061018284 0.052978512 -0.025646666 -0.0019388138 -0.0021259785 0.035920158 0.14177538 -0.025589082 -0.16573048 -0.043029867 -0.12164034 0.045383073 0.018439503 -0.011220142 0.12976255 -0.022545226 -0.016726762 0.04593813 -0.084694855 0.07808699 0.020726932 -0.080896094 -0.062188957 -0.052443713 0.032884087 -0.029905763 -0.06543753 -0.15517592 -0.0923779 0.09888265 0.0061127986 0.07925602 -0.0888512 0.0408176 0.10784331 0.047847986 -0.06882426 -0.024008987 0.041526895 0.02253475 -0.03163314 -0.043099746 -0.043544505 0.08763385 0.055199005 -0.02462926 -0.028850626 -0.05395681 -0.09188112 -0.0035811693 0.090724714 0.042869717 -0.043940067 0.00811129 -0.04943784 0.113156974 -0.06208645 -0.026637292 0.024198707 0.0031818317 0.15369298 0.009405649 0.04640083 0.02051689 0.026031017 -0.025966186 -0.06811642 -0.13456397 0.062104452 -0.010033252 0.037666254 -0.009970193 0.019285068 -0.026627386 0.0010566354 0.09117518 0.05893291 -0.04812299 0.011415937 -0.13773769 0.15039007 0.03062292 0.085204154 0.14936455 0.018061334 -0.11048084 0.029350193 -0.0079458775 -0.0024450363 -0.06443358 -0.007753782 -0.06450668 0.006398157 0.06749636 0.0020972888 -0.013525457 -0.024306415 0.020902026 -0.11063015 0.06891925 -0.17087008 0.07561538 0.00288068 -0.07023124 0.12057162 -0.04014059 0.09773028 -0.032234948 0.009008718 0.0057141045 -0.043064464 -0.059937827 -0.15549272 0.045262378 0.041414432 -0.12677145 0.17312314 0.035068005 0.07758126 -0.14429842 -0.09683971 0.019105308 0.06609949 0.041891698 -0.06396381 0.13420194 -0.011025249 0.0012202252 0.022103442 0.015064005 -0.076589175 -0.010080407 0.014794745 0.069280624 -0.06007896 -0.058067583 -0.03489235 0.006476862 -0.10243351 -0.089440815 0.008868835 -0.11038417 0.16604419 0.047227714 0.07280427 0.12668613 0.0318722 0.030852096 0.14338346 0.01644717 0.12971635 -0.07313994 0.09889302 0.010504596 -0.0033887061 0.09830453 0.16383497 -0.072046004 0.072151005 0.031310946 0.0638746 0.045234423 0.03406516 0.08945035 0.092391975 -0.0030354254 0.084027596 0.058240805 -0.11082234 0.08034968 0.16163947 -0.09570157 -0.028298795 -0.06209945 -0.06873643 -0.09214655 -0.056718417 -0.12142961 0.04686048 0.02549544 0.0049224016 0.0677609 0.101445496 -0.11168079 0.05592376 0.043396767 0.020704659 -0.0678281 0.0038839926 -0.18171485 0.042953342 0.056071084 -0.10331397 -0.024306845 -0.031454306 -0.086777285 0.019276459 0.0062340507 -0.05981724 -0.01592207 -0.004048766 0.044316202 -0.013110789 0.09420813 -0.046847202 0.003243401 -0.09846536 0.025859928 -0.16550322 0.0747862 -0.06427284 -0.19675933 0.11287855 -0.06972833 -0.027412212 0.108787626 -0.044603195 0.10278109 0.0017004882 -0.041280463 -0.022720605 -0.031648498 -0.0117519 0.044105016 0.013618433 -0.12820993 0.055842582 -0.041263778 0.053257894 -0.054417886 0.097325966 -0.08932951 -0.10140573 -0.016702214 0.0044770306 -0.064559095 0.060971558 -0.054676883 0.118119374
看 0.07701818 0.10246308 -0.08901914 -0.101272896 0.09307277 -0.18761234 -0.046558224 0.053860128 0.2520555 0.027642298 0.08737963 0.08630948 0.015227704 0.042729106 -0.029628238 0.033429295 0.036605828 -0.1530901 -0.0034588096 -0.08729999 0.021884887 -0.09117214 0.050014596 -0.0870086 -0.13990475 -0.1134901 -0.08855133 -0.17278749 0.08096032 -0.06674516 -0.08084477 -0.1642593 0.06300936 -0.21305692 -0.06277893 -0.09797457 0.029942678 -0.12156402 -0.18349102 0.064571336 -0.005701558 -0.15872473 0.016964843 -0.17635962 -0.015897345 0.122789375 -0.13579129 0.031177763 0.035689447 -0.1392549 -0.026415467 -0.05542556 -0.09790068 -0.0059559434 0.029635737 -0.015977254 0.012946196 -0.051049523 -0.009478055 0.03842329 0.009330825 0.08930458 0.075689785 -0.037537962 -0.0024159632 -0.0038261109 0.053355873 0.20549054 -0.034603853 -0.23535961 -0.0662007 -0.17400089 0.0686639 0.025698453 -0.015020876 0.18466605 -0.029211968 -0.026272334 0.06675158 -0.120475866 0.11215204 0.027064027 -0.116480835 -0.08854457 -0.07523859 0.04580338 -0.038543005 -0.09428182 -0.22254159 -0.13367482 0.1422476 0.012593648 0.11148741 -0.12995447 0.059783243 0.15549016 0.067076504 -0.099592455 -0.03317852 0.06150743 0.033578385 -0.04647584 -0.0642737 -0.06378893 0.12259764 0.07573675 -0.03762065 -0.040467873 -0.07562799 -0.13093354 -0.004439428 0.13452603 0.060909707 -0.06292395 0.011976972 -0.07092544 0.1604407 -0.08909145 -0.03577934 0.031428277 0.006786288 0.21913095 0.011675851 0.06574397 0.031821944 0.03609408 -0.038338352 -0.09567936 -0.19538355 0.08961969 -0.015197694 0.053522855 -0.010451808 0.028445663 -0.039883878 0.0022721908 0.13194254 0.08492751 -0.06964274 0.015571333 -0.19748302 0.2145442 0.042713303 0.11985402 0.21702993 0.026287911 -0.1567738 0.044389036 -0.0097848 -0.0015091001 -0.091172114 -0.009954 -0.09069415 0.010752802 0.09607986 0.002212252 -0.01973486 -0.037929174 0.027448729 -0.15904967 0.09738448 -0.24239366 0.10519423 0.0061916406 -0.10388558 0.16869017 -0.05873199 0.13880222 -0.0475834 0.010466471 0.008184029 -0.060382865 -0.084316984 -0.2227514 0.063768856 0.059656803 -0.1846585 0.24707979 0.05082455 0.10772571 -0.20785992 -0.14061087 0.027146995 0.093503475 0.059392344 -0.0920347 0.19142559 -0.01534434 0.004615585 0.031728633 0.024972731 -0.10941343 -0.013566086 0.019288972 0.09634671 -0.08319889 -0.08438164 -0.049149018 0.010130705 -0.1420359 -0.12790065 0.014826644 -0.1580105 0.23745814 0.069021344 0.10313402 0.18252113 0.04147585 0.046532243 0.20645463 0.026046697 0.18915826 -0.10751086 0.14041941 0.01665665 -0.005470319 0.13849905 0.23296961 -0.10402521 0.1055636 0.042893313 0.09100251 0.065853335 0.046970278 0.12432974 0.1315153 -0.0050289277 0.1192998 0.08399941 -0.15664668 0.11824332 0.23196656 -0.13557401 -0.0405265 -0.08866119 -0.10106673 -0.12908691 -0.07833997 -0.17632914 0.06956854 0.038717184 0.0046933405 0.096232876 0.14571649 -0.16186236 0.08111391 0.06284899 0.027892288 -0.09614472 0.005232611 -0.25846222 0.058917865 0.07987259 -0.14697032 -0.03632972 -0.04779558 -0.12561846 0.02618472 0.008722936 -0.08908028 -0.021777898 -0.005768601 0.06243746 -0.02000174 0.13322732 -0.06400277 0.003058801 -0.1395184 0.03755958 -0.23704714 0.10672389 -0.09439975 -0.28408957 0.15999578 -0.10286311 -0.03529586 0.15916492 -0.065467924 0.14542516 -8.9954476e-05 -0.05969097 -0.03299761 -0.043257292 -0.01555165 0.061919693 0.020826176 -0.1872713 0.08287994 -0.057260547 0.07846476 -0.075814106 0.1414489 -0.12786613 -0.14711769 -0.024966324 0.008014354 -0.09426315 0.0861533 -0.080830336 0.16851696
没有 0.07716796 0.10271256 -0.08937485 -0.09731176 0.09334234 -0.18484752 -0.044495363 0.05420751 0.24556671 0.02749904 0.084777184 0.0870815 0.015006204 0.045192663 -0.026157206 0.03148911 0.03291901 -0.15017498 -0.0057938686 -0.08399536 0.022198271 -0.09071964 0.052216053 -0.084966354 -0.13666062 -0.1121658 -0.08659285 -0.16859037 0.07837461 -0.06563824 -0.0775308 -0.16093458 0.06007221 -0.2073573 -0.06370505 -0.09359313 0.02908077 -0.11880093 -0.18108653 0.062742814 -0.0030200311 -0.15501033 0.017172853 -0.17120293 -0.014063075 0.1232501 -0.13356555 0.029040178 0.036381252 -0.13939707 -0.023526372 -0.055935707 -0.09725365 -0.006493534 0.030034328 -0.01545522 0.013426811 -0.048842624 -0.010056024 0.040612303 0.012067912 0.089520454 0.07514845 -0.039273027 -0.0010578621 -0.0022419812 0.05157483 0.20314594 -0.035570122 -0.2330845 -0.061910417 -0.1740053 0.06601999 0.023592142 -0.015196115 0.18350156 -0.028586682 -0.026152207 0.06282221 -0.11937528 0.1107593 0.02806945 -0.112449616 -0.08748275 -0.07539195 0.044311345 -0.041104328 -0.09469019 -0.2206 -0.13166985 0.13969097 0.012399065 0.11036468 -0.12752074 0.05886385 0.15255669 0.06770927 -0.09833077 -0.03356778 0.06102161 0.033408485 -0.045643713 -0.063200854 -0.06117067 0.12392827 0.07593333 -0.036836483 -0.042141244 -0.07415373 -0.1293587 -0.005726069 0.13080944 0.05975432 -0.062384084 0.014744982 -0.07132612 0.15931271 -0.08913585 -0.035649016 0.031235794 0.005675946 0.21555308 0.012315972 0.06660855 0.031545337 0.037641723 -0.038183462 -0.094710454 -0.1932591 0.089692555 -0.0140755875 0.053055305 -0.012496085 0.029140936 -0.03756107 0.0023900194 0.12953417 0.08386915 -0.06801353 0.015151167 -0.1935061 0.21011429 0.041987743 0.118836135 0.21464358 0.026478484 -0.15453084 0.04122044 -0.010094993 -0.0025076056 -0.08767253 -0.011117748 -0.089716926 0.011253629 0.095633395 0.0017059584 -0.017694317 -0.03585243 0.027506262 -0.15487374 0.094267264 -0.24012522 0.10558449 0.0067302254 -0.10201551 0.16895679 -0.058487788 0.13669431 -0.046528917 0.010522089 0.0070147556 -0.060141973 -0.08418539 -0.22152059 0.06360148 0.060364228 -0.18021345 0.24548185 0.0514424 0.10919016 -0.20553604 -0.13699287 0.025938269 0.09114013 0.05864137 -0.09061232 0.19013663 -0.018320505 0.0032226762 0.031990442 0.02393707 -0.10919125 -0.01638851 0.018309195 0.09635481 -0.08169102 -0.08367308 -0.05236056 0.01194957 -0.14315334 -0.125613 0.015180001 -0.15597484 0.23229288 0.06832314 0.10239874 0.17892605 0.044652946 0.043400798 0.20210655 0.025133412 0.18617882 -0.104330875 0.13954869 0.015908781 -0.0034675268 0.13794129 0.23073822 -0.10450738 0.10260424 0.04413985 0.08970045 0.063818045 0.046228662 0.12544398 0.13065523 -0.004514279 0.11922954 0.08257926 -0.1570316 0.11492936 0.2298221 -0.13505052 -0.03708464 -0.08682504 -0.099363364 -0.1275104 -0.07982717 -0.17287676 0.067289874 0.036166616 0.003513424 0.09391302 0.14222345 -0.15710066 0.07910301 0.06282645 0.028109306 -0.09388462 0.0044657136 -0.25736147 0.058718372 0.078665935 -0.14367563 -0.037474938 -0.04655174 -0.123823255 0.02824275 0.0061022486 -0.08799807 -0.022765934 -0.008171681 0.062177006 -0.021560825 0.13332108 -0.06538202 0.0028238087 -0.13745017 0.03393632 -0.23405884 0.105873786 -0.0930528 -0.27895355 0.15896048 -0.101513095 -0.03689168 0.15498784 -0.06554544 0.14383106 -0.0009429626 -0.055956643 -0.033440486 -0.044832554 -0.015692301 0.060812604 0.023000412 -0.18252465 0.08105889 -0.058597703 0.07804846 -0.07569676 0.13766672 -0.12609518 -0.14397667 -0.024807885 0.0058604074 -0.09175024 0.08203772 -0.07979684 0.16911466
第一次 0.037066866 0.05256803 -0.04656231 -0.052630655 0.045381013 -0.094998546 -0.024078008 0.029692415 0.12939592 0.016176274 0.042781744 0.046276804 0.008094097 0.021553345 -0.015393008 0.015665766 0.019471131 -0.07929569 -0.0017453268 -0.04433642 0.009903265 -0.045167524 0.027502265 -0.043310754 -0.071757816 -0.05818949 -0.042736672 -0.0865382 0.04261262 -0.032416407 -0.040340334 -0.08397394 0.031361002 -0.106868714 -0.033411354 -0.049955856 0.014824876 -0.060747452 -0.095207155 0.03145781 -0.0035912266 -0.08079996 0.010740442 -0.08945945 -0.007635007 0.06390886 -0.07104684 0.013448711 0.017224254 -0.07316164 -0.013596709 -0.027206862 -0.049986374 -0.00429482 0.014183901 -0.009494004 0.008297654 -0.026471753 -0.007477807 0.018899893 0.0072868457 0.045907672 0.037554443 -0.019466529 -0.0025848174 -0.000462842 0.02608984 0.101436555 -0.017606629 -0.12087924 -0.03133394 -0.09067113 0.03406886 0.011448437 -0.010014257 0.09445711 -0.015449548 -0.014053635 0.031157037 -0.05974739 0.057880476 0.012598152 -0.05713407 -0.045424376 -0.03692562 0.022079306 -0.022464396 -0.04808563 -0.1125824 -0.06944946 0.07357895 0.0049174754 0.05676365 -0.06528485 0.032177873 0.08009014 0.033589948 -0.052142207 -0.017148612 0.029355146 0.014234414 -0.024187908 -0.030671455 -0.033185277 0.061649878 0.041358594 -0.020134347 -0.02081986 -0.038153004 -0.065916054 -0.0032274504 0.06763659 0.03207665 -0.03371697 0.005570822 -0.03472919 0.08353183 -0.043880995 -0.019379105 0.016515926 0.0009000454 0.10955406 0.0072389035 0.034487225 0.01517897 0.016502336 -0.016594183 -0.05016441 -0.09944879 0.044884484 -0.0049511124 0.026029248 -0.0055797533 0.016242713 -0.020046756 -0.00079269026 0.06654254 0.040947884 -0.033806592 0.007378197 -0.09990827 0.11003524 0.020507168 0.06275949 0.10815278 0.015244248 -0.081569456 0.020554256 -0.005066543 0.00050633994 -0.04462237 -0.0068834163 -0.047826674 0.0053875204 0.048011445 -7.2972056e-05 -0.007834477 -0.018473634 0.016428195 -0.08053867 0.04702154 -0.12559202 0.052317783 0.0035452046 -0.054656506 0.08634993 -0.030360831 0.07231647 -0.023751827 0.0045932536 0.0028536683 -0.03294431 -0.044665713 -0.11566427 0.034372684 0.032240145 -0.09392189 0.1279629 0.023497626 0.05782159 -0.1072483 -0.07329402 0.012383892 0.0466178 0.031723738 -0.048338395 0.100381084 -0.009530461 0.0022811585 0.019010965 0.009889165 -0.05608524 -0.0052660783 0.012287833 0.049410224 -0.04258083 -0.04175823 -0.02703691 0.007784397 -0.073050916 -0.06479111 0.006005313 -0.080835566 0.121168464 0.032745358 0.053292587 0.09221269 0.022086713 0.024187434 0.10366118 0.012193064 0.09337684 -0.05558101 0.07319932 0.0078751 -0.0021345757 0.06941746 0.11960891 -0.052691847 0.055121664 0.022630094 0.04447969 0.031280547 0.022735856 0.064721234 0.06504005 -0.0034166365 0.06218879 0.04315591 -0.08204853 0.061391737 0.117550336 -0.06733433 -0.020519624 -0.04662718 -0.048616 -0.06568736 -0.040977735 -0.088271424 0.035494685 0.020812886 0.004494297 0.048838407 0.073041536 -0.08137951 0.040785156 0.03218958 0.01406043 -0.04908038 0.0037147086 -0.13374747 0.031463988 0.039224464 -0.07505314 -0.017716978 -0.025488356 -0.06327969 0.015464773 0.004785688 -0.04265617 -0.009920682 -0.0019348585 0.030062195 -0.009144227 0.070394 -0.032673057 0.0020110994 -0.0707591 0.017272359 -0.119858265 0.052714385 -0.048377246 -0.1450863 0.08243295 -0.050111745 -0.018833058 0.08139131 -0.03363123 0.07533334 0.0016556638 -0.02994998 -0.014850318 -0.023472542 -0.0054940055 0.033520572 0.009993457 -0.09308795 0.04204041 -0.032331258 0.0408637 -0.041336946 0.07354577 -0.0638955 -0.075627975 -0.013490394 0.0020660523 -0.047457363 0.045489512 -0.041496392 0.086053774
呲牙 0.059538107 0.081368364 -0.07247011 -0.077849306 0.07681653 -0.14603385 -0.036655482 0.043019295 0.19556944 0.021433799 0.070215136 0.066163 0.009183748 0.03278026 -0.024453804 0.026068361 0.029852202 -0.121653736 -0.0026154574 -0.067130715 0.019287176 -0.0711207 0.03847054 -0.068325035 -0.111215636 -0.08939868 -0.0706855 -0.13390492 0.06642687 -0.05218216 -0.060669977 -0.13187684 0.0493035 -0.16401501 -0.0519443 -0.07721218 0.021671714 -0.09549849 -0.14780052 0.05287593 -0.0024150314 -0.12406803 0.015097117 -0.14179225 -0.011173963 0.09635566 -0.10874535 0.026091317 0.02776554 -0.11113096 -0.02013847 -0.043231696 -0.07885589 -0.0053249486 0.022049839 -0.014432441 0.010782842 -0.040876865 -0.006242827 0.034093563 0.0064979643 0.072185 0.058421277 -0.03315267 -0.0011660146 -0.00019860048 0.043622598 0.16063836 -0.02535489 -0.18775652 -0.052079074 -0.13675258 0.056162193 0.019963035 -0.009892934 0.14558202 -0.024391446 -0.021267511 0.054481134 -0.09561142 0.0897211 0.020782815 -0.091952644 -0.07142081 -0.057707954 0.033371802 -0.029045453 -0.07623163 -0.17662011 -0.10314708 0.111920625 0.005076668 0.08706796 -0.10294593 0.046439033 0.12149718 0.05154495 -0.080342725 -0.025527984 0.05044762 0.023040727 -0.034889374 -0.050399538 -0.050095446 0.097021304 0.05849942 -0.026663477 -0.03131472 -0.060223468 -0.10129888 -0.0006246361 0.10479456 0.04609733 -0.04917832 0.008174746 -0.054673538 0.1278081 -0.07375245 -0.025965216 0.02754781 0.0070277923 0.17261365 0.012091062 0.052398533 0.024154857 0.03038783 -0.028331418 -0.07398182 -0.15216573 0.06897425 -0.01147445 0.041539796 -0.010239859 0.024164837 -0.027966741 0.000118551754 0.1060337 0.06618536 -0.054757155 0.014759593 -0.15869197 0.1683043 0.036314245 0.09850025 0.17231697 0.023431087 -0.124347396 0.032571677 -0.0051902966 -0.0022174455 -0.06994163 -0.0064801103 -0.06874299 0.00691442 0.07728198 0.00101509 -0.018032527 -0.028135197 0.026326468 -0.122926176 0.0754068 -0.19013946 0.086724125 0.002564574 -0.08183902 0.13582008 -0.045568466 0.10847319 -0.035700522 0.011574672 0.006577718 -0.048823923 -0.07019747 -0.17556733 0.05123813 0.048211448 -0.14593115 0.19616038 0.038740892 0.086170696 -0.16627778 -0.1100839 0.022952976 0.07442318 0.04657326 -0.06951247 0.15240522 -0.009993616 0.0053902804 0.028237836 0.020410236 -0.08694855 -0.012628216 0.014230712 0.079258524 -0.06678443 -0.06553359 -0.03708395 0.0072831716 -0.115494564 -0.10089545 0.0140960915 -0.12430819 0.18785712 0.05273435 0.07995181 0.1451009 0.03270214 0.035871126 0.16531588 0.01990232 0.14840998 -0.08562665 0.10995606 0.011293921 -0.001144882 0.10726991 0.18230207 -0.081604026 0.08142618 0.033205774 0.07271015 0.05316622 0.036513735 0.09635195 0.103458285 -0.0010988949 0.09628933 0.06461045 -0.127291 0.09502681 0.18547049 -0.107944086 -0.031230018 -0.06888432 -0.076191455 -0.105708204 -0.061888367 -0.13942954 0.055212833 0.026744528 0.0032195542 0.078580275 0.11556975 -0.12830354 0.062664665 0.051736202 0.024440447 -0.0727881 0.0045467108 -0.2063833 0.04436027 0.061273877 -0.11634684 -0.030544205 -0.03571126 -0.09796152 0.018919265 0.0046379785 -0.06785117 -0.020423116 -0.0036094456 0.04901335 -0.016427685 0.10898868 -0.048885092 0.004566031 -0.10678971 0.02999395 -0.18847102 0.08560325 -0.0768132 -0.22663012 0.12559475 -0.08110681 -0.029635271 0.12495872 -0.054560162 0.1168479 -0.00065031194 -0.044154786 -0.022969488 -0.03583627 -0.012132828 0.050703015 0.013957273 -0.1498948 0.06650083 -0.047394715 0.065083236 -0.061296638 0.112943605 -0.10227735 -0.11694335 -0.019904016 0.007079031 -0.0730857 0.06608049 -0.06361702 0.13385639
笑哭 0.05701578 0.073957995 -0.06597848 -0.075243175 0.0695536 -0.1350979 -0.03352499 0.040308192 0.18479185 0.020748753 0.060447473 0.06301064 0.008963795 0.0342349 -0.017631037 0.025556423 0.02647952 -0.10942171 -0.00056270265 -0.0638424 0.017075073 -0.06567708 0.03536921 -0.06481837 -0.100027874 -0.08196862 -0.06367757 -0.12504698 0.057875488 -0.04843937 -0.059124615 -0.118509814 0.04752725 -0.15378444 -0.044571318 -0.069421165 0.023700813 -0.08768357 -0.13315155 0.049559783 -0.0009908823 -0.11250603 0.011217585 -0.12954816 -0.013107626 0.08800792 -0.09941729 0.023087053 0.02716114 -0.10435429 -0.019725794 -0.04099334 -0.07202451 -0.0058332267 0.022500003 -0.013214219 0.009598493 -0.036353916 -0.0055506304 0.028349001 0.008141665 0.065025225 0.0575437 -0.02828081 -0.0018859262 -0.0016727848 0.036578897 0.15073934 -0.025626004 -0.17141397 -0.045059286 -0.12702596 0.050966438 0.01894171 -0.013590276 0.13358216 -0.025056556 -0.018331885 0.049717043 -0.088635586 0.08103172 0.017877612 -0.082381405 -0.067573406 -0.05731791 0.031600267 -0.028644055 -0.068049796 -0.1621993 -0.099881016 0.104744524 0.0074639046 0.080358915 -0.09405461 0.04394958 0.11355094 0.049524587 -0.07194531 -0.026227057 0.044256862 0.02550958 -0.03564108 -0.0428661 -0.04704284 0.0884296 0.05630224 -0.028223643 -0.03188261 -0.05380976 -0.093891375 -0.0025058312 0.09643221 0.046365857 -0.045466434 0.012002268 -0.053133074 0.11837219 -0.06782139 -0.028480336 0.023645092 0.006443331 0.16161041 0.006847881 0.04886345 0.020268196 0.028855665 -0.027524425 -0.06822448 -0.14317776 0.067264564 -0.012074832 0.03968588 -0.0074926396 0.022115365 -0.027226456 -6.631659e-05 0.095822684 0.063415505 -0.049004704 0.015078281 -0.14537337 0.15677564 0.032007944 0.09093975 0.15827408 0.021548016 -0.11597838 0.033602335 -0.007880286 -0.0030678986 -0.06765719 -0.0071390173 -0.06646666 0.009561492 0.06885417 0.003009386 -0.016018543 -0.028830621 0.024070688 -0.11699617 0.07290908 -0.17781188 0.08025008 0.006750831 -0.0776143 0.12376347 -0.042401228 0.102383755 -0.034642633 0.010376214 0.008384088 -0.046824653 -0.06302952 -0.16087624 0.046157163 0.045622576 -0.13025515 0.17934342 0.03688224 0.07852418 -0.15370773 -0.10251783 0.019885551 0.07003802 0.04380317 -0.067276895 0.14256345 -0.01112272 0.00041100796 0.02355975 0.015934087 -0.078711756 -0.010199544 0.012984533 0.070154995 -0.060005832 -0.059295513 -0.035392772 0.010838436 -0.10258765 -0.09217316 0.009092019 -0.113775514 0.17500599 0.047604922 0.07550123 0.13189286 0.032573424 0.035019886 0.149848 0.02022303 0.13489886 -0.08054376 0.103634745 0.01030643 -0.0026091703 0.10378448 0.17123756 -0.07834162 0.0757059 0.029856352 0.06598344 0.04530948 0.033644173 0.091384135 0.0963713 -0.005355136 0.08876081 0.060016423 -0.11622203 0.08467496 0.17125112 -0.096926525 -0.027723473 -0.06386202 -0.0723705 -0.09542378 -0.056660596 -0.1260635 0.0514016 0.025683934 0.003312131 0.06964432 0.104566395 -0.11942018 0.05917584 0.04568776 0.02234864 -0.06966779 0.0013702282 -0.1908849 0.04391202 0.058098685 -0.10712757 -0.029343463 -0.03346438 -0.09079221 0.018916491 0.0066871378 -0.06154743 -0.018029952 -0.0049607633 0.04466542 -0.015046985 0.09922462 -0.05027277 0.0027848245 -0.10029026 0.027341628 -0.17159173 0.07955829 -0.06968719 -0.20774464 0.11942508 -0.075297795 -0.02906036 0.112622 -0.0502828 0.106712066 0.0013013154 -0.04222073 -0.02256505 -0.032757457 -0.012537637 0.04312272 0.013978391 -0.13475859 0.062225617 -0.04189549 0.056386776 -0.057341065 0.10006112 -0.0921125 -0.10597957 -0.017457113 0.0025627255 -0.0705997 0.061616298 -0.05648651 0.12327806
好 0.0756903 0.1029296 -0.08728025 -0.09690875 0.090465076 -0.18428467 -0.044210557 0.05298406 0.24673867 0.027225323 0.08506912 0.08477619 0.015285114 0.043206934 -0.027593635 0.031182198 0.036069226 -0.14624105 -0.00294739 -0.08449801 0.020398133 -0.09154421 0.04847048 -0.08291022 -0.13790256 -0.1117158 -0.08589741 -0.16659307 0.07824274 -0.06536575 -0.078158 -0.1623118 0.0619892 -0.20575877 -0.061723024 -0.09297177 0.03117905 -0.11942111 -0.17970239 0.06303256 -0.004351967 -0.15490365 0.01564474 -0.17011859 -0.014332345 0.12177754 -0.13286904 0.031070575 0.035535954 -0.13655598 -0.026226401 -0.056395516 -0.09394711 -0.0056054643 0.029228467 -0.016347341 0.011543397 -0.05015616 -0.010264744 0.03884968 0.009912901 0.088702396 0.07605148 -0.03872291 -0.0013596595 -0.003063392 0.05060408 0.19855648 -0.036436707 -0.2283802 -0.06331325 -0.17265639 0.06443067 0.025415624 -0.01737583 0.18069799 -0.028264053 -0.027419213 0.062070064 -0.118384406 0.111381546 0.027143387 -0.11351056 -0.08678361 -0.073931925 0.043654617 -0.041030303 -0.093876295 -0.21709791 -0.12943812 0.14028765 0.011208257 0.109727405 -0.12705468 0.05945059 0.14937598 0.06591286 -0.09462091 -0.03100795 0.05884314 0.032565754 -0.045422863 -0.06222445 -0.061910145 0.121441424 0.075890504 -0.03561502 -0.04059977 -0.0755718 -0.12687811 -0.0049950583 0.13023315 0.059889726 -0.06111751 0.01159982 -0.06873684 0.15534192 -0.086325936 -0.035882585 0.033869017 0.005746779 0.21208611 0.01153292 0.06351908 0.029731788 0.035464145 -0.03654827 -0.096699715 -0.1899781 0.09045589 -0.014816921 0.052754518 -0.011972449 0.02883369 -0.036777817 0.0021317138 0.1280939 0.081015736 -0.06871547 0.016960518 -0.19496867 0.20783928 0.043419413 0.117692426 0.21034205 0.027538024 -0.1527925 0.043475125 -0.010647379 -0.002188572 -0.08620544 -0.010535597 -0.08819862 0.011660009 0.09291013 3.2795622e-05 -0.018316403 -0.03647055 0.027817171 -0.15612425 0.09323877 -0.23616406 0.104338564 0.006743016 -0.09959105 0.16742995 -0.05718877 0.13613795 -0.044628233 0.010782382 0.009618034 -0.060862403 -0.08362964 -0.21888551 0.065183625 0.05805733 -0.18099207 0.24542174 0.049839985 0.106440954 -0.20371664 -0.13679934 0.0262222 0.08792949 0.059317604 -0.08800699 0.18678322 -0.015647905 0.002597017 0.030508142 0.02345292 -0.10801244 -0.015735336 0.019876307 0.093178205 -0.080798745 -0.081902 -0.050545957 0.013075507 -0.14105064 -0.12561262 0.01321446 -0.15443546 0.23089482 0.06713463 0.10220525 0.17693096 0.040923618 0.04370843 0.20203559 0.024165656 0.1824034 -0.10466929 0.13865064 0.01580613 -0.003972795 0.13714978 0.2290599 -0.10228684 0.10468302 0.0423278 0.08850629 0.061883867 0.044536423 0.122256234 0.12843601 -0.0029768872 0.11912204 0.079021975 -0.1541959 0.11503725 0.22975674 -0.13274243 -0.036802046 -0.08807801 -0.09810314 -0.12853713 -0.07760809 -0.17326847 0.067132585 0.037757676 0.0038022522 0.0930815 0.14115119 -0.15750232 0.07840661 0.0600205 0.027487442 -0.09169471 0.003020151 -0.2529653 0.060242265 0.07621545 -0.14281383 -0.037226774 -0.04598802 -0.12154667 0.028332718 0.006168806 -0.08719216 -0.0230944 -0.009166947 0.061394323 -0.021315338 0.13289149 -0.06287483 0.0041680033 -0.13465838 0.035842117 -0.23141208 0.104501255 -0.0912083 -0.27879137 0.15643537 -0.10120991 -0.035803705 0.15457886 -0.06293751 0.14424399 0.0013339071 -0.057260685 -0.03235195 -0.043250855 -0.0145301595 0.061300788 0.020261751 -0.182756 0.08115019 -0.057907272 0.077001736 -0.07578855 0.13651474 -0.124758065 -0.14253485 -0.023826916 0.006105582 -0.09143111 0.08111042 -0.078308515 0.16659796
见 0.029792203 0.04006456 -0.033185713 -0.0364015 0.035223577 -0.070669 -0.016754195 0.022630367 0.09281644 0.0120788375 0.030583614 0.03428635 0.0033482844 0.01593783 -0.008601267 0.013989454 0.013252261 -0.055871304 -0.0031868145 -0.032674566 0.005972493 -0.034831923 0.020271124 -0.029666211 -0.053243663 -0.04225531 -0.031262174 -0.064042285 0.031542458 -0.02490106 -0.030285563 -0.059521705 0.02442361 -0.078581825 -0.025077907 -0.0353294 0.009372839 -0.04629731 -0.06767929 0.024152093 0.0005197658 -0.057793275 0.0056214635 -0.06489405 -0.004714014 0.045927737 -0.050607167 0.009374136 0.012918583 -0.051622257 -0.007303229 -0.019651515 -0.034394313 -0.0028545721 0.011758464 -0.00777844 0.007013325 -0.017938338 -0.0036600328 0.014187313 0.0051588877 0.0312669 0.026412912 -0.01354665 -0.0020535153 -0.0021382598 0.01921363 0.07484429 -0.013028535 -0.08706469 -0.024936901 -0.06666364 0.023310255 0.007521988 -0.004854466 0.06730977 -0.013406943 -0.007974986 0.023578318 -0.045420915 0.043555036 0.010273166 -0.041915424 -0.032450404 -0.027200796 0.018632885 -0.013503315 -0.03698217 -0.08448183 -0.04969021 0.05480056 0.003580007 0.042533543 -0.048389245 0.0231524 0.056438513 0.023672856 -0.036739133 -0.0137057025 0.022710145 0.011232006 -0.016219355 -0.025100943 -0.024441533 0.04646751 0.029998193 -0.011776788 -0.017206537 -0.028005978 -0.050339382 -2.0949203e-05 0.04849182 0.024160739 -0.02292555 0.004940565 -0.027223142 0.05783243 -0.034696978 -0.013469156 0.011953383 0.0015952232 0.08159017 0.005988943 0.02673067 0.011450488 0.014020938 -0.013242279 -0.03679766 -0.072252646 0.03419051 -0.0063797478 0.019738942 -0.0064876787 0.012749314 -0.014374386 -0.0011120904 0.049512535 0.029769544 -0.026496798 0.004502683 -0.07299484 0.07933908 0.016473169 0.04689045 0.079075016 0.008375388 -0.05923576 0.017994676 -0.004091297 -0.0009715782 -0.035593245 -0.0033953395 -0.035600208 0.0030744409 0.035643455 -0.0011939724 -0.008450721 -0.01268853 0.012432617 -0.06048559 0.03652426 -0.09203054 0.040789623 0.0020784498 -0.037608195 0.06390037 -0.023846913 0.05279754 -0.0154597685 0.0022656457 0.0020653761 -0.022278193 -0.0307931 -0.084464066 0.025652535 0.021047097 -0.06647858 0.09225824 0.017990466 0.0416362 -0.07784876 -0.04974426 0.011651378 0.03539279 0.020430446 -0.035306096 0.07284309 -0.0060003106 0.0032306085 0.014598474 0.00837718 -0.040644795 -0.0044774087 0.008485801 0.034838855 -0.03011335 -0.03309238 -0.02156733 0.004698134 -0.055391863 -0.048850115 0.004092079 -0.060800485 0.08891599 0.026403548 0.03820635 0.065448955 0.016935656 0.016091214 0.07580696 0.010549074 0.06830777 -0.039453458 0.052152507 0.007830766 -0.0034875255 0.049994882 0.086307794 -0.03707811 0.038829077 0.016400637 0.034662507 0.024879873 0.016724374 0.047348816 0.047078688 -0.0035155013 0.043995123 0.032496065 -0.05752403 0.04346233 0.08701328 -0.051289596 -0.015674902 -0.033764567 -0.037012864 -0.04710202 -0.030304251 -0.063727826 0.026786828 0.012470448 0.0021734745 0.03756668 0.053227227 -0.060444504 0.03222746 0.02406193 0.01187787 -0.035328288 0.0026339001 -0.097103514 0.023395255 0.028392281 -0.056047626 -0.012779246 -0.017635612 -0.045448814 0.008672293 0.0026430096 -0.03315063 -0.0075538615 -0.0029028861 0.02174272 -0.008082848 0.051330563 -0.023685517 0.0010473385 -0.05313276 0.014868925 -0.08591484 0.03770712 -0.036752053 -0.107353814 0.06037754 -0.036282632 -0.015126671 0.059713993 -0.025191376 0.054224525 -0.00039360826 -0.022188801 -0.013612487 -0.016017014 -0.0072417357 0.023224091 0.0073211086 -0.06839946 0.030288957 -0.022526862 0.030564329 -0.02854899 0.050294247 -0.0474898 -0.052849848 -0.010478999 0.004078243 -0.032981772 0.031758476 -0.029096693 0.06541405
沙溢 0.0813621 0.108118325 -0.094038844 -0.10354091 0.096715674 -0.19453225 -0.047397356 0.055569813 0.25936612 0.028226594 0.089484744 0.09120595 0.0154674025 0.04585591 -0.028596925 0.036102116 0.0375906 -0.15845162 -0.00470619 -0.09003224 0.023820007 -0.09462492 0.05496668 -0.08807741 -0.1470049 -0.119591035 -0.09059266 -0.1774335 0.083505444 -0.066700645 -0.083605446 -0.17005342 0.065369844 -0.22048238 -0.06665278 -0.100757584 0.029653667 -0.1266664 -0.19232295 0.06828028 -0.0058523403 -0.16450894 0.017948959 -0.18332347 -0.017237887 0.12972566 -0.13983195 0.030651376 0.037765123 -0.1467313 -0.025423814 -0.060571764 -0.1016705 -0.0038246904 0.029756352 -0.016894476 0.014330277 -0.051021613 -0.01172643 0.04044545 0.012769282 0.09277553 0.07861141 -0.04065508 -0.0009056112 -0.0010717697 0.055015467 0.21085683 -0.03497197 -0.24376039 -0.067487426 -0.18166728 0.07034389 0.025742203 -0.015845533 0.19109415 -0.030686183 -0.027910216 0.069545165 -0.12501284 0.1176591 0.026762007 -0.1177203 -0.093752384 -0.079187125 0.04613439 -0.04067878 -0.10004308 -0.23086834 -0.14004472 0.14553711 0.009568851 0.114097625 -0.13266805 0.06183807 0.15836784 0.070825614 -0.10160225 -0.032404788 0.06255534 0.033141665 -0.050396215 -0.06587201 -0.06667466 0.12780142 0.0786726 -0.037307095 -0.044360947 -0.08053829 -0.13567726 -0.004847174 0.13756526 0.06309165 -0.06608987 0.013445619 -0.07418719 0.16663508 -0.09357449 -0.03760875 0.032841347 0.0067083025 0.22490065 0.013879889 0.06761836 0.030626839 0.03751228 -0.037540276 -0.10149774 -0.20316344 0.094101615 -0.014597222 0.055097837 -0.012996834 0.031351645 -0.03891245 0.0016717643 0.1369872 0.08812006 -0.072723694 0.017922997 -0.20724028 0.22218573 0.046078302 0.12593493 0.22618233 0.026730744 -0.16186218 0.04609816 -0.009295123 -0.0043164664 -0.093566336 -0.0111156795 -0.095097736 0.009893066 0.09859621 0.0019858107 -0.018959315 -0.039883595 0.030641515 -0.16505997 0.10012173 -0.25081265 0.1106407 0.0050293133 -0.10620362 0.17597397 -0.05947576 0.14298339 -0.04796061 0.01096255 0.009466835 -0.06270419 -0.09018344 -0.2325942 0.06922245 0.061239913 -0.18939911 0.2570867 0.05295658 0.112756304 -0.21776497 -0.14327577 0.02783309 0.09438765 0.062030517 -0.09495595 0.20007789 -0.016289255 0.0028844692 0.03474396 0.023001552 -0.115807176 -0.014740586 0.022426514 0.099495515 -0.087456785 -0.088546336 -0.051393103 0.013801003 -0.14930825 -0.13292992 0.013859797 -0.16621381 0.24614589 0.06941982 0.10794822 0.18761209 0.045788128 0.04693801 0.2156269 0.026431682 0.19584237 -0.11175332 0.14495513 0.015872993 -0.006854185 0.14581028 0.23986506 -0.108764924 0.10773172 0.04572568 0.093271144 0.068008654 0.049558125 0.12855147 0.13447545 -0.003733473 0.12723523 0.086008176 -0.16247816 0.11914152 0.24296117 -0.13857679 -0.039569944 -0.0934057 -0.10434419 -0.134009 -0.083588906 -0.18235002 0.070590675 0.039687715 0.005222991 0.10134168 0.15013342 -0.16585371 0.08538075 0.06597441 0.026698712 -0.09738335 0.0055045863 -0.27017897 0.060676515 0.08007093 -0.15262702 -0.037919804 -0.048944395 -0.12913544 0.028361589 0.007991178 -0.090062596 -0.021864954 -0.0069133053 0.06692714 -0.020208782 0.14035326 -0.06676961 0.0031337307 -0.14227505 0.03617387 -0.24548586 0.11301365 -0.09735103 -0.29378504 0.16811869 -0.10530738 -0.036860205 0.16211163 -0.069055796 0.15313934 -0.0009970765 -0.059408437 -0.0329185 -0.04554608 -0.016419213 0.06224063 0.020358555 -0.19236436 0.08624466 -0.06259924 0.08321059 -0.08125888 0.14511137 -0.13358822 -0.15255395 -0.023827499 0.0065054568 -0.099258475 0.08730307 -0.08438385 0.17717725
太 0.06322686 0.08068704 -0.07278702 -0.07983512 0.07616527 -0.1496637 -0.035314757 0.04397502 0.19913864 0.022032207 0.069448605 0.06946079 0.011552235 0.033974096 -0.023482641 0.026697507 0.028266873 -0.12110852 -0.0037960352 -0.06808157 0.01779315 -0.072594665 0.041157503 -0.067884296 -0.112546176 -0.09202781 -0.06995927 -0.13703077 0.06404933 -0.053799853 -0.06349443 -0.13097577 0.049885415 -0.16944325 -0.049455225 -0.07788381 0.024326995 -0.09660115 -0.14813344 0.053368263 -0.0027405072 -0.12512667 0.013755856 -0.13975392 -0.010913056 0.10024419 -0.10545667 0.024756882 0.028112892 -0.110351704 -0.02132928 -0.04639277 -0.07874412 -0.0030531418 0.023362419 -0.011675514 0.010448203 -0.040035214 -0.0067900745 0.031621702 0.007947912 0.07347073 0.06032611 -0.030887343 -0.0015771305 -0.0031031473 0.042515136 0.16363746 -0.029732415 -0.18619417 -0.050936155 -0.14110792 0.054195568 0.02009591 -0.011177188 0.14748445 -0.023098746 -0.022251403 0.051230866 -0.0959708 0.08934188 0.020055601 -0.09303884 -0.0727967 -0.058783785 0.03748383 -0.03203677 -0.076954834 -0.17799212 -0.10653639 0.11153681 0.008691701 0.08640852 -0.102655426 0.047984254 0.122213855 0.05532494 -0.07929869 -0.02655949 0.047864757 0.025905993 -0.036380958 -0.051753893 -0.049802303 0.0977116 0.061182145 -0.03003731 -0.03149285 -0.06070627 -0.10242539 -0.0036153924 0.104775146 0.04811249 -0.04892231 0.0109521905 -0.057196468 0.12917104 -0.072054096 -0.028832598 0.025310772 0.0038532135 0.17541386 0.010829322 0.05224224 0.025097406 0.029735966 -0.030095467 -0.07911965 -0.15465476 0.071291976 -0.011301305 0.043344263 -0.008306523 0.022965513 -0.028766489 -0.0001292723 0.105231576 0.06772257 -0.056396995 0.015415271 -0.15936816 0.17223237 0.035607956 0.09510544 0.1727408 0.023191389 -0.12709473 0.03349946 -0.0062723174 -0.00023721166 -0.07215151 -0.010177784 -0.071257316 0.009697978 0.077065796 0.0014358845 -0.016379409 -0.0297643 0.023308372 -0.12729648 0.07748835 -0.1945375 0.0829151 0.0034409764 -0.08195504 0.13421388 -0.04609426 0.10753709 -0.035994794 0.0078536635 0.0053395387 -0.048695777 -0.06637659 -0.17855138 0.053534318 0.049370833 -0.14706399 0.19828612 0.039733198 0.087427765 -0.16470417 -0.109260306 0.022337424 0.0725424 0.04853896 -0.07299251 0.15346311 -0.011559982 0.0033686138 0.025428845 0.018251535 -0.08900523 -0.013740309 0.015411211 0.07643835 -0.06849913 -0.06841451 -0.039049897 0.008732739 -0.11458838 -0.10198197 0.0124138715 -0.1267709 0.18791702 0.05315854 0.08344262 0.14485867 0.035871416 0.03450585 0.1636057 0.018540097 0.15038374 -0.085087165 0.110066734 0.011140352 -0.0048073763 0.11145291 0.18650916 -0.08351877 0.08551597 0.03503262 0.070668325 0.052849155 0.036583617 0.10000269 0.10522572 -0.0038647437 0.09793188 0.064870045 -0.12444226 0.09112338 0.18750621 -0.107005246 -0.032267954 -0.06901465 -0.07820687 -0.10567775 -0.062232967 -0.13915896 0.052653313 0.02854998 0.0032017736 0.07734402 0.112959296 -0.1298033 0.06451303 0.048656795 0.020213334 -0.075107336 0.0051761223 -0.20755279 0.048144408 0.061786953 -0.11831835 -0.028242266 -0.039149746 -0.09938561 0.020992417 0.0042400104 -0.071375154 -0.016765567 -0.0064950734 0.050413348 -0.017751105 0.1089628 -0.051528763 0.0022212367 -0.10863591 0.030408407 -0.18752088 0.08644671 -0.0725137 -0.22666459 0.12691472 -0.080159776 -0.027220335 0.12698151 -0.050371114 0.11564371 0.0005679739 -0.044696447 -0.027043287 -0.03674811 -0.010568538 0.047203634 0.017809536 -0.14753343 0.06689894 -0.04483329 0.06357812 -0.062787 0.11246388 -0.10180963 -0.11830108 -0.019035872 0.006855985 -0.07669758 0.06634364 -0.06382739 0.13692218
人 0.07667531 0.100471005 -0.08738536 -0.097133026 0.09261582 -0.18330447 -0.043736435 0.052786402 0.24593534 0.026843376 0.085645646 0.08465846 0.01240123 0.043889564 -0.029017573 0.03120837 0.03617997 -0.14777438 -0.0043150797 -0.083203316 0.021997124 -0.09101862 0.05125137 -0.08258422 -0.13660711 -0.11116407 -0.08522503 -0.16776076 0.07847791 -0.06542438 -0.07864328 -0.1588135 0.060344536 -0.2053234 -0.06200095 -0.09312951 0.028126523 -0.11693789 -0.17951728 0.06337544 -0.0032171542 -0.15428159 0.01725667 -0.16952994 -0.01652068 0.12178129 -0.13054734 0.031157305 0.032503963 -0.13650422 -0.025297364 -0.055280566 -0.09411996 -0.004382928 0.027132437 -0.016385106 0.013144283 -0.049933583 -0.0115526 0.03789912 0.011720753 0.08683375 0.07504968 -0.03897223 -0.0040672375 -0.003409935 0.050982956 0.20076363 -0.03575249 -0.22654529 -0.06309001 -0.17194985 0.06407174 0.023805942 -0.014881831 0.18043135 -0.029237315 -0.026331788 0.06577591 -0.11800143 0.11004228 0.028002461 -0.110612124 -0.08511495 -0.0720612 0.043107875 -0.039255522 -0.094110824 -0.21428916 -0.1289208 0.13609655 0.009621914 0.10963384 -0.12613194 0.05838954 0.1487933 0.06611091 -0.09599683 -0.03008028 0.06068583 0.030496571 -0.045370914 -0.060325716 -0.062080003 0.122078024 0.07593828 -0.034961153 -0.04103099 -0.07325771 -0.12542684 -0.0054723904 0.12895046 0.059817884 -0.061435472 0.012121961 -0.06928791 0.1543284 -0.088654645 -0.036003385 0.033114146 0.00756155 0.21315749 0.013255305 0.06498275 0.029640676 0.03465751 -0.038292963 -0.0944337 -0.18830416 0.089727215 -0.01382562 0.051057536 -0.010263105 0.028000716 -0.038423162 9.073352e-05 0.12590882 0.083055526 -0.07007781 0.016601592 -0.19453219 0.20866762 0.041078202 0.11524233 0.21299736 0.026526883 -0.15358636 0.04201739 -0.010607265 -0.0025939795 -0.08879608 -0.009271879 -0.08698124 0.008915344 0.09232468 0.0024219598 -0.019505622 -0.03625185 0.02657391 -0.15487246 0.09481168 -0.23744929 0.10413524 0.005426465 -0.1023146 0.16728269 -0.056170955 0.13302012 -0.043765213 0.010675802 0.009000081 -0.058387883 -0.08150052 -0.21553734 0.06501033 0.05833222 -0.17891626 0.24219204 0.047686283 0.10691102 -0.20313531 -0.13544986 0.024349814 0.08950986 0.056651674 -0.088222854 0.18577287 -0.01686491 0.0037592133 0.030295547 0.024534771 -0.10781395 -0.01614309 0.018303402 0.095938385 -0.08078152 -0.08213231 -0.04986136 0.011301353 -0.14107546 -0.1260719 0.01252251 -0.15470512 0.22940733 0.067141935 0.10184972 0.17598312 0.04197464 0.044758487 0.20189936 0.024374116 0.18295872 -0.10194818 0.13813977 0.017703753 -0.005455991 0.13432626 0.22432797 -0.10358244 0.10386654 0.04336019 0.088263586 0.06429082 0.043356694 0.121483125 0.12728298 -0.0048385696 0.11823957 0.07946058 -0.15415111 0.1120836 0.22616948 -0.13306229 -0.03747777 -0.08529107 -0.09775669 -0.12795605 -0.07902017 -0.171643 0.06473071 0.03636123 0.0046806945 0.092229255 0.13993557 -0.15702616 0.07869772 0.059704613 0.024802256 -0.092606016 0.0049923887 -0.2525226 0.058202114 0.07542825 -0.14255762 -0.037056588 -0.046325196 -0.12029251 0.02660126 0.0071340026 -0.0869721 -0.021580985 -0.008425919 0.06387609 -0.01908059 0.1296662 -0.06369669 0.003354133 -0.13508691 0.03533087 -0.23062848 0.103514686 -0.08879904 -0.2765998 0.158051 -0.10036962 -0.034492087 0.15423852 -0.06464275 0.14214405 4.556767e-05 -0.05665501 -0.029973326 -0.04380495 -0.014334806 0.06126652 0.019219287 -0.17886105 0.07973824 -0.056510735 0.07646561 -0.074235626 0.13609843 -0.12344243 -0.14354077 -0.025689278 0.008617374 -0.09195748 0.082543455 -0.07895037 0.1664944
没 0.077919535 0.10689043 -0.09138947 -0.101497635 0.09520161 -0.19208111 -0.047295492 0.05440573 0.25638738 0.028580459 0.08861385 0.08896118 0.012604456 0.04536998 -0.029701348 0.03202907 0.034238208 -0.15314196 -0.00364517 -0.08819606 0.022195369 -0.094666466 0.0532179 -0.08596376 -0.14444658 -0.11480961 -0.08762943 -0.17377168 0.080953084 -0.06834463 -0.08183101 -0.16763195 0.063190624 -0.21276174 -0.06466521 -0.09804384 0.029968016 -0.1252802 -0.18592452 0.065854535 -0.0025025597 -0.16046597 0.017781433 -0.17918618 -0.014234224 0.12678768 -0.13867657 0.02953402 0.036689024 -0.14429888 -0.025734153 -0.059097543 -0.09880634 -0.0066178706 0.028787253 -0.017521456 0.013766125 -0.050704647 -0.011539529 0.039726138 0.01158261 0.09179007 0.077418245 -0.039047606 -0.0017796137 -0.0035543744 0.051802255 0.20817448 -0.03684817 -0.23848544 -0.0662886 -0.17853291 0.06929025 0.027030395 -0.016349332 0.18935497 -0.03166094 -0.026324015 0.06637302 -0.12223847 0.11505209 0.028236162 -0.11720525 -0.09183439 -0.07664061 0.044922233 -0.040242847 -0.09758914 -0.22694446 -0.13738765 0.14329953 0.011506349 0.11279912 -0.13146399 0.060797106 0.15599422 0.06734761 -0.100085184 -0.03480568 0.062050857 0.03382245 -0.049387824 -0.06434439 -0.06304275 0.12661497 0.07829633 -0.03706738 -0.043190558 -0.07713233 -0.13394323 -0.005458935 0.13607801 0.06333808 -0.062281903 0.012704319 -0.073770255 0.16367064 -0.09136316 -0.037163425 0.032356232 0.007481422 0.22165024 0.0141049335 0.06619044 0.032525513 0.037345394 -0.03643146 -0.098191895 -0.19609033 0.09155244 -0.013108602 0.0540305 -0.01311296 0.029632276 -0.0397842 0.0013751865 0.1341438 0.08588276 -0.07067206 0.01831349 -0.20177953 0.21736895 0.044351228 0.123757385 0.21967368 0.026239509 -0.1610578 0.043775138 -0.011925409 -0.0028365352 -0.09222379 -0.010880885 -0.093009435 0.011351832 0.09785632 0.0026183606 -0.018386517 -0.036954105 0.027792932 -0.15906768 0.099127054 -0.2478242 0.10784299 0.006254796 -0.10608581 0.17292833 -0.058825374 0.14151473 -0.04648946 0.010702241 0.00940982 -0.06340364 -0.087480895 -0.22554173 0.06472511 0.062061578 -0.18450458 0.25407058 0.05119863 0.11026088 -0.21084423 -0.14186765 0.027646795 0.09402933 0.061243527 -0.09245874 0.19295114 -0.016367132 0.0048719593 0.033055 0.02425611 -0.11139058 -0.015090627 0.021404095 0.097625665 -0.08465978 -0.08470146 -0.051714353 0.011220264 -0.14588782 -0.12996852 0.013624275 -0.16163406 0.2408462 0.06906408 0.106046975 0.18577492 0.043991223 0.046743512 0.20946646 0.025483541 0.1895612 -0.10776396 0.14337066 0.017583711 -0.0068971836 0.14148042 0.23534955 -0.10653743 0.10781024 0.043723006 0.091974065 0.06672409 0.046503942 0.12772988 0.13195027 -0.0027630278 0.12252091 0.08486953 -0.16140506 0.11964976 0.23571348 -0.13857348 -0.039522577 -0.09090663 -0.10067526 -0.13233787 -0.07959523 -0.17863344 0.07041442 0.036367614 0.0053801835 0.0985539 0.14464015 -0.16320434 0.084102385 0.06479326 0.02891308 -0.09532023 0.00570552 -0.26469582 0.06220439 0.07929252 -0.15035091 -0.03655556 -0.048880775 -0.12604652 0.029242804 0.005666045 -0.09052864 -0.023586683 -0.008693697 0.06408028 -0.022051923 0.13564052 -0.065275 0.0022123216 -0.14191267 0.03562812 -0.24040219 0.10777696 -0.09475272 -0.28880438 0.16398942 -0.10465738 -0.038156115 0.1596772 -0.06503025 0.14898618 0.0017412911 -0.06008228 -0.033719063 -0.044436365 -0.014058322 0.06424771 0.022242846 -0.1889661 0.08485133 -0.060258467 0.080005616 -0.07757127 0.14161734 -0.13034463 -0.14844483 -0.0245566 0.0052236607 -0.09558732 0.087785035 -0.08272568 0.17237692
可爱 0.048431914 0.06908162 -0.060308974 -0.064377114 0.060555767 -0.12099113 -0.028148096 0.036774248 0.16287872 0.017868094 0.05715631 0.0567102 0.008465181 0.026792167 -0.018238256 0.022627974 0.022282964 -0.09963744 -0.0036035338 -0.05722031 0.013404659 -0.060357977 0.032976992 -0.057573956 -0.09280289 -0.07410878 -0.057872467 -0.110278875 0.050452165 -0.043872554 -0.052036773 -0.108255774 0.039148465 -0.13633758 -0.039389405 -0.06177804 0.020986468 -0.07989748 -0.121242486 0.04225013 -0.0031477085 -0.10343436 0.009739697 -0.11366005 -0.0115051465 0.081547186 -0.08618229 0.021596849 0.02348991 -0.09018979 -0.015602506 -0.035229262 -0.06363529 -0.0044597057 0.0194635 -0.011017479 0.006774934 -0.03275245 -0.007871733 0.0277295 0.0060547157 0.058933225 0.048401315 -0.024971943 -0.00041966263 -0.0013189663 0.032604355 0.13169219 -0.023284001 -0.15350446 -0.041697215 -0.11547095 0.0433594 0.017300535 -0.011866323 0.12116609 -0.01806237 -0.019024475 0.04241873 -0.07723663 0.074352644 0.018232282 -0.075664975 -0.05977355 -0.049130663 0.02968343 -0.024614744 -0.06262824 -0.14539659 -0.08699573 0.090898074 0.007815794 0.072416194 -0.08382099 0.039434653 0.10224979 0.045066647 -0.06342918 -0.021902077 0.040121693 0.019826697 -0.032804377 -0.041139532 -0.042879093 0.0788496 0.04924041 -0.024190286 -0.024930164 -0.04782653 -0.083045 -0.0021224846 0.08451074 0.037735224 -0.04234777 0.008868549 -0.04590535 0.10287574 -0.05731487 -0.024573363 0.021140056 0.0055249697 0.1416897 0.008130174 0.041962624 0.020627875 0.024703477 -0.024494417 -0.06430425 -0.12506916 0.060378492 -0.0073246555 0.03412713 -0.006872702 0.01971733 -0.024867203 -0.0010044525 0.084651366 0.053279955 -0.043780744 0.010365628 -0.12973486 0.13909534 0.028133258 0.07950576 0.14179876 0.019291012 -0.10079072 0.029492054 -0.0058211163 -0.0012379946 -0.057419717 -0.0074840486 -0.058478393 0.005640133 0.06355593 -0.0004652513 -0.012160512 -0.023867214 0.019511793 -0.10372127 0.06304142 -0.15916465 0.06897571 0.0041133855 -0.06576975 0.11198163 -0.036691356 0.09025305 -0.03111164 0.0067882272 0.005928264 -0.03945043 -0.054758184 -0.14408961 0.04344508 0.038059738 -0.119110346 0.16229022 0.03310779 0.070289314 -0.13628158 -0.091175 0.015095534 0.059352215 0.03790905 -0.05783288 0.12259001 -0.009846593 0.0017760736 0.020225363 0.016891103 -0.07331986 -0.008268571 0.013780483 0.064158745 -0.054389924 -0.05585516 -0.031590536 0.009185647 -0.09501729 -0.08380592 0.009896485 -0.103664055 0.15203014 0.04419857 0.06819907 0.1181072 0.026405413 0.030895907 0.13518015 0.016781392 0.123139665 -0.07006346 0.092302695 0.008763667 -0.0023384145 0.09189341 0.15241459 -0.06695232 0.06840771 0.027592875 0.05805347 0.043144844 0.03168974 0.08240404 0.084407024 -0.0040011224 0.07770974 0.05242083 -0.1018124 0.07671421 0.15293299 -0.089091204 -0.026901336 -0.055793356 -0.06361065 -0.08593374 -0.051471412 -0.11570097 0.04573223 0.023270026 0.0038340567 0.06230836 0.09242424 -0.10600871 0.051427547 0.039586466 0.01701344 -0.061381083 0.0023214319 -0.16828206 0.039321177 0.05195944 -0.09428967 -0.022735069 -0.03016324 -0.08094112 0.018150069 0.002751127 -0.057925873 -0.014865071 -0.004661835 0.043097354 -0.012880326 0.08624038 -0.041708484 0.0004331823 -0.0888774 0.021592634 -0.15531686 0.06869022 -0.059281554 -0.18378715 0.10411592 -0.06615324 -0.025101533 0.10255565 -0.044045687 0.09514043 0.0021776508 -0.0360139 -0.01964626 -0.027596537 -0.008937522 0.041367408 0.014903144 -0.12063645 0.05226622 -0.03687411 0.05237282 -0.05107887 0.09005993 -0.08429502 -0.097449966 -0.014967478 0.0062213372 -0.06136229 0.054447524 -0.052019496 0.10955091
说 0.08362082 0.11089305 -0.097115085 -0.10731098 0.102668256 -0.20215206 -0.04941966 0.06005605 0.26997584 0.03201907 0.09454957 0.09568075 0.014711396 0.04894349 -0.029742721 0.03530335 0.0373295 -0.16305894 -0.0060168514 -0.093874745 0.023458993 -0.098119326 0.0572458 -0.09391873 -0.15079896 -0.12252829 -0.09387323 -0.18705098 0.08880685 -0.07234345 -0.087114535 -0.1780704 0.06618655 -0.22739603 -0.0676989 -0.10424184 0.033599414 -0.13250779 -0.20044479 0.07123162 -0.0029286966 -0.17154233 0.019336661 -0.19078839 -0.017185178 0.13587214 -0.14564313 0.03354969 0.039118756 -0.15206614 -0.028518045 -0.06261296 -0.105548024 -0.005285489 0.032663867 -0.017828545 0.015927888 -0.056109004 -0.009356406 0.042001903 0.011379372 0.09690896 0.08253157 -0.042361792 -0.0010362149 -0.0022489156 0.056892276 0.22139555 -0.038143404 -0.25398433 -0.068416245 -0.18998359 0.07100583 0.02778005 -0.018395599 0.19924529 -0.032294355 -0.027259292 0.07043967 -0.13063775 0.12196225 0.030747887 -0.12498081 -0.09671428 -0.08167757 0.049790032 -0.044391643 -0.10520828 -0.23834048 -0.14575024 0.15402901 0.012005508 0.11909269 -0.13786903 0.06300542 0.16785817 0.07194072 -0.106907874 -0.03548177 0.06732795 0.036190275 -0.050082494 -0.06939839 -0.0673424 0.13447678 0.08456546 -0.039934985 -0.043715928 -0.0831642 -0.1422375 -0.0039635967 0.14456412 0.066395976 -0.06621705 0.015229653 -0.078286655 0.17195891 -0.09558431 -0.040368147 0.035611324 0.005451055 0.23658901 0.014248243 0.071767524 0.032471195 0.03896302 -0.039585453 -0.1032823 -0.21213749 0.0996834 -0.015862426 0.059722833 -0.012906049 0.031289317 -0.042525567 0.0019046883 0.14254169 0.09248197 -0.07593756 0.018457783 -0.21422635 0.23236926 0.04694306 0.1282875 0.23580709 0.027269596 -0.17096728 0.04523564 -0.009493016 -0.001746812 -0.09743526 -0.012227534 -0.096542686 0.010637144 0.10309899 0.0005998798 -0.019033745 -0.039568592 0.029834844 -0.17004813 0.10460149 -0.26419848 0.11492639 0.0074406196 -0.110157125 0.18407485 -0.060817022 0.1480264 -0.050444145 0.013303248 0.008258401 -0.06781135 -0.09107467 -0.24220248 0.072107494 0.066587605 -0.19641846 0.27040446 0.056217633 0.116541356 -0.22516112 -0.15050593 0.02954477 0.09961582 0.06516648 -0.09889654 0.20735256 -0.018059406 0.0032222343 0.035999667 0.025163518 -0.117145 -0.016183885 0.021645183 0.10389771 -0.08906669 -0.090037584 -0.055699088 0.013796873 -0.15605597 -0.13991398 0.014523587 -0.17342585 0.25674736 0.073441334 0.11183612 0.19491073 0.04692947 0.047775514 0.22406168 0.026472684 0.20183831 -0.11605877 0.15346727 0.016076837 -0.006684199 0.14942592 0.2511292 -0.11208325 0.11537854 0.046420168 0.09672123 0.069532 0.04987558 0.13743588 0.14129065 -0.0042020218 0.13156916 0.089736946 -0.1724905 0.1265238 0.25190017 -0.14708675 -0.041807257 -0.09503551 -0.10928999 -0.14236706 -0.085395016 -0.18994664 0.072617576 0.03884836 0.004278206 0.10462317 0.15716416 -0.17493357 0.08843039 0.06610714 0.029583227 -0.10291669 0.0056836 -0.27901435 0.06418211 0.085153125 -0.15845476 -0.03939255 -0.052018896 -0.13414584 0.031321246 0.0066593946 -0.0961233 -0.025121683 -0.009479696 0.06806357 -0.020844499 0.14499241 -0.06985803 0.0040666726 -0.15160938 0.037996948 -0.25464684 0.11544488 -0.099650525 -0.30500385 0.17523356 -0.11147904 -0.04067826 0.1703639 -0.070308104 0.159331 0.0020170875 -0.06237687 -0.035198104 -0.049572658 -0.01597645 0.06514583 0.02256879 -0.2019286 0.08977564 -0.06390901 0.085259825 -0.08191958 0.15310733 -0.13717242 -0.15879202 -0.025169615 0.0067241094 -0.09988927 0.09283498 -0.08493057 0.1858563
小 0.05653328 0.07430149 -0.06520025 -0.07391427 0.06965208 -0.13787025 -0.032355394 0.03881671 0.18466772 0.021794492 0.06445029 0.06434903 0.011703533 0.03146806 -0.020384463 0.023679573 0.026135344 -0.11021914 -0.0042055002 -0.06401234 0.015179475 -0.067194514 0.039090913 -0.06334466 -0.10307602 -0.08272061 -0.061856195 -0.12456009 0.057541203 -0.049341828 -0.05693835 -0.120044716 0.044402692 -0.15290077 -0.044558797 -0.06954769 0.020584073 -0.089505576 -0.13600425 0.049033243 -0.0016589065 -0.11544795 0.012957068 -0.12724483 -0.012403781 0.09215445 -0.096998796 0.021469673 0.026731089 -0.104019895 -0.017533842 -0.039593183 -0.07049105 -0.0034825143 0.022052448 -0.010932795 0.008446829 -0.038237352 -0.0059135165 0.028831113 0.006800375 0.06716684 0.056337897 -0.029635401 0.00013502203 -0.0006067486 0.039363757 0.1494599 -0.027013779 -0.17123958 -0.047342375 -0.12769768 0.049000498 0.019429121 -0.010978916 0.1357639 -0.022021059 -0.020937527 0.047235794 -0.08763407 0.08365211 0.021063732 -0.08313559 -0.06546427 -0.05604772 0.033117972 -0.030031476 -0.07022993 -0.1627554 -0.09690392 0.10391494 0.006534271 0.08238168 -0.09213217 0.041889846 0.1140221 0.04925184 -0.07208564 -0.022790907 0.043891873 0.02465942 -0.03353501 -0.045890227 -0.045760345 0.090441845 0.05757703 -0.027208429 -0.029368324 -0.057321038 -0.094547324 -0.0024401962 0.09667978 0.04574259 -0.044102006 0.010822146 -0.051005192 0.117311165 -0.06559675 -0.028302077 0.023915589 0.004173173 0.16033876 0.009501714 0.048924163 0.021442402 0.02771929 -0.027545214 -0.070621535 -0.14106305 0.067446165 -0.0117844725 0.039509587 -0.008271608 0.020910783 -0.027835535 -0.0005142411 0.094820544 0.060640242 -0.05251422 0.012638526 -0.14475931 0.15727337 0.031522334 0.08649511 0.15753701 0.01924783 -0.11453154 0.03203944 -0.007763861 -0.0018186887 -0.06692445 -0.008921278 -0.066520475 0.00719225 0.06880037 0.00040973554 -0.012400769 -0.026880823 0.022136774 -0.116372176 0.07170248 -0.17898022 0.07736072 0.0038310864 -0.074602865 0.12506513 -0.04168597 0.10188317 -0.033110607 0.008459719 0.0062549007 -0.043753784 -0.06348726 -0.16374719 0.04573271 0.044283837 -0.132872 0.18221176 0.03776963 0.07893397 -0.15376773 -0.1015818 0.020634774 0.067592725 0.04140144 -0.06485185 0.1414579 -0.011770129 0.0025267315 0.023019625 0.018060038 -0.07908483 -0.01195855 0.016409183 0.07141583 -0.062143553 -0.059770636 -0.038141638 0.008841853 -0.10437192 -0.09254409 0.0106979385 -0.117545865 0.1707388 0.0514837 0.07616595 0.13412899 0.032838512 0.032339346 0.14873669 0.016984353 0.13823442 -0.07793737 0.103482865 0.011445155 -0.004421801 0.102496006 0.1705319 -0.07842749 0.07857833 0.031254873 0.0660376 0.04778937 0.034032233 0.09018387 0.09551327 -0.0009594215 0.08847071 0.060108554 -0.11665998 0.083963856 0.17182261 -0.09906573 -0.029295031 -0.065448485 -0.07172307 -0.09679481 -0.058869313 -0.1276839 0.050273124 0.026819106 0.0026243536 0.071098916 0.10643327 -0.117423594 0.05817314 0.04453095 0.018385377 -0.06882105 0.004170014 -0.18771587 0.04561563 0.058088552 -0.10589913 -0.028056858 -0.034067106 -0.0908546 0.018820008 0.0061983787 -0.06390707 -0.015651546 -0.0056609646 0.047867388 -0.014988938 0.09937374 -0.046330657 0.0020688903 -0.10079384 0.025851429 -0.17243615 0.07890234 -0.06910598 -0.20738727 0.1193088 -0.07520832 -0.026896136 0.11430445 -0.04869864 0.10723876 -0.00078822265 -0.041807454 -0.024265286 -0.031974643 -0.010747327 0.0437555 0.014861787 -0.13523771 0.060785707 -0.044162713 0.059104815 -0.058168445 0.10285459 -0.093917266 -0.10830202 -0.019151673 0.0034497832 -0.0695629 0.06115034 -0.060070314 0.123926215
大笑 0.059927817 0.08118705 -0.06676344 -0.07535976 0.0702717 -0.1440814 -0.03037199 0.044854194 0.18954833 0.02418829 0.061188485 0.06638063 0.010599164 0.035174694 -0.02451294 0.025632827 0.029075252 -0.11688692 -0.002088377 -0.064772084 0.013653103 -0.06612426 0.041473795 -0.066790275 -0.10622378 -0.08845516 -0.062246628 -0.12745622 0.061696894 -0.04536683 -0.055567686 -0.12672454 0.04476198 -0.1619264 -0.04735445 -0.07090802 0.025257304 -0.09203678 -0.1358499 0.047327492 -0.00634825 -0.120847315 0.016034609 -0.13104415 -0.014443562 0.09282324 -0.103185646 0.021473192 0.026910787 -0.10296548 -0.01590753 -0.040205296 -0.07547446 -0.005745056 0.020689355 -0.015734894 0.006695604 -0.036852237 -0.004738722 0.02894896 0.0077667655 0.070409656 0.059124913 -0.030192686 -0.0024850336 -0.0018334807 0.03949455 0.1512265 -0.029651698 -0.18057618 -0.046925887 -0.1321754 0.051317662 0.021440998 -0.011707359 0.13595633 -0.021441367 -0.017564574 0.050183553 -0.09005009 0.08761137 0.022026503 -0.084048726 -0.06904631 -0.055588808 0.035126753 -0.03064712 -0.0728446 -0.16814168 -0.10430117 0.10568195 0.0074305586 0.08034393 -0.0955237 0.04106042 0.11571076 0.05272302 -0.06988375 -0.022294797 0.04829698 0.024930744 -0.03368013 -0.049822103 -0.044056587 0.0890778 0.05651437 -0.030704422 -0.03110847 -0.061026897 -0.09499123 -0.0053216238 0.097113766 0.04476104 -0.048779923 0.007687055 -0.05001815 0.119240694 -0.07026226 -0.025442235 0.02278364 0.0013131205 0.16474496 0.011557805 0.049504753 0.0269304 0.027642865 -0.02701227 -0.06986196 -0.1470793 0.069141924 -0.008665635 0.038659103 -0.01004718 0.02101766 -0.030294891 0.0036364463 0.09643038 0.06606077 -0.05084131 0.013507206 -0.15283608 0.16259441 0.033830926 0.09010147 0.1654329 0.018438295 -0.12098269 0.034693193 -0.007381657 -0.004877995 -0.069220826 -0.011622212 -0.07161998 0.0060843593 0.07134593 0.0003013933 -0.016918108 -0.028621739 0.022351362 -0.121198736 0.07030017 -0.17843966 0.077372715 0.0057175336 -0.07955385 0.1259842 -0.043628257 0.10171911 -0.0317327 0.0064870124 0.007864516 -0.046107914 -0.067431845 -0.16498367 0.04694623 0.044494707 -0.14000273 0.18776874 0.034753606 0.08162352 -0.15750958 -0.10668471 0.018700542 0.071230195 0.04464688 -0.0677215 0.14731517 -0.016940353 0.0059012584 0.026722195 0.014933602 -0.086745225 -0.007994429 0.01518337 0.0767651 -0.06622667 -0.065467134 -0.039891448 0.012432607 -0.10808007 -0.09608077 0.011450726 -0.11681728 0.17492625 0.05032233 0.07542328 0.13870566 0.03208021 0.030764094 0.15192683 0.021582676 0.13935165 -0.08002507 0.10527743 0.014874509 -0.002140251 0.10256727 0.17699951 -0.07771208 0.07531627 0.034256674 0.069976315 0.051262535 0.037698258 0.09333778 0.09752196 -0.0021770985 0.09365289 0.061126597 -0.118178844 0.085113734 0.172502 -0.09876668 -0.02705823 -0.07071824 -0.07714317 -0.09534784 -0.05960032 -0.13365869 0.050434455 0.029504651 0.0070010056 0.06970409 0.10538952 -0.119197175 0.0587769 0.045055777 0.022368519 -0.071208164 0.003703019 -0.19494511 0.04398915 0.062619895 -0.1112209 -0.030859321 -0.03372491 -0.09570598 0.016415618 0.0027184319 -0.06848491 -0.014991475 -0.0058459616 0.049009312 -0.015299095 0.09942187 -0.04547155 0.002826634 -0.105447955 0.02988809 -0.17268993 0.08196244 -0.06993281 -0.2167157 0.11731761 -0.072851725 -0.023774443 0.11843288 -0.0478937 0.10839183 0.0005368606 -0.045793194 -0.027445447 -0.03176079 -0.01107498 0.04673904 0.014859853 -0.1378926 0.05784664 -0.04093475 0.06095633 -0.056655105 0.10897848 -0.09696955 -0.11323162 -0.017065052 0.0076919585 -0.0697028 0.064759195 -0.06188154 0.12807275
王牌 0.071114175 0.09469918 -0.084182866 -0.09147926 0.08715572 -0.16884789 -0.042047817 0.050271858 0.22957397 0.025862167 0.07791301 0.07905816 0.012212281 0.03976609 -0.024124347 0.029010078 0.03027405 -0.13789009 -0.0052879527 -0.078226596 0.018001717 -0.08499113 0.047250476 -0.07886466 -0.12860954 -0.10451435 -0.07863619 -0.15633464 0.071339905 -0.06061931 -0.07133589 -0.14838672 0.055312626 -0.19342558 -0.05683474 -0.08700351 0.0266863 -0.11240086 -0.16686484 0.05799754 -0.0035504105 -0.14326078 0.017193664 -0.15787777 -0.013616681 0.11335606 -0.12367251 0.029092433 0.03286862 -0.1293336 -0.024569768 -0.052605525 -0.08904748 -0.0048134844 0.026225772 -0.014379278 0.010078436 -0.046564482 -0.008983274 0.035392113 0.010537633 0.08168346 0.0679079 -0.03383863 -0.0028407336 -0.00048499735 0.047731727 0.18594384 -0.031152854 -0.21276242 -0.05764554 -0.1593973 0.061668668 0.024398873 -0.014111371 0.16659252 -0.027349452 -0.024307467 0.059489623 -0.108194515 0.10355307 0.026385484 -0.10576453 -0.08240922 -0.067635946 0.041776493 -0.03487116 -0.08679272 -0.20343895 -0.123406924 0.12746206 0.0098663205 0.101728365 -0.118088104 0.0518703 0.1420188 0.06112978 -0.09035917 -0.02805797 0.054431956 0.027799852 -0.044558626 -0.056636862 -0.05645755 0.114409946 0.070937485 -0.031317864 -0.03866628 -0.06813072 -0.11806799 -0.002181125 0.12027445 0.056585886 -0.057146266 0.01235157 -0.06597068 0.14630422 -0.08333018 -0.03391569 0.03092735 0.0038382607 0.1986373 0.009853731 0.058334373 0.027824406 0.03288039 -0.034750946 -0.08812402 -0.17700219 0.08231055 -0.012478006 0.04987375 -0.010914101 0.027864004 -0.03627175 -0.00054602453 0.11956835 0.07674129 -0.0656378 0.014333585 -0.17954187 0.1936996 0.038490955 0.10805495 0.19612762 0.02381713 -0.14398643 0.037622705 -0.007716349 -0.0040570362 -0.08321347 -0.008267266 -0.08045632 0.009988878 0.088217035 0.0013581143 -0.016676823 -0.036351852 0.026253937 -0.14370109 0.08587605 -0.21946454 0.09844058 0.0069108764 -0.094701074 0.15384686 -0.05379051 0.1234056 -0.04182082 0.01107604 0.0072754608 -0.056322124 -0.078805745 -0.20142908 0.06051893 0.05412706 -0.16640902 0.22546583 0.04609963 0.099403255 -0.19063447 -0.12569375 0.025118113 0.084290735 0.05217792 -0.082955085 0.17407398 -0.0137419505 0.004984019 0.031232486 0.02135197 -0.10094507 -0.0126802195 0.01722594 0.08761143 -0.07728864 -0.07644896 -0.04601994 0.0120990705 -0.13143164 -0.11444285 0.01461221 -0.1450272 0.2159007 0.06307022 0.09519268 0.16620854 0.03935729 0.039829314 0.18868987 0.021337109 0.17108151 -0.098498054 0.12931335 0.016505007 -0.0040302267 0.12799142 0.21275279 -0.09492329 0.093947046 0.038371574 0.08186346 0.058680534 0.04273575 0.11292574 0.11758973 -0.0017631095 0.10972145 0.07480051 -0.14272724 0.104208216 0.21003339 -0.12296787 -0.035621896 -0.08103063 -0.093165934 -0.117298886 -0.07159418 -0.15739512 0.05982976 0.033778585 0.005526839 0.08904617 0.12983909 -0.14752108 0.07546247 0.05796858 0.02411396 -0.08452725 0.0025732405 -0.2366729 0.055220008 0.07092049 -0.13414554 -0.032111265 -0.041118316 -0.1145017 0.024647348 0.005431182 -0.08150109 -0.021815166 -0.008166511 0.058855925 -0.016879966 0.12319808 -0.05781364 0.002241767 -0.12747972 0.032087535 -0.21249983 0.097591825 -0.08298779 -0.2591927 0.14687389 -0.09373193 -0.031401064 0.1436436 -0.060756065 0.13312757 0.00049515907 -0.053573225 -0.03104173 -0.04120834 -0.014235728 0.056472108 0.019122938 -0.16893469 0.07376017 -0.053583253 0.07232275 -0.06894213 0.1283628 -0.11633876 -0.13276342 -0.023578646 0.0073804846 -0.08461676 0.077893876 -0.07188914 0.1530982
