662 300
捂脸 -0.13009879 -0.002258352 -0.08694136 0.08679172 -0.070914485 -0.02258629 -0.16918632 -0.05584833 -0.013268145 -0.08097056 0.12889253 0.004463417 0.084014416 -0.004230954 -0.05510514 -0.034750104 -0.10270654 -0.06731635 0.029145906 -0.03864578 -0.026398327 -0.04648682 0.0022734052 -0.12255955 -0.12182435 -0.015978282 0.00889444 -0.04934231 -0.049093824 0.038675427 -0.05095408 -0.07092008 -0.069166005 -0.029164756 -0.022584291 -0.22079277 0.02966167 0.050016936 -0.0041454043 -0.00041994444 -0.028089773 -0.16356522 0.049555305 -0.15015925 0.07827264 -0.061667137 -0.052044008 0.0065757786 -0.08585422 -0.07325669 -0.04863611 0.05092327 0.09681276 0.0554315 -0.14146662 -0.054415114 -0.055736154 0.051170964 0.028917337 -0.10745568 -0.10331588 0.028858697 -0.024626497 -0.08680153 0.0031348427 0.16933472 0.004713285 0.12306659 0.033675734 -0.011771804 0.06546422 0.0072988574 -0.13853964 -0.022132693 -0.0058862236 -0.018304303 0.027507514 -0.0010246674 0.024597704 0.024717834 -0.020641673 0.103667796 -0.057275005 0.037991468 0.12175424 -0.048217498 0.07219076 -0.013551956 -0.120768815 0.015372915 -0.059479695 -0.024241583 -0.15740629 0.087836176 0.008359263 -0.13506286 -0.06509778 0.015689315 0.13701221 0.030422304 0.055713046 -0.17835513 0.091379434 -0.124847054 -0.13514777 0.055704765 0.0026167622 -0.05775924 0.06123678 0.03736469 -0.0033656466 0.008255629 -0.04696069 -0.042167794 -0.10132048 0.02069272 0.063139565 -0.14255507 0.12425225 -0.009418247 -0.12927417 -0.11203233 -0.06262816 -0.1515352 0.05659227 0.09157268 -0.04751146 -0.2423624 -0.13073957 0.036802106 0.04443469 0.019842567 -0.12196184 0.11287562 0.094467916 -0.03165534 -0.020965276 -0.057649165 -0.04489585 0.02324297 -0.10116583 -0.032991182 -0.05170975 -0.12792021 0.0017542008 -0.07007081 -0.045743074 -0.07752815 0.051399812 0.09560827 -0.025305578 0.08730771 -0.0016280683 0.039887644 -0.048464686 -0.08253547 0.036043316 -0.06567023 -0.18279308 -0.10980059 0.047971867 0.029320356 -0.11731439 0.14707379 -0.1790405 -0.03326335 -0.02808085 0.1143306 -0.1370405 -0.12524241 -0.14333501 -0.09507305 -0.0057009268 0.011411276 0.040071264 0.06769287 0.111148976 -0.06085669 0.025250664 0.13728389 0.13391301 -0.023922449 -0.04661066 0.14018023 0.023050902 -0.046711423 -0.09162258 -0.06835498 -0.0876929 0.07556584 0.2663189 -0.01646102 0.04882446 0.144961 -0.059914336 0.12797631 -0.16571178 0.06012032 0.13732855 0.12442841 0.1220255 0.063468784 0.200822 -0.03737594 0.06132301 -0.07135968 0.023084696 0.1345179 -0.030019185 -0.028681094 -0.0011011446 0.004512032 0.022837369 -0.08423096 -0.02628456 0.15886964 0.11423064 0.05794672 0.08947714 0.22359787 0.031066949 0.08694946 -0.023728464 0.061037842 -0.08368955 0.12478125 -0.048026044 -0.061319552 0.054592855 -0.09318547 -0.18629481 -0.037323277 0.027359253 -0.04460351 -0.004473407 -0.034905832 0.07565435 -0.107980646 -0.028727096 -0.04806766 0.11797971 0.12193352 0.008737109 -0.07836301 0.042703692 0.17018454 -0.046358578 0.13462347 -0.012711501 -0.05208727 0.13505892 0.14236799 -0.13542992 0.12844339 -0.017190374 -0.033501673 -0.11162162 0.11535886 -0.028767837 0.017393364 0.11095975 -0.06433539 -0.0039871414 -0.08786912 -0.096214 0.07695031 -0.0061867405 0.0030269104 -0.21135043 0.09041788 -0.119133905 -0.005445148 0.12528692 0.14028093 0.02694956 -0.0018838556 -0.011170587 -0.011634506 0.09010798 -0.046837103 0.08717613 0.05867372 0.015374011 0.022717899 0.075002916 -0.066860326 -0.002158202 -0.020570112 0.030765206 -0.02529763 -0.1383315 -0.06016265 0.08904039 -0.0023957496 -0.10042147 -0.08734453 -0.13449277 0.14786169 -0.16427694 -0.049497075
我 -0.17835113 -0.0017844613 -0.11271558 0.11007821 -0.10342156 -0.028306535 -0.21330076 -0.07558487 -0.022561429 -0.1135646 0.17167169 -0.0019536174 0.11909299 -0.01019027 -0.0631981 -0.046489727 -0.13217956 -0.09348976 0.041245867 -0.05037639 -0.04070652 -0.062238682 0.012806185 -0.17016193 -0.17410547 -0.010853609 0.015747689 -0.072435044 -0.067459986 0.050493993 -0.071174026 -0.10691886 -0.08974247 -0.031195996 -0.02359586 -0.29100958 0.03715093 0.06517469 -0.0053989873 0.0029166013 -0.028297031 -0.2125115 0.060131032 -0.1959125 0.09592693 -0.066527 -0.05776938 0.015391494 -0.10812868 -0.099872135 -0.07021017 0.058169726 0.12295986 0.074494936 -0.18474184 -0.06847439 -0.07284388 0.062215053 0.035184726 -0.13477454 -0.13021751 0.026826877 -0.037160546 -0.111764565 -0.0028240124 0.23440646 0.014865763 0.16383322 0.040497206 -0.02292169 0.09222173 0.020681636 -0.18229298 -0.025583146 -0.013943582 -0.021836482 0.032838974 -0.011725724 0.037485566 0.043482613 -0.0266593 0.1424443 -0.08012628 0.056257326 0.16460226 -0.06499429 0.08960454 -0.010919115 -0.15305378 0.013177686 -0.07203176 -0.04076212 -0.21301322 0.12358081 0.018193113 -0.1759536 -0.07792912 0.014728055 0.1940219 0.050902963 0.08805067 -0.23054075 0.1257316 -0.16897033 -0.17382696 0.07091429 0.013756012 -0.07549412 0.083278954 0.058490086 -0.001602435 0.009364065 -0.06354934 -0.057096653 -0.13565555 0.027634086 0.0828906 -0.19118768 0.17273949 -0.0171929 -0.1655185 -0.15380712 -0.08688412 -0.19762844 0.08241013 0.11622594 -0.065752745 -0.32659152 -0.1668632 0.057188753 0.06521341 0.017833572 -0.16577464 0.15924305 0.12737197 -0.036390655 -0.020233378 -0.076449744 -0.06601454 0.023626508 -0.13052678 -0.047817543 -0.07011149 -0.17915286 -0.0023044464 -0.09685381 -0.062003884 -0.10608099 0.06405232 0.13049026 -0.032216575 0.11563761 -0.0083188405 0.053671386 -0.057374764 -0.10585729 0.048023988 -0.08740848 -0.24302882 -0.15502752 0.06303363 0.031756297 -0.15876867 0.18810582 -0.23659423 -0.049070418 -0.04263076 0.15015775 -0.18461412 -0.16040225 -0.18552364 -0.12806748 -0.0011966261 0.024571784 0.056712437 0.08633382 0.14415264 -0.07171536 0.04194476 0.18665959 0.18703517 -0.033032116 -0.06786673 0.1899058 0.029037599 -0.05829392 -0.127255 -0.08990639 -0.10822264 0.103908986 0.3491859 -0.016774623 0.07304293 0.19252375 -0.07429213 0.17766853 -0.21963383 0.09035683 0.18303663 0.16503899 0.16608101 0.073459126 0.26587635 -0.051089957 0.08704448 -0.09860581 0.026286235 0.19036753 -0.043117814 -0.04384005 -0.0052814814 0.016423013 0.03864601 -0.10743872 -0.029378211 0.21122238 0.14359838 0.07412805 0.11436044 0.28681892 0.04346318 0.10936662 -0.025773972 0.086655065 -0.12405242 0.1625243 -0.059777353 -0.078270935 0.0692432 -0.13874106 -0.24870452 -0.047801603 0.04024659 -0.06943646 -0.0017398993 -0.04751824 0.095997564 -0.14595777 -0.046480995 -0.060811896 0.1440743 0.16982612 0.012051223 -0.11399083 0.049180366 0.23392093 -0.067060724 0.17933694 -0.0055105635 -0.06548126 0.17716058 0.18956287 -0.17377897 0.16981179 -0.021442663 -0.042774383 -0.15065457 0.15327393 -0.037322048 0.0140995905 0.1490291 -0.093407765 0.0035985918 -0.12017839 -0.13411547 0.098503366 -0.013349962 -0.0041221986 -0.28504905 0.13304141 -0.1596125 -0.0048514 0.1685998 0.18134011 0.038128957 0.00032060873 -0.0123969 -0.013496106 0.12595586 -0.06522784 0.11230486 0.07533757 0.02017206 0.024232572 0.105040595 -0.079906516 -0.009022767 -0.031998333 0.041585978 -0.042419735 -0.18859352 -0.07499888 0.13077159 -0.008971128 -0.13306081 -0.11147555 -0.17157839 0.19757143 -0.21867459 -0.07431405
了 -0.19150405 0.0006067587 -0.12053225 0.11594309 -0.109974064 -0.030874832 -0.23644134 -0.083066486 -0.02394059 -0.12296117 0.18417579 0.00022811805 0.124312386 -0.010530569 -0.06978363 -0.050060607 -0.1446216 -0.1027399 0.040526334 -0.05252614 -0.04063444 -0.06846059 0.010870496 -0.18335043 -0.18888639 -0.012931396 0.016881855 -0.08019391 -0.07188506 0.054713678 -0.074329145 -0.11156151 -0.09483787 -0.035085853 -0.02259269 -0.31492126 0.043417014 0.07206603 -0.0064718924 -1.341481e-05 -0.031726904 -0.23227012 0.06778544 -0.20945375 0.10399959 -0.07327401 -0.060940467 0.016882705 -0.11757757 -0.10496405 -0.074758925 0.06577012 0.13550812 0.08151056 -0.20025545 -0.07704418 -0.07955798 0.07028653 0.036254566 -0.14789449 -0.14080885 0.030869137 -0.038393997 -0.12337549 -0.003291061 0.2509723 0.01762111 0.17738904 0.044654027 -0.0205163 0.09673609 0.020408941 -0.19656387 -0.026682884 -0.015477394 -0.021946372 0.034096777 -0.013248977 0.039749492 0.04731448 -0.03143477 0.15289372 -0.08428885 0.061770737 0.1770779 -0.07148413 0.09409353 -0.011505978 -0.1687081 0.016683275 -0.07598608 -0.041019987 -0.23070306 0.13000731 0.014534586 -0.18945584 -0.08643343 0.011829684 0.20949477 0.055603866 0.0918577 -0.24763486 0.13442925 -0.18204635 -0.18920046 0.076664604 0.014357373 -0.08370412 0.09088734 0.060118005 -0.0020957727 0.010246463 -0.07068712 -0.062241204 -0.14904517 0.030042902 0.087675184 -0.20785394 0.18619365 -0.018362861 -0.17831343 -0.16516238 -0.093064815 -0.21003959 0.089158975 0.12695879 -0.07104934 -0.3531156 -0.18141536 0.056759857 0.06557217 0.020902043 -0.17735875 0.17093964 0.13880526 -0.04220878 -0.023154734 -0.080993 -0.07248403 0.026384253 -0.1406833 -0.05196531 -0.073494785 -0.19452535 -0.00017485658 -0.10465394 -0.06674979 -0.1147564 0.06832029 0.14299928 -0.032255553 0.1219591 -0.008917608 0.05594152 -0.06468469 -0.11454456 0.049654137 -0.094959736 -0.26237732 -0.16627745 0.06761182 0.03307332 -0.1734537 0.20452458 -0.25464165 -0.052484468 -0.046384513 0.16134022 -0.19629018 -0.17090952 -0.20283833 -0.13605042 -0.002291643 0.027243715 0.05880651 0.09468657 0.15560049 -0.08044086 0.042871423 0.19987777 0.20212588 -0.03405066 -0.07197365 0.20386341 0.033723798 -0.06018941 -0.13710281 -0.09770787 -0.120019235 0.10954677 0.38113284 -0.019319803 0.07547043 0.20635012 -0.08155394 0.19334501 -0.23986621 0.0968172 0.1949109 0.18233472 0.17968 0.08271847 0.28815302 -0.051243 0.0955623 -0.10591318 0.025764402 0.20518538 -0.044322178 -0.04582791 -0.0059130536 0.014224814 0.040329773 -0.11488457 -0.032450996 0.22693707 0.16058949 0.0791517 0.12611538 0.31407505 0.047177035 0.11718654 -0.025087671 0.09411323 -0.13213398 0.17237158 -0.067089334 -0.086775795 0.07653384 -0.1496373 -0.26729637 -0.0504669 0.04015969 -0.07109353 -0.0036934165 -0.04866466 0.10223768 -0.15807883 -0.050733235 -0.0676401 0.15782297 0.18279226 0.011052163 -0.12117618 0.056760464 0.25128514 -0.067842804 0.19217102 -0.007984022 -0.07083438 0.1923027 0.20415577 -0.18986125 0.18486068 -0.024980782 -0.04973526 -0.16133837 0.16404985 -0.039257403 0.017458968 0.16292684 -0.101772375 0.000788862 -0.12903793 -0.14155413 0.10585255 -0.015004589 -0.0019265774 -0.30755392 0.13866684 -0.17274831 -0.0044535915 0.1850922 0.19865446 0.04078739 0.00052082655 -0.015930727 -0.014748536 0.13645299 -0.071149275 0.12241883 0.08596814 0.023057513 0.027972 0.11259562 -0.08773169 -0.012785081 -0.03674991 0.04680289 -0.046759162 -0.20570773 -0.0835899 0.13948 -0.011054464 -0.1451836 -0.12080387 -0.18656234 0.21515042 -0.23671244 -0.079144485
的 -0.21156451 0.00081216916 -0.13565558 0.1330023 -0.12667419 -0.038177826 -0.26090527 -0.09579896 -0.027358217 -0.1374567 0.20828581 -0.0014364134 0.13957086 -0.013256535 -0.07789827 -0.05875033 -0.16228227 -0.110430375 0.05008658 -0.059157167 -0.048805878 -0.07396851 0.01583029 -0.20671768 -0.21154907 -0.015655326 0.020966 -0.09058831 -0.08057865 0.059285894 -0.08533348 -0.12955047 -0.109233275 -0.03959792 -0.02716551 -0.35476607 0.05086359 0.07825755 -0.007918813 0.003028302 -0.034864374 -0.25883377 0.076175205 -0.23749436 0.11351444 -0.08179366 -0.07171544 0.01810714 -0.12821682 -0.11904219 -0.08644061 0.07294277 0.1488113 0.090424776 -0.22752771 -0.082846135 -0.08989785 0.07753334 0.043099158 -0.16722004 -0.15603274 0.032745346 -0.045962106 -0.13663197 -0.0026544528 0.28293905 0.014796491 0.19849265 0.048172966 -0.027221348 0.11212007 0.02046913 -0.21937369 -0.030686978 -0.010283194 -0.027570125 0.041668613 -0.011943447 0.048014257 0.05110759 -0.036833365 0.17717257 -0.0974147 0.06509297 0.19693398 -0.07977168 0.10669405 -0.01606321 -0.18710163 0.019711098 -0.08497497 -0.04895908 -0.26047248 0.14660111 0.021435155 -0.21257138 -0.09728467 0.015534997 0.23202056 0.06316267 0.10343797 -0.2806385 0.15483013 -0.20376238 -0.21157077 0.08780379 0.020044142 -0.09205949 0.10098399 0.073950164 -0.001576492 0.012639654 -0.078696825 -0.0692974 -0.16779955 0.03348456 0.10257204 -0.23334257 0.21047965 -0.017850105 -0.20300561 -0.18654372 -0.10622259 -0.2406064 0.09842183 0.13868488 -0.08011467 -0.39750138 -0.20235641 0.069687024 0.07923169 0.022215161 -0.20231435 0.19224398 0.15396035 -0.042936374 -0.02555924 -0.093922265 -0.081754394 0.028128507 -0.15959369 -0.055009454 -0.08634648 -0.21463989 -0.0027650576 -0.114793286 -0.07555983 -0.1297304 0.077065945 0.15801542 -0.037024666 0.13942729 -0.008319521 0.06472958 -0.07285165 -0.13159874 0.060383763 -0.102503724 -0.29593137 -0.19063747 0.07561234 0.037969016 -0.19348499 0.2296436 -0.29060966 -0.057038654 -0.051024884 0.1812154 -0.21995695 -0.19281366 -0.22843881 -0.15481324 0.00047212603 0.026743839 0.07016787 0.10685825 0.17226408 -0.087410964 0.049986355 0.22830872 0.22782783 -0.039409306 -0.083483435 0.2309964 0.032201346 -0.072680406 -0.15655956 -0.10537194 -0.13250767 0.12542771 0.42846853 -0.024637144 0.08560096 0.23047897 -0.09341734 0.2172936 -0.2688219 0.10747497 0.22225557 0.20289299 0.20034295 0.09350354 0.3224654 -0.0634121 0.108183615 -0.11785822 0.033301447 0.23099424 -0.056991227 -0.053028096 -0.0051686442 0.019521737 0.047905162 -0.13015017 -0.037875846 0.2577073 0.17746693 0.08720914 0.13843647 0.35368317 0.051400848 0.13755746 -0.033063974 0.10320646 -0.15078333 0.20008144 -0.07290844 -0.09603122 0.08332524 -0.16356334 -0.29934347 -0.05738326 0.050015472 -0.078872986 -0.00092293235 -0.05461897 0.11654485 -0.17481337 -0.05431245 -0.07484221 0.17821324 0.2030843 0.015634418 -0.13748764 0.061148893 0.28175706 -0.08069197 0.21694136 -0.0055713933 -0.08175203 0.22052096 0.22465281 -0.20819715 0.20853548 -0.024381557 -0.053407423 -0.17855342 0.18592812 -0.04847466 0.01886506 0.18169941 -0.116736755 0.0024923603 -0.14062572 -0.16305076 0.122217186 -0.020183349 -0.0069532003 -0.34433702 0.16160472 -0.19427592 -0.0078043924 0.20384201 0.22107933 0.046707902 0.00060264557 -0.013031174 -0.013336362 0.15337431 -0.07974229 0.13602507 0.09550765 0.025309643 0.027726341 0.12764212 -0.09783721 -0.010241787 -0.039082836 0.04889277 -0.05010664 -0.22924173 -0.090715006 0.15580383 -0.010283049 -0.1592583 -0.13816738 -0.20967124 0.2431222 -0.26939973 -0.09294724
腰 -0.15199247 -0.0012581261 -0.094195366 0.094938554 -0.090960555 -0.029476775 -0.18303435 -0.06367749 -0.021051485 -0.097756386 0.14728029 -0.00040670825 0.10370875 -0.011657587 -0.058157593 -0.041873902 -0.11605448 -0.07896675 0.039708618 -0.04108613 -0.037042685 -0.050525088 0.011727688 -0.15012702 -0.1446796 -0.012531808 0.012524398 -0.063256286 -0.058772787 0.03991746 -0.061129697 -0.09061936 -0.080466904 -0.026677178 -0.021203984 -0.25249806 0.03306829 0.05834235 -0.005747281 0.003441248 -0.024297163 -0.18097289 0.053743638 -0.17180043 0.08334301 -0.05670032 -0.05230056 0.009970518 -0.09172604 -0.0892374 -0.06117394 0.052495036 0.10332797 0.06610384 -0.15919186 -0.059120305 -0.06054681 0.05646196 0.029268997 -0.1173108 -0.11224353 0.020157786 -0.032217134 -0.09706306 -0.0050877742 0.20418072 0.008968716 0.14358371 0.033088442 -0.019430397 0.07713056 0.010445811 -0.15951256 -0.023588322 -0.0073083327 -0.02064219 0.030016968 -0.00769786 0.036607884 0.038615655 -0.026483297 0.12969665 -0.06759579 0.042525075 0.14505133 -0.05628548 0.08164844 -0.013316783 -0.13485226 0.01150948 -0.06325283 -0.036188364 -0.18331333 0.10459601 0.01897197 -0.1520907 -0.067979574 0.016454875 0.16086277 0.03813539 0.07389955 -0.19730715 0.10632191 -0.14411841 -0.15277998 0.065990806 0.014068683 -0.062219754 0.07310364 0.05557373 0.0028264585 0.009678349 -0.053732283 -0.0508681 -0.11992242 0.02430501 0.07268478 -0.16564097 0.15116614 -0.013745526 -0.14413969 -0.12889354 -0.07450824 -0.17569274 0.06890314 0.09461016 -0.05725406 -0.2800013 -0.1427928 0.051517125 0.05777214 0.011677293 -0.14153107 0.13933593 0.10508254 -0.028389335 -0.017793564 -0.06279175 -0.056476366 0.019307101 -0.114917785 -0.039532185 -0.061399076 -0.14819427 -0.005482309 -0.07660511 -0.051247187 -0.09178742 0.055683732 0.10914999 -0.027369592 0.10050667 -0.0059415437 0.0446922 -0.052055668 -0.090368785 0.04343824 -0.07081612 -0.21120885 -0.13635093 0.056066245 0.027177274 -0.13690512 0.15912986 -0.20834307 -0.041687194 -0.031059537 0.1311997 -0.15635663 -0.14046222 -0.15849568 -0.11104317 -0.00020349975 0.01528072 0.04849352 0.079702504 0.12315856 -0.05974183 0.033707358 0.16006495 0.16365835 -0.027208356 -0.058055554 0.16652837 0.026735554 -0.050028406 -0.109225154 -0.07495944 -0.09400938 0.08814315 0.3047763 -0.014780123 0.05733697 0.16871287 -0.066500045 0.15172528 -0.19123998 0.076833345 0.15902217 0.13909538 0.14552617 0.06803635 0.2289807 -0.049036413 0.07317069 -0.08370454 0.028834108 0.16211966 -0.04040795 -0.038272835 -0.0032419602 0.0155475475 0.028561411 -0.093504705 -0.031381134 0.1853492 0.12096348 0.06398043 0.100446716 0.24864309 0.031524025 0.099349245 -0.025295094 0.073111996 -0.10670434 0.14249955 -0.0546302 -0.06589938 0.0582514 -0.11278589 -0.21328612 -0.042071193 0.036099248 -0.058992326 -0.0051961737 -0.040958982 0.08811473 -0.12693347 -0.03455674 -0.053981006 0.1304593 0.14240934 0.01350235 -0.09393057 0.043564823 0.1997873 -0.058474332 0.15598057 -0.008752218 -0.052622605 0.15874419 0.1613644 -0.14798476 0.1477152 -0.012381147 -0.03427557 -0.1291762 0.13249078 -0.033262845 0.014893615 0.12687224 -0.0863633 -0.0023440595 -0.10005338 -0.11402933 0.08715349 -0.010984128 -0.002251698 -0.24509013 0.11741723 -0.14097364 -0.0073132245 0.14195931 0.15739697 0.03677724 0.0007737435 -0.008154702 -0.011175635 0.11002509 -0.05472015 0.09709415 0.06436987 0.015374484 0.01797298 0.09085524 -0.07047424 -0.007015629 -0.02444344 0.030969357 -0.033952314 -0.16084692 -0.063194536 0.10975177 -0.005089298 -0.11281664 -0.09899605 -0.1527 0.16979785 -0.18859626 -0.06981779
哈哈哈哈 -0.13702896 0.0068818023 -0.107595466 0.025696808 -0.053367097 0.025264706 -0.13868798 -0.014097165 0.02799316 -0.030112758 0.07320061 -0.0266844 0.100563206 -0.00822415 -0.037169226 0.022301128 -0.056195363 -0.09984544 0.0066830614 -0.019537484 -0.047241874 -0.06811764 0.011524839 -0.10233789 -0.12030852 0.02250271 0.0015906262 -0.04445457 -0.03812615 0.07084066 -0.055193163 -0.044880964 -0.007111779 -0.017216485 -0.021989034 -0.12605776 -0.023012573 0.040387567 0.032141175 0.0021192029 -0.010621584 -0.123518616 0.03366526 -0.083519645 0.06676592 -0.012429034 5.984304e-06 0.02014933 -0.0880629 -0.06442355 0.0017791429 0.012215163 0.070420675 0.06766796 -0.09791574 -0.08160783 -0.024170583 0.033277165 0.04358885 -0.056283135 -0.10129888 -0.0062441677 -0.0206253 -0.0886032 -0.02129625 0.15066658 0.046488337 0.11155677 0.056695525 -0.0032836916 0.03879794 0.06851464 -0.06751291 0.0021415711 -0.049051184 -0.015145368 0.025872739 -0.044865593 0.028501263 0.05534933 0.0037546325 0.06523731 -0.003798344 0.07248888 0.06396791 0.016744163 0.014206441 -0.027820656 -0.08989569 -0.001347465 -0.023659322 -0.016962593 -0.06946283 0.121230915 -0.039054874 -0.07025621 -0.035039626 -0.02939242 0.13256465 0.040763512 0.082962915 -0.1209635 0.08661646 -0.10122089 -0.085527636 0.036685105 -0.010039541 -0.073772736 0.05757834 0.008744451 -0.01938738 -0.0401214 -0.012652497 -0.03951657 -0.052018333 0.01566828 0.032179724 -0.12684408 0.104411714 -0.0004961036 -0.056058068 -0.0903001 -0.053691644 -0.056926075 0.016101487 0.088168815 -0.040121235 -0.16227967 -0.097229935 -0.0026533648 0.011742951 -0.007840649 -0.035095334 0.06766804 0.10758459 -0.037074294 0.011557504 -0.02445886 -0.030694075 0.01232482 -0.104726814 -0.06600943 -0.036741707 -0.15831833 0.043226138 -0.058072526 -0.030988364 -0.07625253 0.015458458 0.072439834 0.0174285 0.027709888 -0.004295853 0.036067765 -0.0082411505 -0.037884638 -0.0115044825 -0.095646985 -0.13541353 -0.050662942 0.052762177 0.0236178 -0.062795356 0.11565126 -0.13517806 -0.053934842 -0.033178676 0.051722523 -0.12896776 -0.03884744 -0.11357013 -0.03096254 0.028516617 0.042856455 0.006256149 0.032696255 0.06846047 -0.02197661 0.028520862 0.06420122 0.13357154 -0.00041723225 -0.003703403 0.05223072 0.053357624 0.030856328 -0.07588385 -0.07742533 -0.07666552 0.027971568 0.17703034 0.023746185 0.08860928 0.09066815 -0.019078698 0.06369237 -0.11527263 0.0955308 0.08766729 0.13061096 0.049128048 0.0034665456 0.138648 -0.021148138 0.04347979 -0.066566035 -0.021492904 0.13852975 0.010739447 -0.047844004 -0.031626336 0.0026886535 0.0354214 -0.03259596 0.04273663 0.10718786 0.06500373 0.05813318 0.049320754 0.12367321 0.064951055 0.0028819821 0.03104113 0.09160519 -0.09503222 0.023250297 -0.071283534 -0.023718955 0.09010401 -0.1189582 -0.16784742 -0.008224624 -0.01623813 -0.061710604 -0.01478693 -0.033107657 0.06740384 -0.081624515 -0.05784177 -0.00999508 0.02232637 0.13760623 0.009144398 -0.10561814 0.027252309 0.15703458 -0.01910702 0.1223172 -0.020138163 -0.040979974 0.08002814 0.11881829 -0.09905948 0.061241467 -0.060088165 -0.0555808 -0.11278041 0.07750422 -0.0021427327 0.01927073 0.07605443 -0.0122688515 0.021820208 -0.09391823 -0.05315246 0.0007622807 0.0004643842 0.0203922 -0.15972327 0.06600703 -0.06006433 0.031879112 0.121313676 0.12529512 0.03950284 0.015927732 0.018579213 -0.024201274 0.017121429 0.0005219885 0.0659016 0.05958192 0.025225244 0.044504434 0.08830676 -0.00801638 -0.011656089 -0.038172845 0.05314103 -0.036447424 -0.13479891 -0.05618006 0.119460516 -0.028831614 -0.054447267 -0.032900907 -0.07921747 0.104893856 -0.10388005 0.017060906
哈哈哈 -0.13175042 0.00044988125 -0.08824941 0.06325608 -0.06842616 -0.0066880845 -0.14910547 -0.042351097 -0.0035467916 -0.06919401 0.10619441 -0.008239411 0.08841689 -0.0070266877 -0.041522846 -0.016188854 -0.08623663 -0.077529535 0.018852191 -0.027360307 -0.03512488 -0.05209737 0.008741312 -0.11493588 -0.122270815 0.0024114987 0.009821664 -0.04759214 -0.04030049 0.047005083 -0.04904093 -0.068421 -0.044467025 -0.02036644 -0.014070588 -0.18222563 0.009989144 0.04606452 0.0069811693 0.002109508 -0.016325615 -0.14173524 0.042305406 -0.1217258 0.066776715 -0.034238797 -0.031058647 0.010551181 -0.07992771 -0.06851021 -0.037796788 0.03583335 0.07891764 0.05336692 -0.12023649 -0.05916944 -0.040700823 0.039816327 0.027264379 -0.08635926 -0.09578676 0.010595451 -0.023052884 -0.08283864 -0.009320465 0.16438505 0.02334162 0.114521064 0.0389444 -0.008580688 0.058685537 0.029406602 -0.112302184 -0.013928399 -0.021931881 -0.014758571 0.021468654 -0.017574819 0.026858104 0.0365965 -0.01271308 0.089065574 -0.041453287 0.04943365 0.102128066 -0.026404256 0.050496757 -0.014308814 -0.105112724 0.008429932 -0.0434195 -0.025173679 -0.12888764 0.099178806 -0.0037809599 -0.10820858 -0.05079276 -4.8027516e-05 0.13442922 0.039902996 0.07055667 -0.14565593 0.087421626 -0.11467045 -0.114107765 0.049470767 0.007913087 -0.059269577 0.058610987 0.029345332 -0.008300391 -0.0070520183 -0.035040587 -0.041028902 -0.0819228 0.017766623 0.054446515 -0.12998284 0.11509297 -0.005705774 -0.10104432 -0.10102277 -0.058397304 -0.11802194 0.041840643 0.083801046 -0.046446953 -0.2109689 -0.10932821 0.02734318 0.03501978 0.0040916223 -0.090721816 0.09974123 0.09598719 -0.030443123 -0.0064805765 -0.04376794 -0.03961114 0.016315382 -0.09917954 -0.042055264 -0.048391182 -0.13811325 0.01481043 -0.064954184 -0.03862002 -0.07739603 0.037619617 0.087628745 -0.012651892 0.06678669 -0.0048636985 0.039227497 -0.030854493 -0.063360885 0.021770203 -0.07274318 -0.16036771 -0.08997738 0.049096264 0.025413781 -0.09998133 0.12710938 -0.15814774 -0.041627776 -0.03067943 0.09123593 -0.12950672 -0.0903521 -0.12524422 -0.070967756 0.005249133 0.026825292 0.029218111 0.053563017 0.09465122 -0.037937917 0.028618231 0.11084046 0.1366283 -0.018112896 -0.0320303 0.11106863 0.031592797 -0.016878167 -0.0887115 -0.06781957 -0.07369164 0.05985632 0.22810128 0.0017627757 0.058485355 0.12419126 -0.042149954 0.10705186 -0.14644833 0.070615195 0.11805905 0.12091684 0.09668381 0.039304763 0.17500415 -0.033215694 0.053875584 -0.06766067 0.009928169 0.13196722 -0.022038141 -0.034573253 -0.010914576 0.0059488956 0.027627485 -0.063853554 -0.0031075566 0.13768905 0.09177645 0.055406347 0.0682558 0.17965259 0.04107594 0.058300287 -0.0055716773 0.06960065 -0.0918478 0.08678565 -0.051168393 -0.0455563 0.064713664 -0.10315591 -0.17039187 -0.023912318 0.013944946 -0.05226773 -0.009960581 -0.03598683 0.06557079 -0.09858694 -0.0371704 -0.034321997 0.07616361 0.12182617 0.007981251 -0.088701025 0.03446886 0.1640909 -0.037462004 0.12604807 -0.00590198 -0.04616883 0.11592914 0.12673135 -0.114491045 0.10276308 -0.028781999 -0.039293624 -0.106705844 0.10131019 -0.016386524 0.01422427 0.094958216 -0.048286535 0.010150636 -0.085503004 -0.08429977 0.046216518 -0.00507962 0.00328419 -0.19201015 0.08553274 -0.09848234 0.0063774073 0.12163457 0.1280302 0.028316777 0.0047033397 0.00045769237 -0.015869815 0.06518131 -0.034432232 0.07699499 0.05660447 0.020256648 0.023313371 0.08095757 -0.044427045 -0.010787936 -0.028057577 0.038529024 -0.028838836 -0.13403697 -0.055512484 0.10264826 -0.0111181745 -0.08423606 -0.06587727 -0.10537275 0.1268664 -0.1370737 -0.03138247
是 -0.17562473 0.0010572971 -0.10957166 0.110716425 -0.10336714 -0.03080813 -0.21798013 -0.07762396 -0.022416508 -0.11532133 0.17091519 -0.0003182428 0.11653746 -0.015329752 -0.06380221 -0.050600257 -0.13580853 -0.0940132 0.04123348 -0.04871853 -0.039525148 -0.06053192 0.011692021 -0.17418446 -0.17512965 -0.011524295 0.018072667 -0.07320689 -0.06889573 0.04686838 -0.06890182 -0.10838997 -0.09380622 -0.03484957 -0.023738973 -0.2971097 0.042844046 0.066838935 -0.0056686387 0.003947302 -0.027397968 -0.21492887 0.06526529 -0.19872919 0.094533436 -0.066360235 -0.061166625 0.016841112 -0.10843692 -0.10089644 -0.07408907 0.062334776 0.124373004 0.074582495 -0.18887295 -0.065548986 -0.07462549 0.065148264 0.03478203 -0.13898246 -0.129169 0.024838828 -0.03633164 -0.11206774 -0.0050090374 0.23749144 0.013739395 0.16575497 0.04028467 -0.020950206 0.09432753 0.015384034 -0.18700668 -0.027914606 -0.0101533905 -0.023324853 0.034601383 -0.008148575 0.03909235 0.044270746 -0.02913232 0.14998081 -0.07853735 0.05204249 0.16555636 -0.06638697 0.09094797 -0.011767048 -0.15639554 0.013505767 -0.073120795 -0.04092846 -0.21872145 0.120009325 0.019711757 -0.17815597 -0.08144861 0.0142006595 0.19317353 0.04904495 0.08645043 -0.23235609 0.12806612 -0.1722212 -0.17790908 0.07602258 0.018226415 -0.07798991 0.085262276 0.060507312 0.0006118153 0.01375593 -0.06702394 -0.05871976 -0.13847673 0.02498449 0.086497284 -0.1942316 0.17562076 -0.016890358 -0.16962577 -0.15556656 -0.08727755 -0.2032588 0.08115717 0.11139655 -0.06525033 -0.33052492 -0.16815473 0.059207022 0.06473837 0.015800389 -0.16994928 0.16205905 0.12624842 -0.034648314 -0.022614256 -0.07691865 -0.06728263 0.022966774 -0.13248707 -0.046219997 -0.07299228 -0.17466931 -0.0053045694 -0.09378492 -0.06261919 -0.10882903 0.06305197 0.13172685 -0.030113742 0.11662218 -0.005089522 0.054810017 -0.061077375 -0.10658777 0.049517415 -0.082729034 -0.24706835 -0.15884735 0.062684454 0.03278903 -0.16164333 0.19050467 -0.2423208 -0.04824986 -0.0420754 0.15212357 -0.1860552 -0.16171673 -0.19001807 -0.13013472 -0.0014033379 0.024105547 0.056839135 0.09071842 0.14572833 -0.06871608 0.04319736 0.19120301 0.19071771 -0.029219046 -0.06735467 0.19469328 0.02648585 -0.060867254 -0.13011847 -0.085459985 -0.11155813 0.101854384 0.35671362 -0.017366659 0.07087121 0.19496046 -0.0796949 0.17899378 -0.2226066 0.0901726 0.18611076 0.1663083 0.16658433 0.07994932 0.26685712 -0.055163417 0.08685066 -0.1003231 0.03038885 0.19196121 -0.04815427 -0.04374748 -0.0040442636 0.016073573 0.039511032 -0.11010965 -0.033934526 0.21462968 0.14539708 0.07436868 0.11525473 0.29345137 0.03889444 0.117195606 -0.027664762 0.0860113 -0.124685474 0.16705738 -0.06213687 -0.07788524 0.0680813 -0.13640879 -0.24749571 -0.047379497 0.042422637 -0.06686679 -0.0033509948 -0.048190087 0.1000794 -0.14639589 -0.04252287 -0.06359241 0.15239167 0.16856113 0.0137152625 -0.11358866 0.050208066 0.23354605 -0.066898696 0.18119672 -0.005889826 -0.06407142 0.18630023 0.18860754 -0.17494431 0.1762226 -0.016927186 -0.042333063 -0.14777762 0.15414236 -0.040650856 0.017250441 0.15182066 -0.096652485 0.0021011594 -0.119009405 -0.1361838 0.10349901 -0.015507349 -0.005694168 -0.28704676 0.13487627 -0.1643352 -0.0074063367 0.17007507 0.18321308 0.038786553 0.0021966847 -0.012469041 -0.011507485 0.12728338 -0.06789809 0.11462948 0.07847612 0.019656304 0.023524517 0.106241226 -0.08320574 -0.0098175295 -0.03345448 0.038289342 -0.041268498 -0.18929587 -0.075461574 0.12968393 -0.0064173094 -0.13487168 -0.115071 -0.17441954 0.20237774 -0.22464108 -0.07995079
贾玲 -0.17528743 -0.00038789696 -0.10789088 0.10885419 -0.10122159 -0.030304262 -0.21603619 -0.079731755 -0.024254188 -0.11096518 0.16973262 0.0034240608 0.11856187 -0.013062225 -0.065196134 -0.05215245 -0.13191804 -0.089894034 0.036729913 -0.05115079 -0.04091669 -0.062182054 0.015515704 -0.17363335 -0.17390217 -0.0096263895 0.017143156 -0.071960844 -0.067452975 0.04934246 -0.06775762 -0.10673799 -0.086780004 -0.034071974 -0.02094105 -0.29060495 0.04068458 0.0663931 -0.007992124 0.001690066 -0.030181503 -0.21304439 0.064090505 -0.19455382 0.094153464 -0.06675397 -0.059502453 0.01809614 -0.10933644 -0.09733238 -0.07385183 0.06018685 0.12102687 0.06994835 -0.1845939 -0.06389527 -0.07602283 0.060995508 0.03386236 -0.13480726 -0.12671639 0.02364932 -0.03766589 -0.11312171 -0.0052581644 0.23032296 0.0115568265 0.16307 0.038008213 -0.020023156 0.089107834 0.017467018 -0.18109931 -0.02480485 -0.008716405 -0.022661325 0.03577527 -0.010332112 0.036454428 0.04278179 -0.028842887 0.146136 -0.07957513 0.052436583 0.1606374 -0.06415009 0.08952466 -0.009293858 -0.15374559 0.013517031 -0.06820868 -0.03906014 -0.21145506 0.11961525 0.01950961 -0.17618893 -0.08064394 0.009025781 0.19222628 0.050172385 0.087792225 -0.23032099 0.123876706 -0.16650157 -0.17436828 0.06961923 0.015786301 -0.076272 0.08400043 0.05958738 0.0026868351 0.013136838 -0.063958615 -0.05625687 -0.13803782 0.02522352 0.08112844 -0.19216284 0.17302202 -0.01808007 -0.16748074 -0.15059292 -0.08789331 -0.19500677 0.0797669 0.11268426 -0.06745193 -0.32572755 -0.1678621 0.058154944 0.06461992 0.013939612 -0.16446356 0.15775101 0.12920715 -0.033848234 -0.02397391 -0.07556135 -0.06666669 0.02518102 -0.13234708 -0.046679713 -0.06801969 -0.17716034 -0.0018339218 -0.09265585 -0.058946732 -0.10598356 0.063598774 0.13137668 -0.028490923 0.11117847 -0.008253724 0.055664092 -0.060566407 -0.10729929 0.05000926 -0.08512835 -0.24110441 -0.1542676 0.06415507 0.030457376 -0.15960331 0.18796907 -0.23679474 -0.046013553 -0.03979659 0.15098603 -0.1830756 -0.15851338 -0.1877909 -0.12383466 0.0011023043 0.025096642 0.05655081 0.08584797 0.14243582 -0.07344794 0.04243062 0.1883704 0.18516426 -0.029400365 -0.065150365 0.19316241 0.027976034 -0.057694007 -0.12666513 -0.08467291 -0.10644603 0.10309429 0.35181165 -0.020243887 0.07067935 0.18924387 -0.07660981 0.18018346 -0.2218888 0.088043615 0.1827174 0.16459243 0.16733001 0.07438318 0.2651601 -0.047109887 0.08603601 -0.09617798 0.02584021 0.186198 -0.04271992 -0.044778466 -0.0064840633 0.017648837 0.03943928 -0.10826208 -0.033341855 0.21094489 0.14411052 0.071350336 0.11501551 0.28956538 0.04157106 0.111650616 -0.022116138 0.08221581 -0.124671645 0.16087382 -0.058934122 -0.07950312 0.06695894 -0.13595837 -0.24358371 -0.048192196 0.039980706 -0.065208994 -0.003530378 -0.046126533 0.09887281 -0.14451267 -0.045287527 -0.060288593 0.14543252 0.16904339 0.00843863 -0.111814454 0.053058267 0.233172 -0.06246649 0.17352517 -0.0059932107 -0.06612269 0.17818685 0.18212336 -0.1713485 0.17058079 -0.0241131 -0.044210445 -0.14909193 0.15204366 -0.036080405 0.014083318 0.14849997 -0.09686089 0.0017126187 -0.11557767 -0.13287306 0.09944264 -0.015902678 -0.00639122 -0.2856902 0.13076162 -0.16186011 -0.005645125 0.16865708 0.18083127 0.038657155 0.0031177609 -0.013986419 -0.013815422 0.12770687 -0.06821625 0.11214067 0.076399304 0.025153155 0.020905815 0.10229707 -0.07862338 -0.01151926 -0.030396525 0.040500812 -0.045836516 -0.18545404 -0.07337345 0.12494488 -0.011654872 -0.13392766 -0.1132004 -0.16880324 0.19896968 -0.22150348 -0.07681788
这 -0.16262144 0.0011129028 -0.10530416 0.1071636 -0.101495974 -0.028918855 -0.20003237 -0.07099488 -0.020346899 -0.107252374 0.16390598 0.0009180062 0.11408748 -0.012810514 -0.06237828 -0.048171125 -0.12546223 -0.08691812 0.041638844 -0.04443093 -0.03907527 -0.059806544 0.016466271 -0.16254298 -0.16538101 -0.011693074 0.014860437 -0.06951789 -0.06287233 0.0450981 -0.06570069 -0.10019415 -0.08587746 -0.03136883 -0.02117209 -0.2771861 0.036969624 0.061290357 -0.0027523923 0.0037579373 -0.027834391 -0.20073083 0.058343906 -0.18742847 0.088000186 -0.059530575 -0.056136332 0.012340114 -0.09827343 -0.09243394 -0.06826384 0.06011988 0.11655596 0.06993146 -0.17692399 -0.058939677 -0.06997344 0.06032935 0.035168003 -0.12964499 -0.121095106 0.02101934 -0.034388486 -0.10517768 -0.0035835633 0.22304039 0.013969762 0.15345241 0.036788967 -0.022671048 0.08327421 0.01295708 -0.17259225 -0.024153844 -0.00883868 -0.019705035 0.033434134 -0.010521428 0.03821809 0.043007534 -0.028946348 0.14196968 -0.076653264 0.046377733 0.15703137 -0.060936246 0.08414875 -0.013767171 -0.14432159 0.012088086 -0.06764932 -0.037427027 -0.20296668 0.113126464 0.015527155 -0.16572598 -0.07296936 0.013099594 0.17849995 0.048649434 0.082414605 -0.21904312 0.12029927 -0.16091995 -0.1676176 0.07101096 0.014732685 -0.07224716 0.07789546 0.056696698 -0.0016137197 0.012331513 -0.06297379 -0.05681116 -0.13149053 0.025183905 0.08077022 -0.1805599 0.16441151 -0.014529161 -0.15688078 -0.14294739 -0.08147704 -0.18978877 0.07661202 0.10415132 -0.065237336 -0.30672872 -0.15491983 0.054503042 0.06402721 0.013040094 -0.1546547 0.14965789 0.11921285 -0.03206902 -0.018832168 -0.0720207 -0.057624523 0.020293048 -0.122966126 -0.042121723 -0.06673746 -0.16524647 -0.0049539157 -0.085989624 -0.056649044 -0.099394605 0.060040947 0.12128448 -0.030207586 0.110445805 -0.0061873808 0.05243454 -0.05952208 -0.098543435 0.04650332 -0.07956065 -0.23092717 -0.14822312 0.062987655 0.028449913 -0.15183921 0.17381182 -0.22822122 -0.04289946 -0.0342768 0.14295407 -0.17518601 -0.15232037 -0.17618859 -0.12160168 0.0013702046 0.018072242 0.051681727 0.0834182 0.1345368 -0.06544018 0.041907594 0.17812784 0.17881079 -0.029436223 -0.063201845 0.1837752 0.028816814 -0.056610376 -0.12241076 -0.08093514 -0.10379845 0.098124474 0.33414537 -0.016800437 0.06397438 0.1785542 -0.075926386 0.16821225 -0.20996073 0.082553096 0.1734328 0.15508418 0.15883635 0.07254082 0.24716961 -0.052507393 0.08392521 -0.092689194 0.028380565 0.17971127 -0.046647523 -0.04131826 -0.004642793 0.015045002 0.03337182 -0.102938704 -0.034310214 0.2009768 0.1345231 0.06812824 0.10711598 0.27061114 0.03598973 0.10978003 -0.027672205 0.0768521 -0.11917832 0.15544689 -0.05894507 -0.07485107 0.06257406 -0.12509805 -0.23468906 -0.047984224 0.03957042 -0.06473989 -0.0016756811 -0.04571214 0.094541505 -0.13659564 -0.04090292 -0.06123316 0.14311749 0.1594698 0.014661178 -0.107274525 0.048463818 0.2180522 -0.062984936 0.16774845 -0.008359223 -0.0613717 0.17362645 0.17699453 -0.16227521 0.16083181 -0.01613077 -0.03943368 -0.1418061 0.14408106 -0.034709606 0.016343862 0.13823251 -0.09368642 0.0019368969 -0.112505786 -0.12917796 0.09454069 -0.016099831 -0.0029696869 -0.27074406 0.12930487 -0.15464768 -0.0067136316 0.15883958 0.17017895 0.03970207 0.0040607294 -0.010711381 -0.011466274 0.11926447 -0.06300973 0.10434965 0.070360236 0.019763937 0.019571822 0.099970505 -0.079481535 -0.008055174 -0.028923871 0.037672594 -0.040663417 -0.17428634 -0.0699229 0.12084731 -0.0069097583 -0.123853125 -0.107587315 -0.1601592 0.18846169 -0.20946564 -0.07792298
笑 -0.13649148 -0.0019191924 -0.08918265 0.08345051 -0.07867591 -0.022765044 -0.16711704 -0.05920435 -0.01453603 -0.08357885 0.12949379 0.0020638017 0.090537906 -0.008118147 -0.04739408 -0.03626565 -0.100823715 -0.07173305 0.028090335 -0.039372165 -0.028161835 -0.04805684 0.010719783 -0.12798338 -0.13741964 -0.0069855954 0.009672187 -0.056500893 -0.047547195 0.039422948 -0.05658914 -0.082800515 -0.06316998 -0.023460902 -0.015550837 -0.2246815 0.028212339 0.052712485 -0.0008115413 0.0028980025 -0.022952484 -0.16496408 0.046969578 -0.14711721 0.07155649 -0.05045007 -0.041482683 0.010998721 -0.08291104 -0.073979065 -0.051033575 0.045240473 0.09495818 0.05949397 -0.14024444 -0.054789767 -0.055405397 0.04958463 0.024307033 -0.10644592 -0.10084128 0.02029073 -0.028714828 -0.086893976 -0.004449617 0.17691275 0.01139029 0.12692185 0.029353136 -0.01567985 0.068399444 0.014419503 -0.1392877 -0.018917423 -0.013253893 -0.01596252 0.023092765 -0.012103527 0.031273134 0.03637175 -0.018853152 0.10649512 -0.058323428 0.047540292 0.12252243 -0.049647562 0.06219852 -0.0081661865 -0.11729969 0.009821564 -0.054161336 -0.032349758 -0.15905769 0.095599845 0.009691166 -0.13303861 -0.059239924 0.007739282 0.1487008 0.040230032 0.065423205 -0.1730841 0.09555233 -0.12589651 -0.13195945 0.05764727 0.0082457485 -0.059986737 0.06249349 0.04074054 -0.002957426 0.008352156 -0.046353184 -0.044347633 -0.10103909 0.022686832 0.063884094 -0.14888556 0.12960349 -0.00905599 -0.12867223 -0.11921834 -0.06653935 -0.14588964 0.062413074 0.09169542 -0.053015042 -0.24886952 -0.13149127 0.038182996 0.049822778 0.016723908 -0.12237987 0.12260424 0.10200342 -0.031632677 -0.01554511 -0.056268428 -0.050042953 0.018322354 -0.09994472 -0.035170756 -0.05215446 -0.14027004 0.004349396 -0.07356614 -0.048649613 -0.0805665 0.046195045 0.10054415 -0.026128082 0.08512111 -0.00784589 0.04134856 -0.042599663 -0.08347765 0.037445065 -0.07017477 -0.18266755 -0.11912586 0.049688373 0.024539476 -0.12062876 0.14402051 -0.18171328 -0.03830465 -0.029835546 0.113990955 -0.142526 -0.119589284 -0.14262041 -0.09794932 0.0018958324 0.023269176 0.039183035 0.06654357 0.10744047 -0.057070997 0.030322291 0.14232643 0.14232723 -0.02613688 -0.049036752 0.14464541 0.025118416 -0.042007033 -0.099522024 -0.06939965 -0.08363221 0.07858698 0.2653699 -0.015222317 0.057615172 0.14512052 -0.056499954 0.1342617 -0.17145017 0.06672796 0.14168797 0.12749328 0.12522122 0.05354552 0.20117138 -0.035428364 0.067028314 -0.07294287 0.017895507 0.14544779 -0.028632717 -0.03301176 -0.00425259 0.008696536 0.02823491 -0.082548894 -0.017735757 0.15878806 0.11323687 0.056993302 0.09026605 0.21859829 0.034694828 0.07979691 -0.013847716 0.065697074 -0.093411095 0.1223584 -0.049742177 -0.06132179 0.058934886 -0.10976945 -0.19244894 -0.0351357 0.030233635 -0.053876203 -0.0019121506 -0.037793003 0.07400693 -0.113119714 -0.034832135 -0.04899911 0.10679776 0.13019824 0.010549846 -0.090434596 0.038871657 0.17792727 -0.04892539 0.13737851 -0.0041278186 -0.052277397 0.13230549 0.14628641 -0.13644968 0.12734665 -0.021501608 -0.037699986 -0.117025085 0.1146768 -0.029930403 0.011737072 0.11496724 -0.07049252 0.0033051346 -0.092321016 -0.099311925 0.07182743 -0.008072869 -0.0015073031 -0.21791106 0.10020129 -0.119722135 -0.0005603983 0.12819612 0.13696933 0.028929796 0.0015659741 -0.010582237 -0.011112916 0.09389255 -0.045992482 0.08335278 0.06063741 0.013972848 0.022266297 0.07973512 -0.06313502 -0.005220934 -0.026403854 0.035309285 -0.031117816 -0.14538088 -0.055431865 0.10355453 -0.01097544 -0.10129222 -0.08452166 -0.13013758 0.15182994 -0.1679865 -0.0506437
泪奔 -0.12424997 -0.0049868277 -0.08154973 0.07390993 -0.07269954 -0.01742905 -0.15834326 -0.046252437 -0.019054985 -0.08149806 0.11830113 0.002904018 0.080942936 -0.013217145 -0.042552426 -0.028036643 -0.09067947 -0.07273974 0.032374915 -0.030897338 -0.024582198 -0.037664376 0.003914647 -0.12543899 -0.11981924 -0.0008578915 0.0075849 -0.057875037 -0.051149722 0.039186884 -0.05034484 -0.06862624 -0.059484553 -0.02271934 -0.014435741 -0.20295301 0.028167436 0.044108897 0.0008158596 0.00013170864 -0.019499196 -0.14386861 0.04633718 -0.14229992 0.07203339 -0.050498854 -0.034332942 0.010906822 -0.084370635 -0.074304275 -0.048288994 0.045942597 0.08779751 0.0509624 -0.12509702 -0.052286144 -0.049365915 0.0430675 0.030660333 -0.09320274 -0.097894214 0.012895004 -0.02993084 -0.080602795 -0.0001638528 0.16521823 0.013679055 0.11784932 0.03053884 -0.01005868 0.056575622 0.021274816 -0.13138841 -0.016316766 -0.014859886 -0.017105736 0.027436642 -0.0027186638 0.030284518 0.03524943 -0.024875268 0.0981423 -0.051801395 0.03260196 0.12159741 -0.043224804 0.06715538 -0.009410237 -0.110141374 0.011006992 -0.053209238 -0.022311524 -0.15415466 0.085629754 0.008771634 -0.13221742 -0.056075174 0.0075734225 0.13345815 0.032862004 0.06649939 -0.16778088 0.08971611 -0.11845922 -0.123549476 0.050146062 0.0047621923 -0.05629749 0.06284953 0.045271147 0.0049048834 0.008879557 -0.038525093 -0.040080998 -0.09668489 0.013695562 0.050719857 -0.13620575 0.12328076 -0.0149642 -0.11440139 -0.10621662 -0.060718644 -0.13663717 0.057829205 0.08302644 -0.039041836 -0.2376882 -0.11238482 0.03280866 0.039185088 0.015275829 -0.119473696 0.11439911 0.092766896 -0.021865735 -0.019079613 -0.056841586 -0.05132093 0.020850286 -0.09177448 -0.04119647 -0.05613082 -0.12888052 -0.0037724858 -0.07095621 -0.046586826 -0.07938827 0.049204644 0.09085591 -0.024035456 0.08838084 -0.011644139 0.037883498 -0.03590621 -0.074304774 0.030175699 -0.060850564 -0.17398335 -0.10607718 0.039247684 0.023866918 -0.11108644 0.130104 -0.16838762 -0.034403134 -0.025097582 0.10722434 -0.12400272 -0.10839268 -0.13765556 -0.08469214 0.0015432201 0.022020346 0.042989787 0.059421226 0.108021155 -0.050375514 0.026180008 0.12764156 0.13662945 -0.026426725 -0.043317523 0.14198078 0.025191203 -0.03624554 -0.09763928 -0.056525912 -0.07750498 0.06630148 0.25284263 -0.008933953 0.048431743 0.14128993 -0.051140286 0.12841083 -0.15603097 0.06286592 0.13473509 0.11668056 0.12039813 0.05207133 0.19249247 -0.042820267 0.055994637 -0.06798981 0.023379311 0.12960823 -0.029817704 -0.03697677 -0.001247032 0.015679572 0.020735282 -0.082065366 -0.018533867 0.14375797 0.10991645 0.0532146 0.084569626 0.21022579 0.030975707 0.0743703 -0.017728547 0.067023866 -0.08275719 0.112998396 -0.047223758 -0.0603026 0.051979367 -0.0985529 -0.18028867 -0.033989754 0.031155663 -0.04256162 -0.0038796777 -0.029280897 0.06588803 -0.10199816 -0.028787734 -0.041373245 0.10289703 0.123140626 0.007950018 -0.08445594 0.035769213 0.16521077 -0.049946416 0.12373349 0.0013859181 -0.042913727 0.12971213 0.13169077 -0.12607183 0.1249493 -0.021385005 -0.030305035 -0.102439195 0.11366227 -0.026300253 0.013892055 0.110773094 -0.07186471 -0.0031759057 -0.0922694 -0.097414315 0.070449814 -0.0044550835 -0.0074629816 -0.20621005 0.091165245 -0.11465771 -0.0013731933 0.12710384 0.12769394 0.029107537 0.006694387 -0.014079283 -0.0033603532 0.091637485 -0.04542685 0.08106039 0.05780877 0.020280387 0.022379458 0.07793757 -0.058946345 -0.010533355 -0.01801042 0.034225646 -0.025535354 -0.13851728 -0.05849203 0.08834132 -1.7972136e-05 -0.09825068 -0.07516956 -0.12071995 0.14435522 -0.15192552 -0.056294464
也 -0.17412472 -0.00049569376 -0.11119785 0.10725656 -0.103916384 -0.030588342 -0.21344279 -0.076970086 -0.021670781 -0.11147427 0.17019247 0.001592669 0.11530039 -0.01094618 -0.06209498 -0.047968425 -0.13222829 -0.091993935 0.041906968 -0.05149985 -0.037958577 -0.06051199 0.014397506 -0.17260645 -0.17065616 -0.012485093 0.017139392 -0.074501686 -0.06767815 0.04919027 -0.06879882 -0.107120164 -0.0898045 -0.02991506 -0.024219839 -0.29146415 0.0421405 0.063274905 -0.006074599 0.00010351345 -0.027093645 -0.21160565 0.060233586 -0.19670753 0.095062084 -0.06688359 -0.058422364 0.014226067 -0.10539573 -0.09927946 -0.06911939 0.05893506 0.121493615 0.07473671 -0.18448476 -0.069240056 -0.074963085 0.061359767 0.033056695 -0.13585341 -0.12848218 0.027545895 -0.038138993 -0.11217993 -0.005566341 0.23138475 0.012790537 0.16318871 0.037931845 -0.02000687 0.08969576 0.01737723 -0.18271169 -0.026102455 -0.009345327 -0.023481527 0.033172537 -0.011668588 0.03606923 0.042161897 -0.028187746 0.14514434 -0.08029117 0.052996974 0.16456859 -0.067440726 0.09200071 -0.012395409 -0.1542149 0.016369378 -0.06847238 -0.042273205 -0.21147673 0.12250617 0.017458424 -0.17388962 -0.07864713 0.015752858 0.18983293 0.050039545 0.08469188 -0.2293977 0.1267326 -0.16591744 -0.17493229 0.07200347 0.018384498 -0.07264221 0.086116396 0.06063444 0.0027191632 0.0101312455 -0.06637055 -0.058168 -0.1371208 0.025996218 0.08195176 -0.18965922 0.17428917 -0.01700909 -0.16824214 -0.15444309 -0.08729219 -0.20080188 0.07983431 0.11225965 -0.06599352 -0.3248898 -0.16674262 0.055511553 0.06415779 0.017628169 -0.16758431 0.15671246 0.124243215 -0.035098135 -0.021697776 -0.07785634 -0.06548389 0.023680316 -0.13235061 -0.042663593 -0.06757719 -0.1744345 -0.003178378 -0.09417614 -0.062570184 -0.10415057 0.06541673 0.13186195 -0.032120094 0.11552313 -0.0073404494 0.052384067 -0.06068464 -0.105959974 0.04731382 -0.08241015 -0.2421918 -0.15619522 0.064223096 0.029921226 -0.15750931 0.18888357 -0.23802671 -0.047056034 -0.04045436 0.1472839 -0.18035237 -0.15910023 -0.18430819 -0.12979718 -0.0027120423 0.02218672 0.057825163 0.08891878 0.14512208 -0.07087133 0.04040309 0.18588774 0.18671314 -0.03191801 -0.066520184 0.1907501 0.027692093 -0.05646236 -0.12933213 -0.08562456 -0.108166516 0.105756395 0.35139745 -0.018629711 0.06720593 0.19231097 -0.07546498 0.17998399 -0.2210786 0.08648625 0.18274741 0.16472301 0.16681719 0.077083535 0.26666462 -0.0533925 0.08703326 -0.09775329 0.026934063 0.18878792 -0.045909364 -0.043270458 -0.0054599782 0.016012495 0.036916625 -0.10979365 -0.032856453 0.21129179 0.14570323 0.07452082 0.114033334 0.28970915 0.04031456 0.11403554 -0.028867051 0.083223164 -0.123400174 0.16242066 -0.060585022 -0.07685655 0.068408124 -0.13213947 -0.24679436 -0.046624303 0.04185776 -0.06346475 -0.0014964803 -0.045638308 0.096511796 -0.14599901 -0.04664486 -0.06379422 0.14829454 0.16537997 0.01172756 -0.11254343 0.050297935 0.23229563 -0.0676913 0.17936502 -0.004109387 -0.06430536 0.17799205 0.18744852 -0.17241375 0.16890322 -0.01864778 -0.04439383 -0.14824264 0.15434612 -0.037726097 0.013668707 0.15139192 -0.093921304 0.00012233859 -0.117804915 -0.13138148 0.10201249 -0.014547669 -0.005465012 -0.2836352 0.13162915 -0.16074124 -0.007428587 0.16877048 0.18152504 0.036542285 0.0022169917 -0.01112492 -0.012688811 0.12826502 -0.067710236 0.11001831 0.078983344 0.020812247 0.024174018 0.10211557 -0.0808352 -0.008503828 -0.030675817 0.04188778 -0.04404217 -0.18859196 -0.073661774 0.1248356 -0.007967702 -0.13368985 -0.113042645 -0.17267005 0.19897541 -0.22097123 -0.07663548
啊 -0.13430986 -0.00064814003 -0.08695384 0.08132818 -0.076753296 -0.02120925 -0.16298479 -0.054441437 -0.015226502 -0.08357081 0.1271646 -2.365221e-05 0.09034057 -0.011983964 -0.049059276 -0.03285636 -0.10041735 -0.07195967 0.031020645 -0.033710167 -0.032371063 -0.047593504 0.011789073 -0.12970603 -0.13163607 -0.007713052 0.013287502 -0.055611223 -0.04870311 0.038131397 -0.050417513 -0.08064765 -0.06533295 -0.026233198 -0.018704854 -0.21983556 0.026741035 0.05187778 -0.0026735368 0.0015276611 -0.021836119 -0.15943094 0.049665328 -0.14686367 0.07004313 -0.048232816 -0.043033138 0.010381329 -0.08239121 -0.07724302 -0.05126352 0.04753098 0.09011637 0.057318095 -0.14046119 -0.05287331 -0.053168375 0.04692735 0.028401887 -0.10275728 -0.10022516 0.016914755 -0.026950898 -0.08548625 -0.00422282 0.17877947 0.011978959 0.1253905 0.032977488 -0.014604112 0.066861585 0.015039999 -0.13735025 -0.020468289 -0.010754694 -0.015480797 0.025793115 -0.010368333 0.028494414 0.035213478 -0.022618271 0.108628616 -0.0571199 0.039975617 0.12436894 -0.047962435 0.06759437 -0.010025944 -0.11671546 0.009629131 -0.0525834 -0.028173624 -0.15877917 0.09487278 0.009616742 -0.13147157 -0.056709107 0.010474347 0.14371833 0.037095718 0.06765481 -0.17189032 0.09492029 -0.12654924 -0.13147172 0.054977987 0.01272974 -0.058606602 0.061990622 0.044636518 -0.0027352562 0.00823314 -0.04700136 -0.043314293 -0.10361777 0.020070445 0.06323355 -0.14519292 0.12961881 -0.011663589 -0.122262 -0.115201935 -0.066595584 -0.14849709 0.059042647 0.08324365 -0.051585834 -0.24504112 -0.124173015 0.04185133 0.0475161 0.0086062895 -0.12273528 0.118332244 0.09631082 -0.026967188 -0.013283458 -0.05606728 -0.047809828 0.018847086 -0.10107346 -0.037183207 -0.05381379 -0.13540618 -0.0016818373 -0.07114361 -0.043743715 -0.08063667 0.04691093 0.0958098 -0.022561079 0.085852355 -0.004524088 0.041647658 -0.044720132 -0.07770546 0.0339574 -0.066743016 -0.18254389 -0.115848616 0.049357023 0.026171865 -0.1198093 0.13841626 -0.17755228 -0.037846696 -0.02864048 0.11044651 -0.13856864 -0.11680411 -0.13977534 -0.09500236 0.00063371344 0.017279645 0.040625956 0.067465685 0.10868325 -0.04928789 0.030753847 0.14014432 0.14197573 -0.024214981 -0.047963466 0.14357024 0.024646193 -0.03936123 -0.09660408 -0.06634749 -0.08281646 0.07635428 0.26331356 -0.0095152985 0.051233634 0.14321238 -0.058484487 0.13214356 -0.16600186 0.06849483 0.13707612 0.12395386 0.12282509 0.056408826 0.19985475 -0.041979752 0.06522836 -0.07271095 0.021201825 0.14388648 -0.034715284 -0.032529674 -0.003139335 0.011027965 0.027454963 -0.08168007 -0.023976214 0.15791745 0.10787474 0.055972196 0.083407104 0.215179 0.033039965 0.083951205 -0.020005176 0.06539226 -0.0930539 0.119449556 -0.048397835 -0.056925163 0.054636493 -0.100832775 -0.18771403 -0.03656034 0.029378027 -0.050517567 -0.005737674 -0.034610096 0.07464405 -0.110619836 -0.033950165 -0.047045678 0.10985392 0.12790373 0.009878536 -0.08667297 0.03756222 0.17658772 -0.050159607 0.1360427 -0.004822874 -0.04828513 0.13820736 0.1428376 -0.12959452 0.12852637 -0.01592873 -0.03326907 -0.112736784 0.11677301 -0.025908956 0.011338573 0.11157726 -0.07181142 0.0016037032 -0.08921551 -0.1014254 0.07273085 -0.011861273 -0.0032529263 -0.21581395 0.100763485 -0.120687716 -0.0027048073 0.12832396 0.13885482 0.030148106 0.0040923874 -0.0075013232 -0.008094462 0.092693195 -0.048120186 0.08413748 0.059153352 0.017165678 0.017207498 0.08194746 -0.061796762 -0.009488591 -0.022290764 0.029289657 -0.03015311 -0.14052513 -0.05544138 0.09739004 -0.007341217 -0.09982796 -0.08322951 -0.12913483 0.14804535 -0.16491647 -0.058047242
沈腾 -0.17683382 0.00064075354 -0.1097546 0.10820144 -0.1052653 -0.028936075 -0.21972425 -0.079830706 -0.023827765 -0.1152925 0.17276658 0.003674457 0.11623796 -0.01238023 -0.06399575 -0.05172057 -0.13708368 -0.0924224 0.038417555 -0.04918169 -0.04146892 -0.06257129 0.014350484 -0.17584807 -0.17895319 -0.012473099 0.019298313 -0.07610774 -0.06790758 0.04814497 -0.06845197 -0.106419064 -0.09081908 -0.03318361 -0.020573905 -0.29370332 0.04125281 0.06753434 -0.00358857 0.0025956852 -0.02708169 -0.21596085 0.064738736 -0.20057172 0.09236894 -0.06951742 -0.057711244 0.019210208 -0.10935563 -0.09931319 -0.07239013 0.059827648 0.1219155 0.07247106 -0.18699683 -0.064755924 -0.07772484 0.062308 0.035387896 -0.13649182 -0.1314728 0.02572449 -0.03535773 -0.114371635 -0.0020783758 0.23569717 0.011465091 0.16641572 0.041912604 -0.023156488 0.09053262 0.019756382 -0.18103212 -0.027513415 -0.010591907 -0.02011398 0.034212112 -0.011279979 0.03824259 0.044049982 -0.02975487 0.14614175 -0.08285288 0.054264873 0.16552453 -0.06343408 0.08815739 -0.009440551 -0.15685856 0.015971096 -0.069857314 -0.039666932 -0.21534555 0.122961715 0.019677432 -0.17712404 -0.08095475 0.010212616 0.19707236 0.05328859 0.086860135 -0.2309313 0.12695059 -0.17017666 -0.1737612 0.07317391 0.016236864 -0.07589595 0.0855823 0.061827492 0.0013837481 0.01281748 -0.06640392 -0.05739061 -0.13998942 0.026147222 0.084684685 -0.19597618 0.17194629 -0.016613042 -0.17059119 -0.15667056 -0.08857364 -0.19970088 0.07978117 0.1117495 -0.065364145 -0.32964706 -0.17096351 0.056823667 0.0636712 0.013904659 -0.16783679 0.15588742 0.13180825 -0.034776725 -0.024699196 -0.07927651 -0.0647411 0.026456095 -0.13570875 -0.045823373 -0.06982979 -0.17879714 -0.004310983 -0.096901625 -0.06142523 -0.10715193 0.062079404 0.13309577 -0.031899594 0.113220975 -0.008931038 0.05683449 -0.061488297 -0.10698692 0.049790595 -0.08475486 -0.24564444 -0.15417168 0.06286138 0.028080255 -0.16290139 0.18819758 -0.23907842 -0.048242357 -0.043293767 0.15310661 -0.1872435 -0.1608132 -0.19204773 -0.12402181 0.0024084963 0.024560718 0.057000946 0.088717505 0.14484347 -0.07325965 0.040293414 0.19135429 0.1918774 -0.031159336 -0.06890748 0.19422421 0.025325233 -0.057998028 -0.1273244 -0.08527732 -0.11147149 0.10199058 0.35534728 -0.019798433 0.07065468 0.1937034 -0.07662048 0.18279186 -0.22183764 0.08765232 0.18551818 0.16958626 0.16655953 0.07512859 0.26776758 -0.047069963 0.08973608 -0.09947958 0.025128512 0.18874536 -0.043793924 -0.04332691 -0.0047361837 0.016542785 0.040828057 -0.107654385 -0.030869653 0.21201013 0.15005924 0.07098025 0.1156692 0.29321176 0.042541023 0.1147139 -0.022281267 0.08754202 -0.12426218 0.165476 -0.061552253 -0.08058394 0.06958138 -0.13851945 -0.2462308 -0.045030303 0.03856402 -0.06520617 -0.0018524164 -0.046950858 0.09651633 -0.14505778 -0.046726793 -0.060951363 0.14823204 0.17120598 0.009242018 -0.11430606 0.05055154 0.23490396 -0.06404165 0.17981595 -0.0031616741 -0.065726966 0.18237594 0.18386711 -0.17221975 0.1746967 -0.025244795 -0.041941453 -0.15145089 0.15498395 -0.03903202 0.014756138 0.15110298 -0.09623038 0.0017023457 -0.116994485 -0.1348707 0.10043814 -0.016644072 -0.0037330727 -0.28771156 0.13160832 -0.16189024 -0.0076544457 0.1715549 0.18627582 0.037178442 0.0027796875 -0.013332371 -0.012917991 0.12669514 -0.06866467 0.1147839 0.07841396 0.023507832 0.021020947 0.10545113 -0.08192622 -0.010106411 -0.03163912 0.043342646 -0.045786824 -0.1911438 -0.074466854 0.12962241 -0.011455339 -0.1367985 -0.11104495 -0.17460556 0.2041559 -0.2230052 -0.079202026
死 -0.11289296 0.0014311855 -0.073758036 0.06905704 -0.06326968 -0.015728187 -0.13862534 -0.044931263 -0.014983755 -0.07196421 0.108331904 -0.0005005397 0.07753545 -0.0045722243 -0.039448597 -0.024580294 -0.08393381 -0.062474642 0.024163822 -0.033652052 -0.025029534 -0.036695886 0.007957763 -0.10447142 -0.112847745 -0.0037335206 0.010041294 -0.04633179 -0.04226679 0.033833213 -0.0467852 -0.0658264 -0.0549938 -0.020525845 -0.011501638 -0.17918672 0.020084325 0.043930676 -0.0020885356 -0.00083183846 -0.015453294 -0.13459077 0.037826248 -0.12041488 0.062167555 -0.040713985 -0.03314275 0.009284359 -0.06759396 -0.06449924 -0.044857185 0.033077743 0.078476496 0.047804806 -0.1169813 -0.046230163 -0.04193765 0.036280144 0.02059622 -0.08647706 -0.08411286 0.013749295 -0.026080742 -0.07026493 -0.00062893465 0.147406 0.012063778 0.104892604 0.02784417 -0.011109115 0.05326974 0.01172598 -0.1112129 -0.015886512 -0.008532241 -0.013420813 0.021508846 -0.007697594 0.024893874 0.025457473 -0.012869247 0.08532649 -0.050152507 0.03958202 0.101711094 -0.038683135 0.053809647 -0.008394929 -0.09435339 0.008362518 -0.044778127 -0.022854049 -0.13168833 0.079821 0.006608454 -0.11025687 -0.049648996 0.007723413 0.12377721 0.034691427 0.054408476 -0.1412621 0.08134579 -0.103530325 -0.10665881 0.042296372 0.0046501677 -0.04799926 0.05327614 0.033422522 -0.004640862 0.0030255353 -0.038699865 -0.034642883 -0.08558835 0.015617709 0.050795104 -0.117870055 0.110224314 -0.011755091 -0.09984592 -0.096287034 -0.05581398 -0.12004698 0.053377856 0.07674755 -0.043897126 -0.2039675 -0.10515006 0.031761426 0.03830194 0.011081184 -0.09796398 0.096341394 0.082855724 -0.025723966 -0.012390844 -0.04850502 -0.0409114 0.0124703385 -0.07960063 -0.031166716 -0.041448057 -0.11289051 0.00093133707 -0.064548135 -0.036931895 -0.0694348 0.039882716 0.08310964 -0.019101659 0.07251259 -0.0075874925 0.035119347 -0.03556853 -0.06754614 0.028701162 -0.05897718 -0.14994055 -0.09765483 0.03891622 0.021695005 -0.10012757 0.11667982 -0.15106383 -0.030741332 -0.026885139 0.092846304 -0.1140441 -0.099830925 -0.12052891 -0.07493503 0.0004986596 0.01660059 0.03505757 0.055635404 0.0910711 -0.048501458 0.026724251 0.113089904 0.11911221 -0.017785722 -0.040044136 0.11784981 0.021800373 -0.033098932 -0.08038125 -0.057514906 -0.068216644 0.0631772 0.22008264 -0.010113455 0.04811798 0.117957436 -0.047062684 0.10890062 -0.13591108 0.057168107 0.1131115 0.107195474 0.10247671 0.04690351 0.16561355 -0.031545926 0.053208787 -0.061768174 0.012936404 0.12080238 -0.026854372 -0.029693136 -0.0078808395 0.008180863 0.023967847 -0.069014326 -0.017988414 0.1296836 0.09104844 0.044328663 0.06832035 0.18043031 0.031672385 0.064369746 -0.009502493 0.058565684 -0.07905009 0.09602548 -0.039594155 -0.047276445 0.04984782 -0.08655883 -0.15703093 -0.028424753 0.024316777 -0.04177979 0.00085925334 -0.0325924 0.058646083 -0.09468885 -0.032671865 -0.03753009 0.087799266 0.104799725 0.008496453 -0.07726592 0.032549053 0.14761783 -0.041745193 0.11011069 -0.0024363375 -0.042465325 0.11198266 0.12054666 -0.108006194 0.10784681 -0.019839874 -0.031473566 -0.09493972 0.09248223 -0.02026011 0.012052235 0.0913846 -0.055613108 -0.00032169613 -0.07696801 -0.08358827 0.060933392 -0.0072620176 -0.0037428022 -0.174727 0.07924723 -0.09735855 -0.0016021908 0.110390104 0.11176018 0.023680825 -0.0016607668 -0.009281769 -0.010435371 0.07365807 -0.03687564 0.06866173 0.04803486 0.017112438 0.01469889 0.06572963 -0.048142344 -0.006882851 -0.023244912 0.029173514 -0.029170342 -0.1190195 -0.043941457 0.081482664 -0.0056298496 -0.08436937 -0.06980711 -0.10531544 0.12365606 -0.13432969 -0.04049517
你 -0.1789824 0.0011982134 -0.1122683 0.11297284 -0.107501455 -0.030576043 -0.21941681 -0.07904304 -0.022401858 -0.116632834 0.1760892 -0.0004468079 0.118276745 -0.011520744 -0.06406044 -0.050676905 -0.13698022 -0.095787145 0.041456237 -0.053050756 -0.042843938 -0.06362432 0.015479275 -0.17629123 -0.17716862 -0.011264667 0.016840586 -0.07512217 -0.06825529 0.04942519 -0.07295515 -0.109993346 -0.08998534 -0.032129187 -0.02270892 -0.29925808 0.04016386 0.068209566 -0.007538802 0.00307386 -0.027207445 -0.22030793 0.062000327 -0.19952561 0.09624117 -0.06822214 -0.059024975 0.016594576 -0.111674026 -0.10045548 -0.07178463 0.06007243 0.12709403 0.078228496 -0.18991019 -0.069743246 -0.07440419 0.066357926 0.036032308 -0.13791125 -0.13284107 0.025752112 -0.039804924 -0.11563737 -0.0030376907 0.23741697 0.014125461 0.17125688 0.041716192 -0.02246571 0.09550827 0.019111585 -0.18528384 -0.026961247 -0.010469117 -0.022419516 0.03568798 -0.010945397 0.04004645 0.047455687 -0.031048236 0.14741415 -0.07991913 0.0559821 0.1674325 -0.06616249 0.0904456 -0.01076831 -0.1565154 0.014632613 -0.06992463 -0.040763974 -0.21933079 0.12509099 0.017276958 -0.17958763 -0.07958842 0.01221032 0.19628489 0.05334608 0.087542765 -0.23733184 0.13105215 -0.17318979 -0.17772283 0.07531578 0.016790694 -0.07795983 0.084308974 0.060128137 0.00049624493 0.0100219 -0.06565244 -0.058837444 -0.14224467 0.027932866 0.08365277 -0.1965921 0.1765867 -0.01708942 -0.17334358 -0.15783277 -0.08863845 -0.20214722 0.08413636 0.11833069 -0.0688672 -0.33541122 -0.17184587 0.05812699 0.06395115 0.017960595 -0.17101672 0.16087352 0.12940632 -0.03585557 -0.023298798 -0.07920237 -0.068137854 0.022753228 -0.1358876 -0.0468687 -0.072183624 -0.18235683 -0.004106297 -0.0953768 -0.06305555 -0.11003985 0.064885534 0.1353375 -0.030025875 0.11766948 -0.007351337 0.054870825 -0.061356314 -0.10836855 0.04907327 -0.08553339 -0.25004813 -0.15832369 0.06557195 0.030461257 -0.16392626 0.1950272 -0.24634048 -0.050831005 -0.040503792 0.15483825 -0.18772557 -0.16135126 -0.1913847 -0.1310233 0.0015934017 0.02443788 0.056478877 0.088940874 0.14728431 -0.07272486 0.041287836 0.18993126 0.19121999 -0.03058225 -0.068971686 0.1939986 0.029643005 -0.059959922 -0.13338923 -0.09082424 -0.1129991 0.1056394 0.36218026 -0.017663244 0.07392189 0.1967719 -0.07829967 0.18228297 -0.22568163 0.09092541 0.18769382 0.17143528 0.17100723 0.07803812 0.27106795 -0.050125856 0.09174578 -0.10103536 0.025777958 0.19290511 -0.047792688 -0.04505369 -0.005555875 0.017312719 0.03759833 -0.10977904 -0.030655175 0.21776938 0.1508347 0.07596037 0.118699886 0.2974229 0.040944565 0.11687691 -0.024349466 0.088514656 -0.12625153 0.1661308 -0.060444567 -0.080654666 0.07025506 -0.14136586 -0.254663 -0.04864704 0.04155062 -0.068030596 -0.0014164796 -0.04691848 0.09860208 -0.14819615 -0.048314124 -0.06097059 0.15177354 0.17252342 0.0144443605 -0.11609932 0.05308242 0.23961851 -0.06858824 0.1837231 -0.0052751265 -0.0684684 0.18282028 0.19034441 -0.17662397 0.17651574 -0.022391926 -0.046170633 -0.15339415 0.15555266 -0.039872847 0.013599294 0.15168342 -0.09886008 0.0033296014 -0.12124985 -0.13602379 0.101589136 -0.013970125 -0.0034384879 -0.2911837 0.13349393 -0.16651103 -0.006402543 0.17384489 0.18566936 0.040435247 -0.0009099508 -0.012238734 -0.012209049 0.13135637 -0.0693871 0.114174634 0.080573894 0.022249619 0.023981616 0.10767751 -0.08380406 -0.008129179 -0.03426358 0.041384682 -0.044774372 -0.1919843 -0.07784977 0.13176113 -0.011260814 -0.13405594 -0.117253534 -0.17569904 0.20387512 -0.22495413 -0.08039218
泣不成声 -0.13255563 0.0022249296 -0.07701761 0.07994099 -0.075341575 -0.02428096 -0.15882966 -0.053538688 -0.014223592 -0.08464763 0.11905489 -0.005086275 0.088528626 -0.013347278 -0.048620213 -0.036635116 -0.08986176 -0.0687307 0.028008893 -0.034914576 -0.03120823 -0.043582242 0.0146259535 -0.12815931 -0.12317041 -0.0121764615 0.016708845 -0.054107662 -0.054501683 0.03151379 -0.044436414 -0.08041782 -0.06786486 -0.026114441 -0.019103171 -0.21192876 0.02599271 0.05159302 -0.0078778295 0.0014307722 -0.017374378 -0.1591198 0.041642815 -0.14500622 0.06407046 -0.048212897 -0.03579523 0.009632794 -0.07259455 -0.0784519 -0.046130575 0.0411719 0.088020325 0.055632014 -0.13608798 -0.050710242 -0.05058138 0.044644617 0.023664031 -0.09953943 -0.09121736 0.014568208 -0.02190902 -0.075821474 -0.006609197 0.1748552 0.013627897 0.12157697 0.029100258 -0.012847412 0.07104751 0.010996958 -0.13699985 -0.017545033 -0.0077531785 -0.012857174 0.024343612 -0.008401586 0.025461342 0.031132156 -0.017793968 0.10906919 -0.057107147 0.036871698 0.12522113 -0.04352783 0.06702846 -0.011591168 -0.11219883 0.010915204 -0.04840961 -0.027682588 -0.15237251 0.0830645 0.007799656 -0.122655466 -0.053379264 0.015049566 0.13881654 0.032963153 0.06469507 -0.16900808 0.092227854 -0.11937388 -0.12404626 0.054448996 0.014267836 -0.058731865 0.060587343 0.04254706 0.004841877 0.004616999 -0.049638446 -0.043366317 -0.10117683 0.016006125 0.061304893 -0.14144328 0.12897477 -0.016388068 -0.11784549 -0.1140565 -0.061069906 -0.14954315 0.058418952 0.076541245 -0.04963961 -0.23439586 -0.117312856 0.040908657 0.050818834 0.010736266 -0.11978372 0.11951206 0.095845655 -0.02430294 -0.010668066 -0.05729139 -0.04742789 0.012367868 -0.09981541 -0.037640814 -0.04735596 -0.12007432 -0.003972649 -0.066252515 -0.040989045 -0.07719759 0.042665415 0.093875885 -0.024184376 0.07801046 -0.0028568823 0.034952994 -0.04403253 -0.07099598 0.034550436 -0.063318714 -0.17876592 -0.1132716 0.044068113 0.020052321 -0.111337624 0.13707037 -0.16835941 -0.035835724 -0.024485573 0.10763003 -0.13618706 -0.111988656 -0.13369143 -0.09025377 -0.006403067 0.014333981 0.044930726 0.060885545 0.103338376 -0.047261868 0.026489029 0.13321269 0.13687302 -0.020152654 -0.045742672 0.14104852 0.022525458 -0.039676998 -0.08892104 -0.06655234 -0.07987175 0.07472788 0.25651768 -0.013609292 0.049761403 0.13955183 -0.052065454 0.13046326 -0.15936227 0.061236188 0.13391748 0.117724486 0.12024019 0.059513323 0.19488046 -0.037724737 0.06395713 -0.07269804 0.018982416 0.13898982 -0.032536633 -0.031351 -0.0012411493 0.0108293975 0.027784366 -0.07636802 -0.020800503 0.1528222 0.098019816 0.056150876 0.08701809 0.2036063 0.026976043 0.07645535 -0.021000512 0.063801184 -0.09356306 0.12375321 -0.04934195 -0.051960547 0.04687456 -0.094040774 -0.18146497 -0.040478252 0.02681854 -0.04914722 -0.0047649676 -0.039174583 0.074484795 -0.09977839 -0.029449275 -0.04463213 0.105613455 0.12659848 0.009425968 -0.07508883 0.03280195 0.1710835 -0.047021665 0.12967496 -0.0077247396 -0.047726892 0.13432242 0.13354386 -0.12331882 0.122952506 -0.013227766 -0.02722305 -0.10857524 0.10814264 -0.031787585 0.013428965 0.10892822 -0.071955875 -0.0021151982 -0.08004237 -0.09315626 0.07417615 -0.005095747 -0.005268855 -0.20703223 0.10095344 -0.11945967 -0.008009263 0.1212961 0.13864625 0.03105677 -0.0029525768 -0.010652208 -0.005625995 0.09630257 -0.051879358 0.085602686 0.059814 0.014013973 0.016216455 0.07878945 -0.063243635 -0.011744231 -0.015949765 0.028822524 -0.03017698 -0.13375239 -0.054137457 0.088838786 -0.0059872395 -0.09584571 -0.08001774 -0.12334846 0.14139783 -0.16124153 -0.060030825
原来 -0.13153218 -0.00091528107 -0.080674246 0.08400031 -0.077993706 -0.023679987 -0.1588396 -0.055325624 -0.018432543 -0.08342439 0.12961026 -0.00037207888 0.0895011 -0.010526468 -0.0465174 -0.03831244 -0.09800028 -0.06489037 0.03471955 -0.033439104 -0.03309922 -0.047175586 0.013261054 -0.1301071 -0.12841964 -0.007267993 0.01083282 -0.054167055 -0.04876409 0.034836512 -0.049296368 -0.081785314 -0.069260955 -0.02524395 -0.017355492 -0.22191592 0.03009334 0.051694896 -0.0045433734 0.0048432737 -0.021300694 -0.15729977 0.048357375 -0.14532036 0.07154538 -0.048032876 -0.042603 0.010881987 -0.07695694 -0.07689505 -0.05459053 0.047261365 0.090907946 0.05681009 -0.1401071 -0.046616912 -0.057470787 0.050726946 0.024581151 -0.101868175 -0.096399486 0.016120845 -0.025854852 -0.0849932 -0.0021884611 0.17755985 0.008379019 0.12389466 0.029003432 -0.017636627 0.06933526 0.012382245 -0.13658507 -0.02130069 -0.005565693 -0.017154928 0.026377533 -0.0070120394 0.028056536 0.03354666 -0.02042139 0.11378067 -0.058022223 0.038557664 0.12486385 -0.050533433 0.06889952 -0.0088916775 -0.11493698 0.009445714 -0.05615003 -0.027419996 -0.16070135 0.08941115 0.015212721 -0.1297524 -0.05585466 0.010729045 0.13857067 0.033065863 0.06159289 -0.16919456 0.0918695 -0.12760961 -0.13270898 0.05478167 0.014588495 -0.05672283 0.06000414 0.048040558 0.0019715491 0.009624899 -0.047336392 -0.04478653 -0.10598076 0.02190964 0.06135563 -0.14373603 0.13182333 -0.013378533 -0.12549382 -0.11549165 -0.0663747 -0.151605 0.05880006 0.08169401 -0.05224134 -0.2425634 -0.12284926 0.044860657 0.04954157 0.00849303 -0.12423689 0.12123021 0.095178604 -0.024742464 -0.016918425 -0.0576231 -0.04506058 0.01689382 -0.09652815 -0.030901516 -0.05340221 -0.12878758 -0.0070197545 -0.06662698 -0.04505775 -0.081136964 0.046343982 0.09773313 -0.02337027 0.086743414 -0.0060753776 0.04162195 -0.045538764 -0.07771494 0.0371343 -0.06184183 -0.17952067 -0.11701298 0.047761515 0.023581734 -0.119515345 0.1410026 -0.18113127 -0.035735205 -0.026744708 0.111929566 -0.13595958 -0.117565274 -0.13891192 -0.09472809 0.0025495337 0.014935346 0.042191826 0.069366075 0.108046815 -0.04796328 0.02985011 0.14266996 0.14142017 -0.021054039 -0.051072884 0.14480983 0.022915462 -0.0424221 -0.09596019 -0.06232751 -0.084426634 0.07524778 0.26082033 -0.013837423 0.0521498 0.14377527 -0.060579907 0.13059802 -0.16370392 0.06686763 0.13658316 0.11987493 0.123336785 0.058657154 0.1944529 -0.040131036 0.0635218 -0.074166805 0.024124129 0.1409379 -0.036453284 -0.034666117 -0.0011139048 0.010513382 0.027901543 -0.07883862 -0.02731877 0.1601793 0.10481004 0.056442168 0.08439253 0.21620598 0.027060471 0.0869369 -0.019515542 0.06392719 -0.09250815 0.12267464 -0.04462248 -0.05726993 0.048769735 -0.098855205 -0.18516544 -0.038808458 0.028901383 -0.050389625 -0.006138296 -0.033492975 0.07484728 -0.10775982 -0.028030442 -0.04724512 0.11438369 0.12565446 0.0116295 -0.085832685 0.03468608 0.17364565 -0.051664054 0.13401477 -0.006914512 -0.049146373 0.13966563 0.14247166 -0.12851205 0.13014705 -0.011183561 -0.029579146 -0.11015925 0.11644453 -0.030316658 0.012468217 0.108284324 -0.07392832 -0.00027070416 -0.08902537 -0.09999998 0.076249056 -0.013398944 -0.0052152434 -0.21254475 0.1012552 -0.12240796 -0.0076406915 0.12649034 0.1358617 0.02880955 -0.00037537207 -0.0068473984 -0.0059849257 0.09601309 -0.048802577 0.08544336 0.055759836 0.015639767 0.016491069 0.078873076 -0.061290175 -0.007862383 -0.021851463 0.026188277 -0.028568856 -0.13862033 -0.05678899 0.09549331 -0.0037743445 -0.1002613 -0.08266667 -0.13106301 0.14573348 -0.16584928 -0.062953785
有 -0.16954608 -9.305785e-05 -0.10623483 0.10269145 -0.098359026 -0.030052103 -0.2044235 -0.07635785 -0.023052845 -0.106971435 0.16538997 -0.0015500427 0.11295313 -0.011295149 -0.0622403 -0.046683133 -0.12958263 -0.0901917 0.03839263 -0.046124775 -0.03629441 -0.06027367 0.012344153 -0.16459179 -0.16740794 -0.012363776 0.017696604 -0.06972409 -0.06537022 0.047677636 -0.0645708 -0.10192252 -0.08551302 -0.032154165 -0.020507291 -0.28084126 0.041015286 0.06086476 -0.0080796555 0.0011365024 -0.026404869 -0.20506108 0.058653805 -0.19058155 0.08908479 -0.066376224 -0.057275783 0.014261882 -0.10234277 -0.09517858 -0.069328636 0.058307447 0.11927334 0.06964849 -0.17879088 -0.06342658 -0.071437374 0.059411984 0.032608047 -0.1312907 -0.12474985 0.023028605 -0.03530962 -0.10683786 -0.0037800884 0.22063011 0.01283136 0.15861036 0.036442958 -0.021947443 0.090085395 0.017284691 -0.17536674 -0.024746306 -0.00809268 -0.020508353 0.032805055 -0.008970615 0.038062483 0.040522855 -0.026425805 0.1393621 -0.07707636 0.048107017 0.15870872 -0.061530955 0.087165505 -0.009739194 -0.14853983 0.016642515 -0.06854664 -0.039308406 -0.20463555 0.117010474 0.017434843 -0.16661009 -0.076547384 0.014833821 0.18405277 0.0466528 0.081268206 -0.22088276 0.1222722 -0.16044606 -0.16756122 0.06834234 0.01584971 -0.074385285 0.079186656 0.05892144 -0.001051562 0.010961971 -0.061347626 -0.056584347 -0.13332516 0.023831153 0.07816794 -0.18289846 0.16620843 -0.016270326 -0.15909423 -0.14662655 -0.08280401 -0.18968298 0.078824714 0.109037876 -0.06282513 -0.31367162 -0.15924273 0.05671656 0.062429894 0.016686903 -0.15985854 0.15065856 0.12119159 -0.033477142 -0.019820359 -0.07257522 -0.0642466 0.02162948 -0.12638102 -0.042242326 -0.068930775 -0.16612752 -0.0021419849 -0.08903297 -0.05790039 -0.10120944 0.06287865 0.12682033 -0.028720275 0.11042843 -0.0050229183 0.051237363 -0.056174964 -0.10388393 0.04733299 -0.0801105 -0.23515987 -0.14843588 0.06012698 0.028798284 -0.15403512 0.18114547 -0.22861615 -0.046615 -0.03859457 0.14279802 -0.1746031 -0.15309843 -0.1807881 -0.12388512 -0.00023663642 0.021615602 0.05610057 0.08515108 0.13708289 -0.0675233 0.03857274 0.17908059 0.1806778 -0.031118635 -0.065665446 0.18536355 0.025858965 -0.05802413 -0.12310321 -0.083892554 -0.10374696 0.09939396 0.3367791 -0.01671544 0.067594305 0.18432349 -0.07221788 0.17186458 -0.21248205 0.08248621 0.1751441 0.15974803 0.1606386 0.0730759 0.25592592 -0.051084604 0.08312513 -0.09413626 0.027756777 0.18228157 -0.046263885 -0.038667068 -0.0065959 0.01629738 0.03546645 -0.10477765 -0.0301188 0.20271054 0.1396433 0.06968924 0.10998043 0.27922153 0.040965963 0.10807424 -0.025864271 0.078980714 -0.11731727 0.15723126 -0.05529784 -0.07484914 0.066136494 -0.12816264 -0.23500733 -0.044153288 0.04122047 -0.063895255 -0.0023042818 -0.043023657 0.091986045 -0.13996914 -0.041618284 -0.05723519 0.14107513 0.1603175 0.011528245 -0.108030945 0.048644233 0.22223333 -0.06351601 0.1701609 -0.0072090924 -0.06154347 0.17427075 0.17854257 -0.16631037 0.16423675 -0.019274093 -0.04076494 -0.14235543 0.14506796 -0.03552999 0.013715063 0.14324284 -0.09185593 0.0026840502 -0.11085929 -0.12808007 0.09697644 -0.015380749 -0.0034906634 -0.27237958 0.12573023 -0.15394053 -0.0090119 0.1613834 0.17415835 0.03498895 -0.00028117528 -0.0134120155 -0.012109708 0.1223678 -0.06471282 0.10586208 0.07581552 0.02040226 0.023181578 0.09958285 -0.078672454 -0.010308829 -0.030716605 0.039583743 -0.04163211 -0.17820434 -0.07386289 0.12279413 -0.007367601 -0.12719832 -0.109166354 -0.16682573 0.18980436 -0.21210028 -0.07332631
看 -0.19047193 0.0020898266 -0.120330736 0.11883465 -0.11223855 -0.03149486 -0.23402807 -0.08382085 -0.025550704 -0.12249662 0.18594497 0.001516506 0.12713338 -0.013491434 -0.06920565 -0.0549492 -0.14577118 -0.102027215 0.04574046 -0.056111373 -0.042288575 -0.06846726 0.014506382 -0.18787347 -0.18808867 -0.011582219 0.018063333 -0.08000038 -0.0706655 0.0519064 -0.07734336 -0.11700298 -0.09860473 -0.036682867 -0.02406299 -0.31721517 0.042409286 0.06994915 -0.006156027 0.0033629718 -0.02897546 -0.23024967 0.067919776 -0.21317732 0.1017666 -0.073136374 -0.063073866 0.015795788 -0.11770326 -0.10584492 -0.076643676 0.06456468 0.13447839 0.08198759 -0.20387904 -0.074528776 -0.08126541 0.06969596 0.036935586 -0.1478715 -0.14020061 0.029333461 -0.03878497 -0.12044689 -0.0047414447 0.2544059 0.013706628 0.17979755 0.04398191 -0.022363283 0.09771741 0.01776391 -0.19812214 -0.02616079 -0.010182286 -0.023818418 0.03660307 -0.011655265 0.040840898 0.046036925 -0.029977383 0.15826851 -0.08773568 0.058928043 0.17690676 -0.07008576 0.09539521 -0.014201654 -0.1671012 0.017791018 -0.07460985 -0.04429376 -0.23447026 0.13209964 0.019683423 -0.18927875 -0.0864168 0.014105666 0.20977108 0.05358128 0.09485345 -0.25043958 0.13801692 -0.18355788 -0.1891252 0.07819198 0.016085172 -0.081723586 0.092517145 0.06606191 0.0010995849 0.01160331 -0.070101075 -0.0628266 -0.15068021 0.029527018 0.0897128 -0.20877166 0.18936472 -0.016291492 -0.18343475 -0.1660984 -0.095288016 -0.21424082 0.089788124 0.12562335 -0.07201132 -0.35709503 -0.18340701 0.063592374 0.070470855 0.019601425 -0.18156068 0.16956222 0.13904151 -0.03760123 -0.0258316 -0.085460246 -0.07213324 0.025700817 -0.14257485 -0.050118633 -0.076983206 -0.19217144 -0.0049496847 -0.101525664 -0.06549875 -0.11521091 0.06970915 0.14280722 -0.03330148 0.12546222 -0.008872775 0.05869898 -0.06531174 -0.11847193 0.05437702 -0.092861414 -0.26533064 -0.16882901 0.06821813 0.033357672 -0.17349295 0.20483722 -0.26082096 -0.05166302 -0.044308867 0.16341001 -0.19967456 -0.17316821 -0.20358945 -0.13881554 0.000324589 0.026408993 0.063165545 0.0941895 0.15646717 -0.08012156 0.046099186 0.20436326 0.20371327 -0.033731718 -0.07490496 0.2084907 0.030970585 -0.06280338 -0.13894339 -0.0958533 -0.1201068 0.11194655 0.38473654 -0.020606445 0.07686209 0.20700528 -0.08453081 0.19294402 -0.24071153 0.096209265 0.20099436 0.18309756 0.18242063 0.08184975 0.28822738 -0.053779807 0.09659236 -0.10541357 0.028666986 0.2052695 -0.050351974 -0.04691516 -0.00628794 0.015238666 0.041965716 -0.11907186 -0.03345033 0.2287374 0.16073641 0.080874965 0.123401545 0.31588027 0.045344584 0.121338345 -0.026189327 0.091414146 -0.1365727 0.1768717 -0.06413874 -0.08389855 0.07452786 -0.14996868 -0.27037954 -0.05211207 0.04649418 -0.07162017 -0.0007367849 -0.051158257 0.10538845 -0.15809542 -0.051526688 -0.06768673 0.15927744 0.18390614 0.014743154 -0.12474313 0.056418974 0.25263542 -0.072806306 0.19470306 -0.0066173836 -0.07220967 0.19721386 0.2043261 -0.18629074 0.18803763 -0.023983933 -0.047458105 -0.16099796 0.1660792 -0.04298072 0.016470864 0.1613404 -0.10344407 0.0027965503 -0.12961787 -0.14703271 0.107820936 -0.0178691 -0.0053149103 -0.30900556 0.14338696 -0.17620827 -0.00834128 0.18527356 0.19728842 0.042474307 0.00015940439 -0.012723266 -0.012791338 0.13916047 -0.07273752 0.121791996 0.08564468 0.022759331 0.027252754 0.11508579 -0.08912705 -0.011063999 -0.03370545 0.045652527 -0.046712507 -0.20666564 -0.081520185 0.13927965 -0.010674473 -0.14604628 -0.1231406 -0.18770003 0.21580355 -0.23873751 -0.085235916
没有 -0.17601612 -0.00084860553 -0.11253568 0.10819467 -0.103784725 -0.028564181 -0.21800101 -0.07594104 -0.024984553 -0.11136257 0.170415 -0.0009822996 0.117548674 -0.01229469 -0.06525153 -0.049102824 -0.13355045 -0.09410314 0.04002753 -0.049259603 -0.03989607 -0.061382577 0.012206771 -0.1710087 -0.17366883 -0.012607476 0.01871773 -0.07400542 -0.06721717 0.047913183 -0.069568396 -0.10564207 -0.089423634 -0.032635555 -0.021903059 -0.29417428 0.041494906 0.065459184 -0.008185374 0.0005655082 -0.030319134 -0.21492594 0.06171385 -0.19676872 0.09339436 -0.06973151 -0.05898456 0.01407553 -0.10727899 -0.10120726 -0.07249257 0.061013952 0.12363681 0.07475511 -0.1854254 -0.06856242 -0.076254554 0.064998336 0.034268707 -0.1377185 -0.12987302 0.027163476 -0.0368947 -0.112380356 -0.005198784 0.23446304 0.014489308 0.16525218 0.0400736 -0.02021692 0.093677275 0.01688433 -0.1844443 -0.027148414 -0.009347251 -0.02076963 0.03555303 -0.008271775 0.038042106 0.041376762 -0.029798338 0.14601246 -0.07886115 0.05026427 0.16597798 -0.06678303 0.092585064 -0.011304118 -0.15675476 0.016560128 -0.070626624 -0.039887942 -0.21400353 0.12042613 0.016066715 -0.1750862 -0.0803609 0.016423866 0.1931595 0.04882128 0.083644114 -0.23169473 0.12457186 -0.16955115 -0.17726807 0.072589435 0.015427931 -0.076089405 0.08422361 0.059444077 0.0010609557 0.009901341 -0.064805605 -0.056988295 -0.13729706 0.025501033 0.08526518 -0.19072151 0.17363307 -0.018323455 -0.16722195 -0.15217696 -0.088914074 -0.20187567 0.07983374 0.113393344 -0.064054854 -0.32770076 -0.16610555 0.05482879 0.06347424 0.018041631 -0.16746566 0.15817863 0.1286603 -0.035977762 -0.022408329 -0.07713365 -0.06555061 0.022876495 -0.13096972 -0.046609942 -0.06941464 -0.17587914 -0.0035330432 -0.09543528 -0.060389057 -0.1050024 0.062763356 0.13151124 -0.032943293 0.114274114 -0.006137106 0.053427745 -0.061007418 -0.10782647 0.047444522 -0.08466121 -0.24304822 -0.15536004 0.06282738 0.031586904 -0.15942131 0.19020587 -0.23953184 -0.049176097 -0.039646618 0.14904305 -0.18420054 -0.16147004 -0.18765122 -0.1260605 -0.00043824597 0.024191642 0.058688626 0.08779427 0.14581048 -0.0737629 0.040914636 0.18873736 0.1874823 -0.033072986 -0.06826182 0.1936825 0.02834085 -0.05978867 -0.12804852 -0.08863235 -0.111369625 0.101921536 0.35392556 -0.020296155 0.06783735 0.19377367 -0.07696059 0.17803304 -0.2223235 0.086787164 0.18553051 0.1649778 0.16512653 0.07819451 0.26759663 -0.053892504 0.08916082 -0.098778054 0.028481737 0.18861595 -0.04577126 -0.04267761 -0.003129334 0.013356956 0.036368955 -0.1094307 -0.033995092 0.211075 0.14735141 0.07506683 0.11723371 0.2892397 0.042343855 0.115180396 -0.027250731 0.082925946 -0.12283212 0.16476318 -0.060154837 -0.07770827 0.069042556 -0.13483843 -0.24861364 -0.049254797 0.042370662 -0.06534296 -0.004014315 -0.047275156 0.09875861 -0.14590444 -0.044438154 -0.06196882 0.14976127 0.16833542 0.012319613 -0.11312882 0.05104688 0.23445544 -0.06455028 0.17929853 -0.008352663 -0.067727745 0.18205678 0.18720406 -0.17387623 0.17264967 -0.02177398 -0.0441193 -0.14978132 0.15397704 -0.0389784 0.015285381 0.1501549 -0.09451255 0.002031389 -0.116056964 -0.13404281 0.09992582 -0.014200803 -0.003036951 -0.28695574 0.1318934 -0.1602262 -0.008661032 0.1687126 0.18525985 0.039534308 -0.00042804074 -0.012953656 -0.00982734 0.12609829 -0.0662677 0.113232315 0.079826325 0.021796089 0.023321338 0.10595604 -0.08366172 -0.009280702 -0.03146561 0.04168166 -0.042864777 -0.18755034 -0.075369194 0.12729777 -0.007896263 -0.13195181 -0.11427188 -0.17491937 0.2009961 -0.22310998 -0.07944729
就 -0.20625378 0.001496011 -0.13063881 0.12554131 -0.120508604 -0.034459148 -0.25360352 -0.09193936 -0.027015423 -0.13288407 0.19914539 0.00043888215 0.13436358 -0.012456925 -0.07621068 -0.056433395 -0.15782076 -0.10683259 0.046748154 -0.056605637 -0.04676111 -0.07322325 0.016644608 -0.20050983 -0.20262055 -0.01569162 0.019438218 -0.08624233 -0.079284765 0.056024253 -0.08249584 -0.1220959 -0.10300997 -0.039136495 -0.026155937 -0.34147975 0.04841955 0.07544969 -0.008181225 0.001599903 -0.03434608 -0.24848373 0.07479112 -0.23024964 0.109135166 -0.08123107 -0.06806566 0.019657964 -0.12675908 -0.114569366 -0.08444278 0.07010145 0.1431814 0.08517092 -0.21837798 -0.07865579 -0.0871852 0.074388035 0.042048093 -0.16131976 -0.14854372 0.030726006 -0.0438931 -0.13056901 -0.0036265827 0.27226606 0.014831802 0.19170265 0.04531895 -0.02419088 0.104586706 0.019161448 -0.21155502 -0.032255765 -0.012700356 -0.023956755 0.04163745 -0.011115414 0.04654761 0.051341023 -0.035482954 0.1686784 -0.09359425 0.06199244 0.19296087 -0.07650592 0.104457326 -0.013955941 -0.17984284 0.0186647 -0.0818501 -0.04638764 -0.2502451 0.14204285 0.021560026 -0.20557642 -0.09090015 0.016951565 0.22319311 0.060233578 0.10069434 -0.26767832 0.14661796 -0.19540021 -0.2050809 0.08404714 0.018254748 -0.08763939 0.09832002 0.07013488 -0.00067350623 0.013475269 -0.07711453 -0.06570443 -0.1628163 0.031155642 0.09693282 -0.22323118 0.20093103 -0.01697427 -0.19626649 -0.180792 -0.10373911 -0.23202239 0.09713988 0.13389613 -0.07530815 -0.3810725 -0.19556312 0.067570165 0.07302121 0.019248664 -0.19334383 0.18196759 0.14970554 -0.04269444 -0.027360411 -0.08902334 -0.07652061 0.027210098 -0.1523839 -0.05243845 -0.08072114 -0.20731367 -0.004431504 -0.111025326 -0.072435044 -0.12557091 0.074769884 0.15480734 -0.036236085 0.13525693 -0.009384988 0.06357041 -0.070625 -0.12652642 0.057626504 -0.09834612 -0.28337312 -0.18185353 0.075684145 0.03748637 -0.188133 0.21793391 -0.27969906 -0.054424275 -0.04722686 0.17386568 -0.213086 -0.18557768 -0.21759781 -0.14963683 0.0016496896 0.02834204 0.06759169 0.102365874 0.1658212 -0.082465656 0.048539285 0.21843551 0.22045201 -0.035461888 -0.079474255 0.2234869 0.030104328 -0.06936682 -0.14858308 -0.10127699 -0.12841003 0.12113881 0.41233978 -0.022852656 0.08346006 0.22329715 -0.089290395 0.2103077 -0.25878203 0.10223268 0.21498783 0.19542429 0.19312909 0.09051974 0.30999726 -0.058402702 0.10304346 -0.11367283 0.030861674 0.22059089 -0.051548637 -0.049592443 -0.0058308817 0.017572688 0.045048904 -0.12726693 -0.036855083 0.24806868 0.17266993 0.083108045 0.13363859 0.34031904 0.050169084 0.13349038 -0.029394459 0.09981435 -0.14319126 0.1886653 -0.06933899 -0.0930837 0.078346916 -0.16006903 -0.28613296 -0.0547508 0.04643083 -0.07574616 -0.0032275359 -0.054014023 0.11414224 -0.16831283 -0.053651374 -0.0717891 0.1741184 0.19636104 0.015464329 -0.13255094 0.061626285 0.27243203 -0.07453758 0.20718424 -0.005352635 -0.07823476 0.21095932 0.21879525 -0.20132586 0.19954738 -0.024379995 -0.049829423 -0.17454892 0.17885493 -0.044367477 0.01869342 0.17488122 -0.112597115 0.0005383301 -0.1366112 -0.15683971 0.11832273 -0.018286513 -0.006568961 -0.3309526 0.15226445 -0.18792364 -0.008165466 0.197157 0.21342152 0.04380643 -0.0005612854 -0.015518496 -0.013857409 0.14875656 -0.07644662 0.13206571 0.088868454 0.024526909 0.027797747 0.123494856 -0.0941282 -0.011954594 -0.03766144 0.04754564 -0.051536407 -0.2211841 -0.08877074 0.14814618 -0.010877694 -0.15536784 -0.12941921 -0.20162758 0.2327972 -0.2574926 -0.08837731
就是 -0.14878362 -0.00026301012 -0.09398884 0.09623073 -0.08995456 -0.027374174 -0.18599439 -0.063996404 -0.021447092 -0.09606314 0.14701366 0.0015906501 0.10097539 -0.013204919 -0.05627873 -0.044295788 -0.112738 -0.07638015 0.038143538 -0.041055698 -0.038051162 -0.05180958 0.012689248 -0.14676246 -0.14906769 -0.009086243 0.0134818405 -0.05992498 -0.056210104 0.039275 -0.058884397 -0.08990243 -0.08021814 -0.02740419 -0.02151875 -0.2536588 0.036633767 0.05949016 -0.0017477835 0.00084510824 -0.024758322 -0.18109168 0.056499038 -0.16593175 0.08162481 -0.05631238 -0.052631784 0.010624918 -0.09187622 -0.087724686 -0.060278293 0.05367689 0.10484068 0.06295258 -0.16067268 -0.054636132 -0.06499492 0.05662315 0.032401677 -0.119579256 -0.11069073 0.020722758 -0.029786473 -0.09794387 -0.0018556417 0.20225005 0.011299214 0.13953488 0.033748817 -0.0210223 0.07654585 0.013398233 -0.15839855 -0.026464058 -0.0062811747 -0.018071165 0.030323422 -0.006506557 0.034221616 0.040804163 -0.023979096 0.12736176 -0.06751159 0.04388617 0.14415883 -0.057186432 0.0772758 -0.009593079 -0.13165034 0.012500812 -0.062477145 -0.031867906 -0.18440934 0.10176166 0.016992275 -0.14921004 -0.065750964 0.01091843 0.16233574 0.039660145 0.075036034 -0.19795924 0.10881359 -0.14399289 -0.15113229 0.065323934 0.0153079815 -0.06650377 0.07330391 0.054874986 -0.0022446834 0.011249483 -0.057313576 -0.05029689 -0.11736313 0.023161404 0.07227489 -0.16724327 0.14816403 -0.011847586 -0.14320014 -0.12978788 -0.07495028 -0.17408659 0.06964463 0.09435961 -0.05792173 -0.27887374 -0.1410284 0.05101239 0.05831504 0.010394092 -0.1403266 0.13779305 0.10628029 -0.031189825 -0.0206114 -0.06534149 -0.05235407 0.019407356 -0.11022552 -0.036829814 -0.062348675 -0.1529022 -0.0059134224 -0.077551916 -0.052361235 -0.0924407 0.053225726 0.11204776 -0.028156342 0.09703516 -0.0028932216 0.048457384 -0.05159834 -0.088531785 0.043375194 -0.070845366 -0.20628913 -0.13168782 0.056780502 0.026658997 -0.13707589 0.16197933 -0.2059608 -0.042606 -0.03427295 0.13178453 -0.1594671 -0.13653377 -0.15760624 -0.110149466 0.001035806 0.018335475 0.047485262 0.07862888 0.12478778 -0.056169003 0.03636438 0.1639656 0.16121855 -0.023673601 -0.057173982 0.16627018 0.02700696 -0.051403705 -0.11036618 -0.07198507 -0.094581984 0.0883055 0.3034325 -0.013358488 0.0556844 0.16504858 -0.06776931 0.15343179 -0.19011837 0.07576881 0.1583419 0.1394764 0.1421377 0.06801405 0.22446492 -0.04737457 0.072451 -0.08445453 0.026037063 0.1634014 -0.04385016 -0.03903306 -0.0046111033 0.012965615 0.030067677 -0.09106997 -0.029438352 0.18346311 0.12075354 0.06272849 0.09637981 0.24813981 0.03287261 0.09850968 -0.02398029 0.07119527 -0.10765494 0.14167926 -0.052574247 -0.06768521 0.055985276 -0.1156171 -0.21137616 -0.041667067 0.033159353 -0.057069715 -0.005635067 -0.042066228 0.08782363 -0.12435741 -0.035567872 -0.053593423 0.13146271 0.14250322 0.009551184 -0.094830215 0.042402357 0.20073257 -0.057215963 0.15240313 -0.007624215 -0.054001354 0.1593942 0.16251872 -0.14731607 0.14951247 -0.01486221 -0.03856493 -0.12883157 0.13169691 -0.032249656 0.01604601 0.1269103 -0.08479672 -0.00076002756 -0.10141287 -0.11669311 0.086790815 -0.012148696 -0.0030445296 -0.24315226 0.11679416 -0.13736941 -0.007470656 0.14289063 0.15565681 0.03440613 0.003834003 -0.0109875575 -0.010339828 0.10691391 -0.054238357 0.096064635 0.06507068 0.017598836 0.017774206 0.09095425 -0.06876669 -0.01072393 -0.029364003 0.030857544 -0.03543783 -0.15880626 -0.062057767 0.10883053 -0.004911275 -0.114208765 -0.09692311 -0.14923663 0.16925246 -0.19008678 -0.069907054
第一次 -0.13526437 -0.0008720254 -0.085824326 0.0810356 -0.07988548 -0.022821456 -0.16178732 -0.05444601 -0.022449745 -0.08302535 0.1279312 0.004514091 0.09045231 -0.010673582 -0.052459087 -0.036250036 -0.09667083 -0.0720869 0.03381556 -0.037332658 -0.032525994 -0.043150168 0.008650538 -0.12847167 -0.12453641 -0.011379364 0.0109211225 -0.05261474 -0.050085884 0.038315028 -0.055297725 -0.081924886 -0.064129405 -0.02185296 -0.014783085 -0.22093302 0.029029084 0.048035543 -0.005463854 0.0032755397 -0.019430712 -0.15607738 0.046223704 -0.1484326 0.072842516 -0.053183027 -0.042896412 0.011044792 -0.082238466 -0.07865787 -0.057090152 0.04586085 0.090473965 0.055703778 -0.13475616 -0.055951502 -0.051163707 0.04462391 0.02316485 -0.10457036 -0.09559702 0.021414436 -0.02796646 -0.08006207 -0.0034615234 0.17832316 0.007042542 0.12703873 0.029212875 -0.01721823 0.067051366 0.010110591 -0.13667504 -0.017106185 -0.0070609604 -0.018894305 0.024562666 -0.008191134 0.032534167 0.033945467 -0.024459139 0.11221754 -0.05924873 0.04002142 0.1231776 -0.04758023 0.07335874 -0.013831181 -0.11357202 0.011847576 -0.050131124 -0.03150427 -0.15950885 0.088998005 0.015961139 -0.13366514 -0.060148854 0.017096413 0.14360298 0.03247518 0.065879956 -0.17420512 0.09200981 -0.12771524 -0.12959439 0.058834568 0.0091390135 -0.054502442 0.067165524 0.048746224 0.0019314189 0.0058358917 -0.047775295 -0.04414064 -0.103311405 0.022508869 0.065576166 -0.1439672 0.1330091 -0.012887992 -0.12171864 -0.10999852 -0.06874606 -0.15016478 0.05678661 0.087725446 -0.04931735 -0.24455187 -0.1279825 0.040189743 0.04349228 0.013951719 -0.12235482 0.12193061 0.095343485 -0.027256336 -0.017252006 -0.05303159 -0.053375266 0.013655675 -0.10293942 -0.03795574 -0.05375978 -0.13120644 -0.0047806497 -0.06512425 -0.046900354 -0.07773965 0.05030916 0.097744636 -0.019771282 0.0885296 -0.007080917 0.037050832 -0.044747725 -0.08385555 0.039085876 -0.065951504 -0.17947082 -0.121447235 0.04750221 0.026402358 -0.12072546 0.14024083 -0.18219148 -0.03850767 -0.027320132 0.11518883 -0.13528162 -0.1167523 -0.14091545 -0.09538801 -0.004125352 0.014546378 0.04262451 0.07051704 0.10937736 -0.0566971 0.030381769 0.13742936 0.14487569 -0.026068326 -0.048184738 0.14255576 0.026398113 -0.046060424 -0.09741479 -0.06520824 -0.07819863 0.08003499 0.2673083 -0.007735542 0.047575265 0.14848255 -0.056781568 0.13433942 -0.16517355 0.06931634 0.13471776 0.12517646 0.1282381 0.061578717 0.19930223 -0.044758826 0.06532851 -0.076964654 0.025119055 0.14184777 -0.038568612 -0.034216728 -0.00077757984 0.014157788 0.026578711 -0.08317238 -0.021755181 0.162075 0.11000525 0.05626148 0.08528807 0.21509741 0.028486988 0.08634557 -0.017036228 0.0634974 -0.09089739 0.12421022 -0.049652696 -0.053555332 0.05331426 -0.10086621 -0.183737 -0.0329293 0.032628585 -0.04788649 -0.002798756 -0.035653025 0.07760965 -0.112170994 -0.032856748 -0.04620762 0.11108586 0.12420458 0.0057420237 -0.08372347 0.037577067 0.17094845 -0.0449661 0.13620926 -0.003391306 -0.04684075 0.13901028 0.14324073 -0.12809134 0.12958916 -0.018418487 -0.035046794 -0.1150639 0.116680466 -0.030599654 0.012603275 0.11633335 -0.06931395 0.00023701791 -0.08686207 -0.09695246 0.07358344 -0.010857004 -0.0013376903 -0.2096836 0.095823035 -0.11904129 -0.00209444 0.12323394 0.13861379 0.033075247 -0.0015703965 -0.0081073055 -0.00898593 0.09501665 -0.045947656 0.08083299 0.0582238 0.015928168 0.016971553 0.08141642 -0.0632939 -0.0104272235 -0.025175456 0.030532988 -0.027884506 -0.13808416 -0.05600245 0.092388116 -0.0027926264 -0.09557185 -0.08918435 -0.13385126 0.14680684 -0.16028313 -0.055459213
呲牙 -0.15003349 0.0008504304 -0.09003664 0.10004766 -0.09389037 -0.031602208 -0.19747221 -0.0757688 -0.02320628 -0.10175163 0.1575243 -0.0057839714 0.11010693 -0.01630833 -0.051535845 -0.04920244 -0.12831272 -0.076872386 0.0336021 -0.048381817 -0.034109313 -0.055518128 0.007833257 -0.14751972 -0.16168688 -0.017004557 0.018385293 -0.06934114 -0.060946185 0.041779906 -0.06926478 -0.10044973 -0.08662319 -0.02866066 -0.023191418 -0.25702623 0.03827966 0.055971734 -0.010992076 -0.0019233032 -0.027556898 -0.19341491 0.05746185 -0.17883217 0.07837551 -0.060409315 -0.060871556 0.01246179 -0.09688289 -0.09501647 -0.073328234 0.051207863 0.10361477 0.059309237 -0.1767659 -0.05691601 -0.07328794 0.054175086 0.037708286 -0.1263786 -0.11813939 0.03120228 -0.03574833 -0.09783244 -0.0013578561 0.21263759 0.007823771 0.15066954 0.034629654 -0.012758259 0.085756235 0.011143926 -0.15747727 -0.030255757 -0.0016276552 -0.02782243 0.04059065 -0.007375603 0.040212497 0.04128756 -0.020041412 0.12419623 -0.0637082 0.0409195 0.14370002 -0.06649071 0.076812215 -0.009594688 -0.14210597 0.01650777 -0.07003773 -0.03974697 -0.1996691 0.104922965 0.012686757 -0.15446548 -0.07270716 0.019316744 0.17695059 0.04362002 0.07832928 -0.20950192 0.11777454 -0.14490257 -0.15073621 0.06506662 0.016516194 -0.061472133 0.07666059 0.059070494 -0.0011265294 0.0058842073 -0.06510282 -0.05317395 -0.12800431 0.027273588 0.07842445 -0.17881133 0.15042344 -0.0077291084 -0.15062195 -0.14398985 -0.076989986 -0.17071721 0.07348652 0.10140382 -0.06639832 -0.28882954 -0.1552007 0.046722606 0.052438844 0.02344998 -0.15047501 0.14299153 0.11306922 -0.028359111 -0.019556934 -0.0711315 -0.06332462 0.02347509 -0.11929766 -0.03920426 -0.06424023 -0.16343483 -0.0034587625 -0.08141996 -0.04994807 -0.099876925 0.0582349 0.11889974 -0.025858877 0.10817304 -0.0030801166 0.052121226 -0.05250924 -0.10251928 0.04491647 -0.07230923 -0.21132392 -0.13905296 0.059262883 0.033594012 -0.13521011 0.17470653 -0.21002442 -0.035909984 -0.03565408 0.14166647 -0.16859926 -0.1434054 -0.16145976 -0.10658541 -0.0029317187 0.023474347 0.04501247 0.08446584 0.12245069 -0.06831724 0.033655927 0.17098048 0.16711307 -0.02906805 -0.05316473 0.16691236 0.025898285 -0.06183377 -0.118101254 -0.081502646 -0.10582949 0.08801683 0.3162322 -0.015183384 0.054299697 0.1745074 -0.076500714 0.1583289 -0.20046213 0.07335723 0.16514947 0.15719256 0.15506908 0.07014821 0.2280686 -0.046428107 0.075871706 -0.0826644 0.023747165 0.16890824 -0.04714356 -0.03621641 -0.007593197 0.012391949 0.04045296 -0.09323914 -0.02802544 0.19313565 0.12707224 0.060244314 0.095601566 0.26443982 0.043014083 0.0990232 -0.022577617 0.07801578 -0.109917305 0.14549121 -0.06028076 -0.066574916 0.05501656 -0.12479476 -0.21731374 -0.03700736 0.04132896 -0.052128673 -0.0036432622 -0.044341948 0.08672156 -0.13397816 -0.04783852 -0.05526111 0.13620065 0.14715762 0.016009595 -0.1060834 0.05156233 0.2087615 -0.06574404 0.15746859 -0.0055592516 -0.05972572 0.16693866 0.16697747 -0.16106816 0.14843836 -0.02479665 -0.033974227 -0.12907386 0.13028519 -0.039003834 0.019555626 0.13006584 -0.08566466 -0.0057486733 -0.099592514 -0.11677137 0.0926862 -0.017865898 -0.006785602 -0.24928387 0.118959844 -0.14119622 -0.0031045282 0.15393075 0.15852764 0.037850577 -0.0049772304 -0.0056355605 -0.016990744 0.12008646 -0.06296947 0.09673175 0.063692376 0.011795735 0.015959736 0.0928531 -0.07001135 -0.0120934835 -0.037752002 0.03746097 -0.039769866 -0.1735577 -0.06885761 0.11922288 -0.0035548296 -0.117912136 -0.09890066 -0.15913221 0.17655742 -0.1951424 -0.06417561
笑哭 -0.13567889 0.0003366144 -0.09059721 0.08197157 -0.081543215 -0.0246967 -0.17011726 -0.053681575 -0.028054249 -0.082795516 0.13252804 0.006200269 0.0972115 -0.013316955 -0.04933131 -0.041718893 -0.097666815 -0.074028 0.026631901 -0.037666135 -0.029318452 -0.039820302 0.009802336 -0.13449627 -0.12664591 -0.012671471 0.012779091 -0.056489 -0.059102103 0.028311301 -0.052597713 -0.08761083 -0.07240573 -0.023474172 -0.020964582 -0.22351687 0.030799987 0.059507396 -0.011070589 -0.0004582284 -0.014011023 -0.15916805 0.052318834 -0.15650512 0.0767428 -0.045954157 -0.044556864 0.013399835 -0.07832278 -0.085504204 -0.05801095 0.048649516 0.09587845 0.0634947 -0.14774781 -0.05186582 -0.05829275 0.053789664 0.01901186 -0.108130835 -0.09227455 0.014270443 -0.023221076 -0.08037183 -0.0023843776 0.18632299 0.00697089 0.1296702 0.024761075 -0.013955422 0.07501067 0.008391091 -0.13621736 -0.020161413 -0.011350257 -0.018859746 0.020961136 0.0007345463 0.024706358 0.041257992 -0.024340507 0.11632541 -0.06825762 0.04555537 0.1264767 -0.052763507 0.07113829 -0.016567605 -0.123581044 0.014602011 -0.04771903 -0.031918067 -0.15907419 0.09805191 0.017835163 -0.12826519 -0.057489745 0.0151960645 0.14853853 0.034812495 0.06761858 -0.17360622 0.090412736 -0.13799065 -0.1364098 0.056836322 0.013371094 -0.06339563 0.06582443 0.0455854 -0.007905174 0.0038546736 -0.051472683 -0.05073532 -0.1038883 0.014821701 0.07030523 -0.15337817 0.1323341 -0.014539618 -0.12869339 -0.1148778 -0.070073575 -0.15410304 0.06995141 0.08118144 -0.05060876 -0.25548708 -0.12966593 0.03522591 0.04903018 0.015749129 -0.13105282 0.1263547 0.09462962 -0.029733239 -0.020175865 -0.056577608 -0.048197556 0.018966468 -0.09402995 -0.042948794 -0.048217814 -0.13111116 -0.009691747 -0.06849887 -0.0553141 -0.083919294 0.042105544 0.107026026 -0.02730699 0.09205746 -0.0049074474 0.04264059 -0.04361106 -0.080667935 0.04515545 -0.060916744 -0.18554567 -0.11807311 0.052849174 0.026964132 -0.118464716 0.13614336 -0.17590868 -0.043809555 -0.02801707 0.10868742 -0.1453953 -0.11880858 -0.13579479 -0.101498306 -0.005842464 0.021921294 0.03841328 0.07272282 0.1164198 -0.053337242 0.035598673 0.13931413 0.15326056 -0.022023246 -0.053107508 0.14481214 0.030516211 -0.043351673 -0.09084576 -0.07182951 -0.09084823 0.07103811 0.2748696 -0.012991214 0.045898654 0.15473254 -0.062063884 0.13049138 -0.17797911 0.07214558 0.14242943 0.12758698 0.13446808 0.06676901 0.20609544 -0.033849627 0.067175925 -0.07766752 0.021341143 0.1392107 -0.030467022 -0.024791362 -0.0017961597 0.0044898544 0.025255077 -0.077557676 -0.029611498 0.16055767 0.1045505 0.062369786 0.09264434 0.2174398 0.034522705 0.09458274 -0.016146326 0.07045362 -0.09900853 0.12826015 -0.047446623 -0.06056586 0.048844017 -0.11277782 -0.1835435 -0.032669988 0.03483631 -0.057368 0.00454138 -0.042828012 0.07342009 -0.10560888 -0.028309086 -0.04850813 0.12135974 0.122136146 0.007577568 -0.082982704 0.031616177 0.17484127 -0.054701824 0.13767946 -0.009821771 -0.04200245 0.14072558 0.15071434 -0.13571402 0.13084823 -0.008681689 -0.033717062 -0.12321925 0.118319556 -0.030977769 0.010017337 0.12250262 -0.0770804 -0.004537552 -0.08999522 -0.108680725 0.08077206 -0.009658753 0.0028664 -0.22223186 0.10584869 -0.12058576 -0.0074441438 0.13149822 0.1416497 0.030988617 0.006318389 -0.013989368 -0.017155113 0.10092589 -0.05761066 0.080975436 0.051221468 0.015011132 0.016780792 0.08434857 -0.062136225 -0.007578062 -0.02129447 0.029878868 -0.03730561 -0.15121879 -0.05077847 0.097652785 0.0022213173 -0.1073997 -0.09251965 -0.14087772 0.1489368 -0.17345272 -0.06585669
