803 300
泣不成声 -0.008069582 -0.014572111 0.07467386 -0.1349413 -0.051015746 -0.037818152 0.03735931 0.057066012 0.051586855 0.016946884 0.038854122 -0.022270173 0.00030175157 0.04866413 -0.037997358 -0.036481604 0.18853368 0.12190774 0.009354571 0.0141205145 0.03217862 -0.009204237 -0.026293183 -0.112106636 -0.058669776 -0.05259149 -0.091328554 0.03788528 -0.0050042137 -0.034733154 -0.048687596 -0.11230171 0.040449407 -0.16591157 0.039375976 -0.07312479 0.03490344 -0.13847731 -0.003975606 0.09487798 0.006937703 -0.068959914 -0.016979335 -0.059062295 -0.043643128 0.07791279 -0.10150195 -0.07840377 0.0041382737 -0.098310694 0.005170645 0.029496588 0.022116534 -0.016829323 -0.06759288 0.03476827 0.06540416 -0.062327974 0.053518463 -0.121504515 -0.08405118 -0.05370569 0.045273565 -0.069469176 -0.039669804 -0.084513165 -0.011847885 0.0014105313 -0.21206604 0.027684566 -0.043854676 0.037548438 0.020459358 0.043625526 -0.02894529 0.03427233 0.04139069 0.005539109 0.09252784 0.01201983 -0.034216303 0.19465993 -0.055719513 0.010473438 0.0030583125 -0.013946811 0.10345451 -0.017985996 -0.07199024 -0.109852545 0.064828634 -0.06930743 0.117809154 -0.06480193 0.10862284 0.015207933 0.060223695 -0.10529994 0.063843265 0.09224279 0.026940595 0.12182887 0.034022614 0.085962385 -0.06910366 0.011138457 0.0006710775 -0.15217881 0.052847706 -0.08002909 0.009277925 0.10709048 0.03571792 0.03344237 0.083139636 -0.006153544 -0.048402008 -0.10920409 -0.061899733 0.05371419 0.062419906 0.11757654 -0.007656272 0.018408945 -0.023357028 -0.09655613 0.12645487 -0.043871198 -0.043460805 -0.008160732 -0.056828056 0.06389118 -0.116247 0.08908546 -0.0034659377 -0.010349087 0.025028143 -0.033816274 -0.061595995 -0.10469702 -0.13292189 0.08229579 -0.062086042 0.039041433 0.08130689 0.10344002 -0.040185645 -0.011800615 0.006420094 0.07296392 -0.07769831 -0.025804969 -0.008853172 -0.14357798 0.10186375 0.1186805 -0.026561065 0.0386352 -0.020576075 -0.0013350219 0.10564086 -0.10372333 0.03772933 -0.011379398 -0.15769993 0.12558857 -0.05827312 0.0836327 0.06777299 0.033398118 0.0067634326 -0.018747563 0.04856317 -0.0669701 0.064775325 0.012180528 -0.15654692 0.15448155 -0.108839095 0.116935395 -0.07090516 -0.06314892 0.023906173 0.1368636 0.060843557 0.15293066 -0.027187722 0.07253699 -0.06843041 -0.08840732 -0.045694135 -0.09714094 -0.07184671 0.11254756 0.04519819 -0.01382525 0.021136403 0.06271117 0.020759989 -0.043272004 -0.06229455 -0.027422333 -0.062137213 0.0766707 0.19899474 0.029118886 -0.07760291 -0.064755 -0.059296645 -0.06171509 0.013783013 0.09808083 -0.08993983 0.1706617 0.08460236 -0.04245256 -0.020372419 0.13876848 -0.010234193 0.027856106 0.14421387 -0.03482941 0.007916385 -0.109935954 -0.0059979702 0.11572714 -0.033286296 0.09897084 0.013805427 -0.03367052 0.17962408 0.08401311 -0.04378434 0.111333914 0.050278652 -0.2081828 -0.02435572 -0.068319276 -0.082227014 -0.021664834 0.016753173 0.10149971 -0.074724644 0.1580125 -0.032674473 -0.05749039 0.0037552377 -0.08462093 0.008665986 0.044512015 -0.122845136 0.04157462 -0.009782114 0.013982509 -0.006947663 -0.045665417 0.04504173 0.05214603 -0.00079871615 -0.0554024 0.036819544 0.034407664 -0.022416478 -0.021011319 0.095516235 -0.0649768 0.09657254 -0.07068385 0.11259461 0.008864879 -0.0040235166 -0.08815167 -0.16457629 -0.13779123 -0.04551412 -0.034084383 -0.069817334 -0.043801405 0.085771255 -0.02255299 -0.047773145 0.03576766 -0.1365799 -0.083510116 0.011395868 0.013334154 -0.13197799 -0.05524167 0.030913271 0.03984523 0.039071873 0.0108782435 -0.0817716 0.008813865 0.026730288 0.12069201 0.033178985 -0.031147083 -0.052112862 0.09798222
啊啊啊 -0.063616626 -0.068622865 0.039508153 -0.07333603 0.0070385146 0.06284458 0.034779705 -0.025220845 0.002480224 -0.024887329 0.068438746 0.08093502 -0.0617101 -0.00499121 -0.041623686 0.007174575 0.042995226 0.008794144 0.032287117 -0.012069455 0.019315144 -0.016309386 -0.018719908 -0.06773924 -0.064626575 0.056199454 -0.047185797 0.0822377 -0.02518148 0.016690131 -0.018599011 -0.033496752 -0.029519174 -0.15345563 -0.026184374 -0.02361011 -0.046810735 -0.12355653 -0.029347492 0.087657474 0.08216169 -0.06865138 0.032844722 -0.007362451 -0.01427567 -0.029716492 -0.030405646 -0.05355558 -0.054555148 -0.0033550994 -0.029563714 0.06518116 0.014065856 -0.05199357 -0.052357487 -0.025400486 0.108695604 -0.027947297 0.124609515 -0.076152794 -0.05587866 -0.07003528 0.016151968 -0.023281308 -0.033062562 0.006622996 0.027118728 -0.051273998 -0.14308259 -0.0019597833 -0.11500848 0.032080203 0.06314208 0.11307587 0.045104764 -0.032697596 0.022232553 -0.0033511443 0.106005594 -0.019155994 -0.0688114 0.14574108 0.033791214 -0.020723406 -0.02638706 0.04218344 0.037428107 -0.009175475 -0.092007115 -0.017660534 0.0018209212 -0.015594713 0.13327931 -0.03131332 0.09396348 0.060356677 0.01475862 -0.03826921 0.08344257 0.089878514 0.038961306 0.024238199 0.0063130455 0.06068696 -0.13540818 -0.03881473 0.01058478 -0.003975933 0.05558468 -0.029591529 -0.015109248 0.03380269 0.062319618 0.04305052 0.0015244255 -0.0054740096 -0.0891027 -0.011802434 -0.052012097 0.034280207 0.07389958 0.018823635 -0.006946027 0.06765946 0.089779 -0.11878234 0.007052717 -0.029322226 -0.10183816 0.058676045 0.030833011 0.04540908 -0.101312086 0.07291232 0.06139675 0.0042335656 0.035793465 -0.01689759 -0.06672668 -0.06476719 -0.1084832 0.028743612 -0.0747365 0.10455542 -0.03215554 0.050877437 0.02790252 0.0341273 0.05595819 -0.02813274 -0.14013883 -0.006136398 -0.067471266 -0.07765206 0.0988612 0.14873622 -0.016741218 -0.0018560955 0.02201017 0.040946823 0.04773145 0.00086476427 0.018001623 0.072530605 -0.029419446 0.10108138 0.009678158 0.1334108 0.008823836 0.11271615 0.029462516 -0.03215061 0.062193487 0.015377592 0.0107044475 -0.042304784 -0.0039769295 0.025615282 -0.14639422 0.010164542 -0.042885367 -0.059417024 0.049853466 0.013585352 -0.025330508 0.038261537 -0.014305443 0.08555202 -0.076046176 0.018115422 0.013961426 -0.08507915 -0.009383109 0.15962611 0.057021532 -0.048714843 0.025289092 0.10814096 0.10146799 -0.08228661 -0.020405492 0.048544016 -0.065021046 -0.015532776 0.1376424 0.055973466 -0.060010348 0.028207337 0.012411788 -0.048543412 0.07182271 -0.041895106 -0.061016325 0.12367863 0.047733955 0.021534828 0.036765266 0.04490321 -0.034196597 0.050426953 0.1358347 0.024701742 -0.0463981 -0.0719979 0.042270735 0.0929818 -0.07448008 0.120751284 -0.004147174 0.02661748 0.18600182 0.09277638 -0.073958926 0.0980808 0.10092364 -0.15328035 0.07768486 -0.0012350534 -0.012724386 -0.021682039 -0.047499236 0.09898887 -0.08683104 0.15864962 -0.021017177 -0.032155547 0.022771986 -0.07528592 0.058627907 -0.0035132938 -0.15918995 -0.022187967 -0.01340914 -0.043999556 -0.042469483 0.03410071 0.0023152519 0.01584355 -0.051044118 -0.08462094 -0.028804883 -0.049790602 0.06807409 0.040856898 0.052240297 0.009709361 0.07187969 -0.011045458 0.047913622 -0.00835908 0.013875135 0.03804073 -0.040074322 -0.07227474 -0.087367065 -0.058963597 -0.05162022 0.003064671 0.062393963 0.03362847 -0.022265185 0.05677075 -0.04989305 -0.09648747 0.10326637 0.039976787 -0.03699657 0.01198254 0.08613211 0.028657416 0.03984763 0.022402031 -0.06612725 -0.058379054 0.027314104 0.16568385 -0.004109788 -0.08902969 -0.08204682 0.024087662
捂脸 -0.013826945 -0.021431684 0.1063267 -0.20205097 -0.069615014 -0.053737897 0.05821287 0.10037334 0.08624602 0.04381342 0.050512657 -0.031826142 0.0149000315 0.07606493 -0.055116214 -0.046192344 0.31053668 0.18280578 -0.0019563136 0.019276064 0.046981886 -0.0068335445 -0.024960537 -0.16447139 -0.09371005 -0.07454645 -0.1345119 0.056858253 -0.0100778695 -0.056319915 -0.07293621 -0.15511015 0.07120315 -0.24690339 0.07379866 -0.132506 0.0647124 -0.19188327 -0.0048825187 0.12493573 0.0063308994 -0.11780977 -0.020826193 -0.10160126 -0.07264665 0.101976305 -0.15077454 -0.110969216 -0.00771326 -0.17395538 0.008361291 0.027024856 0.049798224 -0.015804734 -0.10410729 0.052856628 0.1083595 -0.09254233 0.055062886 -0.1977097 -0.14699815 -0.07578124 0.05890979 -0.09514611 -0.07517505 -0.12580366 -0.021655872 -0.006895913 -0.31041765 0.0380715 -0.06695023 0.04827657 0.02522356 0.053949006 -0.042446494 0.057953533 0.06358085 -0.00041566548 0.14890362 0.027011525 -0.031699058 0.28686988 -0.09571519 0.034483448 -0.0003791848 -0.021398343 0.15401533 -0.018218247 -0.104743846 -0.174641 0.08660721 -0.09465274 0.16431236 -0.08993264 0.17769201 -0.003930088 0.10883799 -0.16817291 0.09973099 0.13847962 0.031983238 0.18569148 0.053614527 0.13544917 -0.10164991 0.01119849 -0.015243245 -0.23261786 0.0782254 -0.116620645 0.0013221677 0.17824289 0.06621672 0.049934383 0.12345458 -0.0045715244 -0.068656735 -0.17001165 -0.106049225 0.07205677 0.092980385 0.1608089 0.00045963784 0.008896361 -0.046697553 -0.1605958 0.18799901 -0.06544159 -0.070734605 -0.027747232 -0.07903725 0.08709981 -0.16186869 0.14426869 0.00018707837 -0.0015298459 0.03458352 -0.046913188 -0.10182354 -0.16581899 -0.21901782 0.12946379 -0.089454226 0.043194436 0.13241011 0.15149316 -0.071246944 -0.027606804 -0.0110459225 0.120317504 -0.10702825 -0.014941674 -0.0064739645 -0.23131923 0.13105677 0.17093448 -0.030262116 0.073616035 -0.051707365 0.0017835619 0.14871243 -0.15915035 0.045643542 -0.027103612 -0.24385113 0.16921425 -0.08952623 0.11582368 0.107069224 0.042970687 0.0045070588 -0.030411663 0.06986708 -0.11380695 0.09709343 0.015555486 -0.2628248 0.23017958 -0.16274545 0.19621879 -0.09389072 -0.10437844 0.018130964 0.20385844 0.09440773 0.23065828 -0.034378994 0.110293895 -0.08799667 -0.14704944 -0.06726328 -0.13028279 -0.11522024 0.17286508 0.07538513 -0.017815026 0.029023489 0.090571195 0.027591616 -0.044464033 -0.0960252 -0.06529727 -0.08638901 0.12045691 0.30340528 0.042398177 -0.10776596 -0.1089395 -0.091775924 -0.096070364 0.018081175 0.17324081 -0.12883653 0.26600528 0.13000947 -0.05557433 -0.05665671 0.2078873 -0.0052857283 0.030953836 0.20476748 -0.03878315 0.014975886 -0.1797682 -0.018762581 0.17550044 -0.050167594 0.132342 0.026360618 -0.06192644 0.24398844 0.11899631 -0.06826036 0.1561981 0.07071381 -0.32364213 -0.039093312 -0.10991274 -0.1363156 -0.04362403 0.02368411 0.135387 -0.10757001 0.25327638 -0.046404228 -0.0725169 0.004584442 -0.10940985 0.012324777 0.07184997 -0.17078531 0.06819656 -0.01204653 0.014430597 0.0047749323 -0.082385 0.06929969 0.07737307 0.0016087957 -0.07904058 0.061097015 0.062369436 -0.040405706 -0.043743134 0.13743755 -0.10348914 0.13477367 -0.10899633 0.17980555 0.0043689 0.0021074184 -0.13256751 -0.26375195 -0.21970719 -0.05064239 -0.050895337 -0.088727996 -0.075063065 0.13988617 -0.036605727 -0.07619253 0.058153734 -0.21514215 -0.11570434 0.02023477 0.008274159 -0.2024457 -0.06772608 0.055311333 0.059292328 0.076595485 0.006194983 -0.11694795 0.015921626 0.027782341 0.17178826 0.047344845 -0.03946342 -0.059006225 0.14134905
狗 -0.016187826 -0.023164941 0.12548573 -0.24140827 -0.08525562 -0.057770822 0.0692872 0.11408815 0.10185286 0.047951102 0.056963645 -0.036686186 0.016122933 0.084650576 -0.059561953 -0.059465535 0.36324915 0.21379392 0.006352091 0.019026024 0.055969723 -0.017599313 -0.03665096 -0.19748887 -0.11206319 -0.08732173 -0.15326685 0.072021134 -0.011824848 -0.063274786 -0.09050173 -0.19007367 0.078454815 -0.29450026 0.08325886 -0.15532675 0.07376495 -0.23567668 -0.0069565186 0.15724997 0.009359058 -0.13667221 -0.029247796 -0.1103594 -0.08612008 0.124839194 -0.18090019 -0.13920708 -0.005522351 -0.20238714 0.008058598 0.031875074 0.057958607 -0.022748137 -0.1303419 0.05895024 0.12755848 -0.11620532 0.079153985 -0.23286436 -0.17184208 -0.09026609 0.076743565 -0.116987005 -0.08505847 -0.14470704 -0.024381267 -0.0038563146 -0.37633058 0.043237306 -0.07490416 0.053632718 0.04006203 0.074785225 -0.049150538 0.070315644 0.07130327 -0.00012345733 0.18346223 0.027498493 -0.04302116 0.34789878 -0.10685408 0.03832807 0.0013233521 -0.024985215 0.1861102 -0.021145664 -0.12868045 -0.2068457 0.10510451 -0.11422612 0.19824868 -0.10784046 0.20488429 0.0077089537 0.1233166 -0.19714881 0.12589955 0.16298527 0.038324203 0.219264 0.066395625 0.15621792 -0.12803923 0.013736291 -0.009946604 -0.27125528 0.0990952 -0.13606073 0.0069867424 0.20730685 0.0749215 0.057353042 0.14151452 -0.003746924 -0.08678176 -0.20257646 -0.12744674 0.0894848 0.11307584 0.19525652 0.0060611037 0.018243961 -0.047033545 -0.19036284 0.22784506 -0.07421732 -0.08496012 -0.033268064 -0.092552364 0.104901776 -0.20232914 0.1679238 -0.00063570397 -0.0018761542 0.038416974 -0.052397672 -0.1231478 -0.19702238 -0.25925618 0.15095095 -0.1030428 0.05681872 0.15422867 0.17960225 -0.08819525 -0.031082937 -0.008447507 0.13751349 -0.12792702 -0.024946181 -0.006942994 -0.27020788 0.17197098 0.21307413 -0.038665134 0.08384413 -0.05336697 0.0035662767 0.18644015 -0.18350458 0.061648566 -0.02530015 -0.2834063 0.20463896 -0.1042506 0.14345524 0.12649979 0.056971494 0.0032984084 -0.031989098 0.08098134 -0.12710005 0.110500745 0.019938162 -0.30823126 0.27253413 -0.2014765 0.22891904 -0.1125599 -0.12114155 0.030078817 0.24357554 0.11156289 0.27978662 -0.04350017 0.13328725 -0.11696981 -0.178869 -0.077407 -0.16511042 -0.13430057 0.21156353 0.09088202 -0.02798741 0.042134844 0.111324094 0.04462444 -0.061373357 -0.11305977 -0.06809055 -0.09540202 0.13980484 0.36648417 0.053101283 -0.12781988 -0.12588423 -0.10480391 -0.11528473 0.027966542 0.20193626 -0.15682247 0.31495443 0.1611586 -0.071681485 -0.06269742 0.25318313 -0.0057951766 0.043025617 0.24900326 -0.049785793 0.018585287 -0.21252017 -0.022686223 0.21096297 -0.062815815 0.16094361 0.026428718 -0.06717089 0.29928988 0.13968448 -0.08209243 0.19148663 0.09104263 -0.3886835 -0.041665938 -0.13052504 -0.15890664 -0.052003797 0.024754625 0.16505249 -0.13460417 0.30025077 -0.052058578 -0.091444686 0.0034926077 -0.13343684 0.016400967 0.08633185 -0.20618525 0.077269904 -0.016246594 0.019123036 -0.003904966 -0.09157137 0.08592398 0.09331223 -0.0020205155 -0.098724045 0.072185665 0.07352648 -0.04406727 -0.054524638 0.17107336 -0.12722403 0.16524878 -0.13374652 0.21127668 0.009093104 0.0085240705 -0.15321468 -0.30957007 -0.26070794 -0.06767048 -0.06728439 -0.11822221 -0.08231509 0.164025 -0.03698438 -0.08577447 0.07297873 -0.24851455 -0.13699706 0.026049646 0.018351886 -0.23726274 -0.08489321 0.07612142 0.07052563 0.089802116 0.004771409 -0.14166933 0.019735195 0.035422843 0.2095995 0.0579924 -0.045419086 -0.077060685 0.16884491
爱 -0.0041762046 -0.016081652 0.06528359 -0.11924344 -0.04951046 -0.029113635 0.026365077 0.055829406 0.055568237 0.011615941 0.035420485 -0.025993189 0.011949938 0.043916892 -0.02730696 -0.029688476 0.17984147 0.10804628 0.0019810384 0.010270617 0.032384075 -0.014708537 -0.021183161 -0.10347841 -0.067058645 -0.047383178 -0.07883469 0.036270157 -0.005620436 -0.034487825 -0.04847819 -0.09771076 0.037914347 -0.14663547 0.037408113 -0.065431945 0.033254918 -0.12798905 -0.005998093 0.080597535 0.00043195023 -0.07233873 -0.01718972 -0.05853944 -0.039322436 0.06517115 -0.0785321 -0.06708196 -0.00097141316 -0.10253318 -0.0032738035 0.01873606 0.02462776 -0.011382938 -0.07106061 0.02707428 0.059391443 -0.05544224 0.03924967 -0.118143745 -0.08139464 -0.052081075 0.043562252 -0.051342934 -0.035662185 -0.06690058 -0.006980467 -0.008636377 -0.19452727 0.03783244 -0.03697963 0.032935765 0.033749815 0.03775646 -0.007302121 0.036580354 0.042803805 0.0049553965 0.091513164 0.010978092 -0.02207257 0.17063004 -0.058614664 0.015171462 0.0013661158 -0.012844695 0.09100645 -0.0021178885 -0.060287934 -0.09718396 0.06622034 -0.06623794 0.092911795 -0.05940596 0.11165291 0.008715822 0.05786773 -0.08650989 0.07088441 0.08786456 0.024681363 0.11866717 0.04102337 0.07661879 -0.06656274 0.0051056803 -0.01036832 -0.13586234 0.057344604 -0.057055164 0.015040786 0.116365016 0.025338996 0.029947134 0.07053482 -0.0049589733 -0.055498373 -0.10400508 -0.056392964 0.05204142 0.059466813 0.09941609 0.01232867 0.016552374 -0.019526137 -0.095493875 0.107278496 -0.041006725 -0.05029797 -0.008303119 -0.051794726 0.04876469 -0.09693832 0.08036041 0.0063218074 -0.0026058026 0.012510863 -0.022712303 -0.061228946 -0.09856517 -0.12645361 0.06889834 -0.05490702 0.03063011 0.0805953 0.09575729 -0.04420345 -0.011457787 -0.008534021 0.069122344 -0.0701013 -0.023799956 -0.0065540904 -0.14286587 0.09092161 0.11070048 -0.012556426 0.037738733 -0.023364501 0.0026517105 0.09383072 -0.09014952 0.030127082 -0.003712819 -0.14655747 0.10033 -0.05714727 0.079591796 0.059837926 0.040658597 0.0036395227 -0.022430226 0.03894948 -0.07068275 0.0642388 0.012469534 -0.15197864 0.14011467 -0.10379567 0.11137139 -0.056113638 -0.060178995 0.02179592 0.115249835 0.05831275 0.14919612 -0.02268153 0.067191325 -0.068929724 -0.08312376 -0.033762008 -0.080728255 -0.065688446 0.10794429 0.048186615 -0.0017216098 0.020920226 0.061669994 0.023129623 -0.03351962 -0.056304313 -0.031204367 -0.049852964 0.06816647 0.17928997 0.029406922 -0.08083429 -0.06672376 -0.052366 -0.057995975 0.00907524 0.10069714 -0.06590633 0.16457652 0.07955488 -0.041657615 -0.02279501 0.1299692 -0.006692928 0.024340406 0.13233003 -0.03169792 0.0092560705 -0.1051933 -0.010500349 0.10682448 -0.027061066 0.08229983 0.004104608 -0.040123012 0.15796722 0.06977076 -0.051400553 0.0912449 0.04503906 -0.19565614 -0.026413912 -0.06471574 -0.08046639 -0.02780934 0.0038643337 0.0795505 -0.068501845 0.15420298 -0.026966024 -0.04677077 -0.0031179523 -0.06959429 0.017958239 0.04863654 -0.10343482 0.04417636 -0.012110188 0.0066944035 -0.00912148 -0.052488167 0.0502158 0.05735962 0.0065935454 -0.052969065 0.032040995 0.026600378 -0.025218809 -0.027514726 0.082084246 -0.07399176 0.089544944 -0.061865415 0.109232485 0.0023964823 0.004204765 -0.074424244 -0.15654758 -0.13796437 -0.03432621 -0.028794006 -0.051932383 -0.041448228 0.07872631 -0.010345528 -0.04303893 0.040627357 -0.12002709 -0.06393512 0.005948362 0.011164108 -0.11713617 -0.05006798 0.04257122 0.035610035 0.04462525 -0.005201653 -0.07057372 0.0088158725 0.019871777 0.1089849 0.024293404 -0.018893424 -0.039440636 0.095274635
喜欢 -0.018045405 -0.02059172 0.110034734 -0.20769541 -0.07483031 -0.049761802 0.054832038 0.101078555 0.099262 0.038920943 0.051225197 -0.037982088 0.01596678 0.07985629 -0.055709954 -0.056887306 0.3166445 0.18546249 0.004398038 0.01896445 0.055242166 -0.014735566 -0.031015547 -0.17567812 -0.10394615 -0.08473028 -0.13498482 0.06280753 -0.0064259097 -0.05359509 -0.07788986 -0.16812348 0.072083436 -0.26351586 0.071389735 -0.1355246 0.06595214 -0.20998628 -0.009352907 0.1405816 0.010183673 -0.12294312 -0.029074522 -0.10272372 -0.07297097 0.10537233 -0.15032405 -0.123099074 -0.004744997 -0.18139553 0.0027389175 0.027906876 0.055601828 -0.02117023 -0.11835358 0.045903023 0.11156348 -0.10120578 0.07120103 -0.21390341 -0.1504905 -0.083463944 0.06892777 -0.10172398 -0.071293905 -0.12751657 -0.018530898 -0.00535616 -0.33418813 0.045046292 -0.060655437 0.050528582 0.046623286 0.07037716 -0.03429611 0.06062448 0.060827035 0.0075733033 0.16586716 0.02165634 -0.03665759 0.30396602 -0.10015051 0.034632254 0.0029959662 -0.019957729 0.16417788 -0.014672112 -0.10962066 -0.17789756 0.09343823 -0.10674544 0.17207614 -0.09569271 0.18801261 0.0062469654 0.11050813 -0.17194122 0.11809157 0.14609219 0.036855627 0.19894588 0.062805004 0.13531892 -0.117556915 0.013956478 -0.011233859 -0.24087748 0.09202792 -0.11932051 0.005288459 0.19398023 0.06013823 0.04860676 0.1197922 -0.0020985077 -0.07931924 -0.18604693 -0.109978326 0.083656594 0.097781874 0.1743684 0.010318281 0.020075396 -0.037140552 -0.1680388 0.19814645 -0.06644104 -0.07639238 -0.027049687 -0.08592942 0.09676076 -0.17956574 0.15100725 0.0011377025 -0.00044248012 0.032095663 -0.048760176 -0.120976746 -0.17534907 -0.22670165 0.13261545 -0.09426551 0.04773307 0.14315793 0.16044612 -0.084045455 -0.02838065 -0.016387766 0.11812277 -0.11488772 -0.031376705 -0.00600493 -0.24453165 0.1548854 0.19061218 -0.03192612 0.07860862 -0.04490118 0.0040097632 0.16550162 -0.16435681 0.0529893 -0.018706845 -0.2534268 0.17961207 -0.09287663 0.13081755 0.113844864 0.057133127 0.0010300147 -0.02588249 0.0717456 -0.11852715 0.1042133 0.01153207 -0.27507815 0.24423353 -0.17714286 0.20405403 -0.09649066 -0.10797761 0.02859112 0.2106121 0.102947965 0.25496623 -0.03788033 0.12387525 -0.10721698 -0.15670417 -0.066703536 -0.14672568 -0.11837185 0.18257198 0.080473766 -0.015941834 0.03926692 0.099710934 0.044366326 -0.058680885 -0.10379887 -0.053467076 -0.09012235 0.12716748 0.3254435 0.04446474 -0.12231811 -0.11262176 -0.08762946 -0.10263297 0.023598867 0.18221486 -0.12905127 0.28421336 0.1471561 -0.063910015 -0.04909191 0.22144447 -0.0058825556 0.03805866 0.22547752 -0.039958972 0.017237756 -0.19455726 -0.017973537 0.18907267 -0.054663826 0.14504439 0.022978326 -0.061811063 0.26790234 0.124769755 -0.079894066 0.17145507 0.079556555 -0.35101402 -0.04003515 -0.11500181 -0.14407901 -0.049039844 0.018214645 0.15237933 -0.11713544 0.26478672 -0.04504573 -0.081319064 0.0024531218 -0.12239477 0.021141455 0.0790357 -0.18796638 0.06955971 -0.01362766 0.012509097 -0.008091544 -0.08272782 0.08376427 0.08174972 -0.0036039373 -0.0962849 0.06527316 0.055707376 -0.041109722 -0.048211608 0.15002242 -0.118791476 0.14580703 -0.12188191 0.195247 0.0093284445 0.008964306 -0.13599166 -0.27795443 -0.23547766 -0.057772085 -0.05309622 -0.099218465 -0.07306695 0.13877648 -0.028556954 -0.07828606 0.064556316 -0.2216889 -0.11949028 0.020289294 0.01725716 -0.21290156 -0.08063676 0.06906623 0.06384919 0.085737236 0.0055977 -0.12166294 0.017677333 0.03449342 0.18196316 0.05369772 -0.043500967 -0.07666642 0.15205288
峰峰 -0.010805196 -0.01898777 0.08894582 -0.15658773 -0.05585929 -0.03398081 0.0418855 0.07265986 0.07081218 0.021511234 0.043189283 -0.028119717 0.015897997 0.056055337 -0.04017984 -0.045449182 0.24268937 0.14757168 0.0032520348 0.016733387 0.041983128 -0.010989062 -0.024650656 -0.13946317 -0.07868733 -0.06398016 -0.107736915 0.04732532 -0.009080431 -0.039694194 -0.063716896 -0.13197078 0.056538958 -0.20523599 0.052787993 -0.103087574 0.04790218 -0.16944928 -0.0052182665 0.114722006 0.008070282 -0.09622211 -0.020385893 -0.08042873 -0.060011156 0.0875846 -0.11993574 -0.100466035 -0.0037105214 -0.13405566 -0.0016754762 0.020754658 0.03714038 -0.02348386 -0.08580104 0.038508113 0.08869815 -0.07748406 0.05476116 -0.16274159 -0.11439142 -0.067659914 0.056038696 -0.073053464 -0.05623762 -0.09729582 -0.01558826 -0.008522325 -0.26077044 0.03798228 -0.050870366 0.042104524 0.034380782 0.05767969 -0.027335953 0.049908143 0.044861108 0.00394899 0.12893996 0.017289126 -0.029427825 0.23439527 -0.07283407 0.023624986 -0.0015063613 -0.012585048 0.12801965 -0.014181832 -0.091866955 -0.13073511 0.07896338 -0.08326605 0.1343871 -0.07913653 0.14572887 0.008947536 0.08065303 -0.13298826 0.09011106 0.11728393 0.032059196 0.14942889 0.052415323 0.107504256 -0.09338037 0.0075818826 -0.0067989775 -0.18223312 0.06927767 -0.092155956 0.0072013205 0.14824262 0.047359265 0.036382742 0.09441191 -0.0008795516 -0.06455149 -0.13781068 -0.08091451 0.06802241 0.07808478 0.13326737 0.0072375457 0.013730129 -0.023909722 -0.12741812 0.1505098 -0.05429423 -0.058664527 -0.016983597 -0.07045638 0.07013958 -0.1426256 0.11575679 -0.00026478994 0.0018159758 0.025176572 -0.03669415 -0.09005023 -0.13501796 -0.17038976 0.09738404 -0.072083555 0.039231725 0.10215558 0.12829196 -0.059853148 -0.021668613 -0.010827279 0.09120146 -0.09271314 -0.023140991 -0.007354323 -0.19275111 0.120087765 0.15284185 -0.023861129 0.057844266 -0.036278605 0.006222569 0.12289562 -0.1250709 0.044429388 -0.0099604 -0.19666526 0.14303955 -0.07055313 0.09974199 0.08300629 0.04613502 0.00028558282 -0.019599423 0.056051526 -0.0915521 0.07776898 0.009112653 -0.20704907 0.18875632 -0.13802005 0.15284841 -0.075068764 -0.08242959 0.024881577 0.1620697 0.08299438 0.19876106 -0.03166108 0.09801811 -0.082766704 -0.11912642 -0.049976368 -0.11164058 -0.095128015 0.13873969 0.06539449 -0.010177661 0.027702224 0.08095831 0.02985106 -0.042197015 -0.07627616 -0.03974463 -0.06887072 0.09388278 0.25115597 0.030086467 -0.09635779 -0.08624219 -0.0637626 -0.083913766 0.020171199 0.14131151 -0.101658374 0.21699885 0.112306684 -0.051854286 -0.038515233 0.17480607 -0.009569201 0.030584143 0.17492914 -0.03705531 0.013992052 -0.14999162 -0.012256018 0.14328262 -0.04673953 0.11508588 0.017318917 -0.05461123 0.20909639 0.10158668 -0.061307378 0.12877071 0.063969515 -0.27237073 -0.030305754 -0.08797315 -0.11076459 -0.037089244 0.013047864 0.11566493 -0.09377705 0.20352174 -0.03781631 -0.062733494 0.0015258493 -0.09568522 0.017016526 0.062662005 -0.14546314 0.054508526 -0.016940098 0.009252076 -0.010778151 -0.06421806 0.060436677 0.060783666 0.0014804745 -0.072598085 0.048827123 0.04172232 -0.03119969 -0.040485777 0.11947239 -0.09308681 0.11629433 -0.09039236 0.15202029 0.008394047 0.0085040005 -0.10227745 -0.21231832 -0.17775169 -0.048556335 -0.04517508 -0.07263327 -0.058734857 0.10942205 -0.025161713 -0.053869635 0.050653134 -0.17614846 -0.09766042 0.012324814 0.012202064 -0.16709946 -0.060651835 0.053821217 0.054571066 0.058790702 -0.0016376963 -0.09526976 0.013512483 0.021173576 0.14689147 0.037251636 -0.03166851 -0.05470878 0.12057182
想 -0.018877156 -0.019814154 0.13320938 -0.25211054 -0.09022507 -0.06339482 0.07076921 0.115022846 0.108360894 0.047500666 0.059877977 -0.03934369 0.019209007 0.09190525 -0.063508935 -0.062232148 0.3810778 0.22520767 0.006240555 0.021074664 0.05795318 -0.017076252 -0.03730273 -0.2112772 -0.11993767 -0.09575622 -0.16584383 0.07884212 -0.0123522105 -0.07022371 -0.09212454 -0.20409092 0.08529815 -0.315332 0.08618346 -0.16006735 0.07956793 -0.25098965 -0.00596334 0.16522984 0.01361994 -0.14588809 -0.035222866 -0.12079187 -0.09318021 0.1319369 -0.19045448 -0.14646675 -0.0075390483 -0.21516222 0.006759512 0.033246174 0.05913748 -0.029425727 -0.13878746 0.05924914 0.13451326 -0.11877423 0.08245103 -0.24749957 -0.18145657 -0.09949669 0.08216157 -0.12157283 -0.0869246 -0.15262361 -0.02620383 -0.004116573 -0.39711028 0.049559206 -0.07901098 0.0594992 0.048185244 0.080450945 -0.048027184 0.07634421 0.07244833 0.0038183671 0.19459555 0.030023951 -0.046495285 0.36690465 -0.11898723 0.04308116 0.0020625882 -0.02667201 0.19388384 -0.017370734 -0.13487169 -0.2178411 0.1150361 -0.12171004 0.20615965 -0.1154871 0.22183757 0.006113915 0.12986653 -0.20438099 0.13157976 0.17413715 0.04337105 0.23044653 0.075076506 0.16107343 -0.13505086 0.01713397 -0.011258736 -0.28727463 0.10710885 -0.14598611 0.010747062 0.22484384 0.07582001 0.05813816 0.14957143 -0.0024303568 -0.09486107 -0.21805951 -0.13284466 0.100014985 0.12052171 0.20554146 0.009498327 0.01847152 -0.047669806 -0.19678193 0.23880658 -0.07693267 -0.09144972 -0.034789216 -0.1000605 0.11010365 -0.2151952 0.17901836 -0.0021905152 -0.004472891 0.042676996 -0.05501391 -0.13553809 -0.20309877 -0.27544641 0.15889153 -0.10753137 0.06345152 0.16602817 0.19103909 -0.09384144 -0.03381499 -0.011753615 0.14600089 -0.13352607 -0.031165443 -0.007306969 -0.288776 0.18066356 0.22677736 -0.035713773 0.090551645 -0.057297185 0.0054858387 0.19496463 -0.19585715 0.06664902 -0.022656532 -0.29855505 0.21876885 -0.11009491 0.15547024 0.13101664 0.062448263 0.002496642 -0.031257838 0.082373224 -0.13884732 0.12152817 0.017443178 -0.32666242 0.2891394 -0.21487556 0.2411662 -0.11873575 -0.12927644 0.034307368 0.25635457 0.119760655 0.29734656 -0.04428256 0.13943148 -0.12881793 -0.18829805 -0.08071011 -0.17441724 -0.14343673 0.22475575 0.09933116 -0.027144281 0.044060234 0.11644898 0.049054295 -0.0617452 -0.11996007 -0.07383242 -0.10173348 0.15022343 0.3844746 0.054720934 -0.13945161 -0.13047221 -0.1114446 -0.12246543 0.027606891 0.21668267 -0.16401443 0.33315393 0.17209423 -0.07947924 -0.06557198 0.26746035 -0.0049866983 0.04367541 0.26213092 -0.050630845 0.021481909 -0.2260863 -0.023612859 0.2232893 -0.066604674 0.17457545 0.023574576 -0.074753076 0.31735012 0.14936452 -0.08963701 0.2053265 0.09554796 -0.4136535 -0.04850831 -0.13657306 -0.16864209 -0.054264978 0.02619 0.17873149 -0.1451111 0.31696412 -0.053367656 -0.097316176 -0.00057334144 -0.13730146 0.018449346 0.09310837 -0.22252496 0.08321414 -0.01680287 0.01736908 -0.007696289 -0.098945 0.094702534 0.10022183 0.0007399369 -0.107124 0.0781742 0.07914416 -0.048642363 -0.06170608 0.18250729 -0.13505247 0.17524824 -0.14095521 0.22825922 0.007602245 0.012045819 -0.15981899 -0.33063254 -0.2765716 -0.076955035 -0.06851767 -0.12414417 -0.086923234 0.17226945 -0.03696358 -0.09384414 0.07758616 -0.26261175 -0.14932978 0.026543783 0.019797921 -0.25354713 -0.09345031 0.08183118 0.076972954 0.09209235 0.0043344195 -0.15019403 0.019251067 0.03893333 0.21966055 0.06408368 -0.047436103 -0.08578198 0.18196712
玫瑰 -0.004562309 -0.02144875 0.06035885 -0.12314344 -0.059382945 -0.01357045 0.012322136 0.037323337 0.04147025 0.010146979 0.019495746 -0.02473017 0.024256863 0.040324777 -0.03685263 -0.023213135 0.15427986 0.10739817 0.00047766085 0.021405246 0.052750994 -0.015439387 -0.010403038 -0.11322629 -0.07485214 -0.07037407 -0.07347617 0.02064102 -0.002919175 -0.030315895 -0.061546877 -0.09689136 0.053699147 -0.15684238 0.05323887 -0.06371757 0.03790197 -0.13039586 -0.02351375 0.08136626 -0.018022655 -0.051293157 -0.033400986 -0.051063184 -0.050436106 0.078851424 -0.075238876 -0.08445886 -0.013136072 -0.10939886 -0.016753407 -0.005327568 0.027362278 -0.026187664 -0.066765584 0.029839164 0.06555738 -0.041626923 0.028239407 -0.12542354 -0.07408233 -0.05770278 0.05866856 -0.03315872 -0.049975686 -0.05586368 0.0015603948 0.0018702269 -0.17859122 0.041848775 -0.021515397 0.040528405 0.02623279 0.042809 -0.023563555 0.02511023 0.03222904 0.021812513 0.086219795 0.00250675 -0.027831309 0.14281002 -0.056301344 0.029625526 -0.0028456072 0.009475104 0.087591946 -0.016889008 -0.075915 -0.091762535 0.07715938 -0.07944242 0.08742407 -0.07365379 0.108377166 0.0060072835 0.036761835 -0.08728947 0.0774575 0.081626646 0.012150591 0.10065661 0.044007644 0.08511237 -0.08291673 -0.0070897387 -0.028660834 -0.11333153 0.06859837 -0.06031027 0.024671081 0.12126048 0.02794289 0.014533686 0.048895285 0.01857631 -0.06915397 -0.08932413 -0.07224627 0.068883 0.04160665 0.09016647 0.020242233 0.019492824 -0.004822911 -0.07142528 0.086460456 -0.05432196 -0.05895144 -0.024912894 -0.07204846 0.044038028 -0.106641896 0.09122149 -0.006836919 -0.010795494 -0.004729043 -0.015989698 -0.08525486 -0.087197684 -0.10715564 0.07300805 -0.04083185 0.017090162 0.07890266 0.070391305 -0.061547954 -0.03623646 -0.031222396 0.08364622 -0.079547204 -0.04374736 -0.001601015 -0.14458911 0.10687766 0.10690948 -0.0029315262 0.048208985 -0.028126366 0.0022673523 0.08820831 -0.08626508 0.01587053 -0.016703807 -0.15054281 0.09013228 -0.064493306 0.06636642 0.03822778 0.024308724 -0.0077894423 -0.011981456 0.044106837 -0.069595404 0.055471588 -0.007871726 -0.16288294 0.14062014 -0.098621465 0.11845592 -0.037161704 -0.07897423 0.026109044 0.090739556 0.07101953 0.15505612 -0.03497158 0.08803832 -0.055897273 -0.08589052 -0.032709274 -0.068892576 -0.08050347 0.09312884 0.04154912 0.0023396714 0.02045645 0.04000361 0.0053889747 -0.044487994 -0.048612896 -0.016470931 -0.03629443 0.08939563 0.1565868 0.03464093 -0.08472051 -0.057531785 -0.025184728 -0.05743222 0.018057546 0.1077465 -0.05201363 0.13988316 0.08370475 -0.037090916 -0.005262668 0.13489233 -0.0017208847 0.036523875 0.14205307 -0.042296972 0.0060553835 -0.113760985 -0.025446735 0.12774271 -0.0384863 0.071610935 0.004427529 -0.056793902 0.16303295 0.07781856 -0.056018006 0.071919344 0.029504621 -0.20057505 -0.035914063 -0.06136183 -0.094654694 -0.035220116 0.01848626 0.07761746 -0.076190576 0.1500337 -0.025393784 -0.028824056 0.010231974 -0.07766892 0.03318631 0.06852285 -0.08735561 0.029741189 -0.0065458994 -0.00719595 -0.01981586 -0.06565837 0.059630986 0.06963004 0.013772031 -0.052596215 0.040115215 0.026014028 -0.029479276 -0.047366403 0.0936201 -0.08334162 0.09359831 -0.0764231 0.12161969 0.0024129355 0.001138648 -0.083030395 -0.15772283 -0.11174609 -0.02928056 -0.023830155 -0.030028876 -0.036297057 0.07450202 -0.013873058 -0.022193646 0.027545478 -0.14193836 -0.048069254 -0.01183842 0.024936555 -0.123826064 -0.06376361 0.06428097 0.030100532 0.046555243 -0.017968714 -0.05020542 0.023017913 0.016672522 0.10167184 0.0015161488 -0.015008701 -0.018299388 0.09499806
泪奔 -0.01240639 -0.021565989 0.08054682 -0.15703942 -0.055072263 -0.03738246 0.048660994 0.07439819 0.063762486 0.03148068 0.032442786 -0.024735125 0.0068121008 0.05069792 -0.039731033 -0.033650685 0.23580971 0.13371973 0.0065600555 0.010520728 0.036997966 -0.010926032 -0.023645079 -0.127043 -0.072601125 -0.05557124 -0.096718654 0.045215115 -0.010432268 -0.0394292 -0.06276306 -0.12335947 0.047815125 -0.18775086 0.04914302 -0.10149647 0.04667393 -0.15188311 -0.006209116 0.10455576 0.011622113 -0.09241189 -0.020024376 -0.06978331 -0.059316378 0.08067582 -0.11689883 -0.09337822 -0.006604008 -0.13541137 0.008599293 0.019355595 0.03532745 -0.017260095 -0.08717217 0.0437521 0.084250696 -0.073024794 0.05724675 -0.14771098 -0.11474466 -0.06193775 0.049239103 -0.076134615 -0.057950508 -0.088729106 -0.020342546 -0.007121901 -0.2417132 0.024769189 -0.05272561 0.036785133 0.02583203 0.053695705 -0.031077776 0.038672585 0.041121878 0.00097328983 0.12069436 0.01562814 -0.027874175 0.22584984 -0.06666851 0.027646407 0.0022093032 -0.014036269 0.11554733 -0.011142102 -0.083496444 -0.13514508 0.070980534 -0.07576592 0.12758827 -0.067703374 0.12922852 0.0079851225 0.07520625 -0.12277987 0.080462106 0.10820915 0.021710342 0.1360737 0.03960679 0.097149245 -0.08539219 0.011644433 -0.009029718 -0.1750237 0.063555434 -0.088874646 -0.001119676 0.13092804 0.046061948 0.036028802 0.090801835 -0.003162868 -0.05283577 -0.13359255 -0.08849607 0.052847277 0.07328742 0.12356233 0.0068265405 0.0073634037 -0.027074328 -0.12240816 0.14938286 -0.04835874 -0.058829933 -0.018618768 -0.059973575 0.0692715 -0.12959847 0.11199198 -0.003883985 0.0031023147 0.027053673 -0.029905472 -0.08168568 -0.12332325 -0.1683282 0.101524845 -0.065941975 0.03753662 0.10077904 0.11030588 -0.060228314 -0.021764772 -0.0055137863 0.09170406 -0.085310176 -0.013281568 -0.005270065 -0.17619118 0.11291812 0.1362664 -0.022389546 0.053424187 -0.033996366 0.007910438 0.121885374 -0.11580924 0.03922205 -0.01390349 -0.17387924 0.13477792 -0.06806847 0.09778226 0.08242058 0.036053628 0.0012941334 -0.015417359 0.050391674 -0.08395561 0.07625892 0.0069839377 -0.19644926 0.17883334 -0.12913062 0.1475668 -0.07401422 -0.07441953 0.018389408 0.15352263 0.07242625 0.17717613 -0.023590475 0.08492622 -0.0738969 -0.11219346 -0.053578086 -0.10667626 -0.09010828 0.13665074 0.055232983 -0.020220755 0.031599313 0.07505776 0.034691732 -0.040909167 -0.06961537 -0.044892706 -0.06309929 0.08919082 0.23969232 0.03309944 -0.077119574 -0.075026944 -0.069516726 -0.069440275 0.018456811 0.12656906 -0.10644063 0.20732082 0.10491758 -0.05115674 -0.037090637 0.16299635 -0.0030882843 0.03296214 0.15962355 -0.032329347 0.01109715 -0.1350085 -0.010793821 0.13650177 -0.04271398 0.10337595 0.013626352 -0.0374893 0.19545788 0.0896849 -0.06065982 0.12700178 0.058442432 -0.2533398 -0.028105356 -0.0829717 -0.10199988 -0.030127453 0.011822211 0.10048749 -0.08409149 0.19946358 -0.03746509 -0.054830916 0.0047202776 -0.080925494 0.015408326 0.055923194 -0.13971895 0.053904455 -0.00978057 0.0083063515 -0.006108421 -0.06554044 0.05023295 0.06366098 -0.0047885496 -0.06572715 0.04560882 0.041831657 -0.027361922 -0.03330919 0.10823099 -0.07768838 0.10529216 -0.08777082 0.13213444 0.006513913 0.002950443 -0.101362556 -0.20174803 -0.16176157 -0.039624393 -0.048967894 -0.08071707 -0.04843287 0.110598385 -0.022940593 -0.049729563 0.042627417 -0.16235761 -0.08718278 0.02369331 0.014311847 -0.15701874 -0.050016787 0.05126439 0.03964307 0.053065155 0.0014378227 -0.09100872 0.0048022275 0.025139607 0.1403498 0.03733769 -0.028348487 -0.048390567 0.11149166
送心 -0.023879906 -0.011039171 0.025687572 -0.11079186 -0.0074739293 0.0032649485 0.052378986 0.079629175 0.04309163 0.04291619 -0.011639167 -0.043725807 0.03462667 0.03847295 -0.020536846 -0.0286794 0.1479887 0.072079845 -0.01976067 0.0018756656 0.038091347 -0.038382087 0.0006241677 -0.07784476 -0.054997683 -0.033805754 -0.042371407 0.016113885 -0.007324926 -0.062223766 -0.0048767403 -0.0593309 0.07571096 -0.12520069 0.058892105 -0.08046519 0.036912967 -0.10520393 -0.0038141725 0.09882308 0.017828884 -0.024623558 -0.03708336 -0.055839904 -0.073017 0.006292117 -0.035759598 -0.01520009 -0.0045542265 -0.102736495 -0.008217622 0.030754674 0.049599648 -0.00047413108 -0.06066038 0.026909614 0.062870525 -0.076558016 0.044438712 -0.10279158 -0.07959686 -0.0436277 0.00556792 -0.0689461 -0.019109085 -0.04857535 -0.017073158 -0.004005609 -0.17330836 -0.0013294568 -0.004781842 0.014527954 0.051656965 0.05054819 -0.031617373 0.041700706 0.0463758 -0.0072744484 0.09945484 0.016601328 -0.044722907 0.16563483 -0.06071601 0.04355538 0.012330539 0.0073901736 0.06686256 0.0040174173 -0.06379626 -0.10806372 0.06692027 -0.06576685 0.051479198 -0.028839111 0.101968706 0.016612116 0.07436327 -0.078688465 0.027862212 0.07000254 0.01877663 0.070459485 -0.0020663964 0.043518424 -0.04658599 0.015634414 -0.032141414 -0.08440096 0.037016798 -0.033203367 0.020882154 0.13650164 0.03064481 0.018730925 0.059592165 0.007547843 -0.04806162 -0.10321261 -0.061269246 0.03883691 0.055804934 0.052024905 0.033290077 0.041419428 0.011125786 -0.094325766 0.10410472 -0.010168945 -0.061517905 0.008017918 -0.010008508 0.050759893 -0.1109935 0.09011342 0.0012918544 0.03796035 0.012161427 -0.046697553 -0.06453841 -0.05284171 -0.088495485 0.089327164 -0.042580456 0.037349697 0.06925598 0.08109151 -0.07735932 -0.0023029773 0.016794309 0.04466106 -0.03474742 -0.021494046 -0.01648102 -0.10740634 0.08918713 0.09031063 0.015651619 0.034639847 -0.029085074 0.02384001 0.100917056 -0.05199501 0.028220916 -0.00169872 -0.13851166 0.08515654 -0.047168355 0.097113326 0.08470034 0.051762648 0.03250876 -0.016101547 0.029869244 -0.08238376 0.055764735 0.0067829373 -0.122107245 0.13417995 -0.10132513 0.097263776 -0.06522125 -0.049537674 0.036027182 0.1088972 0.069522575 0.1411575 -0.041493617 0.029740816 -0.054685358 -0.04725805 -0.057141475 -0.08558932 -0.06152161 0.12682886 0.056353446 -0.006747156 0.048708882 0.03328107 0.052511793 -0.008753468 -0.07878558 0.0077559208 -0.060350135 0.050597113 0.1598843 0.044974856 -0.06714504 -0.04513619 -0.04473207 -0.057013776 -0.009568862 0.091627054 -0.060062908 0.12442445 0.05769675 -0.043747 -0.034582537 0.1324095 0.018601228 0.043055132 0.11594113 -0.0071542524 -0.009162221 -0.07809611 0.009962466 0.10510258 0.00058370765 0.0681013 -0.020736711 -0.05292403 0.14470904 0.045914102 -0.015337111 0.10691028 0.0088100415 -0.16329011 -0.0019189663 -0.070838176 -0.07654834 -0.021946367 -0.0030838875 0.073306866 -0.0840919 0.142857 0.0010628988 -0.041349184 -0.016713195 -0.043840818 0.045218572 0.026966432 -0.11559152 0.059736535 0.0056488626 -0.01630031 -0.040915143 -0.040224984 0.06620835 0.02952874 -0.042677876 -0.06747119 0.008001899 0.04360737 -0.009753855 -0.032154094 0.035160124 -0.074071154 0.06437096 -0.07584665 0.12193836 0.008430737 0.023344882 -0.064772345 -0.15123412 -0.122568235 -0.04769543 -0.030788565 -0.05886618 -0.017211478 0.05443814 -0.014884993 -0.053277113 0.06237272 -0.09433717 -0.03652954 -0.008000311 -0.0032442128 -0.090994306 -0.067221634 0.0455482 0.019671101 0.05622784 -0.007043844 -0.078113526 -0.017403424 0.014853263 0.056130257 0.028338397 0.00096001616 -0.06405802 0.08355703
看 -0.016952189 -0.021766894 0.12307968 -0.22614373 -0.08035419 -0.0569203 0.06170154 0.1058387 0.10192271 0.04158177 0.05661086 -0.038898535 0.018089648 0.08277515 -0.059300832 -0.058477465 0.34620285 0.20142424 0.0050655487 0.021172151 0.055261757 -0.012583545 -0.035693932 -0.1910384 -0.1088959 -0.08625333 -0.14990696 0.068621516 -0.009304705 -0.061772387 -0.08477384 -0.18433693 0.07705078 -0.2846735 0.07817964 -0.1480113 0.06958419 -0.22559278 -0.005605339 0.15126139 0.0086918315 -0.13347644 -0.030986112 -0.11014056 -0.08349828 0.11582109 -0.16972227 -0.13181154 -0.0034318576 -0.19202794 0.0031938837 0.034520824 0.054602247 -0.025490819 -0.12440653 0.05481204 0.12221406 -0.11119921 0.076964766 -0.22772709 -0.1631737 -0.090396725 0.07393497 -0.10927644 -0.0793967 -0.13893935 -0.020241499 -0.0056196842 -0.36140615 0.04491629 -0.0725947 0.053392176 0.046684384 0.07597333 -0.038730517 0.06761781 0.06812964 0.005113362 0.17686506 0.025402706 -0.04106981 0.33218 -0.107573405 0.038110483 0.0012395052 -0.023561891 0.17811683 -0.015945008 -0.122724004 -0.19403195 0.10367062 -0.111013204 0.18572144 -0.10413627 0.20097636 0.0071227425 0.11819164 -0.18716261 0.121432744 0.15786646 0.041427623 0.21356623 0.066464014 0.14577343 -0.12618741 0.014393132 -0.012752368 -0.2587896 0.09598252 -0.12998377 0.006831214 0.20674239 0.06905046 0.053059578 0.13357371 -0.0026018538 -0.08427151 -0.19584884 -0.11858811 0.08744704 0.10855875 0.18830612 0.008626848 0.017797831 -0.03923727 -0.18065038 0.21546787 -0.06917127 -0.083474405 -0.030878512 -0.09344751 0.10284057 -0.19437048 0.1581161 -0.0012425105 -0.0007084232 0.037949733 -0.049032502 -0.12195631 -0.18877834 -0.24876715 0.14476138 -0.09719213 0.055240184 0.15064459 0.17384924 -0.08617309 -0.028191727 -0.012536422 0.13225207 -0.12528001 -0.027328303 -0.0092895925 -0.2638933 0.16617225 0.20561595 -0.03672201 0.08263795 -0.05158056 0.0027556727 0.1790748 -0.1751071 0.05654223 -0.019655494 -0.2714494 0.19481525 -0.10121389 0.14141646 0.11983303 0.058555923 0.0017490218 -0.030077456 0.078766495 -0.12571183 0.107621536 0.017312923 -0.2956266 0.26174936 -0.19151695 0.21683232 -0.10676924 -0.11657619 0.031890314 0.23083921 0.11052042 0.2703129 -0.040264495 0.13049573 -0.11283393 -0.17063072 -0.07244898 -0.15709727 -0.12532541 0.20013097 0.0867604 -0.020192828 0.039750908 0.10873657 0.041805614 -0.057010595 -0.11069249 -0.061242815 -0.09309363 0.1361914 0.35318342 0.04952668 -0.12614927 -0.12194809 -0.09656897 -0.11245481 0.027270814 0.1941602 -0.14579864 0.30455142 0.15645652 -0.07278959 -0.05635802 0.24359909 -0.0060648695 0.041063346 0.24260798 -0.046478856 0.019694394 -0.20525421 -0.021885585 0.20187065 -0.05995892 0.15646103 0.025161102 -0.06678145 0.28990078 0.1332661 -0.08258187 0.18380135 0.08708793 -0.37554362 -0.04023108 -0.121482715 -0.15300196 -0.050265525 0.02346196 0.16013826 -0.12963632 0.28821835 -0.051023044 -0.088308655 0.0014829913 -0.12603943 0.018099071 0.086450376 -0.20107627 0.07471582 -0.014369668 0.01585001 -0.0066492404 -0.09066066 0.08524284 0.08711524 -0.00021706284 -0.09923117 0.06838204 0.068455026 -0.04625619 -0.05209537 0.16323534 -0.123720884 0.15846856 -0.12880346 0.20655575 0.008779655 0.009664569 -0.14874217 -0.29841948 -0.25223592 -0.06632089 -0.059509695 -0.10801437 -0.078355916 0.15437159 -0.03471082 -0.08564664 0.0686784 -0.23895484 -0.13373905 0.023674313 0.01640551 -0.23149803 -0.08292082 0.073580064 0.07000211 0.08772087 0.00590218 -0.1348819 0.016398275 0.033418164 0.20117612 0.057430565 -0.042534873 -0.07980159 0.16295877
李易峰 -0.015630923 -0.020794373 0.116939366 -0.21400478 -0.07262022 -0.05052246 0.060816616 0.09930989 0.09473193 0.03820763 0.05634613 -0.03055962 0.012106214 0.07991347 -0.055813532 -0.056263383 0.3255208 0.18806797 0.0068981173 0.02034106 0.052984532 -0.013281753 -0.03366341 -0.18138379 -0.10364686 -0.07992523 -0.14308664 0.06643192 -0.00761805 -0.05352527 -0.077464476 -0.17526099 0.07006152 -0.2732401 0.07507085 -0.13847421 0.066563 -0.2189081 -0.0072410787 0.14823619 0.014012678 -0.12755735 -0.026677007 -0.10263008 -0.081690356 0.107492514 -0.15875101 -0.12592882 -0.0047721877 -0.18235022 0.0023506011 0.03348904 0.05368128 -0.02414079 -0.119442254 0.049633794 0.11959966 -0.105761744 0.07588923 -0.21758856 -0.15411326 -0.08820362 0.06845073 -0.10584468 -0.07744014 -0.128294 -0.01763135 -0.008424456 -0.34851557 0.044710413 -0.0709411 0.04925312 0.047960676 0.07333001 -0.034493838 0.061965812 0.061974842 0.0050749774 0.1679887 0.02467552 -0.03896993 0.3198456 -0.1003169 0.035028096 0.0005714575 -0.019475209 0.16904855 -0.014417614 -0.11781893 -0.18152574 0.096916385 -0.10793384 0.18056273 -0.10029742 0.19381535 0.0069104205 0.11284399 -0.17656459 0.11922484 0.15345019 0.037357982 0.20324363 0.06409541 0.1426729 -0.119855076 0.014241772 -0.010338355 -0.24638693 0.09241132 -0.12083086 0.0061714537 0.19696341 0.06600298 0.048930977 0.12944841 -0.0033340398 -0.08361562 -0.18708394 -0.113778345 0.08455799 0.10153239 0.17735957 0.011044789 0.021140218 -0.036694776 -0.17437539 0.20624593 -0.06511263 -0.08053724 -0.025103394 -0.08286672 0.09899229 -0.1875575 0.15566957 0.0051152813 -0.00063353736 0.03478197 -0.047101498 -0.1196374 -0.17909537 -0.2401015 0.13748324 -0.09466436 0.057462744 0.1430814 0.16617246 -0.080388084 -0.027733766 -0.01343798 0.12061687 -0.120168425 -0.029380923 -0.012314606 -0.25145164 0.16107242 0.19885385 -0.032053426 0.076663435 -0.04468943 0.0042193215 0.17212942 -0.16519158 0.054611944 -0.013740833 -0.25770625 0.1903004 -0.09586651 0.13894837 0.11504969 0.06233723 0.0018835906 -0.02906263 0.07330889 -0.119936064 0.10552283 0.012071618 -0.27933106 0.24785507 -0.18768865 0.20702031 -0.103208065 -0.112315804 0.03039956 0.21794501 0.10540469 0.26021856 -0.035824865 0.12584111 -0.11229455 -0.15905878 -0.07029073 -0.15470447 -0.11732869 0.19605923 0.08771812 -0.020429026 0.03828273 0.10650432 0.044372626 -0.061914425 -0.106120154 -0.057735913 -0.0899271 0.125375 0.33426642 0.048585873 -0.12207067 -0.11177345 -0.095102 -0.10957738 0.024515023 0.18020217 -0.13675979 0.2927465 0.14857468 -0.06601737 -0.050136033 0.23276503 -0.0049152575 0.0417607 0.23268825 -0.042758968 0.016238453 -0.19614333 -0.017909784 0.19472048 -0.058908258 0.15223041 0.019210296 -0.06267799 0.2765505 0.12866428 -0.082220696 0.17975259 0.08657739 -0.36009878 -0.035209488 -0.116661884 -0.14309992 -0.052409463 0.019485682 0.15875123 -0.1253343 0.27617618 -0.049161084 -0.08328115 0.0042413846 -0.12133301 0.020246783 0.07973455 -0.19853723 0.0733558 -0.016957916 0.013316681 -0.009074677 -0.08558751 0.08149353 0.0853559 -0.005844819 -0.09719449 0.06131324 0.06028742 -0.03900958 -0.045981932 0.15798908 -0.120264456 0.15199998 -0.12167772 0.19874504 0.011688889 0.008935252 -0.13563383 -0.28159484 -0.24040075 -0.063860595 -0.056421492 -0.10589436 -0.07452022 0.14904793 -0.03188069 -0.08048387 0.06477396 -0.23023568 -0.12932838 0.025377816 0.018537747 -0.21947736 -0.07716178 0.071322724 0.07011635 0.083529234 0.0030414918 -0.13046141 0.015136822 0.03486572 0.19410412 0.05405017 -0.04505689 -0.078001976 0.15665194
好 -0.014273905 -0.017506475 0.11206196 -0.20449875 -0.075184956 -0.052932136 0.056950655 0.09636332 0.09321507 0.03677007 0.05181907 -0.035419066 0.018173248 0.07615613 -0.052359574 -0.0548097 0.3161942 0.18682751 0.005724881 0.019683924 0.050321907 -0.015381428 -0.033875886 -0.1723611 -0.10138192 -0.08093373 -0.13690056 0.06470445 -0.008915262 -0.057024926 -0.07687401 -0.16970024 0.07081695 -0.25696874 0.070874885 -0.13058543 0.0659513 -0.20765686 -0.0058396105 0.1375467 0.0086843725 -0.12186093 -0.029233443 -0.09814972 -0.0754248 0.10791933 -0.15357251 -0.11923913 -0.0026106453 -0.17530088 0.0020964625 0.029470125 0.051127505 -0.023064414 -0.114006855 0.049061764 0.10890504 -0.10093666 0.06821192 -0.20520103 -0.147598 -0.08165749 0.06982404 -0.10118232 -0.07066744 -0.12605767 -0.0199343 -0.007304521 -0.33160913 0.044439882 -0.06423737 0.04698871 0.039914485 0.068248056 -0.03715293 0.062237408 0.06283425 0.0029876307 0.15796457 0.022369444 -0.035857182 0.3024639 -0.09866546 0.03497405 0.001249433 -0.022193348 0.15856555 -0.015037592 -0.110879116 -0.17537148 0.09806323 -0.102496795 0.16995448 -0.09668259 0.18426533 0.0042872983 0.106066495 -0.16611254 0.11125648 0.143777 0.037727136 0.1951474 0.06142587 0.13281052 -0.112333074 0.014366169 -0.011514365 -0.23693171 0.087078646 -0.115996465 0.0075701717 0.1889435 0.060981594 0.048622698 0.12191436 -0.0021874367 -0.08058347 -0.17865965 -0.107313335 0.08310629 0.09861529 0.16945122 0.008593923 0.016498016 -0.038373336 -0.16429782 0.1967454 -0.06630967 -0.07523319 -0.023873657 -0.08545358 0.092364326 -0.17796305 0.14573045 0.0009233564 -0.00014151905 0.03261738 -0.04767116 -0.11008757 -0.16982107 -0.22708574 0.12885347 -0.087659456 0.051148016 0.13570116 0.16035318 -0.07727719 -0.024770644 -0.01283023 0.11980848 -0.11094503 -0.026561074 -0.007951403 -0.2389385 0.15086347 0.18546928 -0.030783083 0.07476134 -0.045872904 0.002149257 0.16132544 -0.15853207 0.053387053 -0.01699113 -0.24613845 0.17938381 -0.093131766 0.13043909 0.1107982 0.05452561 0.0037111817 -0.029095678 0.07028028 -0.11575967 0.10243402 0.014756689 -0.26931888 0.24173588 -0.17467234 0.19856232 -0.09818098 -0.10648279 0.029037496 0.20720354 0.10300522 0.24872856 -0.037576508 0.117229275 -0.10630315 -0.15564747 -0.06653051 -0.14375703 -0.11710802 0.18290363 0.07856614 -0.01664814 0.037172403 0.09634748 0.041543264 -0.054241184 -0.10120811 -0.058486365 -0.08466806 0.12328957 0.31950384 0.046678893 -0.118792884 -0.11095394 -0.09017926 -0.10161042 0.021655045 0.17587572 -0.13053426 0.2788483 0.14140579 -0.06517442 -0.049351707 0.22276062 -0.0052174414 0.039106388 0.22060196 -0.04445249 0.015411374 -0.18742181 -0.019909265 0.18414217 -0.05270629 0.14477386 0.01810131 -0.061845966 0.26427418 0.124056436 -0.07658548 0.1694393 0.0775989 -0.34090486 -0.040107276 -0.112377 -0.14005579 -0.046035837 0.020538598 0.14452477 -0.11902468 0.26227608 -0.045266036 -0.08146857 -0.00018726477 -0.114552855 0.019263912 0.07649269 -0.18320926 0.071636915 -0.015518408 0.014571435 -0.008893797 -0.083096445 0.079498105 0.08390902 -0.0018083483 -0.09048574 0.060591646 0.059215907 -0.043307222 -0.0492006 0.14925596 -0.11361443 0.14687975 -0.11498811 0.187843 0.007184276 0.00829564 -0.13415447 -0.2730464 -0.22982381 -0.06261589 -0.05461526 -0.099003285 -0.070457965 0.14256206 -0.02945651 -0.077589266 0.06266311 -0.21759734 -0.1198729 0.021040848 0.014189251 -0.21026228 -0.07699902 0.06526075 0.06408619 0.07807011 0.0027553227 -0.12251788 0.017014986 0.032160003 0.18125191 0.052302897 -0.040517185 -0.070170745 0.15119003
好帅 -0.01136258 -0.0140192835 0.06599869 -0.123918064 -0.044695497 -0.029872272 0.037079457 0.058484122 0.054415908 0.020250931 0.03422215 -0.019115837 0.009586632 0.04423647 -0.032527898 -0.03196804 0.18902844 0.11090952 0.0034022618 0.010465341 0.031084156 -0.0073527503 -0.021441132 -0.10702208 -0.06300013 -0.048370782 -0.082498156 0.040107895 -0.006601335 -0.03323143 -0.046140302 -0.103532635 0.04241129 -0.15901634 0.041024253 -0.07794891 0.03591536 -0.1300016 -0.006014643 0.086708106 0.0059095095 -0.074094795 -0.016593805 -0.05961201 -0.04480268 0.065822534 -0.09249795 -0.07393413 -0.003721361 -0.10554653 0.000883558 0.020776626 0.030716568 -0.017130028 -0.069174826 0.029959248 0.06936318 -0.060129832 0.04541212 -0.123624265 -0.09024103 -0.050670076 0.042539593 -0.061824754 -0.044739567 -0.07262895 -0.010658304 -0.0061112107 -0.2027683 0.026849661 -0.039381463 0.03029732 0.025608828 0.043180607 -0.01905758 0.034424845 0.03906878 0.0012619572 0.097727224 0.011788625 -0.02393958 0.18446606 -0.05703451 0.021580225 0.0029511917 -0.010997395 0.09616036 -0.010945377 -0.07069366 -0.10625055 0.058162402 -0.0651484 0.10639313 -0.056534894 0.1112148 0.0065593007 0.06274113 -0.10032559 0.06718543 0.08978695 0.025253296 0.115938164 0.038788687 0.08312313 -0.071456395 0.0077296323 -0.008149984 -0.14224537 0.054091223 -0.07064307 0.005325924 0.11461286 0.037883587 0.03164107 0.07380425 -0.0023144619 -0.049919564 -0.111002006 -0.06565044 0.049413558 0.058902636 0.10157181 0.0055296826 0.012372313 -0.02175469 -0.09884514 0.11725386 -0.038164563 -0.049478352 -0.013403973 -0.050905146 0.058095712 -0.1088584 0.08785683 0.0023337463 0.0007392883 0.021474669 -0.026698828 -0.067078926 -0.10417631 -0.13894401 0.08114887 -0.056395177 0.034558058 0.08335233 0.0978442 -0.04736414 -0.016509011 -0.0033646226 0.069932505 -0.07200964 -0.017105594 -0.008630692 -0.14751966 0.09432948 0.11758177 -0.021254461 0.044149894 -0.024883427 0.0016077871 0.09885898 -0.096685976 0.031967383 -0.010522065 -0.1509184 0.11111563 -0.054989886 0.0828629 0.06887754 0.03657918 0.0023563756 -0.01901306 0.043213945 -0.06809219 0.0615988 0.0066122883 -0.15946089 0.14667846 -0.110477045 0.11773469 -0.06110935 -0.062993124 0.02028008 0.12708527 0.059537236 0.151753 -0.020445328 0.07154039 -0.06622805 -0.09247023 -0.04039659 -0.089070976 -0.07091624 0.11426923 0.05080298 -0.013095498 0.024660774 0.06098448 0.027270747 -0.035339408 -0.06053163 -0.030395648 -0.05498271 0.074571885 0.19517888 0.0295676 -0.0736608 -0.06352363 -0.055282407 -0.06262846 0.016427966 0.10406954 -0.08116118 0.16958459 0.08671122 -0.04064422 -0.029489921 0.13319297 -0.0027683366 0.023252742 0.13776751 -0.027717302 0.009728103 -0.11431038 -0.010663655 0.112022065 -0.03500492 0.09043864 0.0093958555 -0.035974987 0.16544072 0.07799948 -0.048959956 0.1050114 0.051049694 -0.21037772 -0.022431428 -0.06847514 -0.08216017 -0.027556412 0.01025334 0.09167924 -0.07429789 0.16099273 -0.02636 -0.047658224 0.0010217235 -0.073535785 0.012546803 0.047610357 -0.1151907 0.04358037 -0.009388116 0.008592167 -0.007160011 -0.04991341 0.048928674 0.049778022 -0.004649216 -0.054567095 0.03423377 0.035247605 -0.024406856 -0.029449923 0.08927314 -0.067147225 0.09035777 -0.0713535 0.11361773 0.0054587163 0.005459344 -0.08014139 -0.16468905 -0.1403235 -0.039699458 -0.03360832 -0.06333611 -0.04175879 0.08590136 -0.016168296 -0.046260353 0.036496084 -0.13193853 -0.07307529 0.015269467 0.010442476 -0.12784697 -0.04523373 0.03990947 0.038260043 0.0466606 0.00478145 -0.07625625 0.006221331 0.020479156 0.114851795 0.03123234 -0.02647769 -0.043304116 0.09424072
帅 -0.014683205 -0.0187004 0.09288255 -0.17083864 -0.059797697 -0.041415684 0.048876386 0.08308238 0.07552563 0.03178982 0.042257622 -0.030172626 0.01234545 0.06465644 -0.04592586 -0.043885704 0.2615658 0.15263198 0.0013944579 0.014849009 0.04191774 -0.010696595 -0.027992323 -0.14605606 -0.08362685 -0.067186035 -0.11128482 0.05358182 -0.009380325 -0.04481802 -0.06479517 -0.14116013 0.057927955 -0.21532151 0.057662047 -0.11141725 0.053284995 -0.17555165 -0.0054568173 0.11839511 0.010674642 -0.098260194 -0.02505361 -0.082564354 -0.062425166 0.0894145 -0.12658459 -0.09984876 -0.0018900223 -0.14912242 0.0024952355 0.026143165 0.0437773 -0.018838283 -0.09422334 0.040568925 0.09340409 -0.084548324 0.058412436 -0.17491527 -0.12293832 -0.070620336 0.058255643 -0.08507497 -0.059722014 -0.10277236 -0.016896175 -0.0051279743 -0.27417395 0.03690156 -0.054246534 0.042228714 0.03599233 0.06049739 -0.028942509 0.050425142 0.049320325 0.0055555343 0.13597156 0.017075567 -0.033082206 0.25482556 -0.08006201 0.029049896 0.0025341816 -0.018706365 0.13542074 -0.012167469 -0.0951534 -0.1466533 0.08172589 -0.08781959 0.13989967 -0.077153765 0.1551408 0.0046451497 0.08921215 -0.14221379 0.0917104 0.12283931 0.02852544 0.16399728 0.05289473 0.11215479 -0.09480645 0.010915955 -0.007817447 -0.19878851 0.073431745 -0.09710136 0.0057235654 0.15747526 0.05289333 0.03973275 0.10380125 -0.0030957735 -0.06612997 -0.14970298 -0.08944845 0.068645604 0.082965896 0.14050193 0.0076236324 0.015296891 -0.029576676 -0.13912266 0.1645702 -0.051610433 -0.06310635 -0.021571642 -0.068090916 0.07845831 -0.14997928 0.122808315 0.000927355 1.9451107e-05 0.028497979 -0.038801115 -0.09389079 -0.1441462 -0.18766567 0.11061356 -0.07341556 0.04436139 0.114667766 0.13346605 -0.06494804 -0.021352114 -0.012019916 0.100531444 -0.0958075 -0.022264222 -0.006018854 -0.20339297 0.12656589 0.15854742 -0.02663611 0.06419544 -0.03755212 0.0045262096 0.13513331 -0.13373703 0.042253453 -0.014122279 -0.2060274 0.1486068 -0.07589452 0.10744202 0.09322987 0.046378426 0.00092430884 -0.022393316 0.061030198 -0.096818745 0.08498079 0.011399313 -0.22298141 0.20137344 -0.14885375 0.16684832 -0.083038494 -0.09004966 0.02261466 0.17391142 0.08573418 0.20774122 -0.031589385 0.097528145 -0.087885305 -0.12952526 -0.055558626 -0.120622024 -0.09768327 0.15372944 0.06709326 -0.016624741 0.031008525 0.08226674 0.03299597 -0.044520233 -0.08319375 -0.043360945 -0.07386863 0.10421217 0.27091262 0.035924375 -0.09586021 -0.09023629 -0.073619984 -0.08514955 0.017787239 0.14605577 -0.1110305 0.23424433 0.11996918 -0.05744958 -0.042597935 0.18574932 -0.00451211 0.033981655 0.18751314 -0.034067027 0.011700264 -0.15714876 -0.014710026 0.15620077 -0.044554614 0.12235497 0.01987456 -0.050021663 0.22141317 0.10470566 -0.06465135 0.14315164 0.06837061 -0.28719842 -0.030036068 -0.093708776 -0.1168069 -0.039040737 0.017356034 0.12416789 -0.09885145 0.21996221 -0.037943333 -0.06643176 0.0020074595 -0.09637887 0.01433214 0.06678362 -0.15631297 0.05775711 -0.010806489 0.01113372 -0.0071976925 -0.068408236 0.06763886 0.06853389 -0.0010907698 -0.07701006 0.050634366 0.049111865 -0.03196183 -0.03833727 0.12385555 -0.09466436 0.12301982 -0.097812295 0.15625468 0.006337326 0.0065370915 -0.10970834 -0.22755247 -0.19285381 -0.049683362 -0.044602953 -0.08281208 -0.05729058 0.11706363 -0.02327062 -0.06211795 0.052386563 -0.18463768 -0.10221561 0.016971277 0.013495866 -0.1750151 -0.064296246 0.05423455 0.055137374 0.064879864 0.0032075848 -0.104054905 0.0115881385 0.027935226 0.1534777 0.045312356 -0.036091916 -0.06088951 0.1282746
比心 -0.011842715 0.0017140158 0.061174147 -0.111772284 -0.042015404 -0.04355378 0.0330743 0.07388919 0.06582313 0.0063721742 0.029072272 -0.04328946 0.024289088 0.050286386 -0.02847424 -0.030858038 0.1884984 0.104220025 0.0017698986 0.0062137097 0.03729405 -0.025353342 -0.018879293 -0.12501469 -0.05609336 -0.053476322 -0.099824704 0.048145838 -0.015692033 -0.029002398 -0.039346267 -0.112317815 0.047990702 -0.14597413 0.047853447 -0.0687895 0.042405065 -0.13031618 -0.0071361903 0.08399601 0.019862758 -0.06577928 -0.011639021 -0.07948505 -0.05410054 0.065577 -0.08966943 -0.065060645 0.014607968 -0.1320504 -0.0010470361 0.025098449 0.0352035 -0.014484971 -0.08693825 0.045729734 0.07130959 -0.044303473 0.039404634 -0.13298257 -0.07981344 -0.066268526 0.042505145 -0.047691673 -0.05068341 -0.058977477 -0.026668234 0.0074824463 -0.19837195 0.048997518 -0.021490755 0.04077895 0.04267182 0.05217178 -0.011130143 0.056008134 0.04178684 -0.0081557 0.09594937 -0.0059410254 -0.022691581 0.19824661 -0.07490429 0.030799102 -0.0048347972 -0.023884028 0.08899618 0.0045995023 -0.058106598 -0.10185468 0.078300424 -0.064978994 0.083689235 -0.055567104 0.11939664 -0.0023492535 0.0809213 -0.0852915 0.05650405 0.10577709 0.0060098316 0.13529755 0.049556963 0.06709625 -0.062482048 -0.0013407237 0.008984922 -0.17053318 0.06664901 -0.056350224 0.022456769 0.13686705 0.017348774 0.035381444 0.083526604 -0.019608561 -0.060326748 -0.09762132 -0.06915026 0.03960013 0.06850536 0.113272525 0.024348348 0.026899401 -0.013376132 -0.11106003 0.13968432 -0.023263378 -0.05845183 -0.027414588 -0.05335065 0.048089396 -0.11932486 0.079157956 0.008467279 0.012877724 0.001977409 -0.028410409 -0.07110944 -0.10259377 -0.14222638 0.09600595 -0.053753976 0.016009532 0.07904568 0.11484892 -0.060678996 -0.018353555 -0.028839655 0.06536547 -0.045863528 -0.024328241 0.014220134 -0.1584073 0.10991103 0.12001675 -0.022096774 0.030247275 -0.035938326 -0.013366548 0.12056349 -0.09006916 0.022588883 -0.008767936 -0.17425744 0.107175164 -0.06850453 0.07811527 0.08208893 0.052121453 -0.005724608 -0.019840075 0.06392402 -0.096151665 0.06554465 0.024020327 -0.17336515 0.15361495 -0.10691619 0.11423847 -0.048005722 -0.051125888 0.019609954 0.13198549 0.08808962 0.15426032 -0.023466555 0.06493765 -0.08830343 -0.11938799 -0.03164256 -0.096150786 -0.08355544 0.09804653 0.057582043 0.0040083635 0.03569771 0.05872701 0.027554717 -0.024652774 -0.061920926 -0.041293774 -0.051290523 0.08043006 0.21227303 0.012466556 -0.07612436 -0.08306748 -0.057018373 -0.067975566 0.004654134 0.120215 -0.061538283 0.17276415 0.10023329 -0.06525146 -0.04434066 0.13043663 0.0017249096 0.013343792 0.14010039 -0.036573526 0.016027065 -0.10454999 -0.03251075 0.106233194 -0.030928776 0.100378774 0.02466325 -0.025653692 0.15263112 0.059416912 -0.06315753 0.104803704 0.03833317 -0.2334204 -0.04329739 -0.06113829 -0.0960726 -0.00791308 -0.0037816113 0.094028085 -0.087519005 0.17839298 -0.02456979 -0.05049189 0.005726561 -0.071891025 0.009620836 0.044037946 -0.12692405 0.041131888 0.004757383 0.027109567 -0.011145003 -0.042777635 0.039356988 0.048571687 0.009582342 -0.078620076 0.03231332 0.038011786 -0.032568794 -0.019262778 0.0835085 -0.08765088 0.09232674 -0.08325423 0.10573872 0.009026459 -0.0039035673 -0.07015083 -0.1596049 -0.15302722 -0.04642778 -0.03414322 -0.06739083 -0.029349055 0.10133497 -0.014778971 -0.037156593 0.054527894 -0.13299297 -0.06282459 -0.0033681323 0.014818157 -0.14508887 -0.04600792 0.036639087 0.043302685 0.050240472 -0.011606984 -0.0868221 0.02829537 0.0338907 0.103257 0.040270112 -0.016323132 -0.055937864 0.11338695
羡慕 -0.01313695 -0.016242027 0.09328776 -0.17239451 -0.05809059 -0.041582726 0.049992613 0.0819037 0.07381663 0.03292384 0.040227644 -0.025727084 0.009561608 0.06051859 -0.04315739 -0.043001376 0.2577669 0.15253806 0.0031073294 0.0129834125 0.03986784 -0.012840011 -0.027694512 -0.14162618 -0.08279532 -0.06375557 -0.10914435 0.051564492 -0.009377022 -0.04531463 -0.062796645 -0.1362767 0.058928616 -0.21166882 0.05764147 -0.11145884 0.05305025 -0.1666994 -0.005614458 0.112671405 0.006072813 -0.1003071 -0.020339241 -0.08113018 -0.060759205 0.08663807 -0.12984471 -0.09747727 -0.003968535 -0.14444643 0.007457084 0.026437528 0.039523207 -0.015138872 -0.09150794 0.043090783 0.093656994 -0.08255136 0.059387207 -0.16859582 -0.12048738 -0.06563016 0.053534977 -0.0840177 -0.061297376 -0.10169019 -0.013603365 -0.0048835743 -0.2704655 0.031241193 -0.055095274 0.0401825 0.028395027 0.05597796 -0.03583623 0.05185561 0.04797846 0.00151958 0.12901719 0.020419152 -0.03093145 0.25005627 -0.076368645 0.029197972 0.0017946175 -0.01900718 0.13325717 -0.015779534 -0.09218864 -0.1465245 0.07562252 -0.08217065 0.14260244 -0.07400639 0.1473793 0.004362739 0.09055537 -0.14030771 0.09244761 0.11647312 0.026922539 0.15446892 0.046546992 0.113228 -0.094286375 0.009442608 -0.0074027735 -0.19259554 0.06883311 -0.09810439 0.005409684 0.14916861 0.050856214 0.04205515 0.102566905 0.0004580762 -0.05977521 -0.14508437 -0.092469916 0.064515345 0.08189068 0.1404672 0.0022524504 0.010517812 -0.033981286 -0.13394739 0.16451254 -0.053924147 -0.06078912 -0.021560594 -0.064950764 0.07657961 -0.14808 0.11937173 0.00070996996 -0.0012979326 0.027975297 -0.036125105 -0.08780809 -0.14027402 -0.18662573 0.11061596 -0.07285 0.04163 0.11209863 0.13001838 -0.063963756 -0.020711461 -0.0063472926 0.095610335 -0.094252564 -0.017843641 -0.0077527855 -0.1938041 0.12333156 0.15122527 -0.02817029 0.061224606 -0.03840223 0.001343747 0.13490425 -0.13470417 0.04240194 -0.017594803 -0.20420559 0.14925376 -0.07573981 0.10380589 0.08948883 0.041787684 0.00088902493 -0.021901855 0.058304198 -0.0933638 0.079775125 0.01378863 -0.21769229 0.19621353 -0.14250803 0.16595234 -0.080276586 -0.08571708 0.022701455 0.17171142 0.07953399 0.19874364 -0.027887583 0.0958099 -0.08222303 -0.12714648 -0.05807306 -0.11809018 -0.095897175 0.15166323 0.06396815 -0.019628277 0.031240202 0.07783996 0.030162066 -0.043908577 -0.08026777 -0.04847605 -0.06888298 0.098797925 0.26426142 0.039644014 -0.09157722 -0.087510444 -0.07473884 -0.08199739 0.019554202 0.14381023 -0.11141133 0.22451209 0.114675164 -0.05119077 -0.0425865 0.18088835 -0.004375271 0.031148309 0.1804826 -0.032970317 0.0135408435 -0.15182818 -0.015405528 0.15131444 -0.0471222 0.11634048 0.018201958 -0.05052512 0.21622987 0.10263074 -0.05783568 0.13706803 0.0641066 -0.27752492 -0.029783325 -0.093317635 -0.1120411 -0.041080285 0.01663702 0.11847177 -0.09869231 0.2165359 -0.036203787 -0.06280569 0.0011616698 -0.096940555 0.013091601 0.06223308 -0.15130733 0.056870364 -0.011418916 0.013417465 -0.0028738105 -0.06837581 0.06164584 0.06379863 -0.0029302558 -0.068631925 0.04861319 0.049645454 -0.029596837 -0.037684698 0.12016602 -0.08890878 0.11601629 -0.09573636 0.1537847 0.004975257 0.007208145 -0.10842124 -0.2224665 -0.18568015 -0.051774226 -0.04691655 -0.08309063 -0.059443142 0.11645139 -0.024518767 -0.06298717 0.052381925 -0.18061286 -0.09755256 0.018497666 0.0100119375 -0.1732339 -0.060490206 0.053491898 0.05070692 0.062132496 0.0022262835 -0.10313627 0.013111838 0.023467831 0.15087953 0.04289301 -0.03230913 -0.055059392 0.122492544
遛狗 -0.015450857 -0.018895937 0.12083721 -0.22057979 -0.07731911 -0.05430641 0.06291857 0.10521464 0.097240984 0.03926744 0.056413535 -0.03645066 0.017059922 0.08451595 -0.057941273 -0.05808597 0.34131598 0.19864695 0.0034574324 0.02288975 0.053821497 -0.011943099 -0.035067983 -0.1851088 -0.10790082 -0.08565092 -0.14462425 0.06875726 -0.0074924487 -0.06095384 -0.0807204 -0.18213332 0.07399381 -0.27891538 0.07657988 -0.1420363 0.06704356 -0.22335844 -0.005659474 0.1482159 0.012819318 -0.13093926 -0.028301088 -0.10750013 -0.08083788 0.11402694 -0.1634723 -0.13105772 -0.004696413 -0.18927434 0.0047590863 0.035017595 0.054112785 -0.02386511 -0.1243367 0.053394243 0.122522235 -0.110643335 0.07746969 -0.22449106 -0.16024525 -0.08747368 0.07350332 -0.10911877 -0.08036962 -0.13247381 -0.021993589 -0.00822017 -0.35629773 0.04257604 -0.07082744 0.052643325 0.044120852 0.07614893 -0.036774393 0.06408036 0.06626906 0.0048411 0.1743082 0.025299475 -0.03852331 0.32670882 -0.10375119 0.036614344 6.460471e-06 -0.024042226 0.17347914 -0.015217822 -0.11971781 -0.19166762 0.102275476 -0.11186594 0.18207818 -0.09915548 0.20030707 0.007808024 0.117357 -0.18203612 0.11796109 0.15617895 0.041020084 0.20839296 0.067984566 0.14575613 -0.12273286 0.014035517 -0.0107585965 -0.25438043 0.09324331 -0.1277811 0.0048097176 0.20317282 0.07062184 0.052011583 0.13066873 -0.0009914231 -0.08596895 -0.19057217 -0.118257806 0.088330574 0.107531205 0.18267097 0.007389554 0.020135323 -0.03782756 -0.17816089 0.21205886 -0.068027034 -0.08508551 -0.028091466 -0.08860431 0.0998657 -0.19373111 0.15630679 0.00058167864 -0.00075693376 0.037681233 -0.047061875 -0.120219864 -0.18601085 -0.24637666 0.14343 -0.09669331 0.05610494 0.14788212 0.16894689 -0.08480107 -0.03048993 -0.012022828 0.1287031 -0.12462986 -0.026751308 -0.010262902 -0.26184162 0.16329996 0.20223147 -0.03654224 0.08291212 -0.04869166 0.0031485644 0.17591627 -0.17272554 0.057119202 -0.01758808 -0.2628141 0.19231911 -0.09602762 0.13790323 0.11735225 0.060702268 0.005247446 -0.030958034 0.07728246 -0.122806996 0.10481534 0.0146809295 -0.28570077 0.26056552 -0.19001499 0.21552958 -0.10444361 -0.11585213 0.032160267 0.22440505 0.10734574 0.26778883 -0.03904104 0.12886131 -0.10888341 -0.16613536 -0.073578075 -0.15652671 -0.12602006 0.1996857 0.084512256 -0.020815084 0.038825076 0.108613074 0.043921337 -0.056579545 -0.10632394 -0.06077388 -0.092838466 0.13412413 0.34540203 0.048814934 -0.1254039 -0.117153555 -0.096610196 -0.110202 0.026722707 0.1883379 -0.14563216 0.30119354 0.15417576 -0.0717397 -0.05454796 0.23692065 -0.006803336 0.03991828 0.24040812 -0.04496971 0.014719876 -0.20233741 -0.018837584 0.2004867 -0.059578754 0.15916264 0.0218087 -0.06539092 0.28507635 0.13531351 -0.082903005 0.1826609 0.08680068 -0.36926338 -0.040220134 -0.11890655 -0.14962459 -0.051129714 0.022335874 0.15791926 -0.12662062 0.28312573 -0.048551623 -0.08630577 0.0028648772 -0.12418843 0.02074148 0.08601323 -0.20227559 0.07147625 -0.013791011 0.01507733 -0.0063522193 -0.08858332 0.08599949 0.08818033 -0.0034781608 -0.09712243 0.06396419 0.06425653 -0.044012796 -0.052607194 0.1619982 -0.120839216 0.15623714 -0.12652645 0.20186654 0.007461759 0.008331549 -0.14414465 -0.290871 -0.24786714 -0.065313 -0.060507912 -0.10849652 -0.07761665 0.15362954 -0.034598526 -0.08368228 0.06636265 -0.23390532 -0.12999435 0.027012076 0.016643103 -0.22468887 -0.08038966 0.073717386 0.0703499 0.08728322 0.005392725 -0.13103366 0.013852668 0.032061193 0.19951826 0.05730736 -0.04472704 -0.079166405 0.1637432
呲牙 -0.0137697095 -0.013456493 0.08435732 -0.15454854 -0.052540448 -0.037780933 0.042796846 0.073834956 0.06885212 0.028010631 0.040810425 -0.027874418 0.010373958 0.056787543 -0.04360969 -0.043406446 0.24455345 0.14178365 0.0040941704 0.017775903 0.042575803 -0.0069194785 -0.026251797 -0.13303582 -0.076175995 -0.06120154 -0.10489934 0.04826739 -0.0019433427 -0.04094906 -0.056667004 -0.13192798 0.054666232 -0.1948978 0.052434582 -0.10441495 0.04563025 -0.15870537 -0.0059241327 0.10693772 0.0076093795 -0.091849886 -0.020499976 -0.07888571 -0.055507466 0.080392405 -0.119205266 -0.09117359 -0.0034396756 -0.13503641 0.0014180635 0.02374827 0.037039287 -0.019193836 -0.08755667 0.035639286 0.08756964 -0.079941854 0.054723408 -0.15625536 -0.115483396 -0.062045045 0.051291704 -0.08008835 -0.05552417 -0.09402439 -0.0135930525 -0.0053832037 -0.25036517 0.029484812 -0.049088217 0.041006725 0.03419115 0.05216914 -0.024327656 0.045967583 0.046334404 0.0038900534 0.12691472 0.018959826 -0.026856314 0.2304865 -0.07513588 0.027391039 0.0036774673 -0.01805655 0.12738864 -0.013097061 -0.087276034 -0.13140629 0.071550086 -0.0826837 0.12841938 -0.07345206 0.14202009 0.0039536343 0.078682855 -0.13233426 0.08406739 0.112875976 0.025696332 0.1519747 0.0487684 0.103536405 -0.08871976 0.008512383 -0.0054982146 -0.17949547 0.06683055 -0.08979764 0.006520687 0.14375812 0.046639875 0.03632446 0.09147822 0.0013907178 -0.058618996 -0.14048365 -0.079994485 0.064989455 0.077481605 0.1306924 0.009161088 0.012500238 -0.03030195 -0.12322913 0.15256047 -0.047002893 -0.05532906 -0.022597466 -0.066757314 0.07058737 -0.13790804 0.11076578 0.0029677716 -0.00366191 0.029116908 -0.033703167 -0.08577844 -0.13073002 -0.17540467 0.09934911 -0.06567271 0.041630514 0.106940195 0.12393713 -0.06136254 -0.02445637 -0.008505751 0.09311138 -0.086477 -0.017285556 -0.0033620691 -0.18727975 0.11806323 0.14282288 -0.02889317 0.060894877 -0.03181629 0.0036764913 0.12493187 -0.12116759 0.04218852 -0.016330622 -0.1890484 0.13737935 -0.070787035 0.09654435 0.08631793 0.042940076 9.858401e-05 -0.022202244 0.050612155 -0.08663239 0.074879706 0.011410628 -0.20825224 0.18413205 -0.13618565 0.15467584 -0.07547887 -0.08132881 0.022686567 0.16337037 0.07743185 0.19288893 -0.02675557 0.09528698 -0.07564479 -0.1170352 -0.04911655 -0.10917786 -0.08960409 0.13674048 0.063900165 -0.014389832 0.028741518 0.07674765 0.027642366 -0.04275431 -0.07715186 -0.04018931 -0.06505479 0.09635694 0.24515864 0.03166185 -0.088251755 -0.08573247 -0.06735103 -0.07787407 0.018422421 0.13591157 -0.103003465 0.21277694 0.108839214 -0.0474665 -0.04111501 0.16912974 -0.003101734 0.025695361 0.16913441 -0.03218953 0.015003948 -0.14612997 -0.017407378 0.14208266 -0.038663976 0.11194859 0.015578579 -0.05069859 0.20397592 0.09498115 -0.06025562 0.12878105 0.063257866 -0.26009777 -0.032661952 -0.08450476 -0.1087366 -0.036164496 0.012863697 0.112587474 -0.08699226 0.20214841 -0.035470042 -0.063740216 0.0027346858 -0.085670024 0.016101347 0.06277607 -0.14190774 0.049159728 -0.012522365 0.01101749 -0.0071589868 -0.06339063 0.061796382 0.059113666 -0.0007141889 -0.067077845 0.044849887 0.049655728 -0.03450082 -0.037355896 0.11801393 -0.08588725 0.11316985 -0.08819923 0.14723691 0.0041432725 0.008864379 -0.106081225 -0.21078843 -0.17675889 -0.0469796 -0.04138496 -0.07430232 -0.058077276 0.10888813 -0.024668142 -0.057007443 0.050827414 -0.16899034 -0.09230986 0.017579688 0.008130039 -0.16387112 -0.056996003 0.04811234 0.051728297 0.060557283 0.0042625386 -0.09489334 0.012128793 0.021915846 0.1416539 0.041342564 -0.03133914 -0.05271335 0.11508207
老公 -0.013570578 -0.017102517 0.096767694 -0.17500177 -0.06313353 -0.043581508 0.050679334 0.08166771 0.07745761 0.032085862 0.04501443 -0.02710679 0.01102521 0.063785486 -0.04793928 -0.045358054 0.26823786 0.15829562 0.00563729 0.018183662 0.044605277 -0.009947528 -0.02665804 -0.14962403 -0.08869628 -0.068399005 -0.117626525 0.05465321 -0.009046667 -0.048022706 -0.064532764 -0.1446117 0.057758674 -0.22393319 0.05885174 -0.11477047 0.05225164 -0.17824028 -0.0056476165 0.1192572 0.011251853 -0.10193065 -0.022176506 -0.08427837 -0.06546589 0.09042132 -0.12979521 -0.103984274 -0.004539223 -0.14927472 0.0041102795 0.027120482 0.04227289 -0.022072632 -0.097861305 0.043167546 0.09859165 -0.088003784 0.061930627 -0.17601295 -0.12657979 -0.071624294 0.057464276 -0.085566334 -0.06228714 -0.106522106 -0.015408071 -0.0055084606 -0.28332698 0.035639506 -0.057428207 0.040594228 0.03886051 0.060887907 -0.030282134 0.052300945 0.052948795 0.0024572413 0.14085442 0.0200228 -0.034150884 0.26037484 -0.08355121 0.029056646 -0.0004213446 -0.019050157 0.13866831 -0.015310117 -0.09761095 -0.15048534 0.07945121 -0.08783601 0.14713013 -0.080427215 0.156683 0.004907424 0.09270098 -0.14649585 0.09680117 0.12478913 0.03384446 0.16705573 0.05446508 0.11559492 -0.10178508 0.009778404 -0.009564901 -0.2037713 0.07522864 -0.101660855 0.006713801 0.16055164 0.0547768 0.04181517 0.105399035 8.201781e-05 -0.06991329 -0.15170024 -0.09135567 0.06859307 0.08633958 0.14605516 0.008837308 0.016801598 -0.029369703 -0.14370282 0.1689388 -0.054157622 -0.06599772 -0.020688325 -0.07074799 0.08056003 -0.15454109 0.12612282 0.0032102622 -0.0027170058 0.030750373 -0.037352286 -0.09691131 -0.14873037 -0.19655916 0.11413076 -0.077643424 0.046651848 0.116460264 0.1382994 -0.06496194 -0.02126508 -0.007667594 0.10258404 -0.10042992 -0.02364723 -0.008209305 -0.2083962 0.13157955 0.1645925 -0.028844584 0.06574009 -0.038795803 0.0049923784 0.14054872 -0.13553467 0.04563988 -0.0150488075 -0.20976536 0.15608709 -0.07841881 0.113727435 0.09336448 0.048278086 0.003349812 -0.025714092 0.06325483 -0.097621255 0.0844017 0.013192697 -0.22676535 0.2038196 -0.15154836 0.16881861 -0.08526223 -0.09047293 0.026965864 0.17938997 0.085811436 0.2128008 -0.030468974 0.10349439 -0.09036408 -0.13264951 -0.057174265 -0.124761954 -0.09733799 0.1601811 0.068054914 -0.016603308 0.032556344 0.0870886 0.03740465 -0.048265856 -0.08776826 -0.045567982 -0.07372323 0.103962466 0.2755669 0.040273815 -0.098963514 -0.09142649 -0.075518034 -0.090131864 0.021115607 0.14907406 -0.11548174 0.24116665 0.12132058 -0.056223344 -0.041056 0.18877776 -0.007758136 0.031742357 0.19346404 -0.035379056 0.013508751 -0.16184577 -0.015752656 0.1574335 -0.047597557 0.12772046 0.018526921 -0.05309041 0.23014128 0.10668973 -0.0671431 0.14537495 0.07064987 -0.29605848 -0.0290054 -0.09578741 -0.120357595 -0.04187151 0.014595241 0.129137 -0.101905435 0.22593032 -0.040555302 -0.0709082 0.00057257846 -0.1005776 0.017276907 0.06598888 -0.16173781 0.059447397 -0.011168733 0.012300422 -0.0068236035 -0.06897667 0.0675415 0.067455776 -0.0033400822 -0.07815094 0.051262908 0.049182203 -0.03380621 -0.03837834 0.12824127 -0.09642676 0.12514997 -0.09915007 0.16151467 0.0065052076 0.009100634 -0.11280437 -0.23062122 -0.19573604 -0.055606112 -0.047450397 -0.086600155 -0.059446055 0.1218656 -0.025033716 -0.067504704 0.056741007 -0.18919954 -0.10558713 0.021649243 0.015732897 -0.1796596 -0.06496581 0.05678483 0.05543216 0.070141435 0.005092842 -0.10722425 0.012636882 0.026752897 0.1613799 0.044520047 -0.037562706 -0.06148735 0.12966205
男人 -0.01472369 -0.019049924 0.111772634 -0.20735732 -0.07421491 -0.05284344 0.058635004 0.0981211 0.09141236 0.037565026 0.050214276 -0.0360543 0.014767936 0.078001946 -0.05383288 -0.05272348 0.31664628 0.18591829 0.0027841202 0.02109908 0.05195852 -0.013721444 -0.031615417 -0.17294404 -0.10077302 -0.08155257 -0.13504003 0.06277116 -0.00855154 -0.058381174 -0.07524899 -0.16980079 0.07034955 -0.25986427 0.071115054 -0.1323426 0.062181596 -0.20931752 -0.004440159 0.13973168 0.009941483 -0.11948387 -0.029033417 -0.09813309 -0.07718869 0.10674112 -0.1547579 -0.11999479 -0.0019440159 -0.17758125 0.0025742035 0.02994043 0.050520163 -0.024292866 -0.116613396 0.048181932 0.11054411 -0.10041413 0.06880494 -0.20797795 -0.1466115 -0.081773445 0.066497944 -0.10217173 -0.072066106 -0.1239865 -0.021147769 -0.005744466 -0.3312029 0.043216355 -0.06370165 0.046241146 0.043368954 0.069035426 -0.034423478 0.062047634 0.06130221 0.0032025792 0.16269523 0.022841157 -0.037159532 0.30427116 -0.09788877 0.033422202 0.0029801035 -0.023393475 0.16134937 -0.015896175 -0.10912839 -0.17832816 0.098035134 -0.10229789 0.16907084 -0.09602543 0.18604396 0.0046545374 0.10752102 -0.1713732 0.113297395 0.14546947 0.038454764 0.19623558 0.06129708 0.1358922 -0.113871455 0.012997497 -0.011323552 -0.23710394 0.088021815 -0.115803026 0.009237815 0.18788125 0.059871774 0.050476536 0.12416307 -0.0020252885 -0.08090296 -0.18065904 -0.10902979 0.08280091 0.09743269 0.17307088 0.008117717 0.019097503 -0.038769122 -0.16372705 0.19891898 -0.06484382 -0.076954454 -0.023791986 -0.084617436 0.09434059 -0.1784368 0.14709024 0.00080339354 -0.00013713297 0.032937333 -0.04523025 -0.113674305 -0.17057456 -0.22587965 0.13201341 -0.0917138 0.05244422 0.13794453 0.15910177 -0.0805494 -0.026667483 -0.01146877 0.119898096 -0.11477873 -0.028293883 -0.008464438 -0.24068457 0.15283404 0.18931678 -0.030663751 0.074792296 -0.044869114 0.0041602515 0.16335528 -0.1622942 0.052574024 -0.017031476 -0.25004104 0.18037029 -0.09368195 0.127779 0.10991715 0.054296814 0.0007243761 -0.03010788 0.07041235 -0.11633576 0.09989427 0.016182123 -0.26831248 0.23998323 -0.17565767 0.19895105 -0.09763947 -0.10643537 0.029240271 0.21105932 0.103194 0.24983856 -0.035929717 0.11912704 -0.10473174 -0.15478635 -0.06768433 -0.143253 -0.11575862 0.18533601 0.081220664 -0.0180428 0.03512497 0.09986322 0.03839725 -0.056306385 -0.101291545 -0.056876205 -0.086640656 0.124560416 0.32125822 0.045890786 -0.12008117 -0.11156407 -0.09022243 -0.10156195 0.023114517 0.17806803 -0.13307922 0.27872604 0.14227875 -0.067713276 -0.048070572 0.22111303 -0.007968969 0.03694898 0.22375318 -0.044413473 0.017494308 -0.19026993 -0.02002581 0.18500489 -0.053210974 0.14286816 0.01919017 -0.061414436 0.26624528 0.1243037 -0.07503627 0.1703992 0.07959288 -0.3444005 -0.04082587 -0.114319175 -0.14046453 -0.0499767 0.018163994 0.14837338 -0.11673311 0.26425022 -0.045348726 -0.08193042 0.0025557901 -0.11873204 0.01862257 0.07894884 -0.18584962 0.07204775 -0.016016407 0.014393235 -0.008975461 -0.08198454 0.08111919 0.08224503 -0.0021190355 -0.091217116 0.06264073 0.060206924 -0.043372948 -0.050101936 0.14813893 -0.11724754 0.14659092 -0.11572092 0.19007814 0.0086024 0.00831702 -0.13347875 -0.27325144 -0.23067363 -0.06224384 -0.052775342 -0.09877875 -0.07044781 0.14301191 -0.028890401 -0.077313855 0.06384049 -0.21824218 -0.12195984 0.019118626 0.014458686 -0.20941667 -0.07578031 0.066562764 0.06460295 0.081138946 0.0035767904 -0.124727845 0.015601684 0.030338785 0.18381251 0.05289627 -0.039612435 -0.0728385 0.15232852
峰哥 -0.016813446 -0.01965427 0.1022858 -0.18907867 -0.06592293 -0.045544717 0.053059537 0.087835476 0.08462035 0.03456025 0.047134455 -0.029165938 0.013702596 0.07060517 -0.04874425 -0.049451463 0.2892816 0.17005302 0.005417888 0.018905643 0.046601184 -0.011184687 -0.031154374 -0.16022578 -0.094894566 -0.07143477 -0.12615463 0.06069584 -0.008134975 -0.049581435 -0.071741164 -0.15597826 0.06381145 -0.24129361 0.06572325 -0.12171706 0.05657632 -0.19212225 -0.0052479208 0.12923993 0.011303523 -0.111555554 -0.025634145 -0.09093543 -0.06951204 0.09746002 -0.14061329 -0.11325791 -0.004022955 -0.16295357 0.0024503027 0.028140431 0.04692827 -0.022412218 -0.10590813 0.04497741 0.106365785 -0.09151502 0.068461485 -0.1918822 -0.13783401 -0.07774463 0.06115115 -0.09168076 -0.06752643 -0.11402019 -0.017957509 -0.0085399635 -0.30782568 0.04050935 -0.06235553 0.044865716 0.039132476 0.06734086 -0.030416753 0.056452107 0.057383887 0.0032473097 0.14986101 0.02281138 -0.037559565 0.28024542 -0.08707274 0.030639594 0.001731941 -0.02005201 0.1496525 -0.014129877 -0.10289936 -0.16352502 0.088611536 -0.094355255 0.1571314 -0.08690667 0.17204572 0.007992439 0.09854699 -0.15631114 0.10445951 0.1356911 0.03398992 0.1786163 0.05936938 0.124860354 -0.10873166 0.011222154 -0.01059535 -0.21884204 0.08124867 -0.107926615 0.0068280045 0.17628555 0.05790587 0.04592806 0.11356277 -0.0030764563 -0.07340144 -0.16701928 -0.09916637 0.076984115 0.09219224 0.1572006 0.008972769 0.018534008 -0.03201197 -0.15462995 0.17996587 -0.05928957 -0.074072234 -0.02071653 -0.07647698 0.08739825 -0.16595931 0.13685493 0.0012978193 -0.0015607113 0.031948525 -0.042965192 -0.10376103 -0.15856661 -0.2095993 0.12128498 -0.084523275 0.05084418 0.1243529 0.14751554 -0.07270117 -0.023941355 -0.008915738 0.11034201 -0.10801229 -0.023049368 -0.0109635815 -0.22408628 0.14221016 0.17726429 -0.028865255 0.07001991 -0.041567083 0.005233056 0.14916512 -0.14604616 0.04783468 -0.014710273 -0.22886379 0.16877998 -0.08546629 0.12317581 0.104378276 0.05262445 0.0026662382 -0.02816409 0.06778715 -0.10739929 0.09232722 0.014674332 -0.24768272 0.22338769 -0.1636769 0.18400918 -0.09063096 -0.09786391 0.02695956 0.19283633 0.09104739 0.22817324 -0.035090756 0.11210021 -0.09755672 -0.1404833 -0.05953374 -0.13247928 -0.10720441 0.17260401 0.074897036 -0.01819948 0.035855144 0.0926117 0.038879916 -0.05231922 -0.09406579 -0.04980277 -0.08267443 0.11150532 0.2985493 0.04053972 -0.10824547 -0.10167275 -0.08257049 -0.09699825 0.023265226 0.15905568 -0.120731406 0.25837654 0.13293245 -0.05915371 -0.04360312 0.2046495 -0.007106548 0.036526434 0.20872691 -0.037860937 0.0143013 -0.17284219 -0.016147442 0.17189032 -0.050140962 0.13736565 0.018351117 -0.058396496 0.24945648 0.11614536 -0.07009451 0.15721333 0.07622562 -0.31949505 -0.034088746 -0.102567576 -0.12741463 -0.044431362 0.016064974 0.13904081 -0.11254662 0.24486901 -0.04045234 -0.0731953 0.0033527417 -0.110733055 0.018944837 0.07177785 -0.17420076 0.062642045 -0.014766814 0.011318308 -0.007799472 -0.07589301 0.07226606 0.07573552 -0.0022966058 -0.08531942 0.05401317 0.054900426 -0.037635647 -0.0433379 0.13772197 -0.10467765 0.1345301 -0.10973802 0.17354462 0.0065299515 0.007574786 -0.12071515 -0.24904987 -0.21148355 -0.05677615 -0.05326299 -0.090697326 -0.0665123 0.13081612 -0.027844245 -0.07040595 0.060240984 -0.20366581 -0.11442243 0.022416107 0.016114825 -0.19376858 -0.07159889 0.062872596 0.0606427 0.07288858 0.002819523 -0.116141684 0.0107660545 0.030441938 0.17217794 0.05024578 -0.037765 -0.068581365 0.1381875
爱心 -0.010489668 -0.018673843 0.054744385 -0.11805161 -0.04058686 -0.030965228 0.026553726 0.057211578 0.060593434 0.018684546 0.035604995 -0.021867188 0.01025653 0.03351594 -0.024777133 -0.024160488 0.1782619 0.10698063 0.011026116 0.018458838 0.036179516 0.0025719306 -0.022952614 -0.098837875 -0.055321056 -0.053118765 -0.076848984 0.03680399 0.0011287171 -0.030456606 -0.051715 -0.09475112 0.031553358 -0.15107115 0.04526871 -0.07743961 0.04118081 -0.12084946 0.004023978 0.08491902 0.007562247 -0.06434604 -0.010266688 -0.058169466 -0.04942442 0.06422517 -0.08658811 -0.067910016 0.008166316 -0.10231075 0.0046602194 0.018959325 0.024616385 -0.0072199786 -0.07002995 0.02220446 0.05808345 -0.04665492 0.036518976 -0.11159242 -0.08910421 -0.053082094 0.03097461 -0.0503107 -0.03753382 -0.076201245 -0.007920026 -0.006392552 -0.19115932 0.032543585 -0.027599407 0.015878873 0.026020227 0.04193866 -0.015137562 0.040804867 0.026446095 0.01052114 0.088170655 0.014746963 -0.021124344 0.16743992 -0.059210382 0.01964675 0.0015935559 -0.0191765 0.09917476 -0.0022476497 -0.06596106 -0.09562762 0.062271167 -0.04927373 0.09596507 -0.06478074 0.0946153 -0.0067816605 0.05650559 -0.10192661 0.056080505 0.0783436 0.014333359 0.11983634 0.0444884 0.065769106 -0.064500466 0.015419442 -0.0039751767 -0.14193016 0.056136955 -0.06557474 -0.003454697 0.111941434 0.02858046 0.018393306 0.07148374 -0.011046557 -0.050717976 -0.100687966 -0.05384626 0.039378498 0.06144679 0.10214546 0.014044285 0.0033391197 -0.012372128 -0.084493406 0.10462424 -0.03994623 -0.03851319 -0.021402925 -0.054064143 0.05471069 -0.10271398 0.08759323 -0.0017100426 0.004356817 0.012921394 -0.03516614 -0.054937676 -0.10185625 -0.136327 0.07350612 -0.061090898 0.0322396 0.08079957 0.0896832 -0.04375649 -0.013682463 -0.016110992 0.06384672 -0.053448208 -0.012280654 0.00038783505 -0.14574553 0.08033831 0.11310856 -0.013769567 0.050077837 -0.03243086 0.0107195135 0.08201888 -0.08448634 0.032713626 -0.012875948 -0.14652474 0.09555929 -0.06410637 0.080553316 0.06829493 0.026860539 -0.0036691825 -0.007788113 0.03229027 -0.073571384 0.053813275 0.008388043 -0.14866509 0.1348801 -0.103969604 0.11807559 -0.05155217 -0.06550547 0.022828812 0.11408864 0.06917909 0.14662626 -0.02393624 0.0663396 -0.06900851 -0.081316315 -0.03679761 -0.07420852 -0.069779955 0.109833315 0.04217248 -0.018223582 0.012485588 0.056558616 0.02438686 -0.023093255 -0.0658193 -0.035047792 -0.04054844 0.06261399 0.17450184 0.02580582 -0.07067127 -0.06940123 -0.045344826 -0.06409417 0.019316819 0.10864942 -0.073653944 0.16318013 0.079463504 -0.04500243 -0.036487766 0.13040516 -0.004516978 0.015007308 0.124221325 -0.032198127 0.002286969 -0.10294681 -0.013140424 0.093559444 -0.032350924 0.080773324 0.005265292 -0.02950897 0.14540544 0.06838303 -0.03920275 0.10202371 0.044164557 -0.18777077 -0.033624213 -0.06873948 -0.07396677 -0.030978518 0.009620728 0.07664419 -0.05764612 0.15085371 -0.028754119 -0.051345114 0.008523995 -0.070768304 0.0035155439 0.04055827 -0.10938367 0.04745763 -0.013611976 0.0015104769 0.0031653836 -0.04728032 0.037692856 0.03845346 -0.008979879 -0.057886947 0.039253697 0.035988048 -0.031758763 -0.026065504 0.090626925 -0.06983751 0.07549664 -0.06730738 0.10298157 0.010906374 0.0074572153 -0.07961221 -0.1590517 -0.11905367 -0.034455035 -0.03827886 -0.063100606 -0.0455397 0.08534943 -0.010336679 -0.03293407 0.03743151 -0.11558328 -0.064339496 0.015673876 0.00015521924 -0.11362722 -0.052070923 0.038819574 0.044630963 0.049838085 0.007754312 -0.06075931 0.012759126 0.02475158 0.107103854 0.03295466 -0.016816022 -0.036940135 0.08613803
太帅 -0.01245252 -0.014537606 0.07950775 -0.15256193 -0.053674545 -0.038727175 0.04404519 0.068813846 0.06782356 0.02619423 0.039752543 -0.023782268 0.011246692 0.05526526 -0.03832039 -0.040802088 0.2296676 0.13324715 0.0019752667 0.016047142 0.03862149 -0.0100149745 -0.024957592 -0.12923464 -0.07364831 -0.058566216 -0.10094239 0.04695055 -0.0054877657 -0.038015686 -0.05326655 -0.12371603 0.05053319 -0.19005401 0.052821245 -0.09593737 0.046339713 -0.15408161 -0.0036691537 0.10363428 0.005775654 -0.08723071 -0.020468997 -0.07022253 -0.05563214 0.078559116 -0.111418895 -0.08950327 -0.0017843875 -0.12616916 0.0012969442 0.022919336 0.0378428 -0.017762788 -0.08292444 0.038177248 0.0797308 -0.07482305 0.053192392 -0.14993617 -0.1063422 -0.05887586 0.05023052 -0.07561648 -0.05111819 -0.090511665 -0.014800376 -0.006846658 -0.24165818 0.0307731 -0.045907605 0.034782067 0.03288361 0.05195465 -0.026125347 0.047604054 0.044482667 0.0050342074 0.11997338 0.01883799 -0.029782519 0.22229178 -0.06935744 0.024862912 0.0012479743 -0.014937207 0.11764554 -0.010397079 -0.08303803 -0.12822552 0.07142716 -0.07823353 0.12225899 -0.06936812 0.1349927 0.0070061595 0.07969685 -0.12174653 0.08513891 0.104766466 0.02889946 0.14234555 0.0471317 0.09814409 -0.08281193 0.007959474 -0.008811674 -0.17309664 0.065008126 -0.08517299 0.0057081147 0.13963394 0.043376442 0.03450702 0.08836123 -0.0013825952 -0.05521107 -0.1337273 -0.07821026 0.05765139 0.07146234 0.12397884 0.009036324 0.014583886 -0.02668032 -0.11884003 0.14504397 -0.048527505 -0.05779783 -0.015712569 -0.062144317 0.06876997 -0.13252683 0.10796645 0.0040046717 -0.00022128606 0.022521373 -0.03312301 -0.0804298 -0.1243794 -0.16628984 0.095942475 -0.06713867 0.03885556 0.10049123 0.117672734 -0.057674687 -0.01973448 -0.008568966 0.08614006 -0.08454437 -0.019311922 -0.005098859 -0.17651981 0.11386396 0.13864781 -0.022378754 0.053071078 -0.0314231 0.0035609459 0.11797036 -0.1140379 0.039632693 -0.012232233 -0.17826004 0.12989661 -0.06583876 0.09599236 0.08103978 0.041885972 0.0019581956 -0.020725144 0.053332325 -0.08336547 0.07233237 0.013069844 -0.1933463 0.17342481 -0.12973888 0.1423927 -0.07163449 -0.07546474 0.021003751 0.15119554 0.07488519 0.18312837 -0.026807101 0.084959105 -0.07584452 -0.11194778 -0.04678456 -0.10655514 -0.08144699 0.13480996 0.058950167 -0.0131414505 0.0272855 0.071272604 0.030750295 -0.040591095 -0.07449157 -0.039457522 -0.061712462 0.088633895 0.23277193 0.031623974 -0.08882002 -0.07692161 -0.06516304 -0.077010795 0.018343074 0.1275014 -0.09705951 0.20377058 0.10336849 -0.048831575 -0.034012068 0.16125427 -0.0048021907 0.02648627 0.16192374 -0.033338662 0.0125695765 -0.13858522 -0.013466853 0.1369443 -0.042625118 0.10822893 0.014051124 -0.047677632 0.19626497 0.09006026 -0.05535807 0.124535464 0.059633996 -0.25064394 -0.025880162 -0.08132214 -0.10119062 -0.03503489 0.014326765 0.10932886 -0.085986644 0.19033803 -0.030182416 -0.058687985 0.00071428117 -0.08505749 0.012986216 0.05867365 -0.13595301 0.050643608 -0.010257586 0.008976372 -0.006521052 -0.060397852 0.05887564 0.058666382 -0.00045741987 -0.06725942 0.04497987 0.043610785 -0.031459402 -0.034776483 0.109534524 -0.08333409 0.108399644 -0.08268487 0.13477449 0.0063896105 0.007537277 -0.09690606 -0.19944543 -0.16879606 -0.04534868 -0.040839568 -0.07118322 -0.05378684 0.10379827 -0.021306857 -0.055995226 0.047947478 -0.16111659 -0.08743187 0.012685993 0.010662225 -0.15368892 -0.053905282 0.049790848 0.048343133 0.057528507 0.0027619617 -0.08970611 0.009612459 0.02446123 0.13589537 0.038583715 -0.029150417 -0.05453403 0.11188415
哥哥 -0.01539856 -0.017691163 0.07624286 -0.14045385 -0.048433445 -0.031456664 0.039006654 0.06369244 0.06084845 0.023300575 0.037854776 -0.017920958 0.008790007 0.049651116 -0.038075235 -0.035233356 0.21046709 0.11918969 0.0061110263 0.012651375 0.035614777 -0.01006056 -0.021277804 -0.11699079 -0.07081942 -0.04838692 -0.09239898 0.045970757 -0.00632636 -0.03625127 -0.05013937 -0.11418502 0.0429025 -0.17896639 0.04673952 -0.088184305 0.038457245 -0.14352182 -0.0063704336 0.09668247 0.011418698 -0.08444932 -0.016246703 -0.0658883 -0.0530946 0.06878027 -0.09988623 -0.08125511 -0.003577014 -0.11734516 -0.0005707665 0.024627272 0.03247591 -0.019871993 -0.0796245 0.031660844 0.08036466 -0.06899982 0.056345537 -0.13929547 -0.100815065 -0.05797119 0.045597073 -0.068166316 -0.049134005 -0.08189666 -0.010618123 -0.009385959 -0.22514434 0.026883405 -0.05015814 0.033675876 0.03446685 0.053614832 -0.01961687 0.03801291 0.040050745 0.0043787984 0.11160007 0.013669871 -0.031348865 0.20997298 -0.060762033 0.021745956 -0.00027527066 -0.011741055 0.10892694 -0.008417295 -0.07866611 -0.11927104 0.06551975 -0.07083318 0.118655205 -0.06532764 0.12674268 0.008016618 0.0732102 -0.11098692 0.07550309 0.09907297 0.026181266 0.13020124 0.039895907 0.0901528 -0.084294945 0.0049171867 -0.008628308 -0.155996 0.06208541 -0.077503495 0.00623544 0.12621698 0.04441574 0.03389292 0.08135573 -0.0006294347 -0.058317114 -0.119392835 -0.07365132 0.054906506 0.07063371 0.11434617 0.0047205617 0.01827988 -0.016516652 -0.113962434 0.13047215 -0.042300474 -0.057497397 -0.013252422 -0.052804787 0.063771375 -0.12550029 0.10203295 0.0052871336 0.00042695523 0.022470783 -0.029868886 -0.07578582 -0.11521118 -0.15634409 0.08828892 -0.064201 0.042159013 0.09047598 0.10803181 -0.050249156 -0.01648379 -0.004560279 0.07460458 -0.08336225 -0.018804504 -0.011858962 -0.16503029 0.105871834 0.13388722 -0.021846129 0.04827064 -0.02868757 0.005155631 0.11091992 -0.10477334 0.037456073 -0.0077110464 -0.1657558 0.12546706 -0.060186345 0.09576768 0.07596295 0.043919094 0.004454715 -0.020289851 0.050452355 -0.07686006 0.066608764 0.008807338 -0.17639385 0.16129144 -0.12310545 0.12896572 -0.06677836 -0.073996484 0.023264874 0.13732138 0.065702215 0.16549711 -0.026223179 0.080616996 -0.07417594 -0.09957311 -0.04422887 -0.099609435 -0.07773078 0.13065654 0.057842847 -0.014995091 0.025158117 0.07281804 0.03467313 -0.038944017 -0.06915241 -0.031223666 -0.061411705 0.079576485 0.22074571 0.03223557 -0.08064104 -0.069676496 -0.05943687 -0.071574636 0.020040333 0.113522515 -0.090628535 0.19127516 0.09479092 -0.04288728 -0.029365938 0.14929907 -0.0040626237 0.027461885 0.15635334 -0.02732539 0.009030893 -0.124902196 -0.009488108 0.12852073 -0.03981858 0.10434661 0.011027145 -0.040434405 0.18805988 0.08773685 -0.055834796 0.11701706 0.05901336 -0.2330479 -0.019574065 -0.072201826 -0.091206476 -0.03159315 0.009640848 0.10229291 -0.08547818 0.18280149 -0.030153673 -0.05592708 0.0024284816 -0.08231119 0.01609306 0.04977853 -0.13260795 0.04435608 -0.009197256 0.0065485598 -0.009337588 -0.052254353 0.053449698 0.05478413 -0.0061543942 -0.063791566 0.0379968 0.037491385 -0.022307463 -0.029085567 0.09921168 -0.07553274 0.09862353 -0.07562009 0.12671912 0.0045229546 0.009331417 -0.08686722 -0.18164575 -0.15463622 -0.048569474 -0.0377139 -0.07045138 -0.045875467 0.09873869 -0.016741047 -0.052957136 0.04471125 -0.1457521 -0.08492416 0.020318972 0.012383648 -0.14009404 -0.051327087 0.051195513 0.04377686 0.05595877 0.0027906399 -0.087303616 0.0064737047 0.02452284 0.12989804 0.036181178 -0.032899123 -0.051976975 0.10064042
狗狗 -0.014397651 -0.020165317 0.11340268 -0.21078019 -0.07412572 -0.051349718 0.05890909 0.09799358 0.09138391 0.039070718 0.050917972 -0.035174478 0.017330077 0.07877932 -0.05274969 -0.05376082 0.32243302 0.18872803 0.0045700935 0.021203723 0.050297476 -0.014710329 -0.032801047 -0.17789094 -0.10144386 -0.078615725 -0.1366567 0.063871585 -0.00788112 -0.054974373 -0.07712306 -0.17181078 0.070904166 -0.26377353 0.07145426 -0.13536207 0.06455574 -0.20922115 -0.00492447 0.1396113 0.0084619215 -0.12166162 -0.026578639 -0.102489434 -0.07860498 0.11002921 -0.1578399 -0.12382673 -0.0052084345 -0.1790403 0.0059768516 0.031656485 0.050736662 -0.023812016 -0.11707107 0.0494664 0.11287353 -0.10095481 0.070829414 -0.20912431 -0.1517694 -0.08228971 0.06723646 -0.10380603 -0.074395165 -0.1250022 -0.019257685 -0.0077392394 -0.33634818 0.04308164 -0.067194834 0.049177732 0.04044482 0.06876059 -0.037211612 0.06190862 0.06182258 0.003130356 0.16285264 0.02266219 -0.03722564 0.3071802 -0.098594606 0.032302458 -0.0009345114 -0.021958254 0.1648143 -0.017413829 -0.11457231 -0.1811905 0.09655261 -0.10487907 0.17375 -0.09632466 0.18580532 0.0064096823 0.11068729 -0.17058998 0.114583224 0.14642572 0.037524074 0.19825782 0.062180333 0.1357808 -0.11554714 0.0137103405 -0.012226337 -0.24198078 0.087984264 -0.11849037 0.008305279 0.19062503 0.06384024 0.049000412 0.12344983 -0.00326551 -0.077217765 -0.1830694 -0.110885076 0.081592746 0.10202869 0.17540392 0.006769943 0.016706733 -0.03972199 -0.16637398 0.19964947 -0.065498844 -0.07860064 -0.026314436 -0.083833486 0.0958171 -0.1816477 0.15047917 0.0021658852 -0.0021073597 0.036163144 -0.04789287 -0.113860056 -0.1750376 -0.23098856 0.13344069 -0.09202958 0.05344431 0.13868767 0.16060421 -0.07989887 -0.028244544 -0.010860728 0.120078914 -0.11545594 -0.02587822 -0.0068491464 -0.24529296 0.15460251 0.19010343 -0.03374662 0.07685995 -0.046525545 0.0025952319 0.1645596 -0.16096209 0.05495249 -0.02012302 -0.24943674 0.18247062 -0.09129183 0.13126907 0.114678904 0.05652051 0.0006053236 -0.02938631 0.07110756 -0.115556456 0.10270963 0.017661382 -0.27415532 0.24393545 -0.17717327 0.20112155 -0.09977495 -0.10972421 0.02782432 0.21358438 0.101800166 0.2524893 -0.037395842 0.118634485 -0.10593526 -0.1580375 -0.06665653 -0.14504421 -0.11705633 0.1861808 0.08076513 -0.020672303 0.038129576 0.101777256 0.039959546 -0.053248648 -0.10302386 -0.057692505 -0.08892028 0.1255025 0.3260141 0.046987712 -0.11706227 -0.11270615 -0.09023057 -0.10392463 0.022237722 0.17820433 -0.13540044 0.28349966 0.14404759 -0.06722478 -0.052113265 0.22627638 -0.0073589506 0.037093922 0.2241235 -0.04481876 0.016359963 -0.1902266 -0.019771846 0.18637544 -0.05432923 0.14829172 0.022439543 -0.063158765 0.26977724 0.12414631 -0.07776139 0.17302066 0.08185463 -0.34857813 -0.03972368 -0.11366803 -0.14063153 -0.04674326 0.02014359 0.14776032 -0.12129785 0.26682594 -0.044726126 -0.08212604 0.0033165987 -0.11684533 0.018637495 0.08057049 -0.18796128 0.07112663 -0.016404152 0.01648924 -0.00628678 -0.082839265 0.08012028 0.08098623 -0.0028053948 -0.090842225 0.0639685 0.062119495 -0.04203804 -0.047129016 0.1509711 -0.11641688 0.1484071 -0.11993196 0.19071464 0.009780223 0.008019037 -0.13637331 -0.27664176 -0.23328574 -0.061317764 -0.05830669 -0.10252102 -0.074467905 0.14485936 -0.03175981 -0.076363325 0.06404461 -0.22239608 -0.12303486 0.023105182 0.01714003 -0.21256283 -0.07668516 0.06707675 0.0641688 0.08136236 0.0057843956 -0.12638496 0.01569307 0.031160805 0.185233 0.05321345 -0.040781364 -0.07167357 0.15357305
