980 300
我 -0.1089678 0.092945315 -0.15825173 0.24941209 0.06400395 0.024469526 -0.037659906 -0.08956874 -0.14053276 -0.36726275 0.20543215 0.0022154627 -0.07564642 0.07622547 0.013220396 -0.070182286 -0.08040508 -0.08585108 0.07903811 -0.010594297 0.0654125 -0.022932144 0.061838333 -0.0970896 0.092669 0.059365354 -0.04789759 -0.026805166 -0.12978901 0.04566364 -0.24646097 -0.03961693 -0.112867154 -0.06026827 0.06329182 -0.04727616 -0.051292147 -0.122615725 0.093633674 0.025615374 -0.130939 -0.094375506 0.038101174 -0.12578791 0.1441603 0.090784416 -0.074768394 -0.030555898 -0.26532006 -0.058811363 0.07094228 -0.12732881 0.18230131 0.14436647 -0.15805525 -0.09708206 -0.023947436 0.024675436 0.068959974 -0.15530156 -0.049124468 0.1466277 0.12253001 0.056766573 0.051967315 0.22275868 0.006561961 0.022487365 0.11356214 -0.024641419 0.21464363 -0.07099021 -0.02149573 -0.034209087 -0.09608744 0.051483072 0.060933836 0.15460505 0.041920494 0.102386676 0.01245422 0.14856346 -0.050687667 0.08000449 0.07860862 -0.10004074 0.1230003 0.0037970443 -0.04070239 0.016575862 0.0013532802 -0.07266605 -0.10000544 0.08477045 -0.16296153 -0.10691132 -0.06546974 -0.15563555 0.18174759 -0.03534743 0.030970983 -0.1567726 0.23263668 -0.2515393 -0.12397304 -0.021727044 -0.034592897 -0.30693743 0.03368744 -0.083200745 -0.0070405067 -0.15290806 -0.111426115 0.031288195 -0.06700969 0.08305408 0.107110344 0.027783664 0.077476814 0.13441482 -0.09361452 0.03651774 -0.038289987 -0.23911366 0.16098602 0.14394543 -0.07141555 -0.3662237 -0.032472678 0.025344705 0.16850029 0.009222003 0.028950244 0.07013429 0.03242502 -0.015685653 -0.08967158 -0.012255843 -0.17104536 -0.075233646 -0.0131839905 -0.043493133 -0.14809176 -0.15761599 -0.11347371 -0.09108372 -0.22864808 -0.020125628 0.15577467 0.23579997 -0.08298139 0.1413795 0.12632951 -0.041618638 -0.109845474 -0.039474674 -0.09981552 -0.1637163 -0.15299472 0.08578516 -0.051737547 0.009840577 -0.011434855 0.15968645 -0.115313 -0.05281086 -0.18453218 0.0795566 -0.12050297 0.059098784 -0.13558073 -0.15414374 0.011455644 -0.2428818 0.039146435 0.08396771 0.066219345 -0.0803884 0.02680631 0.09021728 -0.030526958 0.013106807 0.058243886 0.16839223 0.030081963 -0.1839669 -0.098962605 -0.042251915 0.053614933 -0.11240248 0.4380721 -0.04974462 -0.104467876 -0.06416121 -0.16550128 0.17771582 -0.027532706 -0.10260422 -0.08628206 0.2262719 0.034135498 0.03126946 0.16179483 0.06891387 0.078623295 -0.07970747 -0.18988483 0.18281221 -0.14466245 0.07844018 0.14215338 -0.0029724871 -0.10423114 -0.034428395 0.06706352 0.19837955 0.14451757 0.056007642 -0.018149871 0.1314253 -0.011708985 0.15047538 -0.20840773 -0.045950167 -0.13768072 0.2677828 -0.08602456 -0.041423365 0.05901965 -0.14716959 -0.15108807 -0.020565813 -0.11851372 0.07425748 0.0010927689 -0.10344393 -0.06333133 0.041088514 -0.02258719 0.003195159 0.0840468 0.1375863 0.0043015694 -0.08673785 -0.07359815 0.11829961 -0.15437604 0.1844347 0.10582603 -0.17716055 0.010142995 0.24437182 -0.10570159 0.13174173 0.13173193 -0.1278268 -0.032019455 0.03549898 -0.13148367 -0.017215662 0.22328131 -0.023921601 0.05622161 -0.1403218 -0.2101636 0.012265938 0.071672134 0.10397122 -0.34168422 0.07850272 -0.1894982 -0.025510175 0.307583 0.07957559 -0.013572046 -0.09849241 -0.050462697 0.113382205 0.21201418 -0.19021575 -0.015346489 0.009115332 0.07900344 0.0117160175 0.062891625 -0.023534583 0.08477646 0.018278506 0.019527026 0.16081178 -0.16788559 -0.025948856 0.22448783 -0.14899334 -0.06206378 -0.09699107 -0.003156709 0.04339684 -0.168935 0.027920647
了 -0.103285246 0.10613907 -0.13476624 0.23555283 0.0496073 0.029315293 -0.048496228 -0.09199415 -0.13058701 -0.3660786 0.19711351 0.004890179 -0.10528655 0.07192176 0.0059104627 -0.08041463 -0.07398186 -0.09537829 0.07635994 -0.022521496 0.06561008 -0.019787543 0.049862426 -0.087107114 0.08861074 0.06218633 -0.0462287 -0.04091816 -0.13747102 0.038574588 -0.23701327 -0.041042298 -0.09373055 -0.06267607 0.054221988 -0.063933045 -0.04898794 -0.10616098 0.08472361 0.022832505 -0.132453 -0.10136524 0.04562197 -0.119577296 0.12917323 0.098737836 -0.053075027 -0.041826233 -0.2582382 -0.056787558 0.071577415 -0.12704106 0.19805375 0.12973617 -0.14530487 -0.09511565 -0.02250746 0.04130558 0.059947375 -0.1607391 -0.045834657 0.14553672 0.121561885 0.05450432 0.060415942 0.21765777 0.027466467 0.032294024 0.112558894 -0.0136878 0.19868761 -0.054438453 -0.03683619 -0.023605237 -0.102381185 0.046775095 0.063367136 0.15125515 0.03917176 0.09646014 0.0020823053 0.13423426 -0.04223606 0.09073038 0.07945539 -0.10092039 0.123173505 0.020374212 -0.047729626 -0.0012067276 0.003933694 -0.05055666 -0.083932556 0.07994076 -0.16867355 -0.077389516 -0.0745449 -0.15667525 0.18011321 -0.03991109 0.024916269 -0.15627646 0.2339825 -0.24497737 -0.1207163 -0.007833471 -0.027383568 -0.30589235 0.0276723 -0.09454851 -0.004054581 -0.15528819 -0.11870384 0.023984663 -0.07260261 0.07615601 0.09686271 0.017224591 0.07282828 0.11993246 -0.087361276 0.026579486 -0.01969074 -0.21661475 0.1645763 0.1265143 -0.07115705 -0.3572154 -0.020010075 0.033510093 0.14101982 0.017556963 0.032051414 0.0705627 0.04286722 -0.029425882 -0.0735033 -0.01937082 -0.14581434 -0.07603646 -0.01167614 -0.05180744 -0.14452688 -0.15773202 -0.10663205 -0.078312054 -0.21764614 -0.020361055 0.15866274 0.23310286 -0.077968664 0.13203901 0.12703362 -0.052157998 -0.114775985 -0.021840736 -0.11419045 -0.16871354 -0.14639005 0.091609806 -0.041240167 -0.0056385384 -0.0073702266 0.16343454 -0.08870698 -0.05121591 -0.1792394 0.08764374 -0.120348416 0.070831835 -0.13769557 -0.13838927 0.0073727416 -0.22652653 0.031223804 0.07584839 0.060523324 -0.078431256 0.010080792 0.07462121 -0.026240518 0.021732908 0.055930253 0.1531915 0.041245364 -0.16588901 -0.09090689 -0.038998906 0.047689036 -0.11469753 0.4318066 -0.051967327 -0.1022521 -0.069881745 -0.15446451 0.18446726 -0.028711943 -0.09705555 -0.08616591 0.23037067 0.035351727 0.036080346 0.15447965 0.08399944 0.07114302 -0.08200432 -0.21075435 0.18042776 -0.13606063 0.06741214 0.13184215 -0.014027692 -0.115436025 -0.032629058 0.05829192 0.19834216 0.14301716 0.049806915 -0.014681729 0.12937757 -0.016922276 0.13875987 -0.1830804 -0.034346845 -0.12564291 0.24303333 -0.08124789 -0.04255662 0.061266363 -0.14364725 -0.14359699 -0.029991888 -0.13539186 0.0753702 -0.0076090856 -0.08684662 -0.08520165 0.04616043 -0.014537238 0.015694939 0.08619988 0.13913614 -0.0011633317 -0.06996682 -0.055351716 0.10429294 -0.1567128 0.1751457 0.09227847 -0.16080722 0.008183784 0.24035954 -0.10082986 0.121369526 0.13859716 -0.118939504 -0.032399565 0.014433426 -0.12695159 -0.010967966 0.20967579 -0.03865014 0.048850294 -0.140386 -0.17448716 0.002691527 0.0753957 0.11550138 -0.331926 0.07040463 -0.20425916 -0.022964006 0.28917086 0.08327876 -0.026647847 -0.10283232 -0.058940526 0.099956684 0.21751884 -0.17843153 -0.011884199 0.022770114 0.07131851 0.030387186 0.05851662 -0.032019436 0.06669987 0.013623888 0.025381204 0.15083344 -0.15826276 -0.024373816 0.21401551 -0.13668247 -0.058319937 -0.09438471 -0.016833944 0.037111465 -0.16053046 0.046519693
的 -0.11764495 0.11792496 -0.1430366 0.293067 0.046507012 0.0070339534 -0.045342058 -0.11656669 -0.147441 -0.38027385 0.2269697 -0.0140144415 -0.10800605 0.07732119 0.02147873 -0.08949228 -0.06551628 -0.061313394 0.07239681 -0.026183233 0.061860554 -0.03765986 0.060158443 -0.09473383 0.07764588 0.08266837 -0.04729683 -0.017417993 -0.12665783 0.054800916 -0.29630014 -0.06029463 -0.13311721 -0.02222343 0.07365114 -0.044518687 -0.0369442 -0.14054729 0.12737231 0.04656763 -0.16002497 -0.091443405 0.04741401 -0.11817546 0.16239852 0.09019022 -0.054137472 -0.0107568875 -0.2936834 -0.058611494 0.039540596 -0.120684266 0.2194044 0.15537551 -0.17673454 -0.10791918 -0.03964147 0.047777437 0.0829711 -0.19653219 -0.07175215 0.19292763 0.14237235 0.06469989 0.05752967 0.22854559 0.010137701 0.033766642 0.12596896 -0.05794668 0.24538554 -0.07642516 -0.03986649 -0.041618787 -0.0976551 0.023859963 0.052118517 0.19680546 0.0806416 0.1189547 -0.013024941 0.16954654 -0.080285236 0.09048039 0.08754231 -0.11674133 0.15059601 -0.0124154305 -0.0418485 0.0062663206 0.00604886 -0.066782184 -0.13560116 0.06616381 -0.16851203 -0.08811196 -0.0821891 -0.17865588 0.2023486 -0.04271423 0.03614398 -0.19833949 0.28540617 -0.30151775 -0.14482106 0.009748154 -0.024336247 -0.35285777 0.03590396 -0.103986144 0.022497406 -0.16602743 -0.12587406 0.03053944 -0.07889661 0.09624739 0.09742057 0.01381303 0.055690147 0.15472762 -0.13007098 0.052506864 -0.018175622 -0.24268301 0.16825575 0.17956059 -0.07529931 -0.3781265 -0.03770964 0.030259313 0.17033207 0.02703901 0.015337011 0.06839461 0.03629976 -0.0184938 -0.08945994 -0.01510538 -0.16001338 -0.07624075 -0.0015954173 -0.027803998 -0.17841318 -0.17761742 -0.09868101 -0.08767763 -0.27379668 -0.033142656 0.19834748 0.27914026 -0.10054526 0.15976827 0.12868233 -0.057953034 -0.12534288 -0.04357565 -0.09444853 -0.21270266 -0.15261401 0.10972943 -0.05667923 -0.010928732 -0.019341292 0.15357247 -0.14303865 -0.04945026 -0.19886766 0.11173617 -0.14503218 0.06563504 -0.18157025 -0.14342448 0.03775584 -0.28615895 0.060878493 0.08880821 0.07323057 -0.07813404 0.051741347 0.078375556 -0.021560851 0.0060330518 0.042712126 0.16029266 0.025383055 -0.22074491 -0.12117807 -0.031751722 0.07313353 -0.106490485 0.49515963 -0.073150076 -0.11686594 -0.06205549 -0.16501899 0.19557442 -0.03909849 -0.116578236 -0.09809501 0.2794673 0.06196394 0.022759864 0.16743916 0.07335326 0.08728239 -0.0846158 -0.2258287 0.18850243 -0.14157397 0.07242493 0.15674484 0.0061117304 -0.092387155 -0.050710075 0.07079023 0.23758219 0.14991449 0.051007904 -0.011850455 0.1435974 -0.03854577 0.17410414 -0.2365407 -0.043999214 -0.12968934 0.30847603 -0.090942815 -0.06728645 0.09643997 -0.16795641 -0.15840448 -0.036339045 -0.1315165 0.07959446 0.010791331 -0.115855016 -0.0850595 0.06494513 0.010153842 0.018849498 0.1030717 0.14913116 0.023195945 -0.12612462 -0.072343186 0.12697807 -0.14666884 0.19903776 0.13030717 -0.17486931 0.014548846 0.27821857 -0.10221525 0.13918388 0.12191244 -0.1500126 -0.049019508 0.048446577 -0.17055194 -0.048159733 0.24574627 -0.015281419 0.047465175 -0.14908162 -0.23387545 -0.017454477 0.09333018 0.09569979 -0.34427857 0.08616963 -0.19461 -0.04590869 0.33877265 0.099736035 -0.015010841 -0.09110897 -0.03276357 0.109086014 0.2382981 -0.19526716 -0.017882401 0.0053047063 0.05619392 0.005674046 0.07805011 -0.02008973 0.12004806 -0.03892075 -0.0114592295 0.1806874 -0.16839013 -0.03067083 0.25570655 -0.16092387 -0.05301324 -0.12834334 -0.01613943 0.0534633 -0.17179225 0.051109597
泣不成声 -0.12365324 0.077157326 -0.16348603 0.16362962 0.0689894 0.04811315 -0.054303207 -0.043035228 -0.07580641 -0.37128273 0.14101243 0.0022825333 -0.0008531758 0.04324045 -0.038856234 -0.027268345 -0.061986502 -0.13907304 0.08126491 -0.007687078 0.06888245 0.01725531 0.09424708 -0.1186555 0.14176276 0.0006478916 -0.016618438 -0.08683862 -0.17227897 -0.0252682 -0.12263552 -0.039857946 -0.058700822 -0.1461312 -0.0063819815 -0.10458074 -0.060639545 -0.05532601 -0.0038595605 -0.032851476 -0.032522272 -0.13822086 0.0031856443 -0.18542397 0.08006709 0.090587124 -0.07800592 -0.06480309 -0.15331157 -0.076965526 0.18101758 -0.16854233 0.11760222 0.10946142 -0.13496204 -0.08208413 0.036930658 -0.009489866 0.07144765 -0.10278208 0.03431228 0.035914104 0.12600198 0.08126068 0.06309962 0.2648768 0.038350105 0.012634986 0.10010261 0.043096956 0.1576943 -0.076515056 -0.042148255 -0.012550941 -0.07671135 0.09927863 0.08403868 0.08734523 -0.045637388 0.07178259 0.07908942 0.11072938 -0.008661273 0.050541684 0.069782935 -0.061508294 0.05732033 0.018596642 -0.006160501 0.04057171 0.05163918 -0.06203898 0.0035557416 0.073899165 -0.19731537 -0.08186004 -0.024261491 -0.114490144 0.1430813 -0.023666859 0.027458431 -0.117930904 0.1764974 -0.12147683 -0.08205128 -0.061941724 -0.040082548 -0.2508692 0.0402723 -0.0521118 0.006264962 -0.15286611 -0.13658467 0.032346394 -0.07270443 0.03270913 0.13923775 0.041225508 0.11919965 0.060894236 -0.022234846 -0.050348744 -0.0524295 -0.2697922 0.14461124 0.02462459 -0.09714202 -0.36505932 -0.0035339664 -0.0121099595 0.22059886 -0.00440027 0.07505835 0.11670458 0.097312495 -0.014093751 -0.02129733 -0.0632827 -0.18315461 -0.11674419 -0.066712245 -0.098271534 -0.08462572 -0.07277466 -0.14267832 -0.08677556 -0.13026373 0.0083113415 0.044973727 0.14613709 -0.051632434 0.07082185 0.13355143 -0.013792826 -0.075522505 0.01709073 -0.107178055 -0.09764422 -0.16057321 0.06604696 -0.07588622 -0.00053113187 0.002734057 0.19456771 -0.017324505 -0.05306406 -0.122150965 0.0011454521 -0.122632675 0.10207181 -0.05800857 -0.15606727 -0.059217714 -0.17758065 0.040297557 0.061630365 0.03162829 -0.049414072 -0.045938943 0.107534446 -0.041546028 0.045084294 0.11245939 0.21613109 0.029350802 -0.07793259 -0.037218492 -0.08210731 0.03893346 -0.13585974 0.3384765 0.035701588 -0.113639295 -0.10665049 -0.16857797 0.14407854 0.02887759 -0.13072515 -0.081531905 0.12389464 -0.012271855 0.109319165 0.15268464 0.064237125 0.080245934 -0.074948415 -0.15614612 0.1852486 -0.15316881 0.07266963 0.09489102 -0.017146265 -0.12908366 0.014140355 0.10887411 0.117326885 0.07902517 0.05470956 -0.014788572 0.06111015 0.009560531 0.057467956 -0.15290578 -0.045823988 -0.1568838 0.25725043 -0.074787386 0.026295397 -0.015334511 -0.06643248 -0.17254983 -0.036820848 -0.13870259 0.11069275 -0.049311414 -0.086338766 -0.0025030507 0.029436192 -0.062132712 0.014668693 0.036542386 0.14859015 -0.049724862 0.057522085 -0.0930418 0.07532678 -0.17637742 0.1674415 0.011086701 -0.20011483 0.04114005 0.17648621 -0.056035534 0.107144296 0.18318456 -0.053102765 0.005638611 -0.010014691 -0.057427246 0.043371823 0.17733276 -0.064049035 0.06673869 -0.11326912 -0.107736014 0.09309021 0.08099257 0.08404398 -0.3333917 0.071573354 -0.22155765 -0.019524965 0.24634862 0.07465811 -0.062440448 -0.13647296 -0.103111215 0.14621507 0.22253865 -0.19995195 0.018438112 0.042783704 0.10540588 0.035251934 0.032118298 -0.05511247 -0.049141828 0.1603697 0.08252141 0.11448163 -0.13871533 0.0056414385 0.12335379 -0.13585566 -0.10105907 -0.052482985 0.017340966 0.0028515304 -0.17381047 -0.03039961
啊啊啊 -0.072060324 0.05134581 -0.59705824 0.17863096 0.3467762 0.2750775 -0.053550713 0.055899434 -0.074484065 -0.50594246 0.22751702 0.22006711 0.10482887 0.1787341 -0.08342611 0.14771383 -0.25195593 -0.40144405 0.318084 0.030178627 0.27202097 0.103162006 0.012221041 -0.1484575 0.20431326 0.011273129 -0.17323686 -0.36083373 -0.21431446 -0.1621514 -0.07484015 0.03600799 0.10180219 -0.4375341 -0.21630135 -0.30830517 -0.081258185 -0.008682614 -0.023910793 -0.25042662 0.15491337 -0.23801172 0.12577543 -0.38322914 0.16314733 0.2653457 -0.35503626 -0.24349548 -0.29505587 -0.07680467 0.30189374 -0.25837398 0.11097256 0.19125494 -0.062431887 -0.050199423 0.17217815 -0.02608569 0.13397898 -0.06671439 0.23511608 -0.15755472 0.12500475 0.023144493 0.2551735 0.3848304 -0.096543215 0.023972124 0.13446651 0.17424937 -0.0032760748 -0.0949945 0.101462446 -0.008666452 -0.12226806 0.22352326 0.2978082 0.084007405 -0.24155591 0.103275955 0.10736839 0.0595318 0.20428638 0.06880346 -0.13643304 -0.09494654 -0.07580705 -0.021635808 -0.003979793 0.14196911 0.113495536 -0.240231 0.1827023 0.41335452 -0.4015119 -0.24334116 -0.12312041 -0.32480875 0.18263468 0.06425716 -0.10599704 0.004259162 0.08359394 0.084565125 -0.26292986 -0.19407128 -0.17903867 -0.18474358 0.15511732 -0.032596648 -0.23657387 -0.23990889 -0.041840676 0.14596905 0.016162911 0.19992977 0.34444386 0.24695565 0.21027945 0.14479688 0.15074992 -0.27871203 -0.20497765 -0.48210824 0.23855978 -0.1335575 -0.117101505 -0.81019497 -0.010108685 0.16330014 0.46234787 -0.057373185 0.29637548 0.24479781 0.08176826 -0.09646519 -0.103382334 -0.1735215 -0.46557063 -0.080521725 -0.14804238 -0.14063388 -0.3273598 -0.06964858 -0.35201403 -0.21388458 -0.060419314 0.11826127 -0.120205 -0.0016816913 0.116724 0.052990153 0.24570893 0.20078328 -0.013978794 -0.0412395 -0.2828701 0.07469535 -0.27878556 0.10328657 -0.22368968 0.21930724 -0.027959405 0.40042254 0.14586851 -0.12876193 -0.19690393 -0.21329977 -0.08047516 0.063884966 0.08783884 -0.39212847 -0.09800588 -0.055392843 -0.03834284 0.1633412 0.055525184 -0.1545713 -0.15884574 0.4083413 -0.1793037 0.08154695 0.18632182 0.5187528 -0.06899016 -0.013226459 -0.16740382 -0.15962037 -0.06410949 -0.3277957 0.46299872 0.23549841 -0.18661028 -0.18953602 -0.478484 0.13334581 0.09354464 -0.12763137 -0.03055508 0.014093896 -0.27946764 0.34236798 0.28921214 -0.024902642 0.032546666 -0.16172054 -0.15507238 0.33555904 -0.43010285 0.051095307 0.08151599 -0.10367891 -0.31410918 0.08991502 0.2350529 0.014520562 0.1927893 0.052639414 -0.26884666 0.18840778 0.2310625 0.13367805 -0.05802955 -0.12183335 -0.25815475 0.22436443 -0.032640483 0.031460386 0.019389292 -0.063493885 -0.34937114 0.04594337 -0.08150154 0.23968728 -0.21695493 -0.08543745 0.11717215 -0.11888848 -0.12619336 0.05811142 0.02878362 0.11107117 -0.14423726 0.21458189 -0.105865136 -0.03434248 -0.48902318 0.26263952 -0.022260284 -0.50915843 0.003296791 0.1624615 -0.10796477 0.100248605 0.42656097 -0.0780948 0.19321877 0.056348022 0.25381652 0.13963003 0.3556466 -0.19218738 0.2995585 -0.32826126 -0.23148899 0.21041456 -0.12337447 0.1875319 -0.55672723 0.087011814 -0.4711424 0.18155634 0.37987792 -0.14132723 -0.31063887 -0.3557018 -0.29945284 0.3560011 0.09149841 -0.15952298 -0.0077538188 0.08890868 0.29539323 0.17173187 -0.16027135 -0.02737052 -0.3135295 0.42461094 0.2913558 0.16973346 -0.34383276 -0.0031247013 0.19025451 -0.20977384 -0.22286204 0.046202227 0.026158096 0.016496763 -0.43470094 -0.12703137
捂脸 -0.10246608 0.10096727 -0.11724493 0.24947645 0.047226258 -0.0023524372 -0.037571467 -0.098156676 -0.13649917 -0.3275214 0.19950998 -0.010120119 -0.09848689 0.0683356 -0.004453368 -0.07135579 -0.06828113 -0.045339987 0.051135734 -0.015386401 0.04874778 -0.055269618 0.052834745 -0.067953885 0.08827844 0.046390694 -0.03662244 0.028985808 -0.109762646 0.08198097 -0.2531978 -0.024868865 -0.13224103 -0.03376846 0.088426985 -0.009722701 -0.05633971 -0.14127134 0.117070355 0.063657284 -0.17080314 -0.092917934 0.042108104 -0.09749339 0.14056885 0.06560735 -0.05192616 -0.021269474 -0.26989812 -0.061208524 0.043177947 -0.0912595 0.17916708 0.14366007 -0.17220236 -0.09517763 -0.033276867 0.034397043 0.06445896 -0.17128268 -0.087537475 0.17241642 0.12821549 0.041113943 0.02941334 0.1900219 0.0020784554 0.039834455 0.119100004 -0.027841523 0.21703282 -0.07070748 -0.026456228 -0.03411533 -0.10531824 0.03165722 0.052873638 0.1720392 0.076829724 0.086552426 0.0021400945 0.1470852 -0.06625557 0.08339771 0.07768638 -0.07384946 0.14678551 -0.011292832 -0.072255924 0.0033513373 -0.027908076 -0.059920162 -0.116648965 0.040335976 -0.15730263 -0.09677496 -0.0773455 -0.13681494 0.1491478 -0.0561796 0.038395144 -0.1805434 0.24541141 -0.2790593 -0.13040954 0.0054465397 -0.039116323 -0.32836556 0.018009087 -0.10274038 -0.0029124976 -0.14316237 -0.09414884 0.034687277 -0.06318683 0.0568851 0.08007948 -0.0026854961 0.05477085 0.14551453 -0.1260403 0.07389642 -0.001484379 -0.2080106 0.13478194 0.18031846 -0.05033046 -0.29111397 -0.05662742 -0.008697089 0.11432311 0.028272638 0.01668455 0.032093212 0.03773856 -0.011063469 -0.10106514 -0.011418274 -0.1184081 -0.053029306 -0.016188854 -0.04003504 -0.13312499 -0.16419294 -0.07747896 -0.075311296 -0.25325802 -0.03837357 0.16719158 0.24426551 -0.08776295 0.1588433 0.12775289 -0.07690113 -0.12434186 -0.053235713 -0.08522133 -0.20027468 -0.1563298 0.09481625 -0.016863108 0.011897566 0.010997944 0.13631852 -0.14219643 -0.027979134 -0.15902717 0.120328404 -0.10888952 0.027814288 -0.17290698 -0.12040073 0.0118112285 -0.27615738 0.02266381 0.07431645 0.07197055 -0.08270925 0.03160842 0.033578835 -0.028319286 -0.00735502 0.0653302 0.11467924 0.0406446 -0.20096289 -0.09861853 -0.028273048 0.041766025 -0.09644442 0.43311334 -0.09865558 -0.083026595 -0.04681499 -0.13215044 0.16295104 -0.055077568 -0.10595768 -0.075809486 0.26267794 0.068270884 -0.00654481 0.1562741 0.08741919 0.06490811 -0.05665015 -0.18294826 0.1445773 -0.09694235 0.06996536 0.15313357 -0.01621044 -0.08080555 -0.05178401 0.04965064 0.21690467 0.15683362 0.08872256 0.012255157 0.14458221 -0.039335422 0.16162938 -0.2233552 -0.03162875 -0.09196493 0.2517132 -0.11765985 -0.050563984 0.07731549 -0.14426097 -0.12906489 -0.023794957 -0.12338588 0.065120615 0.013206005 -0.11332691 -0.07017427 0.06725987 0.0007062696 -0.0064112293 0.08282614 0.115223266 0.024919663 -0.120279916 -0.03993081 0.12246306 -0.10056412 0.15676013 0.12121926 -0.12941836 -0.002355166 0.24266502 -0.117934115 0.12987854 0.0784515 -0.13637376 -0.06009889 0.026065104 -0.17810456 -0.019952027 0.21018142 0.021295665 0.013554301 -0.11195638 -0.18291219 -0.033053424 0.09683052 0.122614995 -0.32675782 0.06913676 -0.16042958 -0.030295404 0.3030287 0.123138614 0.024826389 -0.077376515 -0.023644965 0.0749233 0.2051798 -0.17677818 -0.018892668 0.00588723 0.04624659 0.009570743 0.08542608 -0.03493069 0.14641412 -0.023542292 -0.010590475 0.17187592 -0.14905901 -0.01643224 0.21112087 -0.12095853 -0.031406406 -0.10444409 -0.030891491 0.04587245 -0.1287061 0.058979627
你 -0.101560086 0.12037231 -0.13018507 0.2543277 0.04493295 0.02448374 -0.04619299 -0.106941566 -0.13490802 -0.36312813 0.20489965 0.002186778 -0.12237941 0.0746858 0.028095208 -0.098787814 -0.07057513 -0.08603926 0.07737605 -0.03575464 0.063229874 -0.028148763 0.059135124 -0.079819284 0.087012775 0.07837779 -0.058083788 -0.036819804 -0.1208147 0.032473814 -0.26125 -0.06018601 -0.09968226 -0.03334103 0.05264102 -0.063091226 -0.038872685 -0.11655528 0.09572856 0.032030124 -0.14141533 -0.09079556 0.044335704 -0.111334994 0.1368887 0.097745076 -0.05102891 -0.026230369 -0.28100032 -0.04987925 0.048056297 -0.117958754 0.22549511 0.1366427 -0.14689824 -0.09084232 -0.023592507 0.063949324 0.06189727 -0.17812203 -0.053140104 0.17436916 0.118727274 0.06441075 0.07247615 0.20593615 0.020798568 0.039298143 0.10620937 -0.039551128 0.21384443 -0.04270846 -0.02944364 -0.036279626 -0.08442788 0.029496312 0.053627353 0.173567 0.055772275 0.106942326 -0.016212542 0.14526023 -0.049425963 0.09286516 0.07590712 -0.10837753 0.13449745 0.013422786 -0.025326015 -0.013760331 0.006124189 -0.043131728 -0.09291823 0.087402984 -0.1514949 -0.06017273 -0.078220285 -0.17790943 0.19169506 -0.038252573 0.016833134 -0.17358762 0.25394842 -0.268687 -0.12860075 0.0135797905 -0.020040492 -0.3119057 0.031043528 -0.10655698 0.00163765 -0.16426271 -0.11474789 0.02318447 -0.08290914 0.091618165 0.09274469 0.0204533 0.05484884 0.13231568 -0.10481459 0.03625227 -0.01385008 -0.21779442 0.17643335 0.14469455 -0.0717419 -0.3641471 -0.025713278 0.06375466 0.14308003 0.021026334 0.032992546 0.052204106 0.026230361 -0.025933567 -0.07714004 -0.010012505 -0.14479463 -0.07914693 0.0045603546 -0.033167187 -0.16811676 -0.16546728 -0.10117847 -0.08177194 -0.22932127 -0.024791673 0.17653999 0.2575717 -0.08650409 0.13905147 0.13230366 -0.058411762 -0.11899363 -0.015367461 -0.11884177 -0.18119062 -0.14087786 0.10641144 -0.04442157 -0.02043467 -0.014274422 0.15828761 -0.11156202 -0.05590066 -0.18954572 0.09834964 -0.13903889 0.06691045 -0.15001662 -0.13211659 0.045572575 -0.2353705 0.043755256 0.07614225 0.065280765 -0.07564121 0.024497826 0.08065637 -0.024829367 0.032239445 0.03905122 0.15856564 0.03364636 -0.18926972 -0.1033039 -0.03325916 0.054903712 -0.10412573 0.45646802 -0.057001468 -0.096154094 -0.0655326 -0.16035968 0.18904142 -0.035501927 -0.09701618 -0.10285759 0.24219346 0.048347 0.037532836 0.15205543 0.086119816 0.07750744 -0.08663593 -0.23458682 0.18510449 -0.14336158 0.06321503 0.13965073 -0.00962876 -0.11293573 -0.042057954 0.060194004 0.22415859 0.1525635 0.048125736 -0.013475579 0.12760103 -0.02869172 0.16280036 -0.1913467 -0.043978408 -0.12335861 0.2606806 -0.063044615 -0.05572553 0.078240454 -0.1565272 -0.13998885 -0.03331681 -0.13300349 0.06737495 0.007493212 -0.10048518 -0.09769454 0.05285971 0.010098284 0.027874172 0.09540433 0.14761063 0.013680821 -0.087740235 -0.058959983 0.11072686 -0.1523491 0.18666774 0.1042143 -0.17082296 -0.001873285 0.26005387 -0.09549014 0.123189956 0.13027187 -0.12488444 -0.045504335 0.026178226 -0.14754426 -0.033739608 0.21215308 -0.035339113 0.06321914 -0.15168872 -0.19633217 -0.015407988 0.071939915 0.101800665 -0.32075912 0.0821957 -0.20560756 -0.033637337 0.2968695 0.08127251 -0.014842715 -0.101985686 -0.051309798 0.0911886 0.21820426 -0.17619583 -0.012305363 0.015711835 0.061778404 0.0188439 0.06400033 -0.03214812 0.082088396 -0.01914081 8.8818226e-05 0.1554897 -0.15405764 -0.026021656 0.23037216 -0.1437061 -0.054690875 -0.12158194 -0.018559244 0.041578736 -0.16481107 0.06215584
啊 -0.06872629 0.05884803 -0.3629655 0.1546426 0.20726903 0.16151276 -0.043975074 0.005664066 -0.071928725 -0.3670611 0.17123437 0.12716623 0.034290276 0.11478339 -0.043239616 0.05663552 -0.1562325 -0.24634744 0.19787295 0.013701371 0.16159977 0.05027847 0.026831372 -0.10101953 0.13432845 0.020112969 -0.10769363 -0.21358547 -0.149225 -0.08295843 -0.10300466 0.0059267655 0.031878892 -0.25056618 -0.114259385 -0.19482553 -0.057156015 -0.030251695 0.01102729 -0.13198169 0.052987937 -0.15704805 0.07809504 -0.2473807 0.119147755 0.17152114 -0.20567255 -0.14375897 -0.23118742 -0.062000994 0.18860841 -0.16749288 0.1097252 0.13514611 -0.076215975 -0.051141363 0.0978277 -0.0011881231 0.095929794 -0.08035057 0.11744283 -0.047856476 0.10392338 0.031018334 0.15952736 0.26985928 -0.04971389 0.019680776 0.10088271 0.09114413 0.043634586 -0.058648627 0.04789117 -0.013756759 -0.09044115 0.13144512 0.18266138 0.08782825 -0.121859945 0.07818427 0.0634386 0.0628965 0.10018263 0.056203354 -0.050842468 -0.077497624 -0.0117939375 -0.005984947 -0.009379555 0.071675934 0.061838042 -0.14442214 0.08395311 0.25444174 -0.26549664 -0.14783116 -0.08678909 -0.2218143 0.14572552 0.024313677 -0.04969572 -0.042703666 0.11188003 -0.011321728 -0.17579144 -0.10529958 -0.10232197 -0.17395958 0.09354448 -0.03889822 -0.13312717 -0.18196748 -0.05286652 0.0851293 -0.015161992 0.12407994 0.21363352 0.14153297 0.12952013 0.11142824 0.058597554 -0.15157373 -0.118528016 -0.32812333 0.1744852 -0.043897003 -0.080980495 -0.5324732 -0.013479901 0.10439317 0.29281268 -0.022966893 0.1732358 0.14705065 0.061690334 -0.059322294 -0.07183832 -0.10335461 -0.28924957 -0.06314357 -0.08326888 -0.091050304 -0.2150368 -0.07783729 -0.22470453 -0.13413912 -0.08485886 0.054001395 -0.027057115 0.06056848 0.03935574 0.05959005 0.17013493 0.09843078 -0.037087902 -0.021049472 -0.19003856 -0.0063262503 -0.19697845 0.084430575 -0.12894359 0.11823401 -0.015597629 0.26129824 0.059677962 -0.07657499 -0.15016423 -0.101159334 -0.07920346 0.05025061 0.01326615 -0.24177858 -0.044004522 -0.08431909 -0.009312772 0.10581227 0.04880245 -0.09906768 -0.082411885 0.24623837 -0.104743205 0.050631076 0.12184689 0.33440107 -0.026903372 -0.046286047 -0.1108848 -0.095948555 -0.025823865 -0.20437506 0.3614341 0.12658994 -0.13241343 -0.12456097 -0.30458796 0.11583607 0.048045576 -0.105286844 -0.046721447 0.06367606 -0.13874905 0.19681977 0.1991186 0.0057275575 0.03679796 -0.10984373 -0.14160074 0.2337054 -0.27115664 0.042644918 0.07167812 -0.06156993 -0.20566203 0.037272476 0.15312304 0.060069174 0.1442314 0.044091985 -0.14820175 0.12861149 0.12412321 0.10906516 -0.076252185 -0.083546594 -0.17522666 0.19122408 -0.033739317 0.011565499 0.026114179 -0.06612235 -0.23089018 0.01461477 -0.07856185 0.15513524 -0.117057465 -0.07035378 0.04505 -0.05489789 -0.06984907 0.03759884 0.03755635 0.100591205 -0.08443095 0.09935199 -0.07680658 0.0061468515 -0.30540848 0.19140606 0.0071508866 -0.31734368 0.004780252 0.15632167 -0.08394094 0.08673752 0.27142638 -0.06808152 0.092537746 0.037458237 0.10982126 0.07134311 0.2451111 -0.11543777 0.18370168 -0.21533525 -0.17095153 0.11241543 -0.047530595 0.12865093 -0.38666898 0.07285609 -0.30981475 0.08965382 0.2780693 -0.05621917 -0.18067622 -0.2223668 -0.17930368 0.21922669 0.11143643 -0.12985237 -0.006167393 0.04981361 0.17525832 0.096492924 -0.06808701 -0.021454513 -0.15922378 0.24133818 0.16165642 0.12857416 -0.22490276 -0.0010879252 0.1552006 -0.14825681 -0.13890314 0.001569792 0.006483104 0.019650307 -0.2786597 -0.05210852
狗 -0.121652074 0.102938004 -0.14226513 0.27372867 0.037001938 -0.0008822099 -0.025794705 -0.1105161 -0.16033258 -0.38610536 0.22304532 -0.008230291 -0.093155555 0.074074805 0.0040813764 -0.08261393 -0.07843844 -0.06521672 0.061362877 -0.0090005435 0.056960426 -0.043751787 0.071616195 -0.110019274 0.099887565 0.060200434 -0.03262589 0.013434604 -0.13733612 0.08404617 -0.28724888 -0.025370436 -0.14875211 -0.044930175 0.11178831 -0.013975588 -0.0659386 -0.15728493 0.11875222 0.07081405 -0.18099014 -0.091022916 0.046418715 -0.120722465 0.14930373 0.08220895 -0.049876787 -0.0117987655 -0.28231135 -0.07561958 0.06395037 -0.12252087 0.19004694 0.15554358 -0.1838265 -0.11847206 -0.043891802 0.020034665 0.07437564 -0.16701521 -0.08615005 0.1644992 0.13661936 0.057018485 0.02079976 0.22158602 0.02041361 0.036015566 0.12271492 -0.026792953 0.25030008 -0.08986366 -0.03629231 -0.030375576 -0.11314771 0.04195292 0.048369594 0.18251562 0.08022925 0.10948691 -0.005494739 0.1767151 -0.08948399 0.09089162 0.09646824 -0.10464683 0.1527812 0.0022185545 -0.06288391 0.0038756472 -0.015027683 -0.075725146 -0.14185405 0.04311787 -0.17194536 -0.124286905 -0.06724383 -0.14018293 0.17306952 -0.0512688 0.060945496 -0.18525437 0.27361012 -0.30314934 -0.12993819 -0.02261115 -0.031042337 -0.3616546 0.021657662 -0.09407432 0.0063199783 -0.14858474 -0.11618235 0.027189255 -0.06929547 0.07101601 0.0919093 0.0008564237 0.07968534 0.15695532 -0.12203064 0.07472446 -0.021526374 -0.23360118 0.15445556 0.18793239 -0.060347952 -0.3451255 -0.042563193 -0.014203608 0.13602878 0.011889843 0.004815687 0.06289901 0.03826212 -0.008055766 -0.10296236 -0.005381349 -0.14858522 -0.07444492 -0.010313574 -0.04970547 -0.13254154 -0.19226444 -0.111566626 -0.08148967 -0.27214837 -0.031370036 0.19393502 0.27385607 -0.10196032 0.16945156 0.12708248 -0.070597015 -0.13432331 -0.06727816 -0.08013683 -0.20209298 -0.16691776 0.08061947 -0.024489582 0.0039366307 0.00066802243 0.1427687 -0.15404071 -0.050663456 -0.18528888 0.11393867 -0.111980215 0.061217394 -0.187106 -0.149425 0.013287683 -0.29619408 0.036226265 0.08084031 0.07314045 -0.076227635 0.049746353 0.05457125 -0.015133262 -0.01196403 0.07264651 0.14126018 0.03711523 -0.20681825 -0.102812976 -0.031395923 0.05671644 -0.11607816 0.48047373 -0.09614504 -0.09975721 -0.07243878 -0.1470262 0.18578815 -0.047942888 -0.11237921 -0.09490817 0.2804843 0.06786017 -0.01597881 0.16928656 0.08089118 0.08365518 -0.07408732 -0.19810987 0.1718556 -0.11649808 0.08466191 0.16690722 0.003441734 -0.094277784 -0.058331806 0.059662923 0.24022886 0.16856088 0.079226725 0.0040700943 0.14949459 -0.038047526 0.17088798 -0.24708305 -0.043636404 -0.12759826 0.29106393 -0.11791352 -0.044126272 0.0721449 -0.16854003 -0.15380675 -0.036114216 -0.12712984 0.07611229 0.026709974 -0.108027846 -0.07941656 0.06708525 -0.019490689 -0.0047051157 0.09070244 0.13482603 0.023612028 -0.13697559 -0.071533434 0.13458142 -0.1299274 0.1806254 0.13387293 -0.14306831 0.0172683 0.26864377 -0.12306202 0.14512189 0.10403526 -0.15784562 -0.047016494 0.02235848 -0.18548404 -0.028671782 0.23836073 -0.00014519232 0.027665066 -0.13612467 -0.22609088 -0.015354148 0.101670675 0.11790737 -0.3682252 0.0804174 -0.18266916 -0.033738766 0.33776113 0.12095232 0.022378197 -0.07816524 -0.026025262 0.112949975 0.23431087 -0.21078289 -0.03029308 0.008969102 0.06588806 0.00039263623 0.09526557 -0.040210195 0.1521693 -0.009494314 0.007955527 0.18307346 -0.1658057 -0.024306316 0.24468856 -0.15449409 -0.047663398 -0.11400031 -0.009792218 0.04304778 -0.14540105 0.03047994
是 -0.10574563 0.10576211 -0.13744648 0.27240488 0.052291114 0.0073943906 -0.039841484 -0.10551181 -0.13986647 -0.3583395 0.20759496 -0.011061438 -0.093609564 0.06953014 0.018284075 -0.07786579 -0.06694274 -0.064826034 0.06577249 -0.020797126 0.06622816 -0.036981776 0.05234306 -0.09280207 0.07696601 0.0735373 -0.044954427 -0.006194697 -0.12207421 0.05254824 -0.27300858 -0.04665797 -0.12765236 -0.030034073 0.07477876 -0.03421814 -0.037092816 -0.13612261 0.11697046 0.045510553 -0.14622654 -0.0857389 0.048269264 -0.10739791 0.1536333 0.0843178 -0.06040538 -0.010486005 -0.27775443 -0.054271936 0.03695539 -0.111265585 0.19487326 0.15512307 -0.16532502 -0.09841814 -0.03575534 0.032059334 0.075508825 -0.17652772 -0.068562925 0.17447105 0.13460915 0.06134416 0.039575636 0.21244441 0.008997022 0.030374672 0.11746718 -0.04541564 0.23169199 -0.07807881 -0.034729794 -0.039548248 -0.10169973 0.025303805 0.048366576 0.17822859 0.07484878 0.11396996 -0.0059628766 0.16500235 -0.072262034 0.085684314 0.07857752 -0.10509878 0.138877 -0.010789216 -0.044826534 0.007211743 0.0039014842 -0.073129304 -0.1352163 0.057874937 -0.16108845 -0.0987494 -0.076767735 -0.16363724 0.18879308 -0.042496204 0.03773939 -0.17881586 0.2585057 -0.28429568 -0.14198187 0.0020304662 -0.029637363 -0.32759613 0.03284432 -0.09769586 0.019630006 -0.14712436 -0.116978586 0.032691207 -0.06651432 0.09151822 0.09044903 0.0119287325 0.06160004 0.1420231 -0.12016355 0.049673088 -0.02000273 -0.22592793 0.15630122 0.16836204 -0.06555365 -0.35399067 -0.039113753 0.017799683 0.15729816 0.019905353 0.010191158 0.06528556 0.028635526 -0.013780983 -0.0964246 -0.011433679 -0.15649894 -0.07162864 -0.006774417 -0.026800657 -0.16536927 -0.16636309 -0.096408784 -0.081396244 -0.26033512 -0.0320271 0.17873424 0.25563276 -0.089352496 0.1539667 0.12007106 -0.052487053 -0.112304755 -0.048355494 -0.08478349 -0.19032346 -0.14762738 0.091039725 -0.05559894 0.0035662232 -0.01691316 0.14470969 -0.13918655 -0.049628813 -0.1815261 0.09986279 -0.12838979 0.055338454 -0.16698958 -0.1418178 0.028633581 -0.26557374 0.04776038 0.09063579 0.077207655 -0.06815292 0.05395975 0.07391112 -0.0212496 0.009251329 0.04748025 0.15071782 0.018715147 -0.21009167 -0.111112945 -0.02651981 0.061100762 -0.10707183 0.4644063 -0.06590192 -0.10781627 -0.05822546 -0.15498088 0.17800517 -0.037852183 -0.10705107 -0.087058924 0.25912604 0.051386885 0.015760621 0.16017942 0.06168242 0.08198444 -0.08133839 -0.19739439 0.17201996 -0.1312274 0.07281475 0.14962669 -3.7451013e-05 -0.08423573 -0.045992922 0.06583635 0.21828191 0.14976858 0.05482372 -0.014998868 0.13819055 -0.037321337 0.17019723 -0.22568026 -0.041014303 -0.1157114 0.28704956 -0.09239709 -0.061224096 0.087352686 -0.16090348 -0.14533621 -0.027478185 -0.114229575 0.06979643 0.010587151 -0.10990083 -0.07095359 0.056472596 0.002012389 0.0059817787 0.09593435 0.13255057 0.028961658 -0.12053929 -0.06777119 0.117461234 -0.1324475 0.18246512 0.13023466 -0.15931828 0.012689459 0.2579359 -0.10479336 0.13388479 0.11125621 -0.1460014 -0.036433168 0.043942127 -0.15624835 -0.03892496 0.23220415 -0.0060272506 0.04296502 -0.13800946 -0.22180167 -0.013340523 0.08856439 0.08643239 -0.32390967 0.07442039 -0.1786712 -0.037577733 0.32219163 0.08734749 -0.0110491095 -0.08575197 -0.0336635 0.10582051 0.21270795 -0.18634431 -0.017965676 0.004532352 0.054465283 -7.081041e-05 0.07254174 -0.021958014 0.12058224 -0.031262603 -0.008956473 0.16745347 -0.16413203 -0.029926596 0.23836248 -0.15025394 -0.050936896 -0.116133474 -0.00824625 0.053901996 -0.1577798 0.036699183
爱 -0.07817124 0.090662956 -0.09835099 0.18115383 0.032518353 0.026705217 -0.045471724 -0.077086054 -0.08749566 -0.28730524 0.1374455 0.0029165375 -0.10578442 0.04610299 0.020806832 -0.07925385 -0.03919938 -0.08632628 0.056711916 -0.04117901 0.04620952 -0.008826666 0.039592173 -0.057475753 0.06660419 0.06131057 -0.041662708 -0.04310355 -0.09439691 0.0038362155 -0.17827548 -0.051820215 -0.05791029 -0.03491909 0.02209075 -0.06477409 -0.019427983 -0.072379194 0.05181893 0.010992818 -0.09509025 -0.069260396 0.03908991 -0.086406425 0.08726937 0.07227306 -0.040840574 -0.033574127 -0.20030412 -0.027715437 0.043001458 -0.09484691 0.18215334 0.09328999 -0.0962287 -0.05625839 -0.015828645 0.062180046 0.03010011 -0.13977715 -0.03594987 0.12839413 0.071318395 0.060849514 0.06621312 0.15129265 0.030084241 0.039729055 0.06766935 -0.02682785 0.14925756 -0.012315445 -0.034328748 -0.0192247 -0.05503796 0.018963972 0.034705594 0.123662025 0.033883933 0.07857533 -0.016474426 0.1037786 -0.025662247 0.077493355 0.05687019 -0.081930265 0.10379123 0.023824433 -0.0072985673 -0.019979283 0.0028135232 -0.010417932 -0.0457105 0.08112665 -0.10746752 -0.019208442 -0.06028143 -0.13663116 0.15285371 -0.02569673 0.00060169894 -0.12131127 0.1786162 -0.19400622 -0.092408724 0.020856049 -0.0041194293 -0.21426961 0.02332084 -0.09260733 -0.0046562664 -0.1169507 -0.08751078 0.01061877 -0.06508477 0.073805705 0.075615145 0.008194457 0.050429378 0.08572369 -0.06316036 0.0070055057 -0.00740171 -0.15134412 0.1422484 0.08493506 -0.059152275 -0.27983186 -0.005574479 0.073888175 0.10366818 0.012771351 0.040243495 0.036895353 0.021392697 -0.027435616 -0.034825392 -0.01044102 -0.087976396 -0.06582357 0.009942819 -0.024220925 -0.13683699 -0.11149543 -0.074778765 -0.06973924 -0.15667987 -0.006062282 0.12951143 0.18551679 -0.058517393 0.09611373 0.10526587 -0.04687815 -0.08825394 0.005542963 -0.10987158 -0.12628923 -0.09105222 0.077755414 -0.028962964 -0.029392328 -0.01299668 0.12313877 -0.06654589 -0.050864063 -0.14245489 0.06449653 -0.112161644 0.058779202 -0.10507997 -0.09035331 0.03655079 -0.14704643 0.031055816 0.06121306 0.045139395 -0.049243804 0.0015489246 0.061818916 -0.017171785 0.040984843 0.026166335 0.11795447 0.027801696 -0.13128121 -0.072209865 -0.024504125 0.038598657 -0.07836915 0.33085588 -0.042294282 -0.06672352 -0.060344715 -0.115232125 0.15432557 -0.027278204 -0.061980035 -0.08536449 0.16441208 0.022401545 0.04046715 0.10623057 0.065145284 0.056618605 -0.056891426 -0.18894833 0.1408262 -0.10649939 0.04805271 0.10059389 -0.018872384 -0.0884943 -0.03352974 0.03375897 0.16209945 0.109264605 0.024891295 -0.017176617 0.097118765 -0.012644185 0.11632024 -0.12530991 -0.026536612 -0.08763793 0.17805181 -0.032936495 -0.038586937 0.05343486 -0.10537337 -0.09348579 -0.025709726 -0.10972346 0.042909175 0.0025495456 -0.068769835 -0.088500895 0.03593483 0.01907825 0.030050542 0.07338613 0.11874287 0.004541858 -0.035015702 -0.038947523 0.07048305 -0.11978641 0.13558789 0.071090125 -0.13218348 0.0016583474 0.18969892 -0.06426184 0.07815785 0.11218486 -0.0799279 -0.031151524 0.0073837778 -0.09934651 -0.011968975 0.13789403 -0.044218633 0.053242855 -0.11619979 -0.1204154 -0.0056117205 0.039790105 0.07233586 -0.23176716 0.06184162 -0.16580658 -0.021573875 0.20357394 0.05336043 -0.017157232 -0.08146478 -0.049354192 0.06425442 0.15055615 -0.11261182 0.00728033 0.029449899 0.048808433 0.027437378 0.03905629 -0.03852462 0.027135355 0.0024709716 0.0128327375 0.11593693 -0.1063764 -0.0144784385 0.16618131 -0.09834415 -0.043349195 -0.09301565 -0.015534485 0.030574987 -0.12625496 0.05870547
喜欢 -0.10423124 0.11238524 -0.12693733 0.25390205 0.045989096 0.013169821 -0.042778786 -0.108848915 -0.13497552 -0.3396793 0.19968645 -0.0059685907 -0.104133576 0.06864929 0.023839373 -0.08731489 -0.06242231 -0.063906804 0.06818814 -0.027227301 0.05829374 -0.034008674 0.054567598 -0.084251165 0.07188701 0.07216364 -0.049498003 -0.023688298 -0.112264656 0.042074017 -0.2656284 -0.05104302 -0.113585316 -0.01707624 0.058210187 -0.047006514 -0.030680569 -0.12061061 0.11443695 0.042677112 -0.13997911 -0.07892537 0.041093 -0.10707319 0.14226283 0.08333561 -0.046242964 -0.015241237 -0.26413187 -0.050544932 0.034094296 -0.10630381 0.20540898 0.13519025 -0.15607229 -0.09239367 -0.034012917 0.048510812 0.070843644 -0.17787316 -0.06135463 0.16901569 0.13119839 0.06283572 0.0544399 0.20513067 0.01562618 0.030347653 0.10687654 -0.046265926 0.21357435 -0.061523695 -0.03159435 -0.03833928 -0.089358844 0.02094768 0.05094987 0.17348914 0.06622631 0.10410999 -0.010864399 0.14498633 -0.06915953 0.083164215 0.08003457 -0.10520928 0.13088478 -0.0022308778 -0.03383861 -0.005048085 0.007805057 -0.054173116 -0.115784064 0.06598002 -0.15095124 -0.06823558 -0.07791597 -0.16584949 0.18867701 -0.04024026 0.027286727 -0.17283367 0.25375777 -0.26704717 -0.12881252 0.0076178913 -0.019964272 -0.30892804 0.030206129 -0.0928248 0.015839914 -0.15199998 -0.113783196 0.023721026 -0.07278704 0.0866307 0.08663824 0.016389228 0.04626217 0.1337296 -0.11358299 0.045030408 -0.015075974 -0.21393427 0.15727739 0.15636058 -0.06700687 -0.33684498 -0.030848587 0.043177936 0.14960535 0.022646373 0.021620983 0.057304367 0.033247545 -0.019162413 -0.08210187 -0.01374676 -0.13954729 -0.06743102 0.0042084274 -0.024762027 -0.1589529 -0.15914589 -0.092229754 -0.076174356 -0.23480396 -0.029406663 0.1768535 0.25288227 -0.092223756 0.1370155 0.11358186 -0.04976956 -0.110413745 -0.032295454 -0.09202312 -0.18960515 -0.13711505 0.100785114 -0.044539444 -0.011686948 -0.01639122 0.1386051 -0.12296309 -0.047151323 -0.17359677 0.09802901 -0.13265163 0.060229417 -0.15994298 -0.12235859 0.03960001 -0.24293609 0.05389966 0.07523035 0.067232385 -0.065342106 0.045857802 0.07467796 -0.016743906 0.014001473 0.038410503 0.14907424 0.019605484 -0.19305329 -0.10161042 -0.028830228 0.06338108 -0.099315785 0.44100368 -0.061134838 -0.10291157 -0.059845358 -0.14742619 0.17510471 -0.031900015 -0.10120437 -0.093040965 0.24386923 0.051161017 0.022616658 0.14917637 0.071425304 0.078227654 -0.08095729 -0.21011086 0.16812052 -0.124748334 0.062138643 0.13296321 -0.0043920656 -0.08890929 -0.0446384 0.06228528 0.20918359 0.13767701 0.04069027 -0.011358402 0.121368095 -0.034943193 0.15523645 -0.19940466 -0.044902932 -0.116415374 0.2696823 -0.07101265 -0.05996619 0.085673384 -0.14921682 -0.13461827 -0.034382023 -0.11791392 0.068871625 0.012303062 -0.09997586 -0.08075923 0.05620355 0.01336925 0.019958127 0.08957172 0.1373551 0.02007842 -0.10416336 -0.059645157 0.10711574 -0.13055657 0.17499211 0.10841057 -0.15396869 0.007946166 0.25276944 -0.091772474 0.11941098 0.11229527 -0.125929 -0.043664433 0.039406266 -0.14427744 -0.043843735 0.2124237 -0.017555457 0.050914742 -0.1366665 -0.20450118 -0.022879045 0.08395917 0.08354776 -0.30128676 0.07609163 -0.17719708 -0.040292297 0.2970938 0.08191676 -0.017888026 -0.08939956 -0.036603667 0.09539201 0.20963942 -0.1711757 -0.0157746 0.0004959905 0.052257832 0.009334286 0.07070638 -0.019631803 0.10015166 -0.03538336 -0.0039911093 0.15024722 -0.14805833 -0.028057832 0.2235695 -0.13943182 -0.051389482 -0.11225766 -0.017279536 0.04325478 -0.15077452 0.050085135
峰峰 -0.09626834 0.115259685 -0.15543386 0.23678085 0.07085523 0.02627628 -0.047094338 -0.079924926 -0.13192287 -0.33516333 0.1864102 0.044047244 -0.076719835 0.06799702 0.014269453 -0.09476268 -0.07309477 -0.092213 0.10371549 -0.01657829 0.06612125 -0.01257291 0.057283867 -0.06983708 0.08960551 0.0556987 -0.068985485 -0.0663779 -0.10404031 0.023074144 -0.23802148 -0.025938604 -0.09052005 -0.049657878 0.021469293 -0.085826576 -0.03382815 -0.09503214 0.09654018 -0.0017922283 -0.09835695 -0.09766557 0.03251696 -0.11969055 0.11363299 0.1077802 -0.051845074 -0.057203364 -0.28119695 -0.056923795 0.07212281 -0.105489664 0.18907024 0.1285035 -0.1317623 -0.07338065 -0.000381616 0.037708458 0.063646376 -0.17381704 -0.030542433 0.13899891 0.12573871 0.06774439 0.08269077 0.22420856 -0.0034475634 0.017672628 0.09429624 -0.038352378 0.16795743 -0.038868617 -0.012272922 -0.048676524 -0.07618805 0.055370674 0.073488764 0.16005275 0.04714898 0.09437064 0.0346519 0.11831043 -0.029986385 0.06502603 0.05666575 -0.09358868 0.11707462 0.019894585 -0.028352715 -0.007639936 -0.004401234 -0.0609501 -0.06805017 0.09685145 -0.17056933 -0.05530574 -0.080023214 -0.1963628 0.1818367 -0.058918815 0.0047688857 -0.13163042 0.23148961 -0.22555736 -0.13846235 -0.0018185398 -0.013214206 -0.2740371 0.06337366 -0.06791631 0.0025646302 -0.17025732 -0.10219012 0.027469117 -0.08199082 0.083065346 0.09721683 0.03215962 0.06880795 0.13110581 -0.0822159 0.020005954 -0.030058831 -0.25538918 0.17479119 0.11793629 -0.05721825 -0.35622013 -0.04012903 0.05993737 0.18362762 0.013364456 0.063277304 0.071215205 0.044226296 -0.025963033 -0.08179845 -0.021456175 -0.16061878 -0.07204178 0.0049186232 -0.032800715 -0.1633584 -0.14638151 -0.11720408 -0.08013092 -0.2171432 -0.032558717 0.13059117 0.23526242 -0.08187551 0.108717985 0.11671028 -0.031540755 -0.11220674 -0.010906308 -0.12774372 -0.14677107 -0.13984348 0.109476335 -0.046981312 -0.009820031 -0.0042166943 0.166946 -0.093496986 -0.030542435 -0.17404504 0.057998903 -0.12747139 0.052061737 -0.10209124 -0.12367968 0.031607125 -0.2044573 0.030231029 0.06910699 0.06366797 -0.056671366 0.012902134 0.0951261 -0.03892121 0.03703624 0.06867049 0.18730123 0.042344056 -0.15911065 -0.10545135 -0.019514 0.02672861 -0.10681161 0.40637797 -0.030904336 -0.110530734 -0.06682301 -0.17023668 0.16820304 -0.012721928 -0.112266764 -0.09811459 0.22065514 0.026416676 0.058364518 0.15636447 0.07626426 0.05157922 -0.078266524 -0.20781639 0.17050198 -0.14906758 0.06567182 0.103989296 -0.02504467 -0.12427783 -0.03214461 0.07432122 0.19480738 0.14971857 0.057821646 -0.020853242 0.13028216 -0.0072985208 0.14457923 -0.17372589 -0.052800633 -0.14195721 0.25155795 -0.061691087 -0.030161114 0.06131789 -0.14249915 -0.12703308 -0.017788205 -0.11262265 0.07631247 -0.019520467 -0.108394004 -0.060530208 0.043214478 -0.009052801 0.026770435 0.06821338 0.13037695 -0.015436944 -0.06702064 -0.07086822 0.08553189 -0.13667968 0.17507416 0.08299246 -0.16597965 0.0010529952 0.24403925 -0.09896001 0.109842874 0.14579889 -0.11554463 -0.045652866 0.025969002 -0.0975799 -9.889431e-05 0.21233222 -0.042688 0.0836209 -0.14417084 -0.18524286 -0.022242479 0.05735393 0.102497585 -0.31621465 0.08288361 -0.17416082 -0.04471993 0.2623851 0.045453317 -0.045370687 -0.11480881 -0.071313925 0.10135051 0.20780663 -0.14448474 -0.011173643 0.0066625047 0.06469038 0.013426265 0.06587991 0.0046293074 0.038549773 0.013270761 0.022912774 0.14302222 -0.15934253 -0.0011932877 0.21205047 -0.13391241 -0.060274784 -0.08578016 -0.015703607 0.036397673 -0.18620265 0.05606755
这 -0.10845306 0.10527468 -0.14498976 0.2691475 0.046318833 0.009980809 -0.036664374 -0.10363317 -0.14861456 -0.3783814 0.21662928 -4.1957697e-05 -0.089018874 0.077209145 0.012728355 -0.08703537 -0.07756371 -0.07602214 0.07574421 -0.010759758 0.061201088 -0.036479875 0.06691525 -0.095297016 0.087920874 0.059739083 -0.0443942 -0.011174076 -0.13138153 0.066587746 -0.2734223 -0.038057655 -0.12907772 -0.044301573 0.08244609 -0.04116324 -0.05353202 -0.1418669 0.112323634 0.049367595 -0.15860984 -0.09381351 0.0404964 -0.12016786 0.14754365 0.09067191 -0.05598685 -0.025348939 -0.28342336 -0.058393512 0.059989154 -0.115609854 0.19260575 0.15531175 -0.17650962 -0.104516916 -0.031476058 0.025148299 0.07531 -0.17465796 -0.06923398 0.1675303 0.13166133 0.061123207 0.037262626 0.22404422 0.015201327 0.023941614 0.11605958 -0.035936184 0.2316763 -0.077021144 -0.025610322 -0.034252092 -0.10738625 0.041111466 0.05909466 0.17088525 0.07018261 0.10904259 0.010187766 0.16876476 -0.07599514 0.08676298 0.0967741 -0.100972325 0.13971612 0.0025904772 -0.049618155 0.004253798 -0.0046929405 -0.07555994 -0.12498882 0.067328416 -0.16923788 -0.102533236 -0.0734821 -0.16481346 0.18422242 -0.046386022 0.04538847 -0.17671496 0.26358816 -0.2854704 -0.13598332 -0.006120273 -0.034438297 -0.3342071 0.026443651 -0.0898918 0.0029049546 -0.1612146 -0.12373265 0.024103988 -0.07589826 0.08084115 0.09601449 0.013611675 0.07646636 0.146796 -0.11624209 0.055088863 -0.02285597 -0.23897715 0.16520536 0.17141348 -0.06580131 -0.35813653 -0.036250684 0.011843737 0.16028863 0.017726462 0.018205246 0.06413588 0.038102522 -0.013863213 -0.09765999 -0.007281342 -0.15738302 -0.079997644 -0.008341206 -0.03848685 -0.14536291 -0.17936112 -0.10915799 -0.07761125 -0.25954393 -0.033809185 0.18048602 0.26384208 -0.100582026 0.15590988 0.12503277 -0.059524145 -0.12488557 -0.04368244 -0.09953791 -0.19031145 -0.16829638 0.08986652 -0.03799882 -0.0017583447 -0.005630364 0.15472634 -0.14178789 -0.043564085 -0.18217753 0.09960785 -0.12500831 0.056574956 -0.16481914 -0.14508837 0.023617188 -0.27109742 0.040561743 0.08518543 0.07394859 -0.07409129 0.04011136 0.07087903 -0.019438272 0.010543844 0.06090702 0.16062933 0.037838798 -0.2069854 -0.106133476 -0.030643351 0.052226964 -0.10932315 0.4734346 -0.07391989 -0.10999072 -0.06978404 -0.16259284 0.18662813 -0.038576346 -0.11344669 -0.09618007 0.25959983 0.056688894 0.012896016 0.16533507 0.07299625 0.090399735 -0.079324484 -0.201414 0.18347494 -0.13539928 0.08047296 0.151903 -0.004908276 -0.101494275 -0.04481638 0.06376153 0.22805469 0.16198066 0.06915756 -0.006603541 0.13809827 -0.033346273 0.16662131 -0.23023991 -0.053026523 -0.13288274 0.28907093 -0.09951458 -0.05096403 0.064881325 -0.16133262 -0.15166183 -0.029575903 -0.12196792 0.072217286 0.016753994 -0.11274968 -0.075136535 0.05410922 -0.013681405 -0.0037669213 0.09426375 0.14430705 0.019181535 -0.113599196 -0.067802995 0.12294749 -0.1385909 0.18485379 0.12273296 -0.15956879 0.013768684 0.26559964 -0.116311915 0.13815603 0.119943306 -0.1456962 -0.046071205 0.032248653 -0.15993087 -0.018783027 0.22885695 -0.01479766 0.044651918 -0.13678381 -0.22289756 -0.013617539 0.09129628 0.10678291 -0.35387683 0.084494196 -0.18851745 -0.041365784 0.32120118 0.09267529 0.0014183623 -0.08933958 -0.04120852 0.10806037 0.23216642 -0.19899584 -0.024014834 0.0007924856 0.06553201 -0.00058668345 0.083228044 -0.02647447 0.118851915 -0.006312957 0.0069221556 0.16650914 -0.17077938 -0.024415296 0.23478281 -0.15155129 -0.050256114 -0.11066371 -0.009525436 0.054566998 -0.16120373 0.039068732
想 -0.124897115 0.11111474 -0.16672727 0.27067125 0.061901126 0.019821065 -0.032647576 -0.1056899 -0.16726767 -0.3908821 0.22730905 0.008380911 -0.091287374 0.086143754 0.015292903 -0.078764744 -0.09166607 -0.08901476 0.076695584 -0.0087629305 0.06756635 -0.032143105 0.0706159 -0.10543461 0.09982137 0.056960657 -0.05152675 -0.0108503625 -0.13279009 0.06614556 -0.28201723 -0.029572316 -0.13333958 -0.05551645 0.0949532 -0.03583222 -0.059867796 -0.14937434 0.11571737 0.04661597 -0.16104074 -0.101400815 0.043366365 -0.13142987 0.15256928 0.10403465 -0.06543271 -0.023983415 -0.29009807 -0.071005575 0.06589825 -0.13230172 0.19852056 0.16130938 -0.18055214 -0.115976 -0.028885134 0.02185594 0.070599206 -0.16286527 -0.070205554 0.1576549 0.13509491 0.056040637 0.047164522 0.22895128 0.015345323 0.03996049 0.12161699 -0.029432444 0.24081525 -0.07546613 -0.015333123 -0.034213774 -0.1015293 0.050282344 0.060057122 0.17775653 0.058916777 0.110017195 0.0049137003 0.17202173 -0.063755445 0.08908676 0.086123705 -0.10294705 0.1477583 0.011231805 -0.055053357 0.009519554 -0.007097755 -0.07376186 -0.123115875 0.0813861 -0.1803369 -0.121160634 -0.0718085 -0.16445422 0.18740374 -0.050435904 0.046652295 -0.1778003 0.27146715 -0.28979415 -0.13984501 -0.023829067 -0.034274958 -0.34846473 0.03274789 -0.089141935 -0.010955481 -0.1633427 -0.112781644 0.03116343 -0.06761454 0.077370584 0.10557164 0.024158835 0.08097182 0.15595 -0.11287593 0.05554614 -0.03795806 -0.2478636 0.1693033 0.17476667 -0.06948219 -0.37144482 -0.040596165 0.021686714 0.15590669 0.005804237 0.024038786 0.060592756 0.029718433 -0.018891186 -0.10303147 -0.006626264 -0.16953398 -0.079021454 -0.011265705 -0.046759788 -0.15553722 -0.19026916 -0.115128115 -0.09501448 -0.26323387 -0.027116131 0.18435232 0.27469167 -0.09575642 0.16328317 0.13503136 -0.05919664 -0.1281801 -0.056512747 -0.09724663 -0.18882038 -0.17431137 0.092513636 -0.036668416 0.008523223 -0.00046789038 0.16592608 -0.14226201 -0.055393025 -0.19857736 0.099562004 -0.123531304 0.0589526 -0.16162285 -0.15084226 0.022718517 -0.28016502 0.03278705 0.09271298 0.07217626 -0.08229954 0.033512138 0.077395596 -0.02148049 0.007265679 0.06965755 0.17499384 0.031200947 -0.2012517 -0.10831837 -0.029757919 0.04796827 -0.121388994 0.4863863 -0.076667786 -0.11161387 -0.06746131 -0.16329019 0.19329289 -0.048247565 -0.111722715 -0.100919776 0.26346374 0.05550106 0.0067773913 0.17874476 0.080518946 0.07776749 -0.08432664 -0.21072294 0.19063243 -0.13819811 0.0889183 0.15722299 0.0054245847 -0.10336134 -0.050928418 0.06467072 0.23138145 0.17530352 0.07428303 -0.014078085 0.15310854 -0.023730809 0.17544867 -0.22948535 -0.05287927 -0.14269991 0.2893245 -0.103423335 -0.03866499 0.069227 -0.1714933 -0.14935033 -0.026778407 -0.1260486 0.06827132 0.01728304 -0.11496163 -0.07789395 0.05603552 -0.020992218 -0.0020026613 0.080521226 0.14469685 0.012691826 -0.12022478 -0.07754275 0.1274187 -0.14628312 0.18313989 0.123533085 -0.16745555 0.007938056 0.27458218 -0.12324687 0.1440908 0.123761795 -0.1553201 -0.04311814 0.0308246 -0.15995535 -0.028621277 0.24582212 -0.019176304 0.042860314 -0.15080118 -0.23418112 -0.0030735354 0.08062289 0.12783106 -0.36720276 0.090683945 -0.20135579 -0.029943494 0.337891 0.097748116 0.005788931 -0.1040193 -0.042844817 0.11568859 0.23361997 -0.21097702 -0.03063743 0.007754036 0.08256579 0.0075107086 0.08293309 -0.025614666 0.11708161 0.0071803774 0.011351258 0.1774722 -0.17082289 -0.021570385 0.24274263 -0.15794371 -0.05559044 -0.11031295 -0.00456072 0.047642455 -0.16779189 0.03268181
玫瑰 -0.21434644 0.24116886 -0.15045106 0.3369431 0.056160465 0.0012522038 0.085137755 -0.015218401 -0.10894509 -0.36070937 0.035998255 0.1305935 -0.051294435 -0.041565567 -0.11238393 -0.19291084 0.13474968 -0.1718867 0.11489507 -0.13127552 -0.11348284 -0.086588174 0.056296896 -0.044267505 -0.072245665 0.06975387 -0.019157391 -0.076333165 -0.0061964104 -0.12828329 -0.2899406 0.08047899 -0.08513369 0.14001647 -0.071735345 -0.11528648 -0.0016790552 -0.12735754 0.14625937 -0.09553449 -0.0015462853 -0.20932333 0.11143147 -0.12738697 -0.048948698 0.22145662 0.09988045 -0.18568078 -0.38826367 -0.07843216 -0.15957394 -0.039670553 0.31455287 0.056238495 0.0378112 0.022920754 0.07983053 0.20279086 -0.10408334 -0.2854061 -0.12416575 0.1530157 0.11009342 0.14223298 0.23294893 0.25850898 0.036439244 0.2096414 0.06253445 -0.21036991 0.0031577288 0.12676142 -0.1306594 -0.04379281 0.07469979 0.02738353 -0.0075158062 0.29939666 0.16390766 0.115162365 -0.038185585 -0.0088060815 -0.09936416 -0.006140127 -0.08538638 -0.058720227 0.30393955 0.0029170853 -0.015858686 -0.04365386 -0.054925907 -0.013735043 -0.029112149 0.14372316 -0.23136203 0.15072738 -0.13171883 -0.31202915 0.17605099 -0.0822654 -0.09180479 -0.2517136 0.29581496 -0.21823242 -0.28765503 0.18980052 0.14464502 -0.104457535 0.11643113 -0.21956153 0.0602403 -0.25763398 0.09628025 0.06761761 -0.083140105 0.12959813 -0.043172114 -0.009426137 0.035744544 0.087517545 -0.03685438 -0.033409085 0.12722167 -0.32755238 0.23782839 0.07699346 -0.082983874 -0.25961092 -0.13495328 0.2530947 0.12623343 0.10199484 0.15510164 0.03940418 0.09575662 -0.103494935 0.014122097 -0.09738396 0.032362875 -0.03448764 0.089169174 0.0567094 -0.3922218 -0.22823885 -0.07451714 -0.04318314 -0.2669774 0.018809823 0.15922771 0.23319991 0.020829367 0.07130693 0.06782004 -0.12797947 -0.0749086 -0.027861716 -0.21033818 -0.21576743 -0.06994377 0.09288221 0.066741385 0.007493108 0.005206794 0.033672795 0.03414774 0.05061816 -0.26985016 0.085430376 -0.17001374 -0.01972928 -0.01745492 0.08487141 0.20647669 -0.18656987 -0.10366622 0.018875645 0.17909546 -0.040656473 0.030366765 -0.008466684 -0.052771382 0.07970744 0.052422848 0.12972444 -0.06777174 -0.14127715 -0.20473155 0.09616675 -0.030827034 0.0042035826 0.29575062 -0.0718562 -0.16597079 -0.11091697 -0.060249396 0.24824119 -0.11141859 -0.17313306 -0.16733722 0.31846452 0.14946406 0.070124984 0.18054506 -0.031569973 -0.13998161 -0.035882875 -0.30811435 0.043801583 -0.037225604 -0.024827255 -0.041567855 0.007560207 0.021351082 -0.13996251 0.14166574 0.29596615 0.21135657 0.1343145 -0.07399581 0.25760782 0.15580565 0.20320758 -0.12060758 -0.07144209 -0.0767879 0.21944049 0.0031625028 0.06922336 0.24298416 -0.21674396 0.023472503 -0.056923833 -0.04076119 -0.055433184 0.0068025575 -0.14211325 -0.14309049 0.093700774 0.1508312 0.1648937 0.011386504 0.043781135 -0.11012051 -0.07874139 -0.12937254 -0.061452508 0.015882233 0.038177025 0.07871822 -0.109425664 -0.052122444 0.3233498 -0.070408344 -0.11275756 0.15779288 -0.06044353 -0.20186307 -0.0033756674 0.018261213 -0.0901212 0.34920114 -0.17323323 0.14600484 -0.23353738 -0.13626936 -0.18421726 -0.102264985 0.1997292 -0.34679797 0.18244396 -0.1803935 -0.12694567 0.1920436 -0.011990991 -0.18012659 -0.14569546 -0.123884924 0.16472258 0.15090701 0.02637296 0.12428672 0.10078768 0.010849873 -0.041701216 0.026908705 0.12964828 -0.051895168 0.02356769 0.08309413 0.22189583 0.0070210327 0.16735834 0.32451716 -0.108314 0.14150476 -0.009134753 -0.010981262 -0.06584485 -0.20703839 0.15344845
好帅 -0.09129479 0.08062759 -0.18052438 0.17224652 0.08272595 0.0660588 -0.035614222 -0.052160412 -0.09256241 -0.30323908 0.15247099 0.043402508 -0.042133443 0.065701514 -0.010282526 -0.037976358 -0.07759984 -0.121921994 0.10407088 -0.0053422623 0.06963355 0.005150008 0.04432475 -0.08288276 0.087166585 0.041092027 -0.055415668 -0.09141643 -0.11981118 -0.0038916683 -0.16617407 -0.018249212 -0.047283564 -0.099108055 -0.005887601 -0.09301316 -0.049275417 -0.06947286 0.056838866 -0.020297613 -0.059822533 -0.10185543 0.045749053 -0.14924635 0.09585796 0.10902625 -0.0747659 -0.06249074 -0.21310683 -0.065121084 0.0939629 -0.11221274 0.1425657 0.09978942 -0.10415558 -0.067857236 0.020942753 0.02224706 0.06208385 -0.10977329 0.0061355056 0.057046466 0.10561788 0.0463556 0.086842634 0.20557897 0.0018190088 0.025633391 0.0922388 0.0147263585 0.11467257 -0.039587278 -0.0076037473 -0.017898679 -0.07496023 0.06407725 0.09025204 0.12278135 -0.011074726 0.07092058 0.023444045 0.085480675 -0.002107748 0.053856168 0.032553583 -0.07539978 0.067625545 0.009427171 -0.023562206 0.014439138 0.014815073 -0.06991398 -0.019140942 0.114714086 -0.17490934 -0.07858971 -0.06863058 -0.15123333 0.13309234 -0.021488778 0.0019078605 -0.10751372 0.17542668 -0.13132414 -0.115441665 -0.03142891 -0.043213904 -0.22078955 0.049377993 -0.0582302 -0.03362559 -0.14706954 -0.074943475 0.039292645 -0.045345962 0.06415085 0.113231346 0.048758976 0.07346781 0.09902093 -0.03666126 -0.030382445 -0.03799051 -0.2311304 0.14088088 0.051151663 -0.058281798 -0.33900258 -0.014297904 0.05088747 0.16371883 0.0047511905 0.07230268 0.07535803 0.053367864 -0.030758264 -0.056531094 -0.04746516 -0.15588555 -0.059215035 -0.028242439 -0.058801126 -0.13932504 -0.11510609 -0.12993136 -0.068979286 -0.14498225 -0.0031649435 0.081372574 0.15062436 -0.03638269 0.086589925 0.11674431 -0.0017494151 -0.06936385 -0.017763896 -0.11582199 -0.09635559 -0.14642611 0.08291883 -0.051096745 0.031037036 -0.0031473706 0.1598731 -0.02939196 -0.044940766 -0.14442539 0.018813541 -0.09809998 0.056502007 -0.07294306 -0.12765665 0.00010959783 -0.15212241 0.022506349 0.06006172 0.04727044 -0.064858496 -0.0095706 0.10986302 -0.038137414 0.028111178 0.07526336 0.18717328 0.013034206 -0.092191674 -0.078602985 -0.038852703 0.0204014 -0.12224521 0.33335534 0.014470832 -0.09897703 -0.07899174 -0.1669579 0.12635964 0.0026045053 -0.09775008 -0.0656727 0.14711918 -0.008673738 0.06894141 0.14190786 0.048624203 0.042042315 -0.080719456 -0.15797664 0.16160351 -0.14876397 0.040159486 0.080464706 -0.021247692 -0.123997845 -0.015736917 0.08968508 0.12856016 0.11308136 0.04286049 -0.040993866 0.09948874 0.032086983 0.10603288 -0.117068335 -0.04783761 -0.12546512 0.1970172 -0.054857977 -0.0037154185 0.042809803 -0.096083894 -0.14412035 -0.018963644 -0.098200016 0.086425126 -0.035747334 -0.07613553 -0.0337434 0.014162616 -0.02188594 0.033732224 0.047340788 0.10585114 -0.033294726 -0.017374909 -0.060684543 0.056516346 -0.1692577 0.14721802 0.045312297 -0.17144808 0.009307656 0.18120006 -0.0772725 0.08432546 0.15523687 -0.076099105 -5.29657e-07 0.018692499 -0.03800919 0.013946037 0.18932363 -0.05493659 0.07892867 -0.14401229 -0.14220732 0.026247602 0.036595248 0.10428867 -0.29614237 0.065781154 -0.19887498 0.0054546925 0.23089612 0.034315735 -0.07118431 -0.122320734 -0.090045944 0.119400546 0.16259621 -0.13724773 -0.010027353 0.020458363 0.0887374 0.04464124 0.015866855 -0.014628946 -0.011339463 0.080191165 0.063888244 0.12220124 -0.14578515 -0.00079581735 0.16492744 -0.11582694 -0.06892433 -0.04984778 -0.008722171 0.01612778 -0.16508134 0.016749416
帅 -0.09786013 0.110679574 -0.13734896 0.23444414 0.050111897 0.027577072 -0.041532315 -0.099652596 -0.14122628 -0.3386777 0.19744864 0.0035238238 -0.09235385 0.073114544 0.016870013 -0.08225225 -0.08233829 -0.07696777 0.082760125 -0.012727703 0.064444266 -0.025446428 0.051745277 -0.078026354 0.07504899 0.061030254 -0.046575047 -0.022977233 -0.12631585 0.042248648 -0.2483448 -0.046126164 -0.09913643 -0.04575087 0.05287355 -0.04992757 -0.047457106 -0.117965624 0.09673347 0.040143225 -0.13942671 -0.09147394 0.048095725 -0.11746299 0.13332558 0.093382575 -0.052714776 -0.030686675 -0.26335874 -0.060616195 0.05021176 -0.10535368 0.1842241 0.131821 -0.15278174 -0.091031775 -0.016607037 0.028605327 0.06619871 -0.15882912 -0.044479623 0.1408022 0.12810712 0.056001563 0.051356018 0.20623899 0.011056101 0.028456941 0.105229065 -0.022616958 0.19864641 -0.056282844 -0.022082143 -0.03453874 -0.09437662 0.045544237 0.06786858 0.15803814 0.050377462 0.08778697 0.007282932 0.13873419 -0.056185395 0.078652926 0.07176466 -0.085173294 0.11538481 0.006106491 -0.04333624 0.0010049219 -0.0014298386 -0.06949526 -0.08835567 0.07923305 -0.15354285 -0.07316993 -0.07315931 -0.16218568 0.1703833 -0.039028358 0.03175847 -0.15350753 0.23706204 -0.24581884 -0.11902571 0.001336033 -0.034643445 -0.3001591 0.030603366 -0.07761284 -0.002673122 -0.1582745 -0.108783275 0.022599384 -0.07505978 0.06618418 0.09030456 0.02160761 0.059201986 0.12909082 -0.09946515 0.040236477 -0.021211838 -0.23097211 0.1561703 0.13435712 -0.05365693 -0.33784723 -0.030818712 0.028384103 0.14649083 0.012300807 0.031852305 0.053345557 0.042271916 -0.016006803 -0.08869749 -0.011397438 -0.14698654 -0.073216066 -0.012255245 -0.04073949 -0.14002976 -0.15990159 -0.11004444 -0.07428782 -0.2184811 -0.034261238 0.15193143 0.23502147 -0.08672066 0.13189754 0.11525213 -0.04875894 -0.11324178 -0.03169072 -0.098323226 -0.16894528 -0.15742277 0.09876462 -0.039771486 -0.003065193 -0.00078631804 0.14889506 -0.100225635 -0.039762106 -0.17220257 0.08719017 -0.11622423 0.053407494 -0.13854772 -0.1305995 0.03146407 -0.2299735 0.041193806 0.066034794 0.0607304 -0.07682359 0.030846678 0.0736051 -0.019213254 0.01938835 0.053082857 0.16001326 0.029487876 -0.17267923 -0.092204355 -0.02388048 0.049026668 -0.0994531 0.4222023 -0.05615375 -0.10034128 -0.061891757 -0.1423676 0.16088597 -0.022873417 -0.106561795 -0.081517674 0.2231122 0.03941911 0.018880542 0.14798367 0.070732914 0.07050074 -0.07836571 -0.19614708 0.17728628 -0.13691986 0.06468776 0.12701474 -0.015360174 -0.10500391 -0.03439162 0.06621631 0.19655816 0.14282988 0.05432393 -0.019867776 0.11492302 -0.02355746 0.14450859 -0.18844973 -0.0416308 -0.12185513 0.24803439 -0.08159962 -0.039367512 0.058727987 -0.14262956 -0.135118 -0.031766783 -0.116696365 0.071404025 -0.00064645463 -0.09770998 -0.07181348 0.042970993 -0.0061542178 0.016495777 0.07511208 0.12667774 0.010995971 -0.093387984 -0.052017443 0.107378334 -0.1425587 0.16853549 0.09927941 -0.15282902 0.0054728338 0.23901007 -0.09994463 0.118000485 0.1246354 -0.11892009 -0.03374914 0.03395628 -0.13370313 -0.011341533 0.21257876 -0.019022247 0.047144786 -0.13112153 -0.1865183 -0.017858602 0.08075348 0.09768939 -0.32248127 0.07818477 -0.18285847 -0.02865001 0.27504697 0.07736316 -0.020395342 -0.09426197 -0.047812115 0.101117775 0.21552849 -0.17974332 -0.02383623 -0.0035071708 0.06534975 0.021140244 0.058855116 -0.01200826 0.08195313 -0.004662472 0.010026958 0.14214207 -0.15949424 -0.015997646 0.20170444 -0.13086696 -0.04940397 -0.091065936 -0.021060904 0.037950996 -0.15385936 0.050532468
送心 -0.14117539 0.20584132 -0.08273834 0.0908794 0.044283703 0.20757005 -0.03703691 -0.26188105 -0.062206086 -0.19400357 0.31934312 0.124179415 -0.20684516 0.20556372 0.1469582 -0.22709106 -0.12715246 -0.026235877 0.10950007 0.017777193 0.00621068 -0.025914293 0.1156804 -0.09883288 0.18068758 0.17997867 -0.14987631 -0.2855089 -0.14676045 0.033091538 -0.384237 -0.109874055 -0.06319423 0.006274066 -0.08799177 -0.19562642 -0.14272168 -0.0035187993 0.21838132 0.104777396 -0.23752618 0.010871773 -0.031765062 -0.35542655 0.14865862 0.18487038 -0.042782832 0.119907305 -0.12448598 -0.15890318 0.23156053 -0.07775221 0.30964154 -0.07148895 -0.19758867 -0.13628128 0.08574422 0.19197653 0.24902125 -0.04351712 0.09376782 0.16977389 0.25100937 -0.0070257923 0.20123221 0.12981808 0.04606298 -0.0647993 0.04492578 0.14063166 0.09873575 0.109945595 0.023363741 0.05134049 -0.00038974328 -0.091528535 0.0931709 0.35984167 -0.022909172 -0.078367695 -0.13670477 -0.029456254 0.020779978 0.16885643 0.15115136 -0.25156164 -0.044184655 0.19693635 0.060534496 -0.21345039 0.032277312 0.016443605 0.09882589 0.17963822 -0.09556815 0.04610676 -0.15229833 -0.059397865 0.016725926 0.074337535 0.03344808 -0.22654656 0.3632111 -0.019852582 0.011174615 -0.057544112 0.032361593 -0.2617042 0.07519641 -0.1015193 -0.15386541 -0.33039916 -0.110529125 -0.07347707 -0.079316504 -0.09231249 0.17217752 0.13349405 -0.122805946 0.26143318 -0.1464031 -0.079661556 -0.025479652 -0.21564715 0.028323404 0.0083748195 -0.023825789 -0.20943032 -0.011907933 0.26939046 -0.010781229 0.121285975 0.051081877 -0.042850763 0.10244153 -0.056522433 0.09006682 -0.08815596 -0.01497025 -0.03231274 0.17422163 -0.0893683 0.0030094786 -0.09701801 -0.19237196 0.15913905 -0.0019567364 -0.056826938 0.29437235 0.31403753 -0.23366165 0.01919599 0.2853378 0.05077074 -0.19831939 0.095317975 -0.14030562 -0.19889268 -0.26423335 0.27171823 0.0975828 -0.057493765 -0.088234544 0.23399176 0.011368486 0.037749562 -0.2219712 0.031510487 -0.17278516 0.13861507 -0.28537345 -0.031949915 0.082024336 -0.0768528 0.20446044 -0.124293074 -0.004700202 -0.112012744 0.09494059 0.26851952 0.06025902 -0.058981508 0.08582707 0.23090847 0.102304384 0.017472291 0.0774773 -0.07383857 0.043959524 -0.13594675 0.41287073 0.17871305 -0.013070826 -0.1703044 -0.29767886 -0.0043916446 0.072075814 -0.25822672 -0.22587119 0.15249394 0.17474161 -0.11889928 0.028640352 0.27766407 0.07473172 -0.22677568 -0.3469377 0.24942023 -0.119925454 -0.14106585 -0.03861931 0.035657495 -0.36388117 -0.15428777 0.2631085 0.28867203 0.049806572 -0.04525185 0.117341325 -0.09741239 -0.044215288 0.122876376 0.08567548 -0.2133463 -0.30619302 0.18687151 0.13737258 0.062456593 0.045567255 -0.0016860171 -0.25505772 -0.13257061 -0.26355964 0.2744964 0.10611843 0.012668454 -0.16055803 0.067339994 0.017830465 0.16461287 0.15174727 0.21590646 -0.15205002 -0.1374939 -0.11885093 0.04108175 -0.31608993 0.27097 -0.085864745 -0.032654587 -0.04050342 0.27235332 -0.0067288494 0.14942323 0.26919615 0.053976763 -0.10197156 -0.10875656 -0.12918249 -0.15434396 0.017616054 -0.036844254 0.25476712 -0.30174577 -0.041067258 0.011158481 0.15081136 0.21142557 -0.15540111 0.13046663 -0.2965626 0.05776619 0.17116821 0.16446887 -0.12545933 -0.11440041 -0.024490723 -0.06119501 0.30314347 -0.17806171 -0.09901491 -0.037028193 -0.09046605 0.07679188 0.09395602 -0.1299024 0.14332873 0.04565703 -0.024139192 0.0008670325 -0.032999925 -0.055740505 0.27334487 -0.0067764297 -0.16751277 -0.124802284 -0.13621013 -0.019947303 -0.06793681 0.2379205
李易峰 -0.103773855 0.102085546 -0.19467776 0.2505043 0.094025254 0.058657404 -0.050161347 -0.08682372 -0.14629099 -0.37868398 0.21276562 0.03700724 -0.07766105 0.090920635 0.0061629945 -0.074572615 -0.10036257 -0.11945978 0.10900061 -0.011205619 0.090502426 -0.013898637 0.057910427 -0.09384661 0.10236944 0.06355549 -0.07110944 -0.07364548 -0.13937736 0.02117124 -0.247006 -0.033102676 -0.09314079 -0.08665822 0.0327535 -0.09063388 -0.050800037 -0.10820964 0.099210575 0.0024586148 -0.11395218 -0.11261483 0.049255826 -0.15109536 0.13976145 0.119851746 -0.083880596 -0.05163683 -0.28941187 -0.07031545 0.088063814 -0.13735898 0.19222026 0.13875432 -0.14773887 -0.092737235 0.0015690918 0.03727573 0.07977683 -0.16069011 -0.025662312 0.12882288 0.13451512 0.063681655 0.08397032 0.24019 -0.0057365955 0.02800867 0.121459715 -0.01498601 0.18821655 -0.06188107 -0.011340816 -0.035295438 -0.100432485 0.062710725 0.092429906 0.16270328 0.020802518 0.09935527 0.01643597 0.13707222 -0.034105584 0.07976556 0.062250186 -0.10767893 0.11536431 0.007401705 -0.0352157 0.019364022 0.0064892033 -0.08237249 -0.07023567 0.11844876 -0.1937343 -0.10232431 -0.08043263 -0.1952704 0.19193488 -0.039842274 0.016932188 -0.1459023 0.23791113 -0.23236407 -0.14946419 -0.025835292 -0.0397949 -0.31199142 0.05058309 -0.08433489 -0.020400435 -0.18489292 -0.10609915 0.040044833 -0.06643285 0.097182594 0.12226989 0.047002964 0.084183514 0.1424761 -0.082924716 0.008082981 -0.045138765 -0.27279672 0.17581882 0.11969793 -0.073550224 -0.41466138 -0.03268269 0.05009539 0.19915146 0.0078061987 0.057585586 0.083375216 0.043236274 -0.027068246 -0.09305908 -0.031833317 -0.19429761 -0.07792946 -0.018217845 -0.053423885 -0.17566077 -0.15652709 -0.13636719 -0.08763883 -0.22336154 -0.017948588 0.14487043 0.22797142 -0.074771784 0.1304206 0.13779593 -0.024733573 -0.10969211 -0.028662605 -0.13029845 -0.1502747 -0.17641205 0.10956925 -0.0615803 0.01919198 -0.011637656 0.19242834 -0.08979267 -0.048024546 -0.1862981 0.05867456 -0.12854205 0.06671313 -0.12715721 -0.16460912 0.015635211 -0.23104131 0.035795618 0.08552299 0.072458886 -0.08622763 0.013497954 0.11656694 -0.040719856 0.02718953 0.07076769 0.20811 0.023299234 -0.17124557 -0.10814642 -0.037685256 0.040573224 -0.13576704 0.4573253 -0.017762067 -0.121192515 -0.07717414 -0.19772646 0.17428465 -0.009814365 -0.119204946 -0.094305485 0.22938439 0.007971115 0.061839476 0.17184484 0.068559065 0.07058175 -0.09593001 -0.21154568 0.19780128 -0.17645566 0.070134655 0.12631707 -0.019892732 -0.14130723 -0.031948723 0.09137605 0.1970638 0.1588076 0.05930276 -0.039327685 0.13765156 0.0076491744 0.1571767 -0.19436237 -0.06345488 -0.15474755 0.27465126 -0.07736487 -0.03482121 0.061081607 -0.14272782 -0.1638279 -0.022726424 -0.11986252 0.09980829 -0.021967389 -0.10580652 -0.06108345 0.028989432 -0.023461401 0.022865783 0.08561357 0.14273947 -0.009268881 -0.064629555 -0.07690532 0.09828393 -0.1811548 0.2024097 0.08968549 -0.20698635 0.008255861 0.25757626 -0.11152433 0.12603603 0.16938539 -0.124198385 -0.015312856 0.037000626 -0.10083682 -0.010049024 0.24214377 -0.04660545 0.09022595 -0.1673857 -0.21442272 0.0057860836 0.060982045 0.11791647 -0.36457062 0.083108604 -0.21941558 -0.015066163 0.31643552 0.06107068 -0.05511374 -0.13049515 -0.08288016 0.12874638 0.21253178 -0.18591091 -0.021771394 0.008250951 0.087659076 0.03354606 0.044986654 -0.012899453 0.04368863 0.044313017 0.037718523 0.1621748 -0.18497378 -0.022889951 0.23176606 -0.15336406 -0.074598275 -0.08839431 -0.0070651504 0.044160776 -0.19379112 0.040622097
泪奔 -0.08834241 0.046633266 -0.17038907 0.19168678 0.057858407 0.054277696 -0.0717797 -0.03468499 -0.14675364 -0.32769802 0.14955689 0.02963964 -0.07962713 0.024041044 0.016013518 -0.026537394 -0.07029534 -0.118151315 0.064841226 0.040957008 0.08938665 0.011993537 0.01727094 -0.10424997 0.07559006 0.104734905 -0.05781944 -0.058099505 -0.13007174 0.073260054 -0.22521786 0.011986511 -0.07586389 -0.05918766 0.07954053 -0.04249145 -0.039455414 -0.09969692 0.13263848 0.028518384 -0.12795772 -0.059216432 0.075634785 -0.14197268 0.16019875 0.057440132 -0.026856003 -0.017340768 -0.28349856 -0.09331236 0.07328443 -0.08030347 0.15835533 0.12996155 -0.106351234 -0.11073492 -0.013267425 0.007024477 0.09780583 -0.1200539 -0.082413584 0.08045287 0.09528685 0.01986809 0.071441844 0.21824531 0.008566535 0.020973066 0.110287175 -0.009565986 0.13623025 -0.011404047 -0.047158223 -0.014869496 -0.14494449 0.0386217 0.07457784 0.18351996 0.07759527 0.14029309 -0.021783814 0.11874249 -0.008155398 0.02159349 0.10685699 -0.071327075 0.12280887 -0.006589697 -0.07473974 0.019492552 -0.04909524 -0.027903121 -0.11922852 0.07687116 -0.20015056 -0.14142992 -0.060037717 -0.1667461 0.12721421 -0.06296037 0.077906825 -0.18240032 0.23391418 -0.2197175 -0.11234891 -0.02155371 -0.06201055 -0.32263026 0.057201628 -0.07248612 0.0068357475 -0.12703761 -0.04948327 0.029071309 -0.0564581 0.030549658 0.056785714 0.0012918079 0.06326741 0.10437709 -0.084176436 0.03551711 -0.012725844 -0.20179588 0.15255873 0.15329179 -0.0060105384 -0.35642523 0.012888113 -0.031136712 0.117698014 0.042248342 0.009293852 0.09392549 0.06472054 0.0028901834 -0.13149378 -0.04984496 -0.14437428 -0.010965305 -0.00719063 -0.07996543 -0.18032601 -0.18159275 -0.14719328 -0.09504044 -0.23354597 -0.07190615 0.15519196 0.18975873 -0.06570131 0.17598422 0.073947 -0.027417673 -0.06489059 -0.036249008 -0.1124522 -0.16484202 -0.16697857 0.12223031 -0.06193317 0.025982602 0.0093551 0.12120364 -0.09931211 -0.061978176 -0.117941365 0.092779145 -0.061207253 0.072902255 -0.16529325 -0.095826074 0.03170304 -0.18783891 0.026535403 0.07374026 0.107512064 -0.046261646 0.015309927 0.028395403 -0.022465575 -0.042482987 0.11117707 0.19906096 0.081277475 -0.12069964 -0.14588535 0.0052354257 0.0070933583 -0.14810625 0.41539344 -0.027356679 -0.11018609 -0.033831563 -0.13013257 0.16061991 -0.034609035 -0.11095568 -0.03814929 0.19691977 0.050966192 0.0017312778 0.17102247 0.017650403 0.032714874 -0.05398921 -0.12946813 0.13868937 -0.11775566 0.049180776 0.15261428 0.030266436 -0.1310365 -0.057485808 0.07517946 0.13407993 0.1776823 0.05795326 0.019362235 0.17137702 -0.010305602 0.11024746 -0.18028504 -0.018981751 -0.07547104 0.24980615 -0.13520132 -0.07441741 0.07960463 -0.1442704 -0.20532408 -0.030708725 -0.08894462 0.11370528 -0.0048762015 -0.06990439 -0.07171681 0.057505704 0.004751936 0.023377188 0.0897874 0.13638276 -0.0008560543 -0.120084494 -0.050244 0.09748755 -0.15495469 0.14090498 0.13703065 -0.120438926 0.049973622 0.21747161 -0.15623054 0.15328266 0.08443757 -0.1461792 0.0029265473 0.06579651 -0.116636015 -0.0077816704 0.22971052 -0.035166048 0.010131233 -0.16371489 -0.22142059 -0.0069731697 0.09866056 0.0831212 -0.3552426 0.04454021 -0.17429918 0.0058167186 0.31827185 0.068915285 -1.9263392e-05 -0.035418753 -0.052833863 0.13567567 0.22296728 -0.14449337 -0.010525063 0.034480788 0.10020805 0.042323273 0.076943696 -0.043035872 0.05993468 0.053930458 0.048067056 0.19916277 -0.18212858 -0.04947178 0.1958055 -0.10612146 -0.07215251 -0.042658005 -0.0069541503 0.061639484 -0.11654463 0.0035238878
看 -0.105864465 0.106507845 -0.14402743 0.25397593 0.05661232 0.023441881 -0.042341955 -0.09875322 -0.1501122 -0.3686521 0.20713188 0.007074647 -0.094196975 0.07697925 0.015450848 -0.087755114 -0.08264112 -0.08349882 0.08325885 -0.011516343 0.0673371 -0.031124149 0.060532764 -0.093757994 0.08985035 0.06377623 -0.05083602 -0.02286506 -0.12845336 0.053389534 -0.26696035 -0.04078536 -0.11658964 -0.05253568 0.067731544 -0.04811091 -0.053998154 -0.13146216 0.10631921 0.04126907 -0.14514577 -0.09259516 0.043223444 -0.118620485 0.1439115 0.09368631 -0.05787155 -0.03209089 -0.28288448 -0.06001944 0.065107614 -0.11981985 0.19088186 0.14649585 -0.1666893 -0.103902556 -0.026021443 0.028374404 0.07051767 -0.16790286 -0.057617832 0.16116661 0.1333165 0.061241046 0.04575584 0.22177799 0.009237203 0.023583774 0.11459003 -0.025580332 0.21880779 -0.06737052 -0.021669928 -0.033888463 -0.10188514 0.045949448 0.06481866 0.16526513 0.056269858 0.10176542 0.014667724 0.15594582 -0.06227992 0.085481845 0.08905319 -0.09660376 0.12955444 0.0064610923 -0.04773645 0.0062949485 -0.0031454894 -0.072616115 -0.109728426 0.079893224 -0.167196 -0.094728366 -0.075897336 -0.16736135 0.1848334 -0.048694365 0.039377075 -0.16662529 0.25482243 -0.269349 -0.1285212 -0.0074028163 -0.03586563 -0.3214423 0.03296498 -0.082612775 -0.00042139663 -0.16633546 -0.11761136 0.025991397 -0.075142965 0.078348204 0.09549932 0.018265042 0.07285263 0.14230283 -0.112243205 0.04673395 -0.02799149 -0.23662321 0.16805665 0.15784042 -0.06341809 -0.36273298 -0.03381273 0.023802666 0.15864845 0.017162886 0.022249462 0.059233595 0.03879538 -0.017128458 -0.101065196 -0.012808508 -0.16023031 -0.07754686 -0.010897413 -0.04406177 -0.14805822 -0.17130284 -0.11612734 -0.078004055 -0.24250345 -0.03402569 0.17145815 0.2546851 -0.094568744 0.14584309 0.12466966 -0.05227413 -0.1197966 -0.03924478 -0.103275664 -0.18098359 -0.16325575 0.09629657 -0.042334888 0.0018165911 -0.0030696078 0.16129406 -0.12757513 -0.045253787 -0.18340108 0.09046068 -0.121936634 0.059523836 -0.15224873 -0.1416179 0.025784621 -0.25176466 0.041952197 0.07832401 0.07092868 -0.07668862 0.033548884 0.07790363 -0.021288402 0.015494671 0.058750935 0.16824026 0.03654264 -0.19153067 -0.09969721 -0.03057911 0.050010365 -0.11266488 0.4577692 -0.060530517 -0.10799178 -0.0689366 -0.16190153 0.17871554 -0.03115999 -0.11261589 -0.089048736 0.24962404 0.04603474 0.017096678 0.16166091 0.0781574 0.08193112 -0.080189034 -0.20304517 0.18333918 -0.14315121 0.07621477 0.14142935 -0.0102465255 -0.10980903 -0.0410089 0.06761585 0.2129784 0.15946975 0.06584349 -0.013539563 0.13327953 -0.02406334 0.15621963 -0.21034308 -0.05064918 -0.13675979 0.27228376 -0.08979666 -0.044970095 0.061123855 -0.15700991 -0.14861578 -0.025907053 -0.12220432 0.076553166 0.010914025 -0.10637397 -0.07558386 0.049785152 -0.015187408 0.0037751277 0.08604885 0.14154816 0.012440303 -0.10399499 -0.06512608 0.118501924 -0.14671148 0.18323657 0.11335521 -0.16384749 0.010575945 0.25558558 -0.11126427 0.13814272 0.12552173 -0.13770552 -0.038677774 0.031806394 -0.14884247 -0.015680917 0.22362088 -0.018359087 0.051344708 -0.13960263 -0.21319048 -0.01034361 0.08382904 0.10714024 -0.3429686 0.08212501 -0.19075005 -0.035848692 0.3102925 0.08396762 -0.0092993695 -0.10023499 -0.04592914 0.10761578 0.22650008 -0.1927042 -0.020955203 0.003877179 0.06851144 0.010541703 0.07709988 -0.018654864 0.09987146 0.00018818291 0.01212261 0.159658 -0.17136295 -0.025231112 0.22657815 -0.14771655 -0.057820056 -0.10226723 -0.011728679 0.046470314 -0.16153407 0.0420097
这个 -0.11159759 0.10612501 -0.14352301 0.26819745 0.04952848 0.020442588 -0.039953414 -0.10164512 -0.1465391 -0.37629256 0.21091235 0.0017887951 -0.09541139 0.07626744 0.016195118 -0.08764053 -0.0749918 -0.07915837 0.07520779 -0.012395492 0.058653887 -0.0316408 0.05924477 -0.091013305 0.08434383 0.06892017 -0.0448978 -0.020910077 -0.12978084 0.056914695 -0.27483985 -0.042369023 -0.118838295 -0.041680597 0.071916096 -0.05086917 -0.050187282 -0.12998268 0.111632735 0.041239522 -0.15669054 -0.094260074 0.045132343 -0.118929416 0.14843217 0.09483836 -0.05281549 -0.02855081 -0.28783116 -0.059111428 0.05904838 -0.11634856 0.20004071 0.14557591 -0.1671561 -0.103072315 -0.029892964 0.03510725 0.07356849 -0.17616667 -0.06753868 0.16607381 0.13214576 0.061847363 0.052923717 0.22186333 0.01303553 0.031262595 0.1158155 -0.033763643 0.22611888 -0.06548526 -0.025829026 -0.034308054 -0.10061267 0.0390844 0.061516594 0.17501603 0.06152679 0.10634264 0.0054332237 0.15772869 -0.06888312 0.08416028 0.08742165 -0.10372402 0.140053 0.0022297902 -0.051757377 0.0042901244 -0.0073775714 -0.06724777 -0.112612106 0.081756465 -0.16641377 -0.08999257 -0.07646847 -0.16709901 0.18683946 -0.042300742 0.03755216 -0.17132276 0.26340222 -0.27928263 -0.12977134 0.00014374775 -0.026441986 -0.3270616 0.031095657 -0.09010031 0.003133866 -0.16495466 -0.118851736 0.025159143 -0.07457885 0.07921055 0.09600301 0.016091175 0.0664837 0.1433333 -0.11524883 0.044478003 -0.023828728 -0.23538409 0.16679049 0.1650635 -0.06904233 -0.35897693 -0.03378321 0.023052124 0.15268223 0.02161126 0.019138454 0.06281948 0.04197712 -0.01773303 -0.09169696 -0.012244802 -0.1554144 -0.07665367 -0.007873323 -0.038753614 -0.15671693 -0.17623104 -0.10827945 -0.07699727 -0.25204274 -0.036035195 0.17722327 0.26444146 -0.0959196 0.14916354 0.12712732 -0.056187782 -0.11813837 -0.037503704 -0.10389439 -0.18909784 -0.16342305 0.100394785 -0.038387734 -0.0034804903 -0.008936103 0.15832628 -0.12790358 -0.048244294 -0.19004358 0.09783744 -0.12952642 0.056908265 -0.15824263 -0.13630313 0.025323538 -0.26056445 0.041619983 0.08149203 0.0716027 -0.077003956 0.039615992 0.072684124 -0.020579688 0.014124428 0.0529158 0.1664301 0.035562776 -0.19521266 -0.10671361 -0.029369954 0.053929478 -0.10881238 0.46668565 -0.067808285 -0.11130695 -0.064104624 -0.16180201 0.18340984 -0.039047558 -0.110397205 -0.0910372 0.2579632 0.054496743 0.012498098 0.16340603 0.07329482 0.080847465 -0.079039395 -0.2115826 0.18781264 -0.13987233 0.07318624 0.14108548 -0.0022375793 -0.10431435 -0.046073142 0.064242706 0.22197919 0.15617271 0.06163307 -0.009662219 0.13818258 -0.025196005 0.16209742 -0.21639988 -0.049257006 -0.13520664 0.27984756 -0.09231737 -0.052044585 0.06977739 -0.15698247 -0.14573513 -0.025770241 -0.12754093 0.071947016 0.010756283 -0.1055125 -0.08111661 0.04987348 -0.0073034824 0.010652516 0.09211465 0.14660004 0.011440747 -0.11092631 -0.06408793 0.12203933 -0.14316934 0.18161607 0.1143418 -0.16100766 0.01165321 0.2602317 -0.11265209 0.13652313 0.1296961 -0.13610475 -0.04659236 0.03250189 -0.15456478 -0.020556085 0.22582273 -0.02019377 0.048246257 -0.14152777 -0.21633875 -0.011849759 0.08667664 0.10906444 -0.3482745 0.08391737 -0.19226786 -0.040483985 0.31337655 0.09245517 -0.007441387 -0.09451131 -0.04684734 0.106153004 0.23120116 -0.19052124 -0.01741234 0.005476795 0.06637776 0.008860953 0.076253876 -0.01988811 0.102061436 -0.011598526 0.009343726 0.16661373 -0.16467659 -0.02517258 0.23507954 -0.15118393 -0.050670702 -0.105448306 -0.012672536 0.05146755 -0.1660782 0.051209986
好 -0.109117076 0.10497409 -0.1588563 0.24352589 0.0634531 0.028788427 -0.042506117 -0.090167195 -0.14063178 -0.36722898 0.20191678 0.016239427 -0.08684276 0.07916418 0.009533757 -0.07995349 -0.080345474 -0.09540697 0.08881446 -0.013294856 0.06938667 -0.022918832 0.059449565 -0.09270233 0.095447354 0.062947884 -0.05349532 -0.04371101 -0.13177952 0.040649496 -0.24890989 -0.03628906 -0.10249534 -0.063455366 0.052879035 -0.061031353 -0.05056383 -0.11725702 0.093228444 0.024704618 -0.12763047 -0.09971404 0.045998458 -0.12662442 0.13524392 0.10074731 -0.062718846 -0.04262442 -0.273885 -0.063757084 0.07296735 -0.12567432 0.19316429 0.13865349 -0.1510586 -0.09728199 -0.017880347 0.031026157 0.06938361 -0.1631299 -0.04647215 0.13952456 0.1291062 0.059156347 0.05784285 0.22155264 0.012583404 0.03171772 0.11308887 -0.019991783 0.20371939 -0.06229551 -0.02349098 -0.032025952 -0.095226504 0.049871102 0.07080344 0.16065407 0.039762545 0.10154097 0.00974745 0.14486283 -0.04635781 0.07931062 0.07451553 -0.10009884 0.12533122 0.0116570685 -0.04186231 0.007649862 0.0033779088 -0.0661671 -0.092175335 0.088510126 -0.1745588 -0.08953951 -0.072214805 -0.16931213 0.18325764 -0.042624753 0.027711522 -0.15592088 0.24256445 -0.25057223 -0.12873839 -0.015594551 -0.030661253 -0.30672902 0.03832885 -0.08565915 -0.0065745325 -0.16356531 -0.10923388 0.03167911 -0.06842114 0.08468492 0.10300186 0.026372425 0.07694501 0.13376497 -0.095212944 0.031272147 -0.032732762 -0.23793815 0.16568501 0.13353436 -0.06787591 -0.36837107 -0.029394418 0.035977483 0.1623779 0.011145283 0.03908785 0.06674972 0.039850987 -0.024370944 -0.08846401 -0.017686952 -0.16348259 -0.07725572 -0.01085559 -0.043611825 -0.15594849 -0.1646533 -0.119195946 -0.084224224 -0.22805949 -0.023741405 0.1531732 0.23963119 -0.079844594 0.13217966 0.12588911 -0.042245574 -0.111815766 -0.03252672 -0.10806236 -0.16677994 -0.1567881 0.09535419 -0.046391096 0.004331362 -0.0053242254 0.16504514 -0.107920974 -0.05162571 -0.18260878 0.080073446 -0.12222713 0.061287712 -0.13377391 -0.14386062 0.018987589 -0.23370227 0.037157927 0.080878876 0.06686401 -0.07304923 0.021787012 0.0879024 -0.028442906 0.022029052 0.06457682 0.17640743 0.03131786 -0.17456713 -0.09946339 -0.033224016 0.047387473 -0.11958739 0.4403188 -0.045871228 -0.10592878 -0.07102146 -0.16257197 0.17751385 -0.026903896 -0.108097486 -0.08797493 0.22975963 0.032243576 0.03438499 0.1652268 0.0737587 0.07115652 -0.08260798 -0.2018839 0.183305 -0.14891559 0.07161203 0.13396344 -0.009916938 -0.112742186 -0.035549585 0.06912831 0.19965628 0.15193473 0.055230014 -0.022511205 0.13080113 -0.013564671 0.15380952 -0.19255535 -0.04596024 -0.13262182 0.26330706 -0.07921353 -0.040702257 0.06557376 -0.1495991 -0.14754981 -0.024783581 -0.1219077 0.07596794 -0.0021097711 -0.098180264 -0.07163871 0.044035826 -0.011817312 0.013067731 0.07847648 0.13513874 0.0028640777 -0.080963016 -0.06944206 0.10670426 -0.15418155 0.18059562 0.09884173 -0.17100284 0.007106361 0.24802738 -0.10780106 0.12254556 0.1372398 -0.12759213 -0.030640652 0.026245585 -0.12176458 -0.014826954 0.22111298 -0.032214105 0.06312513 -0.1435578 -0.20054343 -0.0014015747 0.07292742 0.10935419 -0.34156832 0.07776512 -0.19797632 -0.028432079 0.29902965 0.07689903 -0.025551138 -0.10731496 -0.061306313 0.11151718 0.21520628 -0.18462949 -0.01664076 0.014654009 0.076560915 0.019680798 0.0613576 -0.020963795 0.071249515 0.016997604 0.023878364 0.15673354 -0.16650835 -0.020962646 0.22206517 -0.14681587 -0.058920763 -0.09625317 -0.01062896 0.03878272 -0.1691727 0.038528267
他 -0.12057601 0.122261524 -0.15618706 0.28794175 0.06274199 0.020111049 -0.050487924 -0.11078338 -0.16650972 -0.4042302 0.22782992 0.0061918558 -0.10950563 0.08532572 0.022482526 -0.09976768 -0.09171448 -0.08946859 0.08705356 -0.013396412 0.071015984 -0.035001107 0.06497085 -0.09997189 0.09724548 0.067241915 -0.05749452 -0.027991187 -0.13790083 0.058997724 -0.29719397 -0.04657386 -0.12928757 -0.050231338 0.07553121 -0.053287487 -0.051687375 -0.140415 0.11870978 0.041684825 -0.16182245 -0.10190907 0.04560906 -0.12827699 0.16079855 0.103811905 -0.06104992 -0.033471618 -0.31419182 -0.06691909 0.062023945 -0.1319979 0.21715452 0.16179939 -0.18405896 -0.11385304 -0.033240344 0.03547535 0.076523535 -0.1877067 -0.065752245 0.18299082 0.14552744 0.06994822 0.05517021 0.243215 0.007755164 0.028479943 0.12648386 -0.040035874 0.2417554 -0.07255453 -0.02300081 -0.04239799 -0.1114882 0.043805823 0.07015733 0.18791354 0.066508405 0.11709546 0.009590066 0.16900232 -0.06710553 0.09423991 0.09789316 -0.109748736 0.1470522 0.007617386 -0.050988816 0.005321703 -0.0046481756 -0.07348197 -0.122563735 0.08768832 -0.18536931 -0.103944354 -0.083617516 -0.18912311 0.21266484 -0.052582838 0.036782783 -0.18503934 0.2831974 -0.30107123 -0.14438577 -0.004442638 -0.03101118 -0.3553534 0.037954483 -0.098116174 0.003524891 -0.18221383 -0.13053681 0.029315036 -0.07960775 0.0933294 0.10609584 0.021103133 0.07526264 0.15400302 -0.1256266 0.048769537 -0.029654685 -0.25901428 0.18872184 0.17642467 -0.072445124 -0.39979175 -0.039596822 0.03243384 0.17609918 0.017046431 0.026909478 0.067570806 0.03665028 -0.020512005 -0.11057597 -0.008650723 -0.1768003 -0.08400091 -0.007669262 -0.043334335 -0.16713555 -0.19145034 -0.11913582 -0.0904269 -0.270778 -0.03711349 0.19068527 0.28764367 -0.10208919 0.16063243 0.13781153 -0.059864726 -0.12996082 -0.04245592 -0.11329223 -0.20363992 -0.17352365 0.10637166 -0.046528127 0.0018328795 -0.0050459313 0.17465441 -0.139038 -0.053102557 -0.20360194 0.10270935 -0.13827196 0.065050274 -0.16456988 -0.15251182 0.03091159 -0.28155014 0.044105608 0.08929661 0.07980482 -0.083676524 0.04083791 0.08406145 -0.021911392 0.021044256 0.059612565 0.18418688 0.03624849 -0.2149017 -0.10990621 -0.02946141 0.059172686 -0.12187975 0.50212497 -0.068130545 -0.116978794 -0.070267804 -0.1768675 0.20161478 -0.038344186 -0.12004585 -0.10341376 0.27805597 0.052689724 0.020504702 0.17680793 0.08714121 0.088965885 -0.08978039 -0.22946757 0.2006035 -0.1534538 0.08554326 0.15394674 -0.0060886457 -0.11489109 -0.04414486 0.071521744 0.23624115 0.17350112 0.06619865 -0.014104491 0.14682242 -0.029620528 0.18152313 -0.23290546 -0.056039516 -0.14603812 0.30461627 -0.096085794 -0.053817205 0.07857877 -0.17676078 -0.15907146 -0.028277563 -0.13601705 0.07929348 0.011954262 -0.115631044 -0.08643499 0.058544382 -0.011125952 0.0064665996 0.09406872 0.15606812 0.01424556 -0.11366889 -0.07496365 0.1296539 -0.15517975 0.1985649 0.12476618 -0.18206371 0.006694524 0.28345546 -0.121928684 0.14848469 0.13307482 -0.15096682 -0.045619 0.036433443 -0.16019501 -0.025011951 0.25119856 -0.024204193 0.057292186 -0.15154995 -0.23815723 -0.012854874 0.0904523 0.11831663 -0.37470087 0.09050716 -0.2034673 -0.04299104 0.34285682 0.09216857 -0.012686617 -0.11027598 -0.05053628 0.11403826 0.24570209 -0.2108288 -0.021198478 0.001878239 0.075717345 0.0075332453 0.08113862 -0.018351734 0.11258879 -0.00884901 0.0073181344 0.17639767 -0.18203782 -0.030498374 0.255201 -0.16574022 -0.060464133 -0.11920255 -0.0145416 0.050557178 -0.18059905 0.050899018
太帅 -0.0872415 0.08990487 -0.12716323 0.18172958 0.058224652 0.040761013 -0.03636808 -0.07211898 -0.10455683 -0.29855737 0.15531147 0.02369404 -0.07994443 0.0637531 0.002323225 -0.06531927 -0.06686036 -0.091410555 0.084352344 -0.01824252 0.05824804 -0.010475819 0.041341484 -0.06544147 0.075550415 0.040269002 -0.04778226 -0.052388992 -0.1123076 0.022612328 -0.19577138 -0.02882986 -0.061328165 -0.06598477 0.019143097 -0.06881917 -0.039356876 -0.08541986 0.06853487 0.008685219 -0.091577806 -0.08924037 0.04076499 -0.109545335 0.09737555 0.09025596 -0.049523093 -0.051661067 -0.21927181 -0.050354052 0.056044757 -0.09991395 0.15366243 0.10396338 -0.112385675 -0.07076016 -8.66605e-05 0.02087439 0.050557848 -0.1317052 -0.02451873 0.09909133 0.10069691 0.051009566 0.06141584 0.18387614 0.013768908 0.02223492 0.07849341 -0.0050568352 0.13526285 -0.038408477 -0.01915202 -0.02462913 -0.08372136 0.049005482 0.06963505 0.121478826 0.016877592 0.06857416 0.016579919 0.10759475 -0.026436318 0.07196034 0.057706185 -0.07101621 0.08783968 0.020346124 -0.028748795 -0.0047533354 0.0035322288 -0.054227382 -0.050477076 0.08801353 -0.14606972 -0.057717163 -0.07284751 -0.14434484 0.14313881 -0.034372646 0.01577938 -0.119406044 0.18860178 -0.17735252 -0.104211256 -0.0045181545 -0.033008765 -0.22755165 0.02837675 -0.066192105 -0.021663731 -0.13606782 -0.08665702 0.02666272 -0.047740538 0.062996686 0.0881261 0.024136437 0.061988268 0.099688806 -0.06567604 0.0032707423 -0.020432036 -0.19759284 0.14460151 0.08255669 -0.05163082 -0.30327824 -0.017039387 0.05392972 0.13311131 0.00896015 0.0416416 0.052194376 0.041270703 -0.025212452 -0.06345035 -0.025716815 -0.11982229 -0.06529258 -0.011352826 -0.04317777 -0.1260538 -0.12367911 -0.10110272 -0.05681489 -0.16486484 -0.016423259 0.115693636 0.17594309 -0.0650921 0.09267619 0.108346485 -0.03026098 -0.08405015 -0.018457396 -0.1054991 -0.12744251 -0.12840287 0.07835572 -0.03433514 0.010779757 -0.0030357474 0.13952409 -0.06085943 -0.04121165 -0.14714731 0.05389974 -0.097922884 0.04912334 -0.099109046 -0.112467185 0.010105161 -0.1629986 0.024070391 0.05626536 0.049296033 -0.05736296 0.0040953686 0.08004462 -0.018090665 0.030956227 0.0550529 0.14573365 0.014744661 -0.12841599 -0.07188719 -0.020702591 0.034027115 -0.094453976 0.34730345 -0.028101264 -0.089985974 -0.06588001 -0.13060787 0.13942368 -0.012785316 -0.08992805 -0.06494781 0.17102906 0.009734795 0.03206111 0.13094859 0.060679913 0.054832675 -0.07460288 -0.16764669 0.14934595 -0.1234558 0.046797737 0.096230425 -0.02331849 -0.10518859 -0.021885555 0.059608262 0.15838711 0.120110035 0.04132138 -0.023550076 0.10288229 0.00028980782 0.11812652 -0.13190182 -0.040482096 -0.110432066 0.19186111 -0.054935794 -0.028129816 0.04373564 -0.10760984 -0.111479566 -0.024391416 -0.10342008 0.06650096 -0.013163451 -0.07561932 -0.061140124 0.032336786 -0.0055475626 0.019297356 0.060814574 0.105807476 -0.003774342 -0.044590652 -0.04659825 0.06859801 -0.1398885 0.13510746 0.07449508 -0.13854997 -0.0047034584 0.1907207 -0.08185144 0.08748459 0.12577541 -0.08327625 -0.019222956 0.015779033 -0.07630141 0.0037218945 0.17075069 -0.03752306 0.05902361 -0.119030066 -0.14140603 -0.0009317066 0.059421495 0.09247086 -0.2688845 0.06176538 -0.17027164 -0.017984778 0.22170588 0.04705147 -0.040313486 -0.10112744 -0.06284865 0.09145742 0.16840656 -0.13696176 -0.013854579 0.006660855 0.062814236 0.02610414 0.040855784 -0.016765103 0.039101157 0.033722594 0.029877355 0.11430615 -0.13227113 -0.011726368 0.17022155 -0.10717775 -0.04289169 -0.06436207 -0.012718285 0.030864416 -0.14134157 0.04145117
比心 -0.095465876 0.2578377 -0.06133745 0.025849158 -0.10037395 0.102343306 -0.033946402 -0.24688871 -0.22021244 -0.22851524 0.282207 -0.132845 -0.26784033 0.083636366 0.013373202 -0.14800176 -0.15273933 0.054512084 0.21992983 -0.08332938 0.10198975 -0.009721988 0.10440614 0.07154129 0.045196578 0.05696482 -0.15725303 0.058754545 -0.13969606 0.026353646 -0.19885135 -0.21826658 -0.00220513 -0.0052516493 0.0044808774 0.009430027 -0.07909354 -0.25620633 0.07158178 0.16636816 -0.18181193 -0.13374805 0.09991395 -0.11266949 0.10050006 0.16451143 0.08496482 0.00020239038 -0.38587144 -0.1186629 -0.08418366 0.05150049 0.36698008 0.014887422 -0.1702662 -0.05239274 0.11808806 0.1524426 0.0060953368 -0.28499475 0.0779022 0.03279937 0.14201538 0.054691635 0.17439221 0.2683628 -0.0022984454 0.09302268 0.074328244 -0.02521644 0.115540355 0.02827088 0.052383155 -0.09433316 -0.06362026 0.117315784 0.06698159 0.17481291 -0.041201852 -0.008335792 -0.07622873 0.15855388 0.053504806 0.021044705 0.007265381 0.052784923 0.10431931 -0.043793805 0.021352917 -0.16428447 -0.028414397 0.024996346 0.110013485 0.011945896 -0.043538675 0.11989133 -0.18663053 -0.24897705 0.029393673 -0.03265484 -0.06881494 -0.22961676 0.17806906 -0.20931768 -0.042696025 0.13562587 -0.1524349 -0.40296108 0.046002176 -0.0140030375 -0.1261298 -0.17453483 -0.076219864 0.069163755 -0.1876652 -0.093300775 0.113583766 0.06921138 -0.005364143 0.13975056 0.037449323 0.17983593 0.11660081 -0.3521747 0.2633951 -0.021319313 0.024392098 -0.23038535 -0.0023924452 0.16881767 0.040826343 -0.018192248 0.15794988 -0.15109307 0.04211122 0.022908635 -0.07738371 0.09459465 -0.1777029 -0.089743726 -0.09400548 -0.048554648 -0.18120374 -0.22124365 -0.062210623 -0.11900081 -0.064020656 -0.087189764 0.040645402 0.22126856 -0.11841691 0.17038687 0.25511017 -0.15637758 -0.11618814 0.056554798 -0.1933045 -0.24579133 -0.22489989 0.23521435 -0.08764984 -0.13654312 0.17636468 0.07150386 0.030617656 0.04403784 -0.2467181 0.2034959 -0.21577068 -0.010461578 -0.1821989 -0.07941186 0.17516185 -0.22427095 0.1046896 -0.05494253 -0.13062817 -0.19566998 -0.07659895 0.18183857 -0.009045011 0.17420982 0.0032771376 0.18778878 0.030887026 -0.04311248 -0.109216 0.04701828 0.045872904 0.05321846 0.4283374 -0.17787294 -0.04284176 0.031961974 -0.03166686 0.1377884 -0.014315444 0.003886485 0.019178296 0.1337493 0.12977378 0.16319905 0.19224991 0.22777432 -0.07744998 -0.14540443 -0.34186485 0.3110186 -0.20334084 -0.06725185 0.18124416 -0.12709984 -0.11925049 0.012678038 0.05235497 0.27255732 0.09149381 0.095635474 0.061549086 0.05550652 -0.10916727 0.0074550887 -0.20612082 0.0152987875 -0.044078935 0.05773755 -0.10701611 0.0208883 -0.06343351 -0.14011452 0.05426597 -0.059392743 -0.24239627 -0.02663003 -0.13394707 -0.26676667 -0.08150436 0.04294612 0.16264544 0.13078818 -0.027271988 0.10149316 0.08054438 -0.16279428 0.023468042 0.18562718 -0.21486996 0.21279748 0.011618659 -0.12402529 -0.13696258 0.32336602 0.018558098 0.11785998 0.0810789 -0.010970874 -0.12832797 0.121246055 -0.2513197 0.0849587 0.2214611 0.02730002 -0.033297986 -0.13833746 -0.111752704 -0.17576705 0.12608048 0.07791095 -0.33490568 0.21324296 -0.30906266 -0.051739912 0.1132666 0.2158983 0.09638679 -0.03349867 -0.12828025 -0.08287292 0.3505374 -0.22758372 -0.16185534 -0.05272439 0.10858901 0.14216697 0.07187991 -0.07160864 -0.00088255585 -0.14474572 -0.13701333 0.11134751 -0.22517847 0.14948247 0.05770781 -0.030997884 -0.0052177296 -0.15422297 -0.1490704 -0.044695787 -0.18151775 0.26991
都 -0.121833995 0.12701152 -0.14741944 0.29177552 0.049641043 0.01754902 -0.04594855 -0.118449606 -0.17136487 -0.40938243 0.2310874 -0.0001864183 -0.112517215 0.08728936 0.019438505 -0.10505072 -0.088036194 -0.07802742 0.082405046 -0.014018986 0.067180455 -0.042139094 0.06703397 -0.10585913 0.08952906 0.074203886 -0.047183413 -0.011857183 -0.14234799 0.063414544 -0.30652407 -0.051927608 -0.13534984 -0.038299818 0.08494205 -0.047664255 -0.057993475 -0.15089908 0.12500021 0.05603147 -0.1761991 -0.102240935 0.051957343 -0.1291363 0.16436963 0.10163209 -0.055804648 -0.025167715 -0.31595618 -0.06971367 0.057503577 -0.12743148 0.22150014 0.16405308 -0.18910006 -0.11535882 -0.036250185 0.034772962 0.07919451 -0.19216241 -0.06876995 0.18875545 0.15116571 0.06574135 0.050839096 0.24033149 0.018358752 0.03019862 0.12701558 -0.042207636 0.25297353 -0.07542971 -0.02753962 -0.040333632 -0.11378858 0.04377444 0.06309027 0.19527113 0.077662356 0.11821534 0.004406171 0.17698626 -0.077704355 0.09808399 0.10314034 -0.11150574 0.15460351 0.0051529766 -0.05552759 0.0015743165 -0.0047131074 -0.07496003 -0.1292525 0.077228464 -0.18163583 -0.09642738 -0.08384813 -0.18158062 0.20387918 -0.050995287 0.049783267 -0.1970278 0.29517838 -0.3142441 -0.1445843 0.0033014235 -0.032385636 -0.36664438 0.03375794 -0.09695461 0.0060718586 -0.18167958 -0.13128248 0.026136922 -0.08610551 0.08615054 0.1013053 0.013825793 0.071005434 0.16026753 -0.13317017 0.06039325 -0.02349468 -0.26321277 0.18507107 0.18493348 -0.06826985 -0.39305586 -0.037927147 0.024707051 0.16577867 0.02022824 0.017690033 0.0642676 0.04143349 -0.020359114 -0.10801687 -0.012711569 -0.16834399 -0.08651849 -0.0067629106 -0.043699488 -0.1656892 -0.19692713 -0.12213332 -0.08372621 -0.2816928 -0.038711265 0.20192385 0.29828808 -0.11184972 0.16941875 0.13479352 -0.066161476 -0.14143564 -0.045447312 -0.10671416 -0.21809268 -0.181677 0.11052251 -0.040709883 -0.008787665 -0.0035026495 0.17182782 -0.1437806 -0.04778752 -0.2086705 0.11573497 -0.13610002 0.064398356 -0.18318038 -0.15084878 0.038919542 -0.2960246 0.048779167 0.084931836 0.07581884 -0.086002335 0.04429411 0.075408064 -0.01731377 0.01066375 0.05844686 0.17753914 0.035995655 -0.22311844 -0.113230295 -0.028990183 0.06562438 -0.11634518 0.5150711 -0.0807528 -0.11898191 -0.07136023 -0.17159113 0.20013982 -0.040814854 -0.12511164 -0.103405684 0.2891299 0.064852744 0.0088159675 0.18113631 0.08928194 0.09255675 -0.091435745 -0.23468795 0.20682788 -0.15162681 0.08573295 0.16000578 -0.0024991345 -0.11515544 -0.049361706 0.06958177 0.2505254 0.17767946 0.06872498 -0.008768596 0.14846301 -0.034244485 0.18030523 -0.2433128 -0.053945456 -0.14378838 0.31278574 -0.10072904 -0.055615522 0.07530315 -0.17778791 -0.16115072 -0.03715646 -0.13913925 0.08020876 0.019328656 -0.12037383 -0.089963265 0.06175904 -0.0068375375 0.0056638336 0.10289585 0.15842882 0.01879643 -0.12675062 -0.0706346 0.13475329 -0.15606557 0.20451543 0.1307761 -0.1758773 0.008027095 0.29046178 -0.12176263 0.14997932 0.13504554 -0.15755267 -0.05571391 0.0362915 -0.18138282 -0.032781698 0.2547992 -0.014945416 0.051592913 -0.15000854 -0.2363126 -0.021812048 0.10075688 0.11825956 -0.37814653 0.096150875 -0.20771897 -0.04318301 0.3477772 0.10649855 -0.0033903886 -0.105744846 -0.041567367 0.11307563 0.2604702 -0.21557456 -0.024390312 0.0008631893 0.06702864 0.0070961234 0.08626926 -0.018978018 0.12798595 -0.018073902 -0.0016511219 0.17932515 -0.18060221 -0.028170234 0.25842646 -0.16200198 -0.053247962 -0.11890737 -0.018111948 0.053116396 -0.17347789 0.05486516
