845 300
的 -0.023466324 0.30431524 -0.11673881 0.0117252655 -0.030486954 -0.05518148 -0.03626076 0.053207513 -0.13488378 -0.095610954 0.23512256 -0.091154695 -0.0826305 0.12483237 -0.17875083 -0.022828117 -0.032812458 0.008970778 0.021135965 -0.053278647 -0.060996022 0.017692545 0.14486967 0.15127102 -0.18948425 0.05733356 0.09868786 -0.14064254 0.0397926 0.076851934 0.013147916 -0.10397268 0.004578575 0.07404581 -0.036924258 0.057015203 -0.0026908955 -0.0643843 0.016151348 -0.1924093 0.102528 -0.35064605 0.12683772 -0.14044638 0.07859332 -0.0113066975 -0.17244558 -0.07684069 -0.23037139 -0.19453637 -0.14178309 -0.103417605 0.26804984 0.08634204 0.045331385 0.037299052 0.101364136 0.25872487 0.18633604 -0.12090879 -0.054863058 0.13843447 -0.057050478 -0.027982201 0.06834289 0.22315137 0.12360354 0.12816483 0.23612076 -0.18337032 0.27494824 0.023985555 -0.077167764 -0.08213323 0.14983211 -0.012571601 -0.11641365 0.034919217 0.031286538 -0.023579547 -0.047644977 0.18213218 0.021311775 0.027038788 0.09806122 -0.06422628 -0.042510096 0.091493174 -0.028823001 0.06487918 0.026200896 -0.005267565 -0.2572255 -0.1986039 -0.020096157 0.051901653 -0.0014511024 -0.09746041 0.20900881 0.09313524 0.070935175 -0.25159192 0.39282495 -0.09639178 -0.26803723 0.19018269 -0.052644838 -0.13386635 -0.07102017 0.061632745 -0.020591415 0.00060714147 -0.048684064 0.003190327 0.042605054 0.024620757 0.12124244 -0.13286352 0.0008161724 -0.16536553 0.011837933 -0.026713368 0.04612035 -0.24256255 0.32351908 0.18228996 0.12656064 -0.06316768 -0.04112923 0.2319322 0.040285643 -0.042258047 -0.2057581 0.12188912 -0.07387828 -0.1482661 0.0060574543 -0.03879062 -0.032120753 -0.020819705 -0.03934345 0.04302747 -0.15332367 -0.2697767 0.04650405 0.010973282 0.014959812 0.014352977 -0.059824243 0.16036198 -0.11002711 0.11022638 0.21691117 -0.13322774 -0.1741638 -0.0057055624 -0.09468549 0.014123178 0.026805079 0.096576646 0.074864954 0.04880737 0.1169908 0.058717225 -0.19176607 -0.05180013 0.0137131205 0.20856547 -0.015281665 -0.054899946 0.0037705726 -0.09716342 -0.060497798 -0.09747113 0.023295965 0.024707595 0.031927843 0.0306905 0.12970272 -0.048231497 -0.080367014 -0.0041640853 -0.108866915 0.22238971 -0.092958875 -0.23071413 -0.26984376 -0.011878147 -0.11612931 0.09449876 0.14327963 0.041547656 0.06841817 0.16999584 -0.14407519 0.1971489 -0.27245325 0.028463833 0.20442343 -0.025484707 0.13190432 0.10414324 0.20394455 0.031956483 0.15777005 -0.025505321 -0.10320539 0.31224987 -0.13994135 0.04821234 0.23506257 -0.025248416 -0.03473756 -0.09692711 -0.014690893 0.1775394 0.0959884 0.050184395 0.09083122 0.22748357 -0.043930735 0.11004767 -0.12268767 0.1815882 -0.11837234 0.31693816 0.1260674 -0.16012698 -0.014813939 -0.33419937 -0.11109577 -0.030885313 0.18839815 0.1081202 0.09601746 -0.15952869 0.1071916 -0.24180911 0.06112668 0.048735913 0.09402052 0.15741351 0.16901796 0.1369321 -0.041945193 0.20452656 -0.09416545 0.13689594 0.07727366 -0.07353413 0.13780157 0.13528004 -0.19239369 0.09517909 -0.059320234 0.03713372 -0.16654918 0.0979869 -0.06616675 0.0055070147 0.15966596 -0.31477213 0.07152834 0.028198628 -0.3033912 0.1252243 -0.064883344 -0.06776219 -0.12341024 0.0901811 -0.09615478 0.13131113 0.109790094 0.009083278 -0.08473677 0.04018488 0.04815233 0.10063953 0.2919139 -0.03435869 -0.051255044 0.22394106 -0.048393685 -0.017325561 0.04241459 -0.20744157 -0.09488232 -0.068764046 0.012552933 -0.13473625 -0.10887632 0.23099202 0.24694961 -0.038471688 -0.11536848 -0.0065121306 -0.122378506 0.025682397 -0.25633928 0.17216758
赞赞 -0.04227525 0.24573445 -0.0769129 0.025106616 -0.044671707 -0.04421002 -0.023398219 0.08793331 -0.11850409 -0.07035408 0.09733743 -0.014340157 -0.03841446 0.005367763 -0.13573879 -0.03175091 -0.021951161 -0.07401779 0.011757459 -0.06671613 -0.06562852 0.02203481 0.111719854 0.10495938 -0.17081779 0.026892334 0.049664274 -0.10129716 0.08837372 0.014581581 0.017467512 -0.023425994 -0.014491144 0.094831064 -0.112359375 0.039040137 0.032363527 -0.07870676 0.01948652 -0.12073416 0.12482691 -0.28798288 0.10826314 -0.10047428 -0.02858299 0.058019146 -0.065920986 -0.069116436 -0.22778927 -0.100269005 -0.17345072 -0.071067266 0.2209057 0.04520197 0.053319678 0.04568239 0.092937365 0.25400156 0.08264755 -0.10031844 -0.07494023 0.029150192 0.016398642 0.07904042 0.06276536 0.17789653 0.1409676 0.15760215 0.14834224 -0.13882616 0.08729008 0.07936524 -0.07504373 -0.019031737 0.13931711 -0.0023098474 -0.0793624 0.09610535 0.049847182 0.036202107 -0.054240756 0.1090976 -0.0047251326 -0.05649293 0.008976256 -0.05136274 0.02266905 0.013480889 0.011654875 -0.027419366 0.00976316 0.032319717 -0.16328044 -0.12787479 -0.064592466 0.11671512 -0.031490356 -0.13832395 0.1372051 0.024536869 0.015048275 -0.18934776 0.23803568 -0.04393858 -0.18305501 0.19921926 -0.03004293 -0.061343234 -0.011488079 -0.028777758 -0.0046520964 -0.034620095 0.030240081 0.04066115 0.012255185 0.071052335 0.05630821 -0.10385537 -0.0052075805 -0.1130067 -0.025956793 0.0178825 0.0440061 -0.24142094 0.2483294 0.12132566 0.06134478 0.0056780204 -0.02010204 0.20256832 0.019143142 0.00053364725 -0.06433317 0.031627227 0.012901376 -0.11440862 0.028678425 -0.089236364 0.041910637 -0.028436124 -0.04737711 0.030286929 -0.13987288 -0.20592237 0.017289704 -0.06146687 -0.029141901 0.016012704 0.009812565 0.12726465 -0.033391733 0.03218244 0.12970994 -0.14736532 -0.10124057 0.002568436 -0.13292795 0.019709643 0.007963781 0.10041663 0.056559667 0.065936185 0.059458308 0.03970144 -0.0500718 0.007551202 -0.03678208 0.13632764 -0.0063821757 -0.021046586 0.06826267 0.045889772 0.040539775 -0.01417733 -0.050639655 -0.005648744 0.072932616 0.05973473 0.110949494 -0.05179448 -0.05620701 0.030026289 -0.07713937 0.15565012 -0.07687678 -0.16967735 -0.16409455 0.037231553 -0.10907679 0.109056495 0.042199995 0.008547761 0.022731904 0.06821654 -0.051151745 0.13506906 -0.14693944 -0.03311532 0.043317843 0.03125895 0.13551539 0.047165338 0.14896652 0.014502332 0.08386144 0.020009233 -0.102663755 0.16616923 -0.047559246 0.0073466385 0.040082347 -0.016767018 0.028353922 -0.078045726 0.028655257 0.11667604 0.13693674 0.089948066 0.031148355 0.20198491 -0.03367223 0.04017785 -0.045256056 0.12827195 -0.015404218 0.20605856 0.06826571 -0.038634323 0.006104918 -0.21397251 -0.020889364 -0.07852992 0.13158062 0.0057165753 0.076018125 -0.06295783 0.016811365 -0.1127793 0.05633786 0.073525734 0.048804775 0.11275145 0.048450887 0.08842101 -0.00970358 0.06207865 -0.0026680478 0.058194183 0.043337364 -0.021486454 0.025919577 0.12339051 -0.1285062 0.018569784 -0.041253388 0.026413405 -0.16407067 0.04081127 -0.0016361409 0.040794306 0.111212544 -0.19845308 0.04356963 0.0030636743 -0.18821488 0.04914344 -0.09008208 -0.009397497 -0.10515695 0.13617773 -0.073457696 0.060956534 0.051460695 -0.038017754 -0.06470906 -0.018925685 -0.037943393 0.05166655 0.18198325 0.0051265038 -0.02179981 0.19589761 -0.089851305 -0.027222674 0.013223536 -0.03571738 -0.0749222 -0.04253873 0.05071404 -0.09020191 -0.008338743 0.25676015 0.1479238 -0.02511916 -0.042268664 0.026067287 -0.07300975 -0.002562304 -0.16121154 0.10776281
我 -0.026606161 0.2909781 -0.11202223 0.0073034037 -0.022122616 -0.048539896 -0.029072989 0.046615724 -0.13164425 -0.09289962 0.23648874 -0.095267266 -0.08065207 0.12922361 -0.16644698 -0.017813407 -0.030463343 0.01808462 0.0152297355 -0.0569384 -0.055759467 0.012001667 0.1338791 0.15370996 -0.17267378 0.05090487 0.09203301 -0.13065055 0.028801225 0.07756834 0.008873764 -0.102613516 0.0052906657 0.07373763 -0.03130585 0.059506893 -0.009457478 -0.061015945 0.017119892 -0.1863638 0.09502203 -0.32762295 0.116760135 -0.14198689 0.09082616 -0.020471592 -0.17617954 -0.06785369 -0.21666422 -0.19386844 -0.1279524 -0.10277306 0.2573914 0.08968064 0.04447747 0.034653094 0.09599414 0.24276078 0.18717898 -0.112319395 -0.054677248 0.14455552 -0.059253637 -0.041814025 0.07011794 0.2225187 0.11741826 0.12041994 0.23448804 -0.18059112 0.27935573 0.020041863 -0.072924025 -0.091364324 0.13749388 -0.0069310414 -0.11339313 0.022987392 0.020337354 -0.0247595 -0.0355908 0.17418082 0.025976555 0.033879235 0.10866483 -0.058491874 -0.04181665 0.0998816 -0.029742789 0.06971103 0.02137 -0.0101993205 -0.24791844 -0.19575746 -0.0136063695 0.036321953 0.0015863375 -0.08401145 0.20851326 0.09015823 0.07735788 -0.24923547 0.38680795 -0.09480232 -0.26430836 0.17389831 -0.051794074 -0.12753876 -0.07067136 0.06664173 -0.013024366 0.0046090614 -0.0529665 -0.0015305215 0.043592367 0.016458925 0.12005096 -0.124750614 -0.0062139723 -0.16010807 0.011568318 -0.033123445 0.047819696 -0.23818502 0.310767 0.18504228 0.12082348 -0.064654686 -0.03807185 0.22455135 0.039993346 -0.050313905 -0.2087348 0.12865867 -0.07555903 -0.14116326 0.0014961936 -0.033742595 -0.03768598 -0.017312044 -0.03280286 0.042024706 -0.14414814 -0.2685631 0.05229583 0.010202736 0.02068951 0.025403678 -0.0669179 0.15868343 -0.11631781 0.12073973 0.21590886 -0.12524305 -0.1689468 0.00049652974 -0.09247955 0.007900273 0.02593074 0.09330862 0.07968141 0.03833213 0.123073675 0.057463806 -0.19010633 -0.056840215 0.01924716 0.2057971 -0.017582202 -0.06203975 -0.0052491934 -0.107006386 -0.06671024 -0.10150292 0.026665399 0.028635599 0.032608684 0.02279772 0.12396696 -0.03896765 -0.07563218 -0.0076759583 -0.1023478 0.21627837 -0.08960734 -0.2167872 -0.2636428 -0.019253923 -0.1071687 0.08708959 0.14821054 0.04562106 0.06835449 0.18055171 -0.14559507 0.18703161 -0.2700976 0.030609062 0.20833291 -0.03488401 0.12744828 0.102820836 0.20446125 0.03592244 0.150211 -0.033134773 -0.10069105 0.3083042 -0.13565414 0.04892824 0.24279849 -0.024287809 -0.037693378 -0.09917622 -0.02090671 0.17764123 0.08567992 0.04981642 0.08816554 0.21538632 -0.043250944 0.11392007 -0.12495723 0.16840754 -0.12730686 0.31146753 0.13021685 -0.1588836 -0.015508626 -0.32871598 -0.11883022 -0.022480128 0.18214884 0.10823105 0.08822369 -0.17053302 0.11603264 -0.24311638 0.061971046 0.04835686 0.09155692 0.158595 0.17092113 0.13825557 -0.045203403 0.21317054 -0.10285067 0.14242257 0.07114228 -0.074151285 0.1317208 0.13644968 -0.19584346 0.09989583 -0.054251738 0.047005855 -0.16401777 0.103808805 -0.06740592 -0.0059793578 0.14954649 -0.31019798 0.06403725 0.015634282 -0.29847303 0.12526676 -0.05538363 -0.072280094 -0.118753634 0.07922297 -0.0966721 0.13453132 0.112641826 0.017726688 -0.07952138 0.03817601 0.06094908 0.100782506 0.2969472 -0.03776063 -0.05393946 0.2115543 -0.04064817 -0.01186316 0.046382703 -0.21527365 -0.0953031 -0.06378021 0.0067462306 -0.13121794 -0.10817015 0.21223792 0.24365483 -0.040693358 -0.12071499 -0.0037281248 -0.120568536 0.02072539 -0.24709807 0.17280835
你 -0.024764523 0.30324733 -0.11273384 0.014057923 -0.030917441 -0.053516734 -0.03258823 0.05700703 -0.13505302 -0.093080334 0.23157503 -0.08792482 -0.08243337 0.11962535 -0.17490572 -0.025874775 -0.029692717 0.0047030444 0.017127762 -0.060798295 -0.06262966 0.015242964 0.14366217 0.15106863 -0.18433453 0.053913556 0.092925325 -0.13795137 0.044058345 0.07164014 0.010918653 -0.098691165 0.007705267 0.078570515 -0.04135051 0.06012472 -0.003411997 -0.06350276 0.01502776 -0.19070199 0.10646222 -0.34654665 0.12370306 -0.14046828 0.075198345 -0.008282124 -0.17069681 -0.07442699 -0.23283139 -0.19061404 -0.1435047 -0.10420123 0.26890907 0.087981 0.05012547 0.041059487 0.104324415 0.26292476 0.18069494 -0.11902767 -0.05863308 0.13628313 -0.054993387 -0.02692154 0.07251549 0.22426136 0.12724519 0.1335966 0.23538497 -0.18359838 0.26904875 0.028166337 -0.07684662 -0.08522461 0.14763303 -0.007924838 -0.11712448 0.03452193 0.03136666 -0.01839137 -0.047316976 0.17550276 0.025345054 0.025219105 0.099429466 -0.0611879 -0.037293207 0.09465491 -0.026393646 0.059708495 0.025694586 -0.0025033494 -0.25480288 -0.19628613 -0.0230988 0.05262644 0.0026033581 -0.0998429 0.20988537 0.09041181 0.06853305 -0.25289923 0.3908696 -0.095662475 -0.26830715 0.19198893 -0.052045826 -0.12868395 -0.07094482 0.0550793 -0.013018119 0.0010267261 -0.046847347 0.0019045214 0.04068428 0.025949113 0.117347695 -0.1306711 -0.004169837 -0.16678894 0.006161464 -0.0252437 0.051424652 -0.2463472 0.3245298 0.18296891 0.1222489 -0.060977157 -0.040443353 0.2329778 0.037068658 -0.044106677 -0.2022111 0.11855642 -0.07294211 -0.14705689 0.0027253076 -0.042925805 -0.029504804 -0.020368777 -0.037373576 0.045129124 -0.15231013 -0.27289957 0.044721927 0.007744925 0.016142963 0.01838376 -0.0597985 0.16414186 -0.10742892 0.11206852 0.21499202 -0.13428172 -0.17188059 -0.0011935362 -0.101966284 0.015213019 0.027087932 0.10121139 0.078426905 0.045567397 0.11792683 0.06035009 -0.18742172 -0.053352974 0.01821767 0.20947957 -0.015573614 -0.055821467 0.00710223 -0.09307547 -0.05563306 -0.09598305 0.016758924 0.02303729 0.03868451 0.03458098 0.13039711 -0.049438804 -0.08128188 0.0019508512 -0.105179645 0.22096448 -0.089700155 -0.22512703 -0.2706535 -0.0121261785 -0.11716509 0.094612695 0.14149334 0.04290387 0.06585432 0.17258185 -0.14193575 0.19281532 -0.2702175 0.024501873 0.19941743 -0.024139814 0.13618799 0.10305385 0.2027772 0.03799806 0.15302603 -0.027374748 -0.10783088 0.30470347 -0.13574177 0.04692109 0.22898342 -0.026970899 -0.03533873 -0.100563206 -0.015795112 0.17820302 0.10190693 0.05510252 0.091265 0.227282 -0.045025326 0.11099472 -0.11939504 0.17586975 -0.11647861 0.31198424 0.12865552 -0.15652719 -0.014168459 -0.33508992 -0.11114733 -0.030950513 0.18830206 0.10362686 0.093622625 -0.16157831 0.10583519 -0.24025352 0.061653946 0.05595681 0.0941994 0.15698273 0.16653699 0.13908097 -0.038104545 0.20282482 -0.093062036 0.13526924 0.07340509 -0.07254509 0.12910119 0.13602287 -0.1937679 0.09423537 -0.058422755 0.0378245 -0.17131202 0.09655345 -0.061750945 0.0008447393 0.15412742 -0.31397432 0.06839049 0.023053207 -0.29957634 0.12022599 -0.062638 -0.0629822 -0.12265793 0.08726602 -0.09792738 0.1308574 0.11143786 0.0053729326 -0.08431521 0.033613972 0.04702867 0.09922069 0.29569116 -0.033608355 -0.05292238 0.2218391 -0.048517894 -0.016011437 0.044315834 -0.20440422 -0.09502205 -0.068862624 0.013894758 -0.13623929 -0.10380768 0.2319936 0.24284148 -0.042633638 -0.1133269 -0.003936739 -0.12056871 0.021218926 -0.24895346 0.1707245
员工 -0.023835871 0.29476616 -0.10814948 0.01042565 -0.02379537 -0.05147028 -0.0318868 0.051340345 -0.13009107 -0.09335213 0.22933903 -0.089540325 -0.07992921 0.12544715 -0.17130907 -0.023862485 -0.031459827 0.012854833 0.018147988 -0.050865617 -0.05725582 0.0155653935 0.14057927 0.147683 -0.17949125 0.05493276 0.09367492 -0.13428761 0.036353957 0.07260677 0.009735373 -0.101790525 0.008596314 0.074138 -0.029842177 0.05665339 -0.008660281 -0.06118906 0.016565295 -0.19077298 0.10161182 -0.33139846 0.11826934 -0.13791369 0.08423659 -0.018189274 -0.17076685 -0.071480975 -0.22450235 -0.19258 -0.13043049 -0.098280065 0.2577102 0.085420966 0.046699453 0.03502559 0.099667795 0.24548046 0.18162498 -0.11513784 -0.049977828 0.14065145 -0.05883154 -0.030717928 0.068535514 0.21629198 0.11751182 0.12217122 0.2340856 -0.17695504 0.27404344 0.018153327 -0.07281331 -0.08649766 0.14422497 -0.011675353 -0.11354059 0.026203183 0.027002107 -0.025957637 -0.03953386 0.17296731 0.02348202 0.03125496 0.102449186 -0.059521537 -0.045883268 0.09864631 -0.030821951 0.06900923 0.026406182 -0.006793717 -0.24743335 -0.19763456 -0.015758453 0.04116902 0.0024751124 -0.09057667 0.20419241 0.09487964 0.07254301 -0.24243596 0.3816423 -0.09647593 -0.26415324 0.18102111 -0.05094006 -0.1298739 -0.07303638 0.06505575 -0.017214373 0.007464294 -0.05111738 -0.00074483076 0.044525634 0.01630503 0.117423706 -0.12938485 -0.004765474 -0.16183008 0.012185021 -0.026448209 0.048665944 -0.23259352 0.3117404 0.1770788 0.12572643 -0.06453625 -0.04188886 0.2252154 0.038424253 -0.046906453 -0.20638439 0.12179203 -0.07660433 -0.14129834 0.0020628492 -0.03539323 -0.036046054 -0.017942198 -0.03339881 0.041081615 -0.14631346 -0.26031518 0.045200672 0.014132566 0.0200295 0.018970702 -0.06578935 0.15323138 -0.11335819 0.11083557 0.2102833 -0.12767325 -0.17397758 -0.002870109 -0.089349695 0.014175446 0.02771139 0.095045745 0.07271508 0.04254951 0.11697916 0.053356845 -0.18943362 -0.054254647 0.018679006 0.20603205 -0.013614831 -0.056946546 0.0002969123 -0.10012036 -0.06495889 -0.09736594 0.025712974 0.025586879 0.027448695 0.025788836 0.12689912 -0.044870254 -0.08012306 -0.0012230964 -0.10116221 0.22073187 -0.091891 -0.21625023 -0.26424998 -0.015039288 -0.10864133 0.086971276 0.14283223 0.047151245 0.06775018 0.17134811 -0.14333247 0.18674336 -0.268524 0.02999929 0.20682245 -0.030840943 0.12662585 0.10190138 0.1984497 0.031365097 0.15150993 -0.028084334 -0.10168301 0.3005895 -0.1388206 0.05047079 0.23541538 -0.02578606 -0.037937183 -0.09459922 -0.017585535 0.17635868 0.088578396 0.04672914 0.09239592 0.21646446 -0.04096537 0.11019212 -0.122966476 0.17455563 -0.12170687 0.30623525 0.12450989 -0.16166675 -0.015104172 -0.32882065 -0.11191172 -0.025243623 0.18428661 0.106242254 0.091190904 -0.16334319 0.11337903 -0.24276009 0.05702993 0.04569752 0.09328699 0.15493388 0.16915669 0.13747136 -0.043588497 0.20380652 -0.09598877 0.13534018 0.07260509 -0.07584623 0.13614939 0.13257793 -0.1865297 0.1006684 -0.058381096 0.0422088 -0.16148378 0.09951052 -0.064828165 -0.0032885994 0.15477206 -0.31021327 0.0705434 0.0263595 -0.29412696 0.12508725 -0.061340515 -0.0702508 -0.11727525 0.082228 -0.09620471 0.13211738 0.11117963 0.012524866 -0.08358251 0.042283285 0.05272918 0.09681347 0.28770903 -0.037056115 -0.051522456 0.2118439 -0.04186253 -0.018120043 0.044366036 -0.21000986 -0.09297436 -0.06364036 0.008315948 -0.13057287 -0.10985686 0.21901406 0.24519168 -0.03820134 -0.11676939 -0.0043396857 -0.11953852 0.02222514 -0.24808112 0.16931278
了 -0.029391555 0.3241646 -0.12088101 0.013106113 -0.029886542 -0.05643121 -0.038739942 0.05955973 -0.14468147 -0.10238873 0.24620084 -0.09266736 -0.08701424 0.12822646 -0.18995778 -0.026375784 -0.03263929 0.0038655489 0.017329624 -0.06162491 -0.064399 0.014141674 0.14951034 0.16104001 -0.1994571 0.055564217 0.10214021 -0.1485748 0.046004005 0.07786797 0.013830236 -0.10105875 0.00412925 0.083184876 -0.042620678 0.06110177 -0.00129982 -0.06899006 0.018802913 -0.20563146 0.11155004 -0.37032536 0.1358676 -0.15101872 0.08212903 -0.008537828 -0.18273956 -0.08171931 -0.24786577 -0.20398922 -0.15432003 -0.10842481 0.28785533 0.09394894 0.05206112 0.04369809 0.109460056 0.28225183 0.19225019 -0.13105722 -0.06373606 0.14855291 -0.054003853 -0.028508145 0.0761989 0.24245535 0.13774768 0.14255805 0.25258234 -0.19403479 0.2865163 0.028219014 -0.08601895 -0.0887981 0.154267 -0.006643464 -0.12649505 0.036973927 0.034508348 -0.022262363 -0.05033937 0.18667544 0.025920745 0.026725525 0.10664852 -0.06758584 -0.03944538 0.1017139 -0.033501178 0.06551178 0.025052482 -0.0027763126 -0.27307606 -0.2116287 -0.0280813 0.056269754 -0.0010423815 -0.10696956 0.22670315 0.09470798 0.07335473 -0.26939943 0.415833 -0.10329452 -0.29047522 0.20482029 -0.054673694 -0.13798058 -0.0746143 0.057976138 -0.015046721 0.00021282729 -0.05272557 0.002155288 0.042955153 0.027651025 0.12466778 -0.14173496 -0.0037875948 -0.1783499 0.010508827 -0.028488344 0.053287324 -0.26252237 0.34694093 0.19670889 0.13090138 -0.06484727 -0.043930266 0.24865869 0.039645042 -0.04649389 -0.21492459 0.12924075 -0.07601577 -0.16030182 0.005777418 -0.04403667 -0.032293517 -0.018497556 -0.038720995 0.04831586 -0.16272597 -0.2920441 0.048751906 0.005756164 0.017768264 0.019800039 -0.06404226 0.17447194 -0.113591455 0.11925648 0.23101988 -0.14476173 -0.18644749 -0.002887208 -0.11043947 0.012255268 0.027668169 0.104805164 0.08461708 0.04908697 0.12615748 0.06333077 -0.19594342 -0.054505683 0.016118187 0.22279967 -0.016085986 -0.06242329 0.004955863 -0.09827612 -0.06341102 -0.10370639 0.016575221 0.025857175 0.040821724 0.034268294 0.14069338 -0.051261973 -0.086094074 0.00052308815 -0.11324763 0.23679186 -0.09543691 -0.24023817 -0.28745693 -0.013561397 -0.12679711 0.099936485 0.15187553 0.044353876 0.066353716 0.18125622 -0.15376091 0.20943138 -0.29148528 0.025136864 0.21125007 -0.023362972 0.14619978 0.11151651 0.21880797 0.038527437 0.1630022 -0.028948776 -0.114742525 0.32703435 -0.1399841 0.052913662 0.24386574 -0.03154836 -0.0351202 -0.10848037 -0.018675735 0.19001976 0.107366405 0.058269694 0.09741395 0.24455598 -0.046125505 0.11694562 -0.12893723 0.18792313 -0.12508798 0.33390266 0.13399339 -0.16800992 -0.014734199 -0.3575845 -0.11601041 -0.033580866 0.19972703 0.11165976 0.09852445 -0.17195779 0.113076314 -0.25800648 0.067053825 0.05653108 0.10002213 0.16814916 0.17523746 0.14978904 -0.041424684 0.21530336 -0.09626624 0.14377119 0.076504715 -0.07560465 0.14072901 0.14949644 -0.2105328 0.09969534 -0.059930563 0.040977996 -0.18274216 0.10309687 -0.06400535 0.003126307 0.16825871 -0.33790687 0.070957154 0.023279583 -0.32088944 0.12992853 -0.07086011 -0.066139065 -0.13453723 0.094423346 -0.103572026 0.14177802 0.118834816 0.008125902 -0.092595875 0.037029177 0.050024007 0.10658392 0.3158355 -0.03415479 -0.052539345 0.23946314 -0.05381454 -0.014856247 0.045440592 -0.21670672 -0.10626301 -0.07443609 0.015710965 -0.14403185 -0.113862984 0.24618067 0.26340246 -0.04370016 -0.124241665 -0.0010813316 -0.13186774 0.023306556 -0.26788703 0.18537031
老板 -0.023723684 0.2492928 -0.09200342 0.010084627 -0.03032606 -0.041586734 -0.028681729 0.04612938 -0.11482886 -0.07191539 0.18754973 -0.074972816 -0.065620005 0.09881405 -0.14632018 -0.024644105 -0.02975758 0.004350221 0.016836027 -0.0493782 -0.050067928 0.015990566 0.1190817 0.12459938 -0.15301053 0.046755023 0.07767984 -0.11533357 0.038525857 0.054154955 0.01401989 -0.08608403 0.005755828 0.06418712 -0.035254862 0.049950734 0.00015713135 -0.057479814 0.010858198 -0.15573339 0.086718306 -0.28907883 0.10639019 -0.11126459 0.059050918 -0.0064351102 -0.13529259 -0.06275203 -0.19691047 -0.15688097 -0.118929 -0.08258382 0.22522253 0.06624852 0.04033094 0.030768547 0.08318914 0.21793477 0.14825666 -0.09701567 -0.04241852 0.10582992 -0.043956824 -0.014288327 0.051976644 0.18613482 0.105309576 0.11022983 0.19290416 -0.14950071 0.21824604 0.023913069 -0.06439562 -0.06673925 0.12159414 -0.00904492 -0.09235753 0.03334913 0.021679882 -0.013584985 -0.03965398 0.14881511 0.019793475 0.014476313 0.076690026 -0.055242214 -0.0342363 0.07022996 -0.0213032 0.043036595 0.021334548 0.00092190393 -0.20834275 -0.16357805 -0.021912564 0.052817296 -0.002519991 -0.08540975 0.16745892 0.06906592 0.053059388 -0.20713532 0.31845385 -0.079377085 -0.21584956 0.1621602 -0.040815614 -0.11216972 -0.055573992 0.047535505 -0.015803711 0.0014544169 -0.038613036 0.0031917673 0.034376025 0.021350551 0.09673475 -0.10916929 0.0019886638 -0.13586417 0.007414934 -0.016567195 0.037531193 -0.20268412 0.27044985 0.14418693 0.104279846 -0.044750147 -0.032095462 0.1975231 0.027186412 -0.035237074 -0.16249721 0.09635422 -0.056811105 -0.1231077 0.0042195306 -0.034984495 -0.022208987 -0.01820892 -0.035842825 0.037890177 -0.12541032 -0.22232659 0.03701782 0.0034764358 0.011527816 0.010332052 -0.04796128 0.13459706 -0.08440014 0.085910745 0.1738163 -0.11136938 -0.14268103 -0.0051306896 -0.08250037 0.014434256 0.023790883 0.08338889 0.06025608 0.044251602 0.09634521 0.05118111 -0.14711815 -0.03817274 0.011115612 0.17365995 -0.012172252 -0.045456316 0.008270442 -0.07384149 -0.045851406 -0.0750458 0.013506672 0.01611412 0.028623557 0.025641767 0.110822454 -0.041905083 -0.06700421 0.00090564555 -0.08670922 0.18515801 -0.07467539 -0.18791373 -0.22027321 -0.007981337 -0.10095227 0.084441654 0.113084204 0.03581193 0.05464586 0.13527566 -0.11305528 0.16008651 -0.22333431 0.022135545 0.1599983 -0.01861279 0.11578561 0.08655301 0.16354758 0.02735219 0.124113046 -0.015474933 -0.08789256 0.2513268 -0.11488322 0.03964 0.18595219 -0.025388412 -0.027466867 -0.07874092 -0.012496487 0.1440004 0.08415185 0.046443496 0.074226186 0.18655162 -0.037001003 0.08293029 -0.099693865 0.14959045 -0.08925597 0.25932652 0.09855323 -0.124106765 -0.012973393 -0.2780779 -0.08463137 -0.030643238 0.15522388 0.08294835 0.07469819 -0.12778221 0.08553964 -0.19642366 0.05068323 0.042948343 0.07663993 0.12667303 0.13363767 0.115475036 -0.031367484 0.16650853 -0.074564315 0.11003528 0.062186297 -0.055635605 0.10771104 0.11410929 -0.15444243 0.07341259 -0.0515008 0.031127501 -0.14102222 0.07928835 -0.05194804 0.008386015 0.13335761 -0.2520696 0.057416033 0.020128775 -0.24394017 0.09502101 -0.0524647 -0.05126024 -0.10508372 0.07907881 -0.08445055 0.106065035 0.08988064 0.007305825 -0.06859257 0.028028859 0.030347724 0.076492846 0.2384156 -0.029639369 -0.044614956 0.1829878 -0.03949405 -0.013424033 0.030493194 -0.1640627 -0.07828031 -0.05704653 0.012019231 -0.11115845 -0.08466569 0.20000663 0.19582881 -0.028828867 -0.09250995 -0.0015602264 -0.10111932 0.016702564 -0.20601892 0.14247116
捂脸 -0.018697668 0.24622706 -0.09690954 0.011496321 -0.007882178 -0.045698468 -0.034454003 0.04171585 -0.10234158 -0.07070693 0.19736557 -0.07098363 -0.064522654 0.11231294 -0.14938338 -0.013842589 -0.02483573 0.024553515 0.008773424 -0.04784282 -0.045095723 0.0010898592 0.10937022 0.13440914 -0.13561085 0.04174568 0.07871608 -0.105570234 0.028472763 0.07028017 0.0096177235 -0.07939202 0.0012434328 0.0539957 -0.031966344 0.046187617 -0.011504338 -0.051076837 0.025126413 -0.16177483 0.07611891 -0.27943686 0.09867919 -0.12543112 0.09150809 -0.026699634 -0.15876535 -0.062125593 -0.18414363 -0.16531405 -0.091844946 -0.07322888 0.21940567 0.083012216 0.03163252 0.028894886 0.0839657 0.20996206 0.16437973 -0.106099926 -0.054469343 0.13377877 -0.04934703 -0.03821841 0.07200856 0.18787329 0.090904206 0.10571991 0.21462312 -0.14393243 0.23688214 0.00393642 -0.06422306 -0.081160486 0.108916886 -0.004138 -0.09124961 0.021502811 0.021722276 -0.0323197 -0.026880331 0.13712396 0.023033254 0.032426592 0.087200746 -0.043110628 -0.031641886 0.085096434 -0.039172255 0.0689926 0.011961753 -0.0026684618 -0.20874774 -0.17104052 -0.020885888 0.016253196 -0.0011646127 -0.06962932 0.17259337 0.07059933 0.06587116 -0.22035237 0.32856146 -0.0870529 -0.23426865 0.1506126 -0.054258477 -0.11733081 -0.06783674 0.053678185 -0.009757531 0.01059613 -0.042466316 -0.0036447167 0.038450345 0.010583759 0.105084345 -0.1146394 -0.012957831 -0.12645221 0.005002752 -0.025341757 0.04487842 -0.19937655 0.2553759 0.16218379 0.102550656 -0.060833715 -0.039129723 0.18367796 0.033287615 -0.04006469 -0.17404467 0.10461422 -0.06209398 -0.120020516 -0.004782277 -0.030314013 -0.032723818 -0.0009551874 -0.032644425 0.036734853 -0.1299347 -0.21897385 0.051010106 0.011738974 0.017587753 0.020198876 -0.0630522 0.12946662 -0.10127637 0.104274035 0.19005223 -0.10160909 -0.15534481 -0.000601357 -0.075018086 -0.0050876555 0.017224891 0.0783497 0.068876214 0.040168397 0.1083979 0.045795165 -0.16933823 -0.045074534 0.026037699 0.17702833 -0.017606694 -0.059594873 -0.01870724 -0.09228907 -0.06855179 -0.099231996 0.020991897 0.027624872 0.028292594 0.014651462 0.09984649 -0.040552545 -0.07198771 -0.012507988 -0.08326489 0.18336675 -0.07835789 -0.18667127 -0.2249661 -0.019967169 -0.09628283 0.06333341 0.13980684 0.033106055 0.054542918 0.15494779 -0.1335043 0.15623395 -0.23259854 0.01768882 0.19031464 -0.025274843 0.1023418 0.09257744 0.18214229 0.03321256 0.12479927 -0.029142737 -0.08299734 0.2489666 -0.110023625 0.04228361 0.21159846 -0.030572493 -0.03947793 -0.09028905 -0.023113593 0.14896761 0.07095114 0.046004232 0.08188202 0.19152111 -0.032462064 0.104317576 -0.11092351 0.14698887 -0.10469687 0.2693588 0.10187828 -0.14674291 0.00026164134 -0.27257144 -0.1130362 -0.018012688 0.14597316 0.105497316 0.07023427 -0.15773173 0.11244096 -0.20421109 0.06183874 0.03750583 0.084003665 0.1255354 0.14995539 0.12672682 -0.030766742 0.18009335 -0.087937675 0.12075793 0.051500387 -0.07196931 0.114714205 0.1127893 -0.17887822 0.090332955 -0.051384423 0.043642763 -0.13845067 0.094688185 -0.061701655 -0.0024295342 0.12933156 -0.25962064 0.04781708 0.015344462 -0.2502464 0.10837747 -0.047440976 -0.058234572 -0.104035765 0.05387063 -0.08580357 0.1163705 0.10039146 0.026892949 -0.06868462 0.03523212 0.05752281 0.08821586 0.24544205 -0.030225819 -0.04420844 0.1818326 -0.028605318 -0.005987363 0.040429246 -0.19700122 -0.073139526 -0.047184147 -0.00049947744 -0.10132861 -0.09688667 0.17078859 0.20915097 -0.031472333 -0.10589457 -0.0054536774 -0.110878065 0.020885104 -0.20869298 0.1569615
玫瑰 -0.16601282 0.39678547 -0.124138445 0.17272347 -0.08352708 -0.10036749 0.037075523 0.19455491 -0.14472862 -0.22248818 -0.06487513 0.1680238 -0.009039437 -0.19448455 -0.26630172 -0.15841737 0.1225803 -0.23667753 0.010050359 -0.15773286 -0.22685982 -0.037168622 0.15265594 0.056403387 -0.30523103 -0.061410803 0.11162748 -0.17841183 0.2519069 -0.0702444 -0.055579484 0.13320023 -0.08895151 0.25599852 -0.31521386 -0.03181386 0.124478616 -0.13175188 0.091005124 -0.1498521 0.29184902 -0.47810856 0.24594979 -0.14352491 -0.22309406 0.273772 0.046862353 -0.16458604 -0.43416634 -0.13401741 -0.42028084 -0.007862145 0.3392175 0.009787394 0.20228256 0.17085032 0.19706753 0.5402546 -0.08537571 -0.2842424 -0.26455712 0.00332597 0.16653104 0.28078088 0.23085535 0.31510416 0.30060264 0.3566944 0.15657607 -0.25104824 -0.09699065 0.26343626 -0.22747889 -0.0061963466 0.27632293 0.042346247 -0.15575732 0.249282 0.23921669 0.15241385 -0.13152076 -0.0033816765 -0.12900667 -0.1917071 -0.21149333 -0.036437567 0.22576049 -0.058495417 0.026805915 -0.11476895 -0.060450047 0.0093016615 -0.18203127 -0.07018238 -0.28696454 0.30494916 -0.117153294 -0.33484304 0.21448894 -0.022444686 -0.10336964 -0.31705424 0.37602958 -0.045250632 -0.3223808 0.46345648 0.11453524 0.11516879 0.10721985 -0.24020194 0.11674326 -0.20002915 0.2325471 0.071696416 -0.048848804 0.18059492 -0.010718013 -0.16953194 -0.052031044 -0.20756818 -0.0486763 0.015451548 0.17390455 -0.48315957 0.35271773 0.17146291 0.006449679 0.08614748 -0.11169414 0.41271693 0.028710121 0.15521511 0.064631015 -0.025224615 0.15894498 -0.16651118 0.120204255 -0.26412362 0.2297111 0.007786282 -0.05817913 0.11157714 -0.3475445 -0.29177684 -0.040682126 -0.19043289 -0.1637808 0.04989019 0.07567295 0.19099234 0.14876407 0.017814228 0.115531825 -0.2829599 -0.09713189 -0.028798847 -0.3358141 -0.035463702 -0.0065575573 0.13044314 0.1388802 0.17897873 0.055575024 0.03888715 0.09293021 0.057495635 -0.14102185 0.1498065 0.004055156 -0.094825625 0.20963104 0.28645504 0.2118062 0.0024841677 -0.25115564 -0.13267432 0.25602126 0.21264341 0.21033987 -0.10880117 -0.1391364 0.15110019 -0.069808915 0.19876848 -0.1303907 -0.13987502 -0.25786117 0.13227451 -0.23364547 0.18095104 -0.06731709 -0.018715404 -0.09784595 -0.061680984 -0.003666294 0.17845532 -0.16895339 -0.19021182 -0.16901964 0.18011574 0.27926728 0.059553992 0.15995881 -0.067023635 -0.024339626 0.030531317 -0.20066313 -0.01765304 0.08763439 -0.013474201 -0.21983117 -0.039313823 0.17327715 -0.20879507 0.102153 0.22990443 0.32178786 0.20685175 -0.033180445 0.38448036 0.068360604 0.108602785 -0.03384378 0.10680941 0.020981954 0.26881742 0.08536337 0.124479 0.12271036 -0.22298683 0.17588615 -0.18994544 0.24615848 -0.13150024 0.1552467 -0.06358694 -0.09761135 0.0039056884 0.18177167 0.20482048 0.012478661 0.104505904 -0.04741469 0.090011016 -0.03390031 -0.16014382 0.13012451 -0.054583214 0.010561604 0.042108692 -0.035086874 0.2664987 -0.13439104 -0.09947255 0.04996111 -0.021870222 -0.3342509 -0.028726097 0.19110253 -0.003756412 0.24444889 -0.29593462 0.12432592 -0.12718116 -0.21705426 -0.06876325 -0.27928057 0.12458078 -0.2617201 0.325429 -0.08481573 0.021198932 0.0633362 -0.19876035 -0.26085472 -0.124738865 -0.16240548 0.18666956 0.24027932 0.15071394 0.13632964 0.35171342 -0.1863864 -0.059598006 -0.011481078 0.16861024 -0.16206051 -0.020760005 0.1800068 -0.039024238 0.13590226 0.51682407 0.2619402 -0.01321703 0.097582206 0.14041378 -0.069508605 -0.08962453 -0.20113051 0.1627054
好 -0.02304121 0.24658218 -0.094914265 0.008409871 -0.02599029 -0.04258967 -0.030774074 0.047203217 -0.11363583 -0.07384544 0.18525949 -0.070870176 -0.062849365 0.09763641 -0.14426625 -0.02368561 -0.023326753 0.0029877608 0.019904133 -0.045444418 -0.049526848 0.010466572 0.11764433 0.12103314 -0.15079547 0.046141855 0.07730252 -0.11532364 0.034650143 0.059662398 0.012008668 -0.079532936 0.0030458043 0.06349951 -0.031372294 0.04863208 -0.0032226145 -0.052626804 0.01135275 -0.1534574 0.086712904 -0.28384644 0.10361939 -0.112665884 0.059065614 -0.0045993854 -0.13308416 -0.06485871 -0.190692 -0.15521216 -0.11887219 -0.08499363 0.22014435 0.065348774 0.038887765 0.030638797 0.08285529 0.21108103 0.14755072 -0.098257534 -0.047052495 0.10377919 -0.037808895 -0.01654633 0.053030375 0.1795311 0.10645669 0.11086257 0.18703191 -0.14579578 0.21521616 0.021666624 -0.06459504 -0.06458623 0.120763816 -0.010552383 -0.091782026 0.03154521 0.022252833 -0.012716978 -0.042175263 0.14725378 0.01677389 0.013393307 0.07581588 -0.052241024 -0.027661521 0.07378871 -0.020992206 0.046526525 0.019686215 -0.0010348508 -0.2067793 -0.16157512 -0.020292789 0.051227525 0.0006925014 -0.08245351 0.16982163 0.07175681 0.054919127 -0.204282 0.31480068 -0.07970362 -0.21281353 0.15524684 -0.038942136 -0.10465589 -0.055520408 0.0446571 -0.012712574 -0.0035591065 -0.03495617 0.006666025 0.034707703 0.020958787 0.09339707 -0.10565328 0.0014875756 -0.13538644 0.005468042 -0.015134076 0.036768932 -0.19798636 0.26102197 0.1412771 0.101305 -0.045738596 -0.03173331 0.19018759 0.029489249 -0.031405807 -0.15655775 0.09003741 -0.05720661 -0.11801915 0.004175458 -0.03278963 -0.020182438 -0.018298674 -0.029980935 0.038208123 -0.12566966 -0.2196964 0.03065013 0.00187778 0.0112871975 0.012184569 -0.045818973 0.1296405 -0.08422844 0.084372535 0.17015699 -0.10951705 -0.13735038 -0.0011373602 -0.08197154 0.009136971 0.020184863 0.08105825 0.061281536 0.037313703 0.094452985 0.045976557 -0.14760408 -0.03943383 0.007542613 0.17039223 -0.015099603 -0.046756905 0.009302568 -0.072293535 -0.04427329 -0.0726112 0.014825901 0.019384075 0.029929295 0.028805746 0.10859684 -0.037060477 -0.06353719 0.0013743332 -0.083101526 0.18255353 -0.07263656 -0.18301867 -0.21470918 -0.009110596 -0.09497199 0.07816088 0.10676537 0.033527922 0.05451043 0.133413 -0.10708391 0.15545015 -0.21571577 0.020875817 0.16075407 -0.021949682 0.11177556 0.08298378 0.16303474 0.026540123 0.12161447 -0.017238261 -0.08389459 0.24675593 -0.11031966 0.038563382 0.1809894 -0.019137321 -0.023271164 -0.077035986 -0.014071769 0.13758816 0.08192094 0.042416267 0.06956296 0.18015416 -0.04027014 0.087280385 -0.0933697 0.14367805 -0.08896606 0.25322178 0.10072164 -0.12371003 -0.01021331 -0.2675435 -0.083761595 -0.028141093 0.15118137 0.08095561 0.07599262 -0.12520343 0.08186211 -0.1909184 0.05237089 0.04248753 0.07242978 0.123675935 0.13130455 0.11127441 -0.032672394 0.16068067 -0.072408386 0.10639335 0.060007196 -0.05370726 0.10288068 0.113402046 -0.15497817 0.07158556 -0.04642869 0.02994823 -0.13620579 0.07339366 -0.047698997 0.0069979387 0.12362707 -0.24825774 0.06014276 0.023100128 -0.24071705 0.09449488 -0.050539814 -0.050390013 -0.10303358 0.07396675 -0.079173766 0.10241019 0.08619431 0.00576482 -0.06863083 0.028973065 0.0287547 0.076203875 0.2356205 -0.030625023 -0.03894842 0.18200968 -0.042148244 -0.014220398 0.031898823 -0.15883008 -0.08034652 -0.05545265 0.013123501 -0.108407326 -0.08352289 0.19288416 0.19441749 -0.031264868 -0.08633285 -0.002250183 -0.09841014 0.01520901 -0.20058148 0.13790397
是 -0.022756351 0.30719507 -0.10984472 0.011854311 -0.024248363 -0.052392785 -0.03325176 0.054318853 -0.13334642 -0.097255245 0.22864947 -0.08929311 -0.0805232 0.11754373 -0.17424393 -0.027041921 -0.029087272 0.0045173042 0.016831176 -0.054781023 -0.05700995 0.019595286 0.1425796 0.1485997 -0.18690066 0.058097783 0.099771224 -0.13732389 0.03788878 0.07285487 0.010379631 -0.102958985 0.0043187896 0.07541003 -0.036234293 0.05546591 -0.0019507649 -0.060414955 0.021144092 -0.19211064 0.10678609 -0.34398815 0.12771039 -0.13883515 0.08022527 -0.010201263 -0.17249125 -0.07262051 -0.23280904 -0.19647281 -0.1444291 -0.097897634 0.26815784 0.08614835 0.051167965 0.040377427 0.1019225 0.25988188 0.18298632 -0.1220901 -0.05356838 0.13946055 -0.055337414 -0.025905628 0.0690302 0.22627342 0.12348842 0.1281923 0.23676774 -0.17923474 0.27382335 0.02360421 -0.081553064 -0.087521166 0.14719482 -0.012365037 -0.11781486 0.035493553 0.029935746 -0.022739736 -0.04266907 0.17867675 0.024175072 0.027648957 0.093873486 -0.06258154 -0.040677838 0.09439634 -0.030872133 0.0625411 0.021744393 -0.009094233 -0.25366706 -0.20001833 -0.020653393 0.048551165 -0.005263083 -0.097033456 0.20754682 0.0917 0.07337161 -0.25108454 0.39049816 -0.09717008 -0.2711411 0.19428822 -0.04737079 -0.13173589 -0.06694015 0.059361 -0.017026786 0.0031058998 -0.050464906 0.0009273071 0.046081517 0.019467112 0.12175098 -0.1326072 -0.0018294541 -0.16638802 0.013509314 -0.028117286 0.05182969 -0.24458145 0.319343 0.18147583 0.12565766 -0.063424185 -0.044108387 0.23260084 0.037379798 -0.044416573 -0.20681052 0.12607826 -0.07434092 -0.14580162 0.007335891 -0.03692174 -0.032359812 -0.021049226 -0.037394546 0.041237865 -0.15492891 -0.26469338 0.045862067 0.014330429 0.014538297 0.016829815 -0.06488774 0.159446 -0.10813452 0.11158039 0.21777314 -0.12991491 -0.17330167 -0.0022438609 -0.09780036 0.015602586 0.02517997 0.09300263 0.075802766 0.047620893 0.11706496 0.057717685 -0.18966411 -0.052439276 0.013748449 0.20857517 -0.01899943 -0.0586117 0.00060125993 -0.09905731 -0.061958004 -0.09325001 0.01943108 0.026404163 0.033916216 0.032623112 0.13195945 -0.045256406 -0.08095526 0.0019588068 -0.10400167 0.22638153 -0.095134065 -0.22440456 -0.26945943 -0.010341247 -0.11662469 0.08852776 0.14426045 0.047785792 0.06832147 0.17236204 -0.14499724 0.18996069 -0.27226973 0.02824509 0.20477475 -0.02729006 0.1313908 0.107065156 0.20112441 0.02976059 0.15184033 -0.030200278 -0.101705745 0.30630225 -0.13892713 0.047590476 0.23359218 -0.027760785 -0.033757508 -0.10169321 -0.016476456 0.18142715 0.093779854 0.054622367 0.09221534 0.22561347 -0.043054663 0.11537443 -0.121058375 0.17907675 -0.12208179 0.3157929 0.12557007 -0.15494001 -0.013552114 -0.33589923 -0.10466079 -0.02542523 0.18944512 0.105327256 0.09263101 -0.16789222 0.113605976 -0.24130271 0.060293414 0.046583652 0.09647307 0.15634148 0.16997212 0.1361752 -0.04420814 0.20094076 -0.09277281 0.13855883 0.07576933 -0.070212916 0.13929257 0.13928297 -0.19253731 0.09943547 -0.053977244 0.0401381 -0.16650857 0.097606175 -0.06533666 0.0038475592 0.16043408 -0.31292194 0.07318949 0.020099305 -0.30164024 0.12539211 -0.06427408 -0.06878908 -0.12360054 0.087834455 -0.10115656 0.1326555 0.11109497 0.009532637 -0.087910354 0.041536056 0.048948035 0.10098349 0.29247415 -0.035613813 -0.047788933 0.2203974 -0.047574643 -0.016939867 0.041856855 -0.2063243 -0.0989834 -0.069131725 0.009295686 -0.13205686 -0.108837895 0.23000681 0.25110874 -0.03727761 -0.114813596 -0.0030289304 -0.11955345 0.024416372 -0.25691167 0.1738103
格力 -0.025003262 0.30210197 -0.11551057 0.0058910185 -0.022388183 -0.052138243 -0.031844467 0.048799198 -0.1381295 -0.09270218 0.24109821 -0.091037445 -0.08247166 0.12883992 -0.17206326 -0.022092756 -0.033098727 0.0142846685 0.013214378 -0.05810728 -0.0598332 0.010028238 0.13755809 0.15525383 -0.17872573 0.04754547 0.09859767 -0.13780834 0.0335652 0.07862264 0.010666593 -0.099601015 0.005494804 0.076304264 -0.03335398 0.062051207 -0.005646512 -0.063984744 0.016960997 -0.19109978 0.100922436 -0.34044194 0.12234722 -0.14634933 0.087207116 -0.019198526 -0.1773808 -0.0715144 -0.22553957 -0.1979135 -0.13468042 -0.10815167 0.26361388 0.09162292 0.045916412 0.035426456 0.098591596 0.25493553 0.19028537 -0.12018128 -0.05547296 0.14729193 -0.058774278 -0.036979005 0.0724499 0.22859712 0.12540695 0.13149367 0.2428595 -0.18305069 0.28445113 0.021323537 -0.07323656 -0.09242434 0.14550413 -0.0046446836 -0.1190826 0.02764165 0.026475253 -0.02128965 -0.042269055 0.1774058 0.026027096 0.03225756 0.10730534 -0.05852716 -0.04342846 0.09961134 -0.029462248 0.068454996 0.025732921 -0.0102313 -0.2562352 -0.20145534 -0.022001646 0.044911083 0.00041729814 -0.09122099 0.21432267 0.089241356 0.07433307 -0.25463197 0.40099812 -0.09324117 -0.27305156 0.18502128 -0.053963643 -0.12933773 -0.06951865 0.06565927 -0.01075023 0.0016133426 -0.049810477 0.00013766129 0.043557223 0.018925896 0.12269733 -0.12770785 -0.0064859074 -0.16239394 0.009892476 -0.03427367 0.05026638 -0.24599905 0.31940097 0.19132389 0.12298157 -0.06348461 -0.038040817 0.23369224 0.037039705 -0.052639544 -0.21154252 0.12620357 -0.07285697 -0.14955755 0.0034762733 -0.038640052 -0.037574228 -0.017057955 -0.033143386 0.047041614 -0.14960213 -0.27853614 0.055413943 0.009550428 0.019975055 0.025414657 -0.06996358 0.16645265 -0.11467429 0.12096183 0.21976197 -0.13261147 -0.17816266 -0.0030273264 -0.09848191 0.00846439 0.028917698 0.096492566 0.08170595 0.040450428 0.1270685 0.057684503 -0.19339074 -0.054927338 0.019630857 0.20808129 -0.013992788 -0.06137927 -0.0034981314 -0.100700326 -0.06441892 -0.10460717 0.020821894 0.028146686 0.031622086 0.02399081 0.12841082 -0.043453835 -0.07517853 -0.0056896373 -0.10277864 0.22392172 -0.09423111 -0.22219977 -0.27247903 -0.015049935 -0.11365854 0.09293671 0.15056618 0.043297127 0.06867469 0.18332627 -0.15018466 0.1928423 -0.28013518 0.027234541 0.21131901 -0.032117367 0.13556466 0.108603574 0.20897612 0.03993635 0.15285118 -0.03125328 -0.10454185 0.31450662 -0.13902034 0.05282308 0.24363782 -0.027965745 -0.03546154 -0.10185867 -0.02189886 0.18291797 0.09558292 0.05098905 0.08861778 0.22827354 -0.045130096 0.11782282 -0.12318205 0.1753215 -0.12659182 0.32052952 0.1339886 -0.16111614 -0.014477533 -0.3381855 -0.11806547 -0.02513394 0.18789202 0.10965441 0.09230881 -0.17084388 0.1170822 -0.24730031 0.06840004 0.052649684 0.09566669 0.160591 0.17505835 0.1428781 -0.04020429 0.212008 -0.10332823 0.1431707 0.07029049 -0.07606607 0.13667734 0.1393464 -0.19991523 0.10040735 -0.055951856 0.04742651 -0.17039713 0.103060454 -0.06645092 -0.0045031006 0.1572493 -0.32078826 0.065553464 0.016135676 -0.30582884 0.12751126 -0.058959335 -0.07330402 -0.12373203 0.08380357 -0.09868251 0.13707551 0.116254956 0.011492698 -0.08498174 0.03605195 0.058946144 0.10492727 0.30199507 -0.03744087 -0.057510056 0.22288592 -0.044927757 -0.011811408 0.047994286 -0.21765336 -0.101802856 -0.06724146 0.0066452594 -0.13377835 -0.108220644 0.2258222 0.24823855 -0.042286497 -0.123120435 -0.003097523 -0.12622696 0.01974187 -0.25600332 0.17955504
赞赞赞 -0.035064347 0.25314224 -0.09106108 0.023626506 -0.035613313 -0.04666446 -0.02501911 0.063660465 -0.1157462 -0.08131901 0.14926735 -0.042256176 -0.056654472 0.055221613 -0.1483848 -0.032973334 -0.015195204 -0.029741555 0.01558037 -0.06031862 -0.06555321 0.010908359 0.11519793 0.11237411 -0.16414823 0.029107172 0.071275726 -0.11343318 0.062388137 0.04030688 0.008180869 -0.051783103 -0.0055051167 0.08068561 -0.07142621 0.042206064 0.01457472 -0.06264422 0.017218562 -0.14363597 0.10444182 -0.29322404 0.115926504 -0.11309329 0.021129573 0.029144347 -0.10934106 -0.06795305 -0.21236525 -0.13920651 -0.15252395 -0.07492184 0.22437032 0.05733464 0.050780274 0.04808825 0.094401345 0.2444226 0.115350515 -0.11148248 -0.06804743 0.08222098 -0.012824348 0.022270774 0.06896663 0.18661232 0.12712505 0.13454072 0.17570028 -0.1539013 0.16457047 0.05194463 -0.07824039 -0.050776403 0.13145393 -0.00046587278 -0.09745186 0.058666322 0.046695534 0.005229204 -0.05111243 0.12561233 0.005525396 -0.015067152 0.04329978 -0.045858867 0.0022533382 0.050193198 -0.011533062 0.019549267 0.009678568 0.006592665 -0.19492067 -0.14552087 -0.049578175 0.078417994 -0.011226414 -0.10876187 0.16687061 0.052869283 0.03179729 -0.20557879 0.30105773 -0.06803381 -0.21395494 0.18480773 -0.02923468 -0.082390875 -0.03704596 0.008346348 -0.0011809884 -0.022265293 -0.0059460117 0.014061346 0.020855121 0.042088397 0.08113244 -0.1080568 -0.0049810815 -0.13632396 -0.004646581 -0.007970201 0.04703363 -0.22770287 0.26665562 0.13707264 0.08528522 -0.02726066 -0.03467494 0.20843847 0.02825461 -0.0140230935 -0.123692974 0.07067759 -0.028103648 -0.12032839 0.0144009525 -0.061928555 0.007091837 -0.017131135 -0.037140932 0.041188665 -0.14307402 -0.22226237 0.023878122 -0.024340836 -0.007573125 0.014811155 -0.02427848 0.13568604 -0.055027056 0.072944164 0.16227512 -0.13007551 -0.1261329 -0.0047543226 -0.1113235 0.009086515 0.017715031 0.08969475 0.06695597 0.054040484 0.084725134 0.047806628 -0.10795946 -0.025069112 -0.00739341 0.1610039 -0.012544352 -0.043573488 0.032456692 -0.020491216 -0.011204805 -0.056855887 -0.01721333 0.0023516065 0.052876644 0.04995004 0.11590043 -0.045894783 -0.06611568 0.020971406 -0.08356977 0.17473486 -0.07380405 -0.17510715 -0.20863949 0.010295627 -0.10754064 0.09133747 0.08245812 0.020344064 0.034908734 0.10969037 -0.09231144 0.15300176 -0.19642012 -0.0029532232 0.1121642 0.0063474877 0.12741533 0.073471725 0.15781236 0.021722248 0.10247824 -0.009361991 -0.09711537 0.21062298 -0.078327775 0.02871357 0.1259944 -0.023871327 -0.0020489409 -0.09032325 0.0013625504 0.14157377 0.110598445 0.06392915 0.055683866 0.1991231 -0.030592334 0.078338124 -0.08254335 0.13551065 -0.06835682 0.24085897 0.09299776 -0.08584952 -0.0006513945 -0.2503176 -0.05289008 -0.049242247 0.15289478 0.049847566 0.07861072 -0.11188745 0.054878294 -0.16164854 0.06321453 0.06459296 0.06244621 0.120377004 0.102268174 0.10266522 -0.023822477 0.117589206 -0.043910597 0.08195745 0.051093485 -0.042095475 0.07900213 0.124359936 -0.1502114 0.050020494 -0.03846888 0.025139308 -0.15611418 0.06084725 -0.0206055 0.014022581 0.13017204 -0.23944238 0.05408995 0.008751751 -0.22924529 0.07327485 -0.07181596 -0.028242782 -0.1131415 0.1027925 -0.07354395 0.08864691 0.07832881 -0.019569894 -0.080937155 0.0055422015 0.0040645082 0.08025584 0.22403696 -0.0065310057 -0.02508827 0.19533531 -0.060840372 -0.015304676 0.027863033 -0.111802906 -0.08349539 -0.05450386 0.031425387 -0.10187426 -0.053588536 0.22808357 0.1862637 -0.027752837 -0.068495855 0.013815454 -0.09168531 0.0068039633 -0.19112584 0.13427636
鼓掌 -0.08937901 0.18763573 -0.13922688 0.077997565 -0.12282643 -0.042870604 -0.08840803 0.16091318 -0.118477754 -0.020404752 0.09819009 0.056160726 -0.07960165 -0.018272748 -0.17778346 -0.057197556 -0.032836895 -0.13737237 0.037480697 -0.13751268 -0.15492432 -0.01025955 0.07149328 0.10419873 -0.20431782 -0.040211104 0.025258781 -0.10761917 0.1897983 0.0006565692 0.082305074 0.06648899 -0.044571072 0.04105136 -0.21110909 0.05998907 0.088525735 -0.13947043 -0.041062728 -0.084286354 0.10249164 -0.38535208 0.18655859 -0.14500171 -0.14311235 0.18698452 -0.08773806 -0.082759894 -0.21765962 -0.016342416 -0.29072934 -0.14173126 0.26197156 -0.006045709 0.003936892 0.13672392 0.102921434 0.34478158 -0.03529484 -0.12601866 -0.15360351 -0.053511564 0.09698661 0.13454899 0.023948876 0.13516155 0.25653285 0.22601496 0.08142456 -0.21077517 0.039056458 0.11428774 -0.1073477 0.07518785 0.08286558 0.06607273 -0.12349094 0.17868017 0.13616616 0.036741603 -0.13826853 0.13996753 -0.013992341 -0.11146237 0.055857036 -0.021704635 0.14709422 -0.0061548143 0.030870162 -0.12699881 0.026975533 0.09180843 -0.25655907 -0.03764078 -0.15273413 0.22255245 0.041856423 -0.16462183 0.25596002 -0.07184255 -0.07495646 -0.17171198 0.31575644 -0.08141551 -0.21479052 0.2664836 -0.10323573 -0.049947277 -0.049690526 -0.15721196 0.06604988 -0.04456557 0.009681543 0.026792 -0.052087866 0.12862407 0.025043154 -0.09672467 0.06381761 -0.17236331 -0.08702728 -0.0046172 0.011222752 -0.2741514 0.3523306 0.032461755 0.08542378 0.047864024 -0.0092146285 0.22563456 -0.0074288775 0.07617515 0.018334862 -0.09066708 -0.012620626 -0.1924882 -0.053076055 -0.13336918 0.09954715 0.005431883 -0.10290882 0.13282198 -0.15041113 -0.2604561 -0.06377434 -0.14618362 -0.04118304 -0.07944868 0.10326478 0.1737758 0.084405184 0.04738003 0.15141903 -0.20147444 -0.080469914 -0.048867185 -0.19269459 0.06306955 0.014467522 0.16999719 0.09317456 0.17223741 0.04869044 0.12029918 0.015399774 0.019058079 -0.019211128 0.13042744 -0.03730372 0.0027341023 0.1546326 0.18372686 0.061832774 -0.03014114 -0.08775577 -0.05569667 0.15842953 0.17617606 0.18392344 -0.11251973 -0.028153619 0.09330232 -0.10997108 0.108596526 -0.021148352 -0.24526721 -0.23539494 0.10235684 -0.17828004 0.15966032 -0.0630389 -0.096880965 -0.022026611 0.035905506 -0.030945234 0.22355744 -0.12000164 -0.053341325 -0.040157415 0.122662336 0.17003837 -0.013158419 0.07034066 0.062103365 0.03290722 0.03219508 -0.10874699 0.17755342 0.05092254 0.02869515 -0.049103007 -0.07505442 0.029883644 -0.098905385 0.0072846226 0.036428217 0.24162735 0.09184959 -0.040929697 0.2127738 -0.058231678 -0.017024435 -0.058789965 0.10893923 0.07551264 0.18950604 0.0068375533 0.04785456 -0.04518586 -0.18362734 -0.0018284009 -0.1580105 0.13593017 -0.03959812 0.08124486 0.020514874 -0.07901971 -0.105991095 0.15639812 0.18634324 -0.006121113 0.09171513 -0.034597248 0.085563235 0.07926647 0.006119869 0.055038277 -0.049797863 0.055745177 0.028329931 -0.037576783 0.08274547 -0.17602529 -0.07759866 -0.09356932 -0.05472919 -0.2147881 -0.024977019 0.08458403 0.106851295 0.09996312 -0.15666923 -0.030968532 0.035065923 -0.22900511 -0.020961989 -0.10479617 0.12323502 -0.12022037 0.16624607 0.020550229 0.050956447 0.0466651 -0.14972125 -0.08601652 -0.12486552 -0.14068016 0.0789919 0.13779226 0.10491458 -0.072697036 0.2558937 -0.17713477 0.07306827 0.02255701 0.017532036 -0.022569582 -0.12283839 0.14363773 -0.1586854 0.02545194 0.35297552 0.08782438 -0.039490614 -0.057977643 0.00834714 -0.09315572 0.030475082 -0.07405589 0.04837088
有 -0.025607474 0.294507 -0.1103949 0.008939184 -0.026120286 -0.052072614 -0.03182388 0.05026032 -0.13192114 -0.091224276 0.22895722 -0.088200144 -0.07739528 0.121318154 -0.1721089 -0.02341774 -0.032071553 0.0078116446 0.016539846 -0.051508334 -0.05537138 0.014525978 0.13866024 0.14643987 -0.18197173 0.054100867 0.09707426 -0.13288711 0.03632015 0.074007586 0.013411634 -0.09974873 0.0061511085 0.07205605 -0.032801025 0.05541639 -0.0026623183 -0.062391542 0.015191284 -0.18948436 0.10073619 -0.3354558 0.119891435 -0.13940327 0.07828979 -0.01429539 -0.17008059 -0.07331219 -0.22375466 -0.19132684 -0.13679159 -0.09801581 0.26119044 0.08401614 0.046566222 0.039340064 0.09778714 0.24752927 0.17902951 -0.11784479 -0.054286715 0.13499898 -0.054713532 -0.029386925 0.06644915 0.21577512 0.119771324 0.124805875 0.22806863 -0.17849469 0.26905906 0.02221725 -0.07561588 -0.084255256 0.1442235 -0.008080586 -0.11379942 0.031146735 0.030465014 -0.023490127 -0.040626254 0.17358607 0.022825332 0.025395237 0.099418536 -0.05952705 -0.03948127 0.09500237 -0.030703226 0.06599679 0.02318985 -0.0074300203 -0.24606101 -0.19150491 -0.018775098 0.049446043 -0.00043281418 -0.091047004 0.20377819 0.088247776 0.06983526 -0.24342176 0.3821931 -0.093218654 -0.26230797 0.18265724 -0.049564507 -0.12994121 -0.069882765 0.061992984 -0.018495705 0.0028609762 -0.048657525 0.0003576489 0.041088793 0.019407807 0.11525672 -0.1265892 -0.0016290366 -0.16232753 0.013341033 -0.02661856 0.04727622 -0.23464088 0.31419617 0.17779219 0.122048214 -0.06265689 -0.04003724 0.2253138 0.039093528 -0.043650247 -0.20118327 0.11996324 -0.07293354 -0.14296891 0.0052858777 -0.034795646 -0.03357673 -0.019783491 -0.036372297 0.043796714 -0.14908826 -0.2598749 0.046371505 0.012825136 0.018493192 0.01774427 -0.05951841 0.15717795 -0.10780367 0.11022118 0.21211664 -0.12765397 -0.1685384 -0.0053847623 -0.09294299 0.012655789 0.025038615 0.09537669 0.07557111 0.04328763 0.11399496 0.05585011 -0.18611296 -0.0531952 0.017925702 0.20203198 -0.014507805 -0.056738347 0.00095599174 -0.09815719 -0.060407817 -0.09620673 0.022675449 0.025508756 0.03186329 0.029778276 0.12504622 -0.047493145 -0.07775024 -0.0037073363 -0.10442052 0.21891977 -0.08983571 -0.22011527 -0.2631334 -0.013386228 -0.11009962 0.0896798 0.13981554 0.044280607 0.065905534 0.16927002 -0.14007662 0.18941127 -0.26643327 0.024676226 0.20010558 -0.027179493 0.12947553 0.10076499 0.19946049 0.030686919 0.14898187 -0.02786791 -0.09891304 0.30150038 -0.13672262 0.050549667 0.2283166 -0.025121648 -0.03771435 -0.09781296 -0.016126456 0.17295377 0.091079414 0.048486833 0.09008251 0.21924283 -0.039765894 0.107531674 -0.11906096 0.17059219 -0.11766405 0.30688033 0.12552543 -0.15617578 -0.013354133 -0.32460526 -0.10772831 -0.025131634 0.18550198 0.10484239 0.09042831 -0.15897112 0.107680514 -0.2396568 0.060243633 0.049009606 0.09128296 0.15234335 0.1651493 0.1342313 -0.041532487 0.20011835 -0.09333844 0.13312046 0.07086438 -0.069293946 0.13368529 0.13319893 -0.18999271 0.09389117 -0.056427605 0.037945952 -0.16355728 0.0944853 -0.061625224 0.0010726587 0.15354575 -0.3069311 0.06864014 0.025528675 -0.29395634 0.12267354 -0.06120279 -0.0651892 -0.119113624 0.08275577 -0.09428066 0.12661152 0.1084726 0.00975278 -0.084477335 0.037870668 0.048512235 0.09698683 0.2876317 -0.034990255 -0.05156234 0.2153859 -0.04447314 -0.013537903 0.041530736 -0.20491695 -0.09555734 -0.06592637 0.011894821 -0.13222173 -0.10514124 0.21898578 0.24138254 -0.037470378 -0.115428925 -0.0041798907 -0.12061844 0.022032823 -0.24844563 0.1699637
赞 -0.02731179 0.26998052 -0.10390766 0.015379681 -0.032530967 -0.04764445 -0.029909119 0.05317187 -0.12273571 -0.08434954 0.1947095 -0.070199184 -0.07040001 0.09522826 -0.15946 -0.027010629 -0.025060127 -0.0032505805 0.01877026 -0.058472093 -0.060695786 0.012664845 0.12591411 0.13082965 -0.16761602 0.041578703 0.084193364 -0.12317481 0.048507385 0.05824729 0.012486282 -0.079243675 0.0039578807 0.07111475 -0.047181387 0.051081266 0.00081354415 -0.06056865 0.016442006 -0.16467729 0.09774235 -0.31264064 0.11804801 -0.125132 0.05239551 0.005784879 -0.14302655 -0.06924871 -0.21138187 -0.16580282 -0.14151733 -0.08980011 0.24289186 0.07059877 0.04375138 0.0421157 0.09367277 0.24184304 0.14906876 -0.11065287 -0.057060335 0.1108079 -0.035681557 -0.009548142 0.06551145 0.20036995 0.12057909 0.12586327 0.20068972 -0.1630881 0.2239877 0.03058001 -0.07288693 -0.0666352 0.13028932 -0.004433463 -0.103615254 0.041427307 0.035664685 -0.013354353 -0.050320476 0.15475015 0.01837188 0.008545349 0.075632304 -0.051773537 -0.020763746 0.07626258 -0.021897085 0.040735744 0.017226879 0.0011643822 -0.22268003 -0.16969499 -0.032086223 0.06269977 -0.0017776459 -0.09682156 0.18496685 0.07123831 0.052725777 -0.22172338 0.3445247 -0.08247164 -0.23554838 0.18165968 -0.043552376 -0.11157786 -0.055652235 0.037398115 -0.011147342 -0.008078659 -0.034306042 0.005613877 0.03267309 0.0262598 0.10092304 -0.11656006 0.00076063746 -0.14822412 0.0063746483 -0.017440131 0.0465628 -0.22524129 0.2911539 0.15501077 0.1075624 -0.044737387 -0.034881618 0.21492635 0.030957656 -0.03043863 -0.16416803 0.093684055 -0.05724165 -0.13052599 0.006422286 -0.043311708 -0.0152795445 -0.01881042 -0.036687844 0.044362105 -0.14014584 -0.24124132 0.034155782 -0.003400851 0.011230333 0.011070132 -0.046481304 0.14333308 -0.0839088 0.094111025 0.19076121 -0.1265024 -0.14956768 -0.0038765552 -0.097568735 0.011267716 0.022415344 0.09083277 0.06824194 0.048998583 0.10378497 0.054562066 -0.15066534 -0.040996417 0.00851593 0.18488692 -0.015037014 -0.05183747 0.012773549 -0.06622592 -0.038922943 -0.07863207 0.007891058 0.014380906 0.04006481 0.03824671 0.1221348 -0.043335225 -0.07236204 0.0089378785 -0.09390116 0.19499598 -0.07679496 -0.19761682 -0.23909095 -0.0045951796 -0.10973983 0.09037935 0.113331065 0.02768126 0.051020697 0.14269577 -0.11741689 0.17263752 -0.23259541 0.017377928 0.1646158 -0.011746745 0.12512492 0.08897008 0.1768594 0.033655517 0.1277553 -0.020244166 -0.09533201 0.2633286 -0.10986899 0.04007158 0.18459864 -0.028361222 -0.024644488 -0.0902343 -0.011854859 0.15406962 0.09550392 0.051460188 0.07404004 0.20171198 -0.037969757 0.09193509 -0.102495424 0.15268296 -0.09321725 0.27270004 0.107962 -0.12504835 -0.0128785325 -0.28928003 -0.082680605 -0.034984913 0.16638625 0.08290138 0.08389903 -0.13846545 0.0870165 -0.2017982 0.061499506 0.054439574 0.07749934 0.13363883 0.13700143 0.119902596 -0.02889544 0.16512972 -0.07426477 0.111647 0.06392402 -0.057440642 0.10656908 0.12600243 -0.16992503 0.07518949 -0.04949405 0.029207174 -0.15667865 0.08177429 -0.04541662 0.010576957 0.1397829 -0.27062005 0.060530733 0.02107438 -0.26342732 0.0964793 -0.06349669 -0.047342457 -0.11415857 0.08939768 -0.08508804 0.1098363 0.091422394 -0.0033626845 -0.077272035 0.023676543 0.027803803 0.08777832 0.2557544 -0.022559311 -0.04103114 0.19996636 -0.048962258 -0.011376351 0.033446293 -0.1658579 -0.08931463 -0.06401228 0.018548215 -0.119826615 -0.0868955 0.22107604 0.21157359 -0.031982966 -0.09233114 0.0011309173 -0.10681414 0.015317948 -0.2169292 0.15171702
吗 -0.028713811 0.3016427 -0.10886514 0.007650423 -0.025112923 -0.05387019 -0.035402793 0.052349973 -0.1321935 -0.09219191 0.23314638 -0.09083652 -0.08090804 0.12650001 -0.17384131 -0.026963217 -0.032185175 0.017714337 0.013178751 -0.057811923 -0.057812873 0.013211167 0.13624045 0.15615855 -0.17845389 0.05511948 0.09590016 -0.13369031 0.034651138 0.07617069 0.009835983 -0.100732744 0.0015777561 0.07343464 -0.038772576 0.061809216 -0.010312431 -0.06387954 0.020842915 -0.19594298 0.10101673 -0.3396388 0.12185387 -0.144088 0.08831921 -0.020180004 -0.1786815 -0.06859339 -0.22819412 -0.19521566 -0.1324115 -0.1011376 0.26802066 0.091336265 0.044528242 0.036416367 0.10280065 0.25528264 0.19107553 -0.12210902 -0.056006424 0.14315513 -0.056941025 -0.041077897 0.07441129 0.22914389 0.120479114 0.12909819 0.24276091 -0.18195179 0.27870622 0.018939074 -0.07672414 -0.09207105 0.13975912 -0.0045116674 -0.1128755 0.029166376 0.026637547 -0.028322395 -0.038679056 0.1755673 0.028568447 0.030974856 0.10951561 -0.057890553 -0.04052685 0.09958249 -0.03033346 0.07044131 0.023865625 -0.004054367 -0.2520812 -0.20543686 -0.018940203 0.04116119 0.0020530801 -0.09230935 0.20920202 0.091333486 0.07902019 -0.2570883 0.39354178 -0.09890971 -0.27391723 0.18403365 -0.053560864 -0.13390869 -0.07201578 0.06450322 -0.011769308 0.006010274 -0.05182393 0.0008583195 0.046166316 0.017059952 0.12283915 -0.13189608 -0.005759744 -0.16378336 0.009341376 -0.02806406 0.05069401 -0.24676105 0.31799 0.18709408 0.122581914 -0.06628893 -0.041291248 0.22718813 0.04030962 -0.05129679 -0.20918114 0.12840468 -0.07565806 -0.14633349 -0.0010178591 -0.037858646 -0.038011152 -0.01361262 -0.033343956 0.04335467 -0.15397644 -0.2690867 0.053112857 0.008391597 0.022445291 0.024144003 -0.06650624 0.16184828 -0.116019376 0.11954198 0.21896248 -0.13306406 -0.17548816 0.0020502293 -0.09575917 0.01010917 0.024692204 0.09882142 0.08167526 0.04126452 0.12219201 0.056787696 -0.19337064 -0.056710143 0.01925633 0.21238634 -0.017494736 -0.060083155 -0.0068813064 -0.10703837 -0.06485323 -0.104629986 0.023082776 0.027990637 0.032922205 0.02656355 0.12839642 -0.04706428 -0.07777673 -0.0058621657 -0.10162797 0.22102717 -0.094635494 -0.22057448 -0.27217618 -0.01664631 -0.11419435 0.08691437 0.15614896 0.045426797 0.067084685 0.18082695 -0.15074597 0.19175957 -0.27418467 0.024108326 0.21199924 -0.032315418 0.13406514 0.107334115 0.2104703 0.03726348 0.15521541 -0.032786973 -0.103428654 0.31044012 -0.1364466 0.047143675 0.24566539 -0.032329142 -0.034792166 -0.10715105 -0.023937248 0.18029973 0.089952506 0.053596675 0.095662445 0.22704257 -0.040014524 0.1182929 -0.12429474 0.17746738 -0.12880196 0.3172425 0.12996238 -0.15958214 -0.008663117 -0.3335945 -0.123192154 -0.024309771 0.1853533 0.1155455 0.089145705 -0.17710374 0.1161817 -0.24883173 0.062503465 0.045808516 0.0923187 0.15437126 0.17445831 0.14298147 -0.040456258 0.21198064 -0.099639684 0.1424054 0.06867806 -0.079144835 0.13724716 0.13841042 -0.201201 0.10332301 -0.058614414 0.04791412 -0.16895488 0.103194706 -0.06957184 -0.0026597406 0.15879701 -0.3171938 0.062088 0.022686398 -0.3036487 0.122194305 -0.059824485 -0.07348447 -0.1207154 0.08019321 -0.097932056 0.13570583 0.116428226 0.01932598 -0.07972131 0.040925037 0.060220227 0.10348339 0.29957348 -0.04126439 -0.055274263 0.22002783 -0.040297948 -0.013397777 0.048976637 -0.2170938 -0.09607115 -0.06556473 0.010974459 -0.1355026 -0.11065457 0.22061314 0.25062427 -0.042646464 -0.12268478 -0.005299897 -0.12814859 0.020697776 -0.2551808 0.1790273
这样 -0.019250255 0.25443065 -0.09500253 0.0070427945 -0.025573175 -0.041484363 -0.031305227 0.045849808 -0.11369122 -0.0755496 0.19899847 -0.0763885 -0.06830594 0.106629066 -0.14975783 -0.020783514 -0.025266044 0.007971875 0.017710758 -0.045590553 -0.050407007 0.012267323 0.12145944 0.124561295 -0.15447363 0.047287397 0.08153787 -0.11522372 0.03307196 0.06552405 0.00906635 -0.088991694 0.004420804 0.06425042 -0.02771972 0.04983828 -0.004979291 -0.050688814 0.01431669 -0.16067258 0.086445525 -0.28767487 0.10316437 -0.11656116 0.06855592 -0.0125484895 -0.14346403 -0.063781515 -0.19352683 -0.16374645 -0.11702165 -0.08691907 0.22582191 0.07130019 0.037646566 0.02960686 0.083639145 0.21348138 0.15977883 -0.09691004 -0.04520351 0.11716309 -0.04513814 -0.027001593 0.05766506 0.18565683 0.10599182 0.10958112 0.19892241 -0.1520413 0.2319621 0.016052065 -0.060665794 -0.07144706 0.12399136 -0.011856956 -0.097056486 0.029654184 0.02369965 -0.021708041 -0.038980488 0.15177022 0.019789357 0.024195956 0.08623328 -0.054500494 -0.037271734 0.079329036 -0.024308173 0.057044223 0.022677332 -0.0062182564 -0.21647672 -0.16712627 -0.014604878 0.04304411 0.0013595151 -0.07936022 0.17693141 0.07878319 0.06321006 -0.2116077 0.32805505 -0.08288827 -0.2265855 0.15841748 -0.042213466 -0.11530123 -0.061938014 0.05353643 -0.016203722 0.0024970984 -0.043320745 0.0006287062 0.037620984 0.016034054 0.10051479 -0.109771796 -0.0014809191 -0.14173906 0.0113732545 -0.023120217 0.038263515 -0.20231122 0.27218956 0.14916587 0.10748514 -0.053280793 -0.034869026 0.19226734 0.03091835 -0.0383985 -0.17297402 0.1009567 -0.06484094 -0.12445488 0.0013381155 -0.031646814 -0.026355974 -0.017845575 -0.030004222 0.03474137 -0.12757345 -0.22539078 0.03696015 0.010550026 0.014112976 0.013418195 -0.05509594 0.13353899 -0.09365201 0.09530703 0.18059903 -0.108563095 -0.1488367 -0.0021279126 -0.0802341 0.011436894 0.020837443 0.08316543 0.06478039 0.037528995 0.09960004 0.05139011 -0.162618 -0.044625 0.016079115 0.17721295 -0.014736045 -0.048584625 0.0020235858 -0.084641434 -0.053353507 -0.08183871 0.018470502 0.021853756 0.024743835 0.022663053 0.10804329 -0.040878527 -0.06806325 -0.002956216 -0.08742601 0.19012909 -0.07607561 -0.18907224 -0.22718395 -0.010497023 -0.09562835 0.079077706 0.12021062 0.036518183 0.05628291 0.14381164 -0.121422045 0.16322204 -0.22831266 0.025295502 0.1755453 -0.024976918 0.11058714 0.088539615 0.17013527 0.03163566 0.13052991 -0.02224004 -0.08658178 0.2608037 -0.1180742 0.041082997 0.1990959 -0.023857107 -0.03380603 -0.08083139 -0.014132271 0.14787261 0.07774012 0.043104675 0.08026377 0.187112 -0.04062602 0.09522012 -0.10413182 0.1495665 -0.10219964 0.26649824 0.10811446 -0.13740997 -0.012013178 -0.2827734 -0.09256954 -0.02229005 0.16041604 0.09110824 0.0798892 -0.1385152 0.094902374 -0.20773174 0.050194748 0.042990334 0.080544285 0.13290285 0.14393826 0.11723213 -0.033847038 0.17389296 -0.08117624 0.11427329 0.06539307 -0.06255795 0.113871075 0.11399601 -0.16063538 0.080430254 -0.050242424 0.034587726 -0.13779595 0.080896884 -0.054427493 0.0022087458 0.13259116 -0.2652646 0.06304644 0.022006188 -0.25222167 0.10318917 -0.052408017 -0.05515261 -0.1049052 0.07193313 -0.084773 0.11304832 0.093118116 0.010062111 -0.07267383 0.034740005 0.040364668 0.08259655 0.24469613 -0.03336328 -0.041133396 0.1839673 -0.038794477 -0.014121252 0.037638407 -0.17814915 -0.08369168 -0.05602233 0.008920143 -0.11609916 -0.09430483 0.19200264 0.20659116 -0.0308957 -0.09985136 -0.0057693236 -0.10499 0.020558821 -0.21413657 0.14591423
董 -0.02384877 0.30367935 -0.11770855 0.009935367 -0.029465362 -0.052790366 -0.040730983 0.053293616 -0.13384776 -0.09308562 0.2314271 -0.08863766 -0.0784623 0.11643315 -0.17632133 -0.023982054 -0.024779556 0.007243724 0.02011113 -0.0639376 -0.06592935 0.014314717 0.14672208 0.15554222 -0.18935351 0.05644558 0.0892699 -0.14177188 0.04692654 0.068099916 0.0088848695 -0.095292784 0.01114276 0.08296417 -0.03941562 0.06100073 -0.005126021 -0.064339176 0.019339927 -0.19367914 0.10879866 -0.3504876 0.12806223 -0.1405286 0.07327909 -0.0067852163 -0.16497345 -0.071875244 -0.22911552 -0.1872221 -0.1464103 -0.099612944 0.2681047 0.0819671 0.050821155 0.038881246 0.10960064 0.26920605 0.18217418 -0.123691104 -0.052493833 0.1366516 -0.05616045 -0.026046924 0.07710009 0.2335357 0.1306415 0.1281861 0.23984833 -0.18183275 0.26261672 0.030382771 -0.079583235 -0.086271346 0.14727238 -0.009316073 -0.12452066 0.03232547 0.0312139 -0.019466933 -0.047572613 0.18070944 0.028557949 0.022837847 0.0988749 -0.05618082 -0.03296507 0.089847706 -0.031648595 0.059565436 0.020743396 -0.00421742 -0.2528327 -0.20319375 -0.018935673 0.05151101 0.0031482154 -0.09546864 0.21345791 0.08884619 0.06977216 -0.25448668 0.3903846 -0.09127667 -0.2685921 0.19024868 -0.0511296 -0.13190857 -0.07112537 0.05445647 -0.018345475 0.001665375 -0.04716819 0.0014867923 0.045380436 0.0235655 0.11965364 -0.12599616 0.00010989417 -0.16934513 0.006651414 -0.02414914 0.051330287 -0.25389567 0.3185916 0.17668903 0.12628663 -0.05820744 -0.03641126 0.2321601 0.04457119 -0.04706236 -0.2012877 0.11411813 -0.07068443 -0.14140934 0.00024656934 -0.043663245 -0.028891418 -0.0167009 -0.037656322 0.047289044 -0.15325654 -0.27647397 0.049663316 0.0061626798 0.014432074 0.024115773 -0.06810184 0.16288757 -0.10710256 0.109110944 0.22280107 -0.13749906 -0.16831869 0.0061551756 -0.102416605 0.015097326 0.029625803 0.103434265 0.076785214 0.041695997 0.1267308 0.057900887 -0.18055935 -0.04923656 0.019394465 0.2145417 -0.012934394 -0.05846772 0.0033408513 -0.09549133 -0.05892221 -0.09704537 0.021707874 0.0249457 0.037342176 0.03827615 0.12813203 -0.04034765 -0.08652407 0.00013044376 -0.102723464 0.22574875 -0.08324208 -0.21937189 -0.26925027 -0.017346594 -0.11909641 0.09090211 0.13618249 0.038449645 0.06363833 0.17348109 -0.14044002 0.18466543 -0.26848704 0.027892662 0.2024246 -0.024054362 0.13984713 0.10493424 0.2096448 0.042102426 0.14956254 -0.027632738 -0.10844322 0.30856845 -0.13900828 0.047308028 0.22898287 -0.027863173 -0.03168582 -0.10456889 -0.018373571 0.17518227 0.102608405 0.061022572 0.09221839 0.23147692 -0.041295342 0.10962448 -0.12126102 0.17245713 -0.11575332 0.311894 0.12907341 -0.15570459 -0.014042017 -0.33871457 -0.10848108 -0.032698274 0.18452121 0.1025391 0.088248596 -0.16671966 0.10635728 -0.23878826 0.059263486 0.056122597 0.09292729 0.15469399 0.16846716 0.13466617 -0.036659263 0.20631811 -0.09331041 0.1401998 0.07288315 -0.07317999 0.1318909 0.13412872 -0.18893808 0.095850654 -0.057083167 0.037256226 -0.17682151 0.096736334 -0.06686847 -0.00078135036 0.1536446 -0.31099144 0.0665934 0.028915733 -0.30417347 0.1154443 -0.06539606 -0.060511112 -0.12202084 0.09579677 -0.09203325 0.1282828 0.1094307 0.0072033843 -0.087479495 0.032127652 0.04204141 0.09880721 0.2985901 -0.03706719 -0.04569242 0.21764395 -0.047072593 -0.012589168 0.04375162 -0.20077553 -0.098271914 -0.07205229 0.0054869056 -0.13362348 -0.109131314 0.23443569 0.24559735 -0.044552132 -0.10617739 -0.0037042673 -0.11897001 0.018891923 -0.24870811 0.17455882
去 -0.021597471 0.24411191 -0.09877084 -0.002449697 -0.009687117 -0.039111797 -0.024550255 0.033630528 -0.10947306 -0.07451638 0.20381805 -0.08643631 -0.07281261 0.12114262 -0.1392544 -0.0076745003 -0.030595688 0.025079703 0.0058034835 -0.044333227 -0.03934807 0.007403482 0.10888123 0.1378253 -0.13608982 0.03900337 0.07748054 -0.116184354 0.016376195 0.07100545 0.009849467 -0.08669316 0.008267637 0.06196984 -0.018235058 0.051036138 -0.008416902 -0.050712366 0.014355261 -0.16225104 0.07840295 -0.26908657 0.100531496 -0.12762327 0.08519072 -0.024857303 -0.15984093 -0.051528245 -0.17490351 -0.16540845 -0.09795846 -0.092870556 0.21098363 0.078085594 0.038318068 0.024462407 0.07683959 0.1953305 0.16330795 -0.093786255 -0.0457749 0.12868875 -0.054611623 -0.04881601 0.05209895 0.18574521 0.0955472 0.09765015 0.20632677 -0.1547721 0.2449914 0.007891086 -0.060161006 -0.08298556 0.11331231 -0.0020133366 -0.09176731 0.011235405 0.012140459 -0.022265011 -0.021171343 0.15128349 0.023029448 0.0347776 0.10303506 -0.045947228 -0.046029914 0.08817033 -0.025403652 0.0670419 0.024003757 -0.016686037 -0.20692438 -0.17171918 -0.008447156 0.021712832 -0.0013333632 -0.061511207 0.17788292 0.07581501 0.06751161 -0.20720834 0.3341831 -0.07526521 -0.22513874 0.14089859 -0.041190885 -0.11156146 -0.059828863 0.060042854 -0.0057963096 0.0067180092 -0.050276447 -0.0070335306 0.035628542 0.0062021106 0.0995902 -0.10659691 -0.012409869 -0.12876484 0.006097973 -0.034419257 0.039367694 -0.2015849 0.25960317 0.16342872 0.100802794 -0.05671318 -0.032971468 0.18777142 0.03267379 -0.05280168 -0.18146488 0.11134892 -0.064844936 -0.11745204 -0.0036492366 -0.023889473 -0.038006857 -0.015958408 -0.024668263 0.03676738 -0.11352696 -0.23176374 0.055654198 0.013302942 0.017280158 0.027123792 -0.06610737 0.13608249 -0.09993723 0.10903164 0.1896966 -0.10110251 -0.1444501 -0.0018356823 -0.07451029 0.00479831 0.020830518 0.08045299 0.07474096 0.028172573 0.112618975 0.04972768 -0.16609389 -0.05280304 0.019590558 0.1720096 -0.010453565 -0.050773967 -0.015283595 -0.099901654 -0.061452333 -0.09075612 0.02257009 0.030448433 0.025626382 0.010986687 0.09914118 -0.028087385 -0.060184307 -0.011133239 -0.08402991 0.17833082 -0.07596445 -0.17928717 -0.22171973 -0.016709594 -0.0860748 0.066333085 0.13269988 0.04308576 0.058091648 0.16146404 -0.1323322 0.15581305 -0.23665762 0.028621424 0.18368284 -0.032433994 0.10281455 0.093926266 0.17474684 0.03289252 0.1289131 -0.028493041 -0.08400737 0.26644254 -0.119438834 0.048783835 0.21383275 -0.019857915 -0.038070574 -0.0835122 -0.0195223 0.15661207 0.07274448 0.039024305 0.06998093 0.17918612 -0.043022975 0.10667024 -0.107486844 0.13796191 -0.11613099 0.26826662 0.11571576 -0.13756266 -0.0112717915 -0.27811125 -0.10674443 -0.008187008 0.15640865 0.09822909 0.072803654 -0.14740449 0.10570109 -0.20799552 0.056744527 0.038045563 0.08353394 0.13735773 0.1534331 0.12166353 -0.038874064 0.18925546 -0.08993726 0.12778142 0.060194116 -0.06571026 0.11586817 0.114086926 -0.17019615 0.0931371 -0.043063603 0.047208335 -0.13527648 0.08935725 -0.062308796 -0.0097287055 0.121373825 -0.26986188 0.049895298 0.0069438154 -0.2502881 0.115223095 -0.04483219 -0.06507874 -0.093696065 0.05807369 -0.08160107 0.1217088 0.09964874 0.020169012 -0.06704463 0.03904361 0.06452011 0.08911002 0.25632888 -0.033676513 -0.049757197 0.18406168 -0.032131594 -0.007185241 0.04140926 -0.19444732 -0.07934951 -0.05053084 0.005573904 -0.112695925 -0.09242113 0.17109875 0.20781341 -0.039560024 -0.1087676 -0.0016728065 -0.10553249 0.017910937 -0.2072642 0.15147649
也 -0.02180344 0.2779684 -0.10721966 0.00246316 -0.019962925 -0.047339875 -0.030460415 0.04355568 -0.12243331 -0.084397145 0.22418675 -0.0888206 -0.07685073 0.124473624 -0.15689331 -0.014901674 -0.031599097 0.017555702 0.012457825 -0.0524706 -0.047821827 0.013398792 0.12955478 0.14534949 -0.16259904 0.04860907 0.08812696 -0.12747629 0.027074749 0.07435099 0.009918362 -0.100196965 0.0066608745 0.07051428 -0.028272271 0.05581429 -0.0056877984 -0.05869279 0.016278468 -0.18228889 0.09134039 -0.31105652 0.10985264 -0.13526498 0.08851162 -0.020927826 -0.16863555 -0.065026 -0.20394583 -0.18543491 -0.11753941 -0.09988568 0.24262445 0.08710979 0.04228322 0.030910842 0.08859448 0.22722441 0.17910281 -0.10695335 -0.051463854 0.1382761 -0.060029518 -0.042952064 0.060794007 0.20856965 0.10904968 0.112903535 0.22365779 -0.16811916 0.26577848 0.016292796 -0.06777236 -0.08713702 0.13289484 -0.008704555 -0.105809316 0.01992721 0.017887788 -0.025874987 -0.031486575 0.16854957 0.02556147 0.034266166 0.104559526 -0.058870636 -0.043635923 0.09452434 -0.03143224 0.06963168 0.024351759 -0.011962337 -0.23562552 -0.18470292 -0.012535941 0.035734423 0.0014958966 -0.079125464 0.19488163 0.085987195 0.07384565 -0.23380516 0.3686098 -0.08735524 -0.25217 0.16439937 -0.04648856 -0.1223632 -0.06659251 0.06519978 -0.010631888 0.0050311913 -0.055539556 -0.0035600595 0.041612312 0.013590338 0.11329814 -0.11949234 -0.0049685556 -0.15174718 0.0075439326 -0.033914175 0.04223727 -0.22358406 0.2936283 0.1742846 0.11502423 -0.062263437 -0.03704244 0.20880473 0.03669612 -0.049289774 -0.20183471 0.121221684 -0.075149745 -0.13603105 0.0011179558 -0.03320411 -0.037654687 -0.016185101 -0.0333962 0.043007016 -0.1340648 -0.25407556 0.052057486 0.011799131 0.01744425 0.024269978 -0.063143335 0.15217161 -0.111770906 0.11310543 0.20508975 -0.11787508 -0.16449013 -0.00051433407 -0.086796775 0.010750124 0.02640155 0.088398114 0.07729621 0.03497349 0.11718516 0.057761367 -0.1860939 -0.05546194 0.02096192 0.19232081 -0.013773654 -0.055641886 -0.003926721 -0.1051172 -0.066016406 -0.09695505 0.026264308 0.030973554 0.03037041 0.021897264 0.11462518 -0.04001551 -0.07068704 -0.007858599 -0.0953812 0.20560671 -0.08552788 -0.20493108 -0.25338605 -0.016290626 -0.10124487 0.08328747 0.14411224 0.04393075 0.06310977 0.17281388 -0.14066195 0.18056838 -0.2607253 0.028015919 0.19970237 -0.03343131 0.11979292 0.10026657 0.1945074 0.03271827 0.14460413 -0.031369414 -0.09616533 0.29581594 -0.13049333 0.048028074 0.23117621 -0.021702943 -0.03913446 -0.09548892 -0.01915714 0.16908468 0.08355952 0.046093214 0.08349351 0.2073996 -0.043590777 0.1107129 -0.11877794 0.16031362 -0.12122869 0.29427022 0.12171622 -0.15411617 -0.012723942 -0.30992848 -0.11536842 -0.01781361 0.17497185 0.108538546 0.08470442 -0.16003563 0.11091245 -0.23393248 0.054707915 0.040743995 0.09033298 0.14942245 0.16329305 0.13009576 -0.041894525 0.2034505 -0.09855498 0.13726078 0.0715278 -0.0709615 0.12750055 0.12867968 -0.18747436 0.09412255 -0.052391417 0.041205805 -0.1535052 0.0994404 -0.06483422 -0.006069012 0.14454325 -0.2946071 0.057502072 0.016495343 -0.27968013 0.12446435 -0.052696694 -0.06973604 -0.1099658 0.07274854 -0.09219876 0.12921481 0.11065129 0.01768177 -0.07710807 0.04061724 0.061191875 0.09387808 0.28146994 -0.037807293 -0.05347522 0.2045007 -0.03684256 -0.010760684 0.04139082 -0.20554331 -0.089187 -0.06014114 0.007871277 -0.1279491 -0.10640505 0.20148757 0.22879007 -0.0394248 -0.11808922 -0.004368158 -0.1157722 0.02334083 -0.23720504 0.16409467
都 -0.025121102 0.32889137 -0.120974265 0.009065974 -0.03020683 -0.05552439 -0.037654478 0.05595043 -0.14762083 -0.102762245 0.25362974 -0.09887464 -0.08757222 0.13782908 -0.18951717 -0.026983926 -0.03502909 0.013904469 0.018648729 -0.057672348 -0.060356546 0.016454326 0.15280291 0.16087715 -0.19923891 0.06049167 0.10776757 -0.1469446 0.040308654 0.08113334 0.013897229 -0.11386252 0.0071626296 0.082281075 -0.035258148 0.0636605 -0.008140999 -0.064789884 0.017233903 -0.20840676 0.109874696 -0.37078378 0.13598162 -0.15396202 0.09159937 -0.01923704 -0.18928505 -0.080967955 -0.24643792 -0.2124624 -0.14794682 -0.11024508 0.28695768 0.09690098 0.050673246 0.041257937 0.107598156 0.27401194 0.20272073 -0.12721558 -0.056720372 0.15246557 -0.06138305 -0.0375629 0.075880066 0.2426601 0.13266575 0.13543196 0.25619262 -0.1970185 0.29948917 0.021307575 -0.080147006 -0.09541354 0.15607719 -0.008906401 -0.12743732 0.03318106 0.030842494 -0.02530739 -0.046095762 0.19328742 0.028576715 0.033609636 0.113043144 -0.06619432 -0.04624613 0.10439293 -0.034493897 0.07359962 0.026145147 -0.00738584 -0.27350497 -0.21686311 -0.019394904 0.052966047 0.0012369546 -0.09880163 0.22531478 0.10146584 0.08127455 -0.2715659 0.4234589 -0.10480208 -0.29124048 0.2034693 -0.054154035 -0.14291707 -0.076251745 0.072403304 -0.018394575 0.004733612 -0.055637248 0.0017270633 0.047331788 0.022421267 0.13157745 -0.14186367 -0.0023509045 -0.17741288 0.012899888 -0.030071856 0.05085859 -0.26296866 0.34873617 0.19886683 0.13722369 -0.07047087 -0.043982573 0.24769998 0.04271377 -0.05254913 -0.2266374 0.13505387 -0.08297341 -0.15814005 0.0045010364 -0.03953283 -0.03905467 -0.021397447 -0.038428716 0.046618752 -0.16193828 -0.2900676 0.050491624 0.015513694 0.019860832 0.02279494 -0.07056325 0.17481144 -0.12407383 0.12498941 0.23393044 -0.13945699 -0.19053674 -0.0036540746 -0.10284562 0.011964516 0.027903987 0.10485733 0.08369432 0.044813097 0.13066782 0.06285424 -0.20649387 -0.05856861 0.019936984 0.2273497 -0.01593611 -0.06512107 -0.0009810966 -0.111369185 -0.06818973 -0.108275644 0.026115272 0.02677029 0.031094383 0.028762285 0.13952725 -0.050314326 -0.08589138 -0.0051184804 -0.115810834 0.2430533 -0.099833004 -0.24369487 -0.29225153 -0.016034734 -0.12124078 0.09874443 0.1592868 0.047123972 0.07202 0.1897579 -0.15888244 0.2073549 -0.2977323 0.03187815 0.2272136 -0.031120678 0.14451252 0.11332104 0.2229621 0.04029848 0.16987085 -0.030693596 -0.113862254 0.33815682 -0.15201725 0.055428796 0.25995958 -0.028838696 -0.04294095 -0.10779291 -0.021003919 0.19347411 0.10131329 0.053430986 0.10280561 0.24300522 -0.046030194 0.1220509 -0.13560264 0.19019058 -0.13353851 0.34157115 0.13959606 -0.17522068 -0.019505087 -0.3633209 -0.121792585 -0.028972333 0.2043373 0.12015254 0.1011198 -0.18139045 0.12339745 -0.26647192 0.0636528 0.05155398 0.10420041 0.17132273 0.1870538 0.15163139 -0.044783242 0.22532047 -0.10651015 0.1525029 0.07966684 -0.08052681 0.14931786 0.14690012 -0.21004024 0.10523568 -0.061057474 0.043837044 -0.18173034 0.1087179 -0.0747794 -0.0007910901 0.17167412 -0.34197447 0.07671602 0.02766874 -0.32642332 0.13422807 -0.065873854 -0.0759082 -0.13258915 0.09310835 -0.1052396 0.14531894 0.1217595 0.015649993 -0.08963733 0.043224793 0.058497753 0.1075537 0.32218045 -0.039740667 -0.057100758 0.23716019 -0.048489306 -0.015628353 0.04597929 -0.23081185 -0.10676758 -0.07270739 0.009478167 -0.14597203 -0.11923219 0.24165134 0.26904696 -0.04303431 -0.12788264 -0.0032649764 -0.13377394 0.025985215 -0.27502355 0.18767047
给 -0.0222196 0.286962 -0.10831311 0.007450116 -0.024913244 -0.05120869 -0.032864247 0.05114968 -0.1284176 -0.090221874 0.2195958 -0.085691355 -0.07786635 0.11702636 -0.16328874 -0.023389677 -0.03109556 0.006164019 0.018776327 -0.053059477 -0.054698266 0.014441847 0.13263895 0.14165038 -0.17456596 0.0514413 0.09077409 -0.12979737 0.037546813 0.07053999 0.011498272 -0.094542556 0.006964612 0.0733183 -0.033763472 0.05786621 -0.007607547 -0.05781324 0.019334853 -0.18145871 0.097736016 -0.32468694 0.11651618 -0.13366142 0.07744791 -0.012851981 -0.1645929 -0.0711245 -0.22111814 -0.18195921 -0.13079645 -0.09486809 0.2548266 0.08376223 0.045904275 0.038039993 0.09769915 0.24515021 0.17438649 -0.115091905 -0.051598415 0.13100676 -0.05312547 -0.028948013 0.06736557 0.21404621 0.11821642 0.12196464 0.22742204 -0.17045271 0.25975367 0.024764622 -0.07399358 -0.08140046 0.14036727 -0.008251158 -0.11140173 0.028242318 0.025778703 -0.020335998 -0.044094183 0.16503225 0.024698747 0.026816312 0.09513614 -0.059544034 -0.0407278 0.092029914 -0.028346187 0.059912007 0.02288607 -0.0044065625 -0.23855889 -0.19097975 -0.02017047 0.04379994 0.0013055129 -0.09102624 0.19790718 0.08586156 0.06755871 -0.23678991 0.36494812 -0.089391224 -0.25414193 0.180052 -0.047896363 -0.123342626 -0.06572554 0.060507305 -0.015700199 0.0030566724 -0.044805393 0.002995029 0.041571427 0.019474385 0.11180481 -0.12221938 -0.004924341 -0.15647323 0.009310422 -0.021981312 0.049366493 -0.23311347 0.30322352 0.17514107 0.11546398 -0.057795335 -0.03637448 0.2171951 0.039696835 -0.04500323 -0.1957035 0.11513243 -0.07080567 -0.13811813 0.0032758266 -0.036270276 -0.03398629 -0.017392732 -0.0344881 0.040033102 -0.14562477 -0.25609604 0.046249807 0.009587654 0.020386701 0.02152076 -0.058394283 0.15394394 -0.10727776 0.10747535 0.20622797 -0.12637149 -0.16509736 -0.0017543815 -0.09432092 0.009800403 0.020998169 0.091892 0.076089606 0.040803444 0.114616275 0.050711017 -0.18000561 -0.05009892 0.01569142 0.1976707 -0.014615193 -0.054031316 0.0008329831 -0.094904676 -0.056532983 -0.09171399 0.018202111 0.022743396 0.031656563 0.029229678 0.12379249 -0.04143557 -0.075984925 -3.1451902e-05 -0.09936267 0.21151853 -0.08670848 -0.21209009 -0.25422135 -0.011244111 -0.109737985 0.08757682 0.13671917 0.04053837 0.06246294 0.16462107 -0.13530724 0.17905505 -0.25902078 0.023333116 0.19346115 -0.027602669 0.12652606 0.100212015 0.1963956 0.034754727 0.14684473 -0.025852129 -0.10091449 0.29115808 -0.13021263 0.045183726 0.22171773 -0.028717862 -0.033427224 -0.09367251 -0.014699603 0.16802153 0.09222598 0.052017894 0.08854685 0.21461304 -0.039987743 0.10282116 -0.11458664 0.16685118 -0.1164181 0.2959044 0.1205523 -0.15123133 -0.015423263 -0.31584498 -0.10370348 -0.02518564 0.17730522 0.100236006 0.088327534 -0.15600425 0.10407315 -0.2295382 0.058868833 0.04813653 0.088888146 0.14787905 0.16165464 0.13319956 -0.03996468 0.19482139 -0.09065008 0.13035232 0.066116415 -0.07104704 0.124619104 0.12857528 -0.18475008 0.09186086 -0.05247412 0.038183954 -0.16089691 0.09404602 -0.062329113 0.0031752724 0.14750837 -0.29670966 0.06563557 0.02400635 -0.285865 0.1163948 -0.059196472 -0.06424666 -0.116936415 0.084330015 -0.09479901 0.12647322 0.10557597 0.010310716 -0.07983803 0.035965543 0.049650084 0.09194611 0.28160137 -0.03640125 -0.04887952 0.20683244 -0.04460585 -0.0134346755 0.03999679 -0.1952814 -0.09272285 -0.06550298 0.0099154115 -0.12513733 -0.104275934 0.21427432 0.23284367 -0.035832025 -0.110855915 -0.0026942235 -0.1183858 0.021977777 -0.24167928 0.16608419
不 -0.025778301 0.3060853 -0.11161083 0.00707866 -0.027354088 -0.054624733 -0.03501056 0.053515103 -0.13663317 -0.09567561 0.23578662 -0.09387061 -0.08103202 0.1300248 -0.17784867 -0.026961401 -0.03020312 0.0148647195 0.015936619 -0.055398893 -0.05927157 0.012813883 0.14113393 0.1564867 -0.18333183 0.053502377 0.09819823 -0.13623023 0.037036665 0.07469117 0.008744324 -0.10357055 0.0030496845 0.07628051 -0.035756607 0.06280292 -0.00945238 -0.061890215 0.020069398 -0.19753245 0.10203411 -0.34350118 0.12576313 -0.14314395 0.0882178 -0.017389467 -0.17948793 -0.07133673 -0.23097914 -0.19969583 -0.13607934 -0.10210362 0.26984456 0.092909805 0.04582216 0.035550505 0.10201839 0.25811657 0.19158943 -0.12300201 -0.058219247 0.14593634 -0.059272222 -0.03836236 0.07393214 0.23064679 0.124050885 0.12962908 0.24140856 -0.18434645 0.28284508 0.020918384 -0.0753083 -0.09052754 0.14386967 -0.007849364 -0.11550745 0.028840825 0.026093967 -0.025648316 -0.03988455 0.17702805 0.028548202 0.032244492 0.108862616 -0.061638054 -0.04357077 0.09943248 -0.03274751 0.07215254 0.023946373 -0.006887282 -0.2568927 -0.20629902 -0.018517887 0.041535795 -0.0009986312 -0.092966266 0.21254693 0.09373124 0.078235395 -0.25915205 0.39528617 -0.09995048 -0.27471456 0.18827413 -0.049603134 -0.13503037 -0.07205213 0.066006795 -0.012075498 0.0056614457 -0.051310576 0.0016443848 0.04344456 0.01849216 0.1212008 -0.13425587 -0.004532872 -0.16716771 0.010602891 -0.027896449 0.04875328 -0.24703564 0.32425466 0.18795702 0.122661754 -0.06473479 -0.04450357 0.23216188 0.040037915 -0.051490616 -0.21306275 0.12770802 -0.07526348 -0.14937249 0.0038056031 -0.03812926 -0.038273614 -0.015452899 -0.034687478 0.046337966 -0.15537025 -0.27303827 0.0512547 0.009670251 0.019834073 0.021783108 -0.0683244 0.16365288 -0.11616342 0.11841018 0.22217187 -0.13174763 -0.17866233 0.0013453276 -0.09849812 0.012257115 0.027014157 0.09809073 0.08305795 0.043042943 0.12352204 0.057466038 -0.19776464 -0.056073036 0.017844357 0.21355943 -0.019229673 -0.060647428 -0.0066474457 -0.10416642 -0.06435851 -0.101552375 0.023729147 0.028423646 0.03444978 0.027797006 0.1285618 -0.04861007 -0.080523334 -0.0050840364 -0.1033518 0.22677179 -0.09533632 -0.22432455 -0.2765223 -0.018294055 -0.115616225 0.089413315 0.15428834 0.046219587 0.06806973 0.17831838 -0.15036125 0.19637054 -0.2748454 0.026268361 0.2125557 -0.030614024 0.13499993 0.106273495 0.20821828 0.037768587 0.1571529 -0.030140271 -0.105245106 0.31353024 -0.13829082 0.0503666 0.24354097 -0.030079551 -0.03542935 -0.10537167 -0.021584691 0.18120433 0.09258011 0.05245676 0.095462255 0.22616763 -0.0427999 0.11832049 -0.12455683 0.1768411 -0.12874657 0.3206201 0.13144132 -0.16169873 -0.01177404 -0.33961675 -0.120551206 -0.02389037 0.18932581 0.112834476 0.09126841 -0.17628415 0.11688216 -0.24943665 0.06421791 0.048425406 0.09370946 0.15661229 0.17404307 0.14436154 -0.043268833 0.2140032 -0.10038615 0.14170031 0.07398613 -0.07840397 0.14031067 0.14035901 -0.20278619 0.10093664 -0.05726515 0.04430577 -0.17098239 0.104554005 -0.06979336 -0.0017704717 0.16013946 -0.31955257 0.06488793 0.022889089 -0.30647874 0.12570283 -0.060385477 -0.071049444 -0.1239068 0.08385807 -0.09783933 0.13494678 0.116431214 0.015021661 -0.08326992 0.040344372 0.06019493 0.10373936 0.3044384 -0.03823853 -0.055175874 0.22309673 -0.04334347 -0.016617596 0.047848627 -0.21770231 -0.097208664 -0.07019896 0.009947631 -0.13517687 -0.11205173 0.2244964 0.25176618 -0.0409969 -0.12211554 -0.003894358 -0.12811369 0.022841861 -0.25593993 0.17598832
企业家 -0.025351143 0.28168046 -0.10501406 0.015465692 -0.030636577 -0.051773023 -0.03279637 0.061213903 -0.12881356 -0.08380648 0.20523632 -0.07460475 -0.07287637 0.097997464 -0.16545215 -0.028497538 -0.027582606 -0.0056180446 0.018425105 -0.05427298 -0.060581528 0.017966121 0.13368842 0.13385859 -0.17794056 0.0468838 0.09041522 -0.1307588 0.05048417 0.06330445 0.013953158 -0.08494539 0.0005421265 0.072052024 -0.048600692 0.05590447 0.0047465144 -0.061209694 0.014938217 -0.17521471 0.100521445 -0.32555035 0.12064042 -0.12979306 0.058688786 0.0035671284 -0.15039851 -0.07028958 -0.22005396 -0.17232291 -0.14582969 -0.09803472 0.25359347 0.074263744 0.049452357 0.04079943 0.0955762 0.25264925 0.16212264 -0.11356416 -0.05768702 0.1161727 -0.04133185 -0.008021947 0.06646473 0.2061525 0.124621265 0.13237655 0.20950864 -0.17108545 0.2315827 0.034462836 -0.076990254 -0.07207433 0.13895309 -0.006769493 -0.10786932 0.045902878 0.037521813 -0.016499 -0.050867695 0.16248725 0.018726327 0.011216692 0.0808117 -0.057979144 -0.02307158 0.08031269 -0.020782614 0.044521235 0.020956151 0.0030634347 -0.23529904 -0.17936978 -0.029756296 0.06232465 -0.0023074006 -0.100472465 0.19436125 0.07427613 0.05890502 -0.23328957 0.35571536 -0.08452796 -0.24746446 0.18869908 -0.045977384 -0.113517046 -0.0573873 0.043643616 -0.010870804 -0.0043865116 -0.037772182 0.0038283165 0.035963017 0.028779933 0.10553035 -0.12329315 0.0018367327 -0.15602504 0.0074235634 -0.018621163 0.04381888 -0.23294249 0.30601934 0.16499771 0.11183551 -0.046990853 -0.035562314 0.22125597 0.03499031 -0.033621795 -0.17642419 0.0999033 -0.061665926 -0.14042422 0.0090666795 -0.04395789 -0.013861275 -0.016768776 -0.039946053 0.041674547 -0.148159 -0.24845585 0.037397146 0.0002982343 0.009984641 0.01178594 -0.04534912 0.15095696 -0.09341139 0.097791776 0.19595635 -0.12888978 -0.15569358 -0.0060220263 -0.09831267 0.015403239 0.027265204 0.092946 0.07533683 0.053292908 0.10356124 0.054078944 -0.15913406 -0.039614204 0.009184434 0.19030198 -0.015527912 -0.049668048 0.01777469 -0.07136459 -0.044430163 -0.08128861 0.010970561 0.018098691 0.04030964 0.041285045 0.12731387 -0.04992268 -0.074476935 0.003097449 -0.09861319 0.20515259 -0.085633434 -0.2115612 -0.24876596 -0.0015526441 -0.11325457 0.09314826 0.12190432 0.033419006 0.054755677 0.14807987 -0.123210825 0.18001583 -0.24160618 0.016031709 0.17193091 -0.016761854 0.13157234 0.09429191 0.1824229 0.03428694 0.13867301 -0.019227138 -0.09910062 0.2744246 -0.119242296 0.03962452 0.19243948 -0.028159468 -0.026449401 -0.09491432 -0.012255335 0.16254085 0.1006544 0.055867966 0.07854768 0.21178512 -0.039425876 0.09675002 -0.10522715 0.16479811 -0.09909778 0.28896835 0.11302852 -0.13168779 -0.015739115 -0.30549338 -0.088626854 -0.035236437 0.17509481 0.08715695 0.08809596 -0.14059512 0.09227388 -0.2121866 0.058512505 0.05399231 0.08329485 0.14072925 0.14059843 0.12711564 -0.029533133 0.17264244 -0.07638739 0.11545033 0.07145329 -0.061072916 0.11257817 0.13128659 -0.17722999 0.07717055 -0.052596238 0.03152053 -0.16324595 0.08281954 -0.050558075 0.011358884 0.14737874 -0.28225625 0.06306323 0.023533171 -0.27547607 0.10543364 -0.06647897 -0.048792828 -0.119189024 0.08864193 -0.08826415 0.1157999 0.098383084 -0.0006229949 -0.0823126 0.028499449 0.02919318 0.089662336 0.26593283 -0.023977982 -0.04536715 0.20871007 -0.05413266 -0.016074834 0.03312463 -0.17203969 -0.09153527 -0.065062806 0.017662005 -0.12656642 -0.090498194 0.23049265 0.22284284 -0.03682006 -0.10215201 0.0021676978 -0.11283588 0.021634653 -0.22876352 0.15773036
想 -0.020487074 0.22806548 -0.08894459 0.003152993 -0.013247014 -0.03646084 -0.02388494 0.03042506 -0.10271446 -0.06800878 0.19064681 -0.07725948 -0.06429322 0.107147865 -0.12579754 -0.007886091 -0.027408084 0.016706536 0.0066016247 -0.042588726 -0.03828449 0.010343879 0.101550095 0.123423 -0.12774433 0.03340526 0.0694134 -0.10043923 0.021672169 0.061879344 0.007654731 -0.08266717 0.004498761 0.05419049 -0.015401844 0.045521088 -0.00685328 -0.04627755 0.012366732 -0.14430766 0.0694364 -0.24912675 0.086399354 -0.11159064 0.0771908 -0.020986294 -0.14004017 -0.048618995 -0.15951064 -0.15047048 -0.093612134 -0.08445835 0.19707705 0.07351355 0.031270105 0.023370827 0.073103264 0.18168962 0.14890458 -0.08330308 -0.04332177 0.11298935 -0.052297965 -0.041361947 0.05332863 0.1698014 0.09040003 0.093788646 0.18349907 -0.138069 0.22574502 0.0117785735 -0.048859447 -0.0747598 0.10701105 -0.0033439726 -0.0870565 0.0125313215 0.010804282 -0.022274334 -0.02333077 0.1398726 0.025323583 0.032313682 0.085483216 -0.044179734 -0.039492924 0.08060324 -0.025531065 0.060331974 0.01691635 -0.008757084 -0.19363606 -0.15059906 -0.009207051 0.021977205 0.002101114 -0.06251948 0.16084798 0.067324 0.06421203 -0.19273682 0.30605516 -0.07470765 -0.20814967 0.12903547 -0.04182123 -0.10365434 -0.057000283 0.05820245 -0.008810199 0.0068222503 -0.048629135 -0.007529591 0.035153877 0.0070428047 0.0978125 -0.096315555 -0.008341101 -0.12130854 0.007872886 -0.03162255 0.03284022 -0.17732234 0.23882882 0.14722574 0.09290112 -0.05071124 -0.028001448 0.1729272 0.02908739 -0.045002148 -0.16853397 0.10402591 -0.064717375 -0.111390114 0.0014815332 -0.024248583 -0.03397192 -0.015018185 -0.026028387 0.03357482 -0.11005013 -0.20866828 0.047231697 0.009222053 0.016835982 0.022786124 -0.05746673 0.1264807 -0.09232407 0.098119795 0.17236528 -0.093632184 -0.13580859 -0.00019791325 -0.06569915 0.0065675667 0.019527422 0.07166391 0.06447531 0.02440279 0.09866967 0.050158687 -0.15583871 -0.048977815 0.018655375 0.15843733 -0.013208205 -0.05109776 -0.009612413 -0.08740304 -0.057514705 -0.08380727 0.02053074 0.028439643 0.019173298 0.013898372 0.09170269 -0.032190572 -0.05366017 -0.010180975 -0.07556848 0.1711515 -0.070733026 -0.1647937 -0.20949025 -0.016873416 -0.08354489 0.06533376 0.12475787 0.037002604 0.05290854 0.14731127 -0.117093705 0.14402705 -0.21675141 0.027369343 0.16497599 -0.030474594 0.09879606 0.08231303 0.15956958 0.030773234 0.116579056 -0.031319447 -0.07938996 0.24480063 -0.10632908 0.04304266 0.19529068 -0.017950125 -0.033271533 -0.07848632 -0.01954844 0.14050026 0.06662849 0.03651809 0.068409525 0.16742302 -0.037975796 0.094263956 -0.09824509 0.12778865 -0.104040414 0.24398397 0.10132351 -0.12723108 -0.011703277 -0.25554758 -0.09769678 -0.012706756 0.14185016 0.08795015 0.069512494 -0.13801478 0.094903335 -0.1919977 0.04828899 0.03452851 0.071118414 0.12463194 0.13833144 0.106259726 -0.035381597 0.16829601 -0.08319871 0.11321175 0.05448555 -0.059422266 0.10615611 0.105782375 -0.15506311 0.08304139 -0.043502055 0.036497734 -0.12212789 0.08495379 -0.057845134 -0.0073940037 0.115083985 -0.2427544 0.043628663 0.008702182 -0.23246811 0.10218621 -0.040915944 -0.056756508 -0.08793286 0.056581985 -0.0781947 0.10766732 0.09477495 0.018432595 -0.05842008 0.029204356 0.054719288 0.07853609 0.233893 -0.032679025 -0.04713674 0.16227977 -0.025274431 -0.008375003 0.038725268 -0.17393568 -0.07611686 -0.04773112 0.00092644565 -0.10064273 -0.08511562 0.15964545 0.18617983 -0.033182234 -0.09799146 -0.0064635794 -0.0930649 0.01943726 -0.19255312 0.13398866
还 -0.02861931 0.2991786 -0.10969277 0.012010275 -0.02627525 -0.05315905 -0.03101951 0.054726094 -0.13544084 -0.08872256 0.23211466 -0.09117243 -0.08040639 0.12791936 -0.17085205 -0.02986343 -0.026106779 0.017493395 0.018355595 -0.059286766 -0.060857106 0.012457514 0.1352341 0.15249397 -0.17892338 0.05683367 0.10028925 -0.13161093 0.03269351 0.072639346 0.0046748165 -0.0982898 0.001391458 0.07170824 -0.03870016 0.0623291 -0.009795981 -0.059367586 0.01772345 -0.19531876 0.10225822 -0.33949146 0.12178595 -0.14083149 0.08384303 -0.016033255 -0.17624332 -0.06729976 -0.22896698 -0.19685669 -0.13121022 -0.10513955 0.26953113 0.09124216 0.048370786 0.03568971 0.10465328 0.25470456 0.19157939 -0.12272504 -0.055950943 0.1401786 -0.05410711 -0.03662303 0.07393636 0.22750835 0.11864115 0.12675418 0.23718491 -0.18144712 0.27385414 0.019603092 -0.07955879 -0.08854897 0.13961253 -0.002267263 -0.11707052 0.028922616 0.025171243 -0.02583531 -0.040914897 0.17485477 0.030452408 0.027965557 0.11161283 -0.055865966 -0.037545472 0.09540145 -0.03154609 0.07081458 0.021420475 -0.0014047092 -0.25425965 -0.20168506 -0.021853361 0.041702364 0.0014573317 -0.09491 0.20792967 0.09429831 0.07923538 -0.25699875 0.39211378 -0.10148991 -0.27300808 0.18145114 -0.05131133 -0.13405277 -0.07305371 0.06585497 -0.009320306 0.0027508342 -0.049807463 0.003402437 0.044514783 0.021021862 0.117843434 -0.13309474 -0.0071997014 -0.1612609 0.009752647 -0.026382498 0.052627172 -0.24839768 0.3212207 0.18979236 0.12271174 -0.0631388 -0.04295925 0.22509846 0.042663883 -0.049714845 -0.2075056 0.12947679 -0.07649451 -0.14801893 -0.0019279015 -0.035297334 -0.03329439 -0.014035537 -0.036045935 0.041419335 -0.149498 -0.26731673 0.048211675 0.008155844 0.021489058 0.022737082 -0.062196363 0.16400172 -0.11606505 0.116060615 0.21785958 -0.13306013 -0.17360511 0.0031107296 -0.10070335 0.0126664685 0.02691098 0.09972154 0.084155954 0.044831313 0.12426004 0.054040853 -0.19049469 -0.057883546 0.015590816 0.21355288 -0.01604883 -0.057281554 -0.006891356 -0.104735956 -0.061265383 -0.10550289 0.024326684 0.030260378 0.03668645 0.02850844 0.13298851 -0.049683053 -0.082043104 -0.0070654163 -0.10544434 0.22518408 -0.093775384 -0.22306994 -0.2750659 -0.0166154 -0.11423518 0.09234684 0.15560816 0.044457037 0.06408469 0.17807911 -0.14546534 0.19384715 -0.2735652 0.022015002 0.21288595 -0.02968642 0.13687639 0.10784021 0.20686328 0.034267787 0.15292732 -0.03118718 -0.100209 0.31139833 -0.13585651 0.04707075 0.24416731 -0.031297486 -0.03317715 -0.10737956 -0.023731163 0.18003777 0.09194864 0.052342292 0.09550586 0.2264586 -0.042813357 0.11449415 -0.12267244 0.17656045 -0.1291837 0.31846637 0.13267109 -0.15850276 -0.007996266 -0.33433148 -0.12255956 -0.027696338 0.18930922 0.115012564 0.09294727 -0.17656592 0.11446203 -0.24904658 0.06268939 0.045838874 0.094451584 0.1559991 0.1700115 0.14455318 -0.04180085 0.21364045 -0.10179421 0.13793424 0.068006665 -0.07897476 0.13765341 0.13729605 -0.19949993 0.09859388 -0.05981083 0.044798773 -0.17075902 0.106003895 -0.06594662 -0.0014529026 0.15574385 -0.3148613 0.06427085 0.0232513 -0.303656 0.123102255 -0.059851784 -0.07043012 -0.12183275 0.085569575 -0.09913469 0.13640216 0.111898944 0.013144951 -0.08029128 0.03835192 0.061177403 0.10192795 0.29660076 -0.042657886 -0.051661666 0.22188953 -0.042190164 -0.016697237 0.048473354 -0.2153835 -0.09482651 -0.06664615 0.012026787 -0.13595986 -0.108623914 0.22038357 0.24830629 -0.04320516 -0.11883661 -0.006010859 -0.12658559 0.018304462 -0.25081152 0.17550074
企业 -0.023186175 0.28620827 -0.10628348 0.01273701 -0.029272137 -0.048683833 -0.034572445 0.05241655 -0.12885042 -0.08613479 0.21777171 -0.08364329 -0.077219136 0.11209925 -0.167318 -0.024317538 -0.030814031 0.004863561 0.018502759 -0.052416548 -0.05635316 0.016063595 0.13506672 0.14021698 -0.17347221 0.05145022 0.09245467 -0.13240135 0.041995954 0.069784574 0.012722288 -0.0942863 0.004354698 0.07228784 -0.039734095 0.054098535 0.00035131717 -0.059414398 0.015231313 -0.17944814 0.09736545 -0.3242173 0.12017297 -0.13088913 0.072538696 -0.0054154005 -0.15991242 -0.0704409 -0.21893068 -0.18364929 -0.13388398 -0.09709125 0.25172105 0.078206375 0.045998927 0.03825728 0.096842855 0.24316277 0.17117958 -0.11130009 -0.05426575 0.12898003 -0.049778815 -0.021115744 0.064135626 0.21081035 0.1171384 0.12253903 0.21717453 -0.17123291 0.25285214 0.024273297 -0.07185852 -0.0771388 0.13931485 -0.0071631647 -0.10992913 0.03577803 0.030670283 -0.019528588 -0.04365268 0.16745733 0.02327189 0.021485409 0.091899455 -0.059318658 -0.03503053 0.088587664 -0.026020069 0.058766633 0.021995224 -0.0025749425 -0.24140029 -0.18588752 -0.02081949 0.054023813 -0.0016272315 -0.09349678 0.19518901 0.084116995 0.06348832 -0.23602718 0.36842668 -0.089609474 -0.25071675 0.18291673 -0.048287977 -0.12097043 -0.06343642 0.05614291 -0.0132166175 0.0006339917 -0.045174718 0.0016760855 0.039797664 0.021323461 0.11306783 -0.121740356 -0.00027666605 -0.15737809 0.012228803 -0.026163979 0.042442326 -0.23046592 0.30602556 0.17094855 0.118194066 -0.055538107 -0.03710572 0.22063382 0.034344066 -0.041796185 -0.1879401 0.1129972 -0.070450604 -0.14119886 0.0039051624 -0.03835341 -0.028124351 -0.016175382 -0.035983413 0.042697836 -0.14434864 -0.25199205 0.042611685 0.008116726 0.015687408 0.013681818 -0.05430174 0.15259019 -0.102727786 0.102651015 0.20183992 -0.12616596 -0.16339497 -0.0065347506 -0.09184108 0.013495468 0.028476749 0.09116699 0.074743874 0.04683524 0.11209759 0.053926513 -0.17542905 -0.048624035 0.0144267045 0.19605088 -0.013747078 -0.052664336 0.006987368 -0.087055184 -0.05407104 -0.0892205 0.01713832 0.020672845 0.033745885 0.03228004 0.122715734 -0.048004072 -0.07474519 -0.0017321187 -0.101197734 0.21167192 -0.083988234 -0.2131504 -0.25303614 -0.00969042 -0.11161166 0.09042812 0.13179563 0.038161427 0.05973079 0.15821457 -0.13473965 0.18477598 -0.25275573 0.02528074 0.18808557 -0.023402562 0.12779239 0.099856645 0.1867561 0.034113735 0.14371851 -0.023157854 -0.09632331 0.2854723 -0.12937978 0.044089418 0.21440807 -0.028675904 -0.032084394 -0.09410051 -0.015503843 0.16485837 0.09240335 0.049455352 0.08364817 0.21051586 -0.039006643 0.10260774 -0.11321047 0.16777666 -0.10986251 0.2967362 0.11884166 -0.14733544 -0.015231083 -0.31402838 -0.101366445 -0.027130958 0.1776738 0.09798339 0.08806283 -0.15119113 0.10210775 -0.22629139 0.058466673 0.046997868 0.08897729 0.14700295 0.15578015 0.1310427 -0.03576454 0.1900311 -0.08523027 0.12458921 0.0729117 -0.06414701 0.12713063 0.13170296 -0.1811721 0.0881057 -0.054442883 0.033376202 -0.16023754 0.08927708 -0.05719862 0.0039642192 0.14997743 -0.2928908 0.0671634 0.020716019 -0.28133276 0.1142691 -0.059904404 -0.058595773 -0.119371176 0.082082234 -0.09099827 0.12065938 0.10315476 0.004153807 -0.08119252 0.03665016 0.040328253 0.09488018 0.27644348 -0.031006703 -0.04576031 0.21001652 -0.046804797 -0.013348954 0.036559325 -0.19272012 -0.09120109 -0.06689914 0.015015718 -0.1254397 -0.10007564 0.2200796 0.22854462 -0.03884518 -0.110054135 -0.003932053 -0.117713034 0.020857308 -0.23587807 0.16261145
